{"learner":{"attributes":{"scikit_learn":"{\"_estimator_type\": \"regressor\"}"},"feature_names":["pitcherHand_L","hitterHand_L","velo","velo_diff","HAA","extension","adj_x0","z0","z0_ratio","spin_rate","adj_spin_dir","ssw","HB_acc","IVB_acc","Break_acc"],"feature_types":["c","c","float","float","float","float","float","float","float","float","float","float","float","float","float"],"gradient_booster":{"model":{"gbtree_model_param":{"num_parallel_tree":"1","num_trees":"100"},"iteration_indptr":[0,1,2,3,4,5,6,7,8,9,10,11,12,13,14,15,16,17,18,19,20,21,22,23,24,25,26,27,28,29,30,31,32,33,34,35,36,37,38,39,40,41,42,43,44,45,46,47,48,49,50,51,52,53,54,55,56,57,58,59,60,61,62,63,64,65,66,67,68,69,70,71,72,73,74,75,76,77,78,79,80,81,82,83,84,85,86,87,88,89,90,91,92,93,94,95,96,97,98,99,100],"tree_info":[0,0,0,0,0,0,0,0,0,0,0,0,0,0,0,0,0,0,0,0,0,0,0,0,0,0,0,0,0,0,0,0,0,0,0,0,0,0,0,0,0,0,0,0,0,0,0,0,0,0,0,0,0,0,0,0,0,0,0,0,0,0,0,0,0,0,0,0,0,0,0,0,0,0,0,0,0,0,0,0,0,0,0,0,0,0,0,0,0,0,0,0,0,0,0,0,0,0,0,0],"trees":[{"base_weights":[-7.554794E-5,-1.2364576E-3,1.4982748E-2,2.0637508E-2,-1.5383187E-3,7.5472877E-3,3.067684E-2,3.5767503E-2,1.0293857E-2,-4.9187415E-3,-0E0,-0E0,2.319152E-2,5.4738596E-2,2.268565E-2,-0E0,1.4289362E-2,-0E0,1.5265263E-2,-0E0,-8.510251E-3,-1.0362826E-3,1.7075151E-2,-6.1424817E-3,6.640688E-3,2.5331933E-2,-0E0,-0E0,1.9857038E-2,-0E0,8.912281E-3,-0E0,1.858388E-2,-9.13267E-3,1.03314435E-2,-5.6475485E-3,-1.3705441E-2,2.8954109E-3,-3.1836997E-3,1.4041414E-2,1.1831814E-2,-0E0,-3.2891694E-3,-0E0,1.5521853E-2,1.6209746E-2,6.413626E-3,-0E0,6.8315533E-3,-7.062187E-3,-1.6827192E-2,1.481683E-2,-8.265299E-3,-6.922153E-3,-0E0,-0E0,-1.500905E-2,-6.5372133E-4,1.6811974E-2,-5.0236112E-3,3.6697094E-3,8.548114E-3,2.0640098E-2,-0E0,1.7230282E-2,-4.696365E-3,-1.7240822E-2,-0E0,-6.0675126E-3,1.0856669E-3,2.2368966E-2,-0E0,-5.199446E-3,-0E0,-7.962068E-3,-2.436227E-3,2.1299447E-3,-1.654692E-2,-1.9223984E-4,1.0367914E-2,-3.2342442E-3,9.921327E-3,1.3745064E-2,7.2451885E-4,-7.3103965E-3,1.6229027E-3,5.0735353E-3,-0E0,9.804628E-3,-0E0,7.368082E-3,6.3819527E-3,-0E0,-7.930901E-3,-0E0,-1.8971585E-2,-0E0,9.108018E-3,-5.6771715E-3,3.2026738E-2,7.437297E-3,-3.741579E-3,6.3743168E-3,-1.0870434E-2,-4.7258586E-3,-1.17318705E-2,-2.1854412E-2,1.288958E-3,6.4732675E-3,-4.514788E-3,2.6447698E-3,2.4298993E-3,1.6094873E-2,1.7380147E-3,-1.4637253E-3,-4.6174927E-3,-9.01764E-3,-2.5466393E-4,6.2778704E-3,-0E0,4.1561136E-3,-0E0,-9.530269E-3,-2.1095315E-2,-0E0,-7.0732986E-3,1.9549247E-2,-1.1445475E-2,-0E0,-0E0,3.351458E-2,1.7242583E-2,-0E0,-9.886049E-3,3.0016556E-4,1.4240463E-2,-0E0,-1.1572795E-2,-0E0,-0E0,-6.968756E-3,-1.2863844E-2,-0E0,-0E0,-2.2638422E-2,6.241972E-3,-0E0,1.1751284E-3,-6.751845E-3,6.5318854E-3,-0E0,8.759262E-3,-1.6804569E-3,1.8364297E-2,-0E0,4.6625636E-3,-4.0129907E-4,-0E0,-5.857635E-3,-6.6522807E-3,-1.3232108E-2,1.4269965E-3,-2.6673449E-3,4.526097E-3,1.2384051E-3,-3.7757817E-3,-0E0,-7.6057417E-3,-0E0,-7.4192174E-3,-0E0,-0E0,7.321222E-3,-0E0,-5.7118493E-3,-0E0,1.2070416E-2,7.186871E-3,-0E0,-0E0,-5.7791425E-3,7.1517574E-3,-0E0,-4.1229716E-3,-0E0,-0E0,-2.9881722E-3,-0E0,-4.63363E-3,-0E0,-7.7663115E-3,-0E0,5.033883E-3,-1.3845746E-3,1.8102025E-3,-2.7041708E-3,7.631235E-5,-0E0,4.517618E-3,-2.5740175E-3,5.409701E-4,6.7925537E-3,-0E0,6.539319E-3,-0E0,2.9199051E-3,-0E0,1.2859601E-3,-7.606296E-4,-2.3232824E-3,9.508647E-4,-3.9427807E-3,-9.535812E-4,-3.0371596E-3,-6.4410217E-4,-0E0,-4.6982137E-3,9.6773973E-4,-2.087211E-3,1.6928692E-3,-3.14302E-4],"categories":[0,0,0,0,0],"categories_nodes":[6,25,98,118,147],"categories_segments":[0,1,2,3,4],"categories_sizes":[1,1,1,1,1],"default_left":[0,0,0,0,1,0,1,0,0,0,0,0,0,0,0,0,0,0,0,0,0,0,0,0,0,1,0,0,0,0,0,0,0,1,0,0,1,0,0,0,0,0,0,0,0,0,0,0,0,0,0,0,0,1,0,0,0,0,0,0,0,0,0,0,0,0,1,0,0,0,0,0,0,0,0,0,0,1,0,0,0,0,0,0,0,0,0,0,0,0,0,0,0,0,0,0,0,0,1,1,0,0,0,0,0,0,0,0,0,0,0,0,1,0,0,0,1,1,1,0,0,0,0,1,0,0,0,0,0,0,0,0,0,0,0,0,0,1,0,0,0,0,0,0,1,0,0,1,0,0,0,0,0,0,0,0,0,0,0,0,0,0,0,0,0,0,0,0,0,0,0,0,0,0,0,0,0,0,0,0,0,0,0,0,0,0,0,0,0,0,0,0,0,0,0,0,0,0,0,0,0,0,0,0,0,0,0,0,0,0,0,0,0,0,0,0,0,0,0,0,0],"id":0,"left_children":[1,3,5,7,9,11,13,15,17,19,21,23,25,27,29,-1,-1,-1,31,33,35,37,39,41,43,45,-1,-1,-1,-1,-1,-1,47,49,51,53,55,57,59,61,-1,-1,-1,-1,63,-1,-1,-1,-1,65,67,69,71,73,75,-1,77,79,81,83,85,87,89,-1,91,93,95,-1,-1,97,99,-1,-1,101,103,-1,-1,105,-1,107,109,-1,111,113,115,117,-1,-1,119,-1,-1,-1,-1,121,-1,123,-1,125,127,129,131,133,135,137,139,141,143,145,-1,147,149,151,153,155,-1,157,159,161,163,-1,-1,-1,165,167,-1,169,171,173,-1,-1,175,177,-1,179,-1,181,-1,183,-1,-1,185,187,-1,-1,189,191,-1,193,195,197,199,201,-1,203,-1,205,207,209,211,213,215,-1,217,-1,219,-1,-1,-1,-1,-1,-1,-1,-1,-1,-1,-1,-1,-1,-1,-1,-1,-1,-1,-1,-1,-1,-1,-1,-1,-1,-1,-1,-1,-1,-1,-1,-1,-1,-1,-1,-1,-1,-1,-1,-1,-1,-1,-1,-1,-1,-1,-1,-1,-1,-1,-1,-1,-1,-1,-1,-1],"loss_changes":[1.0181475E1,3.4083295E0,4.3997507E0,5.347593E-1,2.7803478E0,3.3209088E0,1.5198154E0,3.8159347E-1,3.5463846E-1,3.067212E0,6.4947424E0,8.0288714E-1,4.3889523E-1,6.005125E-1,8.0580044E-1,0E0,0E0,0E0,2.1645957E-1,6.5831337E0,1.2344465E0,2.9939864E0,5.4115534E-1,3.0306154E-1,4.5363182E-1,3.9804888E-1,0E0,0E0,0E0,0E0,0E0,0E0,1.2002981E-1,2.9422522E-1,2.8558612E0,4.5217085E-1,5.9954596E-1,6.2751474E0,2.9295692E0,3.2275486E-1,0E0,0E0,0E0,0E0,1.1984533E-1,0E0,0E0,0E0,0E0,4.5957518E-1,1.775732E-1,2.5565143E0,3.7440845E-1,4.5792365E-1,5.602724E-1,0E0,4.780116E-1,2.6908505E0,4.616804E-1,2.4895463E0,9.033177E-1,2.0836931E-1,2.2654104E-1,0E0,1.1890876E-1,3.1623924E-1,1.7561233E-1,0E0,0E0,6.000314E-1,1.9896231E0,0E0,0E0,1.6226304E-1,2.5779748E-1,0E0,0E0,2.840867E-1,0E0,1.1565303E0,6.23987E-1,0E0,3.510599E-1,2.294109E-1,4.4843817E-1,4.308293E-1,0E0,0E0,1.3059235E-1,0E0,0E0,0E0,0E0,2.3234075E-1,0E0,1.7850137E-1,0E0,1.0827885E0,2.9068828E-1,4.2188835E-1,4.8653325E-1,1.8085283E-1,2.7691075E-1,2.3721576E-1,1.9517583E-1,2.952981E-1,1.4283276E-1,1.3137703E-1,0E0,9.221481E-1,1.8725403E-1,2.6075032E-1,4.9315453E-1,3.270604E-1,0E0,2.9003048E-1,5.459037E-1,2.7920312E-1,3.1374824E-1,0E0,0E0,0E0,2.988937E-1,1.8172729E-1,0E0,2.675083E-1,1.2888813E-1,3.0492508E-1,0E0,0E0,2.7365875E-1,2.6631045E-1,0E0,2.5939184E-1,0E0,3.1293616E-1,0E0,1.8981338E-1,0E0,0E0,2.1470106E-1,1.9352579E-1,0E0,0E0,1.20574474E-1,1.7907001E-1,0E0,3.9923492E-1,5.157497E-1,2.6510757E-1,1.2827057E-1,1.9673371E-1,0E0,3.4845924E-1,0E0,3.758514E-1,1.6176903E-1,2.4768019E-1,5.69834E-1,4.4283962E-1,2.6208782E-1,0E0,4.1745934E-1,0E0,1.2088707E-1,0E0,0E0,0E0,0E0,0E0,0E0,0E0,0E0,0E0,0E0,0E0,0E0,0E0,0E0,0E0,0E0,0E0,0E0,0E0,0E0,0E0,0E0,0E0,0E0,0E0,0E0,0E0,0E0,0E0,0E0,0E0,0E0,0E0,0E0,0E0,0E0,0E0,0E0,0E0,0E0,0E0,0E0,0E0,0E0,0E0,0E0,0E0,0E0,0E0,0E0,0E0,0E0,0E0,0E0,0E0,0E0],"parents":[2147483647,0,0,1,1,2,2,3,3,4,4,5,5,6,6,7,7,8,8,9,9,10,10,11,11,12,12,13,13,14,14,18,18,19,19,20,20,21,21,22,22,23,23,24,24,25,25,32,32,33,33,34,34,35,35,36,36,37,37,38,38,39,39,44,44,49,49,50,50,51,51,52,52,53,53,54,54,56,56,57,57,58,58,59,59,60,60,61,61,62,62,64,64,65,65,66,66,69,69,70,70,73,73,74,74,77,77,79,79,80,80,82,82,83,83,84,84,85,85,88,88,93,93,95,95,97,97,98,98,99,99,100,100,101,101,102,102,103,103,104,104,105,105,106,106,107,107,109,109,110,110,111,111,112,112,113,113,115,115,116,116,117,117,118,118,122,122,123,123,125,125,126,126,127,127,130,130,131,131,133,133,135,135,137,137,140,140,141,141,144,144,145,145,147,147,148,148,149,149,150,150,151,151,153,153,155,155,156,156,157,157,158,158,159,159,160,160,162,162,164,164],"right_children":[2,4,6,8,10,12,14,16,18,20,22,24,26,28,30,-1,-1,-1,32,34,36,38,40,42,44,46,-1,-1,-1,-1,-1,-1,48,50,52,54,56,58,60,62,-1,-1,-1,-1,64,-1,-1,-1,-1,66,68,70,72,74,76,-1,78,80,82,84,86,88,90,-1,92,94,96,-1,-1,98,100,-1,-1,102,104,-1,-1,106,-1,108,110,-1,112,114,116,118,-1,-1,120,-1,-1,-1,-1,122,-1,124,-1,126,128,130,132,134,136,138,140,142,144,146,-1,148,150,152,154,156,-1,158,160,162,164,-1,-1,-1,166,168,-1,170,172,174,-1,-1,176,178,-1,180,-1,182,-1,184,-1,-1,186,188,-1,-1,190,192,-1,194,196,198,200,202,-1,204,-1,206,208,210,212,214,216,-1,218,-1,220,-1,-1,-1,-1,-1,-1,-1,-1,-1,-1,-1,-1,-1,-1,-1,-1,-1,-1,-1,-1,-1,-1,-1,-1,-1,-1,-1,-1,-1,-1,-1,-1,-1,-1,-1,-1,-1,-1,-1,-1,-1,-1,-1,-1,-1,-1,-1,-1,-1,-1,-1,-1,-1,-1,-1,-1],"split_conditions":[4.969714E0,-5.7900715E0,-5.6022537E1,-6.6246834E0,-4.2827435E1,5.943129E0,NaN,4.584477E0,-7.843461E1,2.7496493E0,4.1672454E0,-7.4203186E1,3.541663E1,7.4E1,4.584477E0,-0E0,1.4289362E-2,-0E0,4.7350783E0,-2.447289E0,8.38E1,1.0592604E0,-7.9195952E0,-1.2716279E1,3.06E2,NaN,-0E0,-0E0,1.9857038E-2,-0E0,8.912281E-3,-0E0,7.35E1,8.0738464E1,8.57E1,4.5090714E0,2.49E2,-9.541327E-1,3.397339E0,4.541808E0,1.1831814E-2,-0E0,-3.2891694E-3,-0E0,5.0169916E0,1.6209746E-2,6.413626E-3,-0E0,6.8315533E-3,1.7838936E1,2.75E2,-4.6671444E1,2.0513647E0,-1.2066667E1,-6.892328E1,-0E0,3.23E2,-3.8416536E0,5.641064E0,8.42E1,-6.904545E0,4.8821206E0,4.4763784E0,-0E0,8.69E1,6.527524E1,-4.433858E1,-0E0,-6.0675126E-3,1.9801786E0,2.2869236E0,-0E0,-5.199446E-3,8.06E1,-1.1642857E0,-2.436227E-3,2.1299447E-3,7.048061E1,-1.9223984E-4,-2.306161E1,-1.6670568E0,9.921327E-3,2.0394957E1,7.39704E1,6.3436894E0,5.8457694E0,5.0735353E-3,-0E0,-3.4259064E1,-0E0,7.368082E-3,6.3819527E-3,-0E0,-5.1745057E0,-0E0,5.98734E0,-0E0,-1.1208311E0,NaN,4.681497E1,-6.1947914E1,6.121835E0,3.7647128E0,3.31E2,-6E-2,6.9235954E1,8.39E1,-4.5539255E0,6.4732675E-3,-3.1917024E0,6.037305E0,8.74E1,3.37E2,2.346884E0,-1.4637253E-3,-1.7742491E0,2.52E2,2.08E2,NaN,-0E0,4.1561136E-3,-0E0,6.8931823E0,7.956237E1,-0E0,-6.5439995E1,-7.346452E1,-9.316667E0,-0E0,-0E0,-2.2207878E0,8.44E1,-0E0,5.3211284E0,3.0016556E-4,8.6380585E1,-0E0,7.190206E0,-0E0,-0E0,2.9E2,-3.0230215E1,-0E0,-0E0,5.3070164E0,5.5754004E0,-0E0,NaN,1.0555013E0,3.6864483E1,-7.4E0,6.0321593E0,-1.6804569E-3,6.9387183E0,-0E0,6.0635314E0,-3.5746048E1,-2.392195E1,1.6169857E1,-1.084958E1,-3.999658E1,1.4269965E-3,8.39E1,4.526097E-3,2.88E2,-3.7757817E-3,-0E0,-7.6057417E-3,-0E0,-7.4192174E-3,-0E0,-0E0,7.321222E-3,-0E0,-5.7118493E-3,-0E0,1.2070416E-2,7.186871E-3,-0E0,-0E0,-5.7791425E-3,7.1517574E-3,-0E0,-4.1229716E-3,-0E0,-0E0,-2.9881722E-3,-0E0,-4.63363E-3,-0E0,-7.7663115E-3,-0E0,5.033883E-3,-1.3845746E-3,1.8102025E-3,-2.7041708E-3,7.631235E-5,-0E0,4.517618E-3,-2.5740175E-3,5.409701E-4,6.7925537E-3,-0E0,6.539319E-3,-0E0,2.9199051E-3,-0E0,1.2859601E-3,-7.606296E-4,-2.3232824E-3,9.508647E-4,-3.9427807E-3,-9.535812E-4,-3.0371596E-3,-6.4410217E-4,-0E0,-4.6982137E-3,9.6773973E-4,-2.087211E-3,1.6928692E-3,-3.14302E-4],"split_indices":[4,4,12,4,12,4,1,7,12,4,4,12,13,2,7,0,0,0,7,4,2,4,12,13,10,1,0,0,0,0,0,0,2,14,2,4,10,4,4,4,0,0,0,0,4,0,0,0,0,13,10,13,4,3,12,0,10,4,7,2,12,7,7,0,2,14,12,0,0,4,4,0,0,2,3,0,0,14,0,12,4,0,14,14,5,7,0,0,12,0,0,0,0,4,0,7,0,4,1,14,12,7,13,10,3,14,2,4,0,4,7,2,10,4,0,13,10,10,1,0,0,0,5,14,0,13,13,3,0,0,4,2,0,7,0,14,0,5,0,0,10,13,0,0,5,7,0,1,12,14,3,7,0,7,0,7,12,13,13,12,12,0,2,0,10,0,0,0,0,0,0,0,0,0,0,0,0,0,0,0,0,0,0,0,0,0,0,0,0,0,0,0,0,0,0,0,0,0,0,0,0,0,0,0,0,0,0,0,0,0,0,0,0,0,0,0,0,0,0,0,0],"split_type":[0,0,0,0,0,0,1,0,0,0,0,0,0,0,0,0,0,0,0,0,0,0,0,0,0,1,0,0,0,0,0,0,0,0,0,0,0,0,0,0,0,0,0,0,0,0,0,0,0,0,0,0,0,0,0,0,0,0,0,0,0,0,0,0,0,0,0,0,0,0,0,0,0,0,0,0,0,0,0,0,0,0,0,0,0,0,0,0,0,0,0,0,0,0,0,0,0,0,1,0,0,0,0,0,0,0,0,0,0,0,0,0,0,0,0,0,0,0,1,0,0,0,0,0,0,0,0,0,0,0,0,0,0,0,0,0,0,0,0,0,0,0,0,0,0,0,0,1,0,0,0,0,0,0,0,0,0,0,0,0,0,0,0,0,0,0,0,0,0,0,0,0,0,0,0,0,0,0,0,0,0,0,0,0,0,0,0,0,0,0,0,0,0,0,0,0,0,0,0,0,0,0,0,0,0,0,0,0,0,0,0,0,0,0,0,0,0,0,0,0,0],"sum_hessian":[5.91598E5,5.50008E5,4.159E4,6.925E3,5.43083E5,2.8763E4,1.2827E4,2.316E3,4.609E3,1.68007E5,3.75076E5,1.9573E4,9.19E3,2.781E3,1.0046E4,4.42E2,1.874E3,1.01E3,3.599E3,6.9555E4,9.8452E4,3.54139E5,2.0937E4,9.902E3,9.671E3,8.381E3,8.09E2,1.8E2,2.601E3,1.403E3,8.643E3,5.55E2,3.044E3,3.6326E4,3.3229E4,6.4981E4,3.3471E4,1.23159E5,2.3098E5,1.8507E4,2.43E3,2.73E3,7.172E3,6.046E3,3.625E3,1.406E3,6.975E3,1.63E2,2.881E3,2.988E4,6.446E3,2.7287E4,5.942E3,5.2679E4,1.2302E4,2.906E3,3.0565E4,9.7485E4,2.5674E4,1.83454E5,4.7526E4,1.1115E4,7.392E3,2.86E2,3.339E3,2.5223E4,4.657E3,1.94E2,6.252E3,1.0249E4,1.7038E4,2.647E3,3.295E3,5.647E3,4.7032E4,5.906E3,6.396E3,2.6883E4,3.682E3,1.761E4,7.9875E4,4.26E3,2.1414E4,5.0755E4,1.32699E5,4.1148E4,6.378E3,5.07E2,1.0608E4,2.45E2,7.147E3,3.129E3,2.1E2,1.385E4,1.1373E4,4.328E3,3.29E2,5.478E3,4.771E3,9.844E3,7.194E3,2.593E3,3.054E3,2.2814E4,2.4218E4,1.5315E4,1.1568E4,9.308E3,8.302E3,6.7238E4,1.2637E4,4.555E3,1.6859E4,4.422E4,6.535E3,5.4209E4,7.849E4,2.7544E4,1.3604E4,2.962E3,7.646E3,1.711E3,1.2139E4,3.895E3,4.33E2,1.711E3,3.767E3,3.367E3,1.404E3,4.82E2,9.362E3,2.947E3,4.247E3,2.189E3,4.04E2,1.95E3,1.104E3,2.1896E4,9.18E2,9.08E3,1.5138E4,1.4517E4,7.98E2,5.11E2,1.1057E4,3.736E3,5.572E3,1.7496E4,4.9742E4,6.432E3,6.205E3,3.307E3,1.248E3,1.4404E4,2.455E3,2.0987E4,2.3233E4,1.2084E4,4.2125E4,5.2118E4,2.6372E4,7.946E3,1.9598E4,4.667E3,8.937E3,1.1295E4,8.44E2,3.803E3,9.2E1,7.07E2,1.004E3,4.08E2,3.359E3,7.56E2,2.611E3,8.5E2,8.512E3,2.532E3,4.15E2,5.82E2,1.607E3,1.574E3,3.76E2,2.1119E4,7.77E2,2.918E3,1.222E4,6.18E2,1.3899E4,2.4E1,1.1033E4,2.291E3,1.445E3,6.483E3,1.1013E4,4.3756E4,5.986E3,3.418E3,3.014E3,2.005E3,4.2E3,1.095E3,2.212E3,1.3997E4,4.07E2,1.1199E4,9.788E3,5.13E3,1.8103E4,3.859E3,8.225E3,1.3187E4,2.8938E4,3.3415E4,1.8703E4,9.54E2,2.5418E4,6.284E3,1.3314E4,5.24E3,3.697E3],"tree_param":{"num_deleted":"0","num_feature":"15","num_nodes":"221","size_leaf_vector":"1"}},{"base_weights":[5.2129835E-5,-5.5382575E-4,1.2781431E-2,3.395166E-4,-3.370603E-3,2.9377159E-2,-0E0,-1.0625188E-4,9.067976E-3,-1.9606503E-3,-9.285659E-3,1.3716753E-2,1.2077852E-2,-5.9836255E-3,1.535805E-2,2.3264384E-3,-1.4533079E-3,2.607556E-2,-5.255551E-4,1.1564494E-2,-2.5175838E-3,-1.06290225E-2,-0E0,-0E0,7.5771334E-3,8.426296E-3,-1.5072787E-2,2.0654963E-2,-0E0,3.4726956E-3,-2.0634928E-3,-2.0411621E-4,-6.04183E-3,9.403202E-3,1.314416E-2,-6.4622606E-3,5.077859E-3,8.560417E-3,-0E0,7.934776E-3,-3.0757545E-3,-7.182679E-4,-1.3006725E-2,-8.172827E-3,6.4156144E-3,4.998613E-3,-0E0,-0E0,-2.1990724E-2,8.2320925E-3,-0E0,4.6595377E-3,-0E0,-4.634704E-3,4.0085996E-3,1.2350162E-2,-6.6414056E-4,-0E0,-6.846647E-3,6.615156E-3,-0E0,-0E0,-1.1474138E-2,1.5565022E-2,-7.175082E-3,-0E0,1.966838E-2,-4.216788E-3,1.0821575E-3,-7.0956093E-3,3.5365657E-3,-1.4383612E-2,-0E0,-0E0,-1.6371021E-2,8.798804E-3,-0E0,-0E0,-8.905239E-3,5.7110414E-5,7.24847E-3,1.1947088E-2,-2.7795173E-3,3.408055E-3,-5.6947717E-3,-7.6338127E-3,1.0529606E-2,1.0908495E-2,-0E0,-5.224533E-3,2.996015E-4,-8.391977E-3,-5.4082705E-4,-5.7919784E-3,-0E0,-0E0,6.347119E-3,-3.7985044E-3,-0E0,-7.298902E-4,5.28349E-3,-0E0,2.8036827E-2,-2.7542755E-3,-9.170655E-3,2.059634E-2,-4.4644717E-3,-0E0,-4.6799975E-3,-1.1251878E-3,8.494869E-3,-1.6123844E-2,-2.6489873E-4,-0E0,-2.0935647E-2,1.7329728E-2,-1.0287894E-3,1.320698E-4,1.5541886E-2,-0E0,1.7663592E-2,-6.654043E-3,1.4715594E-3,-8.4206415E-3,-0E0,-0E0,-4.278183E-3,2.6315827E-2,-0E0,-7.749359E-3,7.832825E-3,-5.156916E-4,6.426934E-3,-8.959036E-3,1.2789319E-4,1.1597259E-2,-1.5896037E-2,-0E0,3.474213E-2,-8.8714564E-4,-7.4582407E-3,-1.4268923E-2,-3.277411E-3,-0E0,8.570831E-3,-7.6211905E-3,2.6736169E-3,-0E0,-1.7213289E-2,-8.772274E-3,-0E0,7.735056E-3,-0E0,-4.4297636E-3,5.7870906E-4,-1.3887788E-3,4.6881773E-3,2.8054167E-2,7.1354797E-3,-0E0,6.5484038E-3,1.1533774E-3,-8.377609E-3,1.0319828E-2,-0E0,-5.3673395E-4,-1.1954942E-2,1.0872903E-2,-0E0,-6.255761E-5,-9.629095E-3,8.108497E-3,-0E0,-6.1696502E-3,2.0001078E-4,-0E0,7.4777566E-3,2.6572222E-4,-9.463448E-3,2.234935E-2,4.811224E-4,-0E0,-1.8239249E-2,4.034271E-2,-0E0,-5.9516137E-3,2.6197801E-3,2.4781262E-3,-9.353829E-3,-1.5326357E-2,-0E0,-7.628963E-3,1.839542E-5,-0E0,-1.004434E-2,-1.7929751E-2,-0E0,-3.1123816E-3,8.909332E-4,1.0814398E-3,-1.5007164E-3,2.0317584E-3,-9.915726E-4,2.8787283E-3,-0E0,1.4010416E-2,1.683634E-3,5.5200183E-3,-0E0,-0E0,-3.481206E-3,-0E0,6.07343E-3,-2.5613245E-3,1.2675446E-3,-4.244186E-3,3.343989E-3,-0E0,-4.9903044E-3,-3.5231833E-3,-0E0,4.894949E-3,-2.8891154E-3,1.338847E-3,-3.1498188E-4,3.1121753E-3,-0E0,-9.959692E-4,-3.8272962E-3,-0E0,8.681713E-3,-0E0,-7.8060315E-3,1.4896671E-2,-0E0,5.794471E-4,-3.4269164E-3,4.977355E-3,-4.2667348E-4,-3.5931787E-3,-0E0,-0E0,-6.0682828E-3,-3.4696436E-3,-0E0,-0E0,-4.2584077E-3,-0E0,-6.4196126E-3],"categories":[],"categories_nodes":[],"categories_segments":[],"categories_sizes":[],"default_left":[0,1,0,0,0,0,0,0,0,0,0,0,0,0,0,1,1,0,0,0,0,0,0,0,0,0,0,0,0,0,0,0,0,0,0,0,0,0,0,0,0,0,0,0,0,0,0,0,0,0,0,0,0,0,0,0,0,0,0,0,0,0,0,0,0,0,0,0,0,0,0,0,0,0,0,0,0,0,0,0,0,0,0,0,0,0,0,0,0,0,1,0,0,0,0,0,0,0,0,0,0,0,0,0,0,0,0,0,0,0,0,0,0,0,0,0,0,0,0,0,0,0,0,0,0,0,0,0,0,0,0,0,1,0,0,0,0,0,0,0,0,0,0,0,0,0,0,0,0,0,0,0,0,0,0,0,0,0,0,0,0,0,0,0,0,0,0,0,0,0,0,0,0,0,0,0,0,0,0,0,0,0,0,0,0,0,0,0,0,0,0,1,0,0,0,0,0,0,0,0,0,0,0,0,0,0,0,0,0,0,0,0,0,0,0,0,0,0,0,0,0,0,0,0,0,0,0,0,0,0,0,0,0,0,0,0,0,0,0,0,0,0,0,0,0,0,0,0,0],"id":1,"left_children":[1,3,5,7,9,11,13,15,17,19,21,23,-1,25,27,29,31,33,35,37,39,41,43,-1,-1,45,47,49,-1,51,53,55,57,59,-1,61,63,-1,-1,65,67,69,71,73,75,-1,-1,-1,77,-1,-1,79,81,83,85,87,89,-1,91,-1,-1,-1,93,95,97,99,101,103,105,107,109,111,-1,-1,113,-1,-1,-1,-1,115,117,119,121,-1,123,125,127,-1,-1,129,131,133,135,-1,-1,-1,-1,-1,-1,-1,-1,-1,137,139,141,143,145,-1,-1,-1,-1,147,-1,-1,149,151,153,155,157,-1,159,161,163,165,-1,-1,-1,167,-1,169,171,173,175,177,-1,179,181,-1,183,185,187,189,191,-1,-1,193,-1,-1,195,-1,-1,-1,-1,197,199,201,203,205,207,-1,-1,-1,209,211,213,215,217,-1,-1,-1,219,-1,-1,221,223,-1,225,-1,227,229,-1,-1,231,233,-1,235,237,-1,239,241,-1,243,-1,-1,245,247,-1,-1,-1,-1,-1,-1,-1,-1,-1,-1,-1,-1,-1,-1,-1,-1,-1,-1,-1,-1,-1,-1,-1,-1,-1,-1,-1,-1,-1,-1,-1,-1,-1,-1,-1,-1,-1,-1,-1,-1,-1,-1,-1,-1,-1,-1,-1,-1,-1,-1,-1,-1,-1],"loss_changes":[4.708063E0,1.4548159E0,5.6428404E0,1.7591734E0,1.0260845E0,5.555277E-1,1.5533984E0,1.3108926E0,3.87983E0,7.523117E-1,3.0026555E-1,4.6554708E-1,0E0,1.5429227E0,3.2804644E-1,7.24178E-1,1.4316614E0,1.1876907E0,4.7033057E-1,6.0676885E-1,5.867764E-1,3.5291815E-1,1.7850345E-1,0E0,0E0,2.8383514E-1,5.373467E-1,2.4401474E-1,0E0,4.743346E-1,4.295773E-1,1.0667013E0,2.4623883E-1,3.048174E-1,0E0,3.1192175E-1,8.7404627E-1,0E0,0E0,2.3872963E-1,5.386512E-1,1.843419E-1,2.515905E-1,1.9281195E-1,2.8096497E-1,0E0,0E0,0E0,1.8523908E-1,0E0,0E0,9.2626476E-1,9.418061E-1,2.6746467E-1,5.447413E-1,1.5440525E0,9.4586056E-1,0E0,3.5706806E-1,0E0,0E0,0E0,3.7358648E-1,1.523093E-1,1.2091869E-1,2.3368543E-1,2.0972025E-1,4.7609973E-1,2.41991E0,2.9802114E-1,5.6036365E-1,1.5191531E-1,0E0,0E0,1.4200196E-1,0E0,0E0,0E0,0E0,7.9726624E-1,2.9277442E0,3.977723E-1,4.465641E-1,0E0,3.122394E-1,1.5353473E-1,1.0282168E0,0E0,0E0,1.2332708E0,8.922998E-1,2.8305888E-1,2.0832849E0,0E0,0E0,0E0,0E0,0E0,0E0,0E0,0E0,0E0,3.0233932E-1,4.95831E-1,3.199339E-1,2.839322E-1,6.0630643E-1,0E0,0E0,0E0,0E0,1.8252444E-1,0E0,0E0,1.3504377E-1,2.0510948E-1,2.0795143E-1,2.412022E-1,2.0603547E0,0E0,1.4340031E-1,2.9678762E-1,1.8640997E-1,2.2719538E-1,0E0,0E0,0E0,3.559364E-1,0E0,3.4085596E-1,6.829906E-1,6.516507E-1,2.230314E-1,2.77488E-1,0E0,3.3926666E-1,1.8411219E-1,0E0,1.6887307E-1,9.3237954E-1,5.1425695E-1,1.8325865E-1,2.2341529E-1,0E0,0E0,2.2750157E-1,0E0,0E0,1.4476514E-1,0E0,0E0,0E0,0E0,4.7650695E-1,2.1942677E-1,1.9075416E-1,2.0672032E-1,2.1753592E0,8.0030036E-1,0E0,0E0,0E0,2.6786858E-1,1.4544182E-1,2.4380976E-1,6.861608E-1,2.5994194E-1,0E0,0E0,0E0,2.2378492E-1,0E0,0E0,8.058094E-1,5.675707E-1,0E0,1.8844306E-1,0E0,2.4839664E-1,1.35095E-1,0E0,0E0,2.9034817E-1,1.6775095E-1,0E0,7.977067E-1,1.4840468E0,0E0,2.544341E-1,2.065785E-1,0E0,1.5238836E-1,0E0,0E0,1.8773282E-1,1.5732384E-1,0E0,0E0,0E0,0E0,0E0,0E0,0E0,0E0,0E0,0E0,0E0,0E0,0E0,0E0,0E0,0E0,0E0,0E0,0E0,0E0,0E0,0E0,0E0,0E0,0E0,0E0,0E0,0E0,0E0,0E0,0E0,0E0,0E0,0E0,0E0,0E0,0E0,0E0,0E0,0E0,0E0,0E0,0E0,0E0,0E0,0E0,0E0,0E0,0E0,0E0,0E0,0E0,0E0],"parents":[2147483647,0,0,1,1,2,2,3,3,4,4,5,5,6,6,7,7,8,8,9,9,10,10,11,11,13,13,14,14,15,15,16,16,17,17,18,18,19,19,20,20,21,21,22,22,25,25,26,26,27,27,29,29,30,30,31,31,32,32,33,33,35,35,36,36,39,39,40,40,41,41,42,42,43,43,44,44,48,48,51,51,52,52,53,53,54,54,55,55,56,56,58,58,62,62,63,63,64,64,65,65,66,66,67,67,68,68,69,69,70,70,71,71,74,74,79,79,80,80,81,81,82,82,84,84,85,85,86,86,89,89,90,90,91,91,92,92,102,102,103,103,104,104,105,105,106,106,111,111,114,114,115,115,116,116,117,117,118,118,120,120,121,121,122,122,123,123,127,127,129,129,130,130,131,131,132,132,133,133,135,135,136,136,138,138,139,139,140,140,141,141,142,142,145,145,148,148,153,153,154,154,155,155,156,156,157,157,158,158,162,162,163,163,164,164,165,165,166,166,170,170,173,173,174,174,176,176,178,178,179,179,182,182,183,183,185,185,186,186,188,188,189,189,191,191,194,194,195,195],"right_children":[2,4,6,8,10,12,14,16,18,20,22,24,-1,26,28,30,32,34,36,38,40,42,44,-1,-1,46,48,50,-1,52,54,56,58,60,-1,62,64,-1,-1,66,68,70,72,74,76,-1,-1,-1,78,-1,-1,80,82,84,86,88,90,-1,92,-1,-1,-1,94,96,98,100,102,104,106,108,110,112,-1,-1,114,-1,-1,-1,-1,116,118,120,122,-1,124,126,128,-1,-1,130,132,134,136,-1,-1,-1,-1,-1,-1,-1,-1,-1,138,140,142,144,146,-1,-1,-1,-1,148,-1,-1,150,152,154,156,158,-1,160,162,164,166,-1,-1,-1,168,-1,170,172,174,176,178,-1,180,182,-1,184,186,188,190,192,-1,-1,194,-1,-1,196,-1,-1,-1,-1,198,200,202,204,206,208,-1,-1,-1,210,212,214,216,218,-1,-1,-1,220,-1,-1,222,224,-1,226,-1,228,230,-1,-1,232,234,-1,236,238,-1,240,242,-1,244,-1,-1,246,248,-1,-1,-1,-1,-1,-1,-1,-1,-1,-1,-1,-1,-1,-1,-1,-1,-1,-1,-1,-1,-1,-1,-1,-1,-1,-1,-1,-1,-1,-1,-1,-1,-1,-1,-1,-1,-1,-1,-1,-1,-1,-1,-1,-1,-1,-1,-1,-1,-1,-1,-1,-1,-1],"split_conditions":[5.3007393E0,2.5434948E1,2.3024306E0,4.5090714E0,7.69984E1,-8.092543E1,6.2906857E0,8.29E1,2.0879428E0,-5.545234E0,2.7070603E0,5.708654E0,1.2077852E-2,6.3781067E1,8.6380585E1,7.843346E1,2.601E3,-5.205459E1,-3.999658E1,2.90567E0,2.22E2,2.8201017E0,-4.3663554E0,-0E0,7.5771334E-3,2.9680657E0,2.6520565E1,3.6504989E0,-0E0,3.0254586E0,2.0084534E0,-4.0491858E0,-5.6022537E1,1.6682509E0,1.314416E-2,8.08E1,2.627155E0,8.560417E-3,-0E0,3.0589136E1,4.1421328E0,-3.0849686E0,2.987E3,-6.6246834E0,4.021433E0,4.998613E-3,-0E0,-0E0,2.4865181E0,8.2320925E-3,-0E0,1.4789534E0,1.4931533E0,-4.3663554E0,-3.8416536E0,2.2103076E0,-4.0917435E1,-0E0,3.379263E0,6.615156E-3,-0E0,-0E0,-4.4444446E-2,-3.4259064E1,-7.9195952E0,2.5735304E0,1.73E2,8.66E1,1.736089E0,-5.545234E0,1.4498035E0,3.19E2,-0E0,-0E0,2.3E3,8.798804E-3,-0E0,-0E0,-8.905239E-3,-2.9813254E0,-1.898734E0,3.2890904E0,9.2754865E-1,3.408055E-3,-4.5489147E1,7.52E1,3.4338858E0,1.0908495E-2,-0E0,3.602268E0,2.0815957E0,2.6890771E0,2.0012102E0,-5.7919784E-3,-0E0,-0E0,6.347119E-3,-3.7985044E-3,-0E0,-7.298902E-4,5.28349E-3,-0E0,2.045E3,3.3071322E0,-2.1341549E1,-6.785402E1,-3.1346685E1,-0E0,-4.6799975E-3,-1.1251878E-3,8.494869E-3,1.0807782E0,-2.6489873E-4,-0E0,3.11E2,1.3829938E0,-3.248059E1,8.09E1,1.853849E0,-0E0,7.21E1,-2.2036243E1,2.345E3,2.0742126E0,-0E0,-0E0,-4.278183E-3,-4.627549E1,-0E0,1.47E2,1.771167E0,-2.2780852E0,-1.304E1,-4.5539255E0,1.2789319E-4,1.5147253E0,8.4E1,-0E0,2.906075E0,-2.3369415E0,1.1353712E0,2.6130881E0,2.9E2,-0E0,8.570831E-3,2.423E3,2.6736169E-3,-0E0,6.1831436E0,-8.772274E-3,-0E0,7.735056E-3,-0E0,6.214401E0,8.17E1,-5.3432274E0,3.09E2,-1.7122047E1,-4.0681847E1,-0E0,6.5484038E-3,1.1533774E-3,-6.685625E1,2.21E3,3.489528E0,-1.4838169E0,1.0085835E0,1.0872903E-2,-0E0,-6.255761E-5,2.4754004E0,8.108497E-3,-0E0,9.815582E-1,1.742336E0,-0E0,9.12E1,2.6572222E-4,2.6850235E1,-4.708518E1,4.811224E-4,-0E0,5.3496265E0,9.18E1,-0E0,1.8845803E0,1.7710423E0,2.4781262E-3,-1.43451185E1,1.682777E0,-0E0,4.2631578E-1,1.839542E-5,-0E0,2.0226743E0,3.1994143E0,-0E0,-3.1123816E-3,8.909332E-4,1.0814398E-3,-1.5007164E-3,2.0317584E-3,-9.915726E-4,2.8787283E-3,-0E0,1.4010416E-2,1.683634E-3,5.5200183E-3,-0E0,-0E0,-3.481206E-3,-0E0,6.07343E-3,-2.5613245E-3,1.2675446E-3,-4.244186E-3,3.343989E-3,-0E0,-4.9903044E-3,-3.5231833E-3,-0E0,4.894949E-3,-2.8891154E-3,1.338847E-3,-3.1498188E-4,3.1121753E-3,-0E0,-9.959692E-4,-3.8272962E-3,-0E0,8.681713E-3,-0E0,-7.8060315E-3,1.4896671E-2,-0E0,5.794471E-4,-3.4269164E-3,4.977355E-3,-4.2667348E-4,-3.5931787E-3,-0E0,-0E0,-6.0682828E-3,-3.4696436E-3,-0E0,-0E0,-4.2584077E-3,-0E0,-6.4196126E-3],"split_indices":[4,11,6,4,14,12,4,2,6,4,6,4,0,14,14,14,9,12,12,6,10,4,4,0,0,6,11,6,0,4,6,4,12,6,0,2,6,0,0,14,4,4,9,4,4,0,0,0,6,0,0,6,6,4,4,6,11,0,4,0,0,0,3,12,12,4,10,2,6,4,6,10,0,0,9,0,0,0,0,4,4,4,8,0,12,2,4,0,0,4,12,6,6,0,0,0,0,0,0,0,0,0,9,4,12,12,12,0,0,0,0,6,0,0,10,6,12,2,4,0,2,11,9,4,0,0,0,12,0,10,6,4,3,4,0,6,2,0,4,4,6,6,10,0,0,9,0,0,7,0,0,0,0,7,2,4,10,12,12,0,0,0,12,9,4,4,6,0,0,0,6,0,0,6,4,0,2,0,14,12,0,0,7,2,0,6,4,0,12,4,0,3,0,0,6,4,0,0,0,0,0,0,0,0,0,0,0,0,0,0,0,0,0,0,0,0,0,0,0,0,0,0,0,0,0,0,0,0,0,0,0,0,0,0,0,0,0,0,0,0,0,0,0,0,0,0,0,0,0],"split_type":[0,0,0,0,0,0,0,0,0,0,0,0,0,0,0,0,0,0,0,0,0,0,0,0,0,0,0,0,0,0,0,0,0,0,0,0,0,0,0,0,0,0,0,0,0,0,0,0,0,0,0,0,0,0,0,0,0,0,0,0,0,0,0,0,0,0,0,0,0,0,0,0,0,0,0,0,0,0,0,0,0,0,0,0,0,0,0,0,0,0,0,0,0,0,0,0,0,0,0,0,0,0,0,0,0,0,0,0,0,0,0,0,0,0,0,0,0,0,0,0,0,0,0,0,0,0,0,0,0,0,0,0,0,0,0,0,0,0,0,0,0,0,0,0,0,0,0,0,0,0,0,0,0,0,0,0,0,0,0,0,0,0,0,0,0,0,0,0,0,0,0,0,0,0,0,0,0,0,0,0,0,0,0,0,0,0,0,0,0,0,0,0,0,0,0,0,0,0,0,0,0,0,0,0,0,0,0,0,0,0,0,0,0,0,0,0,0,0,0,0,0,0,0,0,0,0,0,0,0,0,0,0,0,0,0,0,0,0,0,0,0,0,0,0,0,0,0,0,0],"sum_hessian":[5.91665E5,5.63929E5,2.7736E4,4.24996E5,1.38933E5,1.1761E4,1.5975E4,4.03096E5,2.19E4,1.13833E5,2.51E4,3.919E3,7.842E3,1.1116E4,4.859E3,1.40538E5,2.62558E5,8.319E3,1.3581E4,3.64E3,1.10193E5,2.1806E4,3.294E3,1.531E3,2.388E3,3.8E3,7.316E3,3.44E3,1.419E3,1.1357E5,2.6968E4,2.08417E5,5.4141E4,4.021E3,4.298E3,7.611E3,5.97E3,1.689E3,1.951E3,4.495E3,1.05698E5,5.185E3,1.6621E4,1.53E3,1.764E3,2.525E3,1.275E3,2.786E3,4.53E3,2.895E3,5.45E2,8.4915E4,2.8655E4,2.0312E4,6.656E3,6.432E3,2.01985E5,6.735E3,4.7406E4,1.709E3,2.312E3,2.851E3,4.76E3,3.729E3,2.241E3,3.175E3,1.32E3,8.5157E4,2.0541E4,3.172E3,2.013E3,1.4801E4,1.82E3,4.55E2,1.075E3,4.93E2,1.271E3,1.095E3,3.435E3,3.2218E4,5.2697E4,5.298E3,2.3357E4,6.01E2,1.9711E4,1.74E3,4.916E3,2.411E3,4.021E3,3.7341E4,1.64644E5,3.6568E4,1.0838E4,3.41E3,1.35E3,7.26E2,3.003E3,1.863E3,3.78E2,2.291E3,8.84E2,4.21E2,8.99E2,6.7621E4,1.7536E4,4.995E3,1.5546E4,7.94E2,2.378E3,1.134E3,8.79E2,1.235E4,2.451E3,1.07E2,9.68E2,2.516E3,2.9702E4,2.9143E4,2.3554E4,1.618E3,3.68E3,1.3657E4,9.7E3,1.34E4,6.311E3,1.6E2,1.58E3,2.243E3,2.673E3,3.2057E4,5.284E3,1.43643E5,2.1001E4,3.5606E4,9.62E2,5.63E3,5.208E3,7.5E1,8.24E2,5.0226E4,1.7395E4,8.306E3,9.23E3,1.245E3,3.75E3,1.315E4,2.396E3,9.02E2,1.1448E4,8.24E2,1.44E2,1.832E3,6.84E2,1.1862E4,1.784E4,1.9932E4,9.211E3,8.871E3,1.4683E4,2.22E2,3.458E3,9.95E2,1.2662E4,1.914E3,7.786E3,5.19E3,8.21E3,1.846E3,3.97E2,7.633E3,2.4424E4,1.731E3,3.553E3,1.7957E4,1.25686E5,1.508E3,1.9493E4,6.04E2,3.5002E4,2.156E3,3.474E3,7.07E2,4.501E3,7.06E2,1.18E2,2.1912E4,2.8314E4,1.262E3,1.6133E4,7.975E3,3.31E2,5.514E3,3.716E3,3.339E3,9.811E3,1.0999E4,4.49E2,8.081E3,3.781E3,1.3277E4,4.563E3,2.096E3,1.7836E4,5.654E3,3.557E3,5.294E3,3.577E3,5.814E3,8.869E3,1.699E3,1.0963E4,8.48E2,1.066E3,3.078E3,4.708E3,2.934E3,2.256E3,1.603E3,6.607E3,2.3048E4,1.376E3,1.308E3,1.6649E4,3.1484E4,9.4202E4,1.5167E4,4.326E3,9.07E3,2.5932E4,3.15E2,1.841E3,1.14E3,3.361E3,6.77E2,2.9E1,6.716E3,1.5196E4,7.605E3,2.0709E4,1.4831E4,1.302E3,1.489E3,6.486E3,4.506E3,1.008E3,2.356E3,7.455E3,6.97E2,1.0302E4],"tree_param":{"num_deleted":"0","num_feature":"15","num_nodes":"249","size_leaf_vector":"1"}},{"base_weights":[7.170906E-5,-2.0632772E-4,1.4968987E-2,1.5739411E-2,-3.560913E-4,3.8025975E-2,9.024913E-3,3.204689E-4,3.3414602E-2,3.2235283E-4,-2.7467136E-3,7.387153E-4,5.4174844E-2,-0E0,1.14690885E-2,-0E0,3.902726E-2,-0E0,6.963724E-3,-0E0,-4.261435E-3,-0E0,1.916904E-2,4.4747205E-3,-0E0,-0E0,4.2301435E-2,1.6118931E-3,-9.510401E-4,-0E0,1.6994242E-2,-1.7654444E-3,9.181601E-3,-3.0584317E-3,-9.71586E-3,-0E0,1.5239593E-2,-7.91117E-4,7.6332963E-3,-2.211605E-3,8.1322226E-4,-1.5566399E-3,9.0785284E-4,-0E0,1.857601E-2,3.4429254E-3,-3.5229116E-3,4.058134E-3,-0E0,-1.6820863E-3,-7.0836945E-3,-0E0,-1.0920381E-2,-2.071089E-3,3.4792006E-3,1.9834867E-2,4.4720555E-3,5.5724126E-3,-2.9985537E-3,-4.4993145E-4,1.1440629E-2,6.500539E-3,-0E0,-0E0,2.617538E-3,-5.7955044E-3,2.7966514E-4,-3.6067667E-3,1.9989007E-3,-2.7406327E-3,-0E0,-4.0644347E-3,-0E0,-4.1648834E-3,-2.7262626E-4,1.4089347E-2,-1.3105331E-3,-0E0,2.4488013E-2,1.1738279E-2,2.887631E-4,-2.9871757E-3,1.2291996E-2,-9.441553E-3,-2.3273872E-3,-3.8056031E-3,1.8629692E-3,-0E0,4.7983634E-3,-0E0,-8.735412E-3,7.2779227E-3,-9.402578E-4,-2.2831354E-3,-1.2533856E-2,3.5854666E-3,-0E0,-0E0,-7.234253E-3,2.3438138E-4,-1.6734997E-3,-0E0,5.458216E-3,-9.840298E-3,1.4931204E-3,9.6585015E-3,-0E0,-0E0,1.5693152E-2,5.5903797E-3,-2.630656E-3,1.185685E-3,-2.7294217E-3,1.7114654E-2,-0E0,-0E0,-1.0913033E-2,2.2776523E-3,-2.8299734E-3,-6.3925697E-3,1.0317451E-4,5.213788E-3,-0E0,-0E0,-1.0315995E-2,1.4544728E-2,-0E0,-9.293811E-3,4.2744586E-3,-0E0,-5.340045E-3,-0E0,-4.9962346E-3,2.305927E-3,-8.4847934E-4,-3.9968393E-3,-7.883528E-4,-4.962202E-3,-0E0,-2.959941E-4,2.0752747E-3,-0E0,5.845839E-3,5.2024387E-3,-0E0,8.236448E-5,-1.7587296E-3,6.109146E-3,-0E0,-0E0,-4.3626293E-3,-3.6988463E-4,2.4365408E-3,-1.0799768E-3,3.0896903E-4,1.8583422E-3,-2.6438695E-3,8.673687E-4,-1.8306607E-3,2.2275657E-4,3.5974726E-3,-4.928778E-4,1.4990913E-3,-3.8702763E-3,-0E0,6.740927E-3,-0E0,-4.3256613E-3,-0E0,7.514929E-3,-0E0,-8.93048E-5,4.730968E-3,-0E0,-3.3603965E-3],"categories":[0,0,0,0,0],"categories_nodes":[2,3,45,68,86],"categories_segments":[0,1,2,3,4],"categories_sizes":[1,1,1,1,1],"default_left":[0,0,1,1,0,0,0,0,0,0,0,0,1,0,0,0,0,0,0,0,0,0,0,0,0,0,1,0,0,0,0,0,0,0,1,0,0,0,0,0,0,0,0,0,0,1,0,0,0,0,1,0,0,0,0,0,0,0,0,0,0,0,0,0,0,1,0,0,1,0,0,0,0,0,0,0,1,0,0,0,0,0,0,0,0,0,1,0,0,0,0,0,0,0,0,0,0,1,0,0,0,0,0,0,0,0,0,0,0,0,1,0,0,0,0,0,0,0,1,0,0,0,0,0,0,0,0,0,1,0,0,0,0,0,0,0,0,0,0,0,0,0,0,0,0,0,0,0,0,0,0,0,0,0,0,0,0,0,0,0,0,0,0,0,0,0,0,0,0,0,0,0,0,0,0],"id":2,"left_children":[1,3,5,7,9,11,13,-1,15,17,19,-1,21,-1,23,-1,25,27,29,31,33,-1,-1,-1,-1,-1,35,37,39,41,43,45,47,49,51,-1,-1,53,55,57,59,-1,-1,-1,61,63,65,-1,-1,67,69,-1,71,73,75,77,79,81,83,85,87,-1,-1,-1,-1,89,91,93,95,-1,-1,-1,-1,97,99,101,103,-1,105,107,109,111,113,115,117,119,121,-1,-1,-1,123,125,127,129,131,-1,-1,133,135,-1,-1,-1,-1,137,139,-1,-1,-1,141,143,145,-1,-1,147,-1,-1,149,151,153,155,157,159,161,-1,163,165,-1,167,169,171,173,-1,-1,-1,-1,-1,-1,-1,-1,-1,-1,-1,-1,-1,-1,-1,-1,-1,-1,-1,-1,-1,-1,-1,-1,-1,-1,-1,-1,-1,-1,-1,-1,-1,-1,-1,-1,-1,-1,-1,-1,-1,-1,-1,-1],"loss_changes":[2.625198E0,1.2050045E0,1.0273056E0,8.157886E-1,9.621706E-1,4.7086143E-1,2.0669317E-1,0E0,3.86822E-1,1.0166955E0,5.848803E-1,0E0,1.9134665E-1,0E0,1.351701E-1,0E0,1.4897251E-1,6.418842E-1,1.5427792E0,7.898661E-1,4.1741598E-1,0E0,0E0,0E0,0E0,0E0,1.22392416E-1,2.2978446E0,6.1587936E-1,1.6065146E-1,3.8788986E-1,3.3515203E-1,2.4080276E-1,2.9994094E-1,2.7007747E-1,0E0,0E0,5.748612E-1,1.4509606E0,9.57073E-1,1.5852835E0,0E0,0E0,0E0,1.4103246E-1,1.4825505E-1,3.152904E-1,0E0,0E0,4.1936868E-1,1.4762968E-1,0E0,1.9056916E-1,2.6918486E-1,1.3114635E0,8.158703E-1,9.720227E-1,8.8316315E-1,4.9950206E-1,7.679718E-1,2.7377164E-1,0E0,0E0,0E0,0E0,4.3362468E-1,1.5104882E-1,2.8799617E-1,3.6111757E-1,0E0,0E0,0E0,0E0,4.3115324E-1,2.700978E-1,3.2321262E-1,4.574257E-1,0E0,3.806343E-1,5.062349E-1,4.1161108E-1,2.239855E-1,4.3694377E-1,2.2409225E-1,3.202256E-1,4.9106133E-1,3.3766145E-1,0E0,0E0,0E0,2.3282301E-1,2.7541646E-1,3.3079377E-1,2.906861E-1,1.4295161E-1,0E0,0E0,2.5479522E-1,2.8694654E-1,0E0,0E0,0E0,0E0,2.3484391E-1,1.744493E-1,0E0,0E0,0E0,3.323214E-1,5.510802E-1,1.6298962E-1,0E0,0E0,1.4013708E-1,0E0,0E0,2.1664894E-1,2.545281E-1,1.9200891E-1,4.7259176E-1,1.6489148E-1,3.4451127E-1,2.2994977E-1,0E0,1.4437449E-1,1.9367757E-1,0E0,1.4302564E-1,1.9323461E-1,1.8191066E-1,3.9156625E-1,0E0,0E0,0E0,0E0,0E0,0E0,0E0,0E0,0E0,0E0,0E0,0E0,0E0,0E0,0E0,0E0,0E0,0E0,0E0,0E0,0E0,0E0,0E0,0E0,0E0,0E0,0E0,0E0,0E0,0E0,0E0,0E0,0E0,0E0,0E0,0E0,0E0,0E0,0E0,0E0,0E0,0E0,0E0,0E0],"parents":[2147483647,0,0,1,1,2,2,3,3,4,4,5,5,6,6,8,8,9,9,10,10,12,12,14,14,16,16,17,17,18,18,19,19,20,20,26,26,27,27,28,28,29,29,30,30,31,31,32,32,33,33,34,34,37,37,38,38,39,39,40,40,44,44,45,45,46,46,49,49,50,50,52,52,53,53,54,54,55,55,56,56,57,57,58,58,59,59,60,60,65,65,66,66,67,67,68,68,73,73,74,74,75,75,76,76,78,78,79,79,80,80,81,81,82,82,83,83,84,84,85,85,86,86,90,90,91,91,92,92,93,93,94,94,97,97,98,98,103,103,104,104,108,108,109,109,110,110,113,113,116,116,117,117,118,118,119,119,120,120,121,121,122,122,124,124,125,125,127,127,128,128,129,129,130,130],"right_children":[2,4,6,8,10,12,14,-1,16,18,20,-1,22,-1,24,-1,26,28,30,32,34,-1,-1,-1,-1,-1,36,38,40,42,44,46,48,50,52,-1,-1,54,56,58,60,-1,-1,-1,62,64,66,-1,-1,68,70,-1,72,74,76,78,80,82,84,86,88,-1,-1,-1,-1,90,92,94,96,-1,-1,-1,-1,98,100,102,104,-1,106,108,110,112,114,116,118,120,122,-1,-1,-1,124,126,128,130,132,-1,-1,134,136,-1,-1,-1,-1,138,140,-1,-1,-1,142,144,146,-1,-1,148,-1,-1,150,152,154,156,158,160,162,-1,164,166,-1,168,170,172,174,-1,-1,-1,-1,-1,-1,-1,-1,-1,-1,-1,-1,-1,-1,-1,-1,-1,-1,-1,-1,-1,-1,-1,-1,-1,-1,-1,-1,-1,-1,-1,-1,-1,-1,-1,-1,-1,-1,-1,-1,-1,-1,-1,-1],"split_conditions":[5.943129E0,-6.115138E0,NaN,NaN,2.8323137E1,-7.843461E1,7.506216E-1,3.204689E-4,-9.024711E1,4.7532015E0,4.397541E1,7.387153E-4,5.582046E0,-0E0,9.5464714E1,-0E0,7.0180666E-1,1.4825816E0,-4.9982147E1,3.602268E0,3.334834E1,-0E0,1.916904E-2,4.4747205E-3,-0E0,-0E0,-1.3642222E1,-1.1208311E0,3.2171934E0,8.4362555E-1,6.7306715E-1,-2.9813254E0,3.93012E1,8.0738464E1,2.13E2,-0E0,1.5239593E-2,-8.949164E0,-3.222927E1,-5.6022537E1,-1.0557941E1,-1.5566399E-3,9.0785284E-4,-0E0,2.6520565E1,NaN,2.8901733E1,4.058134E-3,-0E0,4.2474103E0,4.4173138E1,-0E0,9.672352E-1,2.79E2,-2.929476E0,2.49E2,5.2408844E-1,-3.924116E1,8.395127E-1,-4.2827435E1,3.4159958E0,6.500539E-3,-0E0,-0E0,2.617538E-3,-8.357142E0,1.6517487E0,3.997769E0,NaN,-2.7406327E-3,-0E0,-4.0644347E-3,-0E0,-3.1380305E0,7.5280174E1,8.060921E0,-7.616129E0,-0E0,1.0335037E0,-7.388585E-1,9.44379E-1,2.183112E0,2.9403112E0,-1.5765286E1,5.808418E0,9.2754865E-1,NaN,-0E0,4.7983634E-3,-0E0,8.5931003E-1,6.5765595E0,2.97E2,-5.7364822E1,3.0514961E1,3.5854666E-3,-0E0,-9.24E0,-2.447289E0,2.3438138E-4,-1.6734997E-3,-0E0,5.458216E-3,4.472702E0,9.49826E-1,9.6585015E-3,-0E0,-0E0,1.18E2,-1.43451185E1,6.0236545E0,1.185685E-3,-2.7294217E-3,2.2705882E0,-0E0,-0E0,7.8245354E-1,5.656296E0,1.2166667E0,7.8245354E-1,8.477884E1,3.8220088E0,9.5468336E-1,-0E0,1.1285714E0,6.904245E1,-0E0,6.722543E0,3E2,2.7868795E1,9.904733E0,-0E0,-4.9962346E-3,2.305927E-3,-8.4847934E-4,-3.9968393E-3,-7.883528E-4,-4.962202E-3,-0E0,-2.959941E-4,2.0752747E-3,-0E0,5.845839E-3,5.2024387E-3,-0E0,8.236448E-5,-1.7587296E-3,6.109146E-3,-0E0,-0E0,-4.3626293E-3,-3.6988463E-4,2.4365408E-3,-1.0799768E-3,3.0896903E-4,1.8583422E-3,-2.6438695E-3,8.673687E-4,-1.8306607E-3,2.2275657E-4,3.5974726E-3,-4.928778E-4,1.4990913E-3,-3.8702763E-3,-0E0,6.740927E-3,-0E0,-4.3256613E-3,-0E0,7.514929E-3,-0E0,-8.93048E-5,4.730968E-3,-0E0,-3.3603965E-3],"split_indices":[4,4,1,1,11,12,8,0,12,4,14,0,5,0,14,0,8,4,12,4,13,0,0,0,0,0,3,4,4,8,8,4,14,14,10,0,0,12,12,12,12,0,0,0,11,1,14,0,0,4,11,0,8,10,4,10,4,13,8,12,4,0,0,0,0,3,4,4,1,0,0,0,0,4,14,14,3,0,8,4,8,4,4,13,5,8,1,0,0,0,8,5,10,12,11,0,0,3,4,0,0,0,0,12,8,0,0,0,10,12,5,0,0,3,0,0,8,5,3,8,14,4,8,0,3,11,0,5,10,13,13,0,0,0,0,0,0,0,0,0,0,0,0,0,0,0,0,0,0,0,0,0,0,0,0,0,0,0,0,0,0,0,0,0,0,0,0,0,0,0,0,0,0,0,0],"split_type":[0,0,1,1,0,0,0,0,0,0,0,0,0,0,0,0,0,0,0,0,0,0,0,0,0,0,0,0,0,0,0,0,0,0,0,0,0,0,0,0,0,0,0,0,0,1,0,0,0,0,0,0,0,0,0,0,0,0,0,0,0,0,0,0,0,0,0,0,1,0,0,0,0,0,0,0,0,0,0,0,0,0,0,0,0,0,1,0,0,0,0,0,0,0,0,0,0,0,0,0,0,0,0,0,0,0,0,0,0,0,0,0,0,0,0,0,0,0,0,0,0,0,0,0,0,0,0,0,0,0,0,0,0,0,0,0,0,0,0,0,0,0,0,0,0,0,0,0,0,0,0,0,0,0,0,0,0,0,0,0,0,0,0,0,0,0,0,0,0,0,0,0,0,0,0],"sum_hessian":[5.91822E5,5.80237E5,1.1585E4,4.635E3,5.75602E5,1.931E3,9.654E3,2.905E3,1.73E3,4.44551E5,1.31051E5,8.38E2,1.093E3,2.118E3,7.536E3,2.17E2,1.513E3,4.22667E5,2.1884E4,4.4419E4,8.6632E4,3.2E1,1.061E3,6.461E3,1.075E3,1.47E2,1.366E3,1.53196E5,2.69471E5,1.2896E4,8.988E3,3.6432E4,7.987E3,7.2788E4,1.3844E4,9.9E1,1.267E3,1.08123E5,4.5073E4,1.61055E5,1.08416E5,4.837E3,8.059E3,3.47E2,8.641E3,7.495E3,2.8937E4,6.369E3,1.618E3,5.6455E4,1.6333E4,6.28E2,1.3216E4,8.5321E4,2.2802E4,8.472E3,3.6601E4,1.3396E4,1.47659E5,9.5939E4,1.2477E4,8.496E3,1.45E2,3.543E3,3.952E3,2.0037E4,8.9E3,3.917E4,1.7285E4,1.48E4,1.533E3,1.2292E4,9.24E2,3.6381E4,4.894E4,7.835E3,1.4967E4,1.565E3,6.907E3,1.2323E4,2.4278E4,5.13E3,8.266E3,1.2235E4,1.35424E5,4.1211E4,5.4728E4,2.965E3,9.512E3,5.554E3,1.4483E4,2.727E3,6.173E3,3.5297E4,3.873E3,3.815E3,1.347E4,1.6107E4,2.0274E4,3.849E4,1.045E4,5.92E2,7.243E3,4.719E3,1.0248E4,5.566E3,1.341E3,3.388E3,8.935E3,1.0041E4,1.4237E4,1.235E3,3.895E3,5.739E3,2.527E3,1.204E3,1.1031E4,1.1011E4,1.24413E5,2.6596E4,1.4615E4,1.9379E4,3.5349E4,1.92E3,1.2563E4,1.959E3,7.68E2,3.229E3,2.944E3,1.8679E4,1.6618E4,4.21E2,3.452E3,3.806E3,1.2301E4,9.252E3,1.1022E4,3.212E3,1.507E3,5.117E3,5.131E3,4.18E2,8.517E3,3.645E3,6.396E3,4.55E3,9.687E3,5.608E3,1.31E2,1.794E3,9.237E3,5.124E3,5.887E3,1.16513E5,7.9E3,1.916E3,2.468E4,1.1597E4,3.018E3,1.1708E4,7.671E3,2.6483E4,8.866E3,1.1366E4,1.197E3,1.523E3,4.36E2,2.577E3,6.52E2,4.7E2,2.474E3,1.7785E4,8.94E2,7.829E3,8.789E3],"tree_param":{"num_deleted":"0","num_feature":"15","num_nodes":"175","size_leaf_vector":"1"}},{"base_weights":[7.355942E-5,-1.7758973E-4,9.733966E-3,1.7904704E-2,-2.7210117E-4,4.13046E-3,1.9204652E-2,-0E0,7.2071124E-3,-3.3471207E-3,8.718641E-5,-0E0,3.4697112E-3,-0E0,7.878071E-3,-0E0,-5.4915566E-3,-5.6483445E-4,4.8085507E-3,-7.3539186E-3,6.216889E-3,-6.8397294E-3,-0E0,1.0463215E-3,-1.9723075E-3,1.9465706E-3,3.9616446E-3,-0E0,-3.2146776E-3,1.4972538E-2,-0E0,-0E0,-7.432001E-3,1.5110307E-3,-1.167627E-3,-2.4008332E-4,3.6218227E-3,-1.1672186E-4,-3.3847701E-3,-0E0,9.524072E-3,2.132493E-2,-0E0,-2.7482626E-3,-0E0,4.773626E-3,-1.46562E-3,1.241589E-2,7.9603953E-4,-3.2414212E-3,9.479853E-4,-5.302124E-3,-6.8098475E-4,1.2199867E-3,-4.610348E-3,3.9358805E-3,-0E0,2.3006963E-2,-0E0,-6.1818556E-4,1.0909338E-2,-3.123523E-3,3.0313022E-4,2.575775E-2,7.773553E-3,7.5724027E-3,-1.497457E-3,-7.14193E-3,-1.6549537E-4,2.4577796E-3,-2.242355E-3,-5.805958E-3,6.1439314E-5,2.0289633E-3,-6.709479E-3,-1.0635933E-3,3.660753E-3,-0E0,-8.16162E-3,8.814208E-3,-0E0,-1.4651645E-3,8.483033E-3,-0E0,1.5596226E-2,-1.1192019E-3,-6.6754273E-3,6.1046644E-3,-1.2560346E-3,-0E0,3.0908024E-2,1.5141096E-2,1.6992082E-3,1.4285513E-2,-1.1798653E-3,3.90224E-3,-3.4897032E-3,-8.8992575E-3,-0E0,-1.0181523E-3,3.214127E-3,3.6241824E-3,-3.542792E-3,-4.2370213E-3,2.1270448E-3,-2.435528E-3,-7.7033527E-3,-9.954433E-4,2.3292701E-3,3.975512E-5,7.261549E-3,-0E0,-8.132862E-3,3.4700336E-3,-3.125861E-3,-1.8904959E-3,1.7835576E-3,-4.2062253E-3,-0E0,6.1001624E-3,-0E0,1.0463615E-2,3.5804417E-3,-1.0266694E-3,7.3738024E-4,-2.584269E-3,2.4459377E-4,-0E0,3.2589012E-3,-7.947876E-4,2.4435578E-3,1.1585334E-2,-0E0,6.7081153E-3,-0E0,-0E0,3.7422464E-3,6.247133E-3,-0E0,-0E0,-4.994236E-3,-0E0,2.9978734E-3,-1.9502667E-4,-2.9144585E-3,-0E0,-3.3477386E-3,3.2513412E-3,-1.5295204E-4,2.1557622E-3,1.8285296E-4,-0E0,-4.6985745E-3,-0E0,-1.8425573E-3,2.9351981E-3,-5.853837E-4,-0E0,-2.8629315E-3,-3.0224791E-3,-0E0,-1.2139583E-3,5.314037E-4,-0E0,3.9496603E-3,-3.2363152E-3,-0E0,-6.0683844E-4,4.1012224E-3,-0E0,-2.6909453E-3],"categories":[],"categories_nodes":[],"categories_segments":[],"categories_sizes":[],"default_left":[0,0,0,1,1,0,0,0,0,0,0,0,0,0,0,0,1,0,0,0,0,0,0,0,0,1,0,0,0,0,0,0,0,0,0,0,0,0,0,0,0,0,0,0,0,0,0,0,0,0,1,1,0,0,0,0,0,0,0,0,0,0,0,0,0,0,0,0,0,0,0,0,0,0,0,0,0,0,0,0,0,0,0,0,0,0,0,0,1,0,1,1,0,0,1,1,0,0,0,0,0,0,1,1,0,0,0,0,0,0,0,0,1,0,0,0,0,0,0,0,0,0,0,0,0,0,0,0,0,0,0,0,0,0,0,0,0,0,0,0,0,0,0,0,0,0,0,0,0,0,0,0,0,0,0,0,0,0,0,0,0,0,0,0,0,0,0,0,0,0,0],"id":3,"left_children":[1,3,5,7,9,11,13,-1,-1,15,17,-1,-1,-1,-1,19,21,23,25,27,29,31,33,35,37,39,-1,-1,-1,41,-1,-1,43,-1,-1,45,47,49,51,53,55,57,-1,-1,-1,59,61,63,65,67,69,71,73,75,77,-1,-1,79,-1,81,83,85,87,89,91,93,95,97,99,101,103,105,107,109,111,113,115,-1,117,-1,-1,-1,119,-1,121,123,125,127,129,-1,131,133,135,137,139,141,143,145,-1,-1,147,149,151,153,155,157,159,-1,-1,161,163,-1,165,167,169,-1,-1,-1,-1,-1,-1,-1,-1,-1,-1,-1,-1,-1,-1,-1,-1,-1,-1,-1,-1,-1,-1,-1,-1,-1,-1,-1,-1,-1,-1,-1,-1,-1,-1,-1,-1,-1,-1,-1,-1,-1,-1,-1,-1,-1,-1,-1,-1,-1,-1,-1,-1,-1,-1,-1,-1],"loss_changes":[1.5486075E0,7.767869E-1,5.8181953E-1,1.6592783E-1,6.719294E-1,3.3414745E-1,1.738565E-1,0E0,0E0,4.666533E-1,1.6202595E0,0E0,0E0,0E0,0E0,1.1156564E0,2.889465E-1,1.0224059E0,1.0997176E0,1.4405084E-1,7.67831E-1,1.7448378E-1,1.1910571E-1,7.159925E-1,5.929978E-1,5.755373E-1,0E0,0E0,0E0,6.127782E-1,0E0,0E0,1.5880394E-1,0E0,0E0,7.7914137E-1,1.6094074E0,3.8709944E-1,6.23091E-1,1.7603438E-1,1.23263896E-1,1.4354587E-1,0E0,0E0,0E0,9.240603E-1,3.5243937E-1,6.0582185E-1,9.2361355E-1,2.777514E-1,3.781035E-1,2.7222204E-1,1.0046128E0,2.1046023E-1,1.2138738E-1,0E0,0E0,1.4211941E-1,0E0,3.542441E-1,5.8907604E-1,3.3257174E-1,5.029658E-1,4.020717E-1,3.723383E-1,1.0455177E0,4.2246565E-1,1.7332417E-1,1.768566E-1,3.8926756E-1,2.2165316E-1,3.3563685E-1,1.3941482E-1,3.175509E-1,2.7733296E-1,1.2909947E-1,2.6438236E-1,0E0,1.7756934E-1,0E0,0E0,0E0,2.7308875E-1,0E0,1.5330076E-1,2.634127E-1,2.1688879E-1,1.827546E-1,2.8637692E-1,0E0,3.0253863E-1,2.0146322E-1,2.5522342E-1,4.571091E-1,2.3115312E-1,2.1808314E-1,3.4717265E-1,1.5532494E-1,0E0,0E0,2.6284876E-1,3.239364E-1,2.8638923E-1,1.418705E-1,2.1388726E-1,5.069894E-1,3.4192133E-1,0E0,0E0,1.4096282E-1,3.1493342E-1,0E0,2.0842183E-1,2.431933E-1,1.958441E-1,0E0,0E0,0E0,0E0,0E0,0E0,0E0,0E0,0E0,0E0,0E0,0E0,0E0,0E0,0E0,0E0,0E0,0E0,0E0,0E0,0E0,0E0,0E0,0E0,0E0,0E0,0E0,0E0,0E0,0E0,0E0,0E0,0E0,0E0,0E0,0E0,0E0,0E0,0E0,0E0,0E0,0E0,0E0,0E0,0E0,0E0,0E0,0E0,0E0,0E0,0E0,0E0,0E0,0E0,0E0,0E0],"parents":[2147483647,0,0,1,1,2,2,3,3,4,4,5,5,6,6,9,9,10,10,15,15,16,16,17,17,18,18,19,19,20,20,21,21,22,22,23,23,24,24,25,25,29,29,32,32,35,35,36,36,37,37,38,38,39,39,40,40,41,41,45,45,46,46,47,47,48,48,49,49,50,50,51,51,52,52,53,53,54,54,57,57,59,59,60,60,61,61,62,62,63,63,64,64,65,65,66,66,67,67,68,68,69,69,70,70,71,71,72,72,73,73,74,74,75,75,76,76,78,78,82,82,84,84,85,85,86,86,87,87,88,88,90,90,91,91,92,92,93,93,94,94,95,95,96,96,97,97,100,100,101,101,102,102,103,103,104,104,105,105,106,106,109,109,110,110,112,112,113,113,114,114],"right_children":[2,4,6,8,10,12,14,-1,-1,16,18,-1,-1,-1,-1,20,22,24,26,28,30,32,34,36,38,40,-1,-1,-1,42,-1,-1,44,-1,-1,46,48,50,52,54,56,58,-1,-1,-1,60,62,64,66,68,70,72,74,76,78,-1,-1,80,-1,82,84,86,88,90,92,94,96,98,100,102,104,106,108,110,112,114,116,-1,118,-1,-1,-1,120,-1,122,124,126,128,130,-1,132,134,136,138,140,142,144,146,-1,-1,148,150,152,154,156,158,160,-1,-1,162,164,-1,166,168,170,-1,-1,-1,-1,-1,-1,-1,-1,-1,-1,-1,-1,-1,-1,-1,-1,-1,-1,-1,-1,-1,-1,-1,-1,-1,-1,-1,-1,-1,-1,-1,-1,-1,-1,-1,-1,-1,-1,-1,-1,-1,-1,-1,-1,-1,-1,-1,-1,-1,-1,-1,-1,-1,-1,-1,-1],"split_conditions":[5.708654E0,-6.6246834E0,-6.2905205E1,2.055E3,-6.839173E1,6.2906857E0,7.229569E-1,-0E0,7.2071124E-3,3.4159958E0,4.044435E0,-0E0,3.4697112E-3,-0E0,7.878071E-3,-3.301957E0,3.13E2,1.8264161E0,-2.7847584E1,2.0777817E1,2.6427603E0,5.671886E0,9.192268E-1,-7.388585E-1,5.238215E-1,3.17E2,3.9616446E-3,-0E0,-3.2146776E-3,3.14E2,-0E0,-0E0,1.0875E0,1.5110307E-3,-1.167627E-3,-4.1977572E0,7.5596535E-1,-4.8380016E1,3.0433452E0,2.817E3,-1.1512951E1,2.5735304E0,-0E0,-2.7482626E-3,-0E0,8.771011E-1,-1.9137665E1,9.2956555E-1,9.1628224E-1,-4.3565224E1,6.669763E0,1.2666667E0,2.61E2,4.5090714E0,4.477049E0,3.9358805E-3,-0E0,1.4586738E1,-0E0,-2.306161E1,-5.3796677E1,9.904733E0,-3.1380305E0,1.52E2,-1.8644983E1,-7.5441055E0,-3.3336082E1,6.2945933E0,2.9918556E0,3.7005515E0,2.568E3,2.3661435E0,2.405983E0,-8.655371E0,2.206E3,6.1669154E0,4.671711E0,-0E0,5.2364283E0,8.814208E-3,-0E0,-1.4651645E-3,-4.654621E0,-0E0,-5.1745057E0,-2.3927631E0,6.4044876E0,9.0673405E-1,6.9997516E0,-0E0,7.3409367E0,6.449139E0,2.2377634E1,1.682777E0,6.9468403E0,1.2103189E0,2.541E3,8.319399E-1,-0E0,-1.0181523E-3,-6.033631E1,-3.248059E1,2.756E3,-1.19625E1,-8E-1,-9.21818E0,-3.0568154E0,-9.954433E-4,2.3292701E-3,-4.0917435E1,8.6044973E-1,-0E0,2.781E3,-3.4905155E0,1.9963757E1,-1.8904959E-3,1.7835576E-3,-4.2062253E-3,-0E0,6.1001624E-3,-0E0,1.0463615E-2,3.5804417E-3,-1.0266694E-3,7.3738024E-4,-2.584269E-3,2.4459377E-4,-0E0,3.2589012E-3,-7.947876E-4,2.4435578E-3,1.1585334E-2,-0E0,6.7081153E-3,-0E0,-0E0,3.7422464E-3,6.247133E-3,-0E0,-0E0,-4.994236E-3,-0E0,2.9978734E-3,-1.9502667E-4,-2.9144585E-3,-0E0,-3.3477386E-3,3.2513412E-3,-1.5295204E-4,2.1557622E-3,1.8285296E-4,-0E0,-4.6985745E-3,-0E0,-1.8425573E-3,2.9351981E-3,-5.853837E-4,-0E0,-2.8629315E-3,-3.0224791E-3,-0E0,-1.2139583E-3,5.314037E-4,-0E0,3.9496603E-3,-3.2363152E-3,-0E0,-6.0683844E-4,4.1012224E-3,-0E0,-2.6909453E-3],"split_indices":[4,4,12,9,12,4,8,0,0,4,4,0,0,0,0,4,10,4,12,11,4,5,8,4,13,10,0,0,0,10,0,0,3,0,0,4,4,13,4,9,13,4,0,0,0,8,12,8,8,12,5,3,10,4,4,0,0,13,0,12,12,13,4,10,12,12,12,7,4,4,9,4,4,12,9,5,7,0,4,0,0,0,4,0,4,4,7,8,5,0,5,5,13,4,5,11,9,8,0,0,13,12,9,3,3,12,12,0,0,11,8,0,9,13,11,0,0,0,0,0,0,0,0,0,0,0,0,0,0,0,0,0,0,0,0,0,0,0,0,0,0,0,0,0,0,0,0,0,0,0,0,0,0,0,0,0,0,0,0,0,0,0,0,0,0,0,0,0,0,0,0],"split_type":[0,0,0,0,0,0,0,0,0,0,0,0,0,0,0,0,0,0,0,0,0,0,0,0,0,0,0,0,0,0,0,0,0,0,0,0,0,0,0,0,0,0,0,0,0,0,0,0,0,0,0,0,0,0,0,0,0,0,0,0,0,0,0,0,0,0,0,0,0,0,0,0,0,0,0,0,0,0,0,0,0,0,0,0,0,0,0,0,0,0,0,0,0,0,0,0,0,0,0,0,0,0,0,0,0,0,0,0,0,0,0,0,0,0,0,0,0,0,0,0,0,0,0,0,0,0,0,0,0,0,0,0,0,0,0,0,0,0,0,0,0,0,0,0,0,0,0,0,0,0,0,0,0,0,0,0,0,0,0,0,0,0,0,0,0,0,0,0,0,0,0],"sum_hessian":[5.919E5,5.75748E5,1.6152E4,2.313E3,5.73435E5,1.0959E4,5.193E3,3.14E2,1.999E3,6.3386E4,5.10049E5,6.01E3,4.949E3,1.333E3,3.86E3,2.4386E4,3.9E4,4.45996E5,6.4053E4,1.1015E4,1.3371E4,3.1305E4,7.695E3,2.04059E5,2.41937E5,4.6463E4,1.759E4,2.797E3,8.218E3,5.702E3,7.669E3,1.637E3,2.9668E4,3.349E3,4.346E3,1.33062E5,7.0997E4,1.08181E5,1.33756E5,3.821E4,8.253E3,4.141E3,1.561E3,2.7362E4,2.306E3,2.4232E4,1.0883E5,1.6225E4,5.4772E4,3.0283E4,7.7898E4,7.5695E4,5.8061E4,3.2221E4,5.989E3,6.461E3,1.792E3,3.824E3,3.17E2,1.1894E4,1.2338E4,5.9594E4,4.9236E4,3.494E3,1.2731E4,1.5127E4,3.9645E4,1.1646E4,1.8637E4,5.5383E4,2.2515E4,7.1197E4,4.498E3,3.8725E4,1.9336E4,1.4167E4,1.8054E4,2.279E3,3.71E3,3.199E3,6.25E2,9.386E3,2.508E3,3.897E3,8.441E3,4.0242E4,1.9352E4,1.2006E4,3.723E4,6.57E2,2.837E3,4.855E3,7.876E3,9.309E3,5.818E3,9.085E3,3.056E4,9.677E3,1.969E3,1.2026E4,6.611E3,4.8022E4,7.361E3,1.7307E4,5.208E3,2.7905E4,4.3292E4,1.937E3,2.561E3,2.9712E4,9.013E3,1.994E3,1.7342E4,2.639E3,1.1528E4,1.566E3,1.6488E4,2.741E3,9.69E2,1.375E3,1.133E3,1.472E3,6.969E3,2.7742E4,1.25E4,1.8568E4,7.84E2,5.203E3,6.803E3,3.4243E4,2.987E3,2.575E3,2.62E2,3.345E3,1.51E3,5.627E3,2.249E3,6.931E3,2.378E3,4.749E3,1.069E3,4.552E3,4.533E3,2.0944E4,9.616E3,2.26E2,9.451E3,3.565E3,3.046E3,2.3423E4,2.4599E4,5.42E3,1.941E3,1.991E3,1.5316E4,3.05E3,2.158E3,1.8501E4,9.404E3,3.6634E4,6.658E3,6.518E3,2.3194E4,3.209E3,5.804E3,1.4873E4,2.469E3,8.09E2,1.83E3,6.658E3,4.87E3],"tree_param":{"num_deleted":"0","num_feature":"15","num_nodes":"171","size_leaf_vector":"1"}},{"base_weights":[3.35982E-4,3.6488385E-5,4.504665E-3,1.188806E-3,-9.144487E-4,2.1174047E-2,-3.13345E-3,1.4165333E-3,-1.5611144E-3,-2.7744141E-3,5.3004385E-4,6.1678246E-2,1.2012826E-2,1.4144846E-3,-9.001069E-3,-2.7113578E-3,1.7132048E-3,-9.5468643E-4,-4.9000555E-3,-1.5160142E-4,8.15677E-3,2.24099E-2,-0E0,-0E0,4.7321077E-3,-3.9913165E-3,3.8436507E-3,-1.15797045E-2,5.514718E-4,-5.3998954E-3,3.590723E-3,2.622267E-3,-0E0,-3.3984052E-3,1.24954E-2,-0E0,-1.0549954E-2,-1.7542748E-3,1.8831677E-3,8.687837E-3,-8.24156E-3,-1.09422095E-2,1.625104E-3,-1.42837865E-2,-0E0,7.292426E-5,-7.266393E-3,1.3248804E-2,-8.525531E-4,-0E0,5.0369133E-3,1.2709767E-2,-7.3446846E-4,1.3205184E-2,-4.2192102E-3,2.235193E-2,1.8754869E-3,-6.790135E-3,3.741153E-3,-7.931849E-4,-1.3140076E-2,-2.7870697E-3,2.2897068E-3,4.856939E-3,-5.427798E-4,-0E0,-1.3577778E-2,-0E0,-4.2093373E-3,-0E0,-5.3989766E-3,-0E0,-9.805026E-3,5.7903267E-3,-0E0,-3.1688693E-3,1.78776E-3,8.8585925E-4,2.2874359E-2,-0E0,2.3000555E-2,-4.1651186E-3,-0E0,-0E0,6.999549E-3,-1.09319E-2,-2.296421E-3,-0E0,8.445765E-3,-1.5201111E-3,3.593487E-3,1.61004E-3,-1.0399622E-2,3.3750027E-2,-6.925267E-4,-0E0,-1.3989798E-2,-1.1129192E-3,-7.2176256E-3,8.028166E-3,-5.185111E-3,-3.2692117E-4,6.601638E-3,6.1351047E-3,-3.2148126E-3,-5.507487E-3,-0E0,-4.465838E-3,-0E0,2.304751E-5,-5.8424333E-3,1.7959662E-2,9.1244135E-4,-1.4505056E-3,4.4087707E-3,3.6185235E-2,1.3262498E-2,-0E0,8.527192E-3,-5.7196924E-3,1.0625306E-2,3.689422E-3,-5.8060064E-4,-0E0,-1.3116938E-2,-3.9260173E-3,4.3947175E-3,-1.2195797E-2,-0E0,-0E0,1.2135755E-2,-4.263629E-3,1.8317925E-2,-0E0,-1.5731987E-2,7.60048E-3,-1.638047E-3,6.489728E-4,-9.160615E-3,-0E0,-9.255988E-3,4.919418E-3,-4.2253593E-3,2.4423215E-3,9.840683E-3,-4.237168E-4,7.636297E-3,-0E0,-6.994668E-3,-0E0,-2.4204368E-3,1.0893459E-2,-0E0,-1.6918253E-4,6.3248198E-3,-9.407719E-3,-0E0,1.289862E-2,-3.459566E-4,1.3087589E-2,-0E0,3.190389E-2,-0E0,-7.752053E-3,2.4414432E-4,2.1050442E-2,-0E0,-0E0,4.641913E-3,6.552103E-4,-2.250023E-3,-5.019814E-3,1.2340786E-2,-1.4602195E-2,-0E0,-5.3009638E-3,3.7529832E-3,6.5326714E-3,-7.64521E-4,-1.3385167E-2,-0E0,-0E0,-8.3855465E-3,-0E0,7.426866E-3,-2.8884239E-3,1.5707E-3,-0E0,-1.6629733E-2,-0E0,1.6335426E-2,-4.557517E-3,-0E0,-1.1210784E-2,-0E0,-1.0993305E-2,-0E0,-8.17237E-3,1.1167096E-3,-0E0,9.942626E-3,5.69342E-3,1.2409079E-2,2.7508687E-3,-7.3118126E-3,1.7619565E-3,-8.230948E-3,3.656325E-4,-8.786859E-3,8.68842E-4,-1.0321029E-3,3.233258E-3,-0E0,-4.846502E-3,-0E0,9.831381E-4,-5.811036E-4,8.310421E-3,4.7506503E-5,7.872501E-5,-3.0530952E-3,-0E0,1.2167999E-2,-0E0,-2.9767307E-3,-0E0,1.0313259E-2,-5.6109845E-4,2.9599143E-3,-8.229389E-4,1.5376374E-3,-0E0,-2.017406E-3,-0E0,6.281034E-3,-5.248035E-3,-0E0,-2.0751427E-3,6.442875E-4,3.3543915E-3,-1.6648994E-3,-0E0,-4.9401363E-3,-9.243338E-4,2.0449033E-3,-4.272841E-3,-0E0,-6.100205E-3,-0E0,7.689241E-3,-0E0,3.914296E-4,-2.3359605E-3,7.867857E-4,-1.2644501E-3,-4.5608394E-3,-0E0,-2.364207E-3,2.0856417E-3,-4.471897E-3,-0E0,-3.642712E-3,-0E0,1.0528174E-3,-1.5429531E-3,-0E0,4.6741623E-3,-0E0,3.302935E-3,-0E0,3.6902926E-3,-0E0,-4.2276103E-3,-1.2634229E-3,3.1949626E-3,-5.567042E-3,-0E0,-3.5303985E-3,-0E0],"categories":[0,0,0,0,0],"categories_nodes":[5,49,100,104,145],"categories_segments":[0,1,2,3,4],"categories_sizes":[1,1,1,1,1],"default_left":[0,0,0,0,1,1,0,0,0,0,0,0,0,0,0,0,0,0,0,0,0,0,0,0,0,0,0,0,0,0,0,0,0,0,0,0,0,0,0,0,0,0,0,1,0,0,0,1,0,1,0,0,0,0,1,0,0,0,0,0,0,0,0,0,0,0,0,0,0,0,0,0,0,0,0,0,0,0,0,0,0,0,0,0,0,0,0,0,0,0,0,0,0,0,0,0,0,0,0,0,1,0,0,0,1,0,0,0,0,0,1,0,0,0,0,0,0,0,0,0,0,0,0,0,0,0,0,0,0,0,0,0,0,0,1,1,0,0,0,0,0,0,0,1,0,1,0,1,0,0,0,0,0,0,0,0,0,0,0,0,0,0,0,0,0,0,0,0,0,0,0,0,0,1,0,0,0,0,0,0,0,0,0,0,0,0,0,0,0,0,0,0,0,0,0,0,0,0,0,0,0,0,0,0,0,0,0,0,0,0,0,0,0,0,0,0,0,0,0,0,0,0,0,0,0,0,0,0,0,0,0,0,0,0,0,0,0,0,0,0,0,0,0,0,0,0,0,0,0,0,0,0,0,0,0,0,0,0,0,0,0,0,0,0,0,0,0,0,0,0,0,0,0,0,0,0,0,0,0],"id":4,"left_children":[1,3,5,7,9,11,13,15,-1,17,19,21,23,25,27,29,31,33,35,37,39,-1,-1,-1,-1,41,-1,43,-1,45,47,49,51,53,55,57,59,61,63,-1,65,67,-1,69,-1,-1,71,73,-1,75,77,79,81,83,85,87,89,91,93,-1,95,97,99,101,103,-1,105,-1,-1,-1,-1,-1,107,-1,-1,109,111,113,115,-1,117,119,121,-1,-1,123,125,-1,-1,-1,-1,-1,127,129,131,-1,133,135,137,-1,139,141,143,145,147,-1,-1,-1,-1,-1,149,151,153,155,157,159,161,-1,-1,163,165,167,169,171,173,175,177,179,-1,-1,-1,181,183,185,187,189,191,-1,193,-1,195,-1,197,199,201,203,-1,205,207,-1,-1,-1,-1,209,211,213,215,217,219,-1,-1,221,-1,223,-1,225,-1,227,-1,229,231,-1,233,235,-1,237,239,-1,-1,241,-1,243,245,-1,-1,-1,-1,-1,247,-1,249,251,253,255,257,259,-1,261,-1,263,265,267,-1,269,271,273,275,-1,277,-1,-1,-1,-1,-1,-1,-1,-1,-1,-1,-1,-1,-1,-1,-1,-1,-1,-1,-1,-1,-1,-1,-1,-1,-1,-1,-1,-1,-1,-1,-1,-1,-1,-1,-1,-1,-1,-1,-1,-1,-1,-1,-1,-1,-1,-1,-1,-1,-1,-1,-1,-1,-1,-1,-1,-1,-1,-1,-1,-1,-1,-1,-1,-1,-1,-1,-1,-1,-1,-1],"loss_changes":[6.8630993E-1,6.1191297E-1,4.9357433E0,3.0139977E-1,8.2907987E-1,3.6127648E0,7.561436E-1,2.933608E-1,0E0,4.4990468E-1,9.500141E-1,1.7064857E-1,2.3210347E-1,7.834583E-1,4.4763523E-1,2.6001912E-1,3.4732884E-1,2.3695157E0,1.6520275E0,4.8688805E-1,4.4847736E0,0E0,0E0,0E0,0E0,5.413903E-1,0E0,3.41699E-1,0E0,2.0006472E-1,2.9922435E-1,9.712174E-1,8.715746E-1,7.751304E-1,8.4885156E-1,7.9161084E-1,4.0272713E-1,3.6947995E-1,5.035677E-1,0E0,3.4019822E-1,1.2933058E-1,0E0,3.056264E-1,0E0,0E0,2.1800572E-1,1.6043556E-1,0E0,4.108032E-1,5.5809917E0,6.170768E-1,2.0700313E-1,1.7968261E-1,6.457877E-1,2.1338296E-1,3.969475E-1,5.24702E-1,3.110106E0,0E0,3.4864974E-1,4.3314707E-1,2.683809E0,3.4860432E-1,5.447146E-1,0E0,2.7210146E-1,0E0,0E0,0E0,0E0,0E0,1.85534E-1,0E0,0E0,2.9744965E-1,4.1735536E-1,5.6823915E-1,1.2452788E0,0E0,1.3245296E-1,2.753056E-1,1.4450264E-1,0E0,0E0,2.4741042E-1,5.372216E-1,0E0,0E0,0E0,0E0,0E0,1.9042093E-1,1.7925715E-1,1.0259188E0,0E0,3.263204E-1,1.7721309E-1,4.0012342E-1,0E0,3.3837366E-1,2.2723942E-1,1.8378782E-1,1.1217037E0,3.173498E-1,0E0,0E0,0E0,0E0,0E0,1.2231505E-1,6.3775176E-1,3.2772487E-1,3.1741607E-1,1.2719381E0,5.051007E-1,2.029139E0,0E0,0E0,2.630538E-1,1.37722E-1,2.559594E-1,1.3341083E-1,4.5493782E-1,2.839738E-1,4.5614904E-1,1.0261501E0,2.0616126E-1,0E0,0E0,0E0,3.4259996E-1,1.5890378E-1,1.4541338E-1,3.0555487E-1,1.6105533E-1,2.5657427E-1,0E0,3.1340766E-1,0E0,1.339854E-1,0E0,2.1835671E-1,2.8374904E-1,8.4146976E-1,1.6905178E-1,0E0,1.6746128E-1,2.595032E-1,0E0,0E0,0E0,0E0,2.773114E-1,2.767004E-1,2.170138E-1,1.4805439E-1,1.3222682E0,1.882956E-1,0E0,0E0,1.9812751E-1,0E0,1.23919964E-1,0E0,1.5877819E-1,0E0,1.4890417E-1,0E0,3.5869896E-1,2.727696E-1,0E0,1.5773593E-1,1.4926767E-1,0E0,2.647686E-1,3.266966E-1,0E0,0E0,1.2057519E-1,0E0,1.3649449E-1,3.4403694E-1,0E0,0E0,0E0,0E0,0E0,1.5953684E-1,0E0,1.494922E-1,3.2195225E-1,2.8480622E-1,3.344803E-1,1.17961556E-1,2.1165836E-1,0E0,1.369513E-1,0E0,1.3249508E-1,1.6313854E-1,2.9500204E-1,0E0,1.6590042E-1,2.0401627E-1,5.254903E-1,2.0785245E-1,0E0,2.464205E-1,0E0,0E0,0E0,0E0,0E0,0E0,0E0,0E0,0E0,0E0,0E0,0E0,0E0,0E0,0E0,0E0,0E0,0E0,0E0,0E0,0E0,0E0,0E0,0E0,0E0,0E0,0E0,0E0,0E0,0E0,0E0,0E0,0E0,0E0,0E0,0E0,0E0,0E0,0E0,0E0,0E0,0E0,0E0,0E0,0E0,0E0,0E0,0E0,0E0,0E0,0E0,0E0,0E0,0E0,0E0,0E0,0E0,0E0,0E0,0E0,0E0,0E0,0E0,0E0,0E0,0E0,0E0,0E0,0E0,0E0],"parents":[2147483647,0,0,1,1,2,2,3,3,4,4,5,5,6,6,7,7,9,9,10,10,11,11,12,12,13,13,14,14,15,15,16,16,17,17,18,18,19,19,20,20,25,25,27,27,29,29,30,30,31,31,32,32,33,33,34,34,35,35,36,36,37,37,38,38,40,40,41,41,43,43,46,46,47,47,49,49,50,50,51,51,52,52,53,53,54,54,55,55,56,56,57,57,58,58,60,60,61,61,62,62,63,63,64,64,66,66,72,72,75,75,76,76,77,77,78,78,80,80,81,81,82,82,85,85,86,86,92,92,93,93,94,94,96,96,97,97,98,98,100,100,101,101,102,102,103,103,104,104,110,110,111,111,112,112,113,113,114,114,115,115,116,116,119,119,120,120,121,121,122,122,123,123,124,124,125,125,126,126,127,127,131,131,132,132,133,133,134,134,135,135,136,136,138,138,140,140,142,142,143,143,144,144,145,145,147,147,148,148,153,153,154,154,155,155,156,156,157,157,158,158,161,161,163,163,165,165,167,167,169,169,170,170,172,172,173,173,175,175,176,176,179,179,181,181,182,182,188,188,190,190,191,191,192,192,193,193,194,194,195,195,197,197,199,199,200,200,201,201,203,203,204,204,205,205,206,206,208,208],"right_children":[2,4,6,8,10,12,14,16,-1,18,20,22,24,26,28,30,32,34,36,38,40,-1,-1,-1,-1,42,-1,44,-1,46,48,50,52,54,56,58,60,62,64,-1,66,68,-1,70,-1,-1,72,74,-1,76,78,80,82,84,86,88,90,92,94,-1,96,98,100,102,104,-1,106,-1,-1,-1,-1,-1,108,-1,-1,110,112,114,116,-1,118,120,122,-1,-1,124,126,-1,-1,-1,-1,-1,128,130,132,-1,134,136,138,-1,140,142,144,146,148,-1,-1,-1,-1,-1,150,152,154,156,158,160,162,-1,-1,164,166,168,170,172,174,176,178,180,-1,-1,-1,182,184,186,188,190,192,-1,194,-1,196,-1,198,200,202,204,-1,206,208,-1,-1,-1,-1,210,212,214,216,218,220,-1,-1,222,-1,224,-1,226,-1,228,-1,230,232,-1,234,236,-1,238,240,-1,-1,242,-1,244,246,-1,-1,-1,-1,-1,248,-1,250,252,254,256,258,260,-1,262,-1,264,266,268,-1,270,272,274,276,-1,278,-1,-1,-1,-1,-1,-1,-1,-1,-1,-1,-1,-1,-1,-1,-1,-1,-1,-1,-1,-1,-1,-1,-1,-1,-1,-1,-1,-1,-1,-1,-1,-1,-1,-1,-1,-1,-1,-1,-1,-1,-1,-1,-1,-1,-1,-1,-1,-1,-1,-1,-1,-1,-1,-1,-1,-1,-1,-1,-1,-1,-1,-1,-1,-1,-1,-1,-1,-1,-1,-1],"split_conditions":[5.0661836E0,8.41E1,2.1173027E0,3.647956E1,-2.2563934E1,NaN,2.627155E0,-6.9000374E1,-1.5611144E-3,1.7973921E0,3.780417E0,2.0733178E0,-9.024711E1,-6.383421E1,6.9659305E0,2.9918556E0,3.0433452E0,3.8220088E0,3.489528E0,2.8740755E1,2.1789954E0,2.24099E-2,-0E0,-0E0,4.7321077E-3,5.943129E0,3.8436507E-3,-3.701283E1,5.514718E-4,-2.6088438E0,1.8316239E0,-1.9688035E0,1.1143347E0,-3.301957E0,1.4789534E0,-2.3369415E0,5.3496265E0,3.008293E0,1.8264161E0,8.687837E-3,2.4236665E0,2.369E3,1.625104E-3,-1.3819048E1,-0E0,7.292426E-5,2.549E3,3.18E3,-8.525531E-4,NaN,2.0442233E0,-6.1947914E1,7.85E1,-3.999658E1,-4.7900093E1,-8.599975E1,-4.8723537E1,-4.8913674E0,2.0272982E0,-7.931849E-4,2.114E3,8.82E1,1.5644121E0,1.0693941E0,1.4202492E0,-0E0,6.399163E0,-0E0,-4.2093373E-3,-0E0,-5.3989766E-3,-0E0,-2.5560638E1,5.7903267E-3,-0E0,-8.384419E0,-6.115138E0,1.427472E0,2.2253625E0,-0E0,3.1125941E0,2.425111E1,1.4859986E0,-0E0,6.999549E-3,1.9801786E0,3.2171934E0,-0E0,8.445765E-3,-1.5201111E-3,3.593487E-3,1.61004E-3,6.154509E0,1.8238827E0,2.5461223E0,-0E0,-6.633334E1,5.047642E0,-2.447289E0,8.028166E-3,NaN,-2.3927631E0,-1.7484881E0,2.6967137E0,NaN,-5.507487E-3,-0E0,-4.465838E-3,-0E0,2.304751E-5,7.537678E0,3.336595E0,7.829193E0,5.3075004E-1,1.853849E0,0E0,-4.627549E1,-0E0,8.527192E-3,6.2474837E0,5.0752506E0,-3.93045E1,3.997769E0,9.951253E-1,1.736089E0,1.6474028E0,1.3449714E0,3.2620716E0,-0E0,-0E0,1.2135755E-2,3.7647128E0,2.281E3,5.711318E0,-1.465E1,-1.221009E1,5.7363725E0,6.489728E-4,1.8921406E0,-0E0,2.4754004E0,4.919418E-3,9.779069E0,-9.777778E-2,2.1632116E0,NaN,7.636297E-3,-6.235442E0,2.0742126E0,-0E0,-2.4204368E-3,1.0893459E-2,-0E0,1.9390562E0,2.5824692E1,1.4825816E0,1.0592604E0,-2.2812227E1,1.1826631E1,1.3087589E-2,-0E0,2.124682E0,-0E0,-5.6529594E1,2.4414432E-4,1.8845803E0,-0E0,4.329163E0,4.641913E-3,2.1028419E0,2.8E1,-5.019814E-3,-2.159821E0,1.45E0,-0E0,5.3947567E1,-2.631488E1,6.5326714E-3,-7.64521E-4,-4.919859E1,-0E0,-1.0228653E1,3.182063E0,-0E0,7.426866E-3,-2.8884239E-3,1.5707E-3,-0E0,4.7532015E0,-0E0,2.519E3,2.21E3,6.109759E0,2.589507E0,5.560991E0,-4.715249E-1,-0E0,4.4545454E-1,1.1167096E-3,5.7917995E0,3.595107E1,5.618086E0,1.2409079E-2,2.1166935E0,8.3938485E-1,-2.6474432E1,2.445E3,3.656325E-4,2.5850382E0,8.68842E-4,-1.0321029E-3,3.233258E-3,-0E0,-4.846502E-3,-0E0,9.831381E-4,-5.811036E-4,8.310421E-3,4.7506503E-5,7.872501E-5,-3.0530952E-3,-0E0,1.2167999E-2,-0E0,-2.9767307E-3,-0E0,1.0313259E-2,-5.6109845E-4,2.9599143E-3,-8.229389E-4,1.5376374E-3,-0E0,-2.017406E-3,-0E0,6.281034E-3,-5.248035E-3,-0E0,-2.0751427E-3,6.442875E-4,3.3543915E-3,-1.6648994E-3,-0E0,-4.9401363E-3,-9.243338E-4,2.0449033E-3,-4.272841E-3,-0E0,-6.100205E-3,-0E0,7.689241E-3,-0E0,3.914296E-4,-2.3359605E-3,7.867857E-4,-1.2644501E-3,-4.5608394E-3,-0E0,-2.364207E-3,2.0856417E-3,-4.471897E-3,-0E0,-3.642712E-3,-0E0,1.0528174E-3,-1.5429531E-3,-0E0,4.6741623E-3,-0E0,3.302935E-3,-0E0,3.6902926E-3,-0E0,-4.2276103E-3,-1.2634229E-3,3.1949626E-3,-5.567042E-3,-0E0,-3.5303985E-3,-0E0],"split_indices":[4,2,6,13,12,1,6,13,0,6,4,6,12,12,4,4,4,4,4,13,6,0,0,0,0,4,0,12,0,4,6,4,6,4,6,4,7,4,4,0,6,9,0,3,0,0,9,9,0,1,6,12,2,12,12,12,12,4,4,0,9,2,6,6,6,0,12,0,0,0,0,0,12,0,0,13,4,6,4,0,4,13,6,0,0,4,4,0,0,0,0,0,7,6,6,0,12,7,4,0,1,4,4,4,1,0,0,0,0,0,11,6,13,6,4,12,12,0,0,7,7,12,4,6,6,6,6,6,0,0,0,13,9,7,3,11,7,0,6,0,6,0,12,3,6,1,0,11,4,0,0,0,0,6,13,4,4,12,13,0,0,6,0,13,0,6,0,4,0,6,11,0,4,3,0,13,12,0,0,11,0,13,4,0,0,0,0,0,4,0,9,9,7,4,7,12,0,3,0,7,13,7,0,4,6,11,9,0,6,0,0,0,0,0,0,0,0,0,0,0,0,0,0,0,0,0,0,0,0,0,0,0,0,0,0,0,0,0,0,0,0,0,0,0,0,0,0,0,0,0,0,0,0,0,0,0,0,0,0,0,0,0,0,0,0,0,0,0,0,0,0,0,0,0,0,0,0,0,0],"split_type":[0,0,0,0,0,1,0,0,0,0,0,0,0,0,0,0,0,0,0,0,0,0,0,0,0,0,0,0,0,0,0,0,0,0,0,0,0,0,0,0,0,0,0,0,0,0,0,0,0,1,0,0,0,0,0,0,0,0,0,0,0,0,0,0,0,0,0,0,0,0,0,0,0,0,0,0,0,0,0,0,0,0,0,0,0,0,0,0,0,0,0,0,0,0,0,0,0,0,0,0,1,0,0,0,1,0,0,0,0,0,0,0,0,0,0,0,0,0,0,0,0,0,0,0,0,0,0,0,0,0,0,0,0,0,0,0,0,0,0,0,0,0,0,0,0,1,0,0,0,0,0,0,0,0,0,0,0,0,0,0,0,0,0,0,0,0,0,0,0,0,0,0,0,0,0,0,0,0,0,0,0,0,0,0,0,0,0,0,0,0,0,0,0,0,0,0,0,0,0,0,0,0,0,0,0,0,0,0,0,0,0,0,0,0,0,0,0,0,0,0,0,0,0,0,0,0,0,0,0,0,0,0,0,0,0,0,0,0,0,0,0,0,0,0,0,0,0,0,0,0,0,0,0,0,0,0,0,0,0,0,0,0,0,0,0,0,0,0,0,0,0,0,0,0,0,0,0,0,0],"sum_hessian":[5.9246E5,5.55413E5,3.7047E4,2.56705E5,2.98708E5,1.2106E4,2.4941E4,2.48973E5,7.732E3,1.34121E5,1.64587E5,1.96E3,1.0146E4,1.2936E4,1.2005E4,1.4017E4,2.34956E5,7.5268E4,5.8853E4,1.49699E5,1.4888E4,1.742E3,2.18E2,1.444E3,8.702E3,7.619E3,5.317E3,1.0549E4,1.456E3,1.1137E4,2.88E3,1.5078E5,8.4176E4,6.4457E4,1.0811E4,3.1341E4,2.7512E4,8.6977E4,6.2722E4,7.548E3,7.34E3,4.996E3,2.623E3,8.596E3,1.953E3,1.214E3,9.923E3,1.846E3,1.034E3,7.1657E4,7.9123E4,5.097E3,7.9079E4,2.337E3,6.212E4,5.013E3,5.798E3,1.0928E4,2.0413E4,7.702E3,1.981E4,7.1608E4,1.5369E4,3.0342E4,3.238E4,2.812E3,4.528E3,2.82E2,4.714E3,4.78E2,8.118E3,2.221E3,7.702E3,1.648E3,1.98E2,2.6488E4,4.5169E4,6.475E4,1.4373E4,2.398E3,2.699E3,1.4358E4,6.4721E4,9.79E2,1.358E3,1.2434E4,4.9686E4,6.38E2,4.375E3,2.583E3,3.215E3,1.825E3,9.103E3,2.94E3,1.7473E4,5.56E2,1.9254E4,5.3928E4,1.768E4,4.369E3,1.1E4,5.95E3,2.4392E4,7.983E3,2.4397E4,4.186E3,3.42E2,5.324E3,2.378E3,1.0007E4,1.6481E4,1.595E3,4.3574E4,3.6936E4,2.7814E4,5.474E3,8.899E3,2.37E2,2.462E3,1.3731E4,6.27E2,9.206E3,5.5515E4,2.37E3,1.0064E4,4.138E4,8.306E3,7.89E3,1.213E3,1.89E2,2.751E3,1.5253E4,2.22E3,2.717E3,1.6537E4,1.766E3,5.2162E4,2.04E3,1.564E4,3.622E3,7.378E3,5.91E2,5.359E3,1.2295E4,1.2097E4,5.212E3,2.771E3,1.2784E4,1.1613E4,3.049E3,1.3432E4,1.093E3,5.02E2,3.4533E4,9.041E3,4.431E3,3.2505E4,1.0852E4,1.6962E4,5.147E3,3.27E2,3.503E3,5.396E3,1.182E4,1.911E3,4.45E2,1.82E2,7.203E3,2.003E3,2.7864E4,2.7651E4,1.216E3,1.154E3,9.446E3,6.18E2,3.6404E4,4.976E3,3.093E3,5.213E3,7.695E3,1.95E2,6.463E3,8.79E3,3.46E2,1.874E3,1.642E3,1.075E3,6.36E2,1.5901E4,8.07E2,9.59E2,1.9061E4,3.3101E4,1.2925E4,2.715E3,6.329E3,1.049E3,4.538E3,8.21E2,8.715E3,3.58E3,1.089E4,1.207E3,2.413E3,2.799E3,1.0845E4,1.939E3,9.2E2,1.0693E4,1.5611E4,1.8922E4,7.003E3,2.038E3,2.963E3,1.468E3,9.548E3,2.2957E4,5.183E3,5.669E3,1.4658E4,2.304E3,5.87E2,2.916E3,1.001E3,1.0819E4,7.8E1,3.67E2,5.481E3,1.722E3,1.3845E4,1.4019E4,1.6018E4,1.1633E4,2.01E2,9.53E2,9.029E3,4.17E2,3.416E4,2.244E3,3.704E3,1.272E3,6.36E2,7.059E3,3.457E3,3.006E3,6.041E3,2.749E3,1.4077E4,1.824E3,7.72E2,1.87E2,4.067E3,1.4994E4,2.0665E4,1.2436E4,1.0819E4,2.106E3,1.141E3,1.574E3,5.605E3,7.24E2,3.799E3,7.39E2,4.426E3,4.289E3,8.75E2,2.705E3,4.082E3,6.808E3,8.9E2,1.523E3,5.46E2,2.253E3,5.434E3,5.411E3,1.233E3,7.06E2,9.881E3,8.12E2],"tree_param":{"num_deleted":"0","num_feature":"15","num_nodes":"279","size_leaf_vector":"1"}},{"base_weights":[2.3049611E-4,9.849415E-4,-1.0625808E-3,8.40618E-4,8.428034E-3,7.014862E-4,-3.0067111E-3,1.1341587E-3,-2.8738193E-3,1.3662113E-2,-0E0,6.0487934E-3,-0E0,-5.162722E-4,-4.258894E-3,-1.200309E-3,1.3008129E-3,1.9545651E-4,-4.7739726E-3,2.2470316E-2,-0E0,7.891957E-3,-7.2117615E-4,-1.4354178E-3,1.6734712E-3,-0E0,-5.603491E-3,-0E0,-5.09644E-3,1.6226021E-3,-9.525687E-4,-0E0,-6.137815E-3,8.175526E-3,-0E0,3.0717708E-3,-0E0,7.9575175E-4,-3.7126427E-3,-1.8335134E-3,3.4502274E-3,-1.7813079E-3,2.92465E-3,-9.551738E-3,2.754607E-4,9.1049895E-3,-7.876152E-4,-3.1959857E-3,-7.5249095E-3,1.068725E-4,2.24279E-3,-0E0,-2.3356983E-3,-3.2401506E-3,-1.3633435E-4,2.3559094E-3,-9.831805E-4,-1.9751608E-3,-0E0,2.0853672E-4,-8.164395E-3,7.98167E-4,8.948138E-3,-0E0,-2.7905882E-3,4.5411233E-3,-1.6198196E-3,-0E0,-1.4630409E-2,-0E0,1.8133545E-2,-1.3762735E-3,8.310486E-4,-0E0,-8.892027E-3,-1.770149E-3,1.3844221E-3,1.7795801E-3,7.0224185E-3,-1.4082271E-3,3.4744493E-4,-0E0,4.612218E-3,-3.928566E-3,-0E0,2.3336676E-3,-1.24929175E-2,6.891226E-3,3.5947808E-3,-8.826149E-4,6.882904E-3,7.066083E-3,-0E0,-0E0,-6.1873333E-3,2.1649513E-2,-0E0,-3.2962307E-3,-0E0,-0E0,-1.3179253E-3,-1.4085158E-3,2.3186672E-3,3.3232744E-3,5.78931E-4,-0E0,7.904925E-3,8.4454985E-3,-0E0,8.0372365E-3,-2.1644017E-5,-5.7280976E-3,-0E0,6.3910997E-3,-4.8415943E-5,3.557208E-5,-1.9248216E-3,1.1989451E-2,-0E0,8.301909E-3,-0E0,2.6284412E-2,-0E0,2.2238272E-3,-1.246587E-3,6.0870983E-3,7.812572E-4,5.345504E-3,-0E0,2.1752245E-3,-9.083698E-4,9.0451855E-3,-0E0,-0E0,1.04494E-2,9.857797E-3,-0E0,-3.914014E-3,4.332081E-3,3.1734614E-3,-0E0,1.9059878E-2,-0E0,-0E0,9.897691E-3,-0E0,1.0182852E-2,2.608349E-3,-0E0,-0E0,2.2789375E-3,2.0554424E-3,-1.8388397E-4,1.1758256E-3,-4.2908863E-4,-3.802701E-4,1.3260547E-3,2.015187E-3,-4.9791136E-4,-0E0,3.6513486E-3,4.3130717E-3,-0E0,-0E0,4.308886E-3,-2.696217E-3,-0E0,4.8833787E-3,-0E0,9.319351E-3,-0E0,-0E0,3.7282356E-3],"categories":[0,0,0,0,0],"categories_nodes":[6,27,29,49,77],"categories_segments":[0,1,2,3,4],"categories_sizes":[1,1,1,1,1],"default_left":[0,0,1,0,0,0,1,0,0,0,0,0,0,0,1,0,1,0,0,1,0,0,0,0,0,0,0,1,0,1,0,0,0,0,0,0,0,0,0,0,0,0,0,0,0,1,0,0,0,1,0,0,0,0,0,0,0,0,0,0,1,0,0,0,0,0,0,0,0,0,0,0,0,0,0,0,0,1,1,0,0,0,0,0,0,0,0,0,0,0,0,1,0,0,0,1,0,0,0,0,0,1,0,0,1,0,0,0,0,0,0,0,0,0,0,0,0,0,0,0,0,0,0,0,0,0,0,1,0,0,0,0,0,0,0,0,0,0,0,0,0,0,0,0,0,0,0,0,0,0,0,0,0,0,0,0,0,0,0,0,0,0,0,0,0,0,0,0,0,0,0,0,0],"id":5,"left_children":[1,3,5,7,9,11,13,15,17,19,-1,21,23,25,27,-1,29,-1,31,33,-1,35,-1,37,39,41,43,45,47,49,51,-1,53,-1,-1,-1,-1,55,57,59,61,63,65,67,-1,69,-1,71,73,75,77,79,-1,-1,-1,81,-1,-1,-1,-1,83,85,87,89,-1,91,-1,-1,93,-1,95,-1,-1,-1,97,99,101,103,105,-1,-1,-1,107,-1,-1,109,111,-1,113,115,117,119,-1,-1,-1,121,-1,-1,-1,-1,-1,123,125,127,129,-1,131,133,-1,135,137,-1,-1,139,-1,-1,-1,141,-1,143,-1,145,-1,-1,-1,147,149,151,153,155,157,159,-1,-1,161,163,-1,165,167,-1,-1,169,-1,-1,171,-1,-1,-1,-1,-1,-1,-1,-1,-1,-1,-1,-1,-1,-1,-1,-1,-1,-1,-1,-1,-1,-1,-1,-1,-1,-1,-1,-1],"loss_changes":[5.768219E-1,2.9866657E-1,7.5586426E-1,3.8755125E-1,2.9748982E-1,4.0796968E-1,2.6887769E-1,2.4618044E-1,2.0991468E-1,4.8700726E-1,0E0,2.583431E-1,2.2983608E-1,1.4880605E-1,1.8383121E-1,0E0,2.5453037E-1,0E0,1.7726433E-1,1.2422919E-1,0E0,1.6240376E-1,0E0,2.966941E-1,2.9395437E-1,1.8224262E-1,2.3128657E-1,2.0453635E-1,1.191901E-1,2.564022E-1,1.9903429E-1,0E0,1.8822539E-1,0E0,0E0,0E0,0E0,1.2928441E-1,2.8813037E-1,2.8462082E-1,3.444393E-1,2.641789E-1,1.7685623E-1,1.9621825E-1,0E0,2.879004E-1,0E0,1.7846626E-1,1.7005932E-1,2.1922992E-1,3.585899E-1,1.4787328E-1,0E0,0E0,0E0,1.2640758E-1,0E0,0E0,0E0,0E0,1.5989497E-1,3.4542367E-1,2.5226378E-1,1.21016584E-1,0E0,1.6653979E-1,0E0,0E0,2.0084691E-1,0E0,1.335451E-1,0E0,0E0,0E0,1.5020788E-1,1.4954421E-1,1.6541761E-1,3.11289E-1,1.5265298E-1,0E0,0E0,0E0,2.8137937E-1,0E0,0E0,3.790643E-1,1.5365438E-1,0E0,1.4387111E-1,1.20584406E-1,1.5415674E-1,1.3918564E-1,0E0,0E0,0E0,1.4433181E-1,0E0,0E0,0E0,0E0,0E0,1.785942E-1,1.946429E-1,5.047739E-1,2.8265345E-1,0E0,1.1829722E-1,1.4458865E-1,0E0,1.4406231E-1,2.257659E-1,0E0,0E0,1.1967106E-1,0E0,0E0,0E0,1.619282E-1,0E0,1.2108916E-1,0E0,1.525526E-1,0E0,0E0,0E0,1.439828E-1,1.763715E-1,2.698394E-1,1.518579E-1,3.659034E-1,1.5703298E-1,1.1781323E-1,0E0,0E0,1.653989E-1,1.6067171E-1,0E0,2.1607216E-1,1.2004216E-1,0E0,0E0,2.8285676E-1,0E0,0E0,1.3085383E-1,0E0,0E0,0E0,0E0,0E0,0E0,0E0,0E0,0E0,0E0,0E0,0E0,0E0,0E0,0E0,0E0,0E0,0E0,0E0,0E0,0E0,0E0,0E0,0E0,0E0,0E0,0E0,0E0],"parents":[2147483647,0,0,1,1,2,2,3,3,4,4,5,5,6,6,7,7,8,8,9,9,11,11,12,12,13,13,14,14,16,16,18,18,19,19,21,21,23,23,24,24,25,25,26,26,27,27,28,28,29,29,30,30,32,32,37,37,38,38,39,39,40,40,41,41,42,42,43,43,45,45,47,47,48,48,49,49,50,50,51,51,55,55,60,60,61,61,62,62,63,63,65,65,68,68,70,70,74,74,75,75,76,76,77,77,78,78,82,82,85,85,86,86,88,88,89,89,90,90,91,91,95,95,101,101,102,102,103,103,104,104,106,106,107,107,109,109,110,110,113,113,117,117,119,119,121,121,125,125,126,126,127,127,128,128,129,129,130,130,131,131,134,134,135,135,137,137,138,138,141,141,144,144],"right_children":[2,4,6,8,10,12,14,16,18,20,-1,22,24,26,28,-1,30,-1,32,34,-1,36,-1,38,40,42,44,46,48,50,52,-1,54,-1,-1,-1,-1,56,58,60,62,64,66,68,-1,70,-1,72,74,76,78,80,-1,-1,-1,82,-1,-1,-1,-1,84,86,88,90,-1,92,-1,-1,94,-1,96,-1,-1,-1,98,100,102,104,106,-1,-1,-1,108,-1,-1,110,112,-1,114,116,118,120,-1,-1,-1,122,-1,-1,-1,-1,-1,124,126,128,130,-1,132,134,-1,136,138,-1,-1,140,-1,-1,-1,142,-1,144,-1,146,-1,-1,-1,148,150,152,154,156,158,160,-1,-1,162,164,-1,166,168,-1,-1,170,-1,-1,172,-1,-1,-1,-1,-1,-1,-1,-1,-1,-1,-1,-1,-1,-1,-1,-1,-1,-1,-1,-1,-1,-1,-1,-1,-1,-1,-1,-1],"split_conditions":[8.6E1,1.0701015E0,2.05E2,6.375984E0,6.9387183E0,1.43E2,NaN,1.1154962E1,7.81E1,6.954295E1,-0E0,9.7038007E-1,-2.5653824E1,8.95E1,2.0394957E1,-1.200309E-3,8.428435E1,1.9545651E-4,9.9920565E-1,6.3075497E1,-0E0,9.27E1,-7.2117615E-4,9.1628224E-1,8.8839865E-1,8.75E1,4.348955E1,NaN,2.89E2,NaN,3.7628418E1,-0E0,1.0364859E0,8.175526E-3,-0E0,3.0717708E-3,-0E0,3E-1,9.798964E-1,4.8872143E1,5.9805336E1,5.992156E0,5.8641663E1,2.26E2,2.754607E-4,-8.8E0,-7.876152E-4,4.2264496E1,5.328315E0,NaN,9.9428564E-1,2.5778387E0,-2.3356983E-3,-3.2401506E-3,-1.3633435E-4,8.86E1,-9.831805E-4,-1.9751608E-3,-0E0,2.0853672E-4,6.986254E1,5.6731583E1,8.86E1,3.21E2,-2.7905882E-3,4.039491E1,-1.6198196E-3,-0E0,5.265581E0,-0E0,9.9428564E-1,-1.3762735E-3,8.310486E-4,-0E0,3.4E2,8.2E1,2.183E3,NaN,2.11E2,-1.4082271E-3,3.4744493E-4,-0E0,9.1E1,-3.928566E-3,-0E0,-1.1468855E1,6.284554E0,6.891226E-3,4.8333332E-1,2.2395138E1,5.8641663E1,1.45E0,-0E0,-0E0,-6.1873333E-3,8.3130104E1,-0E0,-3.2962307E-3,-0E0,-0E0,-1.3179253E-3,-1.175E1,3.469019E1,5.782974E0,1.953481E1,-0E0,-1.2048728E1,2.192E3,-0E0,1.0032121E0,-4.3636364E-1,-5.7280976E-3,-0E0,8.0342316E1,-4.8415943E-5,3.557208E-5,-1.9248216E-3,5.5188637E1,-0E0,-3.639541E1,-0E0,8.395127E-1,-0E0,2.2238272E-3,-1.246587E-3,6.1343365E0,8.42E1,-1.1764078E1,2.382E3,8.7620217E-1,2.57E2,6.0916553E0,-0E0,-0E0,1.89E2,-2.3794994E1,-0E0,6.0066776E0,5.6768756E0,3.1734614E-3,-0E0,2.0815957E0,-0E0,-0E0,8.0693775E-1,-0E0,1.0182852E-2,2.608349E-3,-0E0,-0E0,2.2789375E-3,2.0554424E-3,-1.8388397E-4,1.1758256E-3,-4.2908863E-4,-3.802701E-4,1.3260547E-3,2.015187E-3,-4.9791136E-4,-0E0,3.6513486E-3,4.3130717E-3,-0E0,-0E0,4.308886E-3,-2.696217E-3,-0E0,4.8833787E-3,-0E0,9.319351E-3,-0E0,-0E0,3.7282356E-3],"split_indices":[2,8,10,7,7,10,1,14,2,14,0,8,11,2,14,0,14,0,8,11,0,2,0,8,8,2,11,0,10,0,11,0,8,0,0,0,0,3,8,14,14,7,11,10,0,3,0,11,7,1,8,11,0,0,0,2,0,0,0,0,14,14,2,10,0,14,0,0,7,0,8,0,0,0,10,2,9,1,10,0,0,0,2,0,0,12,7,0,3,11,11,3,0,0,0,11,0,0,0,0,0,3,14,7,11,0,12,9,0,8,3,0,0,14,0,0,0,14,0,11,0,8,0,0,0,7,2,12,9,8,10,7,0,0,10,12,0,7,7,0,0,12,0,0,8,0,0,0,0,0,0,0,0,0,0,0,0,0,0,0,0,0,0,0,0,0,0,0,0,0,0,0,0],"split_type":[0,0,0,0,0,0,1,0,0,0,0,0,0,0,0,0,0,0,0,0,0,0,0,0,0,0,0,1,0,1,0,0,0,0,0,0,0,0,0,0,0,0,0,0,0,0,0,0,0,1,0,0,0,0,0,0,0,0,0,0,0,0,0,0,0,0,0,0,0,0,0,0,0,0,0,0,0,1,0,0,0,0,0,0,0,0,0,0,0,0,0,0,0,0,0,0,0,0,0,0,0,0,0,0,0,0,0,0,0,0,0,0,0,0,0,0,0,0,0,0,0,0,0,0,0,0,0,0,0,0,0,0,0,0,0,0,0,0,0,0,0,0,0,0,0,0,0,0,0,0,0,0,0,0,0,0,0,0,0,0,0,0,0,0,0,0,0,0,0,0,0,0,0],"sum_hessian":[5.9214E5,3.79705E5,2.12435E5,3.7407E5,5.635E3,1.08215E5,1.0422E5,3.4963E5,2.444E4,3.717E3,1.918E3,1.2572E4,9.5643E4,3.8028E4,6.6192E4,9.584E3,3.40046E5,6.49E3,1.795E4,2.317E3,1.4E3,1.1434E4,1.138E3,5.1588E4,4.4055E4,3.3E4,5.028E3,1.2901E4,5.3291E4,3.0213E5,3.7916E4,2.399E3,1.5551E4,2.222E3,9.5E1,1.065E4,7.84E2,2.346E4,2.8128E4,1.2588E4,3.1467E4,1.8665E4,1.4335E4,4.237E3,7.91E2,1.702E3,1.1199E4,3.2657E4,2.0634E4,9.3245E4,2.08885E5,3.3029E4,4.887E3,8.446E3,7.105E3,1.8742E4,4.718E3,1.9901E4,8.227E3,7.76E3,4.828E3,2.2697E4,8.77E3,1.3922E4,4.743E3,1.3122E4,1.213E3,1.534E3,2.703E3,4.23E2,1.279E3,3.0145E4,2.512E3,3.716E3,1.6918E4,3.4029E4,5.9216E4,1.92716E5,1.6169E4,6.951E3,2.6078E4,7.935E3,1.0807E4,3.572E3,1.256E3,2.1165E4,1.532E3,2.073E3,6.697E3,1.1593E4,2.329E3,8.735E3,4.387E3,3.74E2,2.329E3,1.172E3,1.07E2,1.5742E4,1.176E3,1.7096E4,1.6933E4,1.1683E4,4.7533E4,8.0001E4,1.12715E5,9.73E2,1.5196E4,7.144E3,3.663E3,7.621E3,1.3544E4,1.361E3,1.71E2,5.617E3,1.08E3,7.606E3,3.987E3,1.817E3,5.12E2,8.338E3,3.97E2,9.93E2,1.79E2,1.425E3,1.0258E4,1.1527E4,3.6006E4,4.8565E4,3.1436E4,5.8172E4,5.4543E4,1.3044E4,2.152E3,1.165E3,5.979E3,6.537E3,1.084E3,8.579E3,4.965E3,3.968E3,1.649E3,1.144E3,6.73E2,1.246E3,7.092E3,7.1E1,9.22E2,9.64E3,1.887E3,3.1648E4,4.358E3,4.5081E4,3.484E3,9.697E3,2.1739E4,1.7727E4,4.0445E4,2.509E3,5.2034E4,2.833E3,1.0211E4,5.047E3,9.32E2,1.621E3,4.916E3,5.471E3,3.108E3,9.97E2,3.968E3,9.07E2,2.37E2,2.68E2,6.824E3],"tree_param":{"num_deleted":"0","num_feature":"15","num_nodes":"173","size_leaf_vector":"1"}},{"base_weights":[1.9272737E-4,2.8315493E-5,9.251143E-3,9.713561E-4,-1.1347677E-3,6.113967E-3,-0E0,-6.892074E-4,9.403498E-3,1.4912352E-3,-4.079147E-3,-5.393029E-3,2.6734336E-3,1.8135851E-2,-1.6505456E-3,3.642125E-3,2.1581225E-2,-3.6653415E-3,6.909801E-3,-0E0,-4.6457006E-3,-3.9518015E-3,-0E0,5.125311E-3,9.600284E-3,-2.5612663E-3,5.215734E-4,-1.5003829E-3,1.2281625E-2,8.4276255E-3,2.7184251E-3,1.0827531E-2,-4.3524033E-3,1.9147545E-2,7.878927E-4,1.7676083E-3,-1.8771967E-3,-4.9186284E-3,8.0124E-3,7.598457E-3,-0E0,-5.419488E-3,-9.0870925E-4,1.3798293E-2,-2.4093294E-3,-7.721211E-3,2.9638947E-3,7.637954E-3,5.433853E-3,7.3570944E-3,-0E0,-7.383944E-3,-2.7012713E-3,2.3030212E-2,-0E0,-4.313402E-3,1.0471945E-2,4.785529E-3,-1.6728177E-3,-2.0028758E-3,-6.2685576E-3,5.4040365E-3,-0E0,4.514998E-3,-6.0266927E-3,6.840827E-3,-6.4366385E-3,-4.3748454E-3,4.1305862E-4,-0E0,8.249254E-3,-3.8076323E-3,3.932004E-3,-0E0,-1.1037558E-2,5.323235E-3,-1.2267854E-3,-0E0,3.9407173E-3,6.2841605E-3,-1.0050443E-2,-5.302404E-3,5.087546E-4,1.6748311E-2,1.4754767E-2,3.5668083E-3,-5.135926E-3,3.3752616E-2,5.0834455E-3,-0E0,1.1336281E-2,-0E0,-8.995274E-3,1.8799477E-3,-7.149406E-3,-8.007191E-3,4.7049427E-4,-4.5666327E-3,-0E0,-7.504985E-3,-0E0,1.6715908E-3,-5.4569193E-3,1.167023E-2,-2.3924096E-3,3.5582941E-3,-6.9896516E-4,-4.519165E-3,2.3838305E-3,-0E0,-1.259974E-2,-6.0506305E-3,2.2485817E-3,7.842083E-3,-3.828854E-4,-0E0,-1.15682585E-2,-0E0,-1.0040403E-2,-3.359182E-4,2.5887325E-2,1.4210616E-3,2.1413969E-2,-0E0,-7.291915E-3,-0E0,1.2287234E-2,8.7709455E-3,-2.0810424E-3,-0E0,1.5884077E-2,-5.485872E-3,-0E0,-1.1384914E-3,1.2579496E-2,-0E0,-2.7890191E-3,-5.286387E-3,-1.1553387E-2,7.440582E-3,-7.847978E-3,-0E0,-8.5008405E-3,1.1660947E-2,-4.8671677E-3,-1.2219693E-3,-8.328554E-3,1.9730637E-2,-0E0,-3.7976222E-3,4.036306E-3,-5.5473405E-3,5.259563E-6,-1.4213209E-2,-0E0,-0E0,-8.6578885E-3,-1.077579E-2,-0E0,-6.362465E-3,1.2016494E-2,-4.07116E-3,-0E0,9.0443045E-3,-4.2488775E-3,-1.1040394E-2,-0E0,-0E0,3.515287E-2,-9.5697754E-4,6.5297354E-3,3.4485843E-2,1.103076E-2,5.7042516E-3,-5.182106E-3,-0E0,-7.948225E-3,3.6264746E-3,2.1069927E-2,-1.6907008E-2,3.031355E-4,-0E0,1.8702269E-2,-2.7634443E-3,9.449884E-3,1.5593895E-2,-0E0,-7.854193E-3,2.029025E-3,-1.9340098E-3,-1.595799E-2,-0E0,4.0643224E-3,-3.8937053E-3,-0E0,2.6805957E-3,-9.19436E-4,-3.1386393E-3,-0E0,7.107996E-3,-0E0,-2.6496903E-3,-0E0,-3.424865E-3,3.6245483E-4,-3.3531557E-3,-0E0,-0E0,9.89988E-3,1.1793913E-3,-1.7936784E-3,-0E0,-1.8394383E-3,-1.5006968E-3,3.022587E-3,-2.384207E-3,-0E0,-0E0,-5.141058E-3,-0E0,-3.9059245E-3,-0E0,-6.2731304E-3,-0E0,-4.879259E-3,-0E0,7.6423176E-3,-0E0,6.9239005E-3,-2.7045242E-3,-0E0,-4.154942E-3,-0E0,1.2602362E-2,-0E0,-0E0,1.2752545E-2,6.6425237E-3,-0E0,-0E0,4.1480763E-3,-3.318454E-3,2.416658E-5,-0E0,-3.169485E-3,3.4243425E-3,-0E0,1.0966965E-2,-0E0,-0E0,-8.30392E-3,-0E0,7.088559E-3,2.2639308E-5,-1.8389864E-3,-0E0,7.709565E-3,1.7658884E-3,1.0745702E-2,-0E0,-3.0726974E-3,-1.0318331E-3,3.15657E-3,-0E0,-3.5830147E-3,-0E0,-5.636641E-3],"categories":[],"categories_nodes":[],"categories_segments":[],"categories_sizes":[],"default_left":[0,0,0,0,0,0,0,0,1,0,1,0,0,0,0,0,0,0,0,1,1,0,0,0,0,0,0,1,0,0,0,0,1,0,0,0,0,0,0,0,0,0,0,0,0,0,0,0,0,0,0,0,0,0,0,0,0,0,0,0,0,0,0,0,0,0,0,0,0,0,0,1,0,0,0,0,0,0,0,0,0,0,0,0,0,0,0,0,0,0,0,0,0,0,0,0,0,0,0,0,0,0,0,0,0,0,0,0,0,0,0,1,0,0,0,1,0,0,0,0,0,0,0,0,0,0,0,0,0,0,1,0,0,0,1,0,0,0,0,0,0,0,0,0,0,1,1,0,0,0,0,0,0,0,0,0,0,0,0,0,0,0,0,0,1,0,0,0,0,0,0,0,0,0,1,0,0,0,0,0,0,0,0,0,0,0,0,0,0,0,1,0,0,0,0,0,0,0,0,0,0,0,0,0,0,0,0,0,0,0,0,0,0,0,0,0,0,0,0,0,0,0,0,0,0,0,0,0,0,0,0,0,0,0,0,0,0,0,0,0,0,0,0,0,0,0,0,0,0,0,0,0,0,0,0,0,0,0,0,0,0,0,0,0,0,0,0],"id":6,"left_children":[1,3,5,7,9,-1,11,13,15,17,19,21,-1,23,25,27,29,31,33,35,37,-1,-1,39,-1,41,43,45,47,-1,-1,49,51,53,55,57,-1,59,61,-1,63,65,67,69,71,73,75,-1,77,-1,-1,79,81,83,-1,85,87,89,91,93,95,-1,-1,-1,97,-1,99,101,103,105,-1,107,-1,-1,109,-1,111,-1,-1,113,115,117,119,121,-1,-1,123,125,127,-1,129,-1,131,133,135,137,139,-1,-1,141,143,-1,145,147,149,-1,-1,151,-1,-1,153,155,-1,-1,157,159,161,163,165,-1,167,169,171,173,175,-1,-1,177,179,-1,181,-1,-1,183,185,-1,-1,187,189,191,193,195,197,199,201,203,205,207,209,211,213,215,-1,217,-1,-1,219,221,-1,223,225,-1,-1,227,229,231,-1,-1,233,-1,-1,235,237,239,241,-1,243,245,247,249,-1,-1,251,253,255,257,-1,259,261,263,265,-1,-1,-1,-1,-1,-1,-1,-1,-1,-1,-1,-1,-1,-1,-1,-1,-1,-1,-1,-1,-1,-1,-1,-1,-1,-1,-1,-1,-1,-1,-1,-1,-1,-1,-1,-1,-1,-1,-1,-1,-1,-1,-1,-1,-1,-1,-1,-1,-1,-1,-1,-1,-1,-1,-1,-1,-1,-1,-1,-1,-1,-1,-1,-1,-1,-1,-1,-1,-1,-1,-1,-1,-1,-1,-1,-1],"loss_changes":[7.721287E-1,6.3701683E-1,7.992512E-1,4.6853127E0,2.0042276E0,0E0,1.8246287E-1,4.734987E0,3.5605402E0,3.7505548E0,2.9266548E-1,1.6596787E-1,0E0,1.274765E0,5.37761E-1,1.8176467E0,3.6116838E-1,5.9233576E-1,4.7017813E0,1.3455871E-1,3.3796048E-1,0E0,0E0,7.693682E-1,0E0,8.077166E-1,2.9730473E0,6.961834E-1,7.2266984E-1,0E0,0E0,3.5386673E-1,2.047565E-1,1.6499844E0,2.277239E0,1.5438017E-1,0E0,3.2194233E-1,1.4547649E-1,0E0,2.7140796E-1,1.5562829E0,6.0106224E-1,2.0279298E0,1.0661905E0,3.2958704E-1,8.287867E-1,0E0,3.2174167E-1,0E0,0E0,7.861794E-1,4.2785254E-1,1.5634508E0,0E0,2.855013E-1,1.5687673E0,3.0211687E-1,1.3031381E-1,7.927832E-1,9.1016436E-1,0E0,0E0,0E0,1.834563E-1,0E0,4.7481203E-1,3.6822236E-1,2.800177E0,1.2950349E-1,0E0,3.9162618E-1,0E0,0E0,2.2203511E-1,0E0,3.2102862E-1,0E0,0E0,5.6132317E-1,2.85308E-1,7.2297347E-1,9.754331E-1,7.4294114E-1,0E0,0E0,2.5898606E-1,1.8445587E-1,4.3861425E-1,0E0,3.344442E-1,0E0,1.3608453E-1,7.666406E-1,1.7570037E-1,3.5093522E-1,7.5224817E-1,0E0,0E0,5.1113105E-1,5.1540935E-1,0E0,2.9202914E-1,1.5485039E0,6.063942E-1,0E0,0E0,3.0824947E-1,0E0,0E0,1.22431755E-1,1.4811921E-1,0E0,0E0,1.20124035E-1,1.8171513E-1,1.37012E-1,4.9021477E-1,2.6135445E-1,0E0,4.3531662E-1,4.9248347E-1,8.4477425E-1,2.675295E-1,1.6156387E-1,0E0,0E0,3.440193E-1,3.461056E-1,0E0,2.0561379E-1,0E0,0E0,1.7048395E-1,2.2645205E-1,0E0,0E0,7.1260345E-1,7.5840163E-1,2.833083E-1,1.4480805E-1,1.7107274E-1,2.698927E-1,3.3471835E-1,1.6729753E-1,4.1453078E-1,2.3110545E-1,1.9101796E0,1.2953919E-1,3.8111663E-1,4.9162596E-1,3.086635E-1,0E0,1.5428603E-1,0E0,0E0,1.4543167E-1,1.446328E-1,0E0,1.6946507E-1,2.2534879E-1,0E0,0E0,5.375338E-1,1.7192589E-1,2.57236E-1,0E0,0E0,1.2454748E-1,0E0,0E0,1.22177124E-1,4.490016E-1,2.4819937E-1,2.4505349E-1,0E0,1.617732E-1,2.0682904E-1,3.4096754E-1,2.7490398E-1,0E0,0E0,1.5819371E-1,1.646032E-1,2.5619978E-1,2.7773786E-1,0E0,2.6271963E-1,3.6035648E-1,1.6857399E-1,2.4428988E-1,0E0,0E0,0E0,0E0,0E0,0E0,0E0,0E0,0E0,0E0,0E0,0E0,0E0,0E0,0E0,0E0,0E0,0E0,0E0,0E0,0E0,0E0,0E0,0E0,0E0,0E0,0E0,0E0,0E0,0E0,0E0,0E0,0E0,0E0,0E0,0E0,0E0,0E0,0E0,0E0,0E0,0E0,0E0,0E0,0E0,0E0,0E0,0E0,0E0,0E0,0E0,0E0,0E0,0E0,0E0,0E0,0E0,0E0,0E0,0E0,0E0,0E0,0E0,0E0,0E0,0E0,0E0,0E0,0E0,0E0,0E0,0E0,0E0,0E0,0E0,0E0],"parents":[2147483647,0,0,1,1,2,2,3,3,4,4,6,6,7,7,8,8,9,9,10,10,11,11,13,13,14,14,15,15,16,16,17,17,18,18,19,19,20,20,23,23,25,25,26,26,27,27,28,28,31,31,32,32,33,33,34,34,35,35,37,37,38,38,40,40,41,41,42,42,43,43,44,44,45,45,46,46,48,48,51,51,52,52,53,53,55,55,56,56,57,57,58,58,59,59,60,60,64,64,66,66,67,67,68,68,69,69,71,71,74,74,76,76,79,79,80,80,81,81,82,82,83,83,86,86,87,87,88,88,90,90,92,92,93,93,94,94,95,95,96,96,99,99,100,100,102,102,103,103,104,104,107,107,110,110,111,111,114,114,115,115,116,116,117,117,118,118,120,120,121,121,122,122,123,123,124,124,127,127,128,128,130,130,133,133,134,134,137,137,138,138,139,139,140,140,141,141,142,142,143,143,144,144,145,145,146,146,147,147,148,148,149,149,150,150,151,151,153,153,156,156,157,157,159,159,160,160,163,163,164,164,165,165,168,168,171,171,172,172,173,173,174,174,176,176,177,177,178,178,179,179,182,182,183,183,184,184,185,185,187,187,188,188,189,189,190,190],"right_children":[2,4,6,8,10,-1,12,14,16,18,20,22,-1,24,26,28,30,32,34,36,38,-1,-1,40,-1,42,44,46,48,-1,-1,50,52,54,56,58,-1,60,62,-1,64,66,68,70,72,74,76,-1,78,-1,-1,80,82,84,-1,86,88,90,92,94,96,-1,-1,-1,98,-1,100,102,104,106,-1,108,-1,-1,110,-1,112,-1,-1,114,116,118,120,122,-1,-1,124,126,128,-1,130,-1,132,134,136,138,140,-1,-1,142,144,-1,146,148,150,-1,-1,152,-1,-1,154,156,-1,-1,158,160,162,164,166,-1,168,170,172,174,176,-1,-1,178,180,-1,182,-1,-1,184,186,-1,-1,188,190,192,194,196,198,200,202,204,206,208,210,212,214,216,-1,218,-1,-1,220,222,-1,224,226,-1,-1,228,230,232,-1,-1,234,-1,-1,236,238,240,242,-1,244,246,248,250,-1,-1,252,254,256,258,-1,260,262,264,266,-1,-1,-1,-1,-1,-1,-1,-1,-1,-1,-1,-1,-1,-1,-1,-1,-1,-1,-1,-1,-1,-1,-1,-1,-1,-1,-1,-1,-1,-1,-1,-1,-1,-1,-1,-1,-1,-1,-1,-1,-1,-1,-1,-1,-1,-1,-1,-1,-1,-1,-1,-1,-1,-1,-1,-1,-1,-1,-1,-1,-1,-1,-1,-1,-1,-1,-1,-1,-1,-1,-1,-1,-1,-1,-1,-1],"split_conditions":[6.093269E0,1.8845803E0,2.6418269E0,3.5452445E0,3.1644022E0,6.113967E-3,-6.1947914E1,-3.5887089E0,-3.6685966E1,-2.3369415E0,-1.175E1,6.9659305E0,2.6734336E-3,-5.249645E1,2.60742E0,4.4153676E0,1.7646477E0,-6.6246834E0,2.0272982E0,6.78657E0,7.2662225E0,-3.9518015E-3,-0E0,-4.7683325E0,9.600284E-3,1.1034751E0,1.0922437E0,-6.24192E1,1.4498035E0,8.4276255E-3,2.7184251E-3,3.1965504E0,-6.565051E0,3.7431345E0,2.3024306E0,4.67964E0,-1.8771967E-3,-5.916188E1,-5.565051E0,7.598457E-3,1.288978E0,-2.929476E0,-1.5792489E0,-4.2108505E1,-3.7139306E0,5.402675E0,1.3449714E0,7.637954E-3,-6.685625E1,7.3570944E-3,-0E0,-4.5539255E0,-3.907036E0,2.4035275E0,-0E0,-7.4203186E1,-5.205459E1,3.9076025E0,2.4341254E0,4.7154694E0,4.7532015E0,5.4040365E-3,-0E0,4.514998E-3,-2.4666667E0,6.840827E-3,2.2461529E0,1.1844826E0,1.1167951E0,6.053794E-1,8.249254E-3,1.525E0,3.932004E-3,-0E0,7.396714E-1,5.323235E-3,4.11763E0,-0E0,3.9407173E-3,2.521841E0,5.1811957E0,2.5987902E0,3.0434697E0,-1.6670568E0,1.4754767E-2,3.5668083E-3,-7.4E0,2.338177E0,-8.655371E0,-0E0,5.9191837E0,-0E0,5.3672075E0,2.533707E0,1.9872942E0,2.3843071E0,2.5987902E0,-4.5666327E-3,-0E0,-2.159821E0,7.6113814E-1,1.6715908E-3,4.039491E1,-7.5441055E0,1.736089E0,3.5582941E-3,-6.9896516E-4,3.508074E1,2.3838305E-3,-0E0,9.305058E1,-9.857142E0,2.2485817E-3,7.842083E-3,-7.5441055E0,-2.3219246E1,7.389058E0,-4.8913674E0,6.0744376E0,-3.359182E-4,2.8901733E1,4.4546497E1,1.3618281E0,3.6598385E1,5.435535E0,-0E0,1.2287234E-2,2.7070603E0,-2.6905243E1,-0E0,2.244E3,-5.485872E-3,-0E0,-6.0536625E1,2.942E3,-0E0,-2.7890191E-3,4.219989E0,3.7005515E0,-4.708518E1,-2.7847584E1,5.9825826E0,2.0815957E0,1.9127514E0,-8.655371E0,-3.421009E1,5.0212765E-1,-9.541327E-1,6.5215635E-1,1.742336E0,1.93E2,3.2890904E0,5.259563E-6,5.5352097E0,-0E0,-0E0,1.50034E0,-5.545234E0,-0E0,2.188E3,-3.5746048E1,-4.07116E-3,-0E0,-6.24192E1,6.516087E0,5.6800766E1,-0E0,-0E0,7.2395964E0,-9.5697754E-4,6.5297354E-3,-1.4838169E0,-2.0591665E1,5.5460687E0,6.6789474E1,-0E0,2.3073056E0,3.306424E1,2.8392196E0,1.28E2,3.031355E-4,-0E0,-1.8348648E1,2.0361603E1,-5E0,4.4153676E0,-0E0,-4.9982147E1,-3.6685966E1,-1.3313044E1,5.582046E0,-0E0,4.0643224E-3,-3.8937053E-3,-0E0,2.6805957E-3,-9.19436E-4,-3.1386393E-3,-0E0,7.107996E-3,-0E0,-2.6496903E-3,-0E0,-3.424865E-3,3.6245483E-4,-3.3531557E-3,-0E0,-0E0,9.89988E-3,1.1793913E-3,-1.7936784E-3,-0E0,-1.8394383E-3,-1.5006968E-3,3.022587E-3,-2.384207E-3,-0E0,-0E0,-5.141058E-3,-0E0,-3.9059245E-3,-0E0,-6.2731304E-3,-0E0,-4.879259E-3,-0E0,7.6423176E-3,-0E0,6.9239005E-3,-2.7045242E-3,-0E0,-4.154942E-3,-0E0,1.2602362E-2,-0E0,-0E0,1.2752545E-2,6.6425237E-3,-0E0,-0E0,4.1480763E-3,-3.318454E-3,2.416658E-5,-0E0,-3.169485E-3,3.4243425E-3,-0E0,1.0966965E-2,-0E0,-0E0,-8.30392E-3,-0E0,7.088559E-3,2.2639308E-5,-1.8389864E-3,-0E0,7.709565E-3,1.7658884E-3,1.0745702E-2,-0E0,-3.0726974E-3,-1.0318331E-3,3.15657E-3,-0E0,-3.5830147E-3,-0E0,-5.636641E-3],"split_indices":[4,6,6,4,4,0,12,4,12,4,3,4,0,12,4,4,6,4,4,5,12,0,0,4,0,6,6,12,6,0,0,6,11,12,6,4,0,12,11,0,6,4,4,12,12,7,6,0,12,0,0,4,4,6,0,12,12,4,6,4,4,0,0,0,3,0,4,6,4,6,0,3,0,0,6,0,4,0,0,6,7,6,6,4,0,0,3,6,12,0,5,0,4,6,6,6,6,0,0,4,6,0,14,12,6,0,0,11,0,0,14,3,0,0,12,11,5,4,7,0,14,14,4,14,5,0,0,6,11,0,9,0,0,12,9,0,0,4,4,12,12,7,12,11,12,11,3,4,4,4,10,4,0,5,0,0,6,4,0,9,12,0,0,12,5,11,0,0,5,0,0,4,12,7,14,0,4,14,4,10,0,0,3,11,3,4,0,12,12,12,5,0,0,0,0,0,0,0,0,0,0,0,0,0,0,0,0,0,0,0,0,0,0,0,0,0,0,0,0,0,0,0,0,0,0,0,0,0,0,0,0,0,0,0,0,0,0,0,0,0,0,0,0,0,0,0,0,0,0,0,0,0,0,0,0,0,0,0,0,0,0,0,0,0,0,0,0],"split_type":[0,0,0,0,0,0,0,0,0,0,0,0,0,0,0,0,0,0,0,0,0,0,0,0,0,0,0,0,0,0,0,0,0,0,0,0,0,0,0,0,0,0,0,0,0,0,0,0,0,0,0,0,0,0,0,0,0,0,0,0,0,0,0,0,0,0,0,0,0,0,0,0,0,0,0,0,0,0,0,0,0,0,0,0,0,0,0,0,0,0,0,0,0,0,0,0,0,0,0,0,0,0,0,0,0,0,0,0,0,0,0,0,0,0,0,0,0,0,0,0,0,0,0,0,0,0,0,0,0,0,0,0,0,0,0,0,0,0,0,0,0,0,0,0,0,0,0,0,0,0,0,0,0,0,0,0,0,0,0,0,0,0,0,0,0,0,0,0,0,0,0,0,0,0,0,0,0,0,0,0,0,0,0,0,0,0,0,0,0,0,0,0,0,0,0,0,0,0,0,0,0,0,0,0,0,0,0,0,0,0,0,0,0,0,0,0,0,0,0,0,0,0,0,0,0,0,0,0,0,0,0,0,0,0,0,0,0,0,0,0,0,0,0,0,0,0,0,0,0,0,0,0,0,0,0,0,0,0,0,0,0,0,0,0,0,0,0],"sum_hessian":[5.917E5,5.82461E5,9.239E3,3.27245E5,2.55216E5,4.866E3,4.373E3,2.72264E5,5.4981E4,1.32799E5,1.22417E5,2.796E3,1.577E3,1.2604E4,2.5966E5,3.8009E4,1.6972E4,6.6938E4,6.5861E4,1.4485E4,1.07932E5,1.794E3,1.002E3,6.061E3,6.543E3,1.86763E5,7.2897E4,2.2991E4,1.5018E4,1.2953E4,4.019E3,2.232E3,6.4706E4,2.1296E4,4.4565E4,1.1282E4,3.203E3,1.06584E5,1.348E3,1.817E3,4.244E3,6.5786E4,1.20977E5,1.3885E4,5.9012E4,1.0696E4,1.2295E4,5.298E3,9.72E3,1.282E3,9.5E2,2.0262E4,4.4444E4,1.7821E4,3.475E3,2.8406E4,1.6159E4,7.824E3,3.458E3,3.6514E4,7.007E4,8.88E2,4.6E2,7.8E2,3.464E3,2.048E3,6.3738E4,3.5832E4,8.5145E4,6.014E3,7.871E3,5.4441E4,4.571E3,2.774E3,7.922E3,3.716E3,8.579E3,5.239E3,4.481E3,2.58E3,1.7682E4,2.6562E4,1.7882E4,1.4125E4,3.696E3,7.2E2,2.7686E4,2.593E3,1.3566E4,4.107E3,3.717E3,1.761E3,1.697E3,1.9522E4,1.6992E4,5.7082E4,1.2988E4,1.678E3,1.786E3,5.5304E4,8.434E3,2.588E3,3.3244E4,1.7801E4,6.7344E4,9.45E2,5.069E3,5.2124E4,2.317E3,4.52E2,7.47E3,6.248E3,2.331E3,1.208E3,1.372E3,2.212E3,1.547E4,1.2007E4,1.4555E4,1.6478E4,1.404E3,3.895E3,1.023E4,9.098E3,1.8588E4,2.07E2,2.386E3,1.0035E4,3.531E3,5.15E2,3.202E3,1.021E3,6.76E2,1.4393E4,5.129E3,1.563E3,1.5429E4,3.4225E4,2.2857E4,7.838E3,5.15E3,5.133E3,5.0171E4,2.762E3,5.672E3,1.5108E4,1.8136E4,1.0183E4,7.618E3,5.6777E4,1.0567E4,4.4598E4,7.526E3,6.469E3,1.001E3,1.238E3,5.01E3,1.002E3,3.7E2,1.386E3,8.26E2,1.5312E4,1.58E2,4.236E3,7.771E3,1.4176E4,3.79E2,3.06E2,1.098E3,2.637E3,1.258E3,3.992E3,6.238E3,3.725E3,5.373E3,3.91E2,1.8197E4,7.781E3,2.254E3,1.224E3,2.307E3,3.14E2,2.888E3,1.3463E4,9.3E2,4.257E3,8.72E2,2.6521E4,7.704E3,8.033E3,1.4824E4,2.866E3,4.972E3,3.486E3,1.664E3,2.375E3,2.758E3,4.5468E4,4.703E3,1.593E3,1.169E3,4.92E3,7.52E2,4.128E3,1.098E4,1.522E4,2.916E3,3.309E3,6.874E3,5.35E3,2.268E3,1.6012E4,4.0765E4,2.983E3,7.584E3,3.3995E4,1.0603E4,1.16E2,6.353E3,1.098E3,3.912E3,2.62E2,7.4E2,3.24E2,1.062E3,1.72E2,6.54E2,2.143E3,2.093E3,4.884E3,2.887E3,1.3217E4,9.59E2,1.069E3,2.9E1,5.54E2,3.438E3,3.125E3,3.113E3,1.283E3,2.442E3,4.041E3,1.332E3,3.195E3,1.5002E4,3.002E3,4.779E3,1.263E3,9.91E2,2E2,1.024E3,2.21E2,2.667E3,4.396E3,9.067E3,3.02E2,6.28E2,3.059E3,1.198E3,3.403E3,2.3118E4,3.6E3,4.104E3,6.287E3,1.746E3,2.79E2,1.4545E4],"tree_param":{"num_deleted":"0","num_feature":"15","num_nodes":"267","size_leaf_vector":"1"}},{"base_weights":[1.8678742E-4,-0E0,4.999524E-3,6.888342E-3,-1.0264383E-4,2.0244198E-2,7.06061E-4,3.6222946E-2,-0E0,-1.8630609E-4,1.5418043E-2,5.1810488E-2,-0E0,1.7518178E-3,-2.1440403E-4,-0E0,4.0868316E-2,-3.7374739E-3,3.1889044E-3,-2.621033E-4,1.3134771E-2,-0E0,2.3601608E-2,1.8769E-2,-0E0,4.882723E-3,2.2617059E-2,-0E0,-2.6653316E-3,1.3584891E-4,-1.5069916E-3,-0E0,5.6356913E-3,3.6711395E-2,-0E0,-6.4416125E-4,5.422805E-3,1.3672671E-3,-5.8402955E-3,-0E0,1.427222E-2,6.797262E-3,-1.1258394E-3,-3.1474626E-4,1.1390135E-2,-5.8234995E-3,4.9395296E-3,-9.37287E-3,-2.4085243E-3,2.9282978E-2,2.8752636E-3,-1.4201689E-3,2.0656318E-3,3.11603E-3,-3.0602235E-3,1.5929049E-2,3.3616484E-3,-0E0,-8.676148E-3,2.1809893E-2,2.3853942E-3,-4.2170584E-3,-1.3491507E-2,-4.123295E-3,2.2454418E-3,-0E0,1.1158057E-2,-7.9850765E-4,1.3297726E-2,-2.7435585E-3,-3.927444E-4,4.415746E-3,-1.0650181E-3,2.4544739E-3,-5.912858E-3,3.1068219E-2,3.3761566E-3,-0E0,2.4028304E-3,-1.008646E-2,-0E0,8.446049E-3,1.2731423E-2,7.996631E-3,-2.828933E-3,-0E0,-6.58352E-3,-1.4338255E-2,-0E0,-7.240813E-3,-0E0,5.8940174E-3,-9.1725495E-5,1.0597283E-3,-1.5057739E-3,5.8537875E-3,-0E0,-2.187515E-3,-6.417009E-4,-3.7659242E-4,2.1521726E-3,2.2544377E-3,-0E0,-1.5786426E-3,1.3695301E-3,-2.6167033E-4,2.2447368E-3,-3.7369882E-3,-0E0,3.346972E-4,1.2152344E-2,-0E0,-3.7868894E-3,5.6836954E-3,-0E0,6.822799E-5,5.4724077E-3,-0E0,-2.8176275E-3,-3.3142443E-3,-0E0,-0E0,-5.1029045E-3,-0E0,-3.3286489E-3,1.595004E-3,-8.097406E-4,4.6208533E-3,-0E0],"categories":[0,0,0,0],"categories_nodes":[2,16,54,55],"categories_segments":[0,1,2,3],"categories_sizes":[1,1,1,1],"default_left":[0,0,1,0,0,0,0,0,0,0,0,0,0,0,0,0,1,0,0,0,0,0,0,0,0,0,0,0,0,0,0,0,0,0,0,0,0,0,1,0,0,0,0,0,0,0,0,0,0,0,0,1,1,0,1,1,0,0,0,0,0,0,0,0,0,0,0,0,0,0,0,0,0,0,0,0,0,0,0,0,0,0,0,0,1,0,0,0,0,0,0,0,0,0,0,0,0,0,0,0,0,0,0,0,0,0,0,0,0,0,0,0,0,0,0,0,0,0,0,0,0,0,0,0,0,0,0,0,0],"id":7,"left_children":[1,3,5,7,9,11,13,15,17,19,21,23,-1,-1,-1,-1,25,27,-1,29,31,-1,33,-1,-1,-1,-1,-1,-1,35,37,-1,-1,39,-1,41,43,45,47,-1,-1,49,51,53,55,57,59,61,63,65,67,69,71,-1,73,75,77,-1,79,81,83,85,87,89,91,-1,-1,93,95,97,99,101,103,105,107,109,-1,-1,-1,111,-1,113,-1,115,117,-1,119,121,-1,123,125,127,-1,-1,-1,-1,-1,-1,-1,-1,-1,-1,-1,-1,-1,-1,-1,-1,-1,-1,-1,-1,-1,-1,-1,-1,-1,-1,-1,-1,-1,-1,-1,-1,-1,-1,-1,-1,-1],"loss_changes":[5.003543E-1,4.470215E-1,1.1174163E0,2.0719388E0,5.50573E-1,2.746202E0,1.5431295E-1,1.9819093E-1,2.3156014E-1,4.138187E-1,4.0057963E-1,1.278286E-1,0E0,0E0,0E0,0E0,1.230371E-1,1.5147412E-1,0E0,2.9228088E-1,1.6662735E-1,0E0,4.7514623E-1,0E0,0E0,0E0,0E0,0E0,0E0,1.7688187E0,1.8238302E0,0E0,0E0,2.3327768E-1,0E0,1.2238116E0,2.0248084E0,2.1452737E0,5.679196E-1,0E0,0E0,1.4183221E0,3.1150672E-1,6.395559E-1,7.962923E-1,3.60561E-1,2.1762936E0,3.6412024E-1,2.7241033E-1,1.2436032E-1,8.31122E-1,3.9044642E-1,2.2581705E-1,0E0,3.8912448E-1,1.0463691E0,1.8392201E-1,0E0,3.2279837E-1,9.001589E-1,1.5327256E0,1.2501167E-1,2.2477198E-1,3.3423963E-1,1.2687428E-1,0E0,0E0,1.9314763E-1,2.2207075E-1,3.1916088E-1,8.19E-1,2.2144324E-1,1.679738E-1,1.5171492E-1,4.491974E-1,1.7427635E-1,0E0,0E0,0E0,1.9445288E-1,0E0,2.579517E-1,0E0,1.4142216E0,3.1537315E-1,0E0,1.8968871E-1,1.884191E-1,0E0,2.2303385E-1,1.2215424E-1,2.9175538E-1,0E0,0E0,0E0,0E0,0E0,0E0,0E0,0E0,0E0,0E0,0E0,0E0,0E0,0E0,0E0,0E0,0E0,0E0,0E0,0E0,0E0,0E0,0E0,0E0,0E0,0E0,0E0,0E0,0E0,0E0,0E0,0E0,0E0,0E0,0E0,0E0,0E0],"parents":[2147483647,0,0,1,1,2,2,3,3,4,4,5,5,6,6,7,7,8,8,9,9,10,10,11,11,16,16,17,17,19,19,20,20,22,22,29,29,30,30,33,33,35,35,36,36,37,37,38,38,41,41,42,42,43,43,44,44,45,45,46,46,47,47,48,48,49,49,50,50,51,51,52,52,54,54,55,55,56,56,58,58,59,59,60,60,61,61,62,62,63,63,64,64,67,67,68,68,69,69,70,70,71,71,72,72,73,73,74,74,75,75,79,79,81,81,83,83,84,84,86,86,87,87,89,89,90,90,91,91],"right_children":[2,4,6,8,10,12,14,16,18,20,22,24,-1,-1,-1,-1,26,28,-1,30,32,-1,34,-1,-1,-1,-1,-1,-1,36,38,-1,-1,40,-1,42,44,46,48,-1,-1,50,52,54,56,58,60,62,64,66,68,70,72,-1,74,76,78,-1,80,82,84,86,88,90,92,-1,-1,94,96,98,100,102,104,106,108,110,-1,-1,-1,112,-1,114,-1,116,118,-1,120,122,-1,124,126,128,-1,-1,-1,-1,-1,-1,-1,-1,-1,-1,-1,-1,-1,-1,-1,-1,-1,-1,-1,-1,-1,-1,-1,-1,-1,-1,-1,-1,-1,-1,-1,-1,-1,-1,-1,-1,-1],"split_conditions":[5.5200396E0,-5.545234E0,NaN,2.3749828E0,3.6504989E0,2.4646106E0,2.194146E0,-8.599975E1,-4.7490387E1,1.0953168E0,-4.5539255E0,1.01286934E2,-0E0,1.7518178E-3,-2.1440403E-4,-0E0,NaN,2.852686E0,3.1889044E-3,2.1865268E0,-3.1260204E1,-0E0,4.5090714E0,1.8769E-2,-0E0,4.882723E-3,2.2617059E-2,-0E0,-2.6653316E-3,3.9076025E0,3.563697E0,-0E0,5.6356913E-3,1.66E2,-0E0,-3.5887089E0,-5.6456963E1,-3.4708786E0,9.504267E0,-0E0,1.427222E-2,1.3211643E0,2.0513644E0,1.3293375E0,1.9049546E0,-6.5E0,-5.6022537E1,2.4865181E0,9.268646E-1,-7.057221E1,-2.893712E1,-2.8669533E1,-3.3333334E-1,3.11603E-3,NaN,NaN,-3.5746048E1,-0E0,6.1157565E0,2.533707E0,2.4814086E0,2.33E2,8.696205E1,2.5987902E0,6.037305E0,-0E0,1.1158057E-2,2.425E3,-3.7761278E0,-1.4838169E0,3.2890904E0,3.2890904E0,5.9825826E0,-8.0066284E1,4.6441674E0,4.021433E0,3.3761566E-3,-0E0,2.4028304E-3,4.8821206E0,-0E0,2.9578078E0,1.2731423E-2,-1.898734E0,2.532E3,-0E0,7.01682E1,-6.580141E1,-0E0,2.4305676E1,2.519E3,4.445134E0,-9.1725495E-5,1.0597283E-3,-1.5057739E-3,5.8537875E-3,-0E0,-2.187515E-3,-6.417009E-4,-3.7659242E-4,2.1521726E-3,2.2544377E-3,-0E0,-1.5786426E-3,1.3695301E-3,-2.6167033E-4,2.2447368E-3,-3.7369882E-3,-0E0,3.346972E-4,1.2152344E-2,-0E0,-3.7868894E-3,5.6836954E-3,-0E0,6.822799E-5,5.4724077E-3,-0E0,-2.8176275E-3,-3.3142443E-3,-0E0,-0E0,-5.1029045E-3,-0E0,-3.3286489E-3,1.595004E-3,-8.097406E-4,4.6208533E-3,-0E0],"split_indices":[4,4,1,6,6,6,6,12,12,8,4,14,0,0,0,0,1,6,0,6,11,0,4,0,0,0,0,0,0,4,4,0,0,10,0,4,12,4,11,0,0,6,6,6,6,3,12,6,8,12,12,12,3,0,1,1,12,0,7,6,4,10,14,6,7,0,0,9,4,4,4,4,7,12,4,4,0,0,0,7,0,4,0,4,9,0,14,11,0,11,9,4,0,0,0,0,0,0,0,0,0,0,0,0,0,0,0,0,0,0,0,0,0,0,0,0,0,0,0,0,0,0,0,0,0,0,0,0,0],"split_type":[0,0,1,0,0,0,0,0,0,0,0,0,0,0,0,0,1,0,0,0,0,0,0,0,0,0,0,0,0,0,0,0,0,0,0,0,0,0,0,0,0,0,0,0,0,0,0,0,0,0,0,0,0,0,1,1,0,0,0,0,0,0,0,0,0,0,0,0,0,0,0,0,0,0,0,0,0,0,0,0,0,0,0,0,0,0,0,0,0,0,0,0,0,0,0,0,0,0,0,0,0,0,0,0,0,0,0,0,0,0,0,0,0,0,0,0,0,0,0,0,0,0,0,0,0,0,0,0,0],"sum_hessian":[5.91934E5,5.71124E5,2.081E4,9.262E3,5.61862E5,3.943E3,1.6867E4,1.881E3,7.381E3,5.59637E5,2.225E3,1.596E3,2.347E3,5.899E3,1.0968E4,2.92E2,1.589E3,5.703E3,1.678E3,5.57382E5,2.255E3,5.76E2,1.649E3,1.436E3,1.6E2,1.036E3,5.53E2,1.988E3,3.715E3,4.15229E5,1.42153E5,2.56E2,1.999E3,1.014E3,6.35E2,3.59932E5,5.5297E4,8.3847E4,5.8306E4,1.19E2,8.95E2,2.037E4,3.39562E5,2.7203E4,2.8094E4,2.6729E4,5.7118E4,2.7013E4,3.1293E4,2.547E3,1.7823E4,3.14282E5,2.528E4,5.119E3,2.2084E4,1.699E4,1.1104E4,9.916E3,1.6813E4,6.871E3,5.0247E4,1.3295E4,1.3718E4,2.4717E4,6.576E3,4.22E2,2.125E3,1.2367E4,5.456E3,1.32329E5,1.81953E5,1.6578E4,8.702E3,6.125E3,1.5959E4,4.209E3,1.2781E4,4.968E3,6.136E3,1.5604E4,1.209E3,4.148E3,2.723E3,2.528E4,2.4967E4,4.976E3,8.319E3,1.3235E4,4.83E2,1.4367E4,1.035E4,4.573E3,2.003E3,4.401E3,7.966E3,3.969E3,1.487E3,2.2089E4,1.1024E5,1.66042E5,1.5911E4,1.2305E4,4.273E3,6.463E3,2.239E3,1.876E3,4.249E3,8.269E3,7.69E3,9.19E2,3.29E3,1.321E3,1.4283E4,1.946E3,2.202E3,1.367E4,1.161E4,1.7535E4,7.432E3,5.742E3,2.577E3,3.9E2,1.2845E4,4.25E3,1.0117E4,3.787E3,6.563E3,2.399E3,2.174E3],"tree_param":{"num_deleted":"0","num_feature":"15","num_nodes":"129","size_leaf_vector":"1"}},{"base_weights":[1.18847616E-4,4.5606717E-5,4.578005E-3,6.540147E-4,-9.398036E-4,1.7788816E-2,4.3541667E-4,8.5333106E-4,-2.5542944E-3,6.8497597E-3,-0E0,-3.8393112E-4,4.3710982E-3,-2.0767932E-3,5.498809E-3,-6.714208E-4,-3.934732E-3,2.4355295E-4,-2.1494366E-3,1.2742855E-2,1.1754993E-3,7.6230144E-4,-3.371511E-3,1.4783853E-2,4.020419E-4,6.187376E-4,-3.9037387E-3,-3.2755482E-4,-5.7044625E-3,5.359199E-3,-3.3985818E-4,6.478297E-3,-2.93665E-3,2.923705E-2,7.7718263E-3,3.9177225E-3,-1.8619598E-3,8.825875E-3,-5.4266523E-3,-4.597114E-3,2.9154355E-3,7.0831746E-5,1.7548302E-2,-4.1758204E-3,7.784978E-3,4.224268E-3,-2.3462316E-3,-0E0,-7.7411905E-3,1.6913656E-3,-1.767055E-3,-7.384939E-3,-0E0,1.4580212E-2,2.453372E-3,-1.3010914E-3,6.785625E-4,-0E0,9.892187E-3,-7.5672235E-4,-5.5749645E-3,1.0672576E-3,3.9655127E-2,5.368369E-3,4.5190748E-2,1.0086569E-2,2.313543E-3,-0E0,-4.03861E-3,5.5629397E-3,-0E0,-0E0,-8.36309E-3,-0E0,-5.1595066E-3,-0E0,1.7841108E-2,-9.403972E-4,2.72155E-3,1.3925831E-3,7.1093086E-3,-7.1698343E-3,2.2927711E-4,1.5002434E-2,-0E0,-0E0,8.470675E-3,2.7919316E-4,-1.9572878E-3,-3.1556466E-3,-0E0,-5.9606098E-3,6.5115996E-4,-8.015333E-3,2.3288526E-4,6.9018174E-3,-0E0,-6.1649067E-4,4.4298447E-3,-3.6931674E-3,4.2491185E-4,6.0831998E-3,-5.511597E-4,1.427355E-2,-0E0,-7.3522152E-3,-0E0,1.2331235E-3,-6.4653144E-3,1.5427882E-2,-0E0,9.083814E-3,-3.7041627E-5,-0E0,1.8204842E-2,4.2643882E-3,-0E0,1.8759476E-3,-0E0,-6.938067E-3,-0E0,-0E0,-1.17820315E-2,-8.7771695E-3,-2.4240452E-3,-7.1496377E-3,1.9549602E-3,7.417416E-3,-0E0,-1.2959035E-2,-0E0,5.765298E-3,-0E0,1.2094203E-2,-0E0,-8.883325E-3,-0E0,5.805124E-3,-7.228911E-4,-0E0,-8.850413E-3,5.656106E-3,-1.325328E-4,-4.402097E-3,1.9712911E-3,-2.8049862E-3,3.7287078E-3,2.400325E-3,-3.099712E-3,-0E0,1.6327813E-2,-0E0,-1.0809383E-2,-4.7081625E-3,1.7149791E-3,-0E0,1.0954512E-2,-0E0,-6.9968863E-3,2.1624487E-4,4.2793844E-3,-0E0,-8.41604E-3,-1.3903573E-2,-0E0,-0E0,-1.0312611E-2,1.9839029E-3,-4.5434562E-3,-0E0,-1.2242023E-2,-1.498511E-2,-0E0,1.7343154E-2,-0E0,-0E0,-1.1320204E-2,9.776543E-3,-0E0,-3.9589987E-3,-4.601096E-3,6.676219E-4,4.0848213E-3,-5.22801E-4,-2.6330606E-3,3.532049E-3,-8.782422E-4,1.1527782E-3,-2.611037E-3,-4.729902E-4,2.5849855E-3,-9.5808884E-4,2.0833975E-3,-2.3602153E-4,-2.2625995E-3,-0E0,6.1242445E-3,-0E0,-4.4643614E-3,-0E0,-2.9292484E-3,2.673253E-3,-3.1832172E-4,-0E0,5.772423E-3,-8.201601E-4,-3.0775475E-3,-0E0,-3.740784E-3,-0E0,-5.5191834E-3,-3.8515818E-3,-0E0,-0E0,3.0208759E-3,-2.4401885E-3,-0E0,-5.9110504E-3,-0E0,-0E0,-5.4571154E-3,-0E0,7.3152785E-3,-4.322354E-3,-0E0,-0E0,4.878153E-3,-0E0,-2.1042663E-3],"categories":[0,0,0,0,0],"categories_nodes":[12,45,100,102,107],"categories_segments":[0,1,2,3,4],"categories_sizes":[1,1,1,1,1],"default_left":[0,0,0,0,0,0,0,0,0,0,0,1,1,0,0,0,1,0,0,0,0,0,0,0,1,0,0,1,0,0,0,0,0,0,0,0,0,1,0,1,0,0,0,0,0,1,0,0,1,0,0,0,0,0,0,0,0,0,0,0,0,0,0,1,0,0,0,0,0,0,0,0,0,0,0,0,0,0,0,0,0,0,0,0,0,0,0,0,0,0,0,0,0,0,0,0,0,0,0,0,1,0,1,0,0,1,0,1,0,0,0,0,0,0,0,0,0,0,0,0,0,0,0,0,0,0,0,0,0,1,0,0,0,0,0,0,0,0,0,0,0,0,0,0,0,0,0,0,0,0,0,0,0,0,0,0,0,0,0,0,0,0,0,1,0,0,0,0,0,0,0,0,0,0,0,0,0,0,0,0,0,0,0,0,0,0,0,0,0,0,0,0,0,0,0,0,0,0,0,0,0,0,0,0,0,0,0,0,0,0,0,0,0,0,0,0,0,0,0,0,0,0,0,0,0,0,0,0,0],"id":8,"left_children":[1,3,-1,5,7,9,11,13,15,-1,-1,17,19,21,23,25,27,29,31,33,35,37,39,41,43,45,47,49,51,53,55,57,59,61,63,65,67,69,71,73,75,77,79,81,83,85,87,-1,89,-1,91,93,-1,95,97,99,101,-1,103,105,107,-1,109,111,113,115,117,-1,119,-1,-1,-1,121,-1,123,125,127,-1,-1,-1,-1,129,-1,131,-1,-1,133,-1,-1,-1,-1,135,137,139,-1,-1,-1,-1,141,143,145,-1,147,149,-1,151,153,155,157,-1,-1,159,-1,-1,-1,-1,-1,-1,-1,161,-1,-1,163,165,167,169,-1,-1,-1,171,-1,-1,-1,173,-1,175,-1,177,-1,-1,179,181,-1,183,185,187,189,191,193,-1,195,-1,197,199,201,-1,203,-1,205,-1,-1,-1,207,209,-1,-1,211,213,215,-1,217,219,-1,221,-1,-1,223,225,-1,-1,227,-1,-1,-1,-1,-1,-1,-1,-1,-1,-1,-1,-1,-1,-1,-1,-1,-1,-1,-1,-1,-1,-1,-1,-1,-1,-1,-1,-1,-1,-1,-1,-1,-1,-1,-1,-1,-1,-1,-1,-1,-1,-1,-1,-1,-1,-1,-1,-1],"loss_changes":[4.204828E-1,3.499687E-1,0E0,1.1778376E0,6.500069E-1,1.4470375E-1,1.2329332E0,1.3972791E0,2.5233358E-1,0E0,0E0,3.5695994E-1,1.5974394E0,2.4981564E-1,1.7194042E0,2.6200923E-1,3.4041822E-1,7.094282E-1,5.301887E-1,9.6486425E-1,4.301721E-1,8.3243096E-1,3.575554E-1,3.3760548E-1,9.476367E-1,4.0405273E-1,2.0730382E-1,1.417405E-1,4.035498E-1,4.514835E-1,1.9683883E-1,2.1965109E-1,3.759476E-1,4.208734E-1,6.371776E-1,1.2694424E-1,1.32216E-1,3.985132E-1,2.0450814E-1,1.5457922E-1,4.4079316E-1,1.2647745E-1,1.8913937E-1,3.024361E-1,5.713412E-1,3.3923313E-1,2.518608E-1,0E0,1.4511383E-1,0E0,2.675097E-1,2.4865639E-1,0E0,3.481536E-1,1.959832E-1,4.7419897E-1,2.074087E0,0E0,2.8008643E-1,2.9317182E-1,2.618264E-1,0E0,1.2719178E-1,3.7608743E-1,1.8474138E-1,1.6233805E-1,1.7322354E-1,0E0,2.087175E-1,0E0,0E0,0E0,2.3775223E-1,0E0,2.2521251E-1,1.8559948E-1,1.7487803E-1,0E0,0E0,0E0,0E0,5.338534E-1,0E0,2.0962846E-1,0E0,0E0,3.3816552E-1,0E0,0E0,0E0,0E0,2.2176522E-1,2.0239398E-1,1.4877844E-1,0E0,0E0,0E0,0E0,1.5217066E-1,2.1798754E-1,6.351973E-1,0E0,6.223318E-1,1.7589736E-1,0E0,1.7664027E-1,2.9212165E-1,1.2311118E-1,1.5482998E-1,0E0,0E0,1.1851668E-1,0E0,0E0,0E0,0E0,0E0,0E0,0E0,1.21406615E-1,0E0,0E0,1.9256705E-1,2.3954272E-1,2.4042918E-1,1.4346121E-1,0E0,0E0,0E0,2.7139473E-1,0E0,0E0,0E0,3.3374143E-1,0E0,1.5677834E-1,0E0,2.027406E-1,0E0,0E0,1.340344E-1,1.6673702E-1,0E0,3.1053048E-1,2.2454746E-1,8.9533734E-1,6.865565E-1,7.3788184E-1,3.0772918E-1,0E0,1.3088942E-1,0E0,1.5626568E-1,1.5560515E-1,5.79466E-1,0E0,1.2669449E-1,0E0,1.4371216E-1,0E0,0E0,0E0,1.4976156E-1,1.2831968E-1,0E0,0E0,2.0729911E-1,1.6612902E-1,1.6966793E-1,0E0,1.7314094E-1,1.6542459E-1,0E0,3.2974708E-1,0E0,0E0,1.4527792E-1,2.9729128E-1,0E0,0E0,1.3732135E-1,0E0,0E0,0E0,0E0,0E0,0E0,0E0,0E0,0E0,0E0,0E0,0E0,0E0,0E0,0E0,0E0,0E0,0E0,0E0,0E0,0E0,0E0,0E0,0E0,0E0,0E0,0E0,0E0,0E0,0E0,0E0,0E0,0E0,0E0,0E0,0E0,0E0,0E0,0E0,0E0,0E0,0E0,0E0,0E0,0E0,0E0,0E0,0E0],"parents":[2147483647,0,0,1,1,3,3,4,4,5,5,6,6,7,7,8,8,11,11,12,12,13,13,14,14,15,15,16,16,17,17,18,18,19,19,20,20,21,21,22,22,