{"learner":{"attributes":{"scikit_learn":"{\"_estimator_type\": \"classifier\"}"},"feature_names":["pitcherHand_L","hitterHand_L","count_group_Early","count_group_2-Str","count_group_Behind","velo","velo_diff","extension","x0","z0","z0_ratio","spin_rate","adj_spin_dir","ssw","HB_acc","IVB_acc","Break_acc"],"feature_types":["i","i","i","i","i","float","float","float","float","float","float","float","float","float","float","float","float"],"gradient_booster":{"model":{"gbtree_model_param":{"num_parallel_tree":"1","num_trees":"600"},"iteration_indptr":[0,6,12,18,24,30,36,42,48,54,60,66,72,78,84,90,96,102,108,114,120,126,132,138,144,150,156,162,168,174,180,186,192,198,204,210,216,222,228,234,240,246,252,258,264,270,276,282,288,294,300,306,312,318,324,330,336,342,348,354,360,366,372,378,384,390,396,402,408,414,420,426,432,438,444,450,456,462,468,474,480,486,492,498,504,510,516,522,528,534,540,546,552,558,564,570,576,582,588,594,600],"tree_info":[0,1,2,3,4,5,0,1,2,3,4,5,0,1,2,3,4,5,0,1,2,3,4,5,0,1,2,3,4,5,0,1,2,3,4,5,0,1,2,3,4,5,0,1,2,3,4,5,0,1,2,3,4,5,0,1,2,3,4,5,0,1,2,3,4,5,0,1,2,3,4,5,0,1,2,3,4,5,0,1,2,3,4,5,0,1,2,3,4,5,0,1,2,3,4,5,0,1,2,3,4,5,0,1,2,3,4,5,0,1,2,3,4,5,0,1,2,3,4,5,0,1,2,3,4,5,0,1,2,3,4,5,0,1,2,3,4,5,0,1,2,3,4,5,0,1,2,3,4,5,0,1,2,3,4,5,0,1,2,3,4,5,0,1,2,3,4,5,0,1,2,3,4,5,0,1,2,3,4,5,0,1,2,3,4,5,0,1,2,3,4,5,0,1,2,3,4,5,0,1,2,3,4,5,0,1,2,3,4,5,0,1,2,3,4,5,0,1,2,3,4,5,0,1,2,3,4,5,0,1,2,3,4,5,0,1,2,3,4,5,0,1,2,3,4,5,0,1,2,3,4,5,0,1,2,3,4,5,0,1,2,3,4,5,0,1,2,3,4,5,0,1,2,3,4,5,0,1,2,3,4,5,0,1,2,3,4,5,0,1,2,3,4,5,0,1,2,3,4,5,0,1,2,3,4,5,0,1,2,3,4,5,0,1,2,3,4,5,0,1,2,3,4,5,0,1,2,3,4,5,0,1,2,3,4,5,0,1,2,3,4,5,0,1,2,3,4,5,0,1,2,3,4,5,0,1,2,3,4,5,0,1,2,3,4,5,0,1,2,3,4,5,0,1,2,3,4,5,0,1,2,3,4,5,0,1,2,3,4,5,0,1,2,3,4,5,0,1,2,3,4,5,0,1,2,3,4,5,0,1,2,3,4,5,0,1,2,3,4,5,0,1,2,3,4,5,0,1,2,3,4,5,0,1,2,3,4,5,0,1,2,3,4,5,0,1,2,3,4,5,0,1,2,3,4,5,0,1,2,3,4,5,0,1,2,3,4,5,0,1,2,3,4,5,0,1,2,3,4,5,0,1,2,3,4,5,0,1,2,3,4,5,0,1,2,3,4,5,0,1,2,3,4,5,0,1,2,3,4,5,0,1,2,3,4,5,0,1,2,3,4,5,0,1,2,3,4,5,0,1,2,3,4,5,0,1,2,3,4,5,0,1,2,3,4,5,0,1,2,3,4,5,0,1,2,3,4,5,0,1,2,3,4,5,0,1,2,3,4,5,0,1,2,3,4,5,0,1,2,3,4,5,0,1,2,3,4,5,0,1,2,3,4,5,0,1,2,3,4,5],"trees":[{"base_weights":[9.1430503E-1,6.7997605E-1,-0E0],"categories":[],"categories_nodes":[],"categories_segments":[],"categories_sizes":[],"default_left":[0,0,0],"id":0,"left_children":[1,-1,-1],"loss_changes":[1.3925781E0,0E0,0E0],"parents":[2147483647,0,0],"right_children":[2,-1,-1],"split_conditions":[1.8193555E2,6.7997605E-1,-0E0],"split_indices":[14,0,0],"split_type":[0,0,0],"sum_hessian":[2.9576113E4,2.9574445E4,1.6666667E0],"tree_param":{"num_deleted":"0","num_feature":"17","num_nodes":"3","size_leaf_vector":"1"}},{"base_weights":[-5.173788E-2,-0E0,-5.4434028E-2,-5.5657163E-2,-0E0,-0E0,-5.705872E-2,-0E0,-6.021558E-2,-0E0,-6.111732E-2,-0E0,-6.151666E-2,-0E0,-4.6031643E-2],"categories":[],"categories_nodes":[],"categories_segments":[],"categories_sizes":[],"default_left":[1,0,0,1,0,0,0,0,1,0,0,0,0,0,0],"id":1,"left_children":[1,-1,3,5,-1,-1,7,-1,9,-1,11,-1,13,-1,-1],"loss_changes":[3.8292542E0,0E0,2.008995E0,1.937149E0,0E0,0E0,1.7015076E0,0E0,1.5515442E0,0E0,8.665085E-1,0E0,4.7029877E-1,0E0,0E0],"parents":[2147483647,0,0,2,2,3,3,6,6,8,8,10,10,12,12],"right_children":[2,-1,4,6,-1,-1,8,-1,10,-1,12,-1,14,-1,-1],"split_conditions":[1.54E2,-0E0,9.17E1,-8.647806E1,-0E0,-0E0,-5.1298462E1,-0E0,5.440342E0,-0E0,-8.1874985E1,-0E0,-1.839091E1,-0E0,-4.6031643E-2],"split_indices":[12,0,5,14,0,0,15,0,7,0,13,0,6,0,0],"split_type":[0,0,0,0,0,0,0,0,0,0,0,0,0,0,0],"sum_hessian":[2.9553334E4,1.7366667E3,2.7816668E4,2.717778E4,6.388889E2,8.1111115E2,2.6366668E4,2.4066667E3,2.3960002E4,3.391667E2,2.3620834E4,1.0000001E2,2.3520834E4,1.8833334E2,2.3332502E4],"tree_param":{"num_deleted":"0","num_feature":"17","num_nodes":"15","size_leaf_vector":"1"}},{"base_weights":[-8.705649E-2,-8.797871E-2,-0E0,-0E0,-8.839622E-2,-0E0,-8.885033E-2,-0E0,-8.9121774E-2,-8.9343645E-2,-0E0,-6.7652255E-2,-0E0],"categories":[],"categories_nodes":[],"categories_segments":[],"categories_sizes":[],"default_left":[0,1,0,0,0,0,0,0,1,0,0,0,0],"id":2,"left_children":[1,3,-1,-1,5,-1,7,-1,9,11,-1,-1,-1],"loss_changes":[3.7382812E0,1.3534241E0,0E0,0E0,7.453003E-1,0E0,5.963898E-1,0E0,3.4046936E-1,6.07254E-1,0E0,0E0,0E0],"parents":[2147483647,0,0,1,1,4,4,6,6,8,8,9,9],"right_children":[2,4,-1,-1,6,-1,8,-1,10,12,-1,-1,-1],"split_conditions":[6.0342107E0,4.332213E0,-0E0,-0E0,5.301286E0,-0E0,-3.6764007E0,-0E0,7.648488E0,5.9274242E1,-0E0,-6.7652255E-2,-0E0],"split_indices":[6,16,0,0,7,0,8,0,7,15,0,0,0],"split_type":[0,0,0,0,0,0,0,0,0,0,0,0,0],"sum_hessian":[2.960278E4,2.9430834E4,1.7194446E2,1.21111115E2,2.9309723E4,2.2277779E2,2.9086945E4,1.1277779E2,2.8974168E4,2.8864168E4,1.1000001E2,2.785028E4,1.0138889E3],"tree_param":{"num_deleted":"0","num_feature":"17","num_nodes":"13","size_leaf_vector":"1"}},{"base_weights":[-1.8856649E-1,-1.8893884E-1,-0E0,-0E0,-1.4077938E-1],"categories":[],"categories_nodes":[],"categories_segments":[],"categories_sizes":[],"default_left":[1,0,0,0,0],"id":3,"left_children":[1,3,-1,-1,-1],"loss_changes":[1.22802734E-1,7.1777344E-2,0E0,0E0,0E0],"parents":[2147483647,0,0,1,1],"right_children":[2,4,-1,-1,-1],"split_conditions":[1.2191438E2,3.812017E0,-0E0,-0E0,-1.4077938E-1],"split_indices":[13,9,0,0,0],"split_type":[0,0,0,0,0],"sum_hessian":[2.9548613E4,2.9428613E4,1.2000001E2,1.18333336E2,2.931028E4],"tree_param":{"num_deleted":"0","num_feature":"17","num_nodes":"5","size_leaf_vector":"1"}},{"base_weights":[-3.2952073E-1],"categories":[],"categories_nodes":[],"categories_segments":[],"categories_sizes":[],"default_left":[0],"id":4,"left_children":[-1],"loss_changes":[0E0],"parents":[2147483647],"right_children":[-1],"split_conditions":[-2.450542E-1],"split_indices":[0],"split_type":[0],"sum_hessian":[2.9588334E4],"tree_param":{"num_deleted":"0","num_feature":"17","num_nodes":"1","size_leaf_vector":"1"}},{"base_weights":[-2.2871451E-1,-2.1667618E-1,-1.20436125E-1,-0E0,-1.6416064E-1,-7.5887768E-3,-0E0,-1.67053E-1,-0E0,-0E0,-1.0317706E-2,-0E0,-1.6744138E-1,-0E0,-1.1090051E-2,-0E0,-1.678231E-1,-0E0,-8.725464E-3,-0E0,-1.6861494E-1,-1.2554187E-1,-0E0],"categories":[],"categories_nodes":[],"categories_segments":[],"categories_sizes":[],"default_left":[0,0,0,0,1,0,0,0,0,0,0,0,0,0,1,0,0,0,0,0,0,0,0],"id":5,"left_children":[1,-1,3,5,7,9,-1,11,-1,-1,13,-1,15,-1,17,-1,19,-1,-1,-1,21,-1,-1],"loss_changes":[6.530286E1,0E0,6.7977356E1,2.605226E-1,4.6701355E0,1.8826297E-1,0E0,1.0912781E0,0E0,0E0,6.871298E-2,0E0,9.9713135E-1,0E0,5.9334755E-2,0E0,5.3234863E-1,0E0,0E0,0E0,3.3120728E-1,0E0,0E0],"parents":[2147483647,0,0,2,2,3,3,4,4,5,5,7,7,10,10,12,12,14,14,16,16,20,20],"right_children":[2,-1,4,6,8,10,-1,12,-1,-1,14,-1,16,-1,18,-1,20,-1,-1,-1,22,-1,-1],"split_conditions":[6.2494893E0,-2.1667618E-1,8.52E1,2.1563475E1,8.319704E1,7.91E1,-0E0,6.776646E-1,-0E0,-0E0,2.7E1,-0E0,5.1365347E0,-0E0,5.1365347E0,-0E0,-6.747633E1,-0E0,-8.725464E-3,-0E0,4.104287E1,-1.2554187E-1,-0E0],"split_indices":[15,0,5,15,16,5,0,10,0,0,12,0,7,0,7,0,14,0,0,0,6,0,0],"split_type":[0,0,0,0,0,0,0,0,0,0,0,0,0,0,0,0,0,0,0,0,0,0,0],"sum_hessian":[2.9574445E4,1.5608334E4,1.3966111E4,4.757778E3,9.208334E3,2.7236113E3,2.0341667E3,8.997778E3,2.1055557E2,3.0805557E2,2.4155557E3,1.1111112E1,8.986667E3,8.055556E0,2.4075E3,1.3611112E1,8.973056E3,1.75E1,2.39E3,8.222223E1,8.890834E3,8.877223E3,1.3611112E1],"tree_param":{"num_deleted":"0","num_feature":"17","num_nodes":"23","size_leaf_vector":"1"}},{"base_weights":[2.8426695E-1,3.3235034E-1,1.2326755E-1,3.3515075E-1,-0E0,1.552339E-1,-0E0,-0E0,3.3632556E-1,-0E0,1.5914944E-1,-0E0,3.3701557E-1,-0E0,1.5985963E-1,2.5065553E-1,-0E0,-0E0,1.6038299E-1,1.6080043E-1,-0E0,-0E0,1.1988993E-1],"categories":[],"categories_nodes":[],"categories_segments":[],"categories_sizes":[],"default_left":[1,0,0,0,0,0,0,0,0,0,0,0,0,0,0,0,0,0,1,0,0,0,0],"id":6,"left_children":[1,3,5,7,-1,9,-1,-1,11,-1,13,-1,15,-1,17,-1,-1,-1,19,21,-1,-1,-1],"loss_changes":[1.9826978E2,2.496045E1,5.7238663E1,8.939453E0,0E0,5.7334595E0,0E0,0E0,2.503418E0,0E0,1.598999E0,0E0,5.7373047E-1,0E0,1.1326294E0,0E0,0E0,0E0,5.1794434E-1,4.6878052E-1,0E0,0E0,0E0],"parents":[2147483647,0,0,1,1,2,2,3,3,5,5,8,8,10,10,12,12,14,14,18,18,19,19],"right_children":[2,4,6,8,-1,10,-1,-1,12,-1,14,-1,16,-1,18,-1,-1,-1,20,22,-1,-1,-1],"split_conditions":[2.2173536E1,7.7152916E1,2.1222752E1,6.776646E-1,-0E0,7.75E1,-0E0,-0E0,5.1365347E0,-0E0,5.1365347E0,-0E0,1.8193555E2,-0E0,-1.978485E1,2.5065553E-1,-0E0,-0E0,6.0342107E0,6.776646E-1,-0E0,-0E0,1.1988993E-1],"split_indices":[13,15,15,10,0,5,0,0,7,0,7,0,14,0,6,0,0,0,6,10,0,0,0],"split_type":[0,0,0,0,0,0,0,0,0,0,0,0,0,0,0,0,0,0,0,0,0,0,0],"sum_hessian":[4.5393707E4,3.2499379E4,1.2894326E4,3.2150795E4,3.4858508E2,9.840834E3,3.0534922E3,1.5773901E2,3.1993055E4,3.3939297E2,9.50144E3,1.1619498E2,3.1876861E4,3.7623867E1,9.463816E3,3.1874484E4,2.3754745E0,2.9360086E1,9.434457E3,9.396231E3,3.8225456E1,3.9362106E1,9.356869E3],"tree_param":{"num_deleted":"0","num_feature":"17","num_nodes":"23","size_leaf_vector":"1"}},{"base_weights":[-0E0,-0E0,-5.7392484E-3,-0E0,2.2433295E-3,-0E0,-9.751471E-3,-0E0,4.173983E-3,-0E0,-1.2193514E-2,-0E0,6.6778045E-3,-0E0,-1.4895431E-2,8.754798E-3,-0E0,-1.6998898E-2,-0E0,9.8519E-3,-0E0,-1.8103963E-2,-0E0,-0E0,7.8745475E-3,-1.4225261E-2,-0E0],"categories":[],"categories_nodes":[],"categories_segments":[],"categories_sizes":[],"default_left":[1,0,0,0,0,0,0,0,0,0,0,0,0,0,0,0,0,0,0,0,0,0,0,0,0,0,0],"id":7,"left_children":[1,3,5,-1,7,-1,9,-1,11,-1,13,-1,15,-1,17,19,-1,21,-1,23,-1,25,-1,-1,-1,-1,-1],"loss_changes":[3.6225763E-1,8.412586E-2,6.1547613E-1,0E0,1.9183753E-1,0E0,4.743368E-1,0E0,2.8518686E-1,0E0,5.835339E-1,0E0,3.4763747E-1,0E0,5.357096E-1,2.3247218E-1,0E0,3.2094002E-1,0E0,1.6649556E-1,0E0,2.7297664E-1,0E0,0E0,0E0,0E0,0E0],"parents":[2147483647,0,0,1,1,2,2,4,4,6,6,8,8,10,10,12,12,14,14,15,15,17,17,19,19,21,21],"right_children":[2,4,6,-1,8,-1,10,-1,12,-1,14,-1,16,-1,18,20,-1,22,-1,24,-1,26,-1,-1,-1,-1,-1],"split_conditions":[1.6434948E1,2.208E3,-8.647806E1,-0E0,1.7397161E1,-0E0,-2.7227993E1,-0E0,-3.929828E1,-0E0,5.7082443E0,-0E0,1.0147697E0,-0E0,1.0098699E0,3.1043246E0,-0E0,1.16649475E1,-0E0,-3.1443279E0,-0E0,2.976E3,-0E0,-0E0,7.8745475E-3,-1.4225261E-2,-0E0],"split_indices":[13,11,14,0,16,0,15,0,15,0,7,0,10,0,10,8,0,14,0,8,0,11,0,0,0,0,0],"split_type":[0,0,0,0,0,0,0,0,0,0,0,0,0,0,0,0,0,0,0,0,0,0,0,0,0,0,0],"sum_hessian":[2.733036E4,1.813269E4,9.19767E3,3.21644E3,1.4916249E4,7.157779E2,8.481893E3,8.766088E2,1.4039641E4,5.15767E2,7.9661255E3,3.256013E3,1.0783627E4,5.916969E2,7.3744287E3,1.0056701E4,7.269263E2,7.0982607E3,2.7616788E2,9.958128E3,9.8572716E1,7.0243076E3,7.395281E1,9.4659676E1,9.863469E3,6.850378E3,1.7393005E2],"tree_param":{"num_deleted":"0","num_feature":"17","num_nodes":"27","size_leaf_vector":"1"}},{"base_weights":[-1.7490843E-2,-2.9624559E-2,-0E0,-0E0,-3.1027425E-2,-3.3631876E-2,-0E0,-3.426137E-2,-0E0,-3.4845147E-2,-0E0,-0E0,-3.5421453E-2,-0E0,-2.6664408E-2],"categories":[],"categories_nodes":[],"categories_segments":[],"categories_sizes":[],"default_left":[0,0,0,0,0,0,0,1,0,0,0,0,0,0,0],"id":8,"left_children":[1,3,-1,-1,5,7,-1,9,-1,11,-1,-1,13,-1,-1],"loss_changes":[8.457273E0,1.131937E0,0E0,0E0,1.2822399E0,6.5190125E-1,0E0,3.8318253E-1,0E0,3.9730072E-1,0E0,0E0,3.4292603E-1,0E0,0E0],"parents":[2147483647,0,0,1,1,4,4,5,5,7,7,9,9,12,12],"right_children":[2,4,-1,-1,6,8,-1,10,-1,12,-1,-1,14,-1,-1],"split_conditions":[1.7309933E1,7.51E1,-0E0,-0E0,1E0,3.3589413E0,-0E0,7.3750963E0,-0E0,4.8900175E0,-0E0,-0E0,8.8E1,-0E0,-2.6664408E-2],"split_indices":[13,5,0,0,4,8,0,7,0,9,0,0,12,0,0],"split_type":[0,0,0,0,0,0,0,0,0,0,0,0,0,0,0],"sum_hessian":[2.6632033E4,1.7747732E4,8.8843E3,5.51917E2,1.7195816E4,1.5501259E4,1.6945569E3,1.54266875E4,7.457114E1,1.5169892E4,2.5679666E2,2.3105809E2,1.4938833E4,1.3581944E2,1.4803014E4],"tree_param":{"num_deleted":"0","num_feature":"17","num_nodes":"15","size_leaf_vector":"1"}},{"base_weights":[-1.0101334E-1,-1.1629925E-1,-0E0,-0E0,-1.1890145E-1,-0E0,-1.2076902E-1,-1.2188781E-1,-0E0,-0E0,-1.2234054E-1,-0E0,-9.144804E-2],"categories":[],"categories_nodes":[],"categories_segments":[],"categories_sizes":[],"default_left":[1,0,0,0,0,0,0,0,0,0,0,0,0],"id":9,"left_children":[1,3,-1,-1,5,-1,7,9,-1,-1,11,-1,-1],"loss_changes":[2.344577E1,3.3024597E0,0E0,0E0,2.8450928E0,0E0,2.8196106E0,1.7469177E0,0E0,0E0,9.139099E-1,0E0,0E0],"parents":[2147483647,0,0,1,1,4,4,6,6,7,7,10,10],"right_children":[2,4,-1,-1,6,-1,8,10,-1,-1,12,-1,-1],"split_conditions":[3.0477745E1,-8.007954E1,-0E0,-0E0,7.42E1,-0E0,7.7152916E1,3.812017E0,-0E0,-0E0,8.8E1,-0E0,-9.144804E-2],"split_indices":[13,14,0,0,5,0,15,9,0,0,12,0,0],"split_type":[0,0,0,0,0,0,0,0,0,0,0,0,0],"sum_hessian":[2.5071004E4,2.0204982E4,4.8660215E3,7.190465E2,1.9485936E4,4.5817676E2,1.902776E4,1.883695E4,1.9080997E2,3.5740784E1,1.8801209E4,1.4953397E2,1.8651674E4],"tree_param":{"num_deleted":"0","num_feature":"17","num_nodes":"13","size_leaf_vector":"1"}},{"base_weights":[-2.2781518E-1,-0E0,-2.2834194E-1,-0E0,-2.286511E-1,-0E0,-1.7008804E-1],"categories":[],"categories_nodes":[],"categories_segments":[],"categories_sizes":[],"default_left":[0,0,0,0,0,0,0],"id":10,"left_children":[1,-1,3,-1,5,-1,-1],"loss_changes":[1.479126E0,0E0,3.2214355E-1,0E0,4.946289E-1,0E0,0E0],"parents":[2147483647,0,0,2,2,4,4],"right_children":[2,-1,4,-1,6,-1,-1],"split_conditions":[-3.6764007E0,-0E0,3.812017E0,-0E0,6.132585E-1,-0E0,-1.7008804E-1],"split_indices":[8,0,9,0,10,0,0],"split_type":[0,0,0,0,0,0,0],"sum_hessian":[2.2894752E4,8.543842E1,2.2809314E4,6.034428E1,2.2748969E4,4.226897E0,2.2744742E4],"tree_param":{"num_deleted":"0","num_feature":"17","num_nodes":"7","size_leaf_vector":"1"}},{"base_weights":[-1.413533E-1,-1.753761E-1,-7.155248E-4,-1.8301569E-1,-0E0,-4.1608635E-2,7.84468E-3,-0E0,-1.8442594E-1,-0E0,-4.823734E-2,1.664448E-2,-0E0,-0E0,-1.8511905E-1,-4.9380958E-2,-0E0,2.1055097E-2,-0E0,-0E0,-1.8568818E-1,-5.0356947E-2,-0E0,2.3210432E-2,-0E0,-0E0,-1.3835727E-1,-0E0,-5.1191222E-2,-0E0,2.4941279E-2,-3.8453E-2,-0E0,1.9502088E-2,-0E0],"categories":[],"categories_nodes":[],"categories_segments":[],"categories_sizes":[],"default_left":[1,0,0,0,0,0,0,0,0,0,1,0,0,0,0,0,0,1,0,0,0,0,0,0,0,0,0,0,0,0,0,0,0,0,0],"id":11,"left_children":[1,3,5,7,-1,9,11,-1,13,-1,15,17,-1,-1,19,21,-1,23,-1,-1,25,27,-1,29,-1,-1,-1,-1,31,-1,33,-1,-1,-1,-1],"loss_changes":[9.075922E1,1.2299255E1,1.0357588E1,6.303711E0,0E0,2.366147E0,8.273373E-1,0E0,2.4071655E0,0E0,5.6223774E-1,5.886916E-1,0E0,0E0,5.715332E-1,4.4011116E-1,0E0,3.265419E-1,0E0,0E0,6.311035E-2,4.1800213E-1,0E0,2.4445307E-1,0E0,0E0,0E0,0E0,2.5984E-1,0E0,2.1335506E-1,0E0,0E0,0E0,0E0],"parents":[2147483647,0,0,1,1,2,2,3,3,5,5,6,6,8,8,10,10,11,11,14,14,15,15,17,17,20,20,21,21,23,23,28,28,30,30],"right_children":[2,4,6,8,-1,10,12,-1,14,-1,16,18,-1,-1,20,22,-1,24,-1,-1,26,28,-1,30,-1,-1,-1,-1,32,-1,34,-1,-1,-1,-1],"split_conditions":[2.5437302E1,5.3007656E1,1.6285124E1,4.1630707E0,-0E0,7.98E1,-4.609273E0,-0E0,5.1365347E0,-0E0,6.0342107E0,8.78E1,-0E0,-0E0,-9.135075E1,3.3589413E0,-0E0,7.227699E0,-0E0,-0E0,5.301286E0,4.5077662E0,-0E0,2.152E3,-0E0,-0E0,-1.3835727E-1,-0E0,6.828452E0,-0E0,3.038E3,-3.8453E-2,-0E0,1.9502088E-2,-0E0],"split_indices":[13,15,15,9,0,5,14,0,7,0,6,5,0,0,14,8,0,7,0,0,7,9,0,11,0,0,0,0,9,0,11,0,0,0,0],"split_type":[0,0,0,0,0,0,0,0,0,0,0,0,0,0,0,0,0,0,0,0,0,0,0,0,0,0,0,0,0,0,0,0,0,0,0],"sum_hessian":[2.475324E4,1.8400652E4,6.352588E3,1.7116572E4,1.2840798E3,4.0386233E3,2.3139646E3,1.0286276E2,1.7013709E4,4.7756567E2,3.5610576E3,2.1000664E3,2.13898E2,7.037496E1,1.6943334E4,3.5461787E3,1.4878748E1,1.9650972E3,1.3496939E2,9.814862E1,1.6845186E4,3.514505E3,3.1673838E1,1.9044144E3,6.06827E1,7.0017845E1,1.6775168E4,1.23073635E1,3.5021975E3,1.0336351E2,1.8010509E3,3.4940928E3,8.104714E0,1.7675659E3,3.3485E1],"tree_param":{"num_deleted":"0","num_feature":"17","num_nodes":"35","size_leaf_vector":"1"}},{"base_weights":[1.4024639E-1,2.1605016E-1,7.71234E-2,-0E0,2.2209416E-1,-0E0,1.0956277E-1,1.6530548E-1,-0E0,-0E0,-6.9603994E-3,1.1840571E-1,-0E0,-0E0,-1.26207415E-2,1.1968114E-1,-0E0,-1.7115152E-2,-0E0,-0E0,1.2290013E-1,-0E0,-1.89924E-2,1.23371236E-1,-0E0,-0E0,-1.4679887E-2,-0E0,9.189257E-2],"categories":[],"categories_nodes":[],"categories_segments":[],"categories_sizes":[],"default_left":[0,0,0,0,1,0,0,0,0,0,0,0,0,0,1,0,0,0,0,0,0,0,0,0,0,0,0,0,0],"id":12,"left_children":[1,3,5,-1,7,9,11,-1,-1,-1,13,15,-1,-1,17,19,-1,21,-1,-1,23,-1,25,27,-1,-1,-1,-1,-1],"loss_changes":[1.5517169E2,4.2808228E0,9.162161E1,0E0,1.0241699E0,3.1910628E-1,1.2217041E1,0E0,0E0,0E0,6.720135E-1,3.612854E0,0E0,0E0,4.143799E-1,2.8157654E0,0E0,2.5296807E-1,0E0,0E0,1.048645E0,0E0,9.76249E-2,7.0602417E-1,0E0,0E0,0E0,0E0,0E0],"parents":[2147483647,0,0,1,1,2,2,4,4,5,5,6,6,10,10,11,11,14,14,15,15,17,17,20,20,22,22,23,23],"right_children":[2,4,6,-1,8,10,12,-1,-1,-1,14,16,-1,-1,18,20,-1,22,-1,-1,24,-1,26,28,-1,-1,-1,-1,-1],"split_conditions":[-5.784438E0,7.51E1,8.39E1,-0E0,7.97495E1,5.325311E1,5.3007656E1,1.6530548E-1,-0E0,-0E0,7.0737714E-1,3.038E3,-0E0,-0E0,2.98E2,-2.691807E0,-0E0,1.0974159E1,-0E0,-0E0,6.828452E0,-0E0,-3.3048053E0,3.812017E0,-0E0,-0E0,-1.4679887E-2,-0E0,9.189257E-2],"split_indices":[15,5,5,0,13,16,15,0,0,0,10,11,0,0,12,8,0,13,0,0,9,0,8,9,0,0,0,0,0],"split_type":[0,0,0,0,0,0,0,0,0,0,0,0,0,0,0,0,0,0,0,0,0,0,0,0,0,0,0,0,0],"sum_hessian":[4.9447867E4,1.9011205E4,3.0436662E4,1.03051E3,1.7980695E4,8.630791E3,2.1805871E4,1.7967686E4,1.3010616E1,3.8442773E3,4.7865137E3,1.9282984E4,2.5228857E3,3.6430814E2,4.4222056E3,1.9088244E4,1.9474022E2,2.9979268E3,1.4242786E3,8.93464E2,1.8194781E4,2.0032849E2,2.7975981E3,1.8111264E4,8.351728E1,9.104854E1,2.7065498E3,1.666257E1,1.8094602E4],"tree_param":{"num_deleted":"0","num_feature":"17","num_nodes":"29","size_leaf_vector":"1"}},{"base_weights":[3.2366097E-3,1.4439458E-2,-1.4957506E-4,-0E0,1.8462585E-2,-0E0,-3.603381E-3,2.0869019E-2,-0E0,-0E0,-6.546411E-3,2.2299124E-2,-0E0,-7.965604E-3,-0E0,-0E0,2.3556137E-2,-8.659806E-3,-0E0,-0E0,2.47168E-2,-9.3382895E-3,-0E0,1.8863996E-2,-0E0,-0E0,-7.384605E-3],"categories":[],"categories_nodes":[],"categories_segments":[],"categories_sizes":[],"default_left":[1,0,0,0,1,0,0,1,0,0,0,0,0,0,0,0,0,0,0,0,0,0,0,0,0,0,0],"id":13,"left_children":[1,3,5,-1,7,-1,9,11,-1,-1,13,15,-1,17,-1,-1,19,21,-1,-1,23,25,-1,-1,-1,-1,-1],"loss_changes":[4.010036E0,1.3665986E0,1.1655078E-1,0E0,1.1285682E0,0E0,2.3589E-1,6.2858343E-1,0E0,0E0,1.5044847E-1,6.177726E-1,0E0,8.732128E-2,0E0,0E0,4.4566345E-1,9.2571974E-2,0E0,0E0,3.868246E-1,4.4057965E-2,0E0,0E0,0E0,0E0,0E0],"parents":[2147483647,0,0,1,1,2,2,4,4,6,6,7,7,10,10,11,11,13,13,16,16,17,17,20,20,21,21],"right_children":[2,4,6,-1,8,-1,10,12,-1,-1,14,16,-1,18,-1,-1,20,22,-1,-1,24,26,-1,-1,-1,-1,-1],"split_conditions":[2.1394796E1,2.7551323E1,5.7082443E0,-0E0,8.319704E1,-0E0,-1.6511505E1,7.117512E0,-0E0,-0E0,3.25E2,-5.1676815E1,-0E0,1.3576458E1,-0E0,-0E0,7.55E1,1.0525507E0,-0E0,-0E0,3.1043246E0,-8.647806E1,-0E0,1.8863996E-2,-0E0,-0E0,-7.384605E-3],"split_indices":[13,16,7,0,16,0,15,7,0,0,12,13,0,14,0,0,5,10,0,0,8,14,0,0,0,0,0],"split_type":[0,0,0,0,0,0,0,0,0,0,0,0,0,0,0,0,0,0,0,0,0,0,0,0,0,0,0],"sum_hessian":[2.664473E4,1.8860943E4,7.783788E3,4.0141614E3,1.4846782E4,5.9120056E2,7.1925874E3,1.3820304E4,1.0264778E3,7.6382245E2,6.4287646E3,1.3145099E4,6.75206E2,6.1288564E3,2.999083E2,4.3915335E2,1.2705945E4,6.072975E3,5.5881535E1,6.008869E2,1.2105058E4,6.032032E3,4.094267E1,1.2003446E4,1.01611496E2,4.5874292E2,5.5732896E3],"tree_param":{"num_deleted":"0","num_feature":"17","num_nodes":"27","size_leaf_vector":"1"}},{"base_weights":[-0E0,-6.0478607E-3,-0E0,-0E0,-1.1549547E-2,-0E0,-1.291883E-2,-0E0,-1.3974752E-2,-1.4876558E-2,-0E0,-1.55354375E-2,-0E0,-0E0,-1.2025572E-2],"categories":[],"categories_nodes":[],"categories_segments":[],"categories_sizes":[],"default_left":[0,0,0,0,0,0,1,0,1,0,0,1,0,0,0],"id":14,"left_children":[1,3,-1,-1,5,-1,7,-1,9,11,-1,13,-1,-1,-1],"loss_changes":[4.2570296E-1,4.8176733E-1,0E0,0E0,2.184133E-1,0E0,1.6933525E-1,0E0,1.398195E-1,1.1727309E-1,0E0,1.12005115E-1,0E0,0E0,0E0],"parents":[2147483647,0,0,1,1,4,4,6,6,8,8,9,9,11,11],"right_children":[2,4,-1,-1,6,-1,8,-1,10,12,-1,14,-1,-1,-1],"split_conditions":[-5.488654E0,8.19E1,-0E0,-0E0,5.3860903E0,-0E0,-9.135075E1,-0E0,7.227699E0,2.716659E0,-0E0,2.3E2,-0E0,-0E0,-1.2025572E-2],"split_indices":[15,5,0,0,7,0,14,0,7,8,0,12,0,0,0],"split_type":[0,0,0,0,0,0,0,0,0,0,0,0,0,0,0],"sum_hessian":[2.5777357E4,9.83849E3,1.5938868E4,4.8356323E3,5.002858E3,5.701912E1,4.945839E3,1.1385374E2,4.8319854E3,4.6840596E3,1.4792584E2,4.631617E3,5.2442253E1,6.7012634E1,4.5646045E3],"tree_param":{"num_deleted":"0","num_feature":"17","num_nodes":"15","size_leaf_vector":"1"}},{"base_weights":[-5.778977E-2,-6.1630808E-2,-0E0,-0E0,-6.615574E-2,-0E0,-7.1052335E-2,-7.297119E-2,-0E0,-0E0,-7.338308E-2,-0E0,-7.378077E-2,-0E0,-5.4923475E-2],"categories":[],"categories_nodes":[],"categories_segments":[],"categories_sizes":[],"default_left":[0,0,0,0,0,0,0,0,0,0,0,0,0,0,0],"id":15,"left_children":[1,3,-1,-1,5,-1,7,9,-1,-1,11,-1,13,-1,-1],"loss_changes":[6.9023438E0,6.3331146E0,0E0,0E0,3.7375412E0,0E0,1.4867172E0,5.342102E-2,0E0,0E0,7.9476166E-1,0E0,1.882782E-1,0E0,0E0],"parents":[2147483647,0,0,1,1,4,4,6,6,7,7,10,10,12,12],"right_children":[2,4,-1,-1,6,-1,8,10,-1,-1,12,-1,14,-1,-1],"split_conditions":[2.5134103E0,-7.536368E1,-0E0,-0E0,7.89E1,-0E0,5.9274242E1,4.617738E0,-0E0,-0E0,-3.4727983E0,-0E0,7.292776E-1,-0E0,-5.4923475E-2],"split_indices":[8,14,0,0,5,0,15,9,0,0,8,0,10,0,0],"split_type":[0,0,0,0,0,0,0,0,0,0,0,0,0,0,0],"sum_hessian":[2.3139186E4,2.194464E4,1.1945448E3,1.690073E3,2.0254566E4,2.1947373E3,1.805983E4,1.730829E4,7.515412E2,2.0398192E2,1.7104307E4,5.725054E1,1.7047057E4,3.2337794E0,1.7043822E4],"tree_param":{"num_deleted":"0","num_feature":"17","num_nodes":"15","size_leaf_vector":"1"}},{"base_weights":[-1.6062263E-1,-1.6164173E-1,-0E0,-0E0,-1.6213317E-1,-1.20922945E-1,-0E0],"categories":[],"categories_nodes":[],"categories_segments":[],"categories_sizes":[],"default_left":[0,0,0,0,0,0,0],"id":16,"left_children":[1,3,-1,-1,5,-1,-1],"loss_changes":[2.9154053E0,1.3529053E0,0E0,0E0,1.0876465E0,0E0,0E0],"parents":[2147483647,0,0,1,1,4,4],"right_children":[2,4,-1,-1,6,-1,-1],"split_conditions":[3.3589413E0,5.1365347E0,-0E0,-0E0,8.367896E1,-1.20922945E-1,-0E0],"split_indices":[8,7,0,0,15,0,0],"split_type":[0,0,0,0,0,0,0],"sum_hessian":[1.9263305E4,1.9110127E4,1.5317659E2,7.510654E1,1.9035021E4,1.8955861E4,7.9159904E1],"tree_param":{"num_deleted":"0","num_feature":"17","num_nodes":"7","size_leaf_vector":"1"}},{"base_weights":[-8.867373E-2,-1.5514839E-1,-7.639757E-3,-0E0,-1.5623964E-1,8.525798E-3,-4.21994E-2,-1.570927E-1,-0E0,-0E0,2.7160602E-2,-0E0,-4.551456E-2,-0E0,-1.5758474E-1,2.9127847E-2,-0E0,-0E0,-4.7389816E-2,-0E0,-1.1721483E-1,3.157113E-2,-0E0,-5.128135E-2,-0E0,3.257725E-2,-0E0,-5.2331306E-2,-0E0,-0E0,2.474638E-2,-3.942658E-2,-0E0],"categories":[],"categories_nodes":[],"categories_segments":[],"categories_sizes":[],"default_left":[0,0,0,0,0,1,0,0,0,0,1,0,0,0,0,1,0,0,0,0,0,0,0,0,0,0,0,1,0,0,0,0,0],"id":17,"left_children":[1,3,5,-1,7,9,11,13,-1,-1,15,-1,17,-1,19,21,-1,-1,23,-1,-1,25,-1,27,-1,29,-1,31,-1,-1,-1,-1,-1],"loss_changes":[9.4330444E1,1.1629944E0,1.5445956E1,0E0,3.5546875E-1,3.53582E0,1.7739897E0,5.8950806E-1,0E0,0E0,5.5032635E-1,0E0,1.185976E0,0E0,7.901001E-2,3.5300922E-1,0E0,0E0,1.0021229E0,0E0,0E0,2.827053E-1,0E0,7.459011E-1,0E0,2.1534586E-1,0E0,4.6422577E-1,0E0,0E0,0E0,0E0,0E0],"parents":[2147483647,0,0,1,1,2,2,4,4,5,5,6,6,7,7,10,10,12,12,14,14,15,15,18,18,21,21,23,23,25,25,27,27],"right_children":[2,4,6,-1,8,10,12,14,-1,-1,16,-1,18,-1,20,22,-1,-1,24,-1,-1,26,-1,28,-1,30,-1,32,-1,-1,-1,-1,-1],"split_conditions":[2.6780932E0,6.0824165E0,8.56E1,-0E0,6.828452E0,3.69538E1,-4.5963078E1,7.11E1,-0E0,-0E0,3.038E3,-0E0,5.566852E0,-0E0,3.812017E0,3.02E2,-0E0,-0E0,1E0,-0E0,-1.1721483E-1,7.646473E0,-0E0,6.828452E0,-0E0,-6.2159695E1,-0E0,2.914E3,-0E0,-0E0,2.474638E-2,-3.942658E-2,-0E0],"split_indices":[15,16,5,0,9,16,14,5,0,0,11,0,7,0,9,12,0,0,4,0,0,14,0,9,0,13,0,11,0,0,0,0,0],"split_type":[0,0,0,0,0,0,0,0,0,0,0,0,0,0,0,0,0,0,0,0,0,0,0,0,0,0,0,0,0,0,0,0,0],"sum_hessian":[2.2297885E4,9.956236E3,1.2341648E4,1.1600954E2,9.840227E3,5.2942456E3,7.0474033E3,9.728555E3,1.1167266E2,1.6023248E3,3.691921E3,3.8558142E2,6.661822E3,4.8142944E1,9.680411E3,3.623758E3,6.816287E1,1.2835986E2,6.533462E3,1.5226817E0,9.678889E3,3.170894E3,4.5286395E2,5.6977085E3,8.3575354E2,3.1349646E3,3.5929523E1,5.6722275E3,2.5480541E1,1.0632797E1,3.1243318E3,5.645533E3,2.6694292E1],"tree_param":{"num_deleted":"0","num_feature":"17","num_nodes":"33","size_leaf_vector":"1"}},{"base_weights":[7.3407E-2,1.4086328E-1,3.801618E-2,1.4705816E-1,-0E0,-0E0,7.6266E-2,-0E0,1.4765571E-1,2.7562485E-3,-2.426543E-2,9.2921175E-2,6.7260826E-4,-0E0,1.478234E-1,-0E0,2.1451037E-2,-0E0,-2.9065644E-2,9.625183E-2,-0E0,-0E0,1.2884821E-2,1.479738E-1,-0E0,-0E0,-1.1356412E-2,2.6112212E-2,-0E0,-0E0,-3.456973E-2,-0E0,9.793448E-2,-0E0,1.55083155E-2,-0E0,1.1007039E-1,-0E0,-1.3538644E-2,2.7506124E-2,-0E0,-3.9199714E-2,-0E0,9.910003E-2,-0E0,1.6718805E-2,-0E0,-1.1521413E-2,-0E0,2.1522982E-2,-0E0,-0E0,-3.0000303E-2,-0E0,7.487211E-2,-0E0,1.3540752E-2],"categories":[],"categories_nodes":[],"categories_segments":[],"categories_sizes":[],"default_left":[0,0,0,1,0,0,1,0,0,0,0,0,0,0,1,0,0,0,0,0,0,0,1,0,0,0,1,0,0,0,1,0,0,0,0,0,0,0,0,1,0,0,0,0,0,0,0,0,0,0,0,0,0,0,0,0,0],"id":18,"left_children":[1,3,5,7,-1,9,11,-1,13,15,17,19,21,-1,23,25,27,-1,29,31,-1,-1,33,35,-1,-1,37,39,-1,-1,41,-1,43,-1,45,-1,-1,-1,47,49,-1,51,-1,53,-1,55,-1,-1,-1,-1,-1,-1,-1,-1,-1,-1,-1],"loss_changes":[7.9232605E1,8.853516E0,6.569374E1,1.8332214E0,0E0,4.0006523E0,7.117668E0,0E0,6.395874E-1,4.7579365E0,1.4207685E0,2.8685303E0,6.361819E-1,0E0,5.4681396E-1,6.576039E-1,1.8782806E0,0E0,1.6748137E0,2.6506653E0,0E0,0E0,2.6927263E-1,1.23413086E-1,0E0,0E0,2.424984E-1,6.4901257E-1,0E0,0E0,1.369699E0,0E0,1.4059753E0,0E0,1.4114434E-1,0E0,0E0,0E0,2.2397882E-1,4.504738E-1,0E0,3.9877892E-1,0E0,1.4935303E0,0E0,1.7499971E-1,0E0,0E0,0E0,0E0,0E0,0E0,0E0,0E0,0E0,0E0,0E0],"parents":[2147483647,0,0,1,1,2,2,3,3,5,5,6,6,8,8,9,9,10,10,11,11,12,12,14,14,15,15,16,16,18,18,19,19,22,22,23,23,26,26,27,27,30,30,32,32,34,34,38,38,39,39,41,41,43,43,45,45],"right_children":[2,4,6,8,-1,10,12,-1,14,16,18,20,22,-1,24,26,28,-1,30,32,-1,-1,34,36,-1,-1,38,40,-1,-1,42,-1,44,-1,46,-1,-1,-1,48,50,-1,52,-1,54,-1,56,-1,-1,-1,-1,-1,-1,-1,-1,-1,-1,-1],"split_conditions":[-1.7922585E1,6.5403533E0,8.56E1,-1.0028377E2,-0E0,1.7563684E1,4.705963E1,-0E0,6.776646E-1,8.16E1,7.0737714E-1,6.344995E0,9.01E1,-0E0,7.97495E1,5.2310667E0,1.0028753E0,-0E0,-3.4565052E1,7.8275084E-1,-0E0,-0E0,5.7082443E0,-1.09380135E2,-0E0,-0E0,-3.2634113E1,3.095E3,-0E0,-0E0,-6.9641924E0,-0E0,4.4499924E1,-0E0,2.863E3,-0E0,1.1007039E-1,-0E0,7.008103E0,1.3789474E0,-0E0,1.948E3,-0E0,8.57E1,-0E0,-1.495E1,-0E0,-1.1521413E-2,-0E0,2.1522982E-2,-0E0,-0E0,-3.0000303E-2,-0E0,7.487211E-2,-0E0,1.3540752E-2],"split_indices":[15,9,5,14,0,15,16,0,10,5,10,9,5,0,13,9,10,0,13,10,0,0,7,13,0,0,13,11,0,0,14,0,15,0,11,0,0,0,7,6,0,11,0,5,0,6,0,0,0,0,0,0,0,0,0,0,0],"split_type":[0,0,0,0,0,0,0,0,0,0,0,0,0,0,0,0,0,0,0,0,0,0,0,0,0,0,0,0,0,0,0,0,0,0,0,0,0,0,0,0,0,0,0,0,0,0,0,0,0,0,0,0,0,0,0,0,0],"sum_hessian":[5.077471E4,1.3634348E4,3.7140363E4,1.2770761E4,8.635874E2,1.7970584E4,1.916978E4,3.3613293E1,1.2737147E4,1.3169439E4,4.801145E3,1.3150111E4,6.019668E3,3.6926882E0,1.2733454E4,4.3824336E3,8.787006E3,3.1861807E2,4.482527E3,1.2442978E4,7.0713403E2,3.9665405E3,2.0531274E3,1.2728899E4,4.5553885E0,1.0836412E3,3.2987925E3,8.099312E3,6.8769415E2,4.3991763E2,4.0426091E3,2.0886511E2,1.2234112E4,7.383082E1,1.9792968E3,1.47536E0,1.2727424E4,1.8828667E2,3.1105056E3,7.97921E3,1.201019E2,3.6352786E3,4.0733054E2,1.204909E4,1.8502176E2,1.9567761E3,2.2520596E1,2.8830522E3,2.2745355E2,7.5709565E3,4.082536E2,5.8145786E1,3.5771328E3,2.8375845E2,1.1765332E4,6.1581245E1,1.8951948E3],"tree_param":{"num_deleted":"0","num_feature":"17","num_nodes":"57","size_leaf_vector":"1"}},{"base_weights":[7.358393E-3,2.0265438E-2,-0E0,-0E0,2.4369372E-2,-0E0,2.5703194E-2,2.6771879E-2,-0E0,-0E0,2.769832E-2,2.8374085E-2,-0E0,2.1626716E-2,-0E0],"categories":[],"categories_nodes":[],"categories_segments":[],"categories_sizes":[],"default_left":[0,0,0,0,0,0,0,0,0,0,0,0,0,0,0],"id":19,"left_children":[1,3,-1,-1,5,-1,7,9,-1,-1,11,13,-1,-1,-1],"loss_changes":[6.348157E0,2.084207E0,0E0,0E0,9.4620705E-1,0E0,8.467207E-1,7.222023E-1,0E0,0E0,4.9955082E-1,3.7782001E-1,0E0,0E0,0E0],"parents":[2147483647,0,0,1,1,4,4,6,6,7,7,10,10,11,11],"right_children":[2,4,-1,-1,6,-1,8,10,-1,-1,12,14,-1,-1,-1],"split_conditions":[1.6434948E1,2.168E3,-0E0,-0E0,1.0722159E1,-0E0,3.1043246E0,-7.921395E1,-0E0,-0E0,4.9E0,3.4E2,-0E0,2.1626716E-2,-0E0],"split_indices":[13,11,0,0,16,0,8,14,0,0,6,12,0,0,0],"split_type":[0,0,0,0,0,0,0,0,0,0,0,0,0,0,0],"sum_hessian":[2.6523092E4,1.7391395E4,9.131697E3,2.4100913E3,1.4981304E4,2.642704E2,1.4717033E4,1.4606038E4,1.10994965E2,1.3778746E2,1.4468251E4,1.4323062E4,1.4518938E2,1.3995345E4,3.2771686E2],"tree_param":{"num_deleted":"0","num_feature":"17","num_nodes":"15","size_leaf_vector":"1"}},{"base_weights":[-0E0,3.7796255E-3,-0E0,-0E0,1.4818194E-2,-3.8326052E-3,-0E0,-0E0,2.2311537E-2,-5.728626E-3,-0E0,2.7096722E-2,-0E0,-0E0,-7.1116127E-3,-0E0,3.100642E-2,-0E0,-8.807785E-3,-0E0,3.2539163E-2,-0E0,-1.0445334E-2,-0E0,2.5870956E-2,-0E0,-8.790495E-3],"categories":[],"categories_nodes":[],"categories_segments":[],"categories_sizes":[],"default_left":[0,0,0,0,0,0,0,0,0,0,0,0,0,0,1,0,0,0,0,0,0,0,0,0,0,0,0],"id":20,"left_children":[1,3,5,-1,7,9,-1,-1,11,13,-1,15,-1,-1,17,-1,19,-1,21,-1,23,-1,25,-1,-1,-1,-1],"loss_changes":[2.5590774E-1,1.5295085E0,1.193131E-1,0E0,2.0411043E0,1.2942743E-1,0E0,0E0,1.3822105E0,1.2167333E-1,0E0,6.711707E-1,0E0,0E0,1.3739744E-1,0E0,5.345597E-1,0E0,1.8849218E-1,0E0,6.0353947E-1,0E0,1.8848503E-1,0E0,0E0,0E0,0E0],"parents":[2147483647,0,0,1,1,2,2,4,4,5,5,8,8,9,9,11,11,14,14,16,16,18,18,20,20,22,22],"right_children":[2,4,6,-1,8,10,-1,-1,12,14,-1,16,-1,-1,18,-1,20,-1,22,-1,24,-1,26,-1,-1,-1,-1],"split_conditions":[-1.129141E0,1E0,1.950167E0,-0E0,-5.9589794E1,4.7528316E1,-0E0,-0E0,9.06E1,1.981E3,-0E0,8.43106E-1,-0E0,-0E0,5.803944E0,-0E0,-1.756842E1,-0E0,-1.495E1,-0E0,1.6E2,-0E0,-8.78288E1,-0E0,2.5870956E-2,-0E0,-8.790495E-3],"split_indices":[8,1,8,0,15,15,0,0,5,11,0,10,0,0,7,0,6,0,6,0,12,0,14,0,0,0,0],"split_type":[0,0,0,0,0,0,0,0,0,0,0,0,0,0,0,0,0,0,0,0,0,0,0,0,0,0,0],"sum_hessian":[2.5419486E4,1.611355E4,9.305936E3,9.782631E3,6.3309194E3,6.322518E3,2.983417E3,4.4430078E2,5.8866187E3,5.779415E3,5.4310315E2,5.293945E3,5.9267365E2,2.555425E2,5.5238726E3,9.7812805E2,4.315817E3,7.781513E2,4.745721E3,5.7736523E1,4.2580806E3,1.6393703E2,4.581784E3,2.593317E2,3.9987488E3,4.9510143E1,4.5322744E3],"tree_param":{"num_deleted":"0","num_feature":"17","num_nodes":"27","size_leaf_vector":"1"}},{"base_weights":[-3.1577058E-2,-4.5262102E-2,-0E0,-5.2017096E-2,-0E0,-5.5207327E-2,-0E0,-0E0,-5.6864575E-2,-0E0,-5.8270276E-2,-5.9007224E-2,-0E0,-0E0,-4.4105873E-2],"categories":[],"categories_nodes":[],"categories_segments":[],"categories_sizes":[],"default_left":[1,0,0,0,0,1,0,0,0,0,1,0,0,0,0],"id":21,"left_children":[1,3,-1,5,-1,7,-1,-1,9,-1,11,13,-1,-1,-1],"loss_changes":[6.9636765E0,2.995676E0,0E0,9.4184494E-1,0E0,1.0058594E0,0E0,0E0,6.73748E-1,0E0,4.4856644E-1,3.4371567E-1,0E0,0E0,0E0],"parents":[2147483647,0,0,1,1,3,3,5,5,8,8,10,10,11,11],"right_children":[2,4,-1,6,-1,8,-1,-1,10,-1,12,14,-1,-1,-1],"split_conditions":[1.1407189E1,9.8908496E-1,-0E0,1E0,-0E0,1.35E2,-0E0,-0E0,1.981E3,-0E0,3.3E0,-8.9314156E1,-0E0,-0E0,-4.4105873E-2],"split_indices":[13,10,0,4,0,12,0,0,11,0,6,14,0,0,0],"split_type":[0,0,0,0,0,0,0,0,0,0,0,0,0,0,0],"sum_hessian":[2.204287E4,1.320371E4,8.839159E3,1.0667035E4,2.5366755E3,9.576815E3,1.0902194E3,3.4240482E2,9.23441E3,3.2754224E2,8.906868E3,8.769924E3,1.3694461E2,9.402647E0,8.760521E3],"tree_param":{"num_deleted":"0","num_feature":"17","num_nodes":"15","size_leaf_vector":"1"}},{"base_weights":[-1.037467E-1,-1.2507154E-1,-0E0,-0E0,-1.2660149E-1,-7.975497E-3,-0E0,-0E0,-1.279209E-1,-0E0,-1.4280525E-2,-1.2920806E-1,-0E0,-1.6738389E-2,-0E0,-0E0,-9.618154E-2,-0E0,-1.927326E-2,-1.9661745E-2,-0E0,-0E0,-1.48570435E-2],"categories":[],"categories_nodes":[],"categories_segments":[],"categories_sizes":[],"default_left":[1,0,0,0,0,0,0,0,0,0,0,1,0,1,0,0,0,0,0,0,0,0,0],"id":22,"left_children":[1,3,5,-1,7,9,-1,-1,11,-1,13,15,-1,17,-1,-1,-1,-1,19,21,-1,-1,-1],"loss_changes":[2.0091583E1,1.8099213E0,3.1650752E-1,0E0,9.426575E-1,5.8474416E-1,0E0,0E0,1.7799225E0,0E0,3.2372367E-1,1.946106E-1,0E0,3.774755E-1,0E0,0E0,0E0,0E0,5.7738185E-2,5.1099896E-2,0E0,0E0,0E0],"parents":[2147483647,0,0,1,1,2,2,4,4,5,5,8,8,10,10,11,11,13,13,18,18,19,19],"right_children":[2,4,6,-1,8,10,-1,-1,12,-1,14,16,-1,18,-1,-1,-1,-1,20,22,-1,-1,-1],"split_conditions":[2.4376434E1,4.7694345E0,1.7918943E1,-0E0,5.4802694E0,8.05E1,-0E0,-0E0,6.7493978E0,-0E0,3.095E3,-1.0028377E2,-0E0,-1.5943334E1,-0E0,-0E0,-9.618154E-2,-0E0,4.9E0,1.717E3,-0E0,-0E0,-1.48570435E-2],"split_indices":[13,9,15,0,7,5,0,0,9,0,11,14,0,6,0,0,0,0,6,11,0,0,0],"split_type":[0,0,0,0,0,0,0,0,0,0,0,0,0,0,0,0,0,0,0,0,0,0,0],"sum_hessian":[1.712637E4,1.250697E4,4.619399E3,2.3078305E2,1.2276187E4,3.1756904E3,1.4437087E3,2.312706E2,1.2044916E4,5.565199E2,2.6191704E3,1.187706E4,1.6785637E2,2.5720266E3,4.7143764E1,1.4965084E1,1.1862094E4,5.825741E1,2.5137693E3,2.494335E3,1.9434244E1,6.8777113E0,2.4874573E3],"tree_param":{"num_deleted":"0","num_feature":"17","num_nodes":"23","size_leaf_vector":"1"}},{"base_weights":[-5.252093E-2,-1.3194568E-1,-7.0826607E-3,-1.328804E-1,-0E0,7.1006976E-3,-3.8392823E-2,-9.885336E-2,-0E0,-0E0,2.3252418E-2,-4.2320374E-2,-0E0,-0E0,3.4646284E-2,-0E0,-4.3993466E-2,3.5983276E-2,-0E0,-4.7333296E-2,-0E0,-0E0,3.6847785E-2,-4.8184536E-2,-0E0,-0E0,2.7920475E-2,-3.633709E-2,-0E0],"categories":[],"categories_nodes":[],"categories_segments":[],"categories_sizes":[],"default_left":[0,1,0,0,0,0,1,0,0,0,0,0,0,0,0,0,0,1,0,0,0,0,0,1,0,0,0,0,0],"id":23,"left_children":[1,3,5,7,-1,9,11,-1,-1,-1,13,15,-1,-1,17,-1,19,21,-1,23,-1,-1,25,27,-1,-1,-1,-1,-1],"loss_changes":[5.2164337E1,5.0917053E-1,1.491758E1,5.025482E-2,0E0,3.3149755E0,1.8858376E0,0E0,0E0,0E0,2.7328455E0,1.1641808E0,0E0,0E0,4.6845245E-1,0E0,9.0117073E-1,2.7410364E-1,0E0,5.843582E-1,0E0,0E0,2.5511885E-1,5.111542E-1,0E0,0E0,0E0,0E0,0E0],"parents":[2147483647,0,0,1,1,2,2,3,3,5,5,6,6,10,10,11,11,14,14,16,16,17,17,19,19,22,22,23,23],"right_children":[2,4,6,8,-1,10,12,-1,-1,-1,14,16,-1,-1,18,-1,20,22,-1,24,-1,-1,26,28,-1,-1,-1,-1,-1],"split_conditions":[-1.7451864E1,3.6462322E1,8.52E1,9.13E1,-0E0,5.3666525E0,6.83506E1,-9.885336E-2,-0E0,-0E0,3.1315346E1,7.777821E-1,-0E0,-0E0,3.3845477E0,-0E0,1E0,5.440342E0,-0E0,2.9196393E0,-0E0,-0E0,-3.3048053E0,3.038E3,-0E0,-0E0,2.7920475E-2,-3.633709E-2,-0E0],"split_indices":[15,13,5,5,0,9,16,0,0,0,16,10,0,0,14,0,4,7,0,8,0,0,8,11,0,0,0,0,0],"split_type":[0,0,0,0,0,0,0,0,0,0,0,0,0,0,0,0,0,0,0,0,0,0,0,0,0,0,0,0,0],"sum_hessian":[2.101127E4,4.7584194E3,1.625285E4,4.6953115E3,6.3108032E1,7.6411733E3,8.611677E3,4.6936377E3,1.6740636E0,2.4297266E3,5.211447E3,7.821749E3,7.899278E2,1.5767288E3,3.634718E3,1.1642243E2,7.7053267E3,3.60014E3,3.4578045E1,6.8134653E3,8.9186096E2,4.854769E1,3.5515923E3,6.763502E3,4.996379E1,1.5722806E1,3.5358694E3,6.7417974E3,2.1704426E1],"tree_param":{"num_deleted":"0","num_feature":"17","num_nodes":"29","size_leaf_vector":"1"}},{"base_weights":[4.4726633E-2,6.3125454E-2,-0E0,4.0657013E-3,8.7494776E-2,-1.5408026E-2,3.9454877E-2,5.9419163E-2,-1.2147367E-2,8.907572E-2,-0E0,-1.9684866E-2,-0E0,-0E0,4.6576366E-2,-0E0,6.1816264E-2,-0E0,-3.749227E-2,-0E0,8.94981E-2,-0E0,-2.3419702E-2,-0E0,4.8605174E-2,-0E0,6.293018E-2,-0E0,-4.087755E-2,-0E0,9.115009E-2,-0E0,-2.5467347E-2,4.9823426E-2,-0E0,-0E0,6.4396404E-2,-0E0,-4.366119E-2,-0E0,9.1574155E-2,-2.7287219E-2,-0E0,-0E0,5.086427E-2,4.8471387E-2,-0E0,-3.325902E-2,-0E0,-0E0,6.823045E-2,-2.1390524E-2,-0E0,-0E0,3.8519524E-2],"categories":[],"categories_nodes":[],"categories_segments":[],"categories_sizes":[],"default_left":[0,0,0,0,0,1,0,1,0,0,0,0,0,0,0,0,0,0,0,0,0,0,0,0,0,0,0,0,1,0,0,0,0,0,0,0,0,0,0,0,0,1,0,0,1,0,0,0,0,0,0,0,0,0,0],"id":24,"left_children":[1,3,5,7,9,11,13,15,17,19,-1,21,-1,-1,23,-1,25,-1,27,-1,29,-1,31,-1,33,-1,35,-1,37,-1,39,-1,41,43,-1,-1,45,-1,47,-1,49,51,-1,-1,53,-1,-1,-1,-1,-1,-1,-1,-1,-1,-1],"loss_changes":[3.872265E1,3.2848587E1,1.4158512E1,2.4395681E1,2.3011627E0,1.0056837E0,2.7821016E0,1.2647934E0,9.129096E0,1.2169342E0,0E0,1.1166983E0,0E0,0E0,8.358526E-1,0E0,6.272888E-1,0E0,1.4352589E0,0E0,9.210205E-1,0E0,8.639178E-1,0E0,5.808706E-1,0E0,7.801609E-1,0E0,1.160882E0,0E0,7.5842285E-1,0E0,7.3266983E-1,4.509964E-1,0E0,0E0,5.295696E-1,0E0,5.927439E-1,0E0,5.4307556E-1,6.520815E-1,0E0,0E0,3.5556126E-1,0E0,0E0,0E0,0E0,0E0,0E0,0E0,0E0,0E0,0E0],"parents":[2147483647,0,0,1,1,2,2,3,3,4,4,5,5,6,6,7,7,8,8,9,9,11,11,14,14,16,16,18,18,20,20,22,22,24,24,26,26,28,28,30,30,32,32,33,33,36,36,38,38,40,40,41,41,44,44],"right_children":[2,4,6,8,10,12,14,16,18,20,-1,22,-1,-1,24,-1,26,-1,28,-1,30,-1,32,-1,34,-1,36,-1,38,-1,40,-1,42,44,-1,-1,46,-1,48,-1,50,52,-1,-1,54,-1,-1,-1,-1,-1,-1,-1,-1,-1,-1],"split_conditions":[1.7255495E1,8.2E1,8.9E1,-4.0998695E1,6.4964314E0,-7.951767E0,-2.2640626E0,-1.5266666E1,8.781039E-1,4.5077662E0,-0E0,-4.0323185E1,-0E0,-0E0,5.0329423E0,-0E0,1.995E3,-0E0,-3.174488E1,-0E0,-1.495E1,-0E0,6.132585E-1,-0E0,2.823E3,-0E0,5.512159E0,-0E0,-1.401228E1,-0E0,-1.0028377E2,-0E0,6.5403533E0,-4.438968E1,-0E0,-0E0,2.2896643E0,-0E0,2.8488116E0,-0E0,-3.6764007E0,3.1E2,-0E0,-0E0,5.6085615E0,4.8471387E-2,-0E0,-3.325902E-2,-0E0,-0E0,6.823045E-2,-2.1390524E-2,-0E0,-0E0,3.8519524E-2],"split_indices":[15,5,5,15,9,14,8,6,10,9,0,13,0,0,9,0,11,0,13,0,6,0,10,0,11,0,7,0,6,0,14,0,9,14,0,0,14,0,14,0,8,12,0,0,7,0,0,0,0,0,0,0,0,0,0],"split_type":[0,0,0,0,0,0,0,0,0,0,0,0,0,0,0,0,0,0,0,0,0,0,0,0,0,0,0,0,0,0,0,0,0,0,0,0,0,0,0,0,0,0,0,0,0,0,0,0,0,0,0,0,0,0,0],"sum_hessian":[5.1149527E4,3.4499316E4,1.6650209E4,1.3145895E4,2.1353424E4,1.1362515E4,5.2876943E3,4.753529E3,8.392365E3,2.082886E4,5.245639E2,8.859609E3,2.5029055E3,7.193028E2,4.5683916E3,1.6743233E2,4.5860967E3,2.628112E3,5.7642534E3,6.1158325E1,2.0767701E4,1.0928401E3,7.766769E3,1.6675385E2,4.4016377E3,6.5686165E1,4.52041E3,3.4208173E2,5.4221714E3,6.9976306E2,2.0067938E4,1.4456773E2,7.622201E3,4.336057E3,6.5580505E1,9.641498E1,4.423995E3,2.825989E2,5.1395728E3,1.1162861E2,1.995631E4,7.3912827E3,2.3091881E2,7.424388E1,4.2618135E3,4.400129E3,2.3866331E1,5.110336E3,2.9236507E1,1.807674E1,1.9938232E4,7.2601523E3,1.3113E2,8.374279E1,4.178071E3],"tree_param":{"num_deleted":"0","num_feature":"17","num_nodes":"55","size_leaf_vector":"1"}},{"base_weights":[6.645531E-3,1.6765878E-2,-0E0,-0E0,1.9533392E-2,-0E0,2.1367434E-2,-0E0,2.2908624E-2,2.457793E-2,-0E0,2.5943251E-2,-0E0,-0E0,1.961364E-2],"categories":[],"categories_nodes":[],"categories_segments":[],"categories_sizes":[],"default_left":[1,0,0,0,0,0,0,0,0,0,0,0,0,0,0],"id":25,"left_children":[1,3,-1,-1,5,-1,7,-1,9,11,-1,13,-1,-1,-1],"loss_changes":[4.555875E0,1.1818986E0,0E0,0E0,7.386408E-1,0E0,9.418211E-1,0E0,6.5055466E-1,6.847267E-1,0E0,3.117981E-1,0E0,0E0,0E0],"parents":[2147483647,0,0,1,1,4,4,6,6,8,8,9,9,11,11],"right_children":[2,4,-1,-1,6,-1,8,-1,10,12,-1,14,-1,-1,-1],"split_conditions":[2.1779177E1,2.157E3,-0E0,-0E0,-4.3215176E1,-0E0,-2.838688E0,-0E0,5.4202583E1,1.6041666E0,-0E0,6.0824165E0,-0E0,-0E0,1.961364E-2],"split_indices":[13,11,0,0,13,0,8,0,15,6,0,16,0,0,0],"split_type":[0,0,0,0,0,0,0,0,0,0,0,0,0,0,0],"sum_hessian":[2.6489123E4,1.8852006E4,7.6371157E3,2.3398918E3,1.6512115E4,1.3908866E3,1.5121229E4,4.0559793E2,1.471563E4,1.362529E4,1.0903402E3,1.3061763E4,5.635273E2,3.34351E1,1.3028328E4],"tree_param":{"num_deleted":"0","num_feature":"17","num_nodes":"15","size_leaf_vector":"1"}},{"base_weights":[-0E0,5.6506917E-3,-0E0,9.6209925E-3,-0E0,-0E0,1.3198784E-2,-0E0,1.6771974E-2,2.0871049E-2,-0E0,-0E0,2.2512054E-2,-0E0,1.8002467E-2],"categories":[],"categories_nodes":[],"categories_segments":[],"categories_sizes":[],"default_left":[1,0,0,0,0,0,0,0,0,0,0,0,1,0,0],"id":26,"left_children":[1,3,-1,5,-1,-1,7,-1,9,11,-1,-1,13,-1,-1],"loss_changes":[7.455257E-1,1.2313397E0,0E0,1.1812595E0,0E0,0E0,9.863229E-1,0E0,7.346449E-1,7.367158E-1,0E0,0E0,5.145569E-1,0E0,0E0],"parents":[2147483647,0,0,1,1,3,3,6,6,8,8,9,9,12,12],"right_children":[2,4,-1,6,-1,-1,8,-1,10,12,-1,-1,14,-1,-1],"split_conditions":[3.2E2,9E1,-0E0,2.3775728E1,-0E0,-0E0,8.5130584E-1,-0E0,-5.511938E-1,-6.1865887E1,-0E0,-0E0,-1.3340909E1,-0E0,1.8002467E-2],"split_indices":[12,5,0,16,0,0,10,0,8,15,0,0,6,0,0],"split_type":[0,0,0,0,0,0,0,0,0,0,0,0,0,0,0],"sum_hessian":[2.5177852E4,2.1548348E4,3.6295027E3,1.9556688E4,1.9916604E3,3.2283762E3,1.6328312E4,3.3952417E3,1.293307E4,9.400664E3,3.5324055E3,1.19759026E2,9.280905E3,6.198888E2,8.661017E3],"tree_param":{"num_deleted":"0","num_feature":"17","num_nodes":"15","size_leaf_vector":"1"}},{"base_weights":[-1.5766487E-2,-3.263981E-2,-0E0,-0E0,-4.536397E-2,1.7888768E-3,-2.8898355E-3,-4.7917277E-2,-0E0,7.6651787E-3,-0E0,-6.1522457E-3,-0E0,-0E0,-4.8301816E-2,1.04039125E-2,-0E0,-0E0,-6.8838485E-3,-0E0,-4.891817E-2,-0E0,1.2799523E-2,-0E0,-7.7226935E-3,-4.9310796E-2,-0E0,-0E0,1.4962198E-2,-0E0,-9.052499E-3,-3.675874E-2,-0E0,1.3001924E-2,-0E0,-0E0,-7.1739987E-3],"categories":[],"categories_nodes":[],"categories_segments":[],"categories_sizes":[],"default_left":[0,0,0,0,0,1,0,0,0,1,0,0,0,0,0,0,0,0,0,0,1,0,0,0,0,1,0,0,0,0,1,0,0,0,0,0,0],"id":27,"left_children":[1,3,5,-1,7,9,11,13,-1,15,-1,17,-1,-1,19,21,-1,-1,23,-1,25,-1,27,-1,29,31,-1,-1,33,-1,35,-1,-1,-1,-1,-1,-1],"loss_changes":[6.074377E0,3.9266624E0,8.56393E-2,0E0,1.3490124E0,4.4722357E-1,1.2325577E-1,2.62228E-1,0E0,3.6083296E-1,0E0,4.4379488E-2,0E0,0E0,1.932602E-1,3.9121222E-1,0E0,0E0,5.381298E-2,0E0,1.3562965E-1,0E0,4.024092E-1,0E0,7.855031E-2,7.531738E-2,0E0,0E0,3.7128496E-1,0E0,4.7003806E-2,0E0,0E0,0E0,0E0,0E0,0E0],"parents":[2147483647,0,0,1,1,2,2,4,4,5,5,6,6,7,7,9,9,11,11,14,14,15,15,18,18,20,20,22,22,24,24,25,25,28,28,30,30],"right_children":[2,4,6,-1,8,10,12,14,-1,16,-1,18,-1,-1,20,22,-1,-1,24,-1,26,-1,28,-1,30,32,-1,-1,34,-1,36,-1,-1,-1,-1,-1,-1],"split_conditions":[0E0,8.09E1,8.7E1,-0E0,6.4773536E0,6.931658E0,1E0,4.1630707E0,-0E0,2.845E3,-0E0,4.7694345E0,-0E0,-0E0,-1.6386667E1,-3.0474343E0,-0E0,-0E0,2.1429791E0,-0E0,8.983721E0,-0E0,5.566852E0,-0E0,-3.655928E1,1.2191438E2,-0E0,-0E0,-7.571532E0,-0E0,-1.978485E1,-3.675874E-2,-0E0,1.3001924E-2,-0E0,-0E0,-7.1739987E-3],"split_indices":[15,5,5,0,9,7,1,9,0,11,0,9,0,0,6,8,0,0,15,0,14,0,7,0,14,13,0,0,14,0,6,0,0,0,0,0,0],"split_type":[0,0,0,0,0,0,0,0,0,0,0,0,0,0,0,0,0,0,0,0,0,0,0,0,0,0,0,0,0,0,0,0,0,0,0,0,0],"sum_hessian":[2.1497334E4,9.337614E3,1.215972E4,3.4637212E3,5.873893E3,7.125229E3,5.0344907E3,5.665379E3,2.0851424E2,6.2976206E3,8.276086E2,2.9642246E3,2.070266E3,6.000007E0,5.659379E3,5.929018E3,3.6860242E2,2.2362873E1,2.9418618E3,1.0602969E2,5.553349E3,2.3454848E2,5.6944697E3,7.192168E1,2.86994E3,5.492491E3,6.0857815E1,2.1247485E2,5.481995E3,3.127529E2,2.557187E3,5.4885024E3,3.988675E0,4.7477646E3,7.342303E2,1.5226496E1,2.5419607E3],"tree_param":{"num_deleted":"0","num_feature":"17","num_nodes":"37","size_leaf_vector":"1"}},{"base_weights":[-7.363871E-2,-0E0,-8.3331265E-2,-9.2796214E-2,-0E0,-9.321513E-2,-0E0,-0E0,-9.4336465E-2,-0E0,-7.0348404E-2],"categories":[],"categories_nodes":[],"categories_segments":[],"categories_sizes":[],"default_left":[0,0,0,0,0,0,0,0,0,0,0],"id":28,"left_children":[1,-1,3,5,-1,7,-1,-1,9,-1,-1],"loss_changes":[6.3292847E0,0E0,4.2152557E0,4.5199585E-1,0E0,4.2648315E-1,0E0,0E0,2.562027E-1,0E0,0E0],"parents":[2147483647,0,0,2,2,3,3,5,5,8,8],"right_children":[2,-1,4,6,-1,8,-1,-1,10,-1,-1],"split_conditions":[8.04E1,-0E0,3.4710594E1,6.828452E0,-0E0,-1.5943334E1,-0E0,-0E0,1.717E3,-0E0,-7.0348404E-2],"split_indices":[5,0,13,9,0,6,0,0,11,0,0],"split_type":[0,0,0,0,0,0,0,0,0,0,0],"sum_hessian":[1.590391E4,2.9674731E3,1.29364375E4,1.0573075E4,2.3633623E3,1.0514133E4,5.8942356E1,2.4308679E2,1.0271046E4,3.7627705E1,1.0233418E4],"tree_param":{"num_deleted":"0","num_feature":"17","num_nodes":"11","size_leaf_vector":"1"}},{"base_weights":[-4.100461E-2,-7.097764E-2,-0E0,-0E0,-8.154918E-2,1.151172E-2,-9.021042E-3,-8.2475245E-2,-0E0,-0E0,2.0621343E-2,-7.2720307E-3,-0E0,-8.5708015E-2,-0E0,2.390774E-2,-0E0,-0E0,-8.7738134E-2,-0E0,2.6684169E-2,-0E0,-8.8163935E-2,-0E0,2.8569497E-2,-0E0,-6.595267E-2,2.1887302E-2,-0E0],"categories":[],"categories_nodes":[],"categories_segments":[],"categories_sizes":[],"default_left":[0,0,0,0,0,1,1,0,0,0,0,0,0,0,0,0,0,0,1,0,0,0,0,0,1,0,0,0,0],"id":29,"left_children":[1,3,5,-1,7,9,11,13,-1,-1,15,-1,-1,17,-1,19,-1,-1,21,-1,23,-1,25,-1,27,-1,-1,-1,-1],"loss_changes":[3.168267E1,5.8618927E0,1.4097052E0,0E0,1.1530228E0,1.6622918E0,5.2344322E-2,1.0626297E0,0E0,0E0,8.5315156E-1,0E0,0E0,5.924301E-1,0E0,5.9067535E-1,0E0,0E0,4.1049957E-1,0E0,3.540764E-1,0E0,9.210205E-2,0E0,2.6198816E-1,0E0,0E0,0E0,0E0],"parents":[2147483647,0,0,1,1,2,2,4,4,5,5,6,6,7,7,10,10,13,13,15,15,18,18,20,20,22,22,24,24],"right_children":[2,4,6,-1,8,10,12,14,-1,-1,16,-1,-1,18,-1,20,-1,-1,22,-1,24,-1,26,-1,28,-1,-1,-1,-1],"split_conditions":[1.475277E1,-6.431367E1,8.95E1,-0E0,3.3589413E0,3.5678238E1,2.976E3,1E0,-0E0,-0E0,1.0131986E1,-7.2720307E-3,-0E0,2.019E3,-0E0,-3.893953E1,-0E0,-0E0,-1.978485E1,-0E0,1.7255495E1,-0E0,-3.0474343E0,-0E0,3.095E3,-0E0,-6.595267E-2,2.1887302E-2,-0E0],"split_indices":[15,14,5,0,8,16,11,4,0,0,14,0,0,11,0,13,0,0,6,0,15,0,8,0,11,0,0,0,0],"split_type":[0,0,0,0,0,0,0,0,0,0,0,0,0,0,0,0,0,0,0,0,0,0,0,0,0,0,0,0,0],"sum_hessian":[2.0345799E4,1.1880018E4,8.465781E3,2.4354875E3,9.44453E3,6.5644995E3,1.9012812E3,9.362938E3,8.159141E1,1.8488777E3,4.715622E3,1.8974073E3,3.873842E0,8.681367E3,6.8157196E2,4.540019E3,1.7560298E2,4.0248047E2,8.278887E3,4.211796E2,4.1188394E3,4.430964E1,8.234576E3,3.2162463E2,3.7972146E3,1.0599083E2,8.128586E3,3.77658E3,2.0634642E1],"tree_param":{"num_deleted":"0","num_feature":"17","num_nodes":"29","size_leaf_vector":"1"}},{"base_weights":[2.6000496E-2,8.036082E-2,8.809444E-3,-0E0,9.7822085E-2,-3.6165807E-3,4.8228987E-2,-0E0,9.9570476E-2,1.1938926E-2,-2.4144674E-2,6.2289383E-2,-0E0,-0E0,9.996608E-2,3.3886958E-2,-0E0,-3.9171997E-2,-0E0,-0E0,6.34196E-2,-0E0,1.00377195E-1,-0E0,4.2859286E-2,-0E0,-4.7495507E-2,-0E0,6.4395666E-2,1.0185437E-1,-0E0,4.5115896E-2,-0E0,-4.913416E-2,-0E0,-0E0,6.484572E-2,-0E0,7.612631E-2,3.4316752E-2,-0E0,-0E0,-3.7529375E-2,4.849449E-2,-0E0],"categories":[],"categories_nodes":[],"categories_segments":[],"categories_sizes":[],"default_left":[0,0,0,0,0,0,0,0,0,0,0,0,0,0,0,0,0,0,0,0,1,0,0,0,1,0,1,0,0,1,0,0,0,0,0,0,0,0,0,0,0,0,0,0,0],"id":30,"left_children":[1,3,5,-1,7,9,11,-1,13,15,17,19,-1,-1,21,23,-1,25,-1,-1,27,-1,29,-1,31,-1,33,-1,35,37,-1,39,-1,41,-1,-1,43,-1,-1,-1,-1,-1,-1,-1,-1],"loss_changes":[3.0113056E1,5.5074844E0,3.1617622E1,0E0,1.9687042E0,1.327884E1,5.130871E0,0E0,5.024872E-1,8.349169E0,1.1704279E1,9.223213E-1,0E0,0E0,4.5639038E-1,3.8224688E0,0E0,4.021902E0,0E0,0E0,8.4440994E-1,0E0,4.307022E-1,0E0,1.1347637E0,0E0,1.4496555E0,0E0,4.8737335E-1,4.0129852E-1,0E0,6.1438656E-1,0E0,1.451973E0,0E0,0E0,4.448471E-1,0E0,0E0,0E0,0E0,0E0,0E0,0E0,0E0],"parents":[2147483647,0,0,1,1,2,2,4,4,5,5,6,6,8,8,9,9,10,10,11,11,14,14,15,15,17,17,20,20,22,22,24,24,26,26,28,28,29,29,31,31,33,33,36,36],"right_children":[2,4,6,-1,8,10,12,-1,14,16,18,20,-1,-1,22,24,-1,26,-1,-1,28,-1,30,-1,32,-1,34,-1,36,38,-1,40,-1,42,-1,-1,44,-1,-1,-1,-1,-1,-1,-1,-1],"split_conditions":[-3.5906662E1,7.86E1,8.73E1,-0E0,-8.78288E1,8.961701E-1,3.8754128E1,-0E0,-3.4727983E0,1.172082E1,-1.58573065E1,-2.978567E0,-0E0,-0E0,2.74E2,7.97E1,-0E0,-1.5422161E1,-0E0,-0E0,1.717E3,-0E0,1.0636426E0,-0E0,3.038E3,-0E0,7.1552463E0,-0E0,-8.9314156E1,-1.978485E1,-0E0,3.9981873E0,-0E0,5.241599E0,-0E0,-0E0,3.175E3,-0E0,7.612631E-2,3.4316752E-2,-0E0,-0E0,-3.7529375E-2,4.849449E-2,-0E0],"split_indices":[15,5,5,0,14,10,15,0,8,15,14,8,0,0,12,5,0,13,0,0,11,0,10,0,11,0,7,0,14,6,0,14,0,9,0,0,11,0,0,0,0,0,0,0,0],"split_type":[0,0,0,0,0,0,0,0,0,0,0,0,0,0,0,0,0,0,0,0,0,0,0,0,0,0,0,0,0,0,0,0,0,0,0,0,0,0,0,0,0,0,0,0,0],"sum_hessian":[5.1332203E4,7.8810684E3,4.3451137E4,2.5721946E3,5.3088735E3,3.032928E4,1.3121856E4,4.8895275E1,5.2599785E3,1.2006216E4,1.8323062E4,8.467964E3,4.6538926E3,5.4864545E0,5.254492E3,7.1843E3,4.821916E3,1.3472724E4,4.8503394E3,1.3340454E2,8.33456E3,1.2372567E1,5.2421196E3,1.2870316E3,5.8972686E3,3.1011409E3,1.0371583E4,1.0127282E2,8.233286E3,5.080851E3,1.612682E2,5.704006E3,1.9326233E2,1.0173729E4,1.9785458E2,2.2884048E1,8.210402E3,3.0303179E1,5.050548E3,5.661488E3,4.251823E1,5.3168648E1,1.012056E4,8.203539E3,6.8635526E0],"tree_param":{"num_deleted":"0","num_feature":"17","num_nodes":"45","size_leaf_vector":"1"}},{"base_weights":[4.2674225E-3,1.8017167E-2,-0E0,-0E0,2.1953579E-2,2.499505E-2,-0E0,2.752945E-2,-0E0,-0E0,2.9872647E-2,-0E0,3.0901056E-2,-0E0,2.3657903E-2],"categories":[],"categories_nodes":[],"categories_segments":[],"categories_sizes":[],"default_left":[0,0,0,0,0,0,0,0,0,0,0,0,0,0,0],"id":31,"left_children":[1,3,-1,-1,5,7,-1,9,-1,-1,11,-1,13,-1,-1],"loss_changes":[3.6912088E0,1.5326891E0,0E0,0E0,9.2705727E-1,9.770551E-1,0E0,8.155236E-1,0E0,0E0,4.9807453E-1,0E0,4.3552494E-1,0E0,0E0],"parents":[2147483647,0,0,1,1,4,4,5,5,7,7,10,10,12,12],"right_children":[2,4,-1,-1,6,8,-1,10,-1,-1,12,-1,14,-1,-1],"split_conditions":[-1.9788461E0,-2.4581773E0,-0E0,-0E0,8.65E1,3.3185802E1,-0E0,7.55E1,-0E0,-0E0,-5.92397E1,-0E0,-9.338878E1,-0E0,2.3657903E-2],"split_indices":[15,8,0,0,5,13,0,5,0,0,13,0,14,0,0],"split_type":[0,0,0,0,0,0,0,0,0,0,0,0,0,0,0],"sum_hessian":[2.6565979E4,1.116207E4,1.5403909E4,1.0515546E3,1.0110516E4,8.872099E3,1.2384171E3,8.28675E3,5.853483E2,6.06484E2,7.680266E3,9.891961E1,7.581346E3,9.9482864E1,7.481864E3],"tree_param":{"num_deleted":"0","num_feature":"17","num_nodes":"15","size_leaf_vector":"1"}},{"base_weights":[1.3437016E-3,7.623239E-3,-0E0,-0E0,1.0744855E-2,1.5411809E-2,-0E0,1.9520765E-2,-0E0,-0E0,2.2515532E-2,2.6904697E-2,-0E0,2.1157628E-2,-0E0],"categories":[],"categories_nodes":[],"categories_segments":[],"categories_sizes":[],"default_left":[0,0,0,0,0,1,0,0,0,0,0,1,0,0,0],"id":32,"left_children":[1,3,-1,-1,5,7,-1,9,-1,-1,11,13,-1,-1,-1],"loss_changes":[9.865841E-1,9.4616044E-1,0E0,0E0,1.355107E0,1.3688715E0,0E0,1.1996193E0,0E0,0E0,1.2348614E0,7.755904E-1,0E0,0E0,0E0],"parents":[2147483647,0,0,1,1,4,4,5,5,7,7,10,10,11,11],"right_children":[2,4,-1,-1,6,8,-1,10,-1,-1,12,14,-1,-1,-1],"split_conditions":[-1.129141E0,-5.9589794E1,-0E0,-0E0,6.7805614E0,-6.690022E0,-0E0,-1.3340909E1,-0E0,-0E0,8.79E1,3.37E2,-0E0,2.1157628E-2,-0E0],"split_indices":[8,15,0,0,7,14,0,6,0,0,5,12,0,0,0],"split_type":[0,0,0,0,0,0,0,0,0,0,0,0,0,0,0],"sum_hessian":[2.5209129E4,1.6015747E4,9.193382E3,6.52834E2,1.5362913E4,1.2247332E4,3.1155806E3,1.0548238E4,1.6990941E3,7.0008575E2,9.848152E3,8.063533E3,1.7846189E3,7.9790986E3,8.443475E1],"tree_param":{"num_deleted":"0","num_feature":"17","num_nodes":"15","size_leaf_vector":"1"}},{"base_weights":[-1.0640911E-2,-2.0752454E-2,-0E0,-2.9610489E-2,-0E0,-0E0,-4.146607E-2,-0E0,-4.321155E-2,-4.4416606E-2,-0E0,-0E0,-4.4808447E-2,-0E0,-3.352914E-2],"categories":[],"categories_nodes":[],"categories_segments":[],"categories_sizes":[],"default_left":[0,0,0,0,0,0,1,0,0,0,0,0,1,0,0],"id":33,"left_children":[1,3,-1,5,-1,-1,7,-1,9,11,-1,-1,13,-1,-1],"loss_changes":[3.8283541E0,3.676682E0,0E0,5.864626E0,0E0,0E0,9.011965E-1,0E0,6.614475E-1,2.5065422E-1,0E0,0E0,1.4448929E-1,0E0,0E0],"parents":[2147483647,0,0,1,1,3,3,6,6,8,8,9,9,12,12],"right_children":[2,4,-1,6,-1,-1,8,-1,10,12,-1,-1,14,-1,-1],"split_conditions":[1E0,1.5037891E-1,-0E0,-6.0365868E1,-0E0,-0E0,1.966E3,-0E0,6.480748E1,-1.09380135E2,-0E0,-0E0,-1.978485E1,-0E0,-3.352914E-2],"split_indices":[1,8,0,14,0,0,11,0,15,13,0,0,6,0,0],"split_type":[0,0,0,0,0,0,0,0,0,0,0,0,0,0,0],"sum_hessian":[2.1239873E4,1.3146862E4,8.0930103E3,9.735019E3,3.4118433E3,2.2423352E3,7.4926836E3,2.5294943E2,7.2397344E3,7.091148E3,1.4858615E2,2.9987291E1,7.0611606E3,3.773823E1,7.0234224E3],"tree_param":{"num_deleted":"0","num_feature":"17","num_nodes":"15","size_leaf_vector":"1"}},{"base_weights":[-5.4352842E-2,-7.295347E-2,-0E0,-0E0,-7.7617876E-2,-0E0,-1.0758936E-2,-0E0,-7.909972E-2,-0E0,-1.3829208E-2,-0E0,-7.972554E-2,-1.6646238E-2,-0E0,-7.998614E-2,-0E0,-0E0,-1.7696604E-2,-5.9581358E-2,-0E0,-1.8334527E-2,-0E0,-0E0,-1.4096019E-2],"categories":[],"categories_nodes":[],"categories_segments":[],"categories_sizes":[],"default_left":[0,0,0,0,0,0,0,0,0,0,0,0,0,0,0,1,0,0,0,0,0,0,0,0,0],"id":34,"left_children":[1,3,5,-1,7,-1,9,-1,11,-1,13,-1,15,17,-1,19,-1,-1,21,-1,-1,23,-1,-1,-1],"loss_changes":[6.824585E0,8.2009125E-1,6.196721E-1,0E0,7.696724E-1,0E0,3.369192E-1,0E0,2.9566574E-1,0E0,4.0803903E-1,0E0,1.998291E-1,1.6294646E-1,0E0,1.1483765E-1,0E0,0E0,1.0648656E-1,0E0,0E0,1.08303666E-1,0E0,0E0,0E0],"parents":[2147483647,0,0,1,1,2,2,4,4,6,6,8,8,10,10,12,12,13,13,15,15,18,18,21,21],"right_children":[2,4,6,-1,8,-1,10,-1,12,-1,14,-1,16,18,-1,20,-1,-1,22,-1,-1,24,-1,-1,-1],"split_conditions":[1.1400713E1,7.81E1,8.62E1,-0E0,-8.9314156E1,-0E0,-2.3903496E0,-0E0,4.705274E0,-0E0,8.472463E1,-0E0,6.937139E0,-5.480354E1,-0E0,2.2295792E1,-0E0,-0E0,6.828452E0,-5.9581358E-2,-0E0,1.320015E1,-0E0,-0E0,-1.4096019E-2],"split_indices":[15,5,5,0,14,0,8,0,9,0,16,0,9,14,0,14,0,0,9,0,0,16,0,0,0],"split_type":[0,0,0,0,0,0,0,0,0,0,0,0,0,0,0,0,0,0,0,0,0,0,0,0,0],"sum_hessian":[1.5209982E4,8.924043E3,6.28594E3,1.1140784E3,7.8099644E3,2.732792E3,3.553148E3,2.3368262E2,7.5762817E3,3.5145755E2,3.2016904E3,1.0010977E2,7.476172E3,3.1245615E3,7.712881E1,7.4470605E3,2.9111702E1,4.6943325E1,3.0776182E3,7.434497E3,1.2563236E1,3.0608699E3,1.6748283E1,1.144747E1,3.0494224E3],"tree_param":{"num_deleted":"0","num_feature":"17","num_nodes":"25","size_leaf_vector":"1"}},{"base_weights":[-2.6136016E-2,-6.9263116E-2,-0E0,-7.065793E-2,-0E0,5.0443565E-3,-1.7230766E-2,-0E0,-7.132767E-2,-0E0,1.4662474E-2,-0E0,-1.9831866E-2,-0E0,-7.234029E-2,-0E0,2.0129442E-2,-2.2780033E-2,-0E0,-7.295212E-2,-0E0,-0E0,2.2133503E-2,-2.4020152E-2,-0E0,-0E0,-5.4433875E-2,-0E0,2.3770403E-2,-2.508105E-2,-0E0,1.8645985E-2,-0E0,-1.9347893E-2,-0E0],"categories":[],"categories_nodes":[],"categories_segments":[],"categories_sizes":[],"default_left":[0,1,0,0,0,0,0,0,0,0,0,0,0,0,0,0,0,1,0,0,0,0,0,0,0,0,0,0,1,0,0,0,0,0,0],"id":35,"left_children":[1,3,5,7,-1,9,11,-1,13,-1,15,-1,17,-1,19,-1,21,23,-1,25,-1,-1,27,29,-1,-1,-1,-1,31,33,-1,-1,-1,-1,-1],"loss_changes":[1.812521E1,4.3429947E-1,2.675144E0,4.3626022E-1,0E0,1.3474377E0,7.1610713E-1,0E0,4.522438E-1,0E0,7.9344285E-1,0E0,7.5866485E-1,0E0,2.6337814E-1,0E0,4.3721724E-1,3.9133143E-1,0E0,1.3539505E-1,0E0,0E0,2.6633096E-1,3.2308626E-1,0E0,0E0,0E0,0E0,2.6973724E-1,3.234501E-1,0E0,0E0,0E0,0E0,0E0],"parents":[2147483647,0,0,1,1,2,2,3,3,5,5,6,6,8,8,10,10,12,12,14,14,16,16,17,17,19,19,22,22,23,23,28,28,29,29],"right_children":[2,4,6,8,-1,10,12,-1,14,-1,16,-1,18,-1,20,-1,22,24,-1,26,-1,-1,28,30,-1,-1,-1,-1,32,34,-1,-1,-1,-1,-1],"split_conditions":[-1.1080735E1,3.434873E1,8.63E1,7.11E1,-0E0,5.3942294E0,-2.7722888E0,-0E0,5.4802694E0,-0E0,2.7836725E1,-0E0,6.274267E0,-0E0,4.016667E0,-0E0,5.5890408E0,9.000024E1,-0E0,-1.978485E1,-0E0,-0E0,-3.4113914E1,1.0042244E0,-0E0,-0E0,-5.4433875E-2,-0E0,3.17E2,2.9196393E0,-0E0,1.8645985E-2,-0E0,-1.9347893E-2,-0E0],"split_indices":[15,13,5,5,0,9,8,0,7,0,16,0,9,0,6,0,7,16,0,6,0,0,13,10,0,0,0,0,12,8,0,0,0,0,0],"split_type":[0,0,0,0,0,0,0,0,0,0,0,0,0,0,0,0,0,0,0,0,0,0,0,0,0,0,0,0,0,0,0,0,0,0,0],"sum_hessian":[1.9747883E4,5.0461694E3,1.4701714E4,4.865528E3,1.8064148E2,8.362606E3,6.339108E3,3.88398E1,4.826688E3,2.6924368E3,5.6701694E3,1.7429076E2,6.1648174E3,9.780791E1,4.7288804E3,1.5485487E3,4.1216206E3,5.698563E3,4.6625424E2,4.6693125E3,5.95676E1,1.3134392E2,3.9902766E3,5.6225127E3,7.605035E1,1.7840008E1,4.6514727E3,2.9867993E2,3.6915967E3,5.5214546E3,1.0105807E2,3.5648804E3,1.2671637E2,5.482096E3,3.9358433E1],"tree_param":{"num_deleted":"0","num_feature":"17","num_nodes":"35","size_leaf_vector":"1"}},{"base_weights":[1.7724376E-2,5.241881E-2,5.967973E-4,-0E0,7.502185E-2,-6.1480035E-3,3.8017437E-2,1.0542558E-2,-0E0,-0E0,7.629383E-2,-0E0,-1.5131058E-2,-0E0,4.6541072E-2,-0E0,1.3630116E-2,-0E0,7.691962E-2,8.095905E-3,-0E0,-0E0,-2.3303848E-2,-0E0,5.242302E-2,1.7738214E-2,-0E0,7.754362E-2,-0E0,1.0195228E-2,-0E0,-2.529315E-2,-0E0,5.4610252E-2,-0E0,1.8822828E-2,-0E0,-0E0,7.782162E-2,-0E0,1.1419382E-2,-2.8453533E-2,-0E0,-0E0,5.5061333E-2,-0E0,1.4298493E-2,-0E0,5.804724E-2,9.467939E-3,-0E0,-0E0,-2.2140723E-2,-0E0,4.2980712E-2],"categories":[],"categories_nodes":[],"categories_segments":[],"categories_sizes":[],"default_left":[0,0,0,0,1,0,1,0,0,0,1,0,0,0,0,0,1,0,0,0,0,0,1,0,0,0,0,0,0,0,0,1,0,0,0,0,0,0,0,0,0,1,0,0,0,0,0,0,0,0,0,0,0,0,0],"id":36,"left_children":[1,3,5,7,9,11,13,15,-1,-1,17,19,21,-1,23,-1,25,-1,27,29,-1,-1,31,-1,33,35,-1,37,-1,39,-1,41,-1,43,-1,45,-1,-1,47,-1,49,51,-1,-1,53,-1,-1,-1,-1,-1,-1,-1,-1,-1,-1],"loss_changes":[2.065423E1,7.898117E0,1.738332E1,5.196608E-1,1.2476959E0,4.5600615E0,4.5987053E0,3.335359E-1,0E0,0E0,6.614723E-1,3.5999513E-1,5.9642067E0,0E0,1.6675701E0,0E0,3.744313E-1,0E0,4.1799927E-1,2.0564818E-1,0E0,0E0,1.5764141E0,0E0,5.9166145E-1,1.4995253E-1,0E0,3.2948685E-1,0E0,1.2997174E-1,0E0,1.4573965E0,0E0,3.4830666E-1,0E0,5.6119323E-2,0E0,0E0,2.7614594E-1,0E0,1.2925565E-1,8.035784E-1,0E0,0E0,3.40868E-1,0E0,0E0,0E0,0E0,0E0,0E0,0E0,0E0,0E0,0E0],"parents":[2147483647,0,0,1,1,2,2,3,3,4,4,5,5,6,6,7,7,10,10,11,11,12,12,14,14,16,16,18,18,19,19,22,22,24,24,25,25,27,27,29,29,31,31,33,33,35,35,38,38,40,40,41,41,44,44],"right_children":[2,4,6,8,10,12,14,16,-1,-1,18,20,22,-1,24,-1,26,-1,28,30,-1,-1,32,-1,34,36,-1,38,-1,40,-1,42,-1,44,-1,46,-1,-1,48,-1,50,52,-1,-1,54,-1,-1,-1,-1,-1,-1,-1,-1,-1,-1],"split_conditions":[-2.2991E1,8.05E1,8.82E1,-4.739484E1,1.717E3,2.4064598E1,6.059719E0,5.5056053E1,-0E0,-0E0,-1.0028377E2,9.415614E-1,8.266599E-1,-0E0,-2.1399395E0,-0E0,4.6900673E0,-0E0,1.0712714E0,1.0131986E1,-0E0,-0E0,3.2E2,-0E0,6.949251E1,-2.5057924E0,-0E0,2.3188976E1,-0E0,8.01E1,-0E0,6.8470736E0,-0E0,1.717E3,-0E0,1.948E3,-0E0,-0E0,-3.6764007E0,-0E0,2.67E3,2.5807198E1,-0E0,-0E0,-1.9645317E0,-0E0,1.4298493E-2,-0E0,5.804724E-2,9.467939E-3,-0E0,-0E0,-2.2140723E-2,-0E0,4.2980712E-2],"split_indices":[15,5,5,15,11,16,7,16,0,0,14,10,10,0,8,0,13,0,10,14,0,0,12,0,15,14,0,16,0,5,0,7,0,11,0,11,0,0,8,0,11,16,0,0,8,0,0,0,0,0,0,0,0,0,0],"split_type":[0,0,0,0,0,0,0,0,0,0,0,0,0,0,0,0,0,0,0,0,0,0,0,0,0,0,0,0,0,0,0,0,0,0,0,0,0,0,0,0,0,0,0,0,0,0,0,0,0,0,0,0,0,0,0],"sum_hessian":[5.1327406E4,1.1785476E4,3.9541934E4,5.549828E3,6.235648E3,3.0139941E4,9.40199E3,2.8753262E3,2.6745022E3,5.1361427E1,6.184286E3,6.749641E3,2.33903E4,1.6043829E3,7.797607E3,8.298986E1,2.7923362E3,1.7590992E1,6.1666953E3,3.6922727E3,3.0573687E3,3.5881895E3,1.9802111E4,1.4261517E3,6.371455E3,2.101465E3,6.9087103E2,6.1085093E3,5.818625E1,3.6417039E3,5.0568756E1,1.9001842E4,8.002701E2,5.9283804E3,4.4307477E2,2.0880144E3,1.3450805E1,1.9988471E0,6.1065103E3,1.07499275E2,3.5342046E3,1.6437582E4,2.56426E3,1.122328E1,5.917157E3,9.930886E0,2.0780835E3,1.9372239E0,6.104573E3,3.2888438E3,2.4536084E2,6.7332947E2,1.5764252E4,6.1086475E2,5.3062925E3],"tree_param":{"num_deleted":"0","num_feature":"17","num_nodes":"55","size_leaf_vector":"1"}},{"base_weights":[3.485951E-3,1.342845E-2,-0E0,-0E0,1.545862E-2,1.7580733E-2,-0E0,-0E0,1.9238213E-2,-0E0,1.9898888E-2,2.0188868E-2,-0E0,1.5498248E-2,-0E0],"categories":[],"categories_nodes":[],"categories_segments":[],"categories_sizes":[],"default_left":[1,0,0,0,0,0,0,0,0,0,1,0,0,0,0],"id":37,"left_children":[1,3,-1,-1,5,7,-1,-1,9,-1,11,13,-1,-1,-1],"loss_changes":[3.3819926E0,6.1434627E-1,0E0,0E0,9.819293E-1,4.203596E-1,0E0,0E0,2.5462866E-1,0E0,1.4618921E-1,1.650896E-1,0E0,0E0,0E0],"parents":[2147483647,0,0,1,1,4,4,5,5,8,8,10,10,11,11],"right_children":[2,4,-1,-1,6,8,-1,-1,10,-1,12,14,-1,-1,-1],"split_conditions":[2.1394796E1,2.2560867E1,-0E0,-0E0,2.2937753E0,2.163E3,-0E0,-0E0,-2.838688E0,-0E0,2.1E1,1.6041666E0,-0E0,1.5498248E-2,-0E0],"split_indices":[13,16,0,0,8,11,0,0,8,0,13,6,0,0,0],"split_type":[0,0,0,0,0,0,0,0,0,0,0,0,0,0,0],"sum_hessian":[2.656723E4,1.8866652E4,7.700577E3,2.501052E3,1.6365601E4,1.5421733E4,9.4386725E2,1.7039191E3,1.3717814E4,3.7028043E2,1.3347534E4,1.3274182E4,7.3352615E1,1.2726677E4,5.475042E2],"tree_param":{"num_deleted":"0","num_feature":"17","num_nodes":"15","size_leaf_vector":"1"}},{"base_weights":[-0E0,-0E0,2.1765027E-3,1.2372799E-2,-0E0,-0E0,1.7575989E-2,2.1234734E-2,-0E0,-0E0,2.5123376E-2,-0E0,2.7242076E-2,-0E0,2.1474501E-2],"categories":[],"categories_nodes":[],"categories_segments":[],"categories_sizes":[],"default_left":[0,0,0,0,0,0,0,0,0,0,1,0,0,0,0],"id":38,"left_children":[1,-1,3,5,-1,-1,7,9,-1,-1,11,-1,13,-1,-1],"loss_changes":[5.4441337E-2,0E0,1.3559124E0,1.2570482E0,0E0,0E0,9.2153096E-1,9.653754E-1,0E0,0E0,6.458216E-1,0E0,5.8716536E-1,0E0,0E0],"parents":[2147483647,0,0,2,2,3,3,6,6,7,7,10,10,12,12],"right_children":[2,-1,4,6,-1,-1,8,10,-1,-1,12,-1,14,-1,-1],"split_conditions":[1E0,-0E0,1.5037891E-1,-5.9589794E1,-0E0,-0E0,9.06E1,5.200609E0,-0E0,-0E0,-5.330138E1,-0E0,-1.756842E1,-0E0,2.1474501E-2],"split_indices":[1,0,8,15,0,0,5,9,0,0,13,0,6,0,0],"split_type":[0,0,0,0,0,0,0,0,0,0,0,0,0,0,0],"sum_hessian":[2.5352492E4,1.5660276E4,9.692217E3,7.4126367E3,2.27958E3,5.78076E2,6.8345605E3,6.159068E3,6.7549274E2,7.4374084E2,5.415327E3,2.0847345E2,5.2068535E3,6.656542E1,5.140288E3],"tree_param":{"num_deleted":"0","num_feature":"17","num_nodes":"15","size_leaf_vector":"1"}},{"base_weights":[-2.1686242E-3,-9.13127E-3,-0E0,-1.598198E-2,-0E0,-1.8333754E-2,-0E0,-2.0103756E-2,-0E0,-0E0,-2.169109E-2,-2.3202017E-2,-0E0,-1.7591197E-2,-0E0],"categories":[],"categories_nodes":[],"categories_segments":[],"categories_sizes":[],"default_left":[0,0,0,1,0,0,0,0,0,0,0,0,0,0,0],"id":39,"left_children":[1,3,-1,5,-1,7,-1,9,-1,-1,11,13,-1,-1,-1],"loss_changes":[9.6216416E-1,1.5171838E0,0E0,6.774883E-1,0E0,4.4184136E-1,0E0,3.4273553E-1,0E0,0E0,4.9020243E-1,1.7130184E-1,0E0,0E0,0E0],"parents":[2147483647,0,0,1,1,3,3,5,5,7,7,10,10,11,11],"right_children":[2,4,-1,6,-1,8,-1,10,-1,-1,12,14,-1,-1,-1],"split_conditions":[6.7466846E0,9.797867E-1,-0E0,1.3789474E0,-0E0,1E0,-0E0,-1.32E1,-0E0,-0E0,3.004092E0,6.4264603E0,-0E0,-1.7591197E-2,-0E0],"split_indices":[15,10,0,6,0,4,0,6,0,0,8,9,0,0,0],"split_type":[0,0,0,0,0,0,0,0,0,0,0,0,0,0,0],"sum_hessian":[2.1021271E4,1.102653E4,9.99474E3,8.326827E3,2.6997031E3,7.9109434E3,4.1588406E2,7.369453E3,5.4149023E2,5.6450006E2,6.804953E3,6.6312964E3,1.736569E2,6.6178765E3,1.3419621E1],"tree_param":{"num_deleted":"0","num_feature":"17","num_nodes":"15","size_leaf_vector":"1"}},{"base_weights":[-3.7303437E-2,-5.1451083E-2,-0E0,-5.5831246E-2,-0E0,-0E0,-5.6077432E-2,-0E0,-5.6905877E-2,-0E0,-5.7234105E-2,-0E0,-5.792513E-2,-0E0,-4.389577E-2],"categories":[],"categories_nodes":[],"categories_segments":[],"categories_sizes":[],"default_left":[0,0,0,0,0,0,0,0,0,0,0,0,0,0,0],"id":40,"left_children":[1,3,-1,5,-1,-1,7,-1,9,-1,11,-1,13,-1,-1],"loss_changes":[7.2734966E0,2.7600918E0,0E0,1.4819717E-1,0E0,0E0,1.3207245E-1,0E0,8.2969666E-2,0E0,9.669495E-2,0E0,2.8856277E-1,0E0,0E0],"parents":[2147483647,0,0,1,1,3,3,6,6,8,8,10,10,12,12],"right_children":[2,4,-1,6,-1,-1,8,-1,10,-1,12,-1,14,-1,-1],"split_conditions":[1.980557E1,5.0998894E1,-0E0,1.717E3,-0E0,-0E0,-6.2159695E1,-0E0,-8.1051636E1,-0E0,7.8275084E-1,-0E0,5.6085615E0,-0E0,-4.389577E-2],"split_indices":[13,15,0,11,0,0,13,0,14,0,10,0,7,0,0],"split_type":[0,0,0,0,0,0,0,0,0,0,0,0,0,0,0],"sum_hessian":[1.4758586E4,9.651783E3,5.1068022E3,8.810835E3,8.4094855E2,4.5836216E1,8.764999E3,2.6459476E2,8.500404E3,9.247782E1,8.407927E3,2.132867E2,8.19464E3,2.8651312E2,7.9081265E3],"tree_param":{"num_deleted":"0","num_feature":"17","num_nodes":"15","size_leaf_vector":"1"}},{"base_weights":[-1.731649E-2,-5.6538533E-2,-0E0,-5.738214E-2,-0E0,-8.319721E-3,2.109702E-3,-0E0,-5.799523E-2,-1.5018808E-2,-0E0,1.0250223E-2,-0E0,-5.870274E-2,-0E0,-0E0,-1.7194856E-2,1.7119033E-2,-0E0,-5.9147727E-2,-0E0,-0E0,-1.7818158E-2,1.9222202E-2,-0E0,-5.9805572E-2,-0E0,-1.8322881E-2,-0E0,-0E0,2.2127083E-2,-0E0,-4.454516E-2,-0E0,-1.3892691E-2,-0E0,1.7657882E-2],"categories":[],"categories_nodes":[],"categories_segments":[],"categories_sizes":[],"default_left":[0,1,1,0,0,0,0,0,1,0,0,0,0,0,0,0,0,1,0,1,0,0,0,0,0,0,0,0,0,0,0,0,0,0,0,0,0],"id":41,"left_children":[1,3,5,7,-1,9,11,-1,13,15,-1,17,-1,19,-1,-1,21,23,-1,25,-1,-1,27,29,-1,31,-1,33,-1,-1,35,-1,-1,-1,-1,-1,-1],"loss_changes":[1.2029324E1,4.0320587E-1,6.045112E-1,2.8967285E-1,0E0,1.1048157E0,1.0100377E0,0E0,3.0425835E-1,2.3611653E-1,0E0,1.2659813E0,0E0,8.423424E-2,0E0,0E0,1.1105907E-1,5.7024574E-1,0E0,2.098999E-1,0E0,0E0,1.0740137E-1,5.66329E-1,0E0,5.076599E-2,0E0,8.1083775E-2,0E0,0E0,4.7562838E-1,0E0,0E0,0E0,0E0,0E0,0E0],"parents":[2147483647,0,0,1,1,2,2,3,3,5,5,6,6,8,8,9,9,11,11,13,13,16,16,17,17,19,19,22,22,23,23,25,25,27,27,30,30],"right_children":[2,4,6,8,-1,10,12,-1,14,16,-1,18,-1,20,-1,-1,22,24,-1,26,-1,-1,28,30,-1,32,-1,34,-1,-1,36,-1,-1,-1,-1,-1,-1],"split_conditions":[-1.6511505E1,4.016667E0,3.8278667E1,-3.0474343E0,-0E0,9.9910295E-1,-4.198056E0,-0E0,7.327231E0,6.0332394E0,-0E0,2.98E2,-0E0,-1.6963045E1,-0E0,-0E0,6.0824165E0,3.3E0,-0E0,3.6462322E1,-0E0,-0E0,3.7131886E1,7.983439E-1,-0E0,4.617738E0,-0E0,-3.786504E1,-0E0,-0E0,-1.2291232E1,-0E0,-4.454516E-2,-0E0,-1.3892691E-2,-0E0,1.7657882E-2],"split_indices":[15,6,16,8,0,10,14,0,7,7,0,12,0,15,0,0,16,6,0,13,0,0,15,10,0,9,0,14,0,0,15,0,0,0,0,0,0],"split_type":[0,0,0,0,0,0,0,0,0,0,0,0,0,0,0,0,0,0,0,0,0,0,0,0,0,0,0,0,0,0,0,0,0,0,0,0,0],"sum_hessian":[1.9509375E4,3.9619456E3,1.5547429E4,3.9162217E3,4.5723885E1,6.2176177E3,9.329812E3,3.4098488E1,3.882123E3,5.558202E3,6.594153E2,8.28458E3,1.0452316E3,3.8342703E3,4.7852962E1,9.459899E2,4.6122124E3,6.1352197E3,2.1493599E3,3.7738877E3,6.0382496E1,9.097291E1,4.5212397E3,6.0370586E3,9.816124E1,3.7106208E3,6.326679E1,4.4976816E3,2.3558125E1,7.6599786E2,5.271061E3,3.0670338E0,3.707554E3,7.0010066E0,4.4906807E3,8.680549E1,5.1842554E3],"tree_param":{"num_deleted":"0","num_feature":"17","num_nodes":"37","size_leaf_vector":"1"}},{"base_weights":[1.2260027E-2,5.325533E-2,-0E0,-0E0,5.6362107E-2,-2.18064E-2,1.6762707E-2,6.2082235E-2,-0E0,-0E0,-3.9336607E-2,3.1968623E-2,-0E0,-0E0,6.279512E-2,-4.2260803E-2,-0E0,-0E0,4.3758694E-2,-1.6947938E-2,1.1973365E-2,-0E0,6.303905E-2,-0E0,-4.485068E-2,5.5206545E-2,-0E0,-3.7633643E-2,-0E0,1.5308779E-2,-0E0,6.319949E-2,-0E0,-0E0,-4.639621E-2,6.0829293E-2,-0E0,-0E0,-4.9820036E-2,1.7835496E-2,-0E0,4.751844E-2,-0E0,-0E0,-3.6277488E-2,-0E0,4.683504E-2,-0E0,-4.1722715E-2,1.4153586E-2,-0E0],"categories":[],"categories_nodes":[],"categories_segments":[],"categories_sizes":[],"default_left":[0,0,0,0,1,0,0,0,0,0,0,1,0,0,0,0,0,0,0,0,0,0,0,0,0,0,0,1,0,0,0,0,0,0,0,1,0,0,0,0,0,0,0,0,0,0,0,0,0,0,0],"id":42,"left_children":[1,3,5,-1,7,9,11,13,-1,-1,15,17,19,-1,21,23,-1,-1,25,27,29,-1,31,-1,33,35,-1,37,-1,39,-1,41,-1,-1,43,45,-1,-1,47,49,-1,-1,-1,-1,-1,-1,-1,-1,-1,-1,-1],"loss_changes":[1.6005547E1,1.8512383E0,1.6649414E1,0E0,9.0490913E-1,9.137194E0,1.2631112E1,4.5310593E-1,0E0,0E0,1.7471619E0,9.448172E0,3.68583E0,0E0,1.7222977E-1,1.7177887E0,0E0,0E0,8.145557E0,9.718582E0,3.1864434E-1,0E0,1.05638504E-1,0E0,1.1887283E0,2.7406197E0,0E0,7.666299E0,0E0,2.9648274E-1,0E0,1.13903046E-1,0E0,0E0,8.348217E-1,1.8066597E0,0E0,0E0,3.1532917E0,1.6079879E-1,0E0,0E0,0E0,0E0,0E0,0E0,0E0,0E0,0E0,0E0,0E0],"parents":[2147483647,0,0,1,1,2,2,4,4,5,5,6,6,7,7,10,10,11,11,12,12,14,14,15,15,18,18,19,19,20,20,22,22,24,24,25,25,27,27,29,29,31,31,34,34,35,35,38,38,39,39],"right_children":[2,4,6,-1,8,10,12,14,-1,-1,16,18,20,-1,22,24,-1,-1,26,28,30,-1,32,-1,34,36,-1,38,-1,40,-1,42,-1,-1,44,46,-1,-1,48,50,-1,-1,-1,-1,-1,-1,-1,-1,-1,-1,-1],"split_conditions":[-4.0998695E1,-1.4203333E1,8.32E1,-0E0,6.9717364E0,8.781039E-1,1E0,4.3430122E1,-0E0,-0E0,7.008103E0,-3.655928E1,6.4072037E-1,-0E0,-5.330138E1,-8.9314156E1,-0E0,-0E0,1E0,9.01E1,2.783858E0,-0E0,2.8471205E0,-0E0,7.22E1,4.8270576E1,-0E0,-5.8979855E1,-0E0,6.396475E0,-0E0,-4.184927E1,-0E0,-0E0,-3.174488E1,1.927E3,-0E0,-0E0,-1.7922585E1,8.65094E1,-0E0,4.751844E-2,-0E0,-0E0,-3.6277488E-2,-0E0,4.683504E-2,-0E0,-4.1722715E-2,1.4153586E-2,-0E0],"split_indices":[15,6,5,0,13,10,1,16,0,0,7,14,8,0,13,14,0,0,0,5,8,0,8,0,5,16,0,14,0,9,0,15,0,0,13,11,0,0,15,16,0,0,0,0,0,0,0,0,0,0,0],"split_type":[0,0,0,0,0,0,0,0,0,0,0,0,0,0,0,0,0,0,0,0,0,0,0,0,0,0,0,0,0,0,0,0,0,0,0,0,0,0,0,0,0,0,0,0,0,0,0,0,0,0,0],"sum_hessian":[5.138951E4,6.6622007E3,4.472731E4,3.2445062E2,6.33775E3,1.3980901E4,3.0746408E4,5.141998E3,1.1957522E3,5.0264316E3,8.95447E3,1.9507531E4,1.1238878E4,4.1820465E1,5.1001772E3,8.495913E3,4.5855716E2,5.0009805E3,1.4506551E4,9.03214E3,2.2067385E3,9.958928E0,5.0902183E3,3.00803E2,8.195109E3,1.1117517E4,3.3890342E3,7.2586826E3,1.773457E3,2.0105709E3,1.9616771E2,5.0817285E3,8.490061E0,1.02598114E2,8.0925117E3,9.580466E3,1.537051E3,8.010087E2,6.457674E3,1.9393601E3,7.1210815E1,4.9601274E3,1.2160088E2,5.930965E2,7.499415E3,3.0795135E2,9.272515E3,7.4444E2,5.713234E3,1.9278302E3,1.1529939E1],"tree_param":{"num_deleted":"0","num_feature":"17","num_nodes":"51","size_leaf_vector":"1"}},{"base_weights":[7.3495304E-4,8.836453E-3,-0E0,1.1343693E-2,-0E0,-0E0,1.2446202E-2,1.3611627E-2,-0E0,1.4943645E-2,-0E0,1.5760705E-2,-0E0,1.2181566E-2,-0E0],"categories":[],"categories_nodes":[],"categories_segments":[],"categories_sizes":[],"default_left":[0,0,0,0,0,0,0,0,0,1,0,0,0,0,0],"id":43,"left_children":[1,3,-1,5,-1,-1,7,9,-1,11,-1,13,-1,-1,-1],"loss_changes":[1.604412E0,7.7999175E-1,0E0,4.1756487E-1,0E0,0E0,4.188254E-1,4.0851998E-1,0E0,3.5957217E-1,0E0,3.037486E-1,0E0,0E0,0E0],"parents":[2147483647,0,0,1,1,3,3,6,6,7,7,9,9,11,11],"right_children":[2,4,-1,6,-1,-1,8,10,-1,12,-1,14,-1,-1,-1],"split_conditions":[2.1394796E1,6.313297E0,-0E0,-2.838688E0,-0E0,-0E0,1.5178572E0,5.4202583E1,-0E0,7.432557E0,-0E0,1.0371013E0,-0E0,1.2181566E-2,-0E0],"split_indices":[13,9,0,8,0,0,6,15,0,7,0,10,0,0,0],"split_type":[0,0,0,0,0,0,0,0,0,0,0,0,0,0,0],"sum_hessian":[2.686501E4,1.894567E4,7.9193394E3,1.6849959E4,2.0957104E3,4.6222095E2,1.6387738E4,1.5667122E4,7.20616E2,1.4521335E4,1.145787E3,1.432049E4,2.0084464E2,1.4255936E4,6.45553E1],"tree_param":{"num_deleted":"0","num_feature":"17","num_nodes":"15","size_leaf_vector":"1"}},{"base_weights":[-0E0],"categories":[],"categories_nodes":[],"categories_segments":[],"categories_sizes":[],"default_left":[0],"id":44,"left_children":[-1],"loss_changes":[0E0],"parents":[2147483647],"right_children":[-1],"split_conditions":[-0E0],"split_indices":[0],"split_type":[0],"sum_hessian":[2.5348014E4],"tree_param":{"num_deleted":"0","num_feature":"17","num_nodes":"1","size_leaf_vector":"1"}},{"base_weights":[-0E0,-0E0,-7.708718E-3,-0E0,7.5767343E-3,-1.6773043E-2,-0E0,-0E0,1.7697724E-2,-0E0,-1.8734168E-2,1.9850949E-2,-0E0,-2.0396067E-2,-0E0,2.1481263E-2,-0E0,-0E0,-2.1986164E-2,-0E0,2.3230677E-2,-0E0,-2.3385776E-2,-0E0,1.8348709E-2,-1.924551E-2,-0E0],"categories":[],"categories_nodes":[],"categories_segments":[],"categories_sizes":[],"default_left":[0,0,0,0,0,0,0,0,0,0,0,0,0,0,0,0,0,0,0,0,0,0,0,0,0,0,0],"id":45,"left_children":[1,3,5,-1,7,9,-1,-1,11,-1,13,15,-1,17,-1,19,-1,-1,21,-1,23,-1,25,-1,-1,-1,-1],"loss_changes":[6.5203404E-1,6.5747726E-1,1.4383388E0,0E0,1.6520337E0,4.3451524E-1,0E0,0E0,4.7774744E-1,0E0,3.880756E-1,4.535215E-1,0E0,3.9056444E-1,0E0,4.7223353E-1,0E0,0E0,3.703859E-1,0E0,4.272039E-1,0E0,3.5538912E-1,0E0,0E0,0E0,0E0],"parents":[2147483647,0,0,1,1,2,2,4,4,5,5,8,8,10,10,11,11,13,13,15,15,18,18,20,20,22,22],"right_children":[2,4,6,-1,8,10,-1,-1,12,-1,14,16,-1,18,-1,20,-1,-1,22,-1,24,-1,26,-1,-1,-1,-1],"split_conditions":[8.51E1,-4.371081E1,1E0,-0E0,5.5887775E0,8.53E1,-0E0,-0E0,2.891E3,-0E0,2.4356837E0,5.0998894E1,-0E0,1.981E3,-0E0,-8.9314156E1,-0E0,-0E0,5.5890408E0,-0E0,-1.69125E1,-0E0,4.7528316E1,-0E0,1.8348709E-2,-1.924551E-2,-0E0],"split_indices":[5,15,1,0,9,5,0,0,11,0,8,15,0,11,0,14,0,0,7,0,6,0,15,0,0,0,0],"split_type":[0,0,0,0,0,0,0,0,0,0,0,0,0,0,0,0,0,0,0,0,0,0,0,0,0,0,0],"sum_hessian":[2.0836545E4,1.1664208E4,9.172337E3,2.0114515E3,9.652757E3,5.6300176E3,3.5423186E3,4.0792336E3,5.573523E3,2.36144E2,5.393874E3,5.273007E3,3.005163E2,5.2021514E3,1.917224E2,5.222945E3,5.0062218E1,1.6826057E2,5.0338906E3,1.4289087E2,5.0800537E3,1.1629004E2,4.9176006E3,7.925467E1,5.0007993E3,4.2161313E3,7.014693E2],"tree_param":{"num_deleted":"0","num_feature":"17","num_nodes":"27","size_leaf_vector":"1"}},{"base_weights":[-2.5461778E-2,-4.288539E-2,-0E0,-4.3464143E-2,-0E0,-4.368845E-2,-0E0,-4.4289768E-2,-0E0,-3.3171803E-2,-0E0],"categories":[],"categories_nodes":[],"categories_segments":[],"categories_sizes":[],"default_left":[0,0,0,1,0,1,0,1,0,0,0],"id":46,"left_children":[1,3,-1,5,-1,7,-1,9,-1,-1,-1],"loss_changes":[6.9385595E0,3.8974762E-1,0E0,1.5833473E-1,0E0,1.1595726E-1,0E0,1.423626E-1,0E0,0E0,0E0],"parents":[2147483647,0,0,1,1,3,3,5,5,7,7],"right_children":[2,4,-1,6,-1,8,-1,10,-1,-1,-1],"split_conditions":[8.122382E0,6.937139E0,-0E0,2.2295792E1,-0E0,3.095E3,-0E0,4.9E0,-0E0,-3.3171803E-2,-0E0],"split_indices":[15,9,0,14,0,11,0,6,0,0,0],"split_type":[0,0,0,0,0,0,0,0,0,0,0],"sum_hessian":[1.4431365E4,7.694125E3,6.7372397E3,7.649273E3,4.4851967E1,7.6354434E3,1.3829442E1,7.440086E3,1.9535765E2,7.3812363E3,5.8849678E1],"tree_param":{"num_deleted":"0","num_feature":"17","num_nodes":"11","size_leaf_vector":"1"}},{"base_weights":[-1.1663327E-2,-2.9397696E-2,-0E0,-3.4613766E-2,-0E0,8.639158E-3,-0E0,-0E0,-3.8324412E-2,-0E0,1.43496655E-2,-0E0,-4.0493187E-2,1.8758297E-2,-0E0,-0E0,-4.229044E-2,-0E0,2.1961844E-2,-0E0,-4.2754438E-2,-0E0,2.3496404E-2,-3.2177437E-2,-0E0,-0E0,1.8051513E-2],"categories":[],"categories_nodes":[],"categories_segments":[],"categories_sizes":[],"default_left":[1,0,0,0,0,0,0,0,0,0,0,0,0,0,0,0,0,0,0,0,0,0,0,0,0,0,0],"id":47,"left_children":[1,3,5,7,-1,9,-1,-1,11,-1,13,-1,15,17,-1,-1,19,-1,21,-1,23,-1,25,-1,-1,-1,-1],"loss_changes":[7.585704E0,2.6493397E0,4.8263758E-1,1.869297E0,0E0,6.898249E-1,0E0,0E0,1.1916914E0,0E0,6.594198E-1,0E0,9.820099E-1,6.560669E-1,0E0,0E0,3.45829E-1,0E0,2.5303078E-1,0E0,3.543167E-1,0E0,1.664629E-1,0E0,0E0,0E0,0E0],"parents":[2147483647,0,0,1,1,2,2,3,3,5,5,8,8,10,10,12,12,13,13,16,16,18,18,20,20,22,22],"right_children":[2,4,6,8,-1,10,-1,-1,12,-1,14,-1,16,18,-1,-1,20,-1,22,-1,24,-1,26,-1,-1,-1,-1],"split_conditions":[7.35587E0,1E0,8.32E1,2.07E3,-0E0,8.016105E-1,-0E0,-0E0,5.64593E0,-0E0,2.4005744E0,-0E0,-2.7430155E0,-6.1865887E1,-0E0,-0E0,7.0737714E-1,-0E0,5.6283903E0,-0E0,3.3589413E0,-0E0,9.181945E0,-3.2177437E-2,-0E0,-0E0,1.8051513E-2],"split_indices":[13,4,5,11,0,10,0,0,7,0,8,0,8,15,0,0,10,0,7,0,8,0,16,0,0,0,0],"split_type":[0,0,0,0,0,0,0,0,0,0,0,0,0,0,0,0,0,0,0,0,0,0,0,0,0,0,0],"sum_hessian":[1.9324213E4,1.0302377E4,9.021835E3,9.140918E3,1.1614585E3,4.6664614E3,4.355374E3,7.434054E2,8.397513E3,7.7266205E2,3.8937993E3,3.363288E2,8.061184E3,3.405905E3,4.8789438E2,2.7128842E2,7.7898955E3,4.7810574E1,3.3580945E3,1.7835814E1,7.77206E3,1.9345314E2,3.1646414E3,7.73521E3,3.6849743E1,3.0318195E1,3.1343232E3],"tree_param":{"num_deleted":"0","num_feature":"17","num_nodes":"27","size_leaf_vector":"1"}},{"base_weights":[1.0385257E-2,2.2854472E-2,-0E0,4.2999323E-2,-0E0,-1.0519588E-2,1.33583825E-2,-0E0,5.1011324E-2,1.521469E-2,-1.8268988E-2,-0E0,-1.6907768E-2,-0E0,1.8569078E-2,-0E0,5.730552E-2,-0E0,1.735729E-2,-3.1122677E-2,-0E0,-0E0,-1.9461049E-2,-0E0,1.9637931E-2,-0E0,5.876488E-2,-0E0,1.8267047E-2,-3.6130864E-2,-0E0,-2.1128744E-2,-0E0,2.0326288E-2,-0E0,5.9587505E-2,-0E0,-0E0,1.9098485E-2,-4.2585287E-2,-0E0,-2.2210982E-2,-0E0,2.1002036E-2,-0E0,4.4670478E-2,-0E0,-0E0,1.49045875E-2,-3.2319073E-2,-0E0,-0E0,-1.7535614E-2,-0E0,1.5959812E-2],"categories":[],"categories_nodes":[],"categories_segments":[],"categories_sizes":[],"default_left":[0,0,0,0,0,0,0,0,0,0,0,0,0,0,0,0,1,0,0,0,0,0,0,0,0,0,0,0,0,0,0,1,0,1,0,1,0,0,0,1,0,0,0,0,0,0,0,0,0,0,0,0,0,0,0],"id":48,"left_children":[1,3,5,7,9,11,13,-1,15,17,19,-1,21,-1,23,-1,25,-1,27,29,-1,-1,31,-1,33,-1,35,-1,37,39,-1,41,-1,43,-1,45,-1,-1,47,49,-1,51,-1,53,-1,-1,-1,-1,-1,-1,-1,-1,-1,-1,-1],"loss_changes":[9.579499E0,1.8131165E1,3.5108018E0,6.545971E0,4.4480157E0,2.631126E0,8.771367E-1,0E0,1.3214722E0,2.9239142E-1,4.8434157E0,0E0,1.4263949E0,0E0,1.9103074E-1,0E0,1.0054779E0,0E0,1.3388324E-1,1.766448E0,0E0,0E0,9.5602846E-1,0E0,1.5790057E-1,0E0,1.0201492E0,0E0,1.4048111E-1,1.5474234E0,0E0,6.592488E-1,0E0,1.3029289E-1,0E0,5.5890274E-1,0E0,0E0,1.4250684E-1,4.3735504E-1,0E0,7.331066E-1,0E0,1.0658336E-1,0E0,0E0,0E0,0E0,0E0,0E0,0E0,0E0,0E0,0E0,0E0],"parents":[2147483647,0,0,1,1,2,2,3,3,4,4,5,5,6,6,8,8,9,9,10,10,12,12,14,14,16,16,18,18,19,19,22,22,24,24,26,26,28,28,29,29,31,31,33,33,35,35,38,38,39,39,41,41,43,43],"right_children":[2,4,6,8,10,12,14,-1,16,18,20,-1,22,-1,24,-1,26,-1,28,30,-1,-1,32,-1,34,-1,36,-1,38,40,-1,42,-1,44,-1,46,-1,-1,48,50,-1,52,-1,54,-1,-1,-1,-1,-1,-1,-1,-1,-1,-1,-1],"split_conditions":[6.2494893E0,9.513315E-1,8.93E1,7.93E1,-5.1298462E1,2.4639067E1,6.0659213E0,-0E0,-6.694031E1,-1.4203333E1,8.62E1,-0E0,7.0737714E-1,-0E0,-1.4671429E1,-0E0,1.948E3,-0E0,5.5654E1,-6.9641924E0,-0E0,-0E0,6.5403533E0,-0E0,6.6913958E0,-0E0,6.214827E0,-0E0,3.01E2,1.3915675E0,-0E0,1.8330202E1,-0E0,2.784E3,-0E0,6.0342107E0,-0E0,-0E0,5.512159E0,6.0342107E0,-0E0,-1.495E1,-0E0,-5.388288E1,-0E0,4.4670478E-2,-0E0,-0E0,1.49045875E-2,-3.2319073E-2,-0E0,-0E0,-1.7535614E-2,-0E0,1.5959812E-2],"split_indices":[15,10,5,5,15,16,7,0,14,6,5,0,10,0,6,0,11,0,16,14,0,0,9,0,9,0,9,0,12,8,0,14,0,11,0,6,0,0,7,6,0,6,0,14,0,0,0,0,0,0,0,0,0,0,0],"split_type":[0,0,0,0,0,0,0,0,0,0,0,0,0,0,0,0,0,0,0,0,0,0,0,0,0,0,0,0,0,0,0,0,0,0,0,0,0,0,0,0,0,0,0,0,0,0,0,0,0,0,0,0,0,0,0],"sum_hessian":[5.127463E4,2.7499117E4,2.3775514E4,1.6283126E4,1.1215991E4,1.8474645E4,5.3008677E3,2.71875E3,1.3564376E4,3.0597966E3,8.156195E3,3.222565E3,1.525208E4,8.822896E2,4.418578E3,2.7873896E3,1.0776986E4,1.5527078E2,2.904526E3,6.6307935E3,1.5254014E3,4.1473605E2,1.4837344E4,1.6317627E2,4.255402E3,3.257609E2,1.0451226E4,5.5723022E1,2.848803E3,5.808653E3,8.221405E2,1.4456117E4,3.8122647E2,4.234378E3,2.1023901E1,1.0402604E4,4.862195E1,1.0827129E1,2.8379758E3,4.5302603E3,1.2783926E3,1.4246857E4,2.092598E2,4.1476895E3,8.66885E1,1.036317E4,3.943351E1,7.163369E1,2.766342E3,4.509855E3,2.0405373E1,4.9058182E2,1.3756276E4,2.0224493E1,4.127465E3],"tree_param":{"num_deleted":"0","num_feature":"17","num_nodes":"55","size_leaf_vector":"1"}},{"base_weights":[-0E0,5.242111E-3,-4.8798174E-4,-0E0,8.127938E-3,-0E0,-6.538462E-3,1.022594E-2,-0E0,-0E0,-1.1357171E-2,-0E0,1.1732774E-2,-1.3210797E-2,-0E0,-0E0,1.267804E-2,-0E0,-1.5423506E-2,-0E0,1.3078418E-2,-0E0,-1.652951E-2,1.0124864E-2,-0E0,-1.36271175E-2,-0E0],"categories":[],"categories_nodes":[],"categories_segments":[],"categories_sizes":[],"default_left":[0,0,0,0,0,0,1,0,0,0,0,0,0,0,0,0,0,0,1,0,0,0,1,0,0,0,0],"id":49,"left_children":[1,3,5,-1,7,-1,9,11,-1,-1,13,-1,15,17,-1,-1,19,-1,21,-1,23,-1,25,-1,-1,-1,-1],"loss_changes":[5.400362E-1,3.7564832E-1,4.185116E-1,0E0,4.656306E-1,0E0,6.7591083E-1,4.0951717E-1,0E0,0E0,3.4099352E-1,0E0,2.819146E-1,3.8360083E-1,0E0,0E0,1.1498499E-1,0E0,1.5186727E-1,0E0,1.3214922E-1,0E0,3.371874E-1,0E0,0E0,0E0,0E0],"parents":[2147483647,0,0,1,1,2,2,4,4,6,6,7,7,10,10,12,12,13,13,16,16,18,18,20,20,22,22],"right_children":[2,4,6,-1,8,-1,10,12,-1,-1,14,-1,16,18,-1,-1,20,-1,22,-1,24,-1,26,-1,-1,-1,-1],"split_conditions":[1.6434948E1,2.315E3,-1.886993E1,-0E0,2.2599416E0,-0E0,2.4352215E1,1.1451872E1,-0E0,-0E0,-9.196934E0,-0E0,-8.007954E1,-8.647806E1,-0E0,-0E0,-7.987457E1,-0E0,5.7082443E0,-0E0,3.065E3,-0E0,2.881E3,1.0124864E-2,-0E0,-1.36271175E-2,-0E0],"split_indices":[13,11,15,0,8,0,16,16,0,0,14,0,14,14,0,0,15,0,7,0,11,0,11,0,0,0,0],"split_type":[0,0,0,0,0,0,0,0,0,0,0,0,0,0,0,0,0,0,0,0,0,0,0,0,0,0,0],"sum_hessian":[2.688209E4,1.7757322E4,9.124768E3,5.736178E3,1.2021145E4,1.0746844E3,8.050083E3,1.1384447E4,6.3669763E2,1.3452288E3,6.704854E3,1.942298E2,1.1190217E4,6.4394277E3,2.6542624E2,1.1096114E2,1.1079256E4,5.820268E2,5.857401E3,1.0425168E2,1.0975004E4,4.3463416E2,5.422767E3,1.0701233E4,2.73771E2,5.0814253E3,3.4134158E2],"tree_param":{"num_deleted":"0","num_feature":"17","num_nodes":"27","size_leaf_vector":"1"}},{"base_weights":[7.081583E-4,7.1523795E-3,-0E0,-0E0,1.0988295E-2,1.4798529E-2,-0E0,1.6892822E-2,-0E0,-0E0,1.9096378E-2,-0E0,2.0790411E-2,-0E0,1.6734993E-2],"categories":[],"categories_nodes":[],"categories_segments":[],"categories_sizes":[],"default_left":[0,0,0,0,1,0,0,0,0,0,0,0,0,0,0],"id":50,"left_children":[1,3,-1,-1,5,7,-1,9,-1,-1,11,-1,13,-1,-1],"loss_changes":[8.2301986E-1,9.7796416E-1,0E0,0E0,8.1236553E-1,6.853733E-1,0E0,7.458534E-1,0E0,0E0,6.576915E-1,0E0,5.216708E-1,0E0,0E0],"parents":[2147483647,0,0,1,1,4,4,5,5,7,7,10,10,12,12],"right_children":[2,4,-1,-1,6,8,-1,10,-1,-1,12,-1,14,-1,-1],"split_conditions":[1E0,-4.0323185E1,-0E0,-0E0,2.8683088E1,9.19E1,-0E0,-6.075009E1,-0E0,-0E0,-1.5943334E1,-0E0,1.779954E1,-0E0,1.6734993E-2],"split_indices":[3,13,0,0,13,5,0,15,0,0,6,0,16,0,0],"split_type":[0,0,0,0,0,0,0,0,0,0,0,0,0,0,0],"sum_hessian":[2.5347127E4,1.4554217E4,1.0792911E4,1.3257455E3,1.3228472E4,1.0195288E4,3.033183E3,9.807096E3,3.8819217E2,4.789291E2,9.328167E3,2.1803989E2,9.110127E3,5.675453E2,8.542582E3],"tree_param":{"num_deleted":"0","num_feature":"17","num_nodes":"15","size_leaf_vector":"1"}},{"base_weights":[-0E0,-7.0973514E-3,-0E0,-1.4740603E-2,-0E0,2.9388336E-3,-0E0,-1.7267147E-2,-0E0,5.8880635E-3,-0E0,-1.8266724E-2,-0E0,9.016154E-3,-0E0,-0E0,-1.8926095E-2,-0E0,1.1608173E-2,-1.9223148E-2,-0E0,1.3881812E-2,-0E0,-1.4563191E-2,-0E0,1.1990387E-2,-0E0],"categories":[],"categories_nodes":[],"categories_segments":[],"categories_sizes":[],"default_left":[0,0,0,0,0,0,0,1,0,1,0,0,0,0,0,0,1,0,0,1,0,1,0,0,0,0,0],"id":51,"left_children":[1,3,5,7,-1,9,-1,11,-1,13,-1,15,-1,17,-1,-1,19,-1,21,23,-1,25,-1,-1,-1,-1,-1],"loss_changes":[5.5103767E-1,1.2791907E0,8.154391E-2,5.487952E-1,0E0,2.0901419E-1,0E0,2.0170426E-1,0E0,3.2622755E-1,0E0,1.8574667E-1,0E0,3.7383705E-1,0E0,0E0,8.440304E-2,0E0,3.8027602E-1,9.255719E-2,0E0,4.272864E-1,0E0,0E0,0E0,0E0,0E0],"parents":[2147483647,0,0,1,1,2,2,3,3,5,5,7,7,9,9,11,11,13,13,16,16,18,18,19,19,21,21],"right_children":[2,4,6,8,-1,10,-1,12,-1,14,-1,16,-1,18,-1,-1,20,-1,22,24,-1,26,-1,-1,-1,-1,-1],"split_conditions":[4.8366678E-1,9.781661E-1,-1.5413272E1,1E0,-0E0,8.89E1,-0E0,1.6041666E0,-0E0,6.9214E0,-0E0,-1.09380135E2,-0E0,-3.0474343E0,-0E0,-0E0,8.686907E1,-0E0,1.0223835E0,7.646473E0,-0E0,2.927E3,-0E0,-1.4563191E-2,-0E0,1.1990387E-2,-0E0],"split_indices":[15,10,14,4,0,5,0,6,0,7,0,13,0,8,0,0,13,0,10,14,0,11,0,0,0,0,0],"split_type":[0,0,0,0,0,0,0,0,0,0,0,0,0,0,0,0,0,0,0,0,0,0,0,0,0,0,0],"sum_hessian":[2.0887354E4,9.139105E3,1.1748247E4,6.6229805E3,2.516125E3,7.6413384E3,4.106909E3,6.1789946E3,4.4398593E2,6.580677E3,1.0606614E3,5.934123E3,2.4487163E2,5.787201E3,7.934755E2,1.0965115E1,5.9231577E3,2.3579825E2,5.5514033E3,5.914713E3,8.444964E0,5.313814E3,2.3758942E2,5.875213E3,3.950004E1,5.1169707E3,1.9684306E2],"tree_param":{"num_deleted":"0","num_feature":"17","num_nodes":"27","size_leaf_vector":"1"}},{"base_weights":[-2.1625487E-2,-0E0,-2.89358E-2,-3.151345E-2,-0E0,-0E0,-3.3253197E-2,-3.6265336E-2,-0E0,-3.716741E-2,-0E0,-3.770877E-2,-0E0,-0E0,-2.830801E-2],"categories":[],"categories_nodes":[],"categories_segments":[],"categories_sizes":[],"default_left":[1,0,0,0,0,0,1,0,0,0,0,0,0,0,0],"id":52,"left_children":[1,-1,3,5,-1,-1,7,9,-1,11,-1,13,-1,-1,-1],"loss_changes":[4.1979475E0,0E0,1.0689707E0,8.9139557E-1,0E0,0E0,9.209719E-1,3.9137363E-1,0E0,2.1147442E-1,0E0,1.7098522E-1,0E0,0E0,0E0],"parents":[2147483647,0,0,2,2,3,3,6,6,7,7,9,9,11,11],"right_children":[2,-1,4,6,-1,-1,8,10,-1,12,-1,14,-1,-1,-1],"split_conditions":[-6.642701E1,-0E0,1E0,5.64593E0,-0E0,-0E0,4.171859E1,6.698791E1,-0E0,3.1043246E0,-0E0,-8.1874985E1,-0E0,-0E0,-2.830801E-2],"split_indices":[14,0,4,7,0,0,13,15,0,8,0,13,0,0,0],"split_type":[0,0,0,0,0,0,0,0,0,0,0,0,0,0,0],"sum_hessian":[1.4177806E4,2.0397168E3,1.2138088E4,1.1027576E4,1.1105126E3,5.0101077E2,1.0526565E4,9.264193E3,1.2623718E3,9.016946E3,2.472467E2,8.857311E3,1.5963602E2,8.073476E1,8.776575E3],"tree_param":{"num_deleted":"0","num_feature":"17","num_nodes":"15","size_leaf_vector":"1"}},{"base_weights":[-5.0683045E-3,-2.1217981E-2,-0E0,-2.959557E-2,-0E0,1.9351382E-2,-0E0,-0E0,-3.856773E-2,2.4059149E-2,-0E0,-3.9473474E-2,-0E0,2.5402999E-2,-0E0,-4.026949E-2,-0E0,2.6531106E-2,-0E0,-4.09411E-2,-0E0,2.6991503E-2,-0E0,-0E0,-3.1138958E-2,-0E0,2.0414233E-2],"categories":[],"categories_nodes":[],"categories_segments":[],"categories_sizes":[],"default_left":[0,0,0,0,0,0,0,0,0,1,0,0,0,0,0,0,0,0,0,0,0,0,0,0,0,0,0],"id":53,"left_children":[1,3,5,7,-1,9,-1,-1,11,13,-1,15,-1,17,-1,19,-1,21,-1,23,-1,25,-1,-1,-1,-1,-1],"loss_changes":[5.4850783E0,3.294322E0,2.856389E0,4.273161E0,0E0,1.3334632E0,0E0,0E0,5.407629E-1,4.38972E-1,0E0,5.015564E-1,0E0,3.7774372E-1,0E0,3.7393856E-1,0E0,1.4205313E-1,0E0,2.9283237E-1,0E0,1.20183945E-1,0E0,0E0,0E0,0E0,0E0],"parents":[2147483647,0,0,1,1,2,2,3,3,5,5,8,8,9,9,11,11,13,13,15,15,17,17,19,19,21,21],"right_children":[2,4,6,8,-1,10,-1,-1,12,14,-1,16,-1,18,-1,20,-1,22,-1,24,-1,26,-1,-1,-1,-1,-1],"split_conditions":[1.7563684E1,9.732255E-1,8.95E1,7.98E1,-0E0,4.942159E0,-0E0,-0E0,3.3589413E0,4.016667E0,-0E0,6.0342107E0,-0E0,3.038E3,-0E0,1.7255495E1,-0E0,1.0801374E0,-0E0,-1.5266666E1,-0E0,-6.2159695E1,-0E0,-0E0,-3.1138958E-2,-0E0,2.0414233E-2],"split_indices":[15,10,5,5,0,14,0,0,8,6,0,6,0,11,0,15,0,10,0,6,0,13,0,0,0,0,0],"split_type":[0,0,0,0,0,0,0,0,0,0,0,0,0,0,0,0,0,0,0,0,0,0,0,0,0,0,0],"sum_hessian":[1.9151545E4,1.1578867E4,7.5726777E3,8.837602E3,2.7412656E3,5.8275225E3,1.745155E3,1.5009421E3,7.336659E3,5.4381533E3,3.893694E2,7.269222E3,6.743673E1,5.3728247E3,6.5328415E1,7.223504E3,4.5718613E1,5.3124443E3,6.038075E1,7.1529683E3,7.053537E1,5.2668545E3,4.5589752E1,2.2668471E2,6.9262837E3,7.4972115E1,5.1918823E3],"tree_param":{"num_deleted":"0","num_feature":"17","num_nodes":"27","size_leaf_vector":"1"}},{"base_weights":[8.09493E-3,-0E0,2.095722E-2,2.8610284E-2,-8.5733235E-3,-0E0,2.486439E-2,2.9784808E-2,-0E0,-0E0,-2.4024598E-2,3.3218756E-2,-0E0,-0E0,3.0704597E-2,3.7268081E-3,-0E0,-0E0,-2.9796109E-2,-0E0,3.640086E-2,3.131743E-2,-0E0,5.3259213E-3,-0E0,-4.006482E-2,-0E0,3.835775E-2,-0E0,3.2033376E-2,-0E0,6.613227E-3,-0E0,-4.427128E-2,-0E0,-0E0,3.9535094E-2,-0E0,2.4204561E-2,5.5692266E-3,-0E0,-0E0,-3.509969E-2,-0E0,3.0374277E-2],"categories":[],"categories_nodes":[],"categories_segments":[],"categories_sizes":[],"default_left":[0,0,0,1,0,0,0,1,0,0,0,1,0,0,0,0,0,0,1,0,0,0,0,1,0,0,0,0,0,0,0,0,0,0,0,0,1,0,0,0,0,0,0,0,0],"id":54,"left_children":[1,3,5,7,9,-1,11,13,-1,15,17,19,-1,-1,21,23,-1,-1,25,-1,27,29,-1,31,-1,33,-1,35,-1,37,-1,39,-1,41,-1,-1,43,-1,-1,-1,-1,-1,-1,-1,-1],"loss_changes":[6.628059E0,7.2092733E0,2.8430166E0,3.8158512E-1,6.857685E0,0E0,2.1845722E0,2.7975082E-1,0E0,1.3326415E-1,3.2980633E0,1.8248291E0,0E0,0E0,2.1049929E-1,1.2353769E-1,0E0,0E0,2.9993439E0,0E0,1.2649117E0,2.0637655E-1,0E0,1.209974E-1,0E0,2.146265E0,0E0,7.9483604E-1,0E0,1.960063E-1,0E0,1.0468823E-1,0E0,1.9786282E0,0E0,0E0,9.0525246E-1,0E0,0E0,0E0,0E0,0E0,0E0,0E0,0E0],"parents":[2147483647,0,0,1,1,2,2,3,3,4,4,6,6,7,7,9,9,10,10,11,11,14,14,15,15,18,18,20,20,21,21,23,23,25,25,27,27,29,29,31,31,33,33,36,36],"right_children":[2,4,6,8,10,-1,12,14,-1,16,18,20,-1,-1,22,24,-1,-1,26,-1,28,30,-1,32,-1,34,-1,36,-1,38,-1,40,-1,42,-1,-1,44,-1,-1,-1,-1,-1,-1,-1,-1],"split_conditions":[8.56E1,-4.9233E1,-2.3903496E0,7.2554393E0,5.6706786E0,-0E0,1E0,-1.69125E1,-0E0,1.0416949E1,-3.0046392E1,-4.7655804E1,-0E0,-0E0,3.9981873E0,1E0,-0E0,-0E0,2.365981E1,-0E0,6.698791E1,1.0954396E0,-0E0,4.2349876E1,-0E0,2.1587822E0,-0E0,8.016105E-1,-0E0,2.53E2,-0E0,9.6137166E-1,-0E0,1.72E2,-0E0,-0E0,-7.203625E1,-0E0,2.4204561E-2,5.5692266E-3,-0E0,-0E0,-3.509969E-2,-0E0,3.0374277E-2],"split_indices":[5,15,8,7,9,0,1,6,0,15,13,14,0,0,14,4,0,0,13,0,15,10,0,13,0,8,0,10,0,12,0,10,0,12,0,0,13,0,0,0,0,0,0,0,0],"split_type":[0,0,0,0,0,0,0,0,0,0,0,0,0,0,0,0,0,0,0,0,0,0,0,0,0,0,0,0,0,0,0,0,0,0,0,0,0,0,0,0,0,0,0,0,0],"sum_hessian":[5.1291402E4,3.0079465E4,2.1211938E4,4.553449E3,2.5526016E4,2.0653943E3,1.9146545E4,4.4923677E3,6.108147E1,1.1964966E4,1.356105E4,1.1915116E4,7.231428E3,7.462102E1,4.4177466E3,7.7947E3,4.1702656E3,1.659755E3,1.1901295E4,9.159172E2,1.0999199E4,4.391403E3,2.6343721E1,7.253163E3,5.4153687E2,7.6464478E3,4.254847E3,1.0586259E4,4.1293973E2,4.3188516E3,7.255135E1,6.8382446E3,4.1491873E2,7.031642E3,6.1480597E2,2.1822043E2,1.0368039E4,6.7640796E0,4.3120874E3,6.8029297E3,3.531486E1,1.731483E2,6.8584937E3,2.2466339E2,1.0143375E4],"tree_param":{"num_deleted":"0","num_feature":"17","num_nodes":"45","size_leaf_vector":"1"}},{"base_weights":[-0E0,5.003668E-3,-0E0,-0E0,8.162731E-3,-6.2536066E-3,-0E0,9.323057E-3,-0E0,-0E0,-1.0500507E-2,-0E0,1.0115013E-2,-1.17178075E-2,-0E0,-0E0,1.07883485E-2,-1.2321855E-2,-0E0,1.1411035E-2,-0E0,-0E0,-1.2902185E-2,8.956648E-3,-0E0,-0E0,-1.01264855E-2],"categories":[],"categories_nodes":[],"categories_segments":[],"categories_sizes":[],"default_left":[0,0,0,0,1,1,0,0,0,0,0,0,0,0,0,0,0,0,0,1,0,0,0,0,0,0,0],"id":55,"left_children":[1,3,5,-1,7,9,-1,11,-1,-1,13,-1,15,17,-1,-1,19,21,-1,23,-1,-1,25,-1,-1,-1,-1],"loss_changes":[2.0805445E-1,2.2502264E-1,4.58474E-1,0E0,1.2576097E-1,7.140477E-1,0E0,8.8425875E-2,0E0,0E0,2.747662E-1,0E0,8.781654E-2,1.3067865E-1,0E0,0E0,8.556527E-2,1.2525082E-1,0E0,8.937943E-2,0E0,0E0,9.1335654E-2,0E0,0E0,0E0,0E0],"parents":[2147483647,0,0,1,1,2,2,4,4,5,5,7,7,10,10,12,12,13,13,16,16,17,17,19,19,22,22],"right_children":[2,4,6,-1,8,10,-1,12,-1,-1,14,-1,16,18,-1,-1,20,22,-1,24,-1,-1,26,-1,-1,-1,-1],"split_conditions":[-1.9873219E1,5.113908E1,8.55E1,-0E0,3.5125E1,1.779954E1,-0E0,-7.987457E1,-0E0,-0E0,1.16649475E1,-0E0,-3.6054604E1,7.327231E0,-0E0,-0E0,3.1043246E0,-4.911447E1,-0E0,4.9E0,-0E0,-0E0,-8.647806E1,8.956648E-3,-0E0,-0E0,-1.01264855E-2],"split_indices":[15,16,5,0,13,16,0,15,0,0,14,0,13,7,0,0,8,13,0,6,0,0,14,0,0,0,0],"split_type":[0,0,0,0,0,0,0,0,0,0,0,0,0,0,0,0,0,0,0,0,0,0,0,0,0,0,0],"sum_hessian":[2.6903002E4,6.5098096E3,2.0393191E4,1.8102687E3,4.699541E3,9.923227E3,1.0469965E4,4.6292104E3,7.033059E1,1.0893109E3,8.833916E3,1.0310243E2,4.526108E3,8.740352E3,9.3564285E1,1.0531356E1,4.5155767E3,8.592938E3,1.4741331E2,4.5022217E3,1.3354773E1,1.6151086E2,8.431428E3,4.4734897E3,2.8731916E1,5.53333E2,7.8780947E3],"tree_param":{"num_deleted":"0","num_feature":"17","num_nodes":"27","size_leaf_vector":"1"}},{"base_weights":[-0E0,1.733091E-3,-0E0,-0E0,5.5161966E-3,8.963965E-3,-0E0,-0E0,1.1830752E-2,-0E0,1.3559175E-2,-0E0,1.509427E-2,1.3582287E-2,-0E0],"categories":[],"categories_nodes":[],"categories_segments":[],"categories_sizes":[],"default_left":[1,0,0,0,0,0,0,0,0,0,0,0,0,0,0],"id":56,"left_children":[1,3,-1,-1,5,7,-1,-1,9,-1,11,-1,13,-1,-1],"loss_changes":[6.104106E-2,5.22865E-1,0E0,0E0,8.651912E-1,6.953374E-1,0E0,0E0,5.400388E-1,0E0,6.049125E-1,0E0,2.8534222E-1,0E0,0E0],"parents":[2147483647,0,0,1,1,4,4,5,5,8,8,10,10,12,12],"right_children":[2,4,-1,-1,6,8,-1,-1,10,-1,12,-1,14,-1,-1],"split_conditions":[2.4712566E1,-5.9589794E1,-0E0,-0E0,9.09E1,2.3775728E1,-0E0,-0E0,-2.6696272E0,-0E0,1.35E2,-0E0,-5.511938E-1,1.3582287E-2,-0E0],"split_indices":[13,15,0,0,5,16,0,0,8,0,12,0,8,0,0],"split_type":[0,0,0,0,0,0,0,0,0,0,0,0,0,0,0],"sum_hessian":[2.5424604E4,1.8522432E4,6.902173E3,1.1331105E3,1.738932E4,1.6234043E4,1.1552776E3,2.7131804E3,1.3520862E4,7.1970026E2,1.2801162E4,1.6388193E2,1.263728E4,8.916403E3,3.7208765E3],"tree_param":{"num_deleted":"0","num_feature":"17","num_nodes":"15","size_leaf_vector":"1"}},{"base_weights":[-0E0,-0E0,-2.737129E-3,-0E0,3.8590585E-3,-0E0,-5.8064437E-3,-0E0,8.464869E-3,-0E0,-7.6370686E-3,1.1719048E-2,-0E0,-9.349037E-3,-0E0,-0E0,1.3499466E-2,-1.0318125E-2,-0E0,1.5581249E-2,-0E0,-1.0790785E-2,-0E0,1.320782E-2,-0E0,-8.303612E-3,-0E0],"categories":[],"categories_nodes":[],"categories_segments":[],"categories_sizes":[],"default_left":[0,0,0,0,0,0,1,0,1,0,0,1,0,0,0,0,1,1,0,0,0,1,0,0,0,0,0],"id":57,"left_children":[1,3,5,-1,7,-1,9,-1,11,-1,13,15,-1,17,-1,-1,19,21,-1,23,-1,25,-1,-1,-1,-1,-1],"loss_changes":[7.91028E-2,1.84264E-1,1.583542E-1,0E0,5.414447E-1,0E0,1.5749653E-1,0E0,4.8769045E-1,0E0,1.7302087E-1,3.7106442E-1,0E0,1.0553527E-1,0E0,0E0,4.3571115E-1,6.0623586E-2,0E0,4.3293595E-1,0E0,4.8803747E-2,0E0,0E0,0E0,0E0,0E0],"parents":[2147483647,0,0,1,1,2,2,4,4,6,6,8,8,10,10,11,11,13,13,16,16,17,17,19,19,21,21],"right_children":[2,4,6,-1,8,-1,10,-1,12,-1,14,16,-1,18,-1,-1,20,22,-1,24,-1,26,-1,-1,-1,-1,-1],"split_conditions":[8.53E1,-5.0256954E1,-1.7000984E0,-0E0,5.287059E0,-0E0,5.6948066E0,-0E0,3.9462322E1,-0E0,2.4356837E0,5.440342E0,-0E0,1.708E0,-0E0,-0E0,2.914E3,1.000162E2,-0E0,-7.571532E0,-0E0,3.46E2,-0E0,1.320782E-2,-0E0,-8.303612E-3,-0E0],"split_indices":[5,15,8,0,9,0,7,0,13,0,8,7,0,6,0,0,11,16,0,14,0,12,0,0,0,0,0],"split_type":[0,0,0,0,0,0,0,0,0,0,0,0,0,0,0,0,0,0,0,0,0,0,0,0,0,0,0],"sum_hessian":[2.0844277E4,1.2085973E4,8.758304E3,1.5130681E3,1.0572904E4,3.515367E3,5.242937E3,2.2451213E3,8.327783E3,2.714902E2,4.971447E3,7.0350806E3,1.2927024E3,4.698056E3,2.733908E2,1.4066344E2,6.894417E3,4.526017E3,1.7203918E2,6.520996E3,3.7342123E2,4.50459E3,2.142708E1,5.976855E3,5.441412E2,4.4797095E3,2.4880283E1],"tree_param":{"num_deleted":"0","num_feature":"17","num_nodes":"27","size_leaf_vector":"1"}},{"base_weights":[-8.594338E-3,-0E0,-1.6181268E-2,-2.672593E-2,-0E0,-2.8784722E-2,-0E0,-0E0,-2.997041E-2,-0E0,-3.102805E-2,-3.1591155E-2,-0E0,-0E0,-2.4121923E-2],"categories":[],"categories_nodes":[],"categories_segments":[],"categories_sizes":[],"default_left":[0,0,0,0,0,0,0,0,0,0,0,0,0,0,0],"id":58,"left_children":[1,-1,3,5,-1,7,-1,-1,9,-1,11,13,-1,-1,-1],"loss_changes":[1.9617802E0,0E0,2.2946584E0,6.7373705E-1,0E0,3.7050676E-1,0E0,0E0,3.797679E-1,0E0,2.2484255E-1,1.9978714E-1,0E0,0E0,0E0],"parents":[2147483647,0,0,2,2,3,3,5,5,8,8,10,10,11,11],"right_children":[2,-1,4,6,-1,8,-1,-1,10,-1,12,14,-1,-1,-1],"split_conditions":[8.16E1,-0E0,1.7563684E1,1.0267445E0,-0E0,-1.5591666E1,-0E0,-0E0,6.0824165E0,-0E0,6.517916E0,-8.9314156E1,-0E0,-0E0,-2.4121923E-2],"split_indices":[5,0,15,10,0,6,0,0,16,0,9,14,0,0,0],"split_type":[0,0,0,0,0,0,0,0,0,0,0,0,0,0,0],"sum_hessian":[1.3915932E4,3.7901514E3,1.012578E4,5.7841177E3,4.3416626E3,5.5511436E3,2.3297423E2,1.5767143E2,5.393472E3,8.7590256E1,5.305882E3,5.280106E3,2.5776218E1,1.7430116E2,5.1058047E3],"tree_param":{"num_deleted":"0","num_feature":"17","num_nodes":"15","size_leaf_vector":"1"}},{"base_weights":[-7.86861E-3,-3.8135078E-2,-0E0,-3.930021E-2,-0E0,-0E0,-3.970477E-2,-0E0,-4.0099367E-2,-0E0,-3.0025447E-2],"categories":[],"categories_nodes":[],"categories_segments":[],"categories_sizes":[],"default_left":[0,1,0,0,0,0,0,0,0,0,0],"id":59,"left_children":[1,3,-1,5,-1,-1,7,-1,9,-1,-1],"loss_changes":[5.375909E0,3.6220932E-1,0E0,1.2902212E-1,0E0,0E0,1.23104095E-1,0E0,7.531881E-2,0E0,0E0],"parents":[2147483647,0,0,1,1,3,3,6,6,8,8],"right_children":[2,4,-1,6,-1,-1,8,-1,10,-1,-1],"split_conditions":[-2.4160816E1,4.016667E0,-0E0,-5.7121098E1,-0E0,-0E0,-1.978485E1,-0E0,5.301286E0,-0E0,-3.0025447E-2],"split_indices":[15,6,0,13,0,0,6,0,7,0,0],"split_type":[0,0,0,0,0,0,0,0,0,0,0],"sum_hessian":[1.907267E4,2.7850732E3,1.6287596E4,2.7517405E3,3.3332767E1,1.044545E1,2.7412952E3,1.238134E1,2.7289138E3,1.5372733E1,2.713541E3],"tree_param":{"num_deleted":"0","num_feature":"17","num_nodes":"11","size_leaf_vector":"1"}},{"base_weights":[7.1535227E-3,-0E0,1.6498428E-2,-6.046464E-3,-0E0,-0E0,2.5074555E-2,-1.147687E-2,-0E0,6.8809525E-3,-0E0,-0E0,2.762596E-2,-1.5874865E-2,-0E0,-0E0,9.469306E-3,2.83633E-2,-0E0,-0E0,-2.1926906E-2,-0E0,1.2048754E-2,-0E0,2.905427E-2,-2.666869E-2,-0E0,2.1940969E-2,-0E0,3.1101653E-2,-0E0,-0E0,-2.2035608E-2,1.8180434E-2,-0E0,-0E0,2.3397418E-2],"categories":[],"categories_nodes":[],"categories_segments":[],"categories_sizes":[],"default_left":[0,0,0,0,0,0,0,0,0,1,0,0,0,0,0,0,1,0,0,0,0,0,0,0,0,0,0,0,0,0,0,0,0,0,0,0,0],"id":60,"left_children":[1,3,5,7,9,-1,11,13,-1,15,-1,-1,17,19,-1,-1,21,23,-1,-1,25,-1,27,-1,29,31,-1,33,-1,35,-1,-1,-1,-1,-1,-1,-1],"loss_changes":[5.1691666E0,5.8264625E-1,3.3172283E0,1.3785337E0,4.3004248E-1,0E0,1.56991E0,1.4899738E0,0E0,3.699251E-1,0E0,0E0,5.421305E-1,1.84343E0,0E0,0E0,3.4234005E-1,4.3640423E-1,0E0,0E0,1.7551446E0,0E0,1.5015312E0,0E0,6.007433E-1,1.0569944E0,0E0,5.669949E-1,0E0,2.3132038E-1,0E0,0E0,0E0,0E0,0E0,0E0,0E0],"parents":[2147483647,0,0,1,1,2,2,3,3,4,4,6,6,7,7,9,9,12,12,13,13,16,16,17,17,20,20,22,22,24,24,25,25,27,27,29,29],"right_children":[2,4,6,8,10,-1,12,14,-1,16,-1,-1,18,20,-1,-1,22,24,-1,-1,26,-1,28,-1,30,32,-1,34,-1,36,-1,-1,-1,-1,-1,-1,-1],"split_conditions":[-1.5501338E0,1E0,8.33E1,9.07E1,9.4285023E-1,-0E0,5.7363334E0,8.048296E1,-0E0,1.42E2,-0E0,-0E0,3.2082546E0,8.56231E-1,-0E0,-0E0,-7.536368E1,5.0329423E0,-0E0,-0E0,-6.0994253E0,-0E0,1E0,-0E0,1E0,-3.9614056E1,-0E0,2.976E3,-0E0,-8.78288E1,-0E0,-0E0,-2.2035608E-2,1.8180434E-2,-0E0,-0E0,2.3397418E-2],"split_indices":[8,3,5,5,10,0,7,16,0,12,0,0,8,10,0,0,14,9,0,0,14,0,1,0,4,13,0,11,0,14,0,0,0,0,0,0,0],"split_type":[0,0,0,0,0,0,0,0,0,0,0,0,0,0,0,0,0,0,0,0,0,0,0,0,0,0,0,0,0,0,0,0,0,0,0,0,0],"sum_hessian":[5.1278215E4,2.4109262E4,2.7168953E4,1.4136659E4,9.972604E3,1.1151446E4,1.6017507E4,1.3088998E4,1.0476611E3,7.282511E3,2.690092E3,1.0821116E3,1.49353955E4,1.1894267E4,1.1947307E3,1.6122179E2,7.1212896E3,1.4750472E4,1.8492325E2,2.6821638E3,9.212104E3,1.052839E3,6.0684507E3,2.608797E2,1.4489592E4,8.1120024E3,1.1001008E3,3.6917373E3,2.3767134E3,1.3036554E4,1.4530383E3,6.789374E2,7.433065E3,3.572225E3,1.1951225E2,1.0437319E2,1.2932181E4],"tree_param":{"num_deleted":"0","num_feature":"17","num_nodes":"37","size_leaf_vector":"1"}},{"base_weights":[-0E0,3.7177282E-3,-0E0,-0E0,7.1212505E-3,-0E0,8.279925E-3,8.951824E-3,-0E0,-0E0,9.273994E-3,9.547668E-3,-0E0,7.2302315E-3,-0E0],"categories":[],"categories_nodes":[],"categories_segments":[],"categories_sizes":[],"default_left":[0,0,0,0,0,0,0,0,0,0,0,0,0,0,0],"id":61,"left_children":[1,3,-1,-1,5,-1,7,9,-1,-1,11,13,-1,-1,-1],"loss_changes":[2.7070662E-1,5.638298E-1,0E0,0E0,2.7711266E-1,0E0,1.7965901E-1,8.229518E-2,0E0,0E0,6.5398335E-2,5.0951004E-2,0E0,0E0,0E0],"parents":[2147483647,0,0,1,1,4,4,6,6,7,7,10,10,11,11],"right_children":[2,4,-1,-1,6,-1,8,10,-1,-1,12,14,-1,-1,-1],"split_conditions":[1.6434948E1,2.208E3,-0E0,-0E0,1.0722159E1,-0E0,3.1043246E0,-3.0474343E0,-0E0,-0E0,7.7152916E1,4.104287E1,-0E0,7.2302315E-3,-0E0],"split_indices":[13,11,0,0,16,0,8,8,0,0,15,6,0,0,0],"split_type":[0,0,0,0,0,0,0,0,0,0,0,0,0,0,0],"sum_hessian":[2.6859092E4,1.778573E4,9.07336E3,3.1295813E3,1.4656149E4,2.413981E2,1.4414751E4,1.4313954E4,1.0079644E2,1.4328928E2,1.4170665E4,1.398563E4,1.8503522E2,1.396239E4,2.3239887E1],"tree_param":{"num_deleted":"0","num_feature":"17","num_nodes":"15","size_leaf_vector":"1"}},{"base_weights":[-0E0],"categories":[],"categories_nodes":[],"categories_segments":[],"categories_sizes":[],"default_left":[0],"id":62,"left_children":[-1],"loss_changes":[0E0],"parents":[2147483647],"right_children":[-1],"split_conditions":[-0E0],"split_indices":[0],"split_type":[0],"sum_hessian":[2.5504945E4],"tree_param":{"num_deleted":"0","num_feature":"17","num_nodes":"1","size_leaf_vector":"1"}},{"base_weights":[-0E0,-3.6835985E-3,-0E0,-9.43029E-3,-0E0,4.5050187E-3,-0E0,-0E0,-1.3579739E-2,1.20152095E-2,-0E0,-1.5903277E-2,-0E0,1.6680473E-2,-0E0,-0E0,-1.7604684E-2,-0E0,1.889654E-2,-0E0,-1.8293703E-2,2.1294853E-2,-0E0,-0E0,-1.3890826E-2,-0E0,1.7386632E-2],"categories":[],"categories_nodes":[],"categories_segments":[],"categories_sizes":[],"default_left":[0,0,0,0,0,0,0,0,0,0,0,1,0,1,0,0,0,0,0,0,0,0,0,0,0,0,0],"id":63,"left_children":[1,3,5,7,-1,9,-1,-1,11,13,-1,15,-1,17,-1,-1,19,-1,21,-1,23,25,-1,-1,-1,-1,-1],"loss_changes":[1.9749887E-1,7.9309124E-1,1.3969769E-1,6.1617744E-1,0E0,6.976574E-1,0E0,0E0,5.590769E-1,7.045508E-1,0E0,4.3919516E-1,0E0,3.9978766E-1,0E0,0E0,1.707797E-1,0E0,4.1730452E-1,0E0,1.1302185E-1,3.8687587E-1,0E0,0E0,0E0,0E0,0E0],"parents":[2147483647,0,0,1,1,2,2,3,3,5,5,8,8,9,9,11,11,13,13,16,16,18,18,20,20,21,21],"right_children":[2,4,6,8,-1,10,-1,-1,12,14,-1,16,-1,18,-1,-1,20,-1,22,-1,24,26,-1,-1,-1,-1,-1],"split_conditions":[1E0,1.5037891E-1,-1.1806363E0,-5.848323E1,