{"learner":{"attributes":{"scikit_learn":"{\"_estimator_type\": \"classifier\"}"},"feature_names":["pitcherHand_L","hitterHand_R","balls_before_pitch_0","balls_before_pitch_1","balls_before_pitch_2","balls_before_pitch_3","strikes_before_pitch_0","strikes_before_pitch_1","strikes_before_pitch_2","velo","velo_diff","extension","extension_ratio","x0_ratio","z0_ratio","spin_rate","adj_spin_dir","HB_acc","IVB_acc","Break_acc"],"feature_types":["i","i","i","i","i","i","i","i","i","float","float","float","float","float","float","float","float","float","float","float"],"gradient_booster":{"model":{"gbtree_model_param":{"num_parallel_tree":"1","num_trees":"100"},"iteration_indptr":[0,1,2,3,4,5,6,7,8,9,10,11,12,13,14,15,16,17,18,19,20,21,22,23,24,25,26,27,28,29,30,31,32,33,34,35,36,37,38,39,40,41,42,43,44,45,46,47,48,49,50,51,52,53,54,55,56,57,58,59,60,61,62,63,64,65,66,67,68,69,70,71,72,73,74,75,76,77,78,79,80,81,82,83,84,85,86,87,88,89,90,91,92,93,94,95,96,97,98,99,100],"tree_info":[0,0,0,0,0,0,0,0,0,0,0,0,0,0,0,0,0,0,0,0,0,0,0,0,0,0,0,0,0,0,0,0,0,0,0,0,0,0,0,0,0,0,0,0,0,0,0,0,0,0,0,0,0,0,0,0,0,0,0,0,0,0,0,0,0,0,0,0,0,0,0,0,0,0,0,0,0,0,0,0,0,0,0,0,0,0,0,0,0,0,0,0,0,0,0,0,0,0,0,0],"trees":[{"base_weights":[-9.2374794E-5,-8.281834E-2,1.880345E-1,8.1260696E-2,-1.7796037E-1,2.4980673E-1,6.668862E-2,1.5785567E-1,1.5552206E-2,-2.0880665E-1,2.0370899E-2,3.1496102E-1,2.0884602E-1,-5.7748012E-2,1.4608142E-1,2.1583743E-1,1.3634385E-1,8.160114E-2,-3.7560333E-2,-1.2545586E-1,-2.7045766E-1,1.3134274E-1,-3.8981665E-2,1.822895E-1,6.7455195E-2,2.3017862E-1,-0E0,2.773574E-2,-1.9364032E-1,1.8548281E-1,3.0785497E-2,9.453031E-2,2.2772442E-1,9.656124E-2,-1.9009162E-2,-8.029315E-2,1.1537194E-2,1.0444579E-2,-1.5720414E-1,-1.8415892E-1,-3.1282195E-1,1.5058814E-1,-0E0,8.381653E-2,-6.120071E-2,9.222539E-2,-7.115622E-2,2.4112724E-1,-3.0173706E-3,6.1667684E-2,-4.4533156E-2,-7.1175404E-2,9.129983E-2,-2.3566961E-1,-0E0,2.3114316E-1,7.706823E-2,-6.08964E-2,1.01056516E-1,2.679811E-2,1.371375E-1,2.4331667E-1,-2.4376638E-2,-2.157914E-3,1.0956655E-1,-3.2932144E-2,-8.9243256E-2,-9.2180714E-2,3.0958358E-2,-4.5554396E-2,1.104737E-1,-1.8403378E-1,-6.996515E-2,-7.762628E-2,-2.1049275E-1,-0E0,-3.289914E-1,-0E0,9.5363416E-2,-0E0,-6.485139E-2,8.878095E-2,2.5685105E-1,-0E0,-1.3282628E-1,-1.4809984E-1,-0E0,3.4125097E-2,2.8437823E-1,8.797759E-2,-2.1577861E-2,7.4815504E-2,-1.4930907E-2,8.404653E-2,-2.4952912E-3,8.3856344E-2,4.9708504E-3,1.7478997E-1,1.7041974E-1,4.8939347E-2,1.258795E-1,-7.664342E-2,1.7724536E-2,7.5583137E-3,1.2601106E-1,-6.067114E-2,4.7584523E-2,1.722985E-1,-1.4993893E-2,-2.2793329E-1,-1.1690677E-1,-8.586098E-3,-7.705698E-2,-8.015083E-2,1.149896E-2,-1.7020172E-1,-1.7440902E-1,9.471763E-2,-3.016054E-2,-3.5946923E-1,-1.2653467E-1,1.1101315E-1,-1.4806305E-2,2.6185703E-1,-0E0,6.0177896E-2,-3.422295E-2,-4.307852E-2,3.0169883E-1,9.351637E-2,1.7074771E-3,-0E0,2.2100697E-1,-1.0889712E-1,2.0244204E-2,1.2450695E-1,-0E0,-1.414812E-1,-7.118468E-2,-1.0594762E-1,-6.436898E-2,-1.8737492E-1,-1.128246E-2,-3.9671728E-1,-1.5747604E-1,-0E0,1.4701352E-1,1.7340113E-1,-0E0,4.6343006E-2,1.6503626E-1,-7.436202E-2,1.0078849E-2,-0E0,-5.593923E-2,-1.195121E-1,-8.285112E-2,-5.796373E-2,9.524105E-2,-1.282331E-1,-2.2852659E-1,-7.699499E-2,3.3166382E-2],"categories":[],"categories_nodes":[],"categories_segments":[],"categories_sizes":[],"default_left":[1,0,0,1,0,0,0,0,0,0,1,0,0,0,0,0,1,0,1,0,1,0,0,0,0,0,0,1,1,0,0,1,0,0,0,0,0,0,0,0,0,0,0,0,0,0,0,0,0,0,0,0,0,0,0,0,0,0,0,0,0,0,0,0,0,0,0,0,0,0,0,0,1,1,0,0,0,0,0,0,0,0,1,0,0,0,0,0,0,0,0,0,0,0,0,0,0,0,0,0,0,0,0,0,0,0,0,0,0,1,0,0,0,0,0,0,0,0,0,0,0,0,0,0,0,0,0,0,1,0,0,0,0,0,0,0,0,0,0,0,1,0,1,0,0,0,0,0,0,0,0,0,0,0,0,0,0,0,0,0,0,0,0],"id":0,"left_children":[1,3,5,7,9,11,13,15,17,19,21,23,25,27,29,-1,31,33,35,37,39,41,43,-1,45,47,49,51,53,55,57,59,61,63,-1,65,67,69,71,73,75,77,-1,-1,79,-1,-1,81,-1,-1,-1,83,-1,85,-1,87,89,-1,91,93,95,97,-1,-1,99,101,-1,-1,103,105,107,109,111,113,115,117,119,-1,-1,-1,-1,121,123,125,-1,-1,-1,-1,127,-1,-1,-1,-1,129,-1,-1,-1,-1,131,-1,-1,133,-1,-1,-1,-1,-1,135,-1,137,139,-1,-1,-1,-1,141,-1,-1,-1,143,-1,-1,-1,145,-1,-1,-1,-1,147,-1,-1,-1,149,151,-1,-1,-1,-1,-1,-1,153,155,157,159,-1,-1,-1,-1,-1,-1,-1,-1,-1,-1,-1,-1,161,-1,-1,-1,-1,-1,-1],"loss_changes":[1.6208866E3,1.1326777E3,2.3374475E2,1.315724E2,2.8332422E2,4.6633545E1,1.0868768E2,5.222119E1,5.1326706E1,1.9813745E2,4.1990078E1,2.361499E1,5.6713257E1,5.1062416E1,2.758908E1,0E0,3.8214417E1,1.2266773E1,1.7513332E1,7.555078E1,7.450903E1,6.9989967E0,1.6270992E1,0E0,1.2378398E1,3.352661E1,1.2377273E1,3.6631508E1,1.476181E1,1.9774384E1,1.866237E1,2.069001E1,1.7356705E1,8.991379E0,0E0,1.4291042E1,1.1130163E1,1.8994078E1,2.8963837E1,1.7396423E1,7.470996E1,8.1205635E0,0E0,0E0,1.2688924E1,0E0,0E0,2.2132202E1,0E0,0E0,0E0,1.569038E1,0E0,1.0088028E1,0E0,2.5263885E1,1.7026024E1,0E0,7.229357E0,6.7338343E0,6.9244003E0,9.1137085E0,0E0,0E0,8.513466E0,8.943022E0,0E0,0E0,8.39977E0,1.7801437E1,1.2516075E1,2.5622833E1,1.1137484E1,1.2853486E1,1.733725E1,7.39991E0,3.2738525E1,0E0,0E0,0E0,0E0,1.8030884E1,1.3172302E1,7.5021644E0,0E0,0E0,0E0,0E0,1.9367493E1,0E0,0E0,0E0,0E0,6.7272406E0,0E0,0E0,0E0,0E0,1.5416321E1,0E0,0E0,7.877818E0,0E0,0E0,0E0,0E0,0E0,1.0178307E1,0E0,1.1171448E1,1.3538719E1,0E0,0E0,0E0,0E0,9.999069E0,0E0,0E0,0E0,1.6446655E1,0E0,0E0,0E0,8.355713E0,0E0,0E0,0E0,0E0,9.330154E0,0E0,0E0,0E0,9.205978E0,6.563036E0,0E0,0E0,0E0,0E0,0E0,0E0,6.727088E0,7.856888E0,9.761994E0,7.245117E0,0E0,0E0,0E0,0E0,0E0,0E0,0E0,0E0,0E0,0E0,0E0,0E0,9.790224E0,0E0,0E0,0E0,0E0,0E0,0E0],"parents":[2147483647,0,0,1,1,2,2,3,3,4,4,5,5,6,6,7,7,8,8,9,9,10,10,11,11,12,12,13,13,14,14,16,16,17,17,18,18,19,19,20,20,21,21,22,22,24,24,25,25,26,26,27,27,28,28,29,29,30,30,31,31,32,32,33,33,35,35,36,36,37,37,38,38,39,39,40,40,41,41,44,44,47,47,51,51,53,53,55,55,56,56,58,58,59,59,60,60,61,61,64,64,65,65,68,68,69,69,70,70,71,71,72,72,73,73,74,74,75,75,76,76,81,81,82,82,83,83,88,88,93,93,98,98,101,101,107,107,109,109,110,110,115,115,119,119,123,123,128,128,132,132,133,133,140,140,141,141,142,142,143,143,156,156],"right_children":[2,4,6,8,10,12,14,16,18,20,22,24,26,28,30,-1,32,34,36,38,40,42,44,-1,46,48,50,52,54,56,58,60,62,64,-1,66,68,70,72,74,76,78,-1,-1,80,-1,-1,82,-1,-1,-1,84,-1,86,-1,88,90,-1,92,94,96,98,-1,-1,100,102,-1,-1,104,106,108,110,112,114,116,118,120,-1,-1,-1,-1,122,124,126,-1,-1,-1,-1,128,-1,-1,-1,-1,130,-1,-1,-1,-1,132,-1,-1,134,-1,-1,-1,-1,-1,136,-1,138,140,-1,-1,-1,-1,142,-1,-1,-1,144,-1,-1,-1,146,-1,-1,-1,-1,148,-1,-1,-1,150,152,-1,-1,-1,-1,-1,-1,154,156,158,160,-1,-1,-1,-1,-1,-1,-1,-1,-1,-1,-1,-1,162,-1,-1,-1,-1,-1,-1],"split_conditions":[8.022321E1,9.3E1,2.265E3,2.223E3,1E0,9.3E1,9.243738E1,1.89E3,9.13E1,9.49E1,2.256E3,4.986096E-1,2.923146E-1,9.54E1,9.65E1,2.1583743E-1,6.1400085E1,3.5380328E-1,6.4716325E0,2.159E3,2.274E3,2.5484678E-1,6.489517E0,1.822895E-1,9.1E1,9.89E1,6.205589E0,1.38E2,1.48E2,-1.17177375E-1,1.00515045E2,1.48E2,4.986096E-1,-3.822121E-1,-1.9009162E-2,-4.0439437E-3,1.31E2,1E0,1E0,2.098E3,-3.694845E0,1.34E2,-0E0,8.381653E-2,9.54E1,9.222539E-2,-7.115622E-2,8.501489E1,-3.0173706E-3,6.1667684E-2,-4.4533156E-2,2.9655245E-1,9.129983E-2,1E0,-0E0,-3.436064E-1,9.41E1,-6.08964E-2,9.89E1,9.05E1,9.26E1,9.1E1,-2.4376638E-2,-2.157914E-3,1E0,1E0,-8.9243256E-2,-9.2180714E-2,7.355539E1,6.222077E1,2.124E3,1E0,2.368E3,6.0284878E1,9.7E1,5.8457074E0,1E0,-0E0,9.5363416E-2,-0E0,-6.485139E-2,2.163E3,7.287249E0,9.29E1,-1.3282628E-1,-1.4809984E-1,-0E0,3.4125097E-2,5.6126103E0,8.797759E-2,-2.1577861E-2,7.4815504E-2,-1.4930907E-2,1.37E2,-2.4952912E-3,8.3856344E-2,4.9708504E-3,1.7478997E-1,1.33E2,4.8939347E-2,1.258795E-1,1E0,1.7724536E-2,7.5583137E-3,1.2601106E-1,-6.067114E-2,4.7584523E-2,1.4823522E-1,-1.4993893E-2,1.57E2,1.46E2,-8.586098E-3,-7.705698E-2,-8.015083E-2,1.149896E-2,7.27091E1,-1.7440902E-1,9.471763E-2,-3.016054E-2,1E0,-1.2653467E-1,1.1101315E-1,-1.4806305E-2,-4.598621E-1,-0E0,6.0177896E-2,-3.422295E-2,-4.307852E-2,7.2619877E0,9.351637E-2,1.7074771E-3,-0E0,6.4254885E0,1.67E2,2.0244204E-2,1.2450695E-1,-0E0,-1.414812E-1,-7.118468E-2,-1.0594762E-1,2.298E3,1E0,1.46E2,1.972488E1,-1.5747604E-1,-0E0,1.4701352E-1,1.7340113E-1,-0E0,4.6343006E-2,1.6503626E-1,-7.436202E-2,1.0078849E-2,-0E0,-5.593923E-2,-1.195121E-1,1.56E2,-5.796373E-2,9.524105E-2,-1.282331E-1,-2.2852659E-1,-7.699499E-2,3.3166382E-2],"split_indices":[17,9,15,15,5,9,17,15,9,9,15,13,13,9,9,0,17,13,11,15,15,13,17,0,9,9,11,16,16,13,17,16,13,13,0,13,16,6,4,15,17,16,0,0,9,0,0,17,0,0,0,13,0,5,0,13,9,0,9,9,9,9,0,0,5,6,0,0,17,17,15,6,15,17,9,11,4,0,0,0,0,15,11,9,0,0,0,0,11,0,0,0,0,16,0,0,0,0,16,0,0,5,0,0,0,0,0,13,0,16,16,0,0,0,0,17,0,0,0,6,0,0,0,13,0,0,0,0,11,0,0,0,11,16,0,0,0,0,0,0,15,4,16,17,0,0,0,0,0,0,0,0,0,0,0,0,16,0,0,0,0,0,0],"split_type":[0,0,0,0,0,0,0,0,0,0,0,0,0,0,0,0,0,0,0,0,0,0,0,0,0,0,0,0,0,0,0,0,0,0,0,0,0,0,0,0,0,0,0,0,0,0,0,0,0,0,0,0,0,0,0,0,0,0,0,0,0,0,0,0,0,0,0,0,0,0,0,0,0,0,0,0,0,0,0,0,0,0,0,0,0,0,0,0,0,0,0,0,0,0,0,0,0,0,0,0,0,0,0,0,0,0,0,0,0,0,0,0,0,0,0,0,0,0,0,0,0,0,0,0,0,0,0,0,0,0,0,0,0,0,0,0,0,0,0,0,0,0,0,0,0,0,0,0,0,0,0,0,0,0,0,0,0,0,0,0,0,0,0],"sum_hessian":[1.0413452E5,7.239141E4,3.1743115E4,2.6526635E4,4.5864773E4,2.0936604E4,1.0806511E4,1.2134212E4,1.4392422E4,3.974117E4,6.1235986E3,7.8460005E3,1.3090604E4,4.1560635E3,6.6504478E3,9.098543E2,1.1224357E4,6.503119E3,7.889303E3,1.7040605E4,2.2700566E4,2.183302E3,3.9402964E3,7.3360737E3,5.0992657E2,1.1838559E4,1.2520452E3,2.5210132E3,1.63505E3,4.8581143E3,1.7923334E3,7.8567017E3,3.3676555E3,5.858058E3,6.4506085E2,4.331016E3,3.558287E3,3.162341E3,1.3878265E4,7.651138E3,1.5049429E4,1.9580782E3,2.2522379E2,3.2626343E2,3.614033E3,3.8325375E2,1.2667283E2,1.1359989E4,4.7856946E2,5.5845544E2,6.935897E2,1.4297356E3,1.0912777E3,1.3540803E3,2.809698E2,3.3031992E3,1.5549152E3,5.308313E2,1.2615021E3,3.171549E3,4.6851523E3,3.231028E3,1.3662747E2,5.706499E2,5.287408E3,2.8711677E3,1.4598484E3,2.5359453E2,3.3046924E3,1.9680328E3,1.1943082E3,1.0469298E4,3.4089673E3,1.6432627E3,6.0078755E3,7.5729944E2,1.4292129E4,2.0730544E2,1.7507728E3,1.7462932E3,1.8677399E3,1.1632E3,1.0196789E4,1.0768435E3,3.528921E2,1.1756433E3,1.7843697E2,8.6804486E2,2.4351545E3,9.598764E2,5.9503876E2,1.0653956E3,1.9610646E2,1.2269097E3,1.9446394E3,4.1127607E3,5.7239197E2,1.4518846E3,1.7791436E3,4.6478228E3,6.395858E2,1.820953E3,1.0502148E3,3.1409387E3,1.6375388E2,1.3884238E3,5.796091E2,8.7526196E2,3.190463E2,6.1534624E3,4.3158354E3,2.0409506E3,1.3680167E3,1.0330431E3,6.102196E2,4.516919E3,1.4909565E3,1.3588087E2,6.214186E2,1.0765199E4,3.52693E3,6.2440497E2,5.3879504E2,1.0000932E4,1.9585759E2,3.257657E2,7.5107776E2,7.217116E1,2.3629834E3,5.0071854E2,7.2619116E2,4.2506323E2,1.3540803E3,1.5004136E3,3.205395E2,6.9184766E2,1.8341429E2,4.637619E3,1.5158433E3,1.6338058E3,2.6820295E3,4.0012686E3,5.156505E2,6.928431E3,3.836768E3,2.0332358E2,9.797608E3,2.2736404E3,8.934292E1,5.8135114E2,7.727291E2,1.3232208E3,1.7719264E2,9.710754E2,1.7109542E3,3.0035645E3,9.9770404E2,3.9793683E2,1.17713646E2,7.796974E2,6.148734E3,7.752178E2,2.2248627E2],"tree_param":{"num_deleted":"0","num_feature":"20","num_nodes":"163","size_leaf_vector":"1"}},{"base_weights":[-6.5900234E-4,1.16818346E-1,-1.6839716E-1,1.9740905E-1,4.340701E-2,-9.186852E-2,-3.114721E-1,1.21929064E-1,2.1928476E-1,-1.4488047E-1,1.07082345E-1,-1.784521E-1,-4.6744797E-2,-2.6222435E-1,-2.4121241E-1,6.2235896E-2,1.6727142E-1,2.7416924E-1,1.735227E-1,-2.6676387E-1,-7.7135436E-2,-6.955056E-2,1.2070613E-1,-1.2367015E-1,-1.3940704E-1,2.2586998E-2,-1.4792281E-1,-2.0358154E-1,-2.014624E-1,2.6707092E-2,8.946083E-2,2.4028015E-1,-0E0,2.1925068E-1,3.302937E-1,2.0332615E-1,1.1883243E-1,-1.8687277E-1,-2.065231E-1,1.306762E-2,-1.7339504E-1,-0E0,-1.4011651E-1,1.4974602E-1,7.0295244E-2,-1.2175265E-1,-5.8231987E-2,6.703447E-2,-5.1587798E-2,-1.1300025E-1,-1.1064861E-1,-9.254022E-2,-2.6857555E-1,-0E0,9.493013E-2,6.348452E-2,2.834092E-1,4.8997767E-2,-4.1646913E-2,1.4558303E-1,1.2153752E-1,1.7513106E-2,1.8896993E-1,-7.3983422E-3,2.0791014E-1,1.3163659E-1,-0E0,-1.2670045E-1,-0E0,3.9239377E-2,-4.6944484E-2,-6.650444E-2,-3.16765E-1,4.9354713E-2,-6.0999833E-2,-1.09622754E-1,1.7575298E-2,1.6139078E-1,3.0925125E-3,1.02438636E-1,-1.0060408E-2,-8.8005535E-2,-0E0,1.3354683E-1,1.983191E-2,-1.2823123E-1,1.366866E-2,-1.2890325E-1,-0E0,-2.0609076E-1,-3.2830879E-3,-2.1362664E-1,-2.2193336E-1,1.8830602E-1,7.544732E-2,-1.4573498E-1,9.150065E-2,1.261044E-1,1.1355847E-1,1.4254764E-1,-9.821294E-3,-2.1816779E-2,4.571256E-2,-2.097698E-1,-0E0,-0E0,1.7263901E-1,1.5226234E-1,2.5312936E-2,-6.294162E-2,4.1014735E-2,-6.421501E-2,-0E0,1.5398808E-1,-0E0,-2.2899583E-2,6.7234226E-2,-2.889327E-2,-1.13893054E-1,-1.966901E-2,7.981204E-2,-1.5824435E-2,-8.293769E-2,-1.4170702E-1,6.6214995E-3,5.201349E-2,-1.8011205E-1,-0E0,-1.2640496E-1,-1.8555634E-2,1.4061303E-1,7.858813E-3,1.6543981E-1,-6.1914146E-2,3.780288E-2,2.0001888E-1,1.2024948E-1,6.997341E-3,1.7383398E-1,-1.5744664E-2,4.812508E-2,-7.707574E-2,7.834414E-2,1.4920211E-2,1.0217939E-1,-0E0,1.0766409E-1,-0E0,9.361677E-2,8.8748485E-2,-2.0204155E-2,-6.926929E-2,5.156491E-2,-0E0,9.644612E-2,1.2360953E-1,2.2832651E-1,1.3723835E-1,-2.8980605E-2,-0E0,1.0443947E-1,-0E0,7.8847475E-2,-9.735778E-3,7.394143E-2,7.761328E-2,-2.6821807E-2,7.875267E-3,2.4071051E-1,-5.204291E-2,1.4801413E-1,1.3648374E-1,-0E0,-0E0,8.967014E-2],"categories":[],"categories_nodes":[],"categories_segments":[],"categories_sizes":[],"default_left":[0,0,0,1,0,0,0,0,0,0,0,0,0,1,0,0,0,0,0,0,0,0,0,0,0,0,0,0,0,0,0,0,0,0,0,1,0,0,0,0,0,0,0,0,0,0,1,0,0,1,0,0,0,0,0,0,1,0,0,0,0,0,0,0,0,1,0,0,0,0,0,0,0,0,0,0,0,0,0,0,0,0,0,0,1,0,0,0,0,0,0,0,0,0,0,0,0,0,0,0,0,0,0,0,0,0,0,0,0,0,0,0,0,0,0,0,0,0,0,0,1,0,0,0,0,0,0,0,0,0,0,1,0,0,0,0,0,0,0,0,0,0,0,0,0,0,0,0,0,0,0,0,0,0,0,1,0,0,0,0,0,0,0,0,0,0,0,0,0,0,0,0,0,0,0],"id":1,"left_children":[1,3,5,7,9,11,13,15,17,19,21,23,25,27,-1,29,31,33,35,37,39,41,43,45,-1,47,49,-1,51,53,-1,55,57,59,61,63,65,67,-1,69,71,73,75,77,79,-1,81,83,85,87,-1,89,91,-1,-1,-1,93,-1,-1,-1,95,-1,-1,-1,97,99,-1,-1,-1,101,-1,-1,103,-1,-1,-1,-1,105,-1,107,109,111,-1,113,115,117,119,121,-1,123,125,-1,127,-1,-1,-1,-1,-1,129,131,-1,-1,-1,-1,-1,133,135,137,139,-1,141,-1,-1,143,-1,-1,145,-1,-1,-1,147,-1,-1,-1,-1,-1,-1,-1,-1,-1,149,151,153,-1,-1,155,157,-1,159,-1,-1,-1,161,-1,-1,-1,163,-1,-1,-1,-1,-1,-1,-1,-1,165,167,169,-1,-1,-1,-1,-1,-1,-1,-1,-1,-1,171,-1,173,-1,-1,-1,-1],"loss_changes":[2.0470522E3,3.578291E2,4.626582E2,4.2559814E1,3.84893E2,1.0639255E2,7.776636E1,1.503894E1,4.8428345E1,6.1649292E1,5.887494E1,3.248059E1,1.3194034E2,5.973584E1,0E0,8.543436E0,4.7572174E1,2.0648376E1,1.5249268E1,1.3996292E1,4.8234516E1,9.111035E0,2.9682312E1,3.1771057E1,0E0,3.6593025E1,9.153442E0,0E0,4.62583E1,1.0772626E1,0E0,7.8418427E0,7.7224255E0,1.6726791E1,1.1668396E1,1.0216644E1,7.804306E0,1.1591122E1,0E0,6.6203923E0,1.3060921E1,8.80981E0,1.1111784E1,2.1514404E1,2.2916279E1,0E0,6.850807E0,2.0014183E1,2.1680828E1,7.879387E0,0E0,2.6253609E1,1.2286896E1,0E0,0E0,0E0,7.64563E0,0E0,0E0,0E0,3.1830542E1,0E0,0E0,0E0,9.548004E0,8.492836E0,0E0,0E0,0E0,8.49044E0,0E0,0E0,1.1727684E1,0E0,0E0,0E0,0E0,2.1903809E1,0E0,2.1264252E1,1.3539557E1,6.6412716E0,0E0,8.589508E0,1.2792797E1,7.950886E0,7.6524997E0,6.575569E0,0E0,1.6142464E1,5.7588474E1,0E0,6.791916E0,0E0,0E0,0E0,0E0,0E0,7.748314E0,1.0270546E1,0E0,0E0,0E0,0E0,0E0,7.188134E0,1.2268555E1,8.585609E0,9.320013E0,0E0,1.012085E1,0E0,0E0,6.9308586E0,0E0,0E0,7.1152077E0,0E0,0E0,0E0,9.092081E0,0E0,0E0,0E0,0E0,0E0,0E0,0E0,0E0,0E0,6.7425365E0,8.262354E0,6.7961807E0,0E0,0E0,1.104834E1,1.4232594E1,0E0,7.353386E0,0E0,0E0,0E0,6.7141914E0,0E0,0E0,0E0,6.739252E0,0E0,0E0,0E0,0E0,0E0,0E0,0E0,0E0,8.079636E0,1.1185028E1,1.1464607E1,0E0,0E0,0E0,0E0,0E0,0E0,0E0,0E0,0E0,0E0,7.9216003E0,0E0,7.7052765E0,0E0,0E0,0E0,0E0],"parents":[2147483647,0,0,1,1,2,2,3,3,4,4,5,5,6,6,7,7,8,8,9,9,10,10,11,11,12,12,13,13,15,15,16,16,17,17,18,18,19,19,20,20,21,21,22,22,23,23,25,25,26,26,28,28,29,29,31,31,32,32,33,33,34,34,35,35,36,36,37,37,39,39,40,40,41,41,42,42,43,43,44,44,46,46,47,47,48,48,49,49,51,51,52,52,56,56,60,60,64,64,65,65,69,69,72,72,77,77,79,79,80,80,81,81,83,83,84,84,85,85,86,86,87,87,89,89,90,90,92,92,98,98,99,99,105,105,106,106,107,107,108,108,110,110,113,113,116,116,120,120,130,130,131,131,132,132,135,135,136,136,138,138,142,142,146,146,155,155,156,156,157,157,168,168,170,170],"right_children":[2,4,6,8,10,12,14,16,18,20,22,24,26,28,-1,30,32,34,36,38,40,42,44,46,-1,48,50,-1,52,54,-1,56,58,60,62,64,66,68,-1,70,72,74,76,78,80,-1,82,84,86,88,-1,90,92,-1,-1,-1,94,-1,-1,-1,96,-1,-1,-1,98,100,-1,-1,-1,102,-1,-1,104,-1,-1,-1,-1,106,-1,108,110,112,-1,114,116,118,120,122,-1,124,126,-1,128,-1,-1,-1,-1,-1,130,132,-1,-1,-1,-1,-1,134,136,138,140,-1,142,-1,-1,144,-1,-1,146,-1,-1,-1,148,-1,-1,-1,-1,-1,-1,-1,-1,-1,150,152,154,-1,-1,156,158,-1,160,-1,-1,-1,162,-1,-1,-1,164,-1,-1,-1,-1,-1,-1,-1,-1,166,168,170,-1,-1,-1,-1,-1,-1,-1,-1,-1,-1,172,-1,174,-1,-1,-1,-1],"split_conditions":[9.386891E1,6.0101994E1,1.2516291E2,6.648088E1,1.34E2,1.47E2,1.2472524E2,1E0,1.0270112E2,1.25E2,8.275199E-1,1.0260926E2,1.0905403E2,1.43E2,-2.4121241E-1,9.24E1,5.235549E-2,8.8250864E-1,1E0,7.671643E1,8.076578E1,1E0,1E0,1.39E2,-1.3940704E-1,1E0,1E0,-2.0358154E-1,1.15256165E2,-9.870628E-2,8.946083E-2,-3.327167E-1,1.62E2,3.6303764E1,8.72E1,5.297766E0,1.2937546E2,1.23E2,-2.065231E-1,6.881454E0,1.235542E2,1.04504715E2,1.15628296E2,1.26911476E2,8.753999E1,-1.2175265E-1,6.7028813E0,1.0080267E2,1E0,7.019818E0,-1.1064861E-1,1E0,1.48E2,-0E0,9.493013E-2,6.348452E-2,2.495E3,4.8997767E-2,-4.1646913E-2,1.4558303E-1,1.12E2,1.7513106E-2,1.8896993E-1,-7.3983422E-3,1.2336443E2,1.48E2,-0E0,-1.2670045E-1,-0E0,-3.1157613E-1,-4.6944484E-2,-6.650444E-2,9.1874117E-1,4.9354713E-2,-6.0999833E-2,-1.09622754E-1,1.7575298E-2,7.244388E1,3.0925125E-3,1.06753006E2,1.43E2,1.9905391E-1,-0E0,2.5066885E-1,6.450493E0,1.0338167E2,-1.7633462E-1,9.29E1,-0E0,-2.6869789E-2,2.5172357E-2,-2.1362664E-1,8.4985906E-1,1.8830602E-1,7.544732E-2,-1.4573498E-1,9.150065E-2,1.261044E-1,7.968286E-1,8.044812E-1,-9.821294E-3,-2.1816779E-2,4.571256E-2,-2.097698E-1,-0E0,9.06E1,8.620204E1,9.02E1,2.199E3,-6.294162E-2,8.7256217E-1,-6.421501E-2,-0E0,1.5E2,-0E0,-2.2899583E-2,-2.4198058E-1,-2.889327E-2,-1.13893054E-1,-1.966901E-2,6.4837036E0,-1.5824435E-2,-8.293769E-2,-1.4170702E-1,6.6214995E-3,5.201349E-2,-1.8011205E-1,-0E0,-1.2640496E-1,-1.8555634E-2,1.44E2,2.104E3,1.1E2,-6.1914146E-2,3.780288E-2,9.22E1,3.2955775E-1,6.997341E-3,-3.7707555E-1,-1.5744664E-2,4.812508E-2,-7.707574E-2,1E0,1.4920211E-2,1.0217939E-1,-0E0,1.05142044E2,-0E0,9.361677E-2,8.8748485E-2,-2.0204155E-2,-6.926929E-2,5.156491E-2,-0E0,9.644612E-2,2.479E3,-3.877446E-1,1.35E2,-2.8980605E-2,-0E0,1.0443947E-1,-0E0,7.8847475E-2,-9.735778E-3,7.394143E-2,7.761328E-2,-2.6821807E-2,7.875267E-3,1.0196255E0,-5.204291E-2,9.1415695E1,1.3648374E-1,-0E0,-0E0,8.967014E-2],"split_indices":[18,18,19,19,16,16,18,1,19,16,14,18,18,16,0,9,13,14,2,18,18,1,2,16,0,2,2,0,18,13,0,13,16,18,9,11,19,16,0,11,19,19,19,19,18,0,11,18,6,11,0,1,16,0,0,0,15,0,0,0,16,0,0,0,19,16,0,0,0,13,0,0,14,0,0,0,0,19,0,19,16,13,0,13,11,18,13,9,0,13,13,0,14,0,0,0,0,0,14,14,0,0,0,0,0,9,18,9,15,0,14,0,0,16,0,0,13,0,0,0,11,0,0,0,0,0,0,0,0,0,16,15,16,0,0,9,13,0,13,0,0,0,6,0,0,0,19,0,0,0,0,0,0,0,0,15,13,16,0,0,0,0,0,0,0,0,0,0,14,0,19,0,0,0,0],"split_type":[0,0,0,0,0,0,0,0,0,0,0,0,0,0,0,0,0,0,0,0,0,0,0,0,0,0,0,0,0,0,0,0,0,0,0,0,0,0,0,0,0,0,0,0,0,0,0,0,0,0,0,0,0,0,0,0,0,0,0,0,0,0,0,0,0,0,0,0,0,0,0,0,0,0,0,0,0,0,0,0,0,0,0,0,0,0,0,0,0,0,0,0,0,0,0,0,0,0,0,0,0,0,0,0,0,0,0,0,0,0,0,0,0,0,0,0,0,0,0,0,0,0,0,0,0,0,0,0,0,0,0,0,0,0,0,0,0,0,0,0,0,0,0,0,0,0,0,0,0,0,0,0,0,0,0,0,0,0,0,0,0,0,0,0,0,0,0,0,0,0,0,0,0,0,0],"sum_hessian":[1.0375578E5,6.098678E4,4.2769E4,2.8956176E4,3.2030605E4,2.7969945E4,1.4799057E4,6.699121E3,2.2257055E4,8.0321343E3,2.399847E4,9.444045E3,1.85259E4,1.0795828E4,4.003229E3,3.0539968E3,3.6451245E3,9.893176E3,1.2363879E4,2.7566052E3,5.2755293E3,1.6419989E3,2.2356473E4,5.5900986E3,3.8539465E3,1.094548E4,7.5804194E3,3.7665254E3,7.0293022E3,2.3842864E3,6.697103E2,2.5658083E3,1.0793163E3,5.2260376E3,4.6671387E3,7.777996E3,4.5858833E3,1.7177648E3,1.0388405E3,2.681174E3,2.594355E3,8.09468E2,8.325308E2,1.3975704E4,8.380769E3,2.1365344E3,3.453564E3,6.947174E3,3.998307E3,4.775183E3,2.8052363E3,2.7907952E3,4.2385073E3,2.0087302E3,3.7555618E2,7.7222485E2,1.7935834E3,4.293226E2,6.4999365E2,3.4561274E3,1.7699099E3,2.2250706E2,4.444632E3,1.05571915E2,7.6724243E3,4.178656E3,4.0722745E2,1.3443795E3,3.733852E2,2.2345354E3,4.466385E2,2.0189698E3,5.753853E2,4.81689E2,3.2777902E2,6.676318E2,1.6489903E2,1.2849598E4,1.1261061E3,6.0822935E3,2.2984744E3,2.3696726E3,1.0838914E3,2.7429805E3,4.2041934E3,1.9010991E3,2.0972078E3,4.1327275E3,6.4245557E2,1.1421195E3,1.6486755E3,1.0286366E3,3.2098706E3,1.1852811E3,6.083023E2,1.2963039E2,1.6402795E3,6.1499873E3,1.5224369E3,3.9703582E3,2.082975E2,6.998932E2,1.5346423E3,4.6707266E2,1.08312645E2,8.909922E2,1.1958605E4,3.5733271E3,2.5089666E3,8.147217E2,1.4837528E3,1.8289875E3,5.4068506E2,2.4134368E3,3.295436E2,1.7269669E3,2.4772263E3,1.0807943E3,8.2030493E2,1.1116919E3,9.855158E2,8.3994196E2,3.2927854E3,9.6488055E2,1.7723901E2,1.2641986E3,3.84477E2,6.3914616E1,3.145956E3,1.6651079E2,1.3559261E3,6.6145245E2,3.3089058E3,2.7774255E2,6.1324963E2,7.6164814E3,4.342124E3,5.6210205E2,3.011225E3,1.2523749E3,1.2565917E3,1.7725911E2,1.3064937E3,5.662285E2,1.8472084E3,9.265734E2,1.5506528E3,4.8771365E2,4.9780215E2,1.2822605E3,7.366562E1,1.9550684E2,4.659456E2,1.2010531E2,3.1888005E3,2.2417922E3,5.3746895E3,4.0247917E3,3.173325E2,2.675335E2,2.7436914E3,6.168873E2,6.896063E2,1.9251456E2,1.3581383E3,2.1122292E3,1.2956297E2,3.5197278E2,5.0227163E3,1.135405E2,3.9112512E3,4.894266E3,1.2845056E2,3.7531836E2,3.5359329E3],"tree_param":{"num_deleted":"0","num_feature":"20","num_nodes":"175","size_leaf_vector":"1"}},{"base_weights":[-1.7533145E-3,4.920926E-2,-8.879705E-2,8.8954754E-2,3.4167701E-3,-6.1904587E-2,-1.9109203E-1,-9.818919E-3,9.7873785E-2,-1.3444254E-1,2.9936718E-2,-1.7121945E-1,-3.7991624E-2,-1.6277209E-1,-1.8358102E-1,7.1592204E-2,7.647892E-2,-9.161653E-2,-1.2836418E-1,-2.487749E-3,6.1902102E-2,-5.0464686E-2,-2.1296929E-1,-1.5224891E-2,-8.449734E-2,-1.262715E-1,-9.572135E-2,-3.874855E-2,9.795157E-2,-3.185211E-3,-7.5466886E-2,3.799051E-2,-2.8764626E-2,-2.7792864E-2,7.74034E-2,-0E0,-1.22919835E-1,-3.041515E-2,4.6964813E-2,-1.4477734E-1,-4.4359993E-2,-1.2846342E-1,-3.4770884E-3,8.026222E-2,8.99022E-2,-6.418056E-2,2.7277958E-2,-1.4648238E-2,-1.4279981E-1,5.0258014E-2,1.4817579E-1,-5.1814925E-2,1.9280182E-2,-2.3139304E-2,9.303539E-2,-1.1143243E-1,-3.1679563E-2,-1.6422398E-2,-6.791011E-2,-1.6448023E-2,-1.04974225E-1,9.78808E-2,-1.2292642E-2,-7.8292936E-2,9.089567E-4,-2.7804387E-1,-1.159839E-2,-5.7301935E-2,6.1886143E-2,9.21029E-2,-0E0,-5.3099035E-3,-8.846854E-2,3.7056055E-2,-8.915469E-2,-3.6591653E-2,6.30764E-2,-5.3773414E-2,2.6576983E-2,1.2868172E-2,1.10490024E-1,-0E0,-1.6370812E-1,-1.3890236E-2,5.6417968E-2,-2.106946E-1,-0E0,-0E0,-9.9323735E-2,-1.7631401E-3,7.525511E-2,9.677123E-3,-6.267177E-2,-5.761614E-2,2.1454518E-6,-1.8382363E-2,8.671709E-2,1.7738659E-2,-7.91723E-2,-6.961315E-2,1.2341101E-1,4.9944434E-2,1.3454036E-1,-1.5290268E-1,-0E0,-4.606859E-3,6.964128E-2,5.091193E-3,5.585243E-2,-2.7249414E-3,-1.117013E-1,-3.16992E-2,9.0246946E-2,8.277445E-2,-3.089811E-2,-6.654324E-2,5.3723905E-2,-0E0,9.624057E-2,-1.4722273E-2,4.2207334E-2,7.617472E-2,8.879765E-2,1.05645426E-1,3.7969965E-2,-0E0,8.548031E-2],"categories":[],"categories_nodes":[],"categories_segments":[],"categories_sizes":[],"default_left":[0,0,0,1,0,0,0,0,0,0,1,0,0,0,0,0,1,0,0,0,0,0,0,1,0,0,0,0,0,0,0,0,0,0,0,0,0,1,0,0,0,0,0,0,0,0,0,0,0,1,1,0,0,0,0,0,0,0,0,0,0,0,0,0,1,0,0,0,0,0,0,0,0,0,0,0,0,0,0,0,0,0,0,0,0,0,0,0,0,0,0,0,0,0,0,0,0,0,0,0,0,1,0,0,0,0,0,0,0,0,0,0,0,0,0,0,0,0,0,0,0,0,0,0,1,0,0],"id":2,"left_children":[1,3,5,7,9,11,13,-1,15,17,19,21,23,25,-1,-1,27,29,-1,31,33,-1,35,37,39,-1,41,-1,43,-1,-1,45,47,-1,49,-1,-1,51,53,55,57,59,-1,61,-1,-1,-1,63,65,67,69,71,73,-1,75,-1,-1,77,-1,-1,-1,79,-1,81,83,85,-1,87,89,-1,-1,91,93,95,-1,-1,-1,97,99,-1,101,-1,103,-1,105,-1,-1,-1,-1,-1,107,-1,109,-1,-1,111,113,-1,-1,115,117,119,121,-1,-1,-1,-1,-1,-1,-1,-1,-1,-1,-1,-1,-1,-1,-1,-1,-1,-1,123,-1,-1,125,-1,-1],"loss_changes":[4.5801974E2,1.1713963E2,1.0144809E2,3.4010315E1,1.10013916E2,7.6648346E1,2.2861053E1,0E0,1.885904E1,1.5424843E1,2.72336E1,1.33004E1,2.531622E1,2.4619125E1,0E0,0E0,6.2059402E1,1.1908033E1,0E0,1.33071E1,2.3246033E1,0E0,7.0184174E0,1.5999246E1,1.6955742E1,0E0,8.565432E0,0E0,1.6093079E1,0E0,0E0,7.8931394E0,1.0625633E1,0E0,1.9567032E1,0E0,0E0,1.5219239E1,1.3961895E1,1.172419E1,9.286375E0,1.2015648E1,0E0,2.569693E1,0E0,0E0,0E0,7.9597406E0,8.75212E0,1.0949999E1,9.621452E0,1.5736349E1,1.1827423E1,0E0,8.416161E0,0E0,0E0,6.615779E0,0E0,0E0,0E0,9.3626175E0,0E0,1.2139665E1,8.551949E0,1.3058706E1,0E0,7.083577E0,7.706541E0,0E0,0E0,6.5551767E0,8.789333E0,1.1317775E1,0E0,0E0,0E0,1.8751404E1,1.675396E1,0E0,1.1938026E1,0E0,1.3061918E1,0E0,1.0253682E1,0E0,0E0,0E0,0E0,0E0,1.0044033E1,0E0,9.221786E0,0E0,0E0,1.136229E1,2.0607E1,0E0,0E0,7.7525797E0,7.554304E0,6.8460584E0,7.209633E0,0E0,0E0,0E0,0E0,0E0,0E0,0E0,0E0,0E0,0E0,0E0,0E0,0E0,0E0,0E0,0E0,0E0,0E0,7.396988E0,0E0,0E0,8.8022175E0,0E0,0E0],"parents":[2147483647,0,0,1,1,2,2,3,3,4,4,5,5,6,6,8,8,9,9,10,10,11,11,12,12,13,13,16,16,17,17,19,19,20,20,22,22,23,23,24,24,26,26,28,28,31,31,32,32,34,34,37,37,38,38,39,39,40,40,41,41,43,43,47,47,48,48,49,49,50,50,51,51,52,52,54,54,57,57,61,61,63,63,64,64,65,65,67,67,68,68,71,71,72,72,73,73,77,77,78,78,80,80,82,82,84,84,90,90,92,92,95,95,96,96,99,99,100,100,101,101,102,102,121,121,124,124],"right_children":[2,4,6,8,10,12,14,-1,16,18,20,22,24,26,-1,-1,28,30,-1,32,34,-1,36,38,40,-1,42,-1,44,-1,-1,46,48,-1,50,-1,-1,52,54,56,58,60,-1,62,-1,-1,-1,64,66,68,70,72,74,-1,76,-1,-1,78,-1,-1,-1,80,-1,82,84,86,-1,88,90,-1,-1,92,94,96,-1,-1,-1,98,100,-1,102,-1,104,-1,106,-1,-1,-1,-1,-1,108,-1,110,-1,-1,112,114,-1,-1,116,118,120,122,-1,-1,-1,-1,-1,-1,-1,-1,-1,-1,-1,-1,-1,-1,-1,-1,-1,-1,124,-1,-1,126,-1,-1],"split_conditions":[9.674201E1,6.7740005E1,1.1919269E2,-1.8658392E1,1.31E2,1.41E2,1.3243187E2,-9.818919E-3,3.77783E1,8.6513885E1,1.45E2,1.01318436E2,1.11349594E2,1.55E2,-1.8358102E-1,7.1592204E-2,1.23E2,7.620174E1,-1.2836418E-1,8.2410934E1,-2.4048474E0,-5.0464686E-2,9.18E1,1.59E2,1.51E2,-1.262715E-1,3.8864117E1,-3.874855E-2,9.55E1,-3.185211E-3,-7.5466886E-2,2.5770845E1,8.848786E1,-2.7792864E-2,1.56E2,-0E0,-1.22919835E-1,5.7243053E1,9.961211E0,2.377E3,1E0,1E0,-3.4770884E-3,1.0505197E2,8.99022E-2,-6.418056E-2,2.7277958E-2,4.6774853E1,1E0,1.7509733E1,8.065432E1,1E0,8.76018E1,-2.3139304E-2,9.6804124E-1,-1.1143243E-1,-3.1679563E-2,3.801715E1,-6.791011E-2,-1.6448023E-2,-1.04974225E-1,2.5050716E0,-1.2292642E-2,1E0,1.4E2,1E0,-1.159839E-2,2.388E3,-1.0957143E1,9.21029E-2,-0E0,1E0,1.1218795E0,1E0,-8.915469E-2,-3.6591653E-2,6.30764E-2,1E0,1E0,1.2868172E-2,1.37E2,-0E0,1E0,-1.3890236E-2,2.234E3,-2.106946E-1,-0E0,-0E0,-9.9323735E-2,-1.7631401E-3,1.0131353E0,9.677123E-3,1.0794842E2,-5.761614E-2,2.1454518E-6,1E0,1E0,1.7738659E-2,-7.91723E-2,2.504E3,2.242E3,-9.539286E0,2.098E3,-1.5290268E-1,-0E0,-4.606859E-3,6.964128E-2,5.091193E-3,5.585243E-2,-2.7249414E-3,-1.117013E-1,-3.16992E-2,9.0246946E-2,8.277445E-2,-3.089811E-2,-6.654324E-2,5.3723905E-2,-0E0,9.624057E-2,-1.4722273E-2,4.2207334E-2,1.915E3,8.879765E-2,1.05645426E-1,1.080063E0,-0E0,8.548031E-2],"split_indices":[18,18,18,17,16,16,18,0,18,18,16,18,18,16,0,0,16,17,0,18,17,0,9,16,16,0,17,0,9,0,0,17,17,0,16,0,0,17,17,15,0,1,0,17,0,0,0,17,1,17,17,1,17,0,12,0,0,17,0,0,0,17,0,1,16,0,0,15,10,0,0,7,12,1,0,0,0,1,1,0,16,0,0,0,15,0,0,0,0,0,12,0,18,0,0,0,0,0,0,15,15,10,15,0,0,0,0,0,0,0,0,0,0,0,0,0,0,0,0,0,0,15,0,0,12,0,0],"split_type":[0,0,0,0,0,0,0,0,0,0,0,0,0,0,0,0,0,0,0,0,0,0,0,0,0,0,0,0,0,0,0,0,0,0,0,0,0,0,0,0,0,0,0,0,0,0,0,0,0,0,0,0,0,0,0,0,0,0,0,0,0,0,0,0,0,0,0,0,0,0,0,0,0,0,0,0,0,0,0,0,0,0,0,0,0,0,0,0,0,0,0,0,0,0,0,0,0,0,0,0,0,0,0,0,0,0,0,0,0,0,0,0,0,0,0,0,0,0,0,0,0,0,0,0,0,0,0],"sum_hessian":[1.03050195E5,6.4923254E4,3.812694E4,3.4593523E4,3.0329729E4,3.0342982E4,7.783958E3,2.5616E3,3.2031926E4,4.789547E3,2.5540182E4,5.3041655E3,2.5038818E4,6.6399033E3,1.1440548E3,1.2578331E4,1.9453594E4,3.481265E3,1.308282E3,1.2516661E4,1.30235205E4,1.9710132E3,3.3331523E3,1.7023725E4,8.0150933E3,3.2030198E3,3.4368835E3,2.4004673E3,1.7053127E4,1.306607E3,2.1746577E3,4.7407427E3,7.775919E3,1.4746874E3,1.1548834E4,1.4250429E2,3.190648E3,1.38549E4,3.168824E3,3.0355432E3,4.97955E3,2.4033125E3,1.0335712E3,1.3624474E4,3.4286528E3,2.241717E2,4.516571E3,7.060109E3,7.158104E2,8.527639E3,3.0211946E3,9.850056E3,4.004845E3,9.9552136E2,2.1733025E3,1.7179521E3,1.317591E3,3.827687E3,1.1518629E3,1.0247816E3,1.3785308E3,1.1726995E4,1.8974791E3,1.4986681E3,5.5614404E3,2.638868E2,4.5192365E2,7.1402344E2,7.8136157E3,2.7219407E3,2.9925388E2,4.5084883E3,5.3415674E3,3.740618E3,2.6422717E2,1.7705667E2,1.996246E3,2.1896633E3,1.6380237E3,1.8517024E3,9.875293E3,7.3988934E2,7.5877875E2,3.6572021E3,1.9042385E3,2.0751782E2,5.6368973E1,4.6547916E2,2.4854431E2,1.1865231E3,6.6270923E3,3.100809E3,1.407679E3,4.6370806E3,7.0448676E2,1.6688336E3,2.0717842E3,1.0657748E3,1.1238884E3,7.6701544E2,8.710083E2,2.9897288E3,6.885564E3,4.0470773E2,3.5407104E2,9.203882E2,9.838504E2,2.0121642E3,4.614928E3,1.0909564E3,3.1672247E2,1.4547484E3,2.1408522E2,1.4921758E3,5.796084E2,6.5259186E2,1.14423546E2,2.0902414E2,6.619842E2,6.5249506E2,2.3372336E3,2.3324375E3,4.5531265E3,4.5605576E2,1.8763817E3,1.4408922E3,4.3548956E2],"tree_param":{"num_deleted":"0","num_feature":"20","num_nodes":"127","size_leaf_vector":"1"}},{"base_weights":[-2.4718565E-3,-1.5976105E-2,8.5789725E-2,5.977717E-3,-8.0272116E-2,9.526596E-2,-1.336171E-2,3.684159E-2,-7.646974E-3,-1.3104068E-1,-4.513231E-2,2.8482733E-2,1.1562566E-1,-1.1403747E-2,6.060263E-2,-4.394261E-2,6.2491647E-3,-1.8346107E-1,-0E0,1.2244647E-2,-1.9281417E-1,2.2950906E-2,7.183327E-2,-7.4411035E-2,1.9281566E-2,-0E0,8.818125E-2,-0E0,-7.685015E-2,1.1249483E-2,-1.13836065E-1,-2.539644E-3,-2.1563743E-1,-2.6474133E-2,5.7348847E-2,-1.3921915E-1,6.0681473E-2,-0E0,-2.2223689E-1,1.0755114E-1,1.3896475E-2,2.9605456E-2,-1.18540645E-1,-1.5752004E-1,-3.662394E-3,-3.2329842E-2,2.144927E-2,-1.9246767E-1,6.9429167E-3,-1.8822795E-1,-2.0780462E-1,-1.4072223E-1,-4.749931E-2,3.4191255E-2,8.600176E-2,-2.0160882E-2,-2.562228E-1,7.297388E-2,4.4353813E-2,5.5706795E-2,-1.581597E-2,-2.245574E-1,-5.0895166E-2,1.2480664E-2,-6.128038E-2,-6.404209E-2,2.4647031E-2,3.5789836E-2,-3.4101552E-3,-1.2703352E-1,-0E0,-1.2505955E-1,-1.1797952E-1,-1.1689064E-2,6.456484E-2,-1.957829E-1,-1.9660808E-1,-1.494229E-2,5.0154775E-2,-2.334599E-2,8.824908E-2,-1.4543025E-1,-1.8211704E-2,7.284601E-2,-1.6365086E-3,-8.487711E-2,-3.7023026E-2,5.6146327E-2,5.4781763E-3,-7.3647965E-3,-8.948495E-2,-3.30869E-2,4.477201E-2,-1.1817919E-1,-0E0,1.6649704E-1,2.3468891E-2,-4.430206E-2,8.7870825E-3,8.463182E-3,4.390735E-2,2.2296604E-2,-2.5428979E-2,1.1281101E-1,-0E0,-3.26516E-2,2.555164E-2],"categories":[],"categories_nodes":[],"categories_segments":[],"categories_sizes":[],"default_left":[0,1,0,1,0,0,0,0,0,0,0,0,0,0,1,0,0,0,0,0,0,0,0,0,0,0,0,0,0,0,0,0,0,0,0,0,0,0,0,0,0,0,0,0,0,0,0,1,0,1,0,0,0,0,0,0,0,0,0,0,0,0,0,0,0,0,0,0,0,0,0,0,0,0,1,0,0,0,0,0,0,0,0,0,0,0,1,0,0,0,0,0,0,0,0,1,0,0,0,0,0,0,0,0,0,0,0],"id":3,"left_children":[1,3,5,7,9,11,-1,13,15,17,19,-1,21,23,25,27,29,31,33,35,37,-1,-1,-1,-1,-1,39,41,43,45,47,-1,49,-1,-1,51,53,-1,55,57,-1,59,-1,61,63,65,67,69,-1,71,-1,-1,-1,73,-1,-1,75,-1,77,79,-1,81,-1,83,-1,85,-1,87,-1,-1,-1,-1,89,-1,91,93,-1,-1,-1,-1,95,-1,-1,-1,-1,-1,97,99,101,-1,-1,-1,-1,-1,-1,103,-1,-1,-1,-1,-1,-1,105,-1,-1,-1,-1],"loss_changes":[1.2146738E2,1.2667172E2,1.5022751E1,2.8251165E1,3.833638E1,8.885315E0,0E0,2.4217976E1,2.3554121E1,6.436337E1,1.18318016E2,0E0,6.6001053E0,3.9493034E1,2.2763672E1,1.8192945E1,1.8608671E1,3.527153E1,1.3730162E1,7.1748604E1,2.261766E1,0E0,0E0,0E0,0E0,0E0,9.921837E0,3.7457485E1,4.118458E1,1.4011904E1,1.4429341E1,0E0,1.4239746E1,0E0,0E0,9.310753E0,1.6512106E1,0E0,1.7467926E1,8.684601E0,0E0,7.9864287E0,0E0,1.0135735E1,8.085781E0,1.4564798E1,1.0648937E1,6.838463E0,0E0,7.723755E0,0E0,0E0,0E0,1.0783701E1,0E0,0E0,7.0007477E0,0E0,8.175604E0,1.2215582E1,0E0,7.596306E0,0E0,7.7911186E0,0E0,7.752369E0,0E0,9.98044E0,0E0,0E0,0E0,0E0,6.69845E0,0E0,8.833704E0,6.8073044E0,0E0,0E0,0E0,0E0,7.2498894E0,0E0,0E0,0E0,0E0,0E0,8.662518E0,8.498314E0,8.066942E0,0E0,0E0,0E0,0E0,0E0,0E0,6.9934235E0,0E0,0E0,0E0,0E0,0E0,0E0,9.228685E0,0E0,0E0,0E0,0E0],"parents":[2147483647,0,0,1,1,2,2,3,3,4,4,5,5,7,7,8,8,9,9,10,10,12,12,13,13,14,14,15,15,16,16,17,17,18,18,19,19,20,20,26,26,27,27,28,28,29,29,30,30,32,32,35,35,36,36,38,38,39,39,41,41,43,43,44,44,45,45,46,46,47,47,49,49,53,53,56,56,58,58,59,59,61,61,63,63,65,65,67,67,72,72,74,74,75,75,80,80,86,86,87,87,88,88,95,95,102,102],"right_children":[2,4,6,8,10,12,-1,14,16,18,20,-1,22,24,26,28,30,32,34,36,38,-1,-1,-1,-1,-1,40,42,44,46,48,-1,50,-1,-1,52,54,-1,56,58,-1,60,-1,62,64,66,68,70,-1,72,-1,-1,-1,74,-1,-1,76,-1,78,80,-1,82,-1,84,-1,86,-1,88,-1,-1,-1,-1,90,-1,92,94,-1,-1,-1,-1,96,-1,-1,-1,-1,-1,98,100,102,-1,-1,-1,-1,-1,-1,104,-1,-1,-1,-1,-1,-1,106,-1,-1,-1,-1],"split_conditions":[1E0,1.22050606E2,1.343049E2,9.62126E1,1E0,-2.7414808E-1,-1.336171E-2,8.7520856E-1,4.2898537E1,-1.4021048E-1,1E0,2.8482733E-2,2.197799E1,2.3889923E1,-5.350556E0,1E0,4.3625194E-1,4.2898537E1,8.891991E1,5.050944E1,3.970385E1,2.2950906E-2,7.183327E-2,-7.4411035E-2,1.9281566E-2,-0E0,1E0,1.5542954E-1,-1.4843562E-1,-3.4171325E-1,1.00515045E2,-2.539644E-3,1.3986462E2,-2.6474133E-2,5.7348847E-2,2.5770845E1,-1.8812424E-1,-0E0,6.0018306E0,9.046897E1,1.3896475E-2,9.67691E-1,-1.18540645E-1,9.267818E-1,3.2102567E-1,9.6353775E1,1E0,5.5E-1,6.9429167E-3,6.6323056E0,-2.0780462E-1,-1.4072223E-1,-4.749931E-2,7.575744E1,8.600176E-2,-2.0160882E-2,1.3278738E2,7.297388E-2,9.2747955E1,-3.3622485E-1,-1.581597E-2,3.8864117E1,-5.0895166E-2,9.0175277E-1,-6.128038E-2,8.1502724E-1,2.4647031E-2,1E0,-3.4101552E-3,-1.2703352E-1,-0E0,-1.2505955E-1,1.2624506E2,-1.1689064E-2,5.8582873E0,1.1577041E2,-1.9660808E-1,-1.494229E-2,5.0154775E-2,-2.334599E-2,2.3889923E1,-1.4543025E-1,-1.8211704E-2,7.284601E-2,-1.6365086E-3,-8.487711E-2,6.520822E0,8.8719666E-1,1.1199188E2,-7.3647965E-3,-8.948495E-2,-3.30869E-2,4.477201E-2,-1.1817919E-1,-0E0,5.714286E-1,2.3468891E-2,-4.430206E-2,8.7870825E-3,8.463182E-3,4.390735E-2,2.2296604E-2,1.19255905E2,1.1281101E-1,-0E0,-3.26516E-2,2.555164E-2],"split_indices":[5,19,19,19,1,13,0,14,17,13,0,0,17,17,17,1,13,17,17,17,17,0,0,0,0,0,8,13,13,13,17,0,19,0,0,17,13,0,11,19,0,14,0,14,13,17,7,10,0,11,0,0,0,17,0,0,19,0,19,13,0,17,0,14,0,14,0,8,0,0,0,0,19,0,11,17,0,0,0,0,17,0,0,0,0,0,11,14,19,0,0,0,0,0,0,10,0,0,0,0,0,0,19,0,0,0,0],"split_type":[0,0,0,0,0,0,0,0,0,0,0,0,0,0,0,0,0,0,0,0,0,0,0,0,0,0,0,0,0,0,0,0,0,0,0,0,0,0,0,0,0,0,0,0,0,0,0,0,0,0,0,0,0,0,0,0,0,0,0,0,0,0,0,0,0,0,0,0,0,0,0,0,0,0,0,0,0,0,0,0,0,0,0,0,0,0,0,0,0,0,0,0,0,0,0,0,0,0,0,0,0,0,0,0,0,0,0],"sum_hessian":[1.025023E5,8.905099E4,1.3451311E4,6.627897E4,2.2772023E4,1.2489494E4,9.618164E2,2.05398E4,4.5739164E4,9.122976E3,1.3649048E4,4.2083965E3,8.281097E3,6.6212295E3,1.3918571E4,1.2871158E4,3.2868008E4,6.543173E3,2.579803E3,9.80372E3,3.8453281E3,1.5136168E3,6.7674805E3,1.8527795E3,4.76845E3,4.442478E3,9.476093E3,5.6147354E3,7.2564233E3,3.1690684E4,1.1773225E3,1.0621997E3,5.480973E3,1.7335797E3,8.462233E2,2.294349E3,7.5093706E3,5.0469455E2,3.3406335E3,7.0784155E3,2.3976775E3,4.944322E3,6.704135E2,3.3483628E3,3.9080603E3,5.7700684E3,2.5920615E4,7.6826263E2,4.0905984E2,4.8338203E3,6.471526E2,5.960808E2,1.6982684E3,6.0208027E3,1.4885677E3,5.86102E2,2.7545317E3,4.924708E3,2.1537078E3,3.5563132E3,1.3880087E3,1.5060138E3,1.842349E3,3.3375405E3,5.7051984E2,4.2010293E3,1.569039E3,1.7336014E4,8.584602E3,6.530406E2,1.15222E2,2.9534155E3,1.8804049E3,1.9999307E3,4.020872E3,1.8775015E3,8.770301E2,7.559506E2,1.397757E3,7.9222516E2,2.7640881E3,1.1863533E3,3.1966052E2,4.2888806E2,2.9086523E3,8.1939966E2,3.3816296E3,1.0112403E4,7.223611E3,6.551051E2,1.2252998E3,3.7139087E2,3.6494812E3,1.7131774E3,1.6432416E2,8.776366E2,1.8864514E3,1.9722562E3,1.4093734E3,3.892371E3,6.2200317E3,3.5668542E3,3.6567566E3,7.3490857E2,1.4272807E2,2.6062002E3,1.0505564E3],"tree_param":{"num_deleted":"0","num_feature":"20","num_nodes":"107","size_leaf_vector":"1"}},{"base_weights":[-2.3368893E-3,2.000597E-2,-2.2130854E-2,1.0372821E-2,5.47976E-2,-5.1611164E-3,-5.0637875E-2,1.2890155E-4,3.316811E-2,5.16041E-3,4.5881245E-2,1.7145561E-2,-1.7779315E-2,-7.927721E-2,-1.2136678E-2,-2.659779E-2,3.3808168E-2,4.986175E-3,6.850476E-2,-5.5754934E-2,-7.157339E-2,-1.6238041E-2,-5.3129643E-2,4.576063E-2,-8.324715E-3,-0E0,6.706986E-2,-5.1762674E-2,-1.270802E-2,-3.8628753E-2,3.2094453E-2,3.358848E-2,6.496597E-2,-5.0419066E-2,1.3565213E-2,-5.0637305E-2,8.65821E-3,5.1696483E-2,-0E0,4.2052954E-2,3.660278E-3,-5.233202E-3,-4.6705376E-2],"categories":[],"categories_nodes":[],"categories_segments":[],"categories_sizes":[],"default_left":[0,0,0,0,0,0,0,0,0,0,0,0,0,0,0,0,0,0,0,0,0,0,0,0,0,0,0,0,0,0,0,1,0,0,0,0,0,0,0,0,0,0,0],"id":4,"left_children":[1,3,5,7,9,11,13,15,-1,-1,-1,17,-1,19,-1,21,23,-1,25,27,-1,29,-1,31,33,-1,-1,-1,-1,35,37,39,-1,-1,-1,41,-1,-1,-1,-1,-1,-1,-1],"loss_changes":[4.5238808E1,1.5201523E1,2.5684328E1,1.847868E1,1.1809822E1,2.0985493E1,1.5188667E1,2.8497667E1,0E0,0E0,0E0,6.837007E0,0E0,9.062794E0,0E0,1.1135973E1,7.594452E0,0E0,9.5531025E0,7.12562E0,0E0,1.6752289E1,0E0,7.8631535E0,8.948084E0,0E0,0E0,0E0,0E0,7.41879E0,8.968757E0,1.0276233E1,0E0,0E0,0E0,1.132382E1,0E0,0E0,0E0,0E0,0E0,0E0,0E0],"parents":[2147483647,0,0,1,1,2,2,3,3,4,4,5,5,6,6,7,7,11,11,13,13,15,15,16,16,18,18,19,19,21,21,23,23,24,24,29,29,30,30,31,31,35,35],"right_children":[2,4,6,8,10,12,14,16,-1,-1,-1,18,-1,20,-1,22,24,-1,26,28,-1,30,-1,32,34,-1,-1,-1,-1,36,38,40,-1,-1,-1,42,-1,-1,-1,-1,-1,-1,-1],"split_conditions":[1.1007991E2,1E0,1E0,1E0,-2.547268E-1,1E0,1E0,1E0,3.316811E-2,5.16041E-3,4.5881245E-2,1E0,-1.7779315E-2,-8.610786E-2,-1.2136678E-2,3.2102567E-1,2.2833753E-1,4.986175E-3,-2.448971E-1,1E0,-7.157339E-2,-1.6271977E-1,-5.3129643E-2,-8.610786E-2,1E0,-0E0,6.706986E-2,-5.1762674E-2,-1.270802E-2,1.61E2,-7.015821E-2,1.41E2,6.496597E-2,-5.0419066E-2,1.3565213E-2,1E0,8.65821E-3,5.1696483E-2,-0E0,4.2052954E-2,3.660278E-3,-5.233202E-3,-4.6705376E-2],"split_indices":[19,4,2,5,13,3,6,6,0,0,0,6,0,13,0,13,13,0,13,1,0,13,0,13,1,0,0,0,0,16,13,16,0,0,0,1,0,0,0,0,0,0,0],"split_type":[0,0,0,0,0,0,0,0,0,0,0,0,0,0,0,0,0,0,0,0,0,0,0,0,0,0,0,0,0,0,0,0,0,0,0,0,0,0,0,0,0,0,0],"sum_hessian":[1.0213858E5,4.7698156E4,5.444042E4,3.7671086E4,1.0027071E4,3.4422336E4,2.0018088E4,3.1468441E4,6.2026455E3,4.0297861E3,5.997285E3,1.8626568E4,1.5795767E4,9.764302E3,1.0253786E4,1.735433E4,1.4114111E4,1.6332218E4,2.2943499E3,6.882522E3,2.88178E3,1.5305368E4,2.0489612E3,1.1211223E4,2.9028894E3,9.487052E2,1.3456445E3,2.9787456E3,3.9037764E3,1.0634136E4,4.6712324E3,9.788478E3,1.4227445E3,9.023623E2,2.0005272E3,8.890003E3,1.744132E3,1.5310157E3,3.1402168E3,3.5924827E3,6.195995E3,4.2016973E3,4.688306E3],"tree_param":{"num_deleted":"0","num_feature":"20","num_nodes":"43","size_leaf_vector":"1"}},{"base_weights":[-8.544903E-4,5.0240656E-4,-7.081828E-2,-2.9917104E-2,4.7516935E-3,-1.7650235E-2,-7.4215494E-2,-8.4966095E-3,1.9793909E-2,-2.044793E-2,1.0960477E-2,1.05643936E-1,-1.0173446E-2,1.0840533E-2,3.1641863E-2,-2.7946508E-3,-3.4768067E-2,2.4171118E-2,-1.1754582E-2,-1.3228287E-2,7.7576134E-3,-2.8126047E-3,-6.814196E-2,2.1247156E-2,-2.8694991E-4,-1.4188762E-2,2.7053459E-2,-1.0926796E-2,1.5064893E-2,-7.886406E-2,-3.786838E-2,-3.244289E-2,9.918997E-3,-0E0,-7.0094414E-2,-7.65448E-4,-5.4828886E-2,-1.1575794E-1,4.5123436E-2,-0E0,-9.56918E-2],"categories":[],"categories_nodes":[],"categories_segments":[],"categories_sizes":[],"default_left":[0,0,0,0,1,0,0,0,0,0,0,0,0,0,0,1,0,0,0,0,0,0,1,0,0,0,0,0,0,0,0,0,0,0,0,0,0,0,0,0,0],"id":5,"left_children":[1,3,-1,5,7,9,-1,11,13,-1,-1,-1,15,17,-1,19,21,23,25,-1,27,-1,29,-1,31,-1,-1,33,-1,-1,35,-1,-1,-1,37,-1,-1,39,-1,-1,-1],"loss_changes":[1.9151966E1,1.2753463E1,0E0,1.3499593E1,1.786566E1,8.172951E0,0E0,1.3653711E1,1.3286743E1,0E0,0E0,0E0,8.0092945E0,1.0487553E1,0E0,8.29952E0,9.397206E0,8.112846E0,1.0295342E1,0E0,8.911195E0,0E0,8.203793E0,0E0,8.875357E0,0E0,0E0,7.1025953E0,0E0,0E0,6.678784E0,0E0,0E0,0E0,1.2884155E1,0E0,0E0,7.948641E0,0E0,0E0,0E0],"parents":[2147483647,0,0,1,1,3,3,4,4,5,5,7,7,8,8,12,12,13,13,15,15,16,16,17,17,18,18,20,20,22,22,24,24,27,27,30,30,34,34,37,37],"right_children":[2,4,-1,6,8,10,-1,12,14,-1,-1,-1,16,18,-1,20,22,24,26,-1,28,-1,30,-1,32,-1,-1,34,-1,-1,36,-1,-1,-1,38,-1,-1,40,-1,-1,-1],"split_conditions":[1.4575989E2,8.258844E-1,-7.081828E-2,1.26468956E2,6.49235E0,9.42E1,-7.4215494E-2,8.26E1,9.66E1,-2.044793E-2,1.0960477E-2,1.05643936E-1,1.22982925E2,1E0,3.1641863E-2,2.175E3,1.46E2,1.162857E2,1.61E2,-1.3228287E-2,6.1824827E0,-2.8126047E-3,2.26E3,2.1247156E-2,2.183E3,-1.4188762E-2,2.7053459E-2,6.12879E0,1.5064893E-2,-7.886406E-2,9.62E1,-3.244289E-2,9.918997E-3,-0E0,1.61E2,-7.65448E-4,-5.4828886E-2,1.41E2,4.5123436E-2,-0E0,-9.56918E-2],"split_indices":[19,14,0,19,11,9,0,9,9,0,0,0,19,2,0,15,16,19,16,0,11,0,15,0,15,0,0,11,0,0,9,0,0,0,16,0,0,16,0,0,0],"split_type":[0,0,0,0,0,0,0,0,0,0,0,0,0,0,0,0,0,0,0,0,0,0,0,0,0,0,0,0,0,0,0,0,0,0,0,0,0,0,0,0,0],"sum_hessian":[1.0199451E5,1.0087426E5,1.120247E3,1.198614E4,8.888812E4,1.0878118E4,1.1080219E3,4.685384E4,4.2034277E4,7.381949E3,3.496169E3,2.8602167E2,4.656782E4,3.4236145E4,7.7981343E3,3.6233195E4,1.0334625E4,2.1860746E4,1.2375398E4,1.2413274E4,2.381992E4,5.687831E3,4.646794E3,1.4086286E4,7.77446E3,1.0247609E4,2.127789E3,1.1869049E4,1.1950871E4,1.1764648E3,3.470329E3,1.978929E3,5.795531E3,1.0181776E4,1.6872727E3,2.3287607E3,1.1415684E3,1.365912E3,3.2136072E2,5.176919E2,8.482201E2],"tree_param":{"num_deleted":"0","num_feature":"20","num_nodes":"41","size_leaf_vector":"1"}},{"base_weights":[-7.5418904E-4,2.3362141E-2,-1.3219243E-2,-1.0541051E-2,3.5018846E-2,-3.6347143E-2,-8.690129E-3,3.0974278E-3,-5.4976933E-2,4.4618294E-2,1.4241245E-2,-2.8715491E-2,8.928396E-4,-5.1974855E-2,1.2165255E-2,-4.123747E-2,-1.210134E-3,1.4029961E-2,-1.9735204E-2,9.9498425E-3,-9.8388486E-2,9.038353E-3,-9.211489E-2,4.5155447E-2,-1.9038154E-3,-7.115911E-2,1.23208985E-2,-6.167934E-3,1.0769622E-1,-0E0,1.171356E-1],"categories":[],"categories_nodes":[],"categories_segments":[],"categories_sizes":[],"default_left":[0,0,0,0,1,0,0,0,0,0,0,1,0,0,0,0,0,0,0,0,0,0,0,0,1,0,0,0,0,0,0],"id":6,"left_children":[1,3,5,7,9,-1,11,-1,13,-1,-1,15,17,-1,-1,-1,19,21,-1,23,25,-1,-1,-1,27,-1,-1,-1,29,-1,-1],"loss_changes":[3.056169E1,1.3924723E1,1.51896515E1,6.7659163E0,9.586966E0,0E0,1.2327421E1,0E0,8.455671E0,0E0,0E0,2.5168186E1,1.99358E1,0E0,0E0,0E0,1.5322039E1,1.1473196E1,0E0,1.0912323E1,6.7837496E0,0E0,0E0,0E0,9.0095005E0,0E0,0E0,0E0,8.619713E0,0E0,0E0],"parents":[2147483647,0,0,1,1,2,2,3,3,4,4,6,6,8,8,11,11,12,12,16,16,17,17,19,19,20,20,24,24,28,28],"right_children":[2,4,6,8,10,-1,12,-1,14,-1,-1,16,18,-1,-1,-1,20,22,-1,24,26,-1,-1,-1,28,-1,-1,-1,30,-1,-1],"split_conditions":[6.7740005E1,7.244388E1,8.290833E-1,6.1369358E1,8.9419426E1,-3.6347143E-2,-2.6024476E-1,3.0974278E-3,9.31E1,4.4618294E-2,1.4241245E-2,1.0277644E0,2.2833753E-1,-5.1974855E-2,1.2165255E-2,-4.123747E-2,1.1750007E2,1.3820567E2,-1.9735204E-2,9.28E1,1E0,9.038353E-3,-9.211489E-2,4.5155447E-2,1.335258E2,-7.115911E-2,1.23208985E-2,-6.167934E-3,-3.327167E-1,-0E0,1.171356E-1],"split_indices":[18,19,14,19,19,0,13,0,9,0,0,12,13,0,0,0,18,18,0,9,5,0,0,0,19,0,0,0,13,0,0],"split_type":[0,0,0,0,0,0,0,0,0,0,0,0,0,0,0,0,0,0,0,0,0,0,0,0,0,0,0,0,0,0,0],"sum_hessian":[1.01968414E5,3.4406875E4,6.756154E4,8.543824E3,2.586305E4,5.098649E3,6.2462895E4,6.1013223E3,2.4425022E3,4.0660435E3,2.1797008E4,2.0586486E4,4.1876406E4,1.7148582E3,7.2764404E2,7.517414E3,1.3069072E4,3.108039E4,1.0796018E4,1.1651858E4,1.4172139E3,3.0792328E4,2.8806192E2,1.7529475E3,9.898911E3,1.2077665E3,2.0944731E2,9.26708E3,6.31831E2,3.1274344E2,3.1908755E2],"tree_param":{"num_deleted":"0","num_feature":"20","num_nodes":"31","size_leaf_vector":"1"}},{"base_weights":[-2.476001E-4,9.863558E-3,-1.0601673E-2,-5.4014344E-3,2.7402086E-2,-9.620039E-2,-7.6318546E-3,4.336708E-3,-3.456876E-2,-7.141921E-4,4.4068944E-2,-4.8642748E-4,-9.3905754E-2,-2.2579225E-2,4.111193E-3,-4.299161E-2,4.4170305E-2,-6.19978E-2,4.920698E-2,-4.167255E-3,-4.5612864E-2,1.2022299E-2,-1.429825E-2,-2.889306E-2,3.4674566E-2,1.0767684E-2,-1.4901407E-1,6.1146792E-2,1.1196778E-3,-3.633182E-2,-0E0,-1.0668373E-1,-4.890569E-3,5.7287775E-2,2.4231315E-2,-9.345022E-4,-1.02645345E-1,3.6747694E-2,-8.178775E-3],"categories":[],"categories_nodes":[],"categories_segments":[],"categories_sizes":[],"default_left":[0,0,0,1,0,0,0,0,1,0,0,0,0,0,1,0,0,0,1,0,0,0,0,0,0,0,0,0,0,0,0,0,0,0,0,0,0,0,0],"id":7,"left_children":[1,3,5,7,9,11,13,-1,15,-1,17,-1,-1,19,21,23,-1,25,27,-1,29,-1,31,-1,-1,-1,-1,33,-1,-1,-1,35,37,-1,-1,-1,-1,-1,-1],"loss_changes":[1.0678567E1,1.3917864E1,1.1680239E1,1.074222E1,1.2033897E1,9.007295E0,8.896632E0,0E0,8.122664E0,0E0,8.444181E0,0E0,0E0,7.0377893E0,8.9651375E0,8.146741E0,0E0,1.3903742E1,7.6501236E0,0E0,7.4853344E0,0E0,9.990955E0,0E0,0E0,0E0,0E0,6.6400604E0,0E0,0E0,0E0,6.7911205E0,7.937438E0,0E0,0E0,0E0,0E0,0E0,0E0],"parents":[2147483647,0,0,1,1,2,2,3,3,4,4,5,5,6,6,8,8,10,10,13,13,14,14,15,15,17,17,18,18,20,20,22,22,27,27,31,31,32,32],"right_children":[2,4,6,8,10,12,14,-1,16,-1,18,-1,-1,20,22,24,-1,26,28,-1,30,-1,32,-1,-1,-1,-1,34,-1,-1,-1,36,38,-1,-1,-1,-1,-1,-1],"split_conditions":[8.620204E1,2.22E3,1.3E2,1.0645499E0,8.364776E1,1.22050606E2,2.292E3,4.336708E-3,1.3357143E0,-7.141921E-4,1.11E2,-4.8642748E-4,-9.3905754E-2,1.0551884E2,2.413E3,1.1647885E0,4.4170305E-2,4.5739456E1,1.46E2,-4.167255E-3,1E0,1.2022299E-2,1.0042438E2,-2.889306E-2,3.4674566E-2,1.0767684E-2,-1.4901407E-1,-8.5E0,1.1196778E-3,-3.633182E-2,-0E0,1E0,9.674201E1,5.7287775E-2,2.4231315E-2,-9.345022E-4,-1.02645345E-1,3.6747694E-2,-8.178775E-3],"split_indices":[18,15,16,12,19,19,15,0,10,0,16,0,0,18,15,12,0,18,16,0,6,0,19,0,0,0,0,10,0,0,0,1,18,0,0,0,0,0,0],"split_type":[0,0,0,0,0,0,0,0,0,0,0,0,0,0,0,0,0,0,0,0,0,0,0,0,0,0,0,0,0,0,0,0,0,0,0,0,0,0,0],"sum_hessian":[1.0182069E5,5.0935848E4,5.0884844E4,2.6888973E4,2.4046875E4,1.521784E3,4.936306E4,1.823285E4,8.656124E3,8.589901E3,1.5456973E4,7.554228E2,7.6636127E2,2.2143598E4,2.7219459E4,8.187563E3,4.685611E2,5.829336E2,1.4874039E4,1.3748356E4,8.395241E3,1.4219698E4,1.2999762E4,7.650225E3,5.3733795E2,4.0887228E2,1.740613E2,1.1658007E4,3.216032E3,5.742831E3,2.6524106E3,1.0390398E3,1.1960722E4,3.0986428E3,8.559364E3,5.3207635E2,5.0696347E2,1.2789404E3,1.0681781E4],"tree_param":{"num_deleted":"0","num_feature":"20","num_nodes":"39","size_leaf_vector":"1"}},{"base_weights":[-2.444923E-4,-2.9101107E-2,2.037028E-3,-4.63801E-3,-3.298162E-2],"categories":[],"categories_nodes":[],"categories_segments":[],"categories_sizes":[],"default_left":[1,0,0,0,0],"id":8,"left_children":[1,3,-1,-1,-1],"loss_changes":[1.1859915E1,7.138345E0,0E0,0E0,0E0],"parents":[2147483647,0,0,1,1],"right_children":[2,4,-1,-1,-1],"split_conditions":[1.4001528E1,-5.1111114E-1,2.037028E-3,-4.63801E-3,-3.298162E-2],"split_indices":[17,10,0,0,0],"split_type":[0,0,0,0,0],"sum_hessian":[1.0176811E5,1.2529809E4,8.9238305E4,7.7416836E3,4.7881245E3],"tree_param":{"num_deleted":"0","num_feature":"20","num_nodes":"5","size_leaf_vector":"1"}},{"base_weights":[-1.7037423E-4,4.4466037E-2,-2.153767E-3,3.8125753E-2,-3.8874365E-2,-4.6383226E-3,5.6040348E-3],"categories":[],"categories_nodes":[],"categories_segments":[],"categories_sizes":[],"default_left":[0,0,0,0,0,0,0],"id":9,"left_children":[1,3,5,-1,-1,-1,-1],"loss_changes":[8.51669E0,1.1720613E1,7.4920983E0,0E0,0E0,0E0,0E0],"parents":[2147483647,0,0,1,1,2,2],"right_children":[2,4,6,-1,-1,-1,-1],"split_conditions":[1.2247002E1,9.52E1,1E0,3.8125753E-2,-3.8874365E-2,-4.6383226E-3,5.6040348E-3],"split_indices":[18,9,6,0,0,0,0],"split_type":[0,0,0,0,0,0,0],"sum_hessian":[1.017721E5,4.031539E3,9.774056E4,3.4222734E3,6.0926556E2,6.548123E4,3.2259332E4],"tree_param":{"num_deleted":"0","num_feature":"20","num_nodes":"7","size_leaf_vector":"1"}},{"base_weights":[-0E0,7.4118753E-3,-1.3138604E-2,-3.6865934E-3,1.7344935E-2,-3.6419395E-2,-1.0079434E-3,3.3062015E-2,-5.032623E-4,1.5975777E-2,-5.030856E-2,-2.7465127E-2,2.0897193E-2,-4.6349153E-2,-1.7683692E-2,-2.1279233E-2,2.4749925E-2],"categories":[],"categories_nodes":[],"categories_segments":[],"categories_sizes":[],"default_left":[0,1,0,0,0,0,0,0,0,0,1,0,0,0,0,0,0],"id":10,"left_children":[1,3,5,-1,7,9,-1,11,-1,-1,13,-1,-1,-1,15,-1,-1],"loss_changes":[9.973261E0,9.175613E0,9.342664E0,0E0,1.1404723E1,1.1052513E1,0E0,8.237087E0,0E0,0E0,9.593983E0,0E0,0E0,0E0,6.8727794E0,0E0,0E0],"parents":[2147483647,0,0,1,1,2,2,4,4,5,5,7,7,10,10,14,14],"right_children":[2,4,6,-1,8,10,-1,12,-1,-1,14,-1,-1,-1,16,-1,-1],"split_conditions":[1E0,6.3867354E0,8.8330793E-1,-3.6865934E-3,1E0,2.4639763E1,-1.0079434E-3,1.9867533E1,-5.032623E-4,1.5975777E-2,1.36E2,-2.7465127E-2,2.0897193E-2,-4.6349153E-2,-1.8158911E-1,-2.1279233E-2,2.4749925E-2],"split_indices":[2,11,14,0,3,18,0,18,0,0,16,0,0,0,13,0,0],"split_type":[0,0,0,0,0,0,0,0,0,0,0,0,0,0,0,0,0],"sum_hessian":[1.01744086E5,6.4586613E4,3.7157477E4,2.6222209E4,3.8364402E4,1.1774165E4,2.538331E4,2.0944223E4,1.742018E4,1.9051334E3,9.869031E3,9.807309E2,1.9963492E4,4.645548E3,5.223484E3,4.0733894E3,1.1500944E3],"tree_param":{"num_deleted":"0","num_feature":"20","num_nodes":"17","size_leaf_vector":"1"}},{"base_weights":[-1.4762192E-4,-8.307906E-2,4.233249E-4,3.8643125E-3,-7.651577E-2],"categories":[],"categories_nodes":[],"categories_segments":[],"categories_sizes":[],"default_left":[0,0,0,0,0],"id":11,"left_children":[1,3,-1,-1,-1],"loss_changes":[8.694409E0,7.8569527E0,0E0,0E0,0E0],"parents":[2147483647,0,0,1,1],"right_children":[2,4,-1,-1,-1],"split_conditions":[-5.088643E-1,1.05E2,4.233249E-4,3.8643125E-3,-7.651577E-2],"split_indices":[13,16,0,0,0],"split_type":[0,0,0,0,0],"sum_hessian":[1.0172768E5,1.2035088E3,1.00524164E5,3.9292886E2,8.1057996E2],"tree_param":{"num_deleted":"0","num_feature":"20","num_nodes":"5","size_leaf_vector":"1"}},{"base_weights":[-0E0],"categories":[],"categories_nodes":[],"categories_segments":[],"categories_sizes":[],"default_left":[0],"id":12,"left_children":[-1],"loss_changes":[0E0],"parents":[2147483647],"right_children":[-1],"split_conditions":[-0E0],"split_indices":[0],"split_type":[0],"sum_hessian":[1.0172283E5],"tree_param":{"num_deleted":"0","num_feature":"20","num_nodes":"1","size_leaf_vector":"1"}},{"base_weights":[-0E0],"categories":[],"categories_nodes":[],"categories_segments":[],"categories_sizes":[],"default_left":[0],"id":13,"left_children":[-1],"loss_changes":[0E0],"parents":[2147483647],"right_children":[-1],"split_conditions":[-0E0],"split_indices":[0],"split_type":[0],"sum_hessian":[1.01724875E5],"tree_param":{"num_deleted":"0","num_feature":"20","num_nodes":"1","size_leaf_vector":"1"}},{"base_weights":[-0E0],"categories":[],"categories_nodes":[],"categories_segments":[],"categories_sizes":[],"default_left":[0],"id":14,"left_children":[-1],"loss_changes":[0E0],"parents":[2147483647],"right_children":[-1],"split_conditions":[-0E0],"split_indices":[0],"split_type":[0],"sum_hessian":[1.0172438E5],"tree_param":{"num_deleted":"0","num_feature":"20","num_nodes":"1","size_leaf_vector":"1"}},{"base_weights":[-0E0,-9.450626E-3,7.57354E-3,-2.7776074E-2,4.4844326E-4,-5.1489472E-3,2.5909087E-2,2.2854751E-2,-1.9956717E-2,2.973029E-3,-3.1375896E-2,6.481946E-2,2.1556769E-2,3.938358E-2,-2.5581785E-2,-1.0564533E-2,1.4884767E-2,-7.058007E-2,-7.167436E-3,-8.610722E-3,1.6196163E-2,-1.8894281E-2,1.013862E-2,-1.2800492E-1,3.60396E-2,1.0974422E-2,-9.756812E-2,1.8494193E-2,-9.1944344E-2,-9.5511995E-2,-0E0],"categories":[],"categories_nodes":[],"categories_segments":[],"categories_sizes":[],"default_left":[1,1,1,0,0,0,0,0,0,0,0,0,0,0,0,0,0,0,0,0,0,0,0,0,0,0,0,0,0,0,0],"id":15,"left_children":[1,3,5,7,-1,9,11,13,-1,15,17,-1,19,-1,-1,21,-1,23,25,-1,-1,-1,-1,27,-1,-1,29,-1,-1,-1,-1],"loss_changes":[7.302684E0,8.927261E0,1.33300495E1,7.3204584E0,0E0,7.3185425E0,7.524293E0,7.8712244E0,0E0,8.2266035E0,6.7351866E0,0E0,6.6667557E0,0E0,0E0,1.0820828E1,0E0,2.3745115E1,1.3833246E1,0E0,0E0,0E0,0E0,1.49710045E1,0E0,0E0,9.414229E0,0E0,0E0,0E0,0E0],"parents":[2147483647,0,0,1,1,2,2,3,3,5,5,6,6,7,7,9,9,10,10,12,12,15,15,17,17,18,18,23,23,26,26],"right_children":[2,4,6,8,-1,10,12,14,-1,16,18,-1,20,-1,-1,22,-1,24,26,-1,-1,-1,-1,28,-1,-1,30,-1,-1,-1,-1],"split_conditions":[5.4612633E1,-6.5529413E0,2.262E3,6.1369358E1,4.4844326E-4,1.20975044E2,8.888444E1,-1.7633462E-1,-1.9956717E-2,9.4E1,1E0,6.481946E-2,-3.530303E-1,3.938358E-2,-2.5581785E-2,2.117E3,1.4884767E-2,-7.8900024E-2,1.3063593E-1,-8.610722E-3,1.6196163E-2,-1.8894281E-2,1.013862E-2,4.9913788E1,3.60396E-2,1.0974422E-2,2.880921E-1,1.8494193E-2,-9.1944344E-2,-9.5511995E-2,-0E0],"split_indices":[17,10,15,19,0,19,19,13,0,9,1,0,13,0,0,15,0,13,13,0,0,0,0,18,0,0,13,0,0,0,0],"split_type":[0,0,0,0,0,0,0,0,0,0,0,0,0,0,0,0,0,0,0,0,0,0,0,0,0,0,0,0,0,0,0],"sum_hessian":[1.0172566E5,4.5713855E4,5.60118E4,1.679612E4,2.8917736E4,3.2705562E4,2.3306236E4,2.165489E3,1.463063E4,2.4659086E4,8.0464775E3,8.785162E2,2.242772E4,1.3735737E3,7.919153E2,1.5460508E4,9.198578E3,2.8496208E3,5.196857E3,3.6047224E3,1.8822998E4,8.727541E3,6.7329663E3,2.0661985E3,7.834224E2,3.928203E3,1.2686538E3,3.3915463E2,1.7270438E3,6.8615265E2,5.8250116E2],"tree_param":{"num_deleted":"0","num_feature":"20","num_nodes":"31","size_leaf_vector":"1"}},{"base_weights":[-0E0,-3.5247117E-2,1.1771831E-3,-2.6346007E-3,2.8254908E-2,-6.0553096E-2,-0E0,2.1809196E-2,-2.4058873E-2,-5.8953475E-2,-4.2768015E-4],"categories":[],"categories_nodes":[],"categories_segments":[],"categories_sizes":[],"default_left":[0,0,0,0,0,0,0,0,0,0,0],"id":16,"left_children":[1,-1,3,5,7,9,-1,-1,-1,-1,-1],"loss_changes":[6.971967E0,0E0,1.063964E1,1.339837E1,1.0306382E1,9.2629E0,0E0,0E0,0E0,0E0,0E0],"parents":[2147483647,0,0,2,2,3,3,4,4,5,5],"right_children":[2,-1,4,6,8,10,-1,-1,-1,-1,-1],"split_conditions":[-2.707395E1,-3.5247117E-2,1.61E2,1.4001528E1,1.9905391E-1,9.217506E-1,-0E0,2.1809196E-2,-2.4058873E-2,-5.8953475E-2,-4.2768015E-4],"split_indices":[17,0,16,17,13,14,0,0,0,0,0],"split_type":[0,0,0,0,0,0,0,0,0,0,0],"sum_hessian":[1.0168465E5,1.6303141E3,1.00054336E5,8.7361266E4,1.2693064E4,3.7716328E3,8.358963E4,1.1138432E4,1.5546327E3,1.9947219E3,1.776911E3],"tree_param":{"num_deleted":"0","num_feature":"20","num_nodes":"11","size_leaf_vector":"1"}},{"base_weights":[-8.518498E-5],"categories":[],"categories_nodes":[],"categories_segments":[],"categories_sizes":[],"default_left":[0],"id":17,"left_children":[-1],"loss_changes":[0E0],"parents":[2147483647],"right_children":[-1],"split_conditions":[-4.7054367E-5],"split_indices":[0],"split_type":[0],"sum_hessian":[1.0168866E5],"tree_param":{"num_deleted":"0","num_feature":"20","num_nodes":"1","size_leaf_vector":"1"}},{"base_weights":[-1.6885917E-5],"categories":[],"categories_nodes":[],"categories_segments":[],"categories_sizes":[],"default_left":[0],"id":18,"left_children":[-1],"loss_changes":[0E0],"parents":[2147483647],"right_children":[-1],"split_conditions":[-9.32742E-6],"split_indices":[0],"split_type":[0],"sum_hessian":[1.0169023E5],"tree_param":{"num_deleted":"0","num_feature":"20","num_nodes":"1","size_leaf_vector":"1"}},{"base_weights":[-0E0],"categories":[],"categories_nodes":[],"categories_segments":[],"categories_sizes":[],"default_left":[0],"id":19,"left_children":[-1],"loss_changes":[0E0],"parents":[2147483647],"right_children":[-1],"split_conditions":[-0E0],"split_indices":[0],"split_type":[0],"sum_hessian":[1.0168922E5],"tree_param":{"num_deleted":"0","num_feature":"20","num_nodes":"1","size_leaf_vector":"1"}},{"base_weights":[-5.7566435E-6],"categories":[],"categories_nodes":[],"categories_segments":[],"categories_sizes":[],"default_left":[0],"id":20,"left_children":[-1],"loss_changes":[0E0],"parents":[2147483647],"right_children":[-1],"split_conditions":[-3.179847E-6],"split_indices":[0],"split_type":[0],"sum_hessian":[1.0168996E5],"tree_param":{"num_deleted":"0","num_feature":"20","num_nodes":"1","size_leaf_vector":"1"}},{"base_weights":[-3.1284435E-5],"categories":[],"categories_nodes":[],"categories_segments":[],"categories_sizes":[],"default_left":[0],"id":21,"left_children":[-1],"loss_changes":[0E0],"parents":[2147483647],"right_children":[-1],"split_conditions":[-1.7280854E-5],"split_indices":[0],"split_type":[0],"sum_hessian":[1.016907E5],"tree_param":{"num_deleted":"0","num_feature":"20","num_nodes":"1","size_leaf_vector":"1"}},{"base_weights":[-1.776146E-5],"categories":[],"categories_nodes":[],"categories_segments":[],"categories_sizes":[],"default_left":[0],"id":22,"left_children":[-1],"loss_changes":[0E0],"parents":[2147483647],"right_children":[-1],"split_conditions":[-9.811051E-6],"split_indices":[0],"split_type":[0],"sum_hessian":[1.0168883E5],"tree_param":{"num_deleted":"0","num_feature":"20","num_nodes":"1","size_leaf_vector":"1"}},{"base_weights":[-1.7408034E-5],"categories":[],"categories_nodes":[],"categories_segments":[],"categories_sizes":[],"default_left":[0],"id":23,"left_children":[-1],"loss_changes":[0E0],"parents":[2147483647],"right_children":[-1],"split_conditions":[-9.6158265E-6],"split_indices":[0],"split_type":[0],"sum_hessian":[1.0168995E5],"tree_param":{"num_deleted":"0","num_feature":"20","num_nodes":"1","size_leaf_vector":"1"}},{"base_weights":[-6.645347E-6],"categories":[],"categories_nodes":[],"categories_segments":[],"categories_sizes":[],"default_left":[0],"id":24,"left_children":[-1],"loss_changes":[0E0],"parents":[2147483647],"right_children":[-1],"split_conditions":[-3.670748E-6],"split_indices":[0],"split_type":[0],"sum_hessian":[1.0168849E5],"tree_param":{"num_deleted":"0","num_feature":"20","num_nodes":"1","size_leaf_vector":"1"}},{"base_weights":[-0E0],"categories":[],"categories_nodes":[],"categories_segments":[],"categories_sizes":[],"default_left":[0],"id":25,"left_children":[-1],"loss_changes":[0E0],"parents":[2147483647],"right_children":[-1],"split_conditions":[-0E0],"split_indices":[0],"split_type":[0],"sum_hessian":[1.01690664E5],"tree_param":{"num_deleted":"0","num_feature":"20","num_nodes":"1","size_leaf_vector":"1"}},{"base_weights":[-0E0],"categories":[],"categories_nodes":[],"categories_segments":[],"categories_sizes":[],"default_left":[0],"id":26,"left_children":[-1],"loss_changes":[0E0],"parents":[2147483647],"right_children":[-1],"split_conditions":[-0E0],"split_indices":[0],"split_type":[0],"sum_hessian":[1.0169091E5],"tree_param":{"num_deleted":"0","num_feature":"20","num_nodes":"1","size_leaf_vector":"1"}},{"base_weights":[-0E0],"categories":[],"categories_nodes":[],"categories_segments":[],"categories_sizes":[],"default_left":[0],"id":27,"left_children":[-1],"loss_changes":[0E0],"parents":[2147483647],"right_children":[-1],"split_conditions":[-0E0],"split_indices":[0],"split_type":[0],"sum_hessian":[1.0168832E5],"tree_param":{"num_deleted":"0","num_feature":"20","num_nodes":"1","size_leaf_vector":"1"}},{"base_weights":[-0E0],"categories":[],"categories_nodes":[],"categories_segments":[],"categories_sizes":[],"default_left":[0],"id":28,"left_children":[-1],"loss_changes":[0E0],"parents":[2147483647],"right_children":[-1],"split_conditions":[-0E0],"split_indices":[0],"split_type":[0],"sum_hessian":[1.0169064E5],"tree_param":{"num_deleted":"0","num_feature":"20","num_nodes":"1","size_leaf_vector":"1"}},{"base_weights":[-0E0],"categories":[],"categories_nodes":[],"categories_segments":[],"categories_sizes":[],"default_left":[0],"id":29,"left_children":[-1],"loss_changes":[0E0],"parents":[2147483647],"right_children":[-1],"split_conditions":[-0E0],"split_indices":[0],"split_type":[0],"sum_hessian":[1.0168994E5],"tree_param":{"num_deleted":"0","num_feature":"20","num_nodes":"1","size_leaf_vector":"1"}},{"base_weights":[-0E0],"categories":[],"categories_nodes":[],"categories_segments":[],"categories_sizes":[],"default_left":[0],"id":30,"left_children":[-1],"loss_changes":[0E0],"parents":[2147483647],"right_children":[-1],"split_conditions":[-0E0],"split_indices":[0],"split_type":[0],"sum_hessian":[1.01687984E5],"tree_param":{"num_deleted":"0","num_feature":"20","num_nodes":"1","size_leaf_vector":"1"}},{"base_weights":[-0E0],"categories":[],"categories_nodes":[],"categories_segments":[],"categories_sizes":[],"default_left":[0],"id":31,"left_children":[-1],"loss_changes":[0E0],"parents":[2147483647],"right_children":[-1],"split_conditions":[-0E0],"split_indices":[0],"split_type":[0],"sum_hessian":[1.01690195E5],"tree_param":{"num_deleted":"0","num_feature":"20","num_nodes":"1","size_leaf_vector":"1"}},{"base_weights":[-0E0],"categories":[],"categories_nodes":[],"categories_segments":[],"categories_sizes":[],"default_left":[0],"id":32,"left_children":[-1],"loss_changes":[0E0],"parents":[2147483647],"right_children":[-1],"split_conditions":[-0E0],"split_indices":[0],"split_type":[0],"sum_hessian":[1.01689266E5],"tree_param":{"num_deleted":"0","num_feature":"20","num_nodes":"1","size_leaf_vector":"1"}},{"base_weights":[-9.856569E-6],"categories":[],"categories_nodes":[],"categories_segments":[],"categories_sizes":[],"default_left":[0],"id":33,"left_children":[-1],"loss_changes":[0E0],"parents":[2147483647],"right_children":[-1],"split_conditions":[-5.444558E-6],"split_indices":[0],"split_type":[0],"sum_hessian":[1.0168867E5],"tree_param":{"num_deleted":"0","num_feature":"20","num_nodes":"1","size_leaf_vector":"1"}},{"base_weights":[-0E0],"categories":[],"categories_nodes":[],"categories_segments":[],"categories_sizes":[],"default_left":[0],"id":34,"left_children":[-1],"loss_changes":[0E0],"parents":[2147483647],"right_children":[-1],"split_conditions":[-0E0],"split_indices":[0],"split_type":[0],"sum_hessian":[1.0168991E5],"tree_param":{"num_deleted":"0","num_feature":"20","num_nodes":"1","size_leaf_vector":"1"}},{"base_weights":[-0E0],"categories":[],"categories_nodes":[],"categories_segments":[],"categories_sizes":[],"default_left":[0],"id":35,"left_children":[-1],"loss_changes":[0E0],"parents":[2147483647],"right_children":[-1],"split_conditions":[-0E0],"split_indices":[0],"split_type":[0],"sum_hessian":[1.0168842E5],"tree_param":{"num_deleted":"0","num_feature":"20","num_nodes":"1","size_leaf_vector":"1"}},{"base_weights":[-0E0],"categories":[],"categories_nodes":[],"categories_segments":[],"categories_sizes":[],"default_left":[0],"id":36,"left_children":[-1],"loss_changes":[0E0],"parents":[2147483647],"right_children":[-1],"split_conditions":[-0E0],"split_indices":[0],"split_type":[0],"sum_hessian":[1.0168802E5],"tree_param":{"num_deleted":"0","num_feature":"20","num_nodes":"1","size_leaf_vector":"1"}},{"base_weights":[-0E0],"categories":[],"categories_nodes":[],"categories_segments":[],"categories_sizes":[],"default_left":[0],"id":37,"left_children":[-1],"loss_changes":[0E0],"parents":[2147483647],"right_children":[-1],"split_conditions":[-0E0],"split_indices":[0],"split_type":[0],"sum_hessian":[1.01688414E5],"tree_param":{"num_deleted":"0","num_feature":"20","num_nodes":"1","size_leaf_vector":"1"}},{"base_weights":[-0E0],"categories":[],"categories_nodes":[],"categories_segments":[],"categories_sizes":[],"default_left":[0],"id":38,"left_children":[-1],"loss_changes":[0E0],"parents":[2147483647],"right_children":[-1],"split_conditions":[-0E0],"split_indices":[0],"split_type":[0],"sum_hessian":[1.0168863E5],"tree_param":{"num_deleted":"0","num_feature":"20","num_nodes":"1","size_leaf_vector":"1"}},{"base_weights":[-0E0],"categories":[],"categories_nodes":[],"categories_segments":[],"categories_sizes":[],"default_left":[0],"id":39,"left_children":[-1],"loss_changes":[0E0],"parents":[2147483647],"right_children":[-1],"split_conditions":[-0E0],"split_indices":[0],"split_type":[0],"sum_hessian":[1.0169015E5],"tree_param":{"num_deleted":"0","num_feature":"20","num_nodes":"1","size_leaf_vector":"1"}},{"base_weights":[-0E0],"categories":[],"categories_nodes":[],"categories_segments":[],"categories_sizes":[],"default_left":[0],"id":40,"left_children":[-1],"loss_changes":[0E0],"parents":[2147483647],"right_children":[-1],"split_conditions":[-0E0],"split_indices":[0],"split_type":[0],"sum_hessian":[1.0168992E5],"tree_param":{"num_deleted":"0","num_feature":"20","num_nodes":"1","size_leaf_vector":"1"}},{"base_weights":[-0E0],"categories":[],"categories_nodes":[],"categories_segments":[],"categories_sizes":[],"default_left":[0],"id":41,"left_children":[-1],"loss_changes":[0E0],"parents":[2147483647],"right_children":[-1],"split_conditions":[-0E0],"split_indices":[0],"split_type":[0],"sum_hessian":[1.01689664E5],"tree_param":{"num_deleted":"0","num_feature":"20","num_nodes":"1","size_leaf_vector":"1"}},{"base_weights":[-0E0],"categories":[],"categories_nodes":[],"categories_segments":[],"categories_sizes":[],"default_left":[0],"id":42,"left_children":[-1],"loss_changes":[0E0],"parents":[2147483647],"right_children":[-1],"split_conditions":[-0E0],"split_indices":[0],"split_type":[0],"sum_hessian":[1.0168792E5],"tree_param":{"num_deleted":"0","num_feature":"20","num_nodes":"1","size_leaf_vector":"1"}},{"base_weights":[-0E0],"categories":[],"categories_nodes":[],"categories_segments":[],"categories_sizes":[],"default_left":[0],"id":43,"left_children":[-1],"loss_changes":[0E0],"parents":[2147483647],"right_children":[-1],"split_conditions":[-0E0],"split_indices":[0],"split_type":[0],"sum_hessian":[1.0169037E5],"tree_param":{"num_deleted":"0","num_feature":"20","num_nodes":"1","size_leaf_vector":"1"}},{"base_weights":[-0E0],"categories":[],"categories_nodes":[],"categories_segments":[],"categories_sizes":[],"default_left":[0],"id":44,"left_children":[-1],"loss_changes":[0E0],"parents":[2147483647],"right_children":[-1],"split_conditions":[-0E0],"split_indices":[0],"split_type":[0],"sum_hessian":[1.0168965E5],"tree_param":{"num_deleted":"0","num_feature":"20","num_nodes":"1","size_leaf_vector":"1"}},{"base_weights":[-0E0],"categories":[],"categories_nodes":[],"categories_segments":[],"categories_sizes":[],"default_left":[0],"id":45,"left_children":[-1],"loss_changes":[0E0],"parents":[2147483647],"right_children":[-1],"split_conditions":[-0E0],"split_indices":[0],"split_type":[0],"sum_hessian":[1.016909E5],"tree_param":{"num_deleted":"0","num_feature":"20","num_nodes":"1","size_leaf_vector":"1"}},{"base_weights":[-0E0],"categories":[],"categories_nodes":[],"categories_segments":[],"categories_sizes":[],"default_left":[0],"id":46,"left_children":[-1],"loss_changes":[0E0],"parents":[2147483647],"right_children":[-1],"split_conditions":[-0E0],"split_indices":[0],"split_type":[0],"sum_hessian":[1.016906E5],"tree_param":{"num_deleted":"0","num_feature":"20","num_nodes":"1","size_leaf_vector":"1"}},{"base_weights":[-0E0],"categories":[],"categories_nodes":[],"categories_segments":[],"categories_sizes":[],"default_left":[0],"id":47,"left_children":[-1],"loss_changes":[0E0],"parents":[2147483647],"right_children":[-1],"split_conditions":[-0E0],"split_indices":[0],"split_type":[0],"sum_hessian":[1.0169011E5],"tree_param":{"num_deleted":"0","num_feature":"20","num_nodes":"1","size_leaf_vector":"1"}},{"base_weights":[-0E0],"categories":[],"categories_nodes":[],"categories_segments":[],"categories_sizes":[],"default_left":[0],"id":48,"left_children":[-1],"loss_changes":[0E0],"parents":[2147483647],"right_children":[-1],"split_conditions":[-0E0],"split_indices":[0],"split_type":[0],"sum_hessian":[1.0168912E5],"tree_param":{"num_deleted":"0","num_feature":"20","num_nodes":"1","size_leaf_vector":"1"}},{"base_weights":[-0E0],"categories":[],"categories_nodes":[],"categories_segments":[],"categories_sizes":[],"default_left":[0],"id":49,"left_children":[-1],"loss_changes":[0E0],"parents":[2147483647],"right_children":[-1],"split_conditions":[-0E0],"split_indices":[0],"split_type":[0],"sum_hessian":[1.01689695E5],"tree_param":{"num_deleted":"0","num_feature":"20","num_nodes":"1","size_leaf_vector":"1"}},{"base_weights":[-3.5745202E-6],"categories":[],"categories_nodes":[],"categories_segments":[],"categories_sizes":[],"default_left":[0],"id":50,"left_children":[-1],"loss_changes":[0E0],"parents":[2147483647],"right_children":[-1],"split_conditions":[-1.9744887E-6],"split_indices":[0],"split_type":[0],"sum_hessian":[1.01689445E5],"tree_param":{"num_deleted":"0","num_feature":"20","num_nodes":"1","size_leaf_vector":"1"}},{"base_weights":[-0E0],"categories":[],"categories_nodes":[],"categories_segments":[],"categories_sizes":[],"default_left":[0],"id":51,"left_children":[-1],"loss_changes":[0E0],"parents":[2147483647],"right_children":[-1],"split_conditions":[-0E0],"split_indices":[0],"split_type":[0],"sum_hessian":[1.0168891E5],"tree_param":{"num_deleted":"0","num_feature":"20","num_nodes":"1","size_leaf_vector":"1"}},{"base_weights":[-2.1713511E-5],"categories":[],"categories_nodes":[],"categories_segments":[],"categories_sizes":[],"default_left":[0],"id":52,"left_children":[-1],"loss_changes":[0E0],"parents":[2147483647],"right_children":[-1],"split_conditions":[-1.19940805E-5],"split_indices":[0],"split_type":[0],"sum_hessian":[1.0168772E5],"tree_param":{"num_deleted":"0","num_feature":"20","num_nodes":"1","size_leaf_vector":"1"}},{"base_weights":[-0E0],"categories":[],"categories_nodes":[],"categories_segments":[],"categories_sizes":[],"default_left":[0],"id":53,"left_children":[-1],"loss_changes":[0E0],"parents":[2147483647],"right_children":[-1],"split_conditions":[-0E0],"split_indices":[0],"split_type":[0],"sum_hessian":[1.0169028E5],"tree_param":{"num_deleted":"0","num_feature":"20","num_nodes":"1","size_leaf_vector":"1"}},{"base_weights":[-0E0],"categories":[],"categories_nodes":[],"categories_segments":[],"categories_sizes":[],"default_left":[0],"id":54,"left_children":[-1],"loss_changes":[0E0],"parents":[2147483647],"right_children":[-1],"split_conditions":[-0E0],"split_indices":[0],"split_type":[0],"sum_hessian":[1.01690414E5],"tree_param":{"num_deleted":"0","num_feature":"20","num_nodes":"1","size_leaf_vector":"1"}},{"base_weights":[-0E0],"categories":[],"categories_nodes":[],"categories_segments":[],"categories_sizes":[],"default_left":[0],"id":55,"left_children":[-1],"loss_changes":[0E0],"parents":[2147483647],"right_children":[-1],"split_conditions":[-0E0],"split_indices":[0],"split_type":[0],"sum_hessian":[1.0168858E5],"tree_param":{"num_deleted":"0","num_feature":"20","num_nodes":"1","size_leaf_vector":"1"}},{"base_weights":[-0E0],"categories":[],"categories_nodes":[],"categories_segments":[],"categories_sizes":[],"default_left":[0],"id":56,"left_children":[-1],"loss_changes":[0E0],"parents":[2147483647],"right_children":[-1],"split_conditions":[-0E0],"split_indices":[0],"split_type":[0],"sum_hessian":[1.0168939E5],"tree_param":{"num_deleted":"0","num_feature":"20","num_nodes":"1","size_leaf_vector":"1"}},{"base_weights":[-0E0],"categories":[],"categories_nodes":[],"categories_segments":[],"categories_sizes":[],"default_left":[0],"id":57,"left_children":[-1],"loss_changes":[0E0],"parents":[2147483647],"right_children":[-1],"split_conditions":[-0E0],"split_indices":[0],"split_type":[0],"sum_hessian":[1.0168837E5],"tree_param":{"num_deleted":"0","num_feature":"20","num_nodes":"1","size_leaf_vector":"1"}},{"base_weights":[-0E0],"categories":[],"categories_nodes":[],"categories_segments":[],"categories_sizes":[],"default_left":[0],"id":58,"left_children":[-1],"loss_changes":[0E0],"parents":[2147483647],"right_children":[-1],"split_conditions":[-0E0],"split_indices":[0],"split_type":[0],"sum_hessian":[1.0168786E5],"tree_param":{"num_deleted":"0","num_feature":"20","num_nodes":"1","size_leaf_vector":"1"}},{"base_weights":[-0E0],"categories":[],"categories_nodes":[],"categories_segments":[],"categories_sizes":[],"default_left":[0],"id":59,"left_children":[-1],"loss_changes":[0E0],"parents":[2147483647],"right_children":[-1],"split_conditions":[-0E0],"split_indices":[0],"split_type":[0],"sum_hessian":[1.01687375E5],"tree_param":{"num_deleted":"0","num_feature":"20","num_nodes":"1","size_leaf_vector":"1"}},{"base_weights":[-0E0],"categories":[],"categories_nodes":[],"categories_segments":[],"categories_sizes":[],"default_left":[0],"id":60,"left_children":[-1],"loss_changes":[0E0],"parents":[2147483647],"right_children":[-1],"split_conditions":[-0E0],"split_indices":[0],"split_type":[0],"sum_hessian":[1.0168962E5],"tree_param":{"num_deleted":"0","num_feature":"20","num_nodes":"1","size_leaf_vector":"1"}},{"base_weights":[-0E0],"categories":[],"categories_nodes":[],"categories_segments":[],"categories_sizes":[],"default_left":[0],"id":61,"left_children":[-1],"loss_changes":[0E0],"parents":[2147483647],"right_children":[-1],"split_conditions":[-0E0],"split_indices":[0],"split_type":[0],"sum_hessian":[1.0168858E5],"tree_param":{"num_deleted":"0","num_feature":"20","num_nodes":"1","size_leaf_vector":"1"}},{"base_weights":[-0E0],"categories":[],"categories_nodes":[],"categories_segments":[],"categories_sizes":[],"default_left":[0],"id":62,"left_children":[-1],"loss_changes":[0E0],"parents":[2147483647],"right_children":[-1],"split_conditions":[-0E0],"split_indices":[0],"split_type":[0],"sum_hessian":[1.0168909E5],"tree_param":{"num_deleted":"0","num_feature":"20","num_nodes":"1","size_leaf_vector":"1"}},{"base_weights":[-1.4210862E-5],"categories":[],"categories_nodes":[],"categories_segments":[],"categories_sizes":[],"default_left":[0],"id":63,"left_children":[-1],"loss_changes":[0E0],"parents":[2147483647],"right_children":[-1],"split_conditions":[-7.849777E-6],"split_indices":[0],"split_type":[0],"sum_hessian":[1.01687086E5],"tree_param":{"num_deleted":"0","num_feature":"20","num_nodes":"1","size_leaf_vector":"1"}},{"base_weights":[-0E0],"categories":[],"categories_nodes":[],"categories_segments":[],"categories_sizes":[],"default_left":[0],"id":64,"left_children":[-1],"loss_changes":[0E0],"parents":[2147483647],"right_children":[-1],"split_conditions":[-0E0],"split_indices":[0],"split_type":[0],"sum_hessian":[1.0168905E5],"tree_param":{"num_deleted":"0","num_feature":"20","num_nodes":"1","size_leaf_vector":"1"}},{"base_weights":[-0E0],"categories":[],"categories_nodes":[],"categories_segments":[],"categories_sizes":[],"default_left":[0],"id":65,"left_children":[-1],"loss_changes":[0E0],"parents":[2147483647],"right_children":[-1],"split_conditions":[-0E0],"split_indices":[0],"split_type":[0],"sum_hessian":[1.01690234E5],"tree_param":{"num_deleted":"0","num_feature":"20","num_nodes":"1","size_leaf_vector":"1"}},{"base_weights":[-0E0],"categories":[],"categories_nodes":[],"categories_segments":[],"categories_sizes":[],"default_left":[0],"id":66,"left_children":[-1],"loss_changes":[0E0],"parents":[2147483647],"right_children":[-1],"split_conditions":[-0E0],"split_indices":[0],"split_type":[0],"sum_hessian":[1.0168974E5],"tree_param":{"num_deleted":"0","num_feature":"20","num_nodes":"1","size_leaf_vector":"1"}},{"base_weights":[-0E0],"categories":[],"categories_nodes":[],"categories_segments":[],"categories_sizes":[],"default_left":[0],"id":67,"left_children":[-1],"loss_changes":[0E0],"parents":[2147483647],"right_children":[-1],"split_conditions":[-0E0],"split_indices":[0],"split_type":[0],"sum_hessian":[1.0168788E5],"tree_param":{"num_deleted":"0","num_feature":"20","num_nodes":"1","size_leaf_vector":"1"}},{"base_weights":[-0E0],"categories":[],"categories_nodes":[],"categories_segments":[],"categories_sizes":[],"default_left":[0],"id":68,"left_children":[-1],"loss_changes":[0E0],"parents":[2147483647],"right_children":[-1],"split_conditions":[-0E0],"split_indices":[0],"split_type":[0],"sum_hessian":[1.01689016E5],"tree_param":{"num_deleted":"0","num_feature":"20","num_nodes":"1","size_leaf_vector":"1"}},{"base_weights":[-0E0],"categories":[],"categories_nodes":[],"categories_segments":[],"categories_sizes":[],"default_left":[0],"id":69,"left_children":[-1],"loss_changes":[0E0],"parents":[2147483647],"right_children":[-1],"split_conditions":[-0E0],"split_indices":[0],"split_type":[0],"sum_hessian":[1.0168875E5],"tree_param":{"num_deleted":"0","num_feature":"20","num_nodes":"1","size_leaf_vector":"1"}},{"base_weights":[-0E0],"categories":[],"categories_nodes":[],"categories_segments":[],"categories_sizes":[],"default_left":[0],"id":70,"left_children":[-1],"loss_changes":[0E0],"parents":[2147483647],"right_children":[-1],"split_conditions":[-0E0],"split_indices":[0],"split_type":[0],"sum_hessian":[1.01688555E5],"tree_param":{"num_deleted":"0","num_feature":"20","num_nodes":"1","size_leaf_vector":"1"}},{"base_weights":[-0E0],"categories":[],"categories_nodes":[],"categories_segments":[],"categories_sizes":[],"default_left":[0],"id":71,"left_children":[-1],"loss_changes":[0E0],"parents":[2147483647],"right_children":[-1],"split_conditions":[-0E0],"split_indices":[0],"split_type":[0],"sum_hessian":[1.0169004E5],"tree_param":{"num_deleted":"0","num_feature":"20","num_nodes":"1","size_leaf_vector":"1"}},{"base_weights":[-0E0],"categories":[],"categories_nodes":[],"categories_segments":[],"categories_sizes":[],"default_left":[0],"id":72,"left_children":[-1],"loss_changes":[0E0],"parents":[2147483647],"right_children":[-1],"split_conditions":[-0E0],"split_indices":[0],"split_type":[0],"sum_hessian":[1.0168683E5],"tree_param":{"num_deleted":"0","num_feature":"20","num_nodes":"1","size_leaf_vector":"1"}},{"base_weights":[-0E0],"categories":[],"categories_nodes":[],"categories_segments":[],"categories_sizes":[],"default_left":[0],"id":73,"left_children":[-1],"loss_changes":[0E0],"parents":[2147483647],"right_children":[-1],"split_conditions":[-0E0],"split_indices":[0],"split_type":[0],"sum_hessian":[1.016905E5],"tree_param":{"num_deleted":"0","num_feature":"20","num_nodes":"1","size_leaf_vector":"1"}},{"base_weights":[-0E0],"categories":[],"categories_nodes":[],"categories_segments":[],"categories_sizes":[],"default_left":[0],"id":74,"left_children":[-1],"loss_changes":[0E0],"parents":[2147483647],"right_children":[-1],"split_conditions":[-0E0],"split_indices":[0],"split_type":[0],"sum_hessian":[1.0168754E5],"tree_param":{"num_deleted":"0","num_feature":"20","num_nodes":"1","size_leaf_vector":"1"}},{"base_weights":[-0E0],"categories":[],"categories_nodes":[],"categories_segments":[],"categories_sizes":[],"default_left":[0],"id":75,"left_children":[-1],"loss_changes":[0E0],"parents":[2147483647],"right_children":[-1],"split_conditions":[-0E0],"split_indices":[0],"split_type":[0],"sum_hessian":[1.0168831E5],"tree_param":{"num_deleted":"0","num_feature":"20","num_nodes":"1","size_leaf_vector":"1"}},{"base_weights":[-0E0],"categories":[],"categories_nodes":[],"categories_segments":[],"categories_sizes":[],"default_left":[0],"id":76,"left_children":[-1],"loss_changes":[0E0],"parents":[2147483647],"right_children":[-1],"split_conditions":[-0E0],"split_indices":[0],"split_type":[0],"sum_hessian":[1.0168999E5],"tree_param":{"num_deleted":"0","num_feature":"20","num_nodes":"1","size_leaf_vector":"1"}},{"base_weights":[-0E0],"categories":[],"categories_nodes":[],"categories_segments":[],"categories_sizes":[],"default_left":[0],"id":77,"left_children":[-1],"loss_changes":[0E0],"parents":[2147483647],"right_children":[-1],"split_conditions":[-0E0],"split_indices":[0],"split_type":[0],"sum_hessian":[1.01688625E5],"tree_param":{"num_deleted":"0","num_feature":"20","num_nodes":"1","size_leaf_vector":"1"}},{"base_weights":[-0E0],"categories":[],"categories_nodes":[],"categories_segments":[],"categories_sizes":[],"default_left":[0],"id":78,"left_children":[-1],"loss_changes":[0E0],"parents":[2147483647],"right_children":[-1],"split_conditions":[-0E0],"split_indices":[0],"split_type":[0],"sum_hessian":[1.01689516E5],"tree_param":{"num_deleted":"0","num_feature":"20","num_nodes":"1","size_leaf_vector":"1"}},{"base_weights":[-0E0],"categories":[],"categories_nodes":[],"categories_segments":[],"categories_sizes":[],"default_left":[0],"id":79,"left_children":[-1],"loss_changes":[0E0],"parents":[2147483647],"right_children":[-1],"split_conditions":[-0E0],"split_indices":[0],"split_type":[0],"sum_hessian":[1.0168852E5],"tree_param":{"num_deleted":"0","num_feature":"20","num_nodes":"1","size_leaf_vector":"1"}},{"base_weights":[-0E0],"categories":[],"categories_nodes":[],"categories_segments":[],"categories_sizes":[],"default_left":[0],"id":80,"left_children":[-1],"loss_changes":[0E0],"parents":[2147483647],"right_children":[-1],"split_conditions":[-0E0],"split_indices":[0],"split_type":[0],"sum_hessian":[1.0169095E5],"tree_param":{"num_deleted":"0","num_feature":"20","num_nodes":"1","size_leaf_vector":"1"}},{"base_weights":[-0E0],"categories":[],"categories_nodes":[],"categories_segments":[],"categories_sizes":[],"default_left":[0],"id":81,"left_children":[-1],"loss_changes":[0E0],"parents":[2147483647],"right_children":[-1],"split_conditions":[-0E0],"split_indices":[0],"split_type":[0],"sum_hessian":[1.016895E5],"tree_param":{"num_deleted":"0","num_feature":"20","num_nodes":"1","size_leaf_vector":"1"}},{"base_weights":[-0E0],"categories":[],"categories_nodes":[],"categories_segments":[],"categories_sizes":[],"default_left":[0],"id":82,"left_children":[-1],"loss_changes":[0E0],"parents":[2147483647],"right_children":[-1],"split_conditions":[-0E0],"split_indices":[0],"split_type":[0],"sum_hessian":[1.01689984E5],"tree_param":{"num_deleted":"0","num_feature":"20","num_nodes":"1","size_leaf_vector":"1"}},{"base_weights":[-0E0],"categories":[],"categories_nodes":[],"categories_segments":[],"categories_sizes":[],"default_left":[0],"id":83,"left_children":[-1],"loss_changes":[0E0],"parents":[2147483647],"right_children":[-1],"split_conditions":[-0E0],"split_indices":[0],"split_type":[0],"sum_hessian":[1.0169075E5],"tree_param":{"num_deleted":"0","num_feature":"20","num_nodes":"1","size_leaf_vector":"1"}},{"base_weights":[-0E0],"categories":[],"categories_nodes":[],"categories_segments":[],"categories_sizes":[],"default_left":[0],"id":84,"left_children":[-1],"loss_changes":[0E0],"parents":[2147483647],"right_children":[-1],"split_conditions":[-0E0],"split_indices":[0],"split_type":[0],"sum_hessian":[1.0168876E5],"tree_param":{"num_deleted":"0","num_feature":"20","num_nodes":"1","size_leaf_vector":"1"}},{"base_weights":[-0E0],"categories":[],"categories_nodes":[],"categories_segments":[],"categories_sizes":[],"default_left":[0],"id":85,"left_children":[-1],"loss_changes":[0E0],"parents":[2147483647],"right_children":[-1],"split_conditions":[-0E0],"split_indices":[0],"split_type":[0],"sum_hessian":[1.0168929E5],"tree_param":{"num_deleted":"0","num_feature":"20","num_nodes":"1","size_leaf_vector":"1"}},{"base_weights":[-0E0],"categories":[],"categories_nodes":[],"categories_segments":[],"categories_sizes":[],"default_left":[0],"id":86,"left_children":[-1],"loss_changes":[0E0],"parents":[2147483647],"right_children":[-1],"split_conditions":[-0E0],"split_indices":[0],"split_type":[0],"sum_hessian":[1.0168982E5],"tree_param":{"num_deleted":"0","num_feature":"20","num_nodes":"1","size_leaf_vector":"1"}},{"base_weights":[-0E0],"categories":[],"categories_nodes":[],"categories_segments":[],"categories_sizes":[],"default_left":[0],"id":87,"left_children":[-1],"loss_changes":[0E0],"parents":[2147483647],"right_children":[-1],"split_conditions":[-0E0],"split_indices":[0],"split_type":[0],"sum_hessian":[1.0168998E5],"tree_param":{"num_deleted":"0","num_feature":"20","num_nodes":"1","size_leaf_vector":"1"}},{"base_weights":[-0E0],"categories":[],"categories_nodes":[],"categories_segments":[],"categories_sizes":[],"default_left":[0],"id":88,"left_children":[-1],"loss_changes":[0E0],"parents":[2147483647],"right_children":[-1],"split_conditions":[-0E0],"split_indices":[0],"split_type":[0],"sum_hessian":[1.01689625E5],"tree_param":{"num_deleted":"0","num_feature":"20","num_nodes":"1","size_leaf_vector":"1"}},{"base_weights":[-0E0],"categories":[],"categories_nodes":[],"categories_segments":[],"categories_sizes":[],"default_left":[0],"id":89,"left_children":[-1],"loss_changes":[0E0],"parents":[2147483647],"right_children":[-1],"split_conditions":[-0E0],"split_indices":[0],"split_type":[0],"sum_hessian":[1.01689234E5],"tree_param":{"num_deleted":"0","num_feature":"20","num_nodes":"1","size_leaf_vector":"1"}},{"base_weights":[-0E0],"categories":[],"categories_nodes":[],"categories_segments":[],"categories_sizes":[],"default_left":[0],"id":90,"left_children":[-1],"loss_changes":[0E0],"parents":[2147483647],"right_children":[-1],"split_conditions":[-0E0],"split_indices":[0],"split_type":[0],"sum_hessian":[1.01688516E5],"tree_param":{"num_deleted":"0","num_feature":"20","num_nodes":"1","size_leaf_vector":"1"}},{"base_weights":[-0E0],"categories":[],"categories_nodes":[],"categories_segments":[],"categories_sizes":[],"default_left":[0],"id":91,"left_children":[-1],"loss_changes":[0E0],"parents":[2147483647],"right_children":[-1],"split_conditions":[-0E0],"split_indices":[0],"split_type":[0],"sum_hessian":[1.0168884E5],"tree_param":{"num_deleted":"0","num_feature":"20","num_nodes":"1","size_leaf_vector":"1"}},{"base_weights":[-0E0],"categories":[],"categories_nodes":[],"categories_segments":[],"categories_sizes":[],"default_left":[0],"id":92,"left_children":[-1],"loss_changes":[0E0],"parents":[2147483647],"right_children":[-1],"split_conditions":[-0E0],"split_indices":[0],"split_type":[0],"sum_hessian":[1.0169125E5],"tree_param":{"num_deleted":"0","num_feature":"20","num_nodes":"1","size_leaf_vector":"1"}},{"base_weights":[-0E0],"categories":[],"categories_nodes":[],"categories_segments":[],"categories_sizes":[],"default_left":[0],"id":93,"left_children":[-1],"loss_changes":[0E0],"parents":[2147483647],"right_children":[-1],"split_conditions":[-0E0],"split_indices":[0],"split_type":[0],"sum_hessian":[1.0168927E5],"tree_param":{"num_deleted":"0","num_feature":"20","num_nodes":"1","size_leaf_vector":"1"}},{"base_weights":[-0E0],"categories":[],"categories_nodes":[],"categories_segments":[],"categories_sizes":[],"default_left":[0],"id":94,"left_children":[-1],"loss_changes":[0E0],"parents":[2147483647],"right_children":[-1],"split_conditions":[-0E0],"split_indices":[0],"split_type":[0],"sum_hessian":[1.0168931E5],"tree_param":{"num_deleted":"0","num_feature":"20","num_nodes":"1","size_leaf_vector":"1"}},{"base_weights":[-0E0],"categories":[],"categories_nodes":[],"categories_segments":[],"categories_sizes":[],"default_left":[0],"id":95,"left_children":[-1],"loss_changes":[0E0],"parents":[2147483647],"right_children":[-1],"split_conditions":[-0E0],"split_indices":[0],"split_type":[0],"sum_hessian":[1.01691266E5],"tree_param":{"num_deleted":"0","num_feature":"20","num_nodes":"1","size_leaf_vector":"1"}},{"base_weights":[-0E0],"categories":[],"categories_nodes":[],"categories_segments":[],"categories_sizes":[],"default_left":[0],"id":96,"left_children":[-1],"loss_changes":[0E0],"parents":[2147483647],"right_children":[-1],"split_conditions":[-0E0],"split_indices":[0],"split_type":[0],"sum_hessian":[1.0168922E5],"tree_param":{"num_deleted":"0","num_feature":"20","num_nodes":"1","size_leaf_vector":"1"}},{"base_weights":[-0E0],"categories":[],"categories_nodes":[],"categories_segments":[],"categories_sizes":[],"default_left":[0],"id":97,"left_children":[-1],"loss_changes":[0E0],"parents":[2147483647],"right_children":[-1],"split_conditions":[-0E0],"split_indices":[0],"split_type":[0],"sum_hessian":[1.0169003E5],"tree_param":{"num_deleted":"0","num_feature":"20","num_nodes":"1","size_leaf_vector":"1"}},{"base_weights":[-0E0],"categories":[],"categories_nodes":[],"categories_segments":[],"categories_sizes":[],"default_left":[0],"id":98,"left_children":[-1],"loss_changes":[0E0],"parents":[2147483647],"right_children":[-1],"split_conditions":[-0E0],"split_indices":[0],"split_type":[0],"sum_hessian":[1.0169004E5],"tree_param":{"num_deleted":"0","num_feature":"20","num_nodes":"1","size_leaf_vector":"1"}},{"base_weights":[-0E0],"categories":[],"categories_nodes":[],"categories_segments":[],"categories_sizes":[],"default_left":[0],"id":99,"left_children":[-1],"loss_changes":[0E0],"parents":[2147483647],"right_children":[-1],"split_conditions":[-0E0],"split_indices":[0],"split_type":[0],"sum_hessian":[1.0168983E5],"tree_param":{"num_deleted":"0","num_feature":"20","num_nodes":"1","size_leaf_vector":"1"}}]},"name":"gbtree"},"learner_model_param":{"base_score":"4.663258E-1","boost_from_average":"1","num_class":"0","num_feature":"20","num_target":"1"},"objective":{"name":"binary:logistic","reg_loss_param":{"scale_pos_weight":"1"}}},"version":[2,1,4]}