{"learner":{"attributes":{"scikit_learn":"{\"_estimator_type\": \"classifier\"}"},"feature_names":["pitcherHand_L","hitterHand_L","count_group_Early","count_group_2-Str","count_group_Behind","velo","velo_diff","HAA","extension","x0","z0","z0_ratio","spin_rate","ssw","HB_acc","IVB_acc","Break_acc"],"feature_types":["i","i","i","i","i","float","float","float","float","float","float","float","float","float","float","float","float"],"gradient_booster":{"model":{"gbtree_model_param":{"num_parallel_tree":"1","num_trees":"100"},"iteration_indptr":[0,1,2,3,4,5,6,7,8,9,10,11,12,13,14,15,16,17,18,19,20,21,22,23,24,25,26,27,28,29,30,31,32,33,34,35,36,37,38,39,40,41,42,43,44,45,46,47,48,49,50,51,52,53,54,55,56,57,58,59,60,61,62,63,64,65,66,67,68,69,70,71,72,73,74,75,76,77,78,79,80,81,82,83,84,85,86,87,88,89,90,91,92,93,94,95,96,97,98,99,100],"tree_info":[0,0,0,0,0,0,0,0,0,0,0,0,0,0,0,0,0,0,0,0,0,0,0,0,0,0,0,0,0,0,0,0,0,0,0,0,0,0,0,0,0,0,0,0,0,0,0,0,0,0,0,0,0,0,0,0,0,0,0,0,0,0,0,0,0,0,0,0,0,0,0,0,0,0,0,0,0,0,0,0,0,0,0,0,0,0,0,0,0,0,0,0,0,0,0,0,0,0,0,0],"trees":[{"base_weights":[-3.4051272E-4,-4.873324E-2,1.1808787E-1,-3.5470372E-1,8.662088E-2,1.5572812E-1,-2.8296474E-1,-5.855012E-1,-1.3103238E-1,1.5613526E-1,-1.8127017E-1,-1.0682459E-1,1.966411E-1,7.726231E-3,-8.3262846E-2,-1.6312821E-1,-4.3011475E-2,-2.0609145E-1,-6.4470354E-3,-6.6582905E-3,1.6474268E-1,-8.008453E-2,-7.0533305E-2,2.0501235E-2,-1.3601746E-1,2.048849E-1,-1.3024852E-2,-2.5421038E-1,-1.2636427E-2,1.706664E-1,4.7720692E-5,-4.051874E-2,-5.89556E-3,-4.4697877E-2,1.8138649E-2,2.1485114E-1,4.4778134E-3,1.51364E-2,-7.430526E-2,1.824917E-1,6.21564E-2,1.6912434E-2,-2.4855414E-2,6.0093742E-2,4.5242626E-3,-3.5673392E-4,4.9957458E-2,-2.0561246E-2,1.11252025E-1,-1.1417817E-2,3.9054472E-2],"categories":[],"categories_nodes":[],"categories_segments":[],"categories_sizes":[],"default_left":[0,0,0,0,0,0,0,0,0,1,0,0,1,0,0,0,0,0,0,0,1,1,0,0,0,1,0,0,0,0,0,0,0,0,0,0,0,0,0,0,0,0,0,0,0,0,0,0,0,0,0],"id":0,"left_children":[1,3,5,7,9,11,13,15,17,19,21,23,25,-1,-1,-1,-1,27,-1,-1,29,31,-1,-1,33,35,-1,37,-1,39,-1,-1,41,-1,-1,43,-1,-1,-1,45,47,-1,-1,-1,-1,-1,-1,-1,49,-1,-1],"loss_changes":[1.12977486E2,5.8489325E2,9.390079E1,2.100708E2,1.881276E2,6.0973145E1,6.706749E0,6.902527E0,1.8518265E1,1.3046082E1,1.415834E1,6.2671976E0,1.1210678E1,0E0,0E0,0E0,0E0,8.567425E0,0E0,0E0,7.3624115E0,6.257202E0,0E0,0E0,7.0494843E0,7.911148E0,0E0,1.07378845E1,0E0,7.405899E0,0E0,0E0,5.7062626E0,0E0,0E0,8.603256E0,0E0,0E0,0E0,6.212494E0,8.185455E0,0E0,0E0,0E0,0E0,0E0,0E0,0E0,5.4351892E0,0E0,0E0],"parents":[2147483647,0,0,1,1,2,2,3,3,4,4,5,5,6,6,7,7,8,8,9,9,10,10,11,11,12,12,17,17,20,20,21,21,24,24,25,25,27,27,29,29,32,32,35,35,39,39,40,40,48,48],"right_children":[2,4,6,8,10,12,14,16,18,20,22,24,26,-1,-1,-1,-1,28,-1,-1,30,32,-1,-1,34,36,-1,38,-1,40,-1,-1,42,-1,-1,44,-1,-1,-1,46,48,-1,-1,-1,-1,-1,-1,-1,50,-1,-1],"split_conditions":[1E0,1E0,1E0,3.3583304E-1,1.1098748E0,-1.5921189E0,-1.817337E0,1.0001932E0,1.1238685E0,9.83E2,1.5459986E0,4.6375012E0,3.5768288E1,7.726231E-3,-8.3262846E-2,-1.6312821E-1,-4.3011475E-2,5.8464394E0,-6.4470354E-3,-6.6582905E-3,7.2070875E0,1.577E3,-7.0533305E-2,2.0501235E-2,6.1120872E0,7.1106267E0,-1.3024852E-2,4.8644753E0,-1.2636427E-2,8.4372014E-1,4.7720692E-5,-4.051874E-2,8.4737015E1,-4.4697877E-2,1.8138649E-2,1.2212697E0,4.4778134E-3,1.51364E-2,-7.430526E-2,-1.5039345E0,3.2900813E0,1.6912434E-2,-2.4855414E-2,6.0093742E-2,4.5242626E-3,-3.5673392E-4,4.9957458E-2,-2.0561246E-2,5.17157E0,-1.1417817E-2,3.9054472E-2],"split_indices":[0,1,1,7,7,7,7,11,7,12,7,10,13,0,0,0,0,10,0,0,8,12,0,0,10,8,0,10,0,7,0,0,16,0,0,7,0,0,0,7,13,0,0,0,0,0,0,0,10,0,0],"split_type":[0,0,0,0,0,0,0,0,0,0,0,0,0,0,0,0,0,0,0,0,0,0,0,0,0,0,0,0,0,0,0,0,0,0,0,0,0,0,0,0,0,0,0,0,0,0,0,0,0,0,0],"sum_hessian":[1.9369043E4,1.3822665E4,5.5463774E3,4.1540166E3,9.668648E3,5.166913E3,3.7946417E2,1.9072416E3,2.2467751E3,7.733877E3,1.9347714E3,6.5897797E2,4.507935E3,3.323412E1,3.4623007E2,1.7199896E3,1.8725194E2,1.2251981E3,1.0215771E3,3.355654E2,7.3983115E3,1.0285216E3,9.0624976E2,5.133927E1,6.0763873E2,4.389384E3,1.1855155E2,8.6011884E2,3.6507925E2,7.134671E3,2.636408E2,4.2931537E2,5.992062E2,5.523312E2,5.5307526E1,4.1448403E3,2.4454358E2,4.7123005E1,8.129958E2,6.3271313E3,8.075395E2,3.5987094E2,2.3933525E2,3.905753E3,2.3908723E2,1.7559518E2,6.151536E3,1.8427574E2,6.2326373E2,1.0937497E2,5.1388873E2],"tree_param":{"num_deleted":"0","num_feature":"17","num_nodes":"51","size_leaf_vector":"1"}},{"base_weights":[-4.042691E-3,-4.1749816E-2,9.6577294E-2,-2.5450686E-1,5.8902208E-2,1.2699662E-1,-2.2723113E-1,-4.1353837E-1,-7.049542E-2,1.0416392E-1,-1.7470387E-1,-6.423583E-2,1.5914194E-1,-7.282427E-3,-7.811219E-2,-1.4468017E-1,-1.4829896E-1,-1.8778013E-1,4.853691E-2,1.7423674E-1,1.7226625E-2,1.19225465E-1,-3.0265814E-1,-2.0995866E-1,9.208917E-2,1.9353744E-1,8.663884E-2,-3.3483973E-1,3.243562E-2,-6.854303E-2,6.9467113E-3,-2.1333704E-2,2.0878987E-2,1.8410611E-1,4.2095324E-3,1.0515854E-1,-2.3115805E-1,4.1572556E-2,-1.4813568E-2,-1.5213141E-1,-1.1275644E-1,1.0407387E-2,-6.44351E-2,-1.815258E-2,3.6271103E-2,4.474501E-2,5.71593E-2,-8.339802E-3,3.3417724E-2,-9.784632E-2,9.4579934E-4,8.3516344E-2,-2.6425585E-2,-9.316569E-3,1.895983E-1,1.3137683E-1,-5.6966436E-3,2.3032285E-2,-7.206311E-2,-1.875817E-2,-7.0569016E-2,-2.870636E-2,3.1289972E-2,-1.2741556E-2,3.749357E-2,2.0116055E-1,8.56733E-3,3.7605965E-3,1.5852559E-1,2.9635733E-2,-2.4438474E-2,2.237683E-2,-2.887033E-2,-9.5834425E-3,2.0629269E-1,4.512999E-3,5.0637264E-2,5.8247637E-2,1.3013979E-2,2.8625695E-2,-2.8443836E-2],"categories":[],"categories_nodes":[],"categories_segments":[],"categories_sizes":[],"default_left":[0,0,0,0,0,0,0,0,0,0,0,0,0,0,0,0,0,0,0,0,0,0,0,1,0,0,0,0,0,0,0,0,0,0,0,0,0,0,0,0,0,0,0,0,0,0,0,0,0,0,0,0,0,0,0,0,0,0,0,0,0,0,0,0,0,0,0,0,1,0,0,0,0,0,0,0,0,0,0,0,0],"id":1,"left_children":[1,3,5,7,9,11,13,15,17,19,21,23,25,-1,-1,-1,27,29,31,33,35,37,39,41,43,45,47,49,51,-1,-1,-1,-1,53,-1,55,57,-1,-1,59,-1,-1,-1,-1,-1,61,-1,-1,-1,-1,-1,63,-1,-1,65,67,69,-1,-1,71,-1,-1,-1,-1,-1,73,-1,-1,75,-1,-1,-1,-1,-1,77,79,-1,-1,-1,-1,-1],"loss_changes":[7.45462E1,3.084018E2,5.7734283E1,1.3010947E2,1.07104095E2,3.2553474E1,5.493864E0,7.021054E1,3.43714E1,5.031185E1,6.8660385E1,2.254087E1,7.9102707E0,0E0,0E0,0E0,3.694258E1,1.933435E1,6.0892286E0,6.679825E0,8.970779E1,5.549917E0,1.0799118E1,5.548189E0,5.3264976E0,7.147583E0,8.516796E0,6.0784874E0,6.0322227E0,0E0,0E0,0E0,0E0,6.345871E0,0E0,8.888424E0,1.756998E1,0E0,0E0,1.125963E1,0E0,0E0,0E0,0E0,0E0,8.474157E0,0E0,0E0,0E0,0E0,0E0,5.588528E0,0E0,0E0,6.5807953E0,7.3775444E0,9.215617E0,0E0,0E0,6.6871295E0,0E0,0E0,0E0,0E0,0E0,6.05394E0,0E0,0E0,9.428322E0,0E0,0E0,0E0,0E0,0E0,5.7227325E0,7.8503213E0,0E0,0E0,0E0,0E0,0E0],"parents":[2147483647,0,0,1,1,2,2,3,3,4,4,5,5,6,6,7,7,8,8,9,9,10,10,11,11,12,12,16,16,17,17,18,18,19,19,20,20,21,21,22,22,23,23,24,24,25,25,26,26,27,27,28,28,33,33,35,35,36,36,39,39,45,45,51,51,54,54,55,55,56,56,59,59,65,65,68,68,74,74,75,75],"right_children":[2,4,6,8,10,12,14,16,18,20,22,24,26,-1,-1,-1,28,30,32,34,36,38,40,42,44,46,48,50,52,-1,-1,-1,-1,54,-1,56,58,-1,-1,60,-1,-1,-1,-1,-1,62,-1,-1,-1,-1,-1,64,-1,-1,66,68,70,-1,-1,72,-1,-1,-1,-1,-1,74,-1,-1,76,-1,-1,-1,-1,-1,78,80,-1,-1,-1,-1,-1],"split_conditions":[7.550478E-1,1E0,1E0,5.2020186E-1,1.272248E0,-1.5921189E0,-6.8734765E-1,-1.1779813E0,-1.9268422E0,-1.5404578E0,-2.4926705E0,2.6846497E0,8.53E1,-7.282427E-3,-7.811219E-2,-1.4468017E-1,-5.3830457E-1,1.7902455E0,1.113E3,5.5883976E1,2.4681786E-1,2.034E3,-1.9560211E0,5.5463195E0,-2.876408E0,1.1356342E0,7.8145454E1,-2.5414738E-1,2.682471E1,-6.854303E-2,6.9467113E-3,-2.1333704E-2,2.0878987E-2,-2.5844585E1,4.2095324E-3,-8.063867E-2,2.3137442E1,4.1572556E-2,-1.4813568E-2,1.7222141E0,-1.1275644E-1,1.0407387E-2,-6.44351E-2,-1.815258E-2,3.6271103E-2,8.938711E-2,5.71593E-2,-8.339802E-3,3.3417724E-2,-9.784632E-2,9.4579934E-4,8.38E1,-2.6425585E-2,-9.316569E-3,9.07E1,-1.1135913E0,7.119995E1,2.3032285E-2,-7.206311E-2,6.5370605E1,-7.0569016E-2,-2.870636E-2,3.1289972E-2,-1.2741556E-2,3.749357E-2,-9.240597E-1,8.56733E-3,3.7605965E-3,1.422E3,2.9635733E-2,-2.4438474E-2,2.237683E-2,-2.887033E-2,-9.5834425E-3,1.1098748E0,-4.767954E-1,5.0637264E-2,5.8247637E-2,1.3013979E-2,2.8625695E-2,-2.8443836E-2],"split_indices":[9,1,1,7,7,7,7,9,9,9,9,9,5,0,0,0,7,7,12,15,7,12,9,14,7,9,16,9,13,0,0,0,0,15,0,7,14,0,0,7,0,0,0,0,0,7,0,0,0,0,0,5,0,0,5,7,16,0,0,14,0,0,0,0,0,7,0,0,12,0,0,0,0,0,7,7,0,0,0,0,0],"split_type":[0,0,0,0,0,0,0,0,0,0,0,0,0,0,0,0,0,0,0,0,0,0,0,0,0,0,0,0,0,0,0,0,0,0,0,0,0,0,0,0,0,0,0,0,0,0,0,0,0,0,0,0,0,0,0,0,0,0,0,0,0,0,0,0,0,0,0,0,0,0,0,0,0,0,0,0,0,0,0,0,0],"sum_hessian":[1.9293955E4,1.4108312E4,5.185642E3,4.4466445E3,9.661667E3,4.836162E3,3.4947983E2,2.269844E3,2.1768008E3,8.1736807E3,1.4879866E3,6.7090326E2,4.1652593E3,1.4768918E2,2.0179065E2,1.40231E3,8.675338E2,1.046677E3,1.1301239E3,4.4296484E3,3.7440325E3,4.5468774E2,1.0332988E3,3.1689835E2,3.5400494E2,2.629495E3,1.5357639E3,3.5488055E2,5.1265326E2,7.6328314E2,2.8339386E2,1.5802257E2,9.721013E2,4.143189E3,2.864594E2,2.8386497E3,9.053828E2,3.909646E2,6.3723164E1,6.33589E2,3.9970978E2,3.1589987E1,2.8530838E2,5.586625E1,2.9813867E2,3.9451758E2,2.2349775E3,3.8854282E2,1.1472212E3,3.1030933E2,4.457121E1,4.1513947E2,9.7513824E1,7.838986E1,4.0647988E3,2.2704468E3,5.6820294E2,7.731882E1,8.2806396E2,3.8282254E2,2.5076646E2,1.0033731E2,2.9418027E2,1.3434201E2,2.8079745E2,3.7416929E3,3.2310608E2,4.765606E2,1.7938861E3,2.1913571E2,3.4906726E2,1.8302382E2,1.9979872E2,5.7034878E1,3.684658E3,3.3990793E2,1.4539781E3,3.351191E3,3.3346695E2,1.7997711E2,1.5993082E2],"tree_param":{"num_deleted":"0","num_feature":"17","num_nodes":"81","size_leaf_vector":"1"}},{"base_weights":[-5.909494E-3,-3.507122E-2,6.6494316E-2,-1.9841942E-1,3.8411617E-2,8.994113E-2,-1.7963175E-1,-4.1125607E-1,-1.0663551E-1,9.533473E-2,-7.970329E-2,-4.514439E-2,1.2365472E-1,-6.850277E-4,-6.438971E-2,-1.3134879E-1,-1.5600978E-1,-1.9076711E-1,4.5363422E-2,1.3722254E-1,1.3017587E-3,1.2819652E-2,-9.173586E-2,-1.9604927E-1,1.7949192E-2,1.4112039E-1,-5.02553E-3,-6.309583E-2,4.1643623E-3,-8.076048E-2,1.4941583E-3,2.2749264E-2,-2.061495E-2,4.487914E-2,8.039317E-2,9.549838E-2,-2.5941798E-2,6.8565786E-2,-1.4587282E-1,-6.376718E-2,1.1615502E-2,1.4938891E-1,-1.5999302E-2,-3.9361253E-2,1.4213512E-2,3.5497148E-2,-3.1656668E-2,-2.2911182E-2,3.5463523E-2,1.4255899E-1,-2.3690745E-2,2.9977033E-2,-6.280207E-2,4.4112545E-2,1.0952057E-2,2.4861906E-2,-9.7570725E-2,5.2984502E-2,4.8219543E-3,-2.937023E-2,2.165044E-2,-3.7565917E-2,2.1303698E-2],"categories":[],"categories_nodes":[],"categories_segments":[],"categories_sizes":[],"default_left":[0,0,0,0,0,0,0,0,0,0,0,0,0,0,0,0,0,0,1,0,0,0,0,0,0,1,0,0,0,0,0,0,0,0,0,0,0,0,0,0,0,0,0,0,0,0,0,0,0,0,0,0,0,0,0,0,0,0,0,0,0,0,0],"id":2,"left_children":[1,3,5,7,9,11,13,15,17,19,21,23,25,-1,-1,-1,27,29,31,33,35,37,-1,39,-1,41,-1,-1,-1,-1,43,-1,-1,-1,45,47,-1,49,51,-1,-1,53,-1,-1,-1,-1,55,-1,-1,57,59,-1,-1,-1,-1,-1,61,-1,-1,-1,-1,-1,-1],"loss_changes":[4.1492184E1,1.6922064E2,3.536144E1,7.774773E1,6.714194E1,2.4969952E1,5.916031E0,1.3018982E1,4.3504105E1,2.6294628E1,8.1104385E1,2.230004E1,1.1083E1,0E0,0E0,0E0,8.404149E0,4.6585068E1,7.582883E0,5.885811E0,2.2387617E1,2.4671074E1,0E0,7.51894E0,0E0,7.906563E0,0E0,0E0,0E0,0E0,8.824056E0,0E0,0E0,0E0,1.2439741E1,1.0403513E1,0E0,1.4499758E1,2.1547905E1,0E0,0E0,5.3739777E0,0E0,0E0,0E0,0E0,7.9303718E0,0E0,0E0,7.4837875E0,1.1134991E1,0E0,0E0,0E0,0E0,0E0,6.50866E0,0E0,0E0,0E0,0E0,0E0,0E0],"parents":[2147483647,0,0,1,1,2,2,3,3,4,4,5,5,6,6,7,7,8,8,9,9,10,10,11,11,12,12,16,16,17,17,18,18,19,19,20,20,21,21,23,23,25,25,30,30,34,34,35,35,37,37,38,38,41,41,46,46,49,49,50,50,56,56],"right_children":[2,4,6,8,10,12,14,16,18,20,22,24,26,-1,-1,-1,28,30,32,34,36,38,-1,40,-1,42,-1,-1,-1,-1,44,-1,-1,-1,46,48,-1,50,52,-1,-1,54,-1,-1,-1,-1,56,-1,-1,58,60,-1,-1,-1,-1,-1,62,-1,-1,-1,-1,-1,-1],"split_conditions":[3.2029557E-1,1E0,1E0,-1.7460376E-1,7.610976E-1,-1.2926823E0,-7.0078284E-1,-1.028248E0,-1.5778917E0,-1.262769E0,-1.7555295E0,2.3249474E0,9.976913E1,-6.850277E-4,-6.438971E-2,-1.3134879E-1,-7.0078284E-1,1.1873468E0,2.705305E1,-1.6252202E0,-4.6425804E-1,1.7222141E0,-9.173586E-2,6.1120872E0,1.7949192E-2,3.5768288E1,-5.02553E-3,-6.309583E-2,4.1643623E-3,-8.076048E-2,-2.579385E0,2.2749264E-2,-2.061495E-2,4.487914E-2,1.1034072E-1,-1.5442638E0,-2.5941798E-2,-2.2116375E0,-2.7423155E0,-6.376718E-2,1.1615502E-2,5.263031E1,-1.5999302E-2,-3.9361253E-2,1.4213512E-2,3.5497148E-2,6.497232E1,-2.2911182E-2,3.5463523E-2,8.4737015E1,5.6367526E0,2.9977033E-2,-6.280207E-2,4.4112545E-2,1.0952057E-2,2.4861906E-2,5.7369473E1,5.2984502E-2,4.8219543E-3,-2.937023E-2,2.165044E-2,-3.7565917E-2,2.1303698E-2],"split_indices":[9,1,1,7,7,7,7,9,9,9,9,9,16,0,0,0,7,7,13,9,7,7,0,10,0,13,0,0,0,0,9,0,0,0,7,7,0,9,9,0,0,15,0,0,0,0,16,0,0,16,10,0,0,0,0,0,15,0,0,0,0,0,0],"split_type":[0,0,0,0,0,0,0,0,0,0,0,0,0,0,0,0,0,0,0,0,0,0,0,0,0,0,0,0,0,0,0,0,0,0,0,0,0,0,0,0,0,0,0,0,0,0,0,0,0,0,0,0,0,0,0,0,0,0,0,0,0,0,0],"sum_hessian":[1.9290139E4,1.3815483E4,5.4746562E3,4.196102E3,9.619382E3,5.0984756E3,3.761803E2,1.0835544E3,3.1125474E3,6.513927E3,3.1054548E3,1.00621954E3,4.092256E3,1.447285E2,2.314518E2,6.9814386E2,3.854106E2,1.9756113E3,1.1369359E3,4.4512573E3,2.0626697E3,2.4226838E3,6.827709E2,3.75621E2,6.305985E2,3.6474983E3,4.4475797E2,2.1762881E2,1.6778178E2,1.1835338E3,7.920776E2,8.97042E2,2.3989395E2,2.6498833E3,1.8013739E3,1.0588904E3,1.0037793E3,1.8655522E3,5.5713153E2,3.1831107E2,5.7309933E1,3.5464531E3,1.0104516E2,1.218297E2,6.702479E2,1.2016248E3,5.9974927E2,1.4381058E2,9.150798E2,9.835942E2,8.8195807E2,1.3255405E2,4.2457748E2,3.0023518E3,5.441012E2,1.8188826E2,4.17861E2,6.0529535E2,3.7829886E2,4.7889297E2,4.030651E2,3.643274E2,5.3533585E1],"tree_param":{"num_deleted":"0","num_feature":"17","num_nodes":"63","size_leaf_vector":"1"}},{"base_weights":[-1.1090519E-2,1.2122915E-2,-7.2522424E-2,-1.0535379E-1,2.0431846E-2,-1.3869065E-1,-1.9607041E-2,-5.402493E-2,3.6911316E-2,-4.0419623E-3,8.439704E-2,-2.4039555E-1,9.095108E-3,2.0822749E-2,-1.4755826E-1,-1.24362E-2,3.6970157E-2,-1.1325336E-1,4.9855005E-2,1.06784664E-1,-3.8396634E-2,-2.5677994E-1,8.042601E-3,8.1638165E-2,-4.540956E-2,4.942104E-3,-6.631795E-2,-2.395101E-1,-9.229022E-3,8.385975E-2,-7.193326E-2,-2.9509945E-4,3.4218084E-2,-7.2745755E-2,-4.530271E-4,-1.3946804E-3,3.8740646E-2,4.2592455E-3,-1.2793319E-1,-9.170255E-2,-4.5210283E-2,-3.5872307E-2,3.990649E-2,1.1650223E-1,-5.096673E-4,3.9669745E-2,-4.0055133E-2,1.0249343E-2,-4.9650434E-2,-3.910216E-2,9.805273E-3,-2.6355859E-2,6.911216E-2,3.7267458E-2,3.296156E-2,2.2354646E-2,-7.666155E-2,3.0595731E-2,-6.5971077E-3,-2.6855117E-2,2.4241932E-2,2.3755599E-2,-3.1797964E-2],"categories":[],"categories_nodes":[],"categories_segments":[],"categories_sizes":[],"default_left":[0,0,0,0,0,0,0,0,0,0,0,0,0,0,0,0,0,0,0,0,0,0,0,0,0,0,0,0,0,0,0,0,0,0,0,0,0,0,0,0,0,0,0,0,0,0,0,0,0,0,0,0,0,0,0,0,0,0,0,0,0,0,0],"id":3,"left_children":[1,3,5,7,9,11,13,-1,15,17,19,21,-1,23,25,-1,-1,27,29,31,-1,33,-1,35,37,-1,-1,39,41,43,45,-1,-1,-1,-1,-1,-1,-1,47,-1,49,-1,51,53,55,-1,-1,-1,-1,-1,-1,-1,57,-1,59,-1,61,-1,-1,-1,-1,-1,-1],"loss_changes":[2.7814054E1,1.4247428E1,1.8233414E1,1.4722167E1,2.1085676E1,4.266936E1,1.694015E1,0E0,5.715655E0,5.9105453E1,2.1711632E1,7.9956284E0,0E0,1.0951487E1,1.4020048E1,0E0,0E0,4.3157166E1,2.8916382E1,8.223934E0,0E0,5.909767E0,0E0,7.891061E0,7.127429E0,0E0,0E0,2.7687561E1,1.3251304E1,1.473069E1,3.09455E1,0E0,0E0,0E0,0E0,0E0,0E0,0E0,6.990144E0,0E0,6.9536324E0,0E0,7.5362353E0,6.7506905E0,1.1792804E1,0E0,0E0,0E0,0E0,0E0,0E0,0E0,6.5064697E0,0E0,9.90774E0,0E0,8.676659E0,0E0,0E0,0E0,0E0,0E0,0E0],"parents":[2147483647,0,0,1,1,2,2,3,3,4,4,5,5,6,6,8,8,9,9,10,10,11,11,13,13,14,14,17,17,18,18,19,19,21,21,23,23,24,24,27,27,28,28,29,29,30,30,38,38,40,40,42,42,43,43,44,44,52,52,54,54,56,56],"right_children":[2,4,6,8,10,12,14,-1,16,18,20,22,-1,24,26,-1,-1,28,30,32,-1,34,-1,36,38,-1,-1,40,42,44,46,-1,-1,-1,-1,-1,-1,-1,48,-1,50,-1,52,54,56,-1,-1,-1,-1,-1,-1,-1,58,-1,60,-1,62,-1,-1,-1,-1,-1,-1],"split_conditions":[2.1454227E1,-1.5442638E0,1E0,2.567504E0,8.8871896E-1,3.2029557E-1,1.1238685E0,-5.402493E-2,-1.8887366E0,1E0,1E0,2.01745E0,9.095108E-3,-1.5231069E0,-2.1910627E0,-1.24362E-2,3.6970157E-2,3.2740155E-1,1.0811261E0,-6.4518423E0,-3.8396634E-2,2.158E3,8.042601E-3,3.9617968E-1,-3.0181114E-2,4.942104E-3,-6.631795E-2,-1.1779813E0,-2.2441967E0,-1.2906996E0,-2.5545444E0,-2.9509945E-4,3.4218084E-2,-7.2745755E-2,-4.530271E-4,-1.3946804E-3,3.8740646E-2,4.2592455E-3,5.2795574E1,-9.170255E-2,-6.317414E-1,-3.5872307E-2,1.113E3,9.7430046E1,-4.1725716E-1,3.9669745E-2,-4.0055133E-2,1.0249343E-2,-4.9650434E-2,-3.910216E-2,9.805273E-3,-2.6355859E-2,1.893E3,3.7267458E-2,8.66E1,2.2354646E-2,3.5309273E1,3.0595731E-2,-6.5971077E-3,-2.6855117E-2,2.4241932E-2,2.3755599E-2,-3.1797964E-2],"split_indices":[13,7,1,9,9,9,7,0,7,1,1,7,0,9,9,0,0,7,7,13,0,12,0,7,7,0,0,9,9,9,9,0,0,0,0,0,0,0,16,0,7,0,12,16,7,0,0,0,0,0,0,0,12,0,5,0,14,0,0,0,0,0,0],"split_type":[0,0,0,0,0,0,0,0,0,0,0,0,0,0,0,0,0,0,0,0,0,0,0,0,0,0,0,0,0,0,0,0,0,0,0,0,0,0,0,0,0,0,0,0,0,0,0,0,0,0,0,0,0,0,0,0,0,0,0,0,0,0,0],"sum_hessian":[1.9223053E4,1.4050683E4,5.172369E3,7.947696E2,1.3255913E4,2.173785E3,2.9985845E3,4.2820856E2,3.6656104E2,9.703413E3,3.5525002E3,1.3264606E3,8.4732446E2,2.387686E3,6.108983E2,2.5223587E2,1.14325165E2,3.1441611E3,6.559252E3,3.3194785E3,2.3302174E2,1.2592721E3,6.718839E1,1.2244341E3,1.1632521E3,2.8483966E2,3.2605862E2,1.3187229E3,1.8254381E3,5.169936E3,1.389316E3,5.835593E2,2.7359192E3,1.1711685E3,8.810366E1,5.852811E2,6.3915295E2,7.460183E2,4.1723373E2,7.6967975E2,5.490432E2,4.2961502E2,1.3958231E3,3.6810352E3,1.4889009E3,3.2352628E2,1.0657898E3,1.2362346E2,2.936103E2,1.848416E2,3.642016E2,1.7061705E2,1.225206E3,2.7820579E3,8.989772E2,6.9705585E2,7.9184503E2,7.980583E2,4.2714777E2,2.3337198E2,6.656052E2,1.23658585E2,6.6818646E2],"tree_param":{"num_deleted":"0","num_feature":"17","num_nodes":"63","size_leaf_vector":"1"}},{"base_weights":[-1.0671214E-2,-9.1657266E-2,4.294251E-3,-1.4183735E-2,-1.7427039E-1,-2.3717929E-2,1.623329E-2,-5.8100704E-2,9.8973485E-3,-1.8210163E-2,4.8005436E-2,-1.2901588E-1,4.812164E-2,8.166628E-2,-5.6305617E-2,-9.823396E-2,-6.255663E-2,-3.3000164E-2,8.278199E-2,9.202411E-2,-4.3875124E-2,4.566382E-2,-5.7239152E-2,-1.3076447E-1,8.5196525E-2,-1.5323582E-1,2.6366577E-2,2.770523E-2,-7.885444E-3,1.116145E-1,-3.305122E-2,-3.0397363E-2,2.5668185E-2,-6.912638E-2,-9.217132E-3,-1.2635768E-2,3.994329E-2,1.0115481E-2,-1.8944788E-1,3.522103E-2,3.8312417E-2,2.5311414E-2,-2.379184E-2,-6.1337993E-2,6.315393E-3,-6.075777E-3,2.7284997E-2],"categories":[],"categories_nodes":[],"categories_segments":[],"categories_sizes":[],"default_left":[0,0,0,0,0,0,0,0,0,0,0,0,0,0,0,0,0,0,0,0,0,0,0,0,0,1,0,0,0,0,0,0,0,0,0,0,0,0,0,0,1,0,0,0,0,0,0],"id":4,"left_children":[1,3,5,-1,7,-1,9,-1,-1,11,13,15,17,19,21,-1,23,25,27,29,-1,31,-1,33,35,37,-1,-1,-1,39,41,-1,-1,-1,-1,-1,-1,-1,43,-1,45,-1,-1,-1,-1,-1,-1],"loss_changes":[2.3576918E1,8.002863E0,1.8673824E1,0E0,9.642567E0,0E0,1.635259E1,0E0,0E0,5.4191063E1,2.8000597E1,3.9905125E1,1.3535822E1,1.7741077E1,3.3932343E1,0E0,2.5741833E1,2.6637743E1,8.440342E0,1.485376E1,0E0,1.2878991E1,0E0,1.9315353E1,8.54717E0,7.203886E0,0E0,0E0,0E0,6.7775383E0,8.084044E0,0E0,0E0,0E0,0E0,0E0,0E0,0E0,7.518553E0,0E0,5.725171E0,0E0,0E0,0E0,0E0,0E0,0E0],"parents":[2147483647,0,0,1,1,2,2,4,4,6,6,9,9,10,10,11,11,12,12,13,13,14,14,16,16,17,17,18,18,19,19,21,21,23,23,24,24,25,25,29,29,30,30,38,38,40,40],"right_children":[2,4,6,-1,8,-1,10,-1,-1,12,14,16,18,20,22,-1,24,26,28,30,-1,32,-1,34,36,38,-1,-1,-1,40,42,-1,-1,-1,-1,-1,-1,-1,44,-1,46,-1,-1,-1,-1,-1,-1],"split_conditions":[-9.981274E-1,8.113429E1,1.256E3,-1.4183735E-2,1.8527844E0,-2.3717929E-2,1E0,-5.8100704E-2,9.8973485E-3,-9.716413E-1,-1.2356483E0,-4.410042E-1,-7.908245E-1,2.1548603E0,-1.9535916E-1,-9.823396E-2,-1.5503855E0,2.2531574E0,9.858143E1,5.057255E1,-4.3875124E-2,1.5409067E1,-5.7239152E-2,5.628223E-1,8.44E1,1.432E3,2.6366577E-2,2.770523E-2,-7.885444E-3,8.89E1,6.173751E1,-3.0397363E-2,2.5668185E-2,-6.912638E-2,-9.217132E-3,-1.2635768E-2,3.994329E-2,1.0115481E-2,9.883327E-1,3.522103E-2,9.399062E1,2.5311414E-2,-2.379184E-2,-6.1337993E-2,6.315393E-3,-6.075777E-3,2.7284997E-2],"split_indices":[15,14,12,0,9,0,1,0,0,9,9,7,7,7,7,0,9,9,16,15,0,15,0,7,5,12,0,0,0,5,14,0,0,0,0,0,0,0,11,0,16,0,0,0,0,0,0],"split_type":[0,0,0,0,0,0,0,0,0,0,0,0,0,0,0,0,0,0,0,0,0,0,0,0,0,0,0,0,0,0,0,0,0,0,0,0,0,0,0,0,0,0,0,0,0,0,0],"sum_hessian":[1.9219826E4,2.8608635E3,1.6358962E4,2.1472468E3,7.1361676E2,1.727689E3,1.4631272E4,5.8649603E2,1.2712072E2,7.054681E3,7.5765913E3,2.581223E3,4.4734585E3,5.756907E3,1.8196841E3,3.8967477E2,2.191548E3,1.3410187E3,3.13244E3,5.628515E3,1.2839246E2,1.1821884E3,6.3749567E2,1.5132537E3,6.7829443E2,6.8768835E2,6.533304E2,2.6450496E3,4.8739026E2,4.8828203E3,7.456945E2,2.3270517E2,9.494832E2,5.211725E2,9.920811E2,2.374548E2,4.4083963E2,1.0782689E2,5.7986145E2,3.6996558E3,1.1831647E3,1.9111949E2,5.54575E2,4.7504993E2,1.04811516E2,6.621611E2,5.210036E2],"tree_param":{"num_deleted":"0","num_feature":"17","num_nodes":"47","size_leaf_vector":"1"}},{"base_weights":[-3.2234385E-3,-5.9846345E-2,7.117103E-3,2.3348356E-2,-2.2697395E-2,1.4955493E-2,-1.6792515E-2,-1.8911012E-2,2.1757198E-2,8.9242846E-2,8.022975E-3,3.5465765E-4,3.8944628E-2,-2.7834622E-2,2.6747728E-2,-6.5996766E-2,3.482058E-2,-3.86677E-2,4.5429483E-2,-1.5210453E-1,-2.5093766E-2,-2.9784879E-2,5.0069865E-2,8.573191E-4,-2.5992027E-2,5.83122E-3,8.076651E-2,-2.2552747E-1,-4.9561653E-3,1.5795082E-3,-1.1297584E-1,2.0864E-2,-1.1684619E-2,-1.0900311E-1,5.0626215E-2,9.995997E-2,-1.1490662E-1,-6.8008006E-2,8.238894E-3,1.9199569E-2,-4.1821E-2,-5.2554045E-2,2.5591957E-3,-8.664914E-2,2.450862E-2,1.068334E-1,-1.9222746E-2,1.9739835E-2,-5.9445903E-2,-5.051931E-2,9.607412E-3,1.4978623E-1,5.575564E-2,-1.3612664E-2,4.360712E-2,2.530837E-2,-3.8587324E-2],"categories":[],"categories_nodes":[],"categories_segments":[],"categories_sizes":[],"default_left":[0,0,0,0,0,0,0,0,0,0,0,0,0,0,1,0,0,0,0,0,0,0,0,0,0,0,0,0,0,0,0,0,0,0,0,0,0,0,0,0,0,0,0,0,0,0,0,0,0,0,0,0,0,0,0,0,0],"id":5,"left_children":[1,3,5,7,-1,9,-1,-1,-1,11,13,-1,-1,15,17,19,21,23,25,27,29,-1,31,-1,-1,33,35,37,-1,-1,39,-1,-1,41,43,45,47,-1,-1,-1,-1,-1,-1,49,-1,51,-1,-1,-1,-1,-1,53,55,-1,-1,-1,-1],"loss_changes":[1.1403125E1,6.7018204E0,9.24223E0,5.6156454E0,0E0,7.5902205E0,0E0,0E0,0E0,6.2821283E0,9.461932E0,0E0,0E0,1.1999306E1,1.1572403E1,1.0162725E1,5.3187838E0,5.3477335E0,1.0061909E1,8.628809E0,6.372012E0,0E0,5.604767E0,0E0,0E0,1.9499107E1,1.6316679E1,5.986906E0,0E0,0E0,6.912873E0,0E0,0E0,1.1519858E1,1.6801117E1,5.5544167E0,1.1482658E1,0E0,0E0,0E0,0E0,0E0,0E0,1.0264972E1,0E0,6.232044E0,0E0,0E0,0E0,0E0,0E0,6.5139313E0,1.7157269E1,0E0,0E0,0E0,0E0],"parents":[2147483647,0,0,1,1,2,2,3,3,5,5,9,9,10,10,13,13,14,14,15,15,16,16,17,17,18,18,19,19,20,20,22,22,25,25,26,26,27,27,30,30,33,33,34,34,35,35,36,36,43,43,45,45,51,51,52,52],"right_children":[2,4,6,8,-1,10,-1,-1,-1,12,14,-1,-1,16,18,20,22,24,26,28,30,-1,32,-1,-1,34,36,38,-1,-1,40,-1,-1,42,44,46,48,-1,-1,-1,-1,-1,-1,50,-1,52,-1,-1,-1,-1,-1,54,56,-1,-1,-1,-1],"split_conditions":[-9.981274E-1,5.0334682E0,1E0,-6.9E0,-2.2697395E-2,5.113702E0,-1.6792515E-2,-1.8911012E-2,2.1757198E-2,-1.7145183E0,5.598764E0,3.5465765E-4,3.8944628E-2,-1.2712864E0,-2.3531919E0,1E0,-2.3532324E0,8.293538E1,1E0,8.198493E-1,1.2383466E0,-2.9784879E-2,2.1697405E-1,8.573191E-4,-2.5992027E-2,-1.2990574E0,-4.6395215E-1,-1.4056007E0,-4.9561653E-3,1.5795082E-3,-2.7906034E0,2.0864E-2,-1.1684619E-2,5.2020186E-1,-8.5507506E-1,2.01745E0,-7.1486765E-1,-6.8008006E-2,8.238894E-3,1.9199569E-2,-4.1821E-2,-5.2554045E-2,2.5591957E-3,1.8739762E0,2.450862E-2,-1.5883585E0,-1.9222746E-2,1.9739835E-2,-5.9445903E-2,-5.051931E-2,9.607412E-3,-5.6440794E-1,5.2020186E-1,-1.3612664E-2,4.360712E-2,2.530837E-2,-3.8587324E-2],"split_indices":[15,10,4,6,0,10,0,0,0,9,10,0,0,9,13,1,7,16,1,7,7,0,7,0,0,9,9,9,0,0,9,0,0,7,7,7,7,0,0,0,0,0,0,9,0,9,0,0,0,0,0,7,7,0,0,0,0],"split_type":[0,0,0,0,0,0,0,0,0,0,0,0,0,0,0,0,0,0,0,0,0,0,0,0,0,0,0,0,0,0,0,0,0,0,0,0,0,0,0,0,0,0,0,0,0,0,0,0,0,0,0,0,0,0,0,0,0],"sum_hessian":[1.917172E4,2.8343225E3,1.6337398E4,6.656822E2,2.1686404E3,1.4818999E4,1.518399E3,2.3965463E2,4.2602756E2,1.0895565E3,1.3729442E4,4.9854388E2,5.910126E2,4.679919E3,9.049523E3,2.9034434E3,1.7764756E3,1.9685491E3,7.0809746E3,7.8376996E2,2.1196736E3,6.41374E1,1.7123381E3,1.2453314E3,7.2321765E2,3.4346729E3,3.6463018E3,4.2873666E2,3.550333E2,1.6846194E3,4.3505405E2,1.3385393E3,3.737989E2,8.94151E2,2.540522E3,3.397595E3,2.4870697E2,3.8481964E2,4.3917015E1,6.237666E1,3.726774E2,4.471829E2,4.469681E2,5.450261E2,1.9954957E3,3.3303635E3,6.723143E1,1.10195015E2,1.3851195E2,2.4543613E2,2.9959003E2,1.6276147E3,1.7027487E3,7.599941E1,1.5516154E3,1.499946E3,2.0280264E2],"tree_param":{"num_deleted":"0","num_feature":"17","num_nodes":"57","size_leaf_vector":"1"}},{"base_weights":[-5.850401E-3,3.914956E-2,-1.92038E-2,-1.8197886E-3,9.2171885E-2,-6.22259E-2,-6.140418E-3,3.6766015E-2,9.86015E-4,-3.2590102E-2,-3.0647948E-2,8.133041E-2,-1.8161885E-2,2.8776929E-2,-1.01057015E-1,-4.2268713E-3,3.9433766E-2,-8.344179E-2,-4.2345324E-3,2.2199739E-2,-1.2885735E-2,9.6104955E-3,-3.508193E-2,2.9236633E-2,-1.9051284E-2,-3.6886033E-2,-4.411954E-2,-3.6407657E-2,5.5789575E-3,1.3365419E-2,-9.840449E-2,5.4171034E-3,-1.7616948E-2,-3.5609648E-2,1.5974352E-2],"categories":[],"categories_nodes":[],"categories_segments":[],"categories_sizes":[],"default_left":[0,0,0,0,0,0,0,0,0,0,0,0,0,1,0,1,0,0,1,0,0,0,0,0,0,0,0,0,0,0,0,0,0,0,0],"id":6,"left_children":[1,3,5,-1,7,9,11,-1,-1,-1,13,15,17,19,21,23,-1,25,27,-1,-1,-1,-1,-1,-1,29,-1,31,-1,-1,33,-1,-1,-1,-1],"loss_changes":[1.1673724E1,1.0970222E1,8.322376E0,0E0,8.354624E0,5.915801E0,1.2497628E1,0E0,0E0,0E0,1.0959913E1,8.335219E0,9.371771E0,6.96991E0,5.8060102E0,7.4721923E0,0E0,5.886881E0,7.214348E0,0E0,0E0,0E0,0E0,0E0,0E0,8.254116E0,0E0,6.8253083E0,0E0,0E0,6.247512E0,0E0,0E0,0E0,0E0],"parents":[2147483647,0,0,1,1,2,2,4,4,5,5,6,6,10,10,11,11,12,12,13,13,14,14,15,15,17,17,18,18,25,25,27,27,30,30],"right_children":[2,4,6,-1,8,10,12,-1,-1,-1,14,16,18,20,22,24,-1,26,28,-1,-1,-1,-1,-1,-1,30,-1,32,-1,-1,34,-1,-1,-1,-1],"split_conditions":[6.1188083E0,5.8014336E0,5.607388E0,-1.8197886E-3,7.906867E1,-1.8549815E-1,8.3797026E-1,3.6766015E-2,9.86015E-4,-3.2590102E-2,9.057184E-1,-1.5778917E0,8.7340224E-1,1.656E3,-2.4587142E0,3.464541E0,3.9433766E-2,1.992E3,6.79343E0,2.2199739E-2,-1.2885735E-2,9.6104955E-3,-3.508193E-2,2.9236633E-2,-1.9051284E-2,6.962489E0,-4.411954E-2,5.716343E0,5.5789575E-3,1.3365419E-2,1.4289187E0,5.4171034E-3,-1.7616948E-2,-3.5609648E-2,1.5974352E-2],"split_indices":[8,10,15,0,16,7,11,0,0,0,7,9,11,12,9,13,0,12,13,0,0,0,0,0,0,13,0,10,0,0,9,0,0,0,0],"split_type":[0,0,0,0,0,0,0,0,0,0,0,0,0,0,0,0,0,0,0,0,0,0,0,0,0,0,0,0,0,0,0,0,0,0,0],"sum_hessian":[1.9041871E4,4.280166E3,1.4761705E4,2.3717788E3,1.908387E3,3.2861292E3,1.1475575E4,1.1921659E3,7.162211E2,9.596774E2,2.3264517E3,1.2659457E3,1.020963E4,1.3162812E3,1.01017053E3,6.251945E2,6.407512E2,1.6432374E3,8.566393E3,7.632902E2,5.52991E2,1.7887628E2,8.3129425E2,1.913792E2,4.338153E2,1.2091797E3,4.3405777E2,3.7293225E3,4.83707E3,5.131921E2,6.959876E2,1.3008331E3,2.4284893E3,5.9128235E2,1.0470524E2],"tree_param":{"num_deleted":"0","num_feature":"17","num_nodes":"35","size_leaf_vector":"1"}},{"base_weights":[-2.424266E-3,-7.794706E-2,5.456124E-3,2.2924023E-2,-1.04019426E-1,8.6941407E-4,2.6894867E-2,-3.330235E-2,9.151634E-3,-2.548542E-2,2.3405334E-2,-9.029944E-2,2.193866E-2,1.1727663E-2,-3.9005727E-2,1.609013E-3,-1.4014943E-1,-2.8588796E-2,3.17359E-2,-1.7443938E-2,1.8272327E-2,-1.4035011E-2,1.9602839E-2,-4.7827926E-2,-1.8868612E-3,7.491984E-2,-1.1656617E-4,9.399549E-2,-1.7361842E-2,-1.7503245E-2,3.0738402E-2],"categories":[],"categories_nodes":[],"categories_segments":[],"categories_sizes":[],"default_left":[1,1,0,0,0,0,0,0,0,0,0,0,1,0,0,0,0,0,0,0,0,0,0,0,0,0,0,0,0,0,0],"id":7,"left_children":[1,3,5,-1,7,9,-1,-1,-1,11,13,15,17,-1,19,21,23,-1,25,-1,-1,-1,-1,-1,-1,27,-1,29,-1,-1,-1],"loss_changes":[1.1559003E1,9.390663E0,7.704181E0,0E0,5.590685E0,1.0196197E1,0E0,0E0,0E0,2.4673208E1,1.2217268E1,1.552742E1,6.546471E0,0E0,7.595557E0,5.9817495E0,1.1291851E1,0E0,6.277187E0,0E0,0E0,0E0,0E0,0E0,0E0,6.2095804E0,0E0,7.3692093E0,0E0,0E0,0E0],"parents":[2147483647,0,0,1,1,2,2,4,4,5,5,9,9,10,10,11,11,12,12,14,14,15,15,16,16,18,18,25,25,27,27],"right_children":[2,4,6,-1,8,10,-1,-1,-1,12,14,16,18,-1,20,22,24,-1,26,-1,-1,-1,-1,-1,-1,28,-1,30,-1,-1,-1],"split_conditions":[1.145E3,6.0404625E0,2.6846497E0,2.2924023E-2,4.300829E1,1E0,2.6894867E-2,-3.330235E-2,9.151634E-3,-9.716413E-1,-1.262769E0,6.671604E1,5.6446595E0,1.1727663E-2,6.126829E0,8.63E1,2.049E3,-2.8588796E-2,6.736469E1,-1.7443938E-2,1.8272327E-2,-1.4035011E-2,1.9602839E-2,-4.7827926E-2,-1.8868612E-3,1.983E3,-1.1656617E-4,3.6223125E1,-1.7361842E-2,-1.7503245E-2,3.0738402E-2],"split_indices":[12,8,9,0,15,1,0,0,0,9,9,14,8,0,10,5,12,0,14,0,0,0,0,0,0,12,0,14,0,0,0],"split_type":[0,0,0,0,0,0,0,0,0,0,0,0,0,0,0,0,0,0,0,0,0,0,0,0,0,0,0,0,0,0,0],"sum_hessian":[1.9118205E4,1.6626444E3,1.745556E4,1.7327899E2,1.4893654E3,1.6822576E4,6.329861E2,1.3074133E3,1.8195207E2,7.7424272E3,9.080147E3,3.206298E3,4.5361294E3,6.8620605E3,2.2180874E3,1.1855814E3,2.0207168E3,1.981998E2,4.3379297E3,1.834259E3,3.8382846E2,7.015469E2,4.8403452E2,1.5113242E3,5.0939255E2,1.7553745E3,2.582555E3,1.5953821E3,1.5999239E2,1.4648868E2,1.4488934E3],"tree_param":{"num_deleted":"0","num_feature":"17","num_nodes":"31","size_leaf_vector":"1"}},{"base_weights":[-8.398967E-3,-8.7355405E-2,-8.0382405E-4,-3.351075E-2,2.9586848E-2,2.7192917E-3,-1.3012843E-1,-4.1668615E-3,5.943321E-2,1.906028E-2,-1.8766238E-1,-3.8163453E-2,1.9148724E-2,1.099889E-1,-5.432966E-2,1.2670161E-2,-6.750863E-2,-1.4313984E-1,2.2200176E-2,3.9225902E-2,-7.064968E-2,3.402096E-2,-1.6641818E-2,1.2660891E-2,-3.2186598E-2,-8.137438E-2,-7.310767E-2,-1.0460644E-1,5.8028582E-2,5.5460848E-2,-4.9207885E-2,7.055895E-2,-1.9337228E-1,-3.6612887E-2,-1.4597451E-2,-5.3402133E-2,1.7159933E-2,3.9983325E-2,3.3034746E-2,1.3259894E-1,4.121068E-2,1.8833172E-2,-3.9876167E-2,1.3523917E-1,-2.0435732E-2,7.2963834E-3,-2.1591212E-1,-6.64784E-2,1.8197939E-2,-1.8785315E-2,1.986973E-2,-6.4258473E-3,4.3522798E-2,8.3214715E-2,-6.5848755E-5,-1.4415001E-2,1.6751315E-1,-6.198706E-2,9.553597E-3,-3.815951E-2,1.3534018E-2,1.653833E-2,-6.624322E-2,-6.8502635E-2,2.8422061E-2,6.023447E-2,-1.4291976E-1,-9.591041E-3,5.3030234E-2,1.2181721E-2,-3.2373212E-2,1.782332E-2,-3.9270725E-2,2.7980497E-2,2.0423157E-3,1.9026062E-2,-4.547926E-2,-3.840416E-2,9.402149E-3],"categories":[],"categories_nodes":[],"categories_segments":[],"categories_sizes":[],"default_left":[0,0,0,0,0,0,0,0,0,0,0,0,0,0,0,0,0,0,0,0,0,0,0,0,0,0,0,0,0,1,0,0,0,0,0,0,0,0,0,0,0,0,0,0,0,0,0,0,0,0,0,0,0,0,0,0,0,0,0,0,0,0,0,0,0,0,0,0,0,0,0,0,0,0,0,0,0,0,0],"id":8,"left_children":[1,3,5,-1,-1,7,9,11,13,-1,15,17,19,21,23,-1,-1,25,27,29,31,-1,-1,-1,-1,-1,33,35,37,39,41,43,45,-1,47,-1,-1,-1,49,51,53,-1,-1,55,-1,-1,57,59,-1,61,-1,-1,-1,63,65,-1,67,-1,-1,-1,-1,-1,69,71,-1,73,75,-1,-1,-1,-1,-1,-1,-1,77,-1,-1,-1,-1],"loss_changes":[1.1513144E1,1.5289582E1,8.142056E0,0E0,0E0,6.8477015E0,7.820814E0,1.2562913E1,1.1948236E1,0E0,8.550012E0,4.1372227E1,1.745758E1,5.5893517E0,5.7335615E0,0E0,0E0,2.3158062E1,2.0296904E1,1.16828985E1,3.323904E1,0E0,0E0,0E0,0E0,0E0,6.753154E0,1.8374062E1,7.0000725E0,6.389921E0,1.753411E1,1.0885477E1,6.0068474E0,0E0,5.867288E0,0E0,0E0,0E0,6.514193E0,5.3504696E0,1.0217054E1,0E0,0E0,6.006118E0,0E0,0E0,5.3997154E0,8.606394E0,0E0,6.2058263E0,0E0,0E0,0E0,1.1689537E1,2.8547636E1,0E0,5.518137E0,0E0,0E0,0E0,0E0,0E0,7.0773234E0,7.01966E0,0E0,6.0373363E0,7.9935837E0,0E0,0E0,0E0,0E0,0E0,0E0,0E0,6.6633897E0,0E0,0E0,0E0,0E0],"parents":[2147483647,0,0,1,1,2,2,5,5,6,6,7,7,8,8,10,10,11,11,12,12,13,13,14,14,17,17,18,18,19,19,20,20,26,26,27,27,28,28,29,29,30,30,31,31,32,32,34,34,38,38,39,39,40,40,43,43,46,46,47,47,49,49,53,53,54,54,56,56,62,62,63,63,65,65,66,66,74,74],"right_children":[2,4,6,-1,-1,8,10,12,14,-1,16,18,20,22,24,-1,-1,26,28,30,32,-1,-1,-1,-1,-1,34,36,38,40,42,44,46,-1,48,-1,-1,-1,50,52,54,-1,-1,56,-1,-1,58,60,-1,62,-1,-1,-1,64,66,-1,68,-1,-1,-1,-1,-1,70,72,-1,74,76,-1,-1,-1,-1,-1,-1,-1,78,-1,-1,-1,-1],"split_conditions":[-1.2926823E0,3.2321246E0,2.349859E0,-3.351075E-2,2.9586848E-2,1.8305312E0,-2.9258027E0,1E0,-2.609868E-1,1.906028E-2,8.09E1,3.1793315E-2,1.1707982E0,1E0,2.004784E0,1.2670161E-2,-6.750863E-2,-1.3687572E0,-2.0890822E0,-1.0419489E0,-2.2235808E0,3.402096E-2,-1.6641818E-2,1.2660891E-2,-3.2186598E-2,-8.137438E-2,-5.507283E-1,1.3282925E0,5.398817E0,5.178425E1,-4.2862043E-1,8.4737015E1,1.6881393E1,-3.6612887E-2,1.3956144E0,-5.3402133E-2,1.7159933E-2,3.9983325E-2,-9.8672044E-1,2.1002928E-2,1.4989139E-1,1.8833172E-2,-3.9876167E-2,4.9547954E0,-2.0435732E-2,7.2963834E-3,6.208474E0,7.0055595E1,1.8197939E-2,-7.0571427E0,1.986973E-2,-6.4258473E-3,4.3522798E-2,-2.070422E0,-1.7043325E0,-1.4415001E-2,5.987318E0,-6.198706E-2,9.553597E-3,-3.815951E-2,1.3534018E-2,1.653833E-2,6.2911096E0,6.3330936E0,2.8422061E-2,-2.11839E0,-1.2825E1,-9.591041E-3,5.3030234E-2,1.2181721E-2,-3.2373212E-2,1.782332E-2,-3.9270725E-2,2.7980497E-2,4.9880147E0,1.9026062E-2,-4.547926E-2,-3.840416E-2,9.402149E-3],"split_indices":[7,9,7,0,0,9,9,1,7,0,5,7,7,1,9,0,0,9,9,9,9,0,0,0,0,0,7,7,10,14,7,16,14,0,9,0,0,0,9,7,7,0,0,10,0,0,10,14,0,6,0,0,0,9,9,0,8,0,0,0,0,0,8,8,0,9,6,0,0,0,0,0,0,0,10,0,0,0,0],"split_type":[0,0,0,0,0,0,0,0,0,0,0,0,0,0,0,0,0,0,0,0,0,0,0,0,0,0,0,0,0,0,0,0,0,0,0,0,0,0,0,0,0,0,0,0,0,0,0,0,0,0,0,0,0,0,0,0,0,0,0,0,0,0,0,0,0,0,0,0,0,0,0,0,0,0,0,0,0,0,0],"sum_hessian":[1.9057158E4,1.5128718E3,1.7544287E4,1.3200643E3,1.9280745E2,1.7242516E4,3.017708E2,1.5516714E4,1.7258022E3,5.7360317E1,2.4441048E2,6.26912E3,9.247594E3,1.1992146E3,5.2658765E2,6.371783E1,1.8069266E2,2.2030366E3,4.0660833E3,7.637689E3,1.6099049E3,1.1278812E3,7.133347E1,2.2709038E2,2.9949728E2,4.887562E2,1.7142804E3,8.225241E2,3.2435593E3,6.5079297E3,1.1297594E3,7.8232184E2,8.2758307E2,7.0476056E2,1.00951984E3,5.0446567E2,3.1805847E2,5.0748254E2,2.7360767E3,7.9109174E2,5.716838E3,5.3820575E2,5.915537E2,5.5377936E2,2.2854247E2,7.2927795E1,7.546553E2,6.426304E2,3.668895E2,1.2596047E3,1.476472E3,1.3599722E2,6.550945E2,2.7476262E3,2.9692117E3,6.332688E1,4.9045248E2,7.195638E2,3.5091507E1,3.6557678E2,2.770536E2,4.4548206E2,8.141226E2,3.2449628E2,2.4231301E3,2.1575396E3,8.116722E2,6.2554005E1,4.278985E2,2.7872327E2,5.3539935E2,1.288849E2,1.9561137E2,1.1392683E3,1.01827124E3,6.2238506E1,7.494337E2,8.190546E1,9.363658E2],"tree_param":{"num_deleted":"0","num_feature":"17","num_nodes":"79","size_leaf_vector":"1"}},{"base_weights":[-4.2148465E-3,-2.425365E-2,2.1893355E-4,2.0042839E-2,-7.2506564E-3,-5.0191704E-2,1.0738913E-3,-9.679006E-2,8.711051E-3,1.8470086E-2,-2.928627E-2,-6.6253416E-2,2.1184534E-2,-9.004803E-2,8.365622E-3,2.5652371E-2,-7.689645E-2,-2.8535068E-2,1.928587E-2,-6.26123E-2,-6.5323464E-3,9.6407406E-2,-2.8866382E-2,1.7838279E-3,-1.5780583E-1,-2.1820053E-2,2.3551866E-2,3.442941E-2,-1.5520799E-2,-2.4313295E-2,7.3578213E-3,-2.2171995E-2,4.723442E-2,-7.890219E-3,-2.230997E-1,2.038443E-2,-2.0771869E-2,-7.910761E-3,-6.963051E-2],"categories":[],"categories_nodes":[],"categories_segments":[],"categories_sizes":[],"default_left":[0,0,0,0,0,0,0,0,0,0,0,0,0,0,0,0,0,0,0,0,0,0,1,0,0,0,0,0,0,0,0,0,1,0,0,0,0,0,0],"id":9,"left_children":[1,-1,3,-1,5,7,9,11,-1,13,15,-1,17,19,-1,21,23,-1,-1,-1,25,27,29,31,33,-1,-1,-1,-1,-1,-1,-1,35,-1,37,-1,-1,-1,-1],"loss_changes":[7.429799E0,0E0,1.0469948E1,0E0,6.0821996E0,1.1221008E1,7.691966E0,3.3435513E1,0E0,1.3490342E1,1.4223335E1,0E0,9.09023E0,1.2211216E1,0E0,1.0482655E1,1.8436018E1,0E0,0E0,0E0,7.205916E0,7.251277E0,6.0708385E0,6.988976E0,1.0773804E1,0E0,0E0,0E0,0E0,0E0,0E0,0E0,5.344434E0,0E0,5.4630623E0,0E0,0E0,0E0,0E0],"parents":[2147483647,0,0,2,2,4,4,5,5,6,6,7,7,9,9,10,10,12,12,13,13,15,15,16,16,20,20,21,21,22,22,23,23,24,24,32,32,34,34],"right_children":[2,-1,4,-1,6,8,10,12,-1,14,16,-1,18,20,-1,22,24,-1,-1,-1,26,28,30,32,34,-1,-1,-1,-1,-1,-1,-1,36,-1,38,-1,-1,-1,-1],"split_conditions":[-1.8294296E1,-2.425365E-2,8.2069266E-1,2.0042839E-2,-8.5507506E-1,1E0,6.595807E-1,1.8944937E0,8.711051E-3,-2.1085527E0,-2.0032537E0,-6.6253416E-2,-1.973252E0,1E0,8.365622E-3,6.5370605E1,1E0,-2.8535068E-2,1.928587E-2,-6.26123E-2,3.5530633E-1,2.349859E0,-4.928571E0,9.189255E-1,-1.7555295E0,-2.1820053E-2,2.3551866E-2,3.442941E-2,-1.5520799E-2,-2.4313295E-2,7.3578213E-3,-2.2171995E-2,2.088E3,-7.890219E-3,7.954174E-1,2.038443E-2,-2.0771869E-2,-7.910761E-3,-6.963051E-2],"split_indices":[15,0,11,0,7,1,7,9,0,9,9,0,7,1,0,14,1,0,0,0,7,7,6,11,9,0,0,0,0,0,0,0,12,0,7,0,0,0,0],"split_type":[0,0,0,0,0,0,0,0,0,0,0,0,0,0,0,0,0,0,0,0,0,0,0,0,0,0,0,0,0,0,0,0,0,0,0,0,0,0,0],"sum_hessian":[1.9089107E4,7.6426514E2,1.8324842E4,1.5179109E3,1.6806932E4,2.5899426E3,1.4216988E4,1.640169E3,9.4977356E2,9.08252E3,5.1344683E3,6.3339996E2,1.006769E3,8.5859503E2,8.223925E3,2.419932E3,2.7145366E3,2.3329318E2,7.734758E2,1.9912842E2,6.594666E2,9.961607E2,1.4237711E3,1.4611212E3,1.2534153E3,3.8118353E2,2.7828305E2,8.450822E2,1.5107846E2,6.2647687E2,7.9729425E2,4.5838678E2,1.00273444E3,5.0785776E2,7.4555756E2,8.6715295E2,1.3558145E2,1.7452814E2,5.710294E2],"tree_param":{"num_deleted":"0","num_feature":"17","num_nodes":"39","size_leaf_vector":"1"}},{"base_weights":[-5.2792337E-3,2.4473418E-2,-2.0104516E-2,3.3285577E-2,-8.8799365E-2,-7.904962E-2,-8.235452E-3,-4.0285443E-3,1.5381094E-2,2.3683887E-2,-5.8483884E-2,7.6643075E-3,-1.12938985E-1,-6.0543753E-2,6.6549424E-3,-3.9531518E-2,-1.1106454E-3,2.012686E-3,-9.937115E-2,-2.478854E-2,7.845634E-3,-1.5489401E-3,-3.9911844E-2,-3.517787E-2,-2.2852174E-3],"categories":[],"categories_nodes":[],"categories_segments":[],"categories_sizes":[],"default_left":[0,0,0,1,0,0,0,0,0,0,0,0,0,0,0,0,0,0,1,0,0,0,0,0,0],"id":10,"left_children":[1,3,5,7,9,11,13,-1,-1,-1,-1,-1,15,17,19,-1,-1,-1,21,23,-1,-1,-1,-1,-1],"loss_changes":[8.550796E0,6.95249E0,8.91169E0,7.4081335E0,1.5297558E1,8.394699E0,8.591745E0,0E0,0E0,0E0,0E0,0E0,6.3214035E0,6.5920353E0,6.343558E0,0E0,0E0,0E0,7.2519445E0,6.294465E0,0E0,0E0,0E0,0E0,0E0],"parents":[2147483647,0,0,1,1,2,2,3,3,4,4,5,5,6,6,12,12,13,13,14,14,18,18,19,19],"right_children":[2,4,6,8,10,12,14,-1,-1,-1,-1,-1,16,18,20,-1,-1,-1,22,24,-1,-1,-1,-1,-1],"split_conditions":[7.097808E1,2.1548603E0,-8.5507506E-1,1.293E3,1E0,8.35E1,8.39E1,-4.0285443E-3,1.5381094E-2,2.3683887E-2,-5.8483884E-2,7.6643075E-3,9.915059E1,6.295544E0,5.5490394E0,-3.9531518E-2,-1.1106454E-3,2.012686E-3,-5.8428574E0,1.446E3,7.845634E-3,-1.5489401E-3,-3.9911844E-2,-3.517787E-2,-2.2852174E-3],"split_indices":[16,7,7,12,1,5,5,0,0,0,0,0,16,8,10,0,0,0,6,12,0,0,0,0,0],"split_type":[0,0,0,0,0,0,0,0,0,0,0,0,0,0,0,0,0,0,0,0,0,0,0,0,0],"sum_hessian":[1.9022113E4,6.287328E3,1.2734785E4,5.9468647E3,3.4046353E2,1.9701554E3,1.076463E4,2.0185402E3,3.9283245E3,1.675139E2,1.7294963E2,4.767913E2,1.493364E3,2.26943E3,8.4952E3,1.0776772E3,4.1568677E2,8.7371063E2,1.3957192E3,3.5644404E3,4.93076E3,5.573662E2,8.38353E2,3.05442E2,3.2589983E3],"tree_param":{"num_deleted":"0","num_feature":"17","num_nodes":"25","size_leaf_vector":"1"}},{"base_weights":[-8.7674605E-3,5.994743E-3,-3.4479238E-2,-3.4765676E-2,1.1033166E-2,-2.266174E-2,-2.918029E-2,5.728514E-4,8.656905E-2,3.9672248E-2,-1.2568735E-2,-3.6922786E-2,2.8639173E-2,1.1154605E-1,-2.5388913E-2,-3.7960384E-2,2.2348728E-2,-1.4028859E-1,-1.3502669E-3,1.1537332E-1,1.7708061E-2,3.518324E-2,-2.1947352E-2,-3.6864884E-2,2.7404383E-2,-5.584857E-2,1.0657612E-2,-7.686997E-2,3.803901E-2,4.213661E-2,-1.654845E-2,3.6177218E-2,-2.986319E-2,2.380786E-2,-2.1813482E-2,-1.1073448E-1,1.6331792E-2,-8.554584E-3,2.2483055E-2,3.9547574E-2,1.5677338E-2,1.1442295E-2,-4.000512E-2,3.0674703E-2,-2.9808147E-2,-1.3262341E-2,1.5547188E-2,1.6915282E-2,-2.4094887E-2,2.8796716E-2,-7.387513E-2,1.4590331E-2,-2.26903E-2,8.157595E-3,-3.688474E-2],"categories":[],"categories_nodes":[],"categories_segments":[],"categories_sizes":[],"default_left":[1,0,0,0,0,0,0,0,0,0,0,0,0,0,0,0,0,0,0,0,0,0,0,0,0,0,0,0,0,0,0,0,0,0,0,0,0,0,0,0,0,0,0,0,0,0,0,0,0,0,0,0,0,0,0],"id":11,"left_children":[1,3,5,-1,7,9,-1,11,13,15,-1,17,19,21,-1,23,-1,25,27,29,31,-1,-1,-1,33,-1,-1,35,37,-1,-1,39,-1,-1,-1,41,-1,43,-1,-1,45,-1,-1,47,-1,49,-1,-1,-1,51,53,-1,-1,-1,-1],"loss_changes":[7.3055143E0,8.709723E0,5.7874346E0,0E0,9.490746E0,9.926105E0,0E0,1.1484968E1,8.472699E0,6.964797E0,0E0,1.7137022E1,5.555912E0,7.333103E0,0E0,5.8877797E0,0E0,1.641796E1,1.1364558E1,6.776285E0,1.4477324E1,0E0,0E0,0E0,5.5021095E0,0E0,0E0,7.299026E0,5.565009E0,0E0,0E0,1.1477446E1,0E0,0E0,0E0,7.882226E0,0E0,6.3160024E0,0E0,0E0,5.771847E0,0E0,0E0,5.5936604E0,0E0,7.651992E0,0E0,0E0,0E0,6.167737E0,8.978598E0,0E0,0E0,0E0,0E0],"parents":[2147483647,0,0,1,1,2,2,4,4,5,5,7,7,8,8,9,9,11,11,12,12,13,13,15,15,17,17,18,18,19,19,20,20,24,24,27,27,28,28,31,31,35,35,37,37,40,40,43,43,45,45,49,49,50,50],"right_children":[2,4,6,-1,8,10,-1,12,14,16,-1,18,20,22,-1,24,-1,26,28,30,32,-1,-1,-1,34,-1,-1,36,38,-1,-1,40,-1,-1,-1,42,-1,44,-1,-1,46,-1,-1,48,-1,50,-1,-1,-1,52,54,-1,-1,-1,-1],"split_conditions":[6.612689E0,-1.973252E0,1.4964391E0,-3.4765676E-2,1.93685E0,5.404427E0,-2.918029E-2,1E0,1.1034072E-1,-1.9077922E0,-1.2568735E-2,-3.498331E-1,-2.4926705E0,1E0,-2.5388913E-2,1E0,2.2348728E-2,1.5465155E0,-1.6059991E0,2.7300756E1,1.272248E0,3.518324E-2,-2.1947352E-2,-3.6864884E-2,-2.11839E0,-5.584857E-2,1.0657612E-2,9.399062E1,6.2335653E0,4.213661E-2,-1.654845E-2,4.8107002E1,-2.986319E-2,2.380786E-2,-2.1813482E-2,5.9018707E0,1.6331792E-2,6.1485906E0,2.2483055E-2,3.9547574E-2,8.79E1,1.1442295E-2,-4.000512E-2,1.2551112E0,-2.9808147E-2,2.2654657E-1,1.5547188E-2,1.6915282E-2,-2.4094887E-2,9.798718E1,-2.0129662E0,1.4590331E-2,-2.26903E-2,8.157595E-3,-3.688474E-2],"split_indices":[8,7,7,0,9,10,0,1,7,9,0,7,9,1,0,1,0,9,9,13,7,0,0,0,9,0,0,16,8,0,0,14,0,0,0,8,0,8,0,0,5,0,0,7,0,7,0,0,0,16,9,0,0,0,0],"split_type":[0,0,0,0,0,0,0,0,0,0,0,0,0,0,0,0,0,0,0,0,0,0,0,0,0,0,0,0,0,0,0,0,0,0,0,0,0,0,0,0,0,0,0,0,0,0,0,0,0,0,0,0,0,0,0],"sum_hessian":[1.8975977E4,1.2136897E4,6.839079E3,2.7870996E2,1.18581875E4,6.1039004E3,7.351787E2,1.0568962E4,1.2892258E3,1.6938048E3,4.4100957E3,4.5001104E3,6.0688516E3,1.1924962E3,9.672969E1,6.23457E2,1.0703478E3,1.021923E3,3.4781875E3,4.9444843E2,5.5744033E3,1.1279208E3,6.45754E1,1.702548E2,4.5320215E2,7.1766486E2,3.0425812E2,1.1367534E3,2.341434E3,4.135938E2,8.0854645E1,4.989588E3,5.8481525E2,3.0959308E2,1.4360907E2,9.409451E2,1.9580829E2,1.2376876E3,1.1037463E3,6.034223E2,4.3861655E3,1.8903014E2,7.5191504E2,9.845568E2,2.5313077E2,2.6845564E3,1.7016093E3,8.3939886E2,1.4515796E2,1.6374841E3,1.0470723E3,1.4066821E3,2.3080193E2,4.3442044E2,6.126518E2],"tree_param":{"num_deleted":"0","num_feature":"17","num_nodes":"55","size_leaf_vector":"1"}},{"base_weights":[-1.4001855E-2,7.1510236E-4,-3.623188E-2,-2.0398416E-2,6.7604235E-3,-1.4288303E-2,-9.993692E-2,5.974478E-3,-1.24146035E-2,-3.1884193E-2,5.920011E-2,-3.2705817E-2,3.983735E-3,1.6077094E-2,-1.2699095E-2,2.585056E-2,-1.3763364E-2],"categories":[],"categories_nodes":[],"categories_segments":[],"categories_sizes":[],"default_left":[0,0,0,0,0,0,0,0,0,1,1,0,0,0,0,0,0],"id":12,"left_children":[1,3,5,7,-1,9,11,-1,-1,13,15,-1,-1,-1,-1,-1,-1],"loss_changes":[6.274662E0,6.1822715E0,1.0421054E1,7.369093E0,0E0,7.9283686E0,5.3961678E0,0E0,0E0,7.5838346E0,5.8922296E0,0E0,0E0,0E0,0E0,0E0,0E0],"parents":[2147483647,0,0,1,1,2,2,3,3,5,5,6,6,9,9,10,10],"right_children":[2,4,6,8,-1,10,12,-1,-1,14,16,-1,-1,-1,-1,-1,-1],"split_conditions":[1.6175903E1,4.8252726E0,8.9E1,3.2088604E1,6.7604235E-3,6.0279727E0,2.078E3,5.974478E-3,-1.24146035E-2,-1.1375E1,1.8E-1,-3.2705817E-2,3.983735E-3,1.6077094E-2,-1.2699095E-2,2.585056E-2,-1.3763364E-2],"split_indices":[13,13,5,15,0,10,12,0,0,6,6,0,0,0,0,0,0],"split_type":[0,0,0,0,0,0,0,0,0,0,0,0,0,0,0,0,0],"sum_hessian":[1.8985775E4,1.1521542E4,7.464233E3,6.223675E3,5.2978667E3,5.7094385E3,1.7547944E3,2.3720493E3,3.8516257E3,4.6858813E3,1.02355707E3,1.4536796E3,3.011148E2,6.139743E2,4.071907E3,7.7930743E2,2.4424962E2],"tree_param":{"num_deleted":"0","num_feature":"17","num_nodes":"17","size_leaf_vector":"1"}},{"base_weights":[-2.9617776E-3],"categories":[],"categories_nodes":[],"categories_segments":[],"categories_sizes":[],"default_left":[0],"id":13,"left_children":[-1],"loss_changes":[0E0],"parents":[2147483647],"right_children":[-1],"split_conditions":[-7.885294E-4],"split_indices":[0],"split_type":[0],"sum_hessian":[1.8991393E4],"tree_param":{"num_deleted":"0","num_feature":"17","num_nodes":"1","size_leaf_vector":"1"}},{"base_weights":[-6.3123624E-3,-9.291354E-2,-2.2103852E-3,-3.7816998E-2,1.5520944E-2,-7.108604E-3,8.443607E-2,-6.1091244E-2,-3.837316E-5,2.903234E-2,-2.4448998E-2,-1.3580394E-1,7.1236524E-3,-4.4782225E-2,5.93334E-3],"categories":[],"categories_nodes":[],"categories_segments":[],"categories_sizes":[],"default_left":[0,0,0,0,0,0,0,0,0,0,0,0,0,0,0],"id":14,"left_children":[1,3,5,-1,-1,7,9,11,-1,-1,-1,13,-1,-1,-1],"loss_changes":[6.766891E0,7.834113E0,7.9400597E0,0E0,0E0,6.6293483E0,6.0687118E0,1.3859491E1,0E0,0E0,0E0,6.3812714E0,0E0,0E0,0E0],"parents":[2147483647,0,0,1,1,2,2,5,5,6,6,7,7,11,11],"right_children":[2,4,6,-1,-1,8,10,12,-1,-1,-1,14,-1,-1,-1],"split_conditions":[-1.7557496E0,3.2321246E0,2.2878711E0,-3.7816998E-2,1.5520944E-2,-8.3766025E-1,1E0,1E0,-3.837316E-5,2.903234E-2,-2.4448998E-2,6.141745E0,7.1236524E-3,-4.4782225E-2,5.93334E-3],"split_indices":[7,9,9,0,0,7,1,1,0,0,0,10,0,0,0],"split_type":[0,0,0,0,0,0,0,0,0,0,0,0,0,0,0],"sum_hessian":[1.8995496E4,6.897303E2,1.8305766E4,5.288198E2,1.6091049E2,1.7476625E4,8.291421E2,1.8430293E3,1.5633595E4,7.8551117E2,4.3630943E1,9.456375E2,8.973917E2,7.760241E2,1.696134E2],"tree_param":{"num_deleted":"0","num_feature":"17","num_nodes":"15","size_leaf_vector":"1"}},{"base_weights":[1.3197698E-3],"categories":[],"categories_nodes":[],"categories_segments":[],"categories_sizes":[],"default_left":[0],"id":15,"left_children":[-1],"loss_changes":[0E0],"parents":[2147483647],"right_children":[-1],"split_conditions":[3.5136912E-4],"split_indices":[0],"split_type":[0],"sum_hessian":[1.9017154E4],"tree_param":{"num_deleted":"0","num_feature":"17","num_nodes":"1","size_leaf_vector":"1"}},{"base_weights":[2.8933496E-3,-3.0146662E-2,5.3321626E-3,1.7823536E-2,-1.860437E-2,-2.08062E-2,2.9867548E-2,4.7152635E-2,-3.4332402E-2,5.4474412E-3,-2.1739347E-2,1.0739922E-2,-2.739532E-2,-2.2946548E-2,7.289869E-2,-2.115232E-2,-2.349721E-3,6.0549728E-3,-3.095214E-2,2.837737E-2,-1.156721E-2,2.2707932E-2,-7.9821825E-2,3.8194135E-2,-2.7420273E-2,3.802606E-3,-4.2320948E-2,7.0165847E-3,2.9197354E-2,-1.8555125E-2,3.0347278E-2,9.79974E-3,-2.6191214E-2],"categories":[],"categories_nodes":[],"categories_segments":[],"categories_sizes":[],"default_left":[0,0,0,0,0,0,0,1,0,0,0,0,1,0,1,0,0,0,0,0,0,0,0,0,0,0,0,0,0,0,0,0,0],"id":16,"left_children":[1,-1,3,5,7,9,11,13,15,-1,-1,-1,17,-1,19,-1,21,-1,-1,-1,-1,23,25,27,-1,-1,-1,29,-1,31,-1,-1,-1],"loss_changes":[5.514839E0,0E0,5.7093887E0,5.928773E0,7.0670805E0,8.0104E0,5.95411E0,5.676465E0,7.7512527E0,0E0,0E0,0E0,7.5337057E0,0E0,5.5669847E0,0E0,6.794323E0,0E0,0E0,0E0,0E0,5.840493E0,6.7640758E0,5.4072404E0,0E0,0E0,0E0,5.6177335E0,0E0,8.120648E0,0E0,0E0,0E0],"parents":[2147483647,0,0,2,2,3,3,4,4,5,5,6,6,7,7,8,8,12,12,14,14,16,16,21,21,22,22,23,23,27,27,29,29],"right_children":[2,-1,4,6,8,10,12,14,16,-1,-1,-1,18,-1,20,-1,22,-1,-1,-1,-1,24,26,28,-1,-1,-1,30,-1,32,-1,-1,-1],"split_conditions":[-2.3532324E0,-3.0146662E-2,1.8380272E1,-4.072487E0,8.42E1,8.31436E1,9.7288334E-1,1.9509594E1,1E0,5.4474412E-3,-2.1739347E-2,1.0739922E-2,6.427136E0,-2.2946548E-2,6.7549963E0,-2.115232E-2,1.0661019E0,6.0549728E-3,-3.095214E-2,2.837737E-2,-1.156721E-2,-7.128862E-1,-2.1281855E0,6.71949E0,-2.7420273E-2,3.802606E-3,-4.2320948E-2,-1.0665404E0,2.9197354E-2,-1.5310478E0,3.0347278E-2,9.79974E-3,-2.6191214E-2],"split_indices":[7,0,13,13,5,16,11,13,1,0,0,0,8,0,8,0,7,0,0,0,0,9,9,8,0,0,0,9,0,9,0,0,0],"split_type":[0,0,0,0,0,0,0,0,0,0,0,0,0,0,0,0,0,0,0,0,0,0,0,0,0,0,0,0,0,0,0,0,0],"sum_hessian":[1.8960658E4,2.2855951E2,1.87321E4,1.2339581E4,6.392518E3,2.901669E3,9.437912E3,1.1666102E3,5.2259077E3,1.7964191E3,1.1052499E3,8.022792E3,1.41512E3,1.2295276E2,1.0436575E3,2.0609163E3,3.1649917E3,9.860469E2,4.2907315E2,8.209853E2,2.2267212E2,2.4827295E3,6.8226215E2,2.3175984E3,1.6513098E2,3.756888E2,3.0657336E2,1.7459983E3,5.7160016E2,1.523421E3,2.2257727E2,9.5375684E2,5.696642E2],"tree_param":{"num_deleted":"0","num_feature":"17","num_nodes":"33","size_leaf_vector":"1"}},{"base_weights":[-2.9722743E-3],"categories":[],"categories_nodes":[],"categories_segments":[],"categories_sizes":[],"default_left":[0],"id":17,"left_children":[-1],"loss_changes":[0E0],"parents":[2147483647],"right_children":[-1],"split_conditions":[-7.9132395E-4],"split_indices":[0],"split_type":[0],"sum_hessian":[1.897969E4],"tree_param":{"num_deleted":"0","num_feature":"17","num_nodes":"1","size_leaf_vector":"1"}},{"base_weights":[3.6701008E-3,-1.5128742E-2,1.9417556E-2,9.49921E-3,-3.6889464E-2,5.317234E-2,5.763004E-4,-2.4515977E-3,-2.4117803E-2,2.9194267E-2,7.671941E-3,2.3683604E-2,-6.0869264E-3],"categories":[],"categories_nodes":[],"categories_segments":[],"categories_sizes":[],"default_left":[0,0,0,0,0,0,0,0,0,0,0,0,0],"id":18,"left_children":[1,3,5,-1,7,9,-1,-1,-1,-1,11,-1,-1],"loss_changes":[5.714456E0,9.97336E0,6.084201E0,0E0,9.151013E0,8.941675E0,0E0,0E0,0E0,0E0,5.680634E0,0E0,0E0],"parents":[2147483647,0,0,1,1,2,2,4,4,5,5,10,10],"right_children":[2,4,6,-1,8,10,-1,-1,-1,-1,12,-1,-1],"split_conditions":[5.6334567E0,8.3797026E-1,-1.5231069E0,9.49921E-3,1.9349876E1,5.813266E0,5.763004E-4,-2.4515977E-3,-2.4117803E-2,2.9194267E-2,1.16873865E1,2.3683604E-2,-6.0869264E-3],"split_indices":[10,11,9,0,13,10,0,0,0,0,15,0,0],"split_type":[0,0,0,0,0,0,0,0,0,0,0,0,0],"sum_hessian":[1.895941E4,8.643403E3,1.0316007E4,2.5578254E3,6.0855776E3,3.3666907E3,6.9493164E3,4.149526E3,1.9360518E3,1.3930752E3,1.9736155E3,4.496439E2,1.5239717E3],"tree_param":{"num_deleted":"0","num_feature":"17","num_nodes":"13","size_leaf_vector":"1"}},{"base_weights":[-1.8057082E-3],"categories":[],"categories_nodes":[],"categories_segments":[],"categories_sizes":[],"default_left":[0],"id":19,"left_children":[-1],"loss_changes":[0E0],"parents":[2147483647],"right_children":[-1],"split_conditions":[-4.8074304E-4],"split_indices":[0],"split_type":[0],"sum_hessian":[1.9000139E4],"tree_param":{"num_deleted":"0","num_feature":"17","num_nodes":"1","size_leaf_vector":"1"}},{"base_weights":[-4.0689777E-3],"categories":[],"categories_nodes":[],"categories_segments":[],"categories_sizes":[],"default_left":[0],"id":20,"left_children":[-1],"loss_changes":[0E0],"parents":[2147483647],"right_children":[-1],"split_conditions":[-1.083305E-3],"split_indices":[0],"split_type":[0],"sum_hessian":[1.8976941E4],"tree_param":{"num_deleted":"0","num_feature":"17","num_nodes":"1","size_leaf_vector":"1"}},{"base_weights":[6.8929573E-3,3.158657E-2,4.0012593E-3,8.85133E-3,-6.894603E-2,-2.1546245E-2,1.2560973E-2,2.2374148E-2,-1.10253625E-1,7.4997665E-3,-8.799667E-3,9.510897E-4,-4.90167E-2,-8.368415E-2,7.655853E-4,2.9364913E-3,-4.525292E-2,6.3279583E-3,-1.0138182E-2],"categories":[],"categories_nodes":[],"categories_segments":[],"categories_sizes":[],"default_left":[1,0,0,1,0,0,0,0,0,0,0,0,0,0,0,0,0,0,0],"id":21,"left_children":[1,-1,3,5,7,-1,9,-1,11,-1,13,-1,-1,15,17,-1,-1,-1,-1],"loss_changes":[6.095788E0,0E0,6.7662883E0,6.1047263E0,9.13703E0,0E0,5.799261E0,0E0,8.653399E0,0E0,5.329782E0,0E0,0E0,7.219754E0,6.183353E0,0E0,0E0,0E0,0E0],"parents":[2147483647,0,0,2,2,3,3,4,4,6,6,8,8,10,10,13,13,14,14],"right_children":[2,-1,4,6,8,-1,10,-1,12,-1,14,-1,-1,16,18,-1,-1,-1,-1],"split_conditions":[1.4011032E1,3.158657E-2,1.7222141E0,9.09E2,-2.7423155E0,-2.1546245E-2,1.786E3,2.2374148E-2,1E0,7.4997665E-3,-3.5243084E0,9.510897E-4,-4.90167E-2,8.562775E1,3.8976677E1,2.9364913E-3,-4.525292E-2,6.3279583E-3,-1.0138182E-2],"split_indices":[14,0,7,12,9,0,12,0,1,0,15,0,0,16,15,0,0,0,0],"split_type":[0,0,0,0,0,0,0,0,0,0,0,0,0,0,0,0,0,0,0],"sum_hessian":[1.8971865E4,3.041309E2,1.8667734E4,1.7646676E4,1.021059E3,5.5727435E2,1.7089402E4,1.7885803E2,8.42201E2,9.844362E3,7.2450396E3,3.9550192E2,4.466991E2,6.703875E2,6.5746523E3,3.9076794E2,2.7961954E2,4.1725044E3,2.402148E3],"tree_param":{"num_deleted":"0","num_feature":"17","num_nodes":"19","size_leaf_vector":"1"}},{"base_weights":[9.954805E-4,9.276738E-4,-1.1783469E-1,-4.6317548E-2,1.4297314E-2],"categories":[],"categories_nodes":[],"categories_segments":[],"categories_sizes":[],"default_left":[0,0,0,0,0],"id":22,"left_children":[1,-1,3,-1,-1],"loss_changes":[5.720026E0,0E0,5.437689E0,0E0,0E0],"parents":[2147483647,0,0,2,2],"right_children":[2,-1,4,-1,-1],"split_conditions":[2.4830751E0,9.276738E-4,4.3681545E1,-4.6317548E-2,1.4297314E-2],"split_indices":[7,0,15,0,0],"split_type":[0,0,0,0,0],"sum_hessian":[1.8956576E4,1.8731914E4,2.2466374E2,1.677404E2,5.6923344E1],"tree_param":{"num_deleted":"0","num_feature":"17","num_nodes":"5","size_leaf_vector":"1"}},{"base_weights":[-8.3747115E-3],"categories":[],"categories_nodes":[],"categories_segments":[],"categories_sizes":[],"default_left":[0],"id":23,"left_children":[-1],"loss_changes":[0E0],"parents":[2147483647],"right_children":[-1],"split_conditions":[-2.2296428E-3],"split_indices":[0],"split_type":[0],"sum_hessian":[1.898411E4],"tree_param":{"num_deleted":"0","num_feature":"17","num_nodes":"1","size_leaf_vector":"1"}},{"base_weights":[-1.6011534E-3,-3.2178514E-2,2.832035E-3,-2.0607265E-2,1.4698392E-3,5.076248E-2,-3.1229837E-2,-1.6928717E-2,2.7480798E-2,1.8554607E-2,-6.277741E-2,3.48776E-3,-1.1419803E-1,-3.653699E-3,-4.649127E-2],"categories":[],"categories_nodes":[],"categories_segments":[],"categories_sizes":[],"default_left":[0,0,0,0,0,0,0,0,0,0,0,0,0,0,0],"id":24,"left_children":[1,3,-1,-1,5,7,9,-1,-1,-1,11,-1,13,-1,-1],"loss_changes":[7.236786E0,8.433849E0,0E0,0E0,5.6521754E0,9.512735E0,7.475419E0,0E0,0E0,0E0,6.896695E0,0E0,5.8363132E0,0E0,0E0],"parents":[2147483647,0,0,1,1,4,4,5,5,6,6,10,10,12,12],"right_children":[2,4,-1,-1,6,8,10,-1,-1,-1,12,-1,14,-1,-1],"split_conditions":[9.948644E0,9.926692E-2,2.832035E-3,-2.0607265E-2,1E0,-2.0515144E0,-2.3576708E0,-1.6928717E-2,2.7480798E-2,1.8554607E-2,7.1483904E-1,3.48776E-3,5.5721012E1,-3.653699E-3,-4.649127E-2],"split_indices":[15,7,0,0,1,9,9,0,0,0,7,0,14,0,0],"split_type":[0,0,0,0,0,0,0,0,0,0,0,0,0,0,0],"sum_hessian":[1.900459E4,5.3537817E3,1.3650808E4,2.189437E3,3.1643447E3,1.2249357E3,1.9394089E3,3.733105E2,8.516252E2,4.1176443E2,1.5276445E3,6.683283E2,8.593163E2,4.0248596E2,4.568303E2],"tree_param":{"num_deleted":"0","num_feature":"17","num_nodes":"15","size_leaf_vector":"1"}},{"base_weights":[-8.466763E-4],"categories":[],"categories_nodes":[],"categories_segments":[],"categories_sizes":[],"default_left":[0],"id":25,"left_children":[-1],"loss_changes":[0E0],"parents":[2147483647],"right_children":[-1],"split_conditions":[-2.2541502E-4],"split_indices":[0],"split_type":[0],"sum_hessian":[1.8959953E4],"tree_param":{"num_deleted":"0","num_feature":"17","num_nodes":"1","size_leaf_vector":"1"}},{"base_weights":[4.561592E-3],"categories":[],"categories_nodes":[],"categories_segments":[],"categories_sizes":[],"default_left":[0],"id":26,"left_children":[-1],"loss_changes":[0E0],"parents":[2147483647],"right_children":[-1],"split_conditions":[1.2144562E-3],"split_indices":[0],"split_type":[0],"sum_hessian":[1.8921625E4],"tree_param":{"num_deleted":"0","num_feature":"17","num_nodes":"1","size_leaf_vector":"1"}},{"base_weights":[-1.5080695E-3,-2.018462E-2,1.4598572E-2,1.688309E-2,-7.827401E-3,3.3946242E-5,6.564346E-2,-2.8207652E-2,3.5389137E-2,2.5175579E-2,-2.0055447E-2,3.9258186E-2,-5.651069E-2,-2.8067008E-2,4.56604E-2,2.4244003E-2,-1.9914838E-2,-3.7760974E-4,-2.909894E-2,-2.1262066E-2,1.5336317E-2],"categories":[],"categories_nodes":[],"categories_segments":[],"categories_sizes":[],"default_left":[0,1,0,0,0,0,0,0,1,0,0,1,0,0,0,0,0,0,0,0,0],"id":27,"left_children":[1,3,5,-1,-1,7,9,11,13,-1,-1,15,17,-1,19,-1,-1,-1,-1,-1,-1],"loss_changes":[5.803842E0,7.198109E0,7.7016344E0,0E0,0E0,8.39815E0,1.0603808E1,9.309082E0,6.227493E0,0E0,0E0,9.932293E0,9.749538E0,0E0,6.191221E0,0E0,0E0,0E0,0E0,0E0,0E0],"parents":[2147483647,0,0,1,1,2,2,5,5,6,6,7,7,8,8,11,11,12,12,14,14],"right_children":[2,4,6,-1,-1,8,10,12,14,-1,-1,16,18,-1,20,-1,-1,-1,-1,-1,-1],"split_conditions":[2.1580914E1,5.8422647E0,1.3956144E0,1.688309E-2,-7.827401E-3,8.67E1,1.5909378E-1,3.233985E1,3.6223125E1,2.5175579E-2,-2.0055447E-2,1.6175903E1,6.43139E0,-2.8067008E-2,-1.1135913E0,2.4244003E-2,-1.9914838E-2,-3.7760974E-4,-2.909894E-2,-2.1262066E-2,1.5336317E-2],"split_indices":[15,8,9,0,0,5,7,15,14,0,0,13,8,0,7,0,0,0,0,0,0],"split_type":[0,0,0,0,0,0,0,0,0,0,0,0,0,0,0,0,0,0,0,0,0],"sum_hessian":[1.8951564E4,8.757549E3,1.0194016E4,7.6826886E2,7.9892803E3,8.066146E3,2.1278699E3,4.5024136E3,3.5637324E3,1.8131188E3,3.1475125E2,1.3101846E3,3.192229E3,1.3340097E2,3.4303315E3,9.252722E2,3.8491238E2,1.6491588E3,1.5430702E3,2.1248743E2,3.217844E3],"tree_param":{"num_deleted":"0","num_feature":"17","num_nodes":"21","size_leaf_vector":"1"}},{"base_weights":[-1.0727601E-3,1.4617665E-3,-1.1888914E-2],"categories":[],"categories_nodes":[],"categories_segments":[],"categories_sizes":[],"default_left":[0,0,0],"id":28,"left_children":[1,-1,-1],"loss_changes":[5.5078955E0,0E0,0E0],"parents":[2147483647,0,0],"right_children":[2,-1,-1],"split_conditions":[9.226502E1,1.4617665E-3,-1.1888914E-2],"split_indices":[14,0,0],"split_type":[0,0,0],"sum_hessian":[1.8925809E4,1.6578078E4,2.347731E3],"tree_param":{"num_deleted":"0","num_feature":"17","num_nodes":"3","size_leaf_vector":"1"}},{"base_weights":[-7.3980907E-4],"categories":[],"categories_nodes":[],"categories_segments":[],"categories_sizes":[],"default_left":[0],"id":29,"left_children":[-1],"loss_changes":[0E0],"parents":[2147483647],"right_children":[-1],"split_conditions":[-1.969632E-4],"split_indices":[0],"split_type":[0],"sum_hessian":[1.8957043E4],"tree_param":{"num_deleted":"0","num_feature":"17","num_nodes":"1","size_leaf_vector":"1"}},{"base_weights":[-7.4420725E-3],"categories":[],"categories_nodes":[],"categories_segments":[],"categories_sizes":[],"default_left":[0],"id":30,"left_children":[-1],"loss_changes":[0E0],"parents":[2147483647],"right_children":[-1],"split_conditions":[-1.9813415E-3],"split_indices":[0],"split_type":[0],"sum_hessian":[1.8972676E4],"tree_param":{"num_deleted":"0","num_feature":"17","num_nodes":"1","size_leaf_vector":"1"}},{"base_weights":[-1.4172299E-3],"categories":[],"categories_nodes":[],"categories_segments":[],"categories_sizes":[],"default_left":[0],"id":31,"left_children":[-1],"loss_changes":[0E0],"parents":[2147483647],"right_children":[-1],"split_conditions":[-3.7731644E-4],"split_indices":[0],"split_type":[0],"sum_hessian":[1.8981383E4],"tree_param":{"num_deleted":"0","num_feature":"17","num_nodes":"1","size_leaf_vector":"1"}},{"base_weights":[-2.5680428E-3],"categories":[],"categories_nodes":[],"categories_segments":[],"categories_sizes":[],"default_left":[0],"id":32,"left_children":[-1],"loss_changes":[0E0],"parents":[2147483647],"right_children":[-1],"split_conditions":[-6.8370334E-4],"split_indices":[0],"split_type":[0],"sum_hessian":[1.9002066E4],"tree_param":{"num_deleted":"0","num_feature":"17","num_nodes":"1","size_leaf_vector":"1"}},{"base_weights":[3.5519283E-3],"categories":[],"categories_nodes":[],"categories_segments":[],"categories_sizes":[],"default_left":[0],"id":33,"left_children":[-1],"loss_changes":[0E0],"parents":[2147483647],"right_children":[-1],"split_conditions":[9.4564824E-4],"split_indices":[0],"split_type":[0],"sum_hessian":[1.8955893E4],"tree_param":{"num_deleted":"0","num_feature":"17","num_nodes":"1","size_leaf_vector":"1"}},{"base_weights":[-2.0588988E-4],"categories":[],"categories_nodes":[],"categories_segments":[],"categories_sizes":[],"default_left":[0],"id":34,"left_children":[-1],"loss_changes":[0E0],"parents":[2147483647],"right_children":[-1],"split_conditions":[-5.481513E-5],"split_indices":[0],"split_type":[0],"sum_hessian":[1.8982799E4],"tree_param":{"num_deleted":"0","num_feature":"17","num_nodes":"1","size_leaf_vector":"1"}},{"base_weights":[2.2474767E-3],"categories":[],"categories_nodes":[],"categories_segments":[],"categories_sizes":[],"default_left":[0],"id":35,"left_children":[-1],"loss_changes":[0E0],"parents":[2147483647],"right_children":[-1],"split_conditions":[5.9835735E-4],"split_indices":[0],"split_type":[0],"sum_hessian":[1.8883771E4],"tree_param":{"num_deleted":"0","num_feature":"17","num_nodes":"1","size_leaf_vector":"1"}},{"base_weights":[-8.9833065E-4],"categories":[],"categories_nodes":[],"categories_segments":[],"categories_sizes":[],"default_left":[0],"id":36,"left_children":[-1],"loss_changes":[0E0],"parents":[2147483647],"right_children":[-1],"split_conditions":[-2.3916722E-4],"split_indices":[0],"split_type":[0],"sum_hessian":[1.8962023E4],"tree_param":{"num_deleted":"0","num_feature":"17","num_nodes":"1","size_leaf_vector":"1"}},{"base_weights":[4.9157175E-3],"categories":[],"categories_nodes":[],"categories_segments":[],"categories_sizes":[],"default_left":[0],"id":37,"left_children":[-1],"loss_changes":[0E0],"parents":[2147483647],"right_children":[-1],"split_conditions":[1.3087369E-3],"split_indices":[0],"split_type":[0],"sum_hessian":[1.8912426E4],"tree_param":{"num_deleted":"0","num_feature":"17","num_nodes":"1","size_leaf_vector":"1"}},{"base_weights":[3.2370903E-3],"categories":[],"categories_nodes":[],"categories_segments":[],"categories_sizes":[],"default_left":[0],"id":38,"left_children":[-1],"loss_changes":[0E0],"parents":[2147483647],"right_children":[-1],"split_conditions":[8.618273E-4],"split_indices":[0],"split_type":[0],"sum_hessian":[1.9016605E4],"tree_param":{"num_deleted":"0","num_feature":"17","num_nodes":"1","size_leaf_vector":"1"}},{"base_weights":[4.3056323E-3],"categories":[],"categories_nodes":[],"categories_segments":[],"categories_sizes":[],"default_left":[0],"id":39,"left_children":[-1],"loss_changes":[0E0],"parents":[2147483647],"right_children":[-1],"split_conditions":[1.1463107E-3],"split_indices":[0],"split_type":[0],"sum_hessian":[1.8989734E4],"tree_param":{"num_deleted":"0","num_feature":"17","num_nodes":"1","size_leaf_vector":"1"}},{"base_weights":[-5.0754994E-3],"categories":[],"categories_nodes":[],"categories_segments":[],"categories_sizes":[],"default_left":[0],"id":40,"left_children":[-1],"loss_changes":[0E0],"parents":[2147483647],"right_children":[-1],"split_conditions":[-1.3512764E-3],"split_indices":[0],"split_type":[0],"sum_hessian":[1.905425E4],"tree_param":{"num_deleted":"0","num_feature":"17","num_nodes":"1","size_leaf_vector":"1"}},{"base_weights":[-3.9192548E-4],"categories":[],"categories_nodes":[],"categories_segments":[],"categories_sizes":[],"default_left":[0],"id":41,"left_children":[-1],"loss_changes":[0E0],"parents":[2147483647],"right_children":[-1],"split_conditions":[-1.0434435E-4],"split_indices":[0],"split_type":[0],"sum_hessian":[1.8973816E4],"tree_param":{"num_deleted":"0","num_feature":"17","num_nodes":"1","size_leaf_vector":"1"}},{"base_weights":[-7.1057334E-4],"categories":[],"categories_nodes":[],"categories_segments":[],"categories_sizes":[],"default_left":[0],"id":42,"left_children":[-1],"loss_changes":[0E0],"parents":[2147483647],"right_children":[-1],"split_conditions":[-1.8917961E-4],"split_indices":[0],"split_type":[0],"sum_hessian":[1.8958072E4],"tree_param":{"num_deleted":"0","num_feature":"17","num_nodes":"1","size_leaf_vector":"1"}},{"base_weights":[8.305463E-4],"categories":[],"categories_nodes":[],"categories_segments":[],"categories_sizes":[],"default_left":[0],"id":43,"left_children":[-1],"loss_changes":[0E0],"parents":[2147483647],"right_children":[-1],"split_conditions":[2.2112064E-4],"split_indices":[0],"split_type":[0],"sum_hessian":[1.8994246E4],"tree_param":{"num_deleted":"0","num_feature":"17","num_nodes":"1","size_leaf_vector":"1"}},{"base_weights":[3.6719928E-3,-7.1185574E-2,2.7450223E-3,-4.3646432E-2,-5.7998616E-3],"categories":[],"categories_nodes":[],"categories_segments":[],"categories_sizes":[],"default_left":[0,0,0,0,0],"id":44,"left_children":[1,3,-1,-1,-1],"loss_changes":[9.617649E0,6.599899E0,0E0,0E0,0E0],"parents":[2147483647,0,0,1,1],"right_children":[2,4,-1,-1,-1],"split_conditions":[-2.4263213E0,7.831915E-1,2.7450223E-3,-4.3646432E-2,-5.7998616E-3],"split_indices":[9,7,0,0,0],"split_type":[0,0,0,0,0],"sum_hessian":[1.8935986E4,1.405285E3,1.7530701E4,3.491657E2,1.0561193E3],"tree_param":{"num_deleted":"0","num_feature":"17","num_nodes":"5","size_leaf_vector":"1"}},{"base_weights":[-9.76983E-3],"categories":[],"categories_nodes":[],"categories_segments":[],"categories_sizes":[],"default_left":[0],"id":45,"left_children":[-1],"loss_changes":[0E0],"parents":[2147483647],"right_children":[-1],"split_conditions":[-2.6010724E-3],"split_indices":[0],"split_type":[0],"sum_hessian":[1.8948902E4],"tree_param":{"num_deleted":"0","num_feature":"17","num_nodes":"1","size_leaf_vector":"1"}},{"base_weights":[2.5877496E-3],"categories":[],"categories_nodes":[],"categories_segments":[],"categories_sizes":[],"default_left":[0],"id":46,"left_children":[-1],"loss_changes":[0E0],"parents":[2147483647],"right_children":[-1],"split_conditions":[6.8894995E-4],"split_indices":[0],"split_type":[0],"sum_hessian":[1.9028465E4],"tree_param":{"num_deleted":"0","num_feature":"17","num_nodes":"1","size_leaf_vector":"1"}},{"base_weights":[-2.692285E-3],"categories":[],"categories_nodes":[],"categories_segments":[],"categories_sizes":[],"default_left":[0],"id":47,"left_children":[-1],"loss_changes":[0E0],"parents":[2147483647],"right_children":[-1],"split_conditions":[-7.1678095E-4],"split_indices":[0],"split_type":[0],"sum_hessian":[1.893807E4],"tree_param":{"num_deleted":"0","num_feature":"17","num_nodes":"1","size_leaf_vector":"1"}},{"base_weights":[2.2053209E-3],"categories":[],"categories_nodes":[],"categories_segments":[],"categories_sizes":[],"default_left":[0],"id":48,"left_children":[-1],"loss_changes":[0E0],"parents":[2147483647],"right_children":[-1],"split_conditions":[5.87134E-4],"split_indices":[0],"split_type":[0],"sum_hessian":[1.895276E4],"tree_param":{"num_deleted":"0","num_feature":"17","num_nodes":"1","size_leaf_vector":"1"}},{"base_weights":[-5.572294E-4],"categories":[],"categories_nodes":[],"categories_segments":[],"categories_sizes":[],"default_left":[0],"id":49,"left_children":[-1],"loss_changes":[0E0],"parents":[2147483647],"right_children":[-1],"split_conditions":[-1.4835407E-4],"split_indices":[0],"split_type":[0],"sum_hessian":[1.8988799E4],"tree_param":{"num_deleted":"0","num_feature":"17","num_nodes":"1","size_leaf_vector":"1"}},{"base_weights":[2.9968622E-4,1.5583136E-3,-1.32077625E-2],"categories":[],"categories_nodes":[],"categories_segments":[],"categories_sizes":[],"default_left":[0,0,0],"id":50,"left_children":[1,-1,-1],"loss_changes":[5.3517766E0,0E0,0E0],"parents":[2147483647,0,0],"right_children":[2,-1,-1],"split_conditions":[1E0,1.5583136E-3,-1.32077625E-2],"split_indices":[4,0,0],"split_type":[0,0,0],"sum_hessian":[1.8967592E4,1.7206383E4,1.7612094E3],"tree_param":{"num_deleted":"0","num_feature":"17","num_nodes":"3","size_leaf_vector":"1"}},{"base_weights":[-2.02311E-3],"categories":[],"categories_nodes":[],"categories_segments":[],"categories_sizes":[],"default_left":[0],"id":51,"left_children":[-1],"loss_changes":[0E0],"parents":[2147483647],"right_children":[-1],"split_conditions":[-5.38623E-4],"split_indices":[0],"split_type":[0],"sum_hessian":[1.897913E4],"tree_param":{"num_deleted":"0","num_feature":"17","num_nodes":"1","size_leaf_vector":"1"}},{"base_weights":[3.287755E-3],"categories":[],"categories_nodes":[],"categories_segments":[],"categories_sizes":[],"default_left":[0],"id":52,"left_children":[-1],"loss_changes":[0E0],"parents":[2147483647],"right_children":[-1],"split_conditions":[8.7531604E-4],"split_indices":[0],"split_type":[0],"sum_hessian":[1.899972E4],"tree_param":{"num_deleted":"0","num_feature":"17","num_nodes":"1","size_leaf_vector":"1"}},{"base_weights":[7.618463E-4],"categories":[],"categories_nodes":[],"categories_segments":[],"categories_sizes":[],"default_left":[0],"id":53,"left_children":[-1],"loss_changes":[0E0],"parents":[2147483647],"right_children":[-1],"split_conditions":[2.0283028E-4],"split_indices":[0],"split_type":[0],"sum_hessian":[1.8926844E4],"tree_param":{"num_deleted":"0","num_feature":"17","num_nodes":"1","size_leaf_vector":"1"}},{"base_weights":[1.999857E-3],"categories":[],"categories_nodes":[],"categories_segments":[],"categories_sizes":[],"default_left":[0],"id":54,"left_children":[-1],"loss_changes":[0E0],"parents":[2147483647],"right_children":[-1],"split_conditions":[5.324322E-4],"split_indices":[0],"split_type":[0],"sum_hessian":[1.9013049E4],"tree_param":{"num_deleted":"0","num_feature":"17","num_nodes":"1","size_leaf_vector":"1"}},{"base_weights":[6.2617664E-3],"categories":[],"categories_nodes":[],"categories_segments":[],"categories_sizes":[],"default_left":[0],"id":55,"left_children":[-1],"loss_changes":[0E0],"parents":[2147483647],"right_children":[-1],"split_conditions":[1.6671024E-3],"split_indices":[0],"split_type":[0],"sum_hessian":[1.9002832E4],"tree_param":{"num_deleted":"0","num_feature":"17","num_nodes":"1","size_leaf_vector":"1"}},{"base_weights":[5.542135E-3],"categories":[],"categories_nodes":[],"categories_segments":[],"categories_sizes":[],"default_left":[0],"id":56,"left_children":[-1],"loss_changes":[0E0],"parents":[2147483647],"right_children":[-1],"split_conditions":[1.4755112E-3],"split_indices":[0],"split_type":[0],"sum_hessian":[1.8926096E4],"tree_param":{"num_deleted":"0","num_feature":"17","num_nodes":"1","size_leaf_vector":"1"}},{"base_weights":[-2.8420729E-3,-9.335307E-3,1.6159419E-2,-1.4261965E-3,-2.3250815E-2],"categories":[],"categories_nodes":[],"categories_segments":[],"categories_sizes":[],"default_left":[1,0,0,0,0],"id":57,"left_children":[1,3,-1,-1,-1],"loss_changes":[7.9913855E0,5.3486285E0,0E0,0E0,0E0],"parents":[2147483647,0,0,1,1],"right_children":[2,4,-1,-1,-1],"split_conditions":[2.164E3,2.118E3,1.6159419E-2,-1.4261965E-3,-2.3250815E-2],"split_indices":[12,12,0,0,0],"split_type":[0,0,0,0,0],"sum_hessian":[1.8970229E4,1.734557E4,1.624657E3,1.667965E4,6.6592004E2],"tree_param":{"num_deleted":"0","num_feature":"17","num_nodes":"5","size_leaf_vector":"1"}},{"base_weights":[-5.1309434E-3],"categories":[],"categories_nodes":[],"categories_segments":[],"categories_sizes":[],"default_left":[0],"id":58,"left_children":[-1],"loss_changes":[0E0],"parents":[2147483647],"right_children":[-1],"split_conditions":[-1.3660376E-3],"split_indices":[0],"split_type":[0],"sum_hessian":[1.8931898E4],"tree_param":{"num_deleted":"0","num_feature":"17","num_nodes":"1","size_leaf_vector":"1"}},{"base_weights":[-4.8032394E-3],"categories":[],"categories_nodes":[],"categories_segments":[],"categories_sizes":[],"default_left":[0],"id":59,"left_children":[-1],"loss_changes":[0E0],"parents":[2147483647],"right_children":[-1],"split_conditions":[-1.2787912E-3],"split_indices":[0],"split_type":[0],"sum_hessian":[1.8924117E4],"tree_param":{"num_deleted":"0","num_feature":"17","num_nodes":"1","size_leaf_vector":"1"}},{"base_weights":[4.9325014E-3,1.2733629E-4,1.8478276E-2],"categories":[],"categories_nodes":[],"categories_segments":[],"categories_sizes":[],"default_left":[0,0,0],"id":60,"left_children":[1,-1,-1],"loss_changes":[5.47999E0,0E0,0E0],"parents":[2147483647,0,0],"right_children":[2,-1,-1],"split_conditions":[1.3274194E0,1.2733629E-4,1.8478276E-2],"split_indices":[6,0,0],"split_type":[0,0,0],"sum_hessian":[1.8947332E4,1.7886158E4,1.0611737E3],"tree_param":{"num_deleted":"0","num_feature":"17","num_nodes":"3","size_leaf_vector":"1"}},{"base_weights":[-2.720413E-3],"categories":[],"categories_nodes":[],"categories_segments":[],"categories_sizes":[],"default_left":[0],"id":61,"left_children":[-1],"loss_changes":[0E0],"parents":[2147483647],"right_children":[-1],"split_conditions":[-7.2426966E-4],"split_indices":[0],"split_type":[0],"sum_hessian":[1.8983678E4],"tree_param":{"num_deleted":"0","num_feature":"17","num_nodes":"1","size_leaf_vector":"1"}},{"base_weights":[-2.8419371E-3],"categories":[],"categories_nodes":[],"categories_segments":[],"categories_sizes":[],"default_left":[0],"id":62,"left_children":[-1],"loss_changes":[0E0],"parents":[2147483647],"right_children":[-1],"split_conditions":[-7.5662363E-4],"split_indices":[0],"split_type":[0],"sum_hessian":[1.897495E4],"tree_param":{"num_deleted":"0","num_feature":"17","num_nodes":"1","size_leaf_vector":"1"}},{"base_weights":[-1.3959031E-3],"categories":[],"categories_nodes":[],"categories_segments":[],"categories_sizes":[],"default_left":[0],"id":63,"left_children":[-1],"loss_changes":[0E0],"parents":[2147483647],"right_children":[-1],"split_conditions":[-3.7163848E-4],"split_indices":[0],"split_type":[0],"sum_hessian":[1.894653E4],"tree_param":{"num_deleted":"0","num_feature":"17","num_nodes":"1","size_leaf_vector":"1"}},{"base_weights":[1.3605591E-3],"categories":[],"categories_nodes":[],"categories_segments":[],"categories_sizes":[],"default_left":[0],"id":64,"left_children":[-1],"loss_changes":[0E0],"parents":[2147483647],"right_children":[-1],"split_conditions":[3.622287E-4],"split_indices":[0],"split_type":[0],"sum_hessian":[1.892093E4],"tree_param":{"num_deleted":"0","num_feature":"17","num_nodes":"1","size_leaf_vector":"1"}},{"base_weights":[5.0480943E-3],"categories":[],"categories_nodes":[],"categories_segments":[],"categories_sizes":[],"default_left":[0],"id":65,"left_children":[-1],"loss_changes":[0E0],"parents":[2147483647],"right_children":[-1],"split_conditions":[1.3439803E-3],"split_indices":[0],"split_type":[0],"sum_hessian":[1.8971004E4],"tree_param":{"num_deleted":"0","num_feature":"17","num_nodes":"1","size_leaf_vector":"1"}},{"base_weights":[-8.027658E-3],"categories":[],"categories_nodes":[],"categories_segments":[],"categories_sizes":[],"default_left":[0],"id":66,"left_children":[-1],"loss_changes":[0E0],"parents":[2147483647],"right_children":[-1],"split_conditions":[-2.137245E-3],"split_indices":[0],"split_type":[0],"sum_hessian":[1.9013775E4],"tree_param":{"num_deleted":"0","num_feature":"17","num_nodes":"1","size_leaf_vector":"1"}},{"base_weights":[-5.495127E-4],"categories":[],"categories_nodes":[],"categories_segments":[],"categories_sizes":[],"default_left":[0],"id":67,"left_children":[-1],"loss_changes":[0E0],"parents":[2147483647],"right_children":[-1],"split_conditions":[-1.462996E-4],"split_indices":[0],"split_type":[0],"sum_hessian":[1.8973303E4],"tree_param":{"num_deleted":"0","num_feature":"17","num_nodes":"1","size_leaf_vector":"1"}},{"base_weights":[5.0847777E-3],"categories":[],"categories_nodes":[],"categories_segments":[],"categories_sizes":[],"default_left":[0],"id":68,"left_children":[-1],"loss_changes":[0E0],"parents":[2147483647],"right_children":[-1],"split_conditions":[1.3537466E-3],"split_indices":[0],"split_type":[0],"sum_hessian":[1.8979672E4],"tree_param":{"num_deleted":"0","num_feature":"17","num_nodes":"1","size_leaf_vector":"1"}},{"base_weights":[-7.644025E-5],"categories":[],"categories_nodes":[],"categories_segments":[],"categories_sizes":[],"default_left":[0],"id":69,"left_children":[-1],"loss_changes":[0E0],"parents":[2147483647],"right_children":[-1],"split_conditions":[-2.0351083E-5],"split_indices":[0],"split_type":[0],"sum_hessian":[1.8968424E4],"tree_param":{"num_deleted":"0","num_feature":"17","num_nodes":"1","size_leaf_vector":"1"}},{"base_weights":[-5.1866025E-3],"categories":[],"categories_nodes":[],"categories_segments":[],"categories_sizes":[],"default_left":[0],"id":70,"left_children":[-1],"loss_changes":[0E0],"parents":[2147483647],"right_children":[-1],"split_conditions":[-1.380856E-3],"split_indices":[0],"split_type":[0],"sum_hessian":[1.8926494E4],"tree_param":{"num_deleted":"0","num_feature":"17","num_nodes":"1","size_leaf_vector":"1"}},{"base_weights":[-1.1342755E-3],"categories":[],"categories_nodes":[],"categories_segments":[],"categories_sizes":[],"default_left":[0],"id":71,"left_children":[-1],"loss_changes":[0E0],"parents":[2147483647],"right_children":[-1],"split_conditions":[-3.0198402E-4],"split_indices":[0],"split_type":[0],"sum_hessian":[1.894163E4],"tree_param":{"num_deleted":"0","num_feature":"17","num_nodes":"1","size_leaf_vector":"1"}},{"base_weights":[-1.8843309E-3],"categories":[],"categories_nodes":[],"categories_segments":[],"categories_sizes":[],"default_left":[0],"id":72,"left_children":[-1],"loss_changes":[0E0],"parents":[2147483647],"right_children":[-1],"split_conditions":[-5.016752E-4],"split_indices":[0],"split_type":[0],"sum_hessian":[1.8953152E4],"tree_param":{"num_deleted":"0","num_feature":"17","num_nodes":"1","size_leaf_vector":"1"}},{"base_weights":[5.4800967E-3],"categories":[],"categories_nodes":[],"categories_segments":[],"categories_sizes":[],"default_left":[0],"id":73,"left_children":[-1],"loss_changes":[0E0],"parents":[2147483647],"right_children":[-1],"split_conditions":[1.4589945E-3],"split_indices":[0],"split_type":[0],"sum_hessian":[1.8941291E4],"tree_param":{"num_deleted":"0","num_feature":"17","num_nodes":"1","size_leaf_vector":"1"}},{"base_weights":[-6.603679E-3],"categories":[],"categories_nodes":[],"categories_segments":[],"categories_sizes":[],"default_left":[0],"id":74,"left_children":[-1],"loss_changes":[0E0],"parents":[2147483647],"right_children":[-1],"split_conditions":[-1.7581317E-3],"split_indices":[0],"split_type":[0],"sum_hessian":[1.898594E4],"tree_param":{"num_deleted":"0","num_feature":"17","num_nodes":"1","size_leaf_vector":"1"}},{"base_weights":[3.4023502E-3],"categories":[],"categories_nodes":[],"categories_segments":[],"categories_sizes":[],"default_left":[0],"id":75,"left_children":[-1],"loss_changes":[0E0],"parents":[2147483647],"right_children":[-1],"split_conditions":[9.058253E-4],"split_indices":[0],"split_type":[0],"sum_hessian":[1.8992365E4],"tree_param":{"num_deleted":"0","num_feature":"17","num_nodes":"1","size_leaf_vector":"1"}},{"base_weights":[4.2355017E-4],"categories":[],"categories_nodes":[],"categories_segments":[],"categories_sizes":[],"default_left":[0],"id":76,"left_children":[-1],"loss_changes":[0E0],"parents":[2147483647],"right_children":[-1],"split_conditions":[1.12763955E-4],"split_indices":[0],"split_type":[0],"sum_hessian":[1.8900855E4],"tree_param":{"num_deleted":"0","num_feature":"17","num_nodes":"1","size_leaf_vector":"1"}},{"base_weights":[5.5541443E-3],"categories":[],"categories_nodes":[],"categories_segments":[],"categories_sizes":[],"default_left":[0],"id":77,"left_children":[-1],"loss_changes":[0E0],"parents":[2147483647],"right_children":[-1],"split_conditions":[1.4787086E-3],"split_indices":[0],"split_type":[0],"sum_hessian":[1.900291E4],"tree_param":{"num_deleted":"0","num_feature":"17","num_nodes":"1","size_leaf_vector":"1"}},{"base_weights":[9.822555E-5],"categories":[],"categories_nodes":[],"categories_segments":[],"categories_sizes":[],"default_left":[0],"id":78,"left_children":[-1],"loss_changes":[0E0],"parents":[2147483647],"right_children":[-1],"split_conditions":[2.6151096E-5],"split_indices":[0],"split_type":[0],"sum_hessian":[1.8976244E4],"tree_param":{"num_deleted":"0","num_feature":"17","num_nodes":"1","size_leaf_vector":"1"}},{"base_weights":[-2.7158386E-3],"categories":[],"categories_nodes":[],"categories_segments":[],"categories_sizes":[],"default_left":[0],"id":79,"left_children":[-1],"loss_changes":[0E0],"parents":[2147483647],"right_children":[-1],"split_conditions":[-7.230518E-4],"split_indices":[0],"split_type":[0],"sum_hessian":[1.894822E4],"tree_param":{"num_deleted":"0","num_feature":"17","num_nodes":"1","size_leaf_vector":"1"}},{"base_weights":[-1.3409836E-4],"categories":[],"categories_nodes":[],"categories_segments":[],"categories_sizes":[],"default_left":[0],"id":80,"left_children":[-1],"loss_changes":[0E0],"parents":[2147483647],"right_children":[-1],"split_conditions":[-3.5701698E-5],"split_indices":[0],"split_type":[0],"sum_hessian":[1.899799E4],"tree_param":{"num_deleted":"0","num_feature":"17","num_nodes":"1","size_leaf_vector":"1"}},{"base_weights":[9.081486E-4,-4.0716603E-2,2.0501006E-3,1.0844439E-2,-2.5701549E-2],"categories":[],"categories_nodes":[],"categories_segments":[],"categories_sizes":[],"default_left":[0,1,0,0,0],"id":81,"left_children":[1,3,-1,-1,-1],"loss_changes":[5.4841833E0,1.3054234E1,0E0,0E0,0E0],"parents":[2147483647,0,0,1,1],"right_children":[2,4,-1,-1,-1],"split_conditions":[1.293E3,-5.625E0,2.0501006E-3,1.0844439E-2,-2.5701549E-2],"split_indices":[12,6,0,0,0],"split_type":[0,0,0,0,0],"sum_hessian":[1.9043037E4,2.5493796E3,1.6493658E4,1.0550997E3,1.4942799E3],"tree_param":{"num_deleted":"0","num_feature":"17","num_nodes":"5","size_leaf_vector":"1"}},{"base_weights":[-2.2892782E-3],"categories":[],"categories_nodes":[],"categories_segments":[],"categories_sizes":[],"default_left":[0],"id":82,"left_children":[-1],"loss_changes":[0E0],"parents":[2147483647],"right_children":[-1],"split_conditions":[-6.0948636E-4],"split_indices":[0],"split_type":[0],"sum_hessian":[1.8991496E4],"tree_param":{"num_deleted":"0","num_feature":"17","num_nodes":"1","size_leaf_vector":"1"}},{"base_weights":[4.1899886E-3],"categories":[],"categories_nodes":[],"categories_segments":[],"categories_sizes":[],"default_left":[0],"id":83,"left_children":[-1],"loss_changes":[0E0],"parents":[2147483647],"right_children":[-1],"split_conditions":[1.1155223E-3],"split_indices":[0],"split_type":[0],"sum_hessian":[1.9015426E4],"tree_param":{"num_deleted":"0","num_feature":"17","num_nodes":"1","size_leaf_vector":"1"}},{"base_weights":[-8.708169E-4],"categories":[],"categories_nodes":[],"categories_segments":[],"categories_sizes":[],"default_left":[0],"id":84,"left_children":[-1],"loss_changes":[0E0],"parents":[2147483647],"right_children":[-1],"split_conditions":[-2.3184209E-4],"split_indices":[0],"split_type":[0],"sum_hessian":[1.8982717E4],"tree_param":{"num_deleted":"0","num_feature":"17","num_nodes":"1","size_leaf_vector":"1"}},{"base_weights":[5.8481726E-7],"categories":[],"categories_nodes":[],"categories_segments":[],"categories_sizes":[],"default_left":[0],"id":85,"left_children":[-1],"loss_changes":[0E0],"parents":[2147483647],"right_children":[-1],"split_conditions":[1.5569893E-7],"split_indices":[0],"split_type":[0],"sum_hessian":[1.8978305E4],"tree_param":{"num_deleted":"0","num_feature":"17","num_nodes":"1","size_leaf_vector":"1"}},{"base_weights":[-2.714015E-3],"categories":[],"categories_nodes":[],"categories_segments":[],"categories_sizes":[],"default_left":[0],"id":86,"left_children":[-1],"loss_changes":[0E0],"parents":[2147483647],"right_children":[-1],"split_conditions":[-7.2256627E-4],"split_indices":[0],"split_type":[0],"sum_hessian":[1.89765E4],"tree_param":{"num_deleted":"0","num_feature":"17","num_nodes":"1","size_leaf_vector":"1"}},{"base_weights":[1.4964705E-3,-1.1738031E-1,1.0610883E-3,-4.863203E-2,1.0536102E-2],"categories":[],"categories_nodes":[],"categories_segments":[],"categories_sizes":[],"default_left":[0,0,0,0,0],"id":87,"left_children":[1,3,-1,-1,-1],"loss_changes":[5.7410936E0,5.3324385E0,0E0,0E0,0E0],"parents":[2147483647,0,0,1,1],"right_children":[2,4,-1,-1,-1],"split_conditions":[-2.3532324E0,6.71949E0,1.0610883E-3,-4.863203E-2,1.0536102E-2],"split_indices":[7,8,0,0,0],"split_type":[0,0,0,0,0],"sum_hessian":[1.898579E4,2.2584047E2,1.875995E4,1.3990514E2,8.593533E1],"tree_param":{"num_deleted":"0","num_feature":"17","num_nodes":"5","size_leaf_vector":"1"}},{"base_weights":[2.2964953E-3],"categories":[],"categories_nodes":[],"categories_segments":[],"categories_sizes":[],"default_left":[0],"id":88,"left_children":[-1],"loss_changes":[0E0],"parents":[2147483647],"right_children":[-1],"split_conditions":[6.114078E-4],"split_indices":[0],"split_type":[0],"sum_hessian":[1.8964346E4],"tree_param":{"num_deleted":"0","num_feature":"17","num_nodes":"1","size_leaf_vector":"1"}},{"base_weights":[-8.556892E-4,6.028126E-3,-3.9125606E-3],"categories":[],"categories_nodes":[],"categories_segments":[],"categories_sizes":[],"default_left":[0,0,0],"id":89,"left_children":[1,-1,-1],"loss_changes":[6.269097E0,0E0,0E0],"parents":[2147483647,0,0],"right_children":[2,-1,-1],"split_conditions":[7.31753E1,6.028126E-3,-3.9125606E-3],"split_indices":[16,0,0],"split_type":[0,0,0],"sum_hessian":[1.8930334E4,6.974479E3,1.1955855E4],"tree_param":{"num_deleted":"0","num_feature":"17","num_nodes":"3","size_leaf_vector":"1"}},{"base_weights":[-4.0863156E-3],"categories":[],"categories_nodes":[],"categories_segments":[],"categories_sizes":[],"default_left":[0],"id":90,"left_children":[-1],"loss_changes":[0E0],"parents":[2147483647],"right_children":[-1],"split_conditions":[-1.087921E-3],"split_indices":[0],"split_type":[0],"sum_hessian":[1.8974508E4],"tree_param":{"num_deleted":"0","num_feature":"17","num_nodes":"1","size_leaf_vector":"1"}},{"base_weights":[3.0193806E-3],"categories":[],"categories_nodes":[],"categories_segments":[],"categories_sizes":[],"default_left":[0],"id":91,"left_children":[-1],"loss_changes":[0E0],"parents":[2147483647],"right_children":[-1],"split_conditions":[8.038653E-4],"split_indices":[0],"split_type":[0],"sum_hessian":[1.8979207E4],"tree_param":{"num_deleted":"0","num_feature":"17","num_nodes":"1","size_leaf_vector":"1"}},{"base_weights":[-2.076357E-3],"categories":[],"categories_nodes":[],"categories_segments":[],"categories_sizes":[],"default_left":[0],"id":92,"left_children":[-1],"loss_changes":[0E0],"parents":[2147483647],"right_children":[-1],"split_conditions":[-5.5279926E-4],"split_indices":[0],"split_type":[0],"sum_hessian":[1.8971908E4],"tree_param":{"num_deleted":"0","num_feature":"17","num_nodes":"1","size_leaf_vector":"1"}},{"base_weights":[-2.4122263E-3],"categories":[],"categories_nodes":[],"categories_segments":[],"categories_sizes":[],"default_left":[0],"id":93,"left_children":[-1],"loss_changes":[0E0],"parents":[2147483647],"right_children":[-1],"split_conditions":[-6.422195E-4],"split_indices":[0],"split_type":[0],"sum_hessian":[1.894437E4],"tree_param":{"num_deleted":"0","num_feature":"17","num_nodes":"1","size_leaf_vector":"1"}},{"base_weights":[2.2762183E-3],"categories":[],"categories_nodes":[],"categories_segments":[],"categories_sizes":[],"default_left":[0],"id":94,"left_children":[-1],"loss_changes":[0E0],"parents":[2147483647],"right_children":[-1],"split_conditions":[6.060094E-4],"split_indices":[0],"split_type":[0],"sum_hessian":[1.9019465E4],"tree_param":{"num_deleted":"0","num_feature":"17","num_nodes":"1","size_leaf_vector":"1"}},{"base_weights":[1.1578728E-5],"categories":[],"categories_nodes":[],"categories_segments":[],"categories_sizes":[],"default_left":[0],"id":95,"left_children":[-1],"loss_changes":[0E0],"parents":[2147483647],"right_children":[-1],"split_conditions":[3.0826645E-6],"split_indices":[0],"split_type":[0],"sum_hessian":[1.8948951E4],"tree_param":{"num_deleted":"0","num_feature":"17","num_nodes":"1","size_leaf_vector":"1"}},{"base_weights":[3.6870452E-4],"categories":[],"categories_nodes":[],"categories_segments":[],"categories_sizes":[],"default_left":[0],"id":96,"left_children":[-1],"loss_changes":[0E0],"parents":[2147483647],"right_children":[-1],"split_conditions":[9.816211E-5],"split_indices":[0],"split_type":[0],"sum_hessian":[1.8981135E4],"tree_param":{"num_deleted":"0","num_feature":"17","num_nodes":"1","size_leaf_vector":"1"}},{"base_weights":[-6.536555E-3],"categories":[],"categories_nodes":[],"categories_segments":[],"categories_sizes":[],"default_left":[0],"id":97,"left_children":[-1],"loss_changes":[0E0],"parents":[2147483647],"right_children":[-1],"split_conditions":[-1.7402609E-3],"split_indices":[0],"split_type":[0],"sum_hessian":[1.8991271E4],"tree_param":{"num_deleted":"0","num_feature":"17","num_nodes":"1","size_leaf_vector":"1"}},{"base_weights":[4.2799683E-3],"categories":[],"categories_nodes":[],"categories_segments":[],"categories_sizes":[],"default_left":[0],"id":98,"left_children":[-1],"loss_changes":[0E0],"parents":[2147483647],"right_children":[-1],"split_conditions":[1.1394781E-3],"split_indices":[0],"split_type":[0],"sum_hessian":[1.8935902E4],"tree_param":{"num_deleted":"0","num_feature":"17","num_nodes":"1","size_leaf_vector":"1"}},{"base_weights":[-7.522153E-4],"categories":[],"categories_nodes":[],"categories_segments":[],"categories_sizes":[],"default_left":[0],"id":99,"left_children":[-1],"loss_changes":[0E0],"parents":[2147483647],"right_children":[-1],"split_conditions":[-2.0026616E-4],"split_indices":[0],"split_type":[0],"sum_hessian":[1.8891037E4],"tree_param":{"num_deleted":"0","num_feature":"17","num_nodes":"1","size_leaf_vector":"1"}}]},"name":"gbtree"},"learner_model_param":{"base_score":"5.445442E-1","boost_from_average":"1","num_class":"0","num_feature":"17","num_target":"1"},"objective":{"name":"binary:logistic","reg_loss_param":{"scale_pos_weight":"1"}}},"version":[2,1,4]}