{"learner":{"attributes":{"scikit_learn":"{\"_estimator_type\": \"classifier\"}"},"feature_names":["pitcherHand_L","hitterHand_R","balls_before_pitch_0","balls_before_pitch_1","balls_before_pitch_2","balls_before_pitch_3","strikes_before_pitch_0","strikes_before_pitch_1","strikes_before_pitch_2","velo","velo_diff","extension","extension_ratio","x0_ratio","z0_ratio","spin_rate","adj_spin_dir","HB_acc","IVB_acc","Break_acc"],"feature_types":["i","i","i","i","i","i","i","i","i","float","float","float","float","float","float","float","float","float","float","float"],"gradient_booster":{"model":{"gbtree_model_param":{"num_parallel_tree":"1","num_trees":"100"},"iteration_indptr":[0,1,2,3,4,5,6,7,8,9,10,11,12,13,14,15,16,17,18,19,20,21,22,23,24,25,26,27,28,29,30,31,32,33,34,35,36,37,38,39,40,41,42,43,44,45,46,47,48,49,50,51,52,53,54,55,56,57,58,59,60,61,62,63,64,65,66,67,68,69,70,71,72,73,74,75,76,77,78,79,80,81,82,83,84,85,86,87,88,89,90,91,92,93,94,95,96,97,98,99,100],"tree_info":[0,0,0,0,0,0,0,0,0,0,0,0,0,0,0,0,0,0,0,0,0,0,0,0,0,0,0,0,0,0,0,0,0,0,0,0,0,0,0,0,0,0,0,0,0,0,0,0,0,0,0,0,0,0,0,0,0,0,0,0,0,0,0,0,0,0,0,0,0,0,0,0,0,0,0,0,0,0,0,0,0,0,0,0,0,0,0,0,0,0,0,0,0,0,0,0,0,0,0,0],"trees":[{"base_weights":[1.7040224E-4,-4.3374516E-2,1.27504E-1,-1.37797E-1,-2.4277674E-2,-0E0,1.4311959E-1,-0E0,-1.5783086E-1,-5.304012E-2,1.6711952E-2,1.7874487E-1,4.6947517E-2,-1.6498575E-1,-0E0,5.37628E-3,-6.2728E-2,5.709993E-2,-4.2084544E-3,-0E0,1.8603279E-1,-0E0,9.350388E-2,-0E0,-5.4101255E-2,-6.857E-2,-0E0,8.778226E-2,-6.7845387E-3,1.9160484E-1,-0E0,3.7665445E-2,-0E0,-0E0,-7.536204E-2,9.902637E-2,-0E0,6.2571585E-2,-0E0,-2.10079E-3,-8.806314E-2,-0E0,4.061962E-2,-2.9359112E-2,-0E0],"categories":[],"categories_nodes":[],"categories_segments":[],"categories_sizes":[],"default_left":[0,1,1,0,0,0,0,0,0,0,1,1,0,0,0,0,0,0,0,0,0,0,0,0,0,0,0,0,0,1,0,0,0,0,0,0,0,0,0,0,0,0,0,0,0],"id":0,"left_children":[1,3,5,7,9,-1,11,-1,13,15,17,19,21,23,-1,-1,25,27,-1,-1,29,-1,31,-1,-1,33,-1,35,-1,37,-1,-1,-1,-1,39,41,-1,-1,-1,-1,43,-1,-1,-1,-1],"loss_changes":[1.2275198E2,2.3364689E1,1.4636787E1,6.9985313E0,1.7311707E1,0E0,1.0134178E1,0E0,3.0161095E0,7.286375E0,7.7671933E0,4.2519455E0,3.7112875E0,2.4665756E0,0E0,0E0,4.8722496E0,8.725322E0,0E0,0E0,3.952156E0,0E0,3.6789675E0,0E0,0E0,4.6304016E0,0E0,2.5673008E0,0E0,2.9483337E0,0E0,0E0,0E0,0E0,3.1853561E0,2.9000702E0,0E0,0E0,0E0,0E0,2.529522E0,0E0,0E0,0E0,0E0],"parents":[2147483647,0,0,1,1,2,2,3,3,4,4,6,6,8,8,9,9,10,10,11,11,12,12,13,13,16,16,17,17,20,20,22,22,25,25,27,27,29,29,34,34,35,35,40,40],"right_children":[2,4,6,8,10,-1,12,-1,14,16,18,20,22,24,-1,-1,26,28,-1,-1,30,-1,32,-1,-1,34,-1,36,-1,38,-1,-1,-1,-1,40,42,-1,-1,-1,-1,44,-1,-1,-1,-1],"split_conditions":[1.4094631E-1,1.294E3,4.1227356E1,6.042019E0,1E0,-0E0,8.57E1,-0E0,8.120929E1,5.78267E0,6.464803E0,5.667618E0,8.1787315E1,-4.5974767E-1,-0E0,5.37628E-3,1.48E2,1E0,-4.2084544E-3,-0E0,7.1883183E0,-0E0,1E0,-0E0,-5.4101255E-2,-4.1428846E-1,-0E0,9.747156E1,-6.7845387E-3,2.33E3,-0E0,3.7665445E-2,-0E0,-0E0,6.1027412E1,6.49643E1,-0E0,6.2571585E-2,-0E0,-2.10079E-3,8.768601E-2,-0E0,4.061962E-2,-2.9359112E-2,-0E0],"split_indices":[13,15,17,11,7,0,9,0,17,11,11,11,17,13,0,0,16,4,0,0,11,0,5,0,0,13,0,17,0,15,0,0,0,0,17,17,0,0,0,0,13,0,0,0,0],"split_type":[0,0,0,0,0,0,0,0,0,0,0,0,0,0,0,0,0,0,0,0,0,0,0,0,0,0,0,0,0,0,0,0,0,0,0,0,0,0,0,0,0,0,0,0,0],"sum_hessian":[2.1496271E4,1.587288E4,5.6233916E3,2.3065999E3,1.356628E4,4.6231207E2,5.1610796E3,2.8671286E2,2.0198871E3,8.4121455E3,5.154135E3,3.4750293E3,1.6860502E3,1.9524253E3,6.7461845E1,6.193097E2,7.7928354E3,2.6104263E3,2.5437085E3,1.5030103E2,3.3247283E3,8.9709375E2,7.8895636E2,1.165701E1,1.9407682E3,7.544566E3,2.4826952E2,2.159027E3,4.5139914E2,3.2371765E3,8.755159E1,7.3315155E2,5.5804836E1,4.972831E2,7.0472827E3,1.9410162E3,2.180109E2,3.1806277E3,5.65489E1,1.5059866E3,5.5412964E3,6.1211707E2,1.3288992E3,5.3966997E3,1.4459653E2],"tree_param":{"num_deleted":"0","num_feature":"20","num_nodes":"45","size_leaf_vector":"1"}},{"base_weights":[3.0761953E-3,8.004572E-2,-7.7003635E-2,1.0217913E-1,-3.4179628E-1,-3.3423403E-1,1.256732E-1,-1.8737761E-2,1.3791282E-1,-1.1716078E-1,-0E0,-1.4776021E-1,-4.2541724E-1,-0E0,1.3512857E-1,5.2326612E-2,-8.5942015E-2,-0E0,1.5647879E-1,-1.7334998E-1,-0E0,-4.3151134E-1,-0E0,-0E0,1.4659533E-1,-0E0,1.007112E-1,-0E0,-4.2764027E-2,1.7159463E-1,2.955997E-2,-0E0,-1.838457E-1,-4.3461826E-1,-0E0,1.5763499E-1,-0E0,1.3855799E-1,-0E0,-0E0,1.7872527E-1,8.647492E-2,-1.2285322E-3,-6.1205786E-2,-0E0,-0E0,-1.3978054E-1,-0E0,1.6375597E-1,-0E0,5.6289442E-2,1.9097729E-1,3.0754378E-2,-0E0,3.9152574E-2,1.7024922E-1,-0E0,1.9425379E-1,-0E0,-0E0,2.948465E-2,-0E0,5.6348797E-2,6.302821E-2,-0E0],"categories":[],"categories_nodes":[],"categories_segments":[],"categories_sizes":[],"default_left":[0,0,0,1,1,0,0,0,0,0,0,0,0,0,0,0,1,0,0,0,0,0,0,0,0,0,0,0,0,1,0,0,0,0,0,0,0,0,0,0,0,1,0,0,0,0,0,0,1,0,0,1,0,0,0,0,0,0,0,0,0,0,0,0,0],"id":1,"left_children":[1,3,5,7,9,11,13,15,17,-1,-1,19,21,-1,23,25,27,-1,29,31,-1,33,-1,-1,35,-1,37,-1,-1,39,41,-1,43,45,-1,47,-1,49,-1,-1,51,53,-1,-1,-1,-1,-1,-1,55,-1,-1,57,59,-1,-1,61,-1,63,-1,-1,-1,-1,-1,-1,-1],"loss_changes":[1.332902E2,9.998839E1,5.5172034E2,5.0617752E1,6.964573E0,5.616565E1,8.084442E0,1.2562052E1,2.0727158E1,0E0,0E0,8.799755E0,8.114868E0,0E0,5.9620285E0,4.2759814E0,9.914763E0,0E0,7.5747833E0,4.234337E0,0E0,4.673401E0,0E0,0E0,6.093361E0,0E0,4.70136E0,0E0,0E0,4.920685E0,4.7669907E0,0E0,2.878975E0,3.6323853E0,0E0,6.31633E0,0E0,2.4801512E0,0E0,0E0,3.5556183E0,4.035885E0,0E0,0E0,0E0,0E0,0E0,0E0,2.8887024E0,0E0,0E0,3.2569733E0,3.7086487E0,0E0,0E0,2.4943848E0,0E0,2.7643127E0,0E0,0E0,0E0,0E0,0E0,0E0,0E0],"parents":[2147483647,0,0,1,1,2,2,3,3,4,4,5,5,6,6,7,7,8,8,11,11,12,12,14,14,15,15,16,16,18,18,19,19,21,21,24,24,26,26,29,29,30,30,32,32,33,33,35,35,37,37,40,40,41,41,48,48,51,51,52,52,55,55,57,57],"right_children":[2,4,6,8,10,12,14,16,18,-1,-1,20,22,-1,24,26,28,-1,30,32,-1,34,-1,-1,36,-1,38,-1,-1,40,42,-1,44,46,-1,48,-1,50,-1,-1,52,54,-1,-1,-1,-1,-1,-1,56,-1,-1,58,60,-1,-1,62,-1,64,-1,-1,-1,-1,-1,-1,-1],"split_conditions":[1E0,4.0485207E-2,-1.3800301E-2,6.2781178E1,1.45E2,6.980144E1,1.146E3,-2.9337808E-1,-5.3887224E-1,-1.1716078E-1,-0E0,3.890212E1,9.63E1,-0E0,-2.4672463E0,-4.4273376E-1,6.113619E0,-0E0,5.342494E1,1.9836636E1,-0E0,8.210399E1,-0E0,-0E0,6.18999E1,-0E0,8.89E1,-0E0,-4.2764027E-2,1.294E3,6.633377E0,-0E0,1.0304329E0,7.3194903E-1,-0E0,4.6047634E1,-0E0,8.7903005E-1,-0E0,-0E0,9.05E1,1.22E2,-1.2285322E-3,-6.1205786E-2,-0E0,-0E0,-1.3978054E-1,-0E0,7.109785E0,-0E0,5.6289442E-2,7.3601356E0,9.110161E1,-0E0,3.9152574E-2,9.5E1,-0E0,-8.850207E-2,-0E0,-0E0,2.948465E-2,-0E0,5.6348797E-2,6.302821E-2,-0E0],"split_indices":[1,13,13,19,16,19,15,13,18,0,0,18,9,0,18,18,11,0,18,19,0,18,0,0,18,0,9,0,0,15,11,0,14,14,0,19,0,14,0,0,9,16,0,0,0,0,0,0,11,0,0,11,19,0,0,16,0,13,0,0,0,0,0,0,0],"split_type":[0,0,0,0,0,0,0,0,0,0,0,0,0,0,0,0,0,0,0,0,0,0,0,0,0,0,0,0,0,0,0,0,0,0,0,0,0,0,0,0,0,0,0,0,0,0,0,0,0,0,0,0,0,0,0,0,0,0,0,0,0,0,0,0,0],"sum_hessian":[2.1447385E4,1.1137706E4,1.0309678E4,1.0712098E4,4.256086E2,4.589058E3,5.72062E3,2.2502026E3,8.461895E3,4.122297E2,1.3378929E1,1.6908005E3,2.8982576E3,3.4076117E2,5.379859E3,8.7340393E2,1.3767988E3,1.0604357E3,7.401459E3,1.4991436E3,1.9165692E2,2.8582827E3,3.9974876E1,5.4346027E2,4.8363984E3,2.7517642E2,5.9822754E2,3.0027853E2,1.0765203E3,6.365362E3,1.0360974E3,4.9991096E1,1.4491525E3,2.84115E3,1.7132954E1,4.4169746E3,4.1942386E2,5.22731E2,7.54965E1,3.5007513E2,6.0152866E3,6.8616144E2,3.499359E2,1.4106743E3,3.8478157E1,1.1674308E1,2.8294756E3,9.442921E1,4.3225454E3,1.4920856E2,3.7352246E2,5.335941E3,6.793455E2,1.14657745E2,5.715037E2,4.092714E3,2.2983133E2,5.241059E3,9.4881874E1,2.3904369E2,4.4030182E2,1.9376318E2,3.898951E3,5.1643716E3,7.668771E1],"tree_param":{"num_deleted":"0","num_feature":"20","num_nodes":"65","size_leaf_vector":"1"}},{"base_weights":[-0E0,5.2886505E-2,-5.6959353E-2,6.985039E-2,-2.5272304E-1,-2.3057E-1,8.0473654E-2,-9.45086E-3,9.330935E-2,-2.7547815E-1,-0E0,-9.820202E-2,-3.114418E-1,-1.6579274E-3,9.157701E-2,2.4693463E-2,-7.709991E-2,-0E0,1.0749295E-1,-0E0,-2.9110608E-1,-1.4420675E-1,-0E0,-1.00573905E-1,-0E0,-0E0,3.2999117E-2,5.6847136E-2,-0E0,-0E0,-4.304714E-2,1.1377281E-1,-0E0,-0E0,-9.775629E-2,-0E0,-4.9859233E-2,8.883631E-2,-0E0,1.1940729E-1,-0E0,-0E0,1.23083636E-1,3.9975706E-2,-0E0,1.5231583E-1,-0E0,1.7591532E-1,-0E0,6.744846E-2,-0E0],"categories":[],"categories_nodes":[],"categories_segments":[],"categories_sizes":[],"default_left":[0,0,0,1,1,0,1,1,0,1,0,1,0,0,0,0,0,0,0,0,0,0,0,0,0,0,0,1,0,0,0,0,0,0,0,0,0,1,0,1,0,0,0,0,0,0,0,0,0,0,0],"id":2,"left_children":[1,3,5,7,9,11,13,15,17,19,-1,21,23,-1,25,27,29,-1,31,-1,33,35,-1,-1,-1,-1,-1,37,-1,-1,-1,39,-1,-1,-1,-1,-1,41,-1,43,-1,-1,45,-1,-1,47,-1,49,-1,-1,-1],"loss_changes":[6.5114655E1,5.3645363E1,2.549755E2,2.2747414E1,5.1445503E0,3.5171143E1,8.267948E0,6.946596E0,1.1017868E1,3.516964E0,0E0,5.8643436E0,3.0159302E0,0E0,6.410061E0,2.6421049E0,8.994745E0,0E0,5.619278E0,0E0,3.088108E0,2.500887E0,0E0,0E0,0E0,0E0,0E0,2.8934295E0,0E0,0E0,0E0,5.867111E0,0E0,0E0,0E0,0E0,0E0,3.7006583E0,0E0,5.721756E0,0E0,0E0,2.8936567E0,0E0,0E0,2.9104977E0,0E0,3.1253796E0,0E0,0E0,0E0],"parents":[2147483647,0,0,1,1,2,2,3,3,4,4,5,5,6,6,7,7,8,8,9,9,11,11,12,12,14,14,15,15,16,16,18,18,20,20,21,21,27,27,31,31,37,37,39,39,42,42,45,45,47,47],"right_children":[2,4,6,8,10,12,14,16,18,20,-1,22,24,-1,26,28,30,-1,32,-1,34,36,-1,-1,-1,-1,-1,38,-1,-1,-1,40,-1,-1,-1,-1,-1,42,-1,44,-1,-1,46,-1,-1,48,-1,50,-1,-1,-1],"split_conditions":[1E0,1E0,1E0,5.4140667E1,1.46E2,6.657593E1,3.626625E1,1.045379E0,-9.992168E-1,9.1097116E-1,-0E0,1.528E3,7.48648E1,-1.6579274E-3,-2.4672463E0,8.79E1,-9.32E0,-0E0,2.275E3,-0E0,1.045E3,9.5273495E-1,-0E0,-1.00573905E-1,-0E0,-0E0,3.2999117E-2,2.5E-2,-0E0,-0E0,-4.304714E-2,6.427304E1,-0E0,-0E0,-9.775629E-2,-0E0,-4.9859233E-2,1.09E2,-0E0,1.7542857E0,-0E0,-0E0,1.778E3,3.9975706E-2,-0E0,5.1837173E1,-0E0,1.45E2,-0E0,6.744846E-2,-0E0],"split_indices":[1,0,0,17,16,17,17,12,18,12,0,15,18,0,18,9,10,0,15,0,15,12,0,0,0,0,0,10,0,0,0,18,0,0,0,0,0,16,0,10,0,0,15,0,0,17,0,16,0,0,0],"split_type":[0,0,0,0,0,0,0,0,0,0,0,0,0,0,0,0,0,0,0,0,0,0,0,0,0,0,0,0,0,0,0,0,0,0,0,0,0,0,0,0,0,0,0,0,0,0,0,0,0,0,0],"sum_hessian":[2.1450945E4,1.1107729E4,1.0343216E4,1.068094E4,4.2678836E2,4.647641E3,5.6955747E3,2.141242E3,8.539698E3,4.1415573E2,1.263262E1,1.9791404E3,2.668501E3,3.312933E2,5.3642812E3,1.1461295E3,9.951124E2,1.1713584E3,7.36834E3,1.02355585E1,4.0392017E2,1.1563597E3,8.227805E2,2.6480474E3,2.045362E1,5.5060376E2,4.8136777E3,9.681332E2,1.7799641E2,2.2598112E2,7.691313E2,7.0027954E3,3.6554446E2,1.1722748E1,3.9219742E2,7.497832E1,1.0813815E3,7.152374E2,2.528957E2,6.761535E3,2.4126039E2,1.3717656E2,5.780609E2,6.533975E3,2.2756009E2,4.7409122E2,1.0396967E2,4.2919827E2,4.489294E1,3.44532E2,8.466626E1],"tree_param":{"num_deleted":"0","num_feature":"20","num_nodes":"51","size_leaf_vector":"1"}},{"base_weights":[-6.8011233E-3,3.3210315E-2,-5.2635293E-2,4.76641E-2,-1.6115317E-1,-1.905989E-1,4.1387E-2,-5.5324856E-2,6.267355E-2,-0E0,-6.3775964E-2,-4.9214367E-2,-2.3062262E-1,-1.4563396E-3,6.008907E-2,-0E0,-1.1118939E-1,7.698875E-2,-0E0,-0E0,-7.475535E-2,-0E0,-7.5499006E-2,-0E0,7.226782E-2,-0E0,-4.3749124E-2,8.542242E-2,-0E0,-0E0,-9.4460435E-2,-0E0,7.767039E-2,9.249601E-2,-0E0,-4.2442337E-2,-0E0,8.3587155E-2,-0E0,9.94736E-2,-0E0,-0E0,2.8495021E-2,-0E0,3.2885883E-2],"categories":[],"categories_nodes":[],"categories_segments":[],"categories_sizes":[],"default_left":[0,0,0,0,0,0,1,1,0,0,0,0,0,0,0,0,0,0,0,0,0,0,0,0,0,0,0,1,0,0,0,0,1,1,0,0,0,0,0,0,0,0,0,0,0],"id":3,"left_children":[1,3,5,7,9,11,13,15,17,-1,-1,19,21,-1,23,-1,25,27,-1,-1,29,-1,-1,-1,31,-1,-1,33,-1,-1,35,-1,37,39,-1,-1,-1,41,-1,43,-1,-1,-1,-1,-1],"loss_changes":[4.0143772E1,2.8346226E1,1.4040463E2,1.688424E1,5.4237995E0,1.4949951E1,7.039776E0,5.6887274E0,6.5867615E0,0E0,0E0,3.139523E0,2.9803467E0,0E0,5.2874756E0,0E0,2.838498E0,6.449402E0,0E0,0E0,2.7744718E0,0E0,0E0,0E0,2.9009857E0,0E0,0E0,6.313179E0,0E0,0E0,2.5947275E0,0E0,2.6897964E0,5.049404E0,0E0,0E0,0E0,2.9821587E0,0E0,2.4707146E0,0E0,0E0,0E0,0E0,0E0],"parents":[2147483647,0,0,1,1,2,2,3,3,4,4,5,5,6,6,7,7,8,8,11,11,12,12,14,14,16,16,17,17,20,20,24,24,27,27,30,30,32,32,33,33,37,37,39,39],"right_children":[2,4,6,8,10,12,14,16,18,-1,-1,20,22,-1,24,-1,26,28,-1,-1,30,-1,-1,-1,32,-1,-1,34,-1,-1,36,-1,38,40,-1,-1,-1,42,-1,44,-1,-1,-1,-1,-1],"split_conditions":[1E0,-6.612382E-2,-1.3161302E-1,4.1808834E1,4.623953E1,5.6130783E1,5.44912E1,6.368575E0,-2.0559984E-1,-0E0,-6.3775964E-2,8.497604E-1,7.789661E-1,-1.4563396E-3,1.1832768E-1,-0E0,-1.09625E1,1E0,-0E0,-0E0,1.40121975E1,-0E0,-7.5499006E-2,-0E0,5.9575737E1,-0E0,-4.3749124E-2,1.5575E0,-0E0,-0E0,1E0,-0E0,7.109785E0,7.1232095E0,-0E0,-4.2442337E-2,-0E0,-1.5503226E1,-0E0,7.6990587E-1,-0E0,-0E0,2.8495021E-2,-0E0,3.2885883E-2],"split_indices":[1,13,13,17,17,17,17,11,13,0,0,14,14,0,13,0,10,5,0,0,17,0,0,0,19,0,0,10,0,0,3,0,11,11,0,0,0,10,0,14,0,0,0,0,0],"split_type":[0,0,0,0,0,0,0,0,0,0,0,0,0,0,0,0,0,0,0,0,0,0,0,0,0,0,0,0,0,0,0,0,0,0,0,0,0,0,0,0,0,0,0,0,0],"sum_hessian":[2.139635E4,1.1066874E4,1.0329476E4,1.0509392E4,5.57483E2,4.2892363E3,6.0402393E3,1.0407839E3,9.468607E3,8.474186E1,4.7274112E2,1.1607136E3,3.128523E3,1.2754587E3,4.764781E3,3.8391327E2,6.5687067E2,7.3587466E3,2.1098604E3,1.417439E2,1.01896967E3,9.0855194E1,3.0376677E3,4.8321085E2,4.28157E3,9.826191E1,5.5860876E2,6.8460723E3,5.126745E2,1.0011122E2,9.1885846E2,1.04914154E2,4.176656E3,6.5650034E3,2.810688E2,5.733397E2,3.4551874E2,3.98021E3,1.9644572E2,6.175633E3,3.893707E2,1.08564606E2,3.8716453E3,1.6374872E2,6.0118843E3],"tree_param":{"num_deleted":"0","num_feature":"20","num_nodes":"45","size_leaf_vector":"1"}},{"base_weights":[-2.406905E-3,2.2943428E-2,-3.2749537E-2,4.144727E-2,-7.0224362E-3,-1.3884865E-1,2.7339736E-2,5.608528E-2,-0E0,-9.720034E-3,-5.8895443E-2,4.4240236E-2,-1.3625928E-2,-0E0,7.041816E-2,5.9201173E-2,-0E0,-0E0,-2.2458952E-2,-0E0,7.730432E-2,-0E0,2.3098556E-2,8.6500846E-2,-0E0,-0E0,9.165632E-2,1.1243027E-1,2.6106415E-3,1.2671806E-1,-0E0,4.2771082E-2,-0E0],"categories":[],"categories_nodes":[],"categories_segments":[],"categories_sizes":[],"default_left":[0,0,0,0,0,0,0,1,0,0,0,1,0,0,0,0,0,0,0,0,0,0,0,1,0,0,0,0,0,1,0,0,0],"id":4,"left_children":[1,3,5,7,-1,9,11,13,-1,-1,-1,15,17,-1,19,21,-1,-1,-1,-1,23,-1,-1,25,-1,-1,27,29,-1,31,-1,-1,-1],"loss_changes":[1.687195E1,9.967075E0,6.9927895E1,6.2535543E0,0E0,1.2150284E1,5.515135E0,5.5838833E0,0E0,0E0,0E0,4.980158E0,2.706254E0,0E0,3.5962086E0,5.062063E0,0E0,0E0,0E0,0E0,4.2667828E0,0E0,0E0,2.7801056E0,0E0,0E0,3.740673E0,4.8460693E0,0E0,2.8820648E0,0E0,0E0,0E0],"parents":[2147483647,0,0,1,1,2,2,3,3,5,5,6,6,7,7,11,11,12,12,14,14,15,15,20,20,23,23,26,26,27,27,29,29],"right_children":[2,4,6,8,-1,10,12,14,-1,-1,-1,16,18,-1,20,22,-1,-1,-1,-1,24,-1,-1,26,-1,-1,28,30,-1,32,-1,-1,-1],"split_conditions":[1E0,-1.982908E-1,-1.6777436E-1,1E0,-7.0224362E-3,6.980144E1,1E0,6.1762955E1,-0E0,-9.720034E-3,-5.8895443E-2,9.4728806E1,-5.8181816E-1,-0E0,-1.3625E1,5.117193E1,-0E0,-0E0,-2.2458952E-2,-0E0,1E0,-0E0,2.3098556E-2,9.2E1,-0E0,-0E0,1E0,1.02858116E2,2.6106415E-3,1.4794117E0,-0E0,4.2771082E-2,-0E0],"split_indices":[1,13,13,6,0,19,6,19,0,0,0,19,10,0,10,19,0,0,0,0,5,0,0,16,0,0,4,19,0,10,0,0,0],"split_type":[0,0,0,0,0,0,0,0,0,0,0,0,0,0,0,0,0,0,0,0,0,0,0,0,0,0,0,0,0,0,0,0,0],"sum_hessian":[2.1370744E4,1.1085423E4,1.0285321E4,8.353779E3,2.7316436E3,3.8710413E3,6.414281E3,6.5135234E3,1.8402557E3,1.3852747E3,2.4857664E3,5.083522E3,1.3307585E3,1.2852155E3,5.228308E3,4.224024E3,8.5949817E2,8.0943304E2,5.2132556E2,3.019828E2,4.926325E3,4.395697E2,3.784454E3,4.488439E3,4.3788626E2,1.6865509E2,4.3197837E3,3.1329958E3,1.186788E3,2.7508796E3,3.821164E2,2.6243916E3,1.26487885E2],"tree_param":{"num_deleted":"0","num_feature":"20","num_nodes":"33","size_leaf_vector":"1"}},{"base_weights":[-1.3610673E-4,1.3525403E-2,-1.7948182E-2,2.1903029E-2,-1.0304657E-1,-7.535098E-2,2.4070282E-2,2.6460087E-2,8.124481E-3,-0E0,-1.3264225E-1,-8.620265E-2,-0E0,5.514234E-2,-1.1140483E-2,-3.6182854E-2,7.5806747E-3,-0E0,-5.06497E-2,-0E0,-1.0140269E-1,-0E0,6.598956E-2,-8.0024436E-2,1.5749176E-4,-0E0,-1.9347936E-2,-1.09969735E-1,-0E0,3.0842703E-2,-0E0,-3.408227E-2,-0E0,-1.181628E-1,-0E0,-0E0,-3.9005242E-2],"categories":[],"categories_nodes":[],"categories_segments":[],"categories_sizes":[],"default_left":[0,0,0,1,0,1,0,0,0,0,0,0,0,0,0,1,0,0,0,0,1,0,1,0,0,0,0,0,0,0,0,0,0,0,0,0,0],"id":5,"left_children":[1,3,5,7,9,11,13,-1,15,-1,17,19,-1,21,23,25,-1,-1,-1,-1,27,-1,29,31,-1,-1,-1,33,-1,-1,-1,-1,-1,35,-1,-1,-1],"loss_changes":[5.360429E0,8.48839E0,2.6656845E1,6.041567E0,2.5154185E0,4.788416E0,7.679299E0,0E0,6.0522346E0,0E0,2.6863942E0,8.226721E0,0E0,2.7176867E0,4.3338513E0,3.0785708E0,0E0,0E0,0E0,0E0,4.174881E0,0E0,4.173194E0,2.893136E0,0E0,0E0,0E0,2.8040237E0,0E0,0E0,0E0,0E0,0E0,2.586197E0,0E0,0E0,0E0],"parents":[2147483647,0,0,1,1,2,2,3,3,4,4,5,5,6,6,8,8,10,10,11,11,13,13,14,14,15,15,20,20,22,22,23,23,27,27,33,33],"right_children":[2,4,6,8,10,12,14,-1,16,-1,18,20,-1,22,24,26,-1,-1,-1,-1,28,-1,30,32,-1,-1,-1,34,-1,-1,-1,-1,-1,36,-1,-1,-1],"split_conditions":[1E0,1E0,1E0,9.59254E-1,1E2,2.163E3,8.53E1,2.6460087E-2,6.1081356E1,-0E0,4.8736988E1,9.9E1,-0E0,1.286E3,7.9322945E1,-9.612E0,7.5806747E-3,-0E0,-5.06497E-2,-0E0,1.1350254E0,-0E0,1.79E3,9.959761E-1,1.5749176E-4,-0E0,-1.9347936E-2,1.0000606E0,-0E0,3.0842703E-2,-0E0,-3.408227E-2,-0E0,1.9836636E1,-0E0,-0E0,-3.9005242E-2],"split_indices":[1,0,0,12,16,15,9,0,19,0,19,16,0,15,19,10,0,0,0,0,12,0,15,14,0,0,0,14,0,0,0,0,0,19,0,0,0],"split_type":[0,0,0,0,0,0,0,0,0,0,0,0,0,0,0,0,0,0,0,0,0,0,0,0,0,0,0,0,0,0,0,0,0,0,0,0,0],"sum_hessian":[2.1291268E4,1.1054509E4,1.023676E4,1.0628106E4,4.2640195E2,4.6176943E3,5.6190654E3,1.464041E3,9.164065E3,5.8194817E1,3.6820712E2,4.1535527E3,4.6414163E2,3.4383125E3,2.180753E3,1.826356E3,7.33771E3,2.6711329E1,3.414958E2,3.7428275E2,3.7792698E3,4.3780838E2,3.0005042E3,6.3952594E2,1.5412269E3,3.828845E2,1.4434714E3,3.546462E3,2.3280801E2,1.8117816E3,1.1887227E3,5.8048346E2,5.9042503E1,3.2616926E3,2.847691E2,2.8907402E1,3.2327854E3],"tree_param":{"num_deleted":"0","num_feature":"20","num_nodes":"37","size_leaf_vector":"1"}},{"base_weights":[-0E0,-2.2117857E-2,1.8211998E-2,-4.412922E-4,-1.04022205E-1,4.414774E-2,-0E0,-8.8993244E-2,1.695873E-3,-1.1372081E-1,-0E0,6.011209E-2,-0E0,-2.9301347E-2,3.950606E-2,-3.9286844E-2,-0E0,-3.948964E-2,-0E0,2.3423895E-2,-0E0,-0E0,-2.1244695E-2,5.557759E-2,-0E0,2.3210743E-2,-5.1429393E-3,-0E0,7.040472E-2,-0E0,8.6852685E-2,-0E0,1.0657699E-1,1.2181427E-1,-0E0,4.40857E-2,-0E0],"categories":[],"categories_nodes":[],"categories_segments":[],"categories_sizes":[],"default_left":[0,0,0,0,1,1,0,0,0,0,0,0,0,0,0,0,0,0,0,0,0,0,0,0,0,0,0,0,1,0,0,0,0,0,0,0,0],"id":6,"left_children":[1,3,5,7,9,11,13,15,-1,17,-1,19,-1,21,23,-1,-1,-1,-1,-1,-1,25,-1,27,-1,-1,-1,-1,29,-1,31,-1,33,35,-1,-1,-1],"loss_changes":[8.648609E0,1.4231089E1,6.368946E0,6.857831E0,3.189394E0,4.146734E0,7.2369747E0,3.004878E0,0E0,2.5528927E0,0E0,5.419441E0,0E0,6.05179E0,3.2183144E0,0E0,0E0,0E0,0E0,0E0,0E0,3.7935953E0,0E0,3.424716E0,0E0,0E0,0E0,0E0,2.693595E0,0E0,3.5278883E0,0E0,3.0060139E0,3.2206936E0,0E0,0E0,0E0],"parents":[2147483647,0,0,1,1,2,2,3,3,4,4,5,5,6,6,7,7,9,9,11,11,13,13,14,14,21,21,23,23,28,28,30,30,32,32,33,33],"right_children":[2,4,6,8,10,12,14,16,-1,18,-1,20,-1,22,24,-1,-1,-1,-1,-1,-1,26,-1,28,-1,-1,-1,-1,30,-1,32,-1,34,36,-1,-1,-1],"split_conditions":[2.1479626E1,8.89E1,3.7138172E1,-1.8242983E1,2.3307693E0,1.2857144E-1,8.67E1,8.72E1,1.695873E-3,9.806475E-1,-0E0,1E0,-0E0,8.30067E1,1E0,-3.9286844E-2,-0E0,-3.948964E-2,-0E0,2.3423895E-2,-0E0,9.9790883E-1,-2.1244695E-2,7.14689E1,-0E0,2.3210743E-2,-5.1429393E-3,-0E0,9.8488194E-1,-0E0,-3.3406317E-1,-0E0,9.17E1,1.1249195E0,-0E0,4.40857E-2,-0E0],"split_indices":[18,9,18,18,10,10,9,9,0,14,0,5,0,19,5,0,0,0,0,0,0,12,0,19,0,0,0,0,12,0,13,0,9,12,0,0,0],"split_type":[0,0,0,0,0,0,0,0,0,0,0,0,0,0,0,0,0,0,0,0,0,0,0,0,0,0,0,0,0,0,0,0,0,0,0,0,0],"sum_hessian":[2.1220713E4,9.799861E3,1.1420852E4,8.119111E3,1.6807509E3,5.1441045E3,6.276747E3,7.5871246E2,7.3603984E3,1.6396858E3,4.106499E1,3.8848875E3,1.2592168E3,3.9240088E3,2.3527383E3,5.592648E2,1.994477E2,1.547068E3,9.2617805E1,3.6031724E3,2.8171527E2,1.8528579E3,2.0711511E3,2.190616E3,1.6212216E2,5.7290015E2,1.2799576E3,1.6513773E2,2.0254784E3,3.652123E2,1.660266E3,2.7428345E2,1.3859825E3,1.244517E3,1.4146562E2,1.1244093E3,1.2010772E2],"tree_param":{"num_deleted":"0","num_feature":"20","num_nodes":"37","size_leaf_vector":"1"}},{"base_weights":[-0E0,8.738101E-3,-1.0712541E-2,3.6015403E-2,-1.3864066E-3,6.598528E-2,-0E0,-1.21586E-2,3.6522306E-3,2.8472062E-2,-0E0,1.3606668E-2,-1.7057415E-2,2.3442987E-2,-9.847739E-3,-8.8881963E-4,3.5409227E-2,-0E0,4.4078723E-2,5.551664E-2,-0E0,2.1706622E-2,-0E0],"categories":[],"categories_nodes":[],"categories_segments":[],"categories_sizes":[],"default_left":[0,1,0,0,0,0,0,0,1,0,0,1,0,0,0,0,0,0,1,0,0,0,0],"id":7,"left_children":[1,3,-1,5,7,9,-1,-1,11,-1,-1,13,-1,15,-1,-1,17,-1,19,21,-1,-1,-1],"loss_changes":[6.188835E0,5.8178687E0,0E0,5.1244016E0,3.2556577E0,3.2962675E0,0E0,0E0,4.2391977E0,0E0,0E0,3.624753E0,0E0,3.4735126E0,0E0,0E0,2.8204336E0,0E0,2.8897085E0,3.940322E0,0E0,0E0,0E0],"parents":[2147483647,0,0,1,1,3,3,4,4,5,5,8,8,11,11,13,13,16,16,18,18,19,19],"right_children":[2,4,-1,6,8,10,-1,-1,12,-1,-1,14,-1,16,-1,-1,18,-1,20,22,-1,-1,-1],"split_conditions":[1E0,1.0044694E0,-1.0712541E-2,1E0,2.065286E0,8.99309E1,-0E0,-1.21586E-2,1.02858116E2,2.8472062E-2,-0E0,8.2E-1,-1.7057415E-2,-1.0166667E1,-9.847739E-3,-8.8881963E-4,1.213E3,-0E0,1.986E3,1.1190889E0,-0E0,2.1706622E-2,-0E0],"split_indices":[6,12,0,1,18,19,0,0,19,0,0,10,0,10,0,0,15,0,15,12,0,0,0],"split_type":[0,0,0,0,0,0,0,0,0,0,0,0,0,0,0,0,0,0,0,0,0,0,0],"sum_hessian":[2.1275793E4,1.7000324E4,4.275469E3,5.392432E3,1.1607893E4,2.726508E3,2.665924E3,2.100046E3,9.507847E3,1.8785366E3,8.4797144E2,8.619239E3,8.886074E2,7.670939E3,9.483003E2,1.5940475E3,6.0768916E3,7.3244507E2,5.3444463E3,4.276745E3,1.0677014E3,3.6924504E3,5.8429456E2],"tree_param":{"num_deleted":"0","num_feature":"20","num_nodes":"23","size_leaf_vector":"1"}},{"base_weights":[-2.2067132E-3,4.435249E-2,-8.631567E-3,7.67474E-2,-0E0,-3.008533E-2,4.6778127E-4,-0E0,3.3174407E-2,-4.1967995E-2,-0E0,-1.1002801E-2,-9.739719E-2,-5.377201E-2,3.4523814E-3,-0E0,-1.11029774E-1,-7.97254E-2,-0E0,-0E0,-1.3344707E-1,-9.940578E-2,-0E0,-4.743289E-2,-0E0,-0E0,-3.6577318E-2],"categories":[],"categories_nodes":[],"categories_segments":[],"categories_sizes":[],"default_left":[0,0,0,0,0,0,0,0,0,0,0,1,0,0,0,0,0,0,0,0,0,0,0,0,0,0,0],"id":8,"left_children":[1,3,5,7,-1,9,-1,-1,-1,11,-1,13,15,17,-1,-1,19,21,-1,-1,23,25,-1,-1,-1,-1,-1],"loss_changes":[5.272272E0,4.8332253E0,5.1076164E0,4.269902E0,0E0,3.4332604E0,0E0,0E0,0E0,6.185663E0,0E0,5.2160897E0,4.2386427E0,2.438508E0,0E0,0E0,4.5521946E0,3.247128E0,0E0,0E0,3.3380585E0,2.5354118E0,0E0,0E0,0E0,0E0,0E0],"parents":[2147483647,0,0,1,1,2,2,3,3,5,5,9,9,11,11,12,12,13,13,16,16,17,17,20,20,21,21],"right_children":[2,4,6,8,-1,10,-1,-1,-1,12,-1,14,16,18,-1,-1,20,22,-1,-1,24,26,-1,-1,-1,-1,-1],"split_conditions":[8.181455E-1,1.1136644E0,9.010151E-1,-9.764706E0,-0E0,1E0,4.6778127E-4,-0E0,3.3174407E-2,1E0,-0E0,7.637074E1,5.78267E0,1.0788549E0,3.4523814E-3,-0E0,8.410902E-1,8.96636E-1,-0E0,-0E0,2.184E3,1.063E3,-0E0,-4.743289E-2,-0E0,-0E0,-3.6577318E-2],"split_indices":[14,12,14,10,0,0,0,0,0,1,0,17,11,12,0,0,14,14,0,0,15,15,0,0,0,0,0],"split_type":[0,0,0,0,0,0,0,0,0,0,0,0,0,0,0,0,0,0,0,0,0,0,0,0,0,0,0],"sum_hessian":[2.1221441E4,1.9177228E3,1.9303719E4,1.4070759E3,5.1064682E2,7.128655E3,1.2175063E4,2.7582474E2,1.1312512E3,5.573259E3,1.5553959E3,4.0044954E3,1.5687634E3,1.8020781E3,2.2024172E3,3.642115E1,1.5323423E3,1.1592662E3,6.428119E2,2.4088585E2,1.2914564E3,1.0453909E3,1.1387532E2,1.1827083E3,1.0874824E2,8.0939835E1,9.644511E2],"tree_param":{"num_deleted":"0","num_feature":"20","num_nodes":"27","size_leaf_vector":"1"}},{"base_weights":[-5.4192105E-3,-2.5953213E-2,4.0372487E-4,8.091668E-4,-1.2693592E-2,9.789905E-3,-2.7498422E-2,-6.831047E-3,1.70616E-2,-2.166249E-2,-0E0,2.7358465E-2,-4.543911E-3,1.09827975E-2,-0E0,-4.1362375E-2,6.4401925E-3,-0E0,-2.6551163E-2],"categories":[],"categories_nodes":[],"categories_segments":[],"categories_sizes":[],"default_left":[0,1,0,0,0,1,0,0,0,0,0,0,0,0,0,0,0,0,0],"id":9,"left_children":[1,3,5,-1,-1,7,9,-1,11,-1,-1,13,15,-1,-1,17,-1,-1,-1],"loss_changes":[3.3634317E0,3.4987662E0,3.5248747E0,0E0,0E0,2.7288523E0,2.4868135E0,0E0,3.183895E0,0E0,0E0,2.4832988E0,3.1321974E0,0E0,0E0,3.1514182E0,0E0,0E0,0E0],"parents":[2147483647,0,0,1,1,2,2,5,5,6,6,8,8,11,11,12,12,15,15],"right_children":[2,4,6,-1,-1,8,10,-1,12,-1,-1,14,16,-1,-1,18,-1,-1,-1],"split_conditions":[9.401146E0,9.7449964E-1,5.0498043E1,8.091668E-4,-1.2693592E-2,1.286E3,8.38E1,-6.831047E-3,1.8E-1,-2.166249E-2,-0E0,1.00750015E2,1E0,1.09827975E-2,-0E0,1.034272E0,6.4401925E-3,-0E0,-2.6551163E-2],"split_indices":[18,12,18,0,0,15,9,0,10,0,0,19,8,0,0,12,0,0,0],"split_type":[0,0,0,0,0,0,0,0,0,0,0,0,0,0,0,0,0,0,0],"sum_hessian":[2.127575E4,5.839855E3,1.54358955E4,1.1701586E3,4.669697E3,1.2438894E4,2.9970017E3,1.5006985E3,1.0938195E4,9.690412E2,2.0279604E3,8.385683E3,2.5525125E3,7.403402E3,9.822805E2,1.5171497E3,1.0353628E3,7.436428E2,7.735069E2],"tree_param":{"num_deleted":"0","num_feature":"20","num_nodes":"19","size_leaf_vector":"1"}},{"base_weights":[-5.9969244E-3,-1.9466624E-2,1.5398572E-3,-3.0618003E-2,-0E0,-1.1745294E-3,3.1787E-2,-0E0,-4.284339E-2,2.2121528E-2,-0E0,-1.1636458E-2,-2.6635101E-2,-3.143852E-2,9.529812E-3,-0E0,-2.5746353E-2],"categories":[],"categories_nodes":[],"categories_segments":[],"categories_sizes":[],"default_left":[0,0,0,0,0,0,0,0,0,0,0,0,0,0,0,0,0],"id":10,"left_children":[1,3,5,7,-1,-1,9,-1,11,-1,-1,13,-1,15,-1,-1,-1],"loss_changes":[2.7376728E0,2.869147E0,2.83199E0,3.2213998E0,0E0,0E0,3.9763231E0,0E0,3.4899225E0,0E0,0E0,2.980452E0,0E0,4.2942076E0,0E0,0E0,0E0],"parents":[2147483647,0,0,1,1,2,2,3,3,6,6,8,8,11,11,13,13],"right_children":[2,4,6,8,-1,-1,10,-1,12,-1,-1,14,-1,16,-1,-1,-1],"split_conditions":[1.9363903E1,9.3133026E-1,2.1457803E-1,8.2198626E-1,-0E0,-1.1745294E-3,3.799899E1,-0E0,-1.9538897E-1,2.2121528E-2,-0E0,6.911256E0,-2.6635101E-2,6.5374618E0,9.529812E-3,-0E0,-2.5746353E-2],"split_indices":[18,14,13,14,0,0,18,0,13,0,0,11,0,11,0,0,0],"split_type":[0,0,0,0,0,0,0,0,0,0,0,0,0,0,0,0,0],"sum_hessian":[2.1270979E4,9.093018E3,1.217796E4,6.687954E3,2.4050632E3,9.5559375E3,2.622023E3,1.556887E3,5.1310674E3,1.3218818E3,1.3001412E3,3.3962422E3,1.734825E3,2.8281882E3,5.6805414E2,1.8021711E3,1.026017E3],"tree_param":{"num_deleted":"0","num_feature":"20","num_nodes":"17","size_leaf_vector":"1"}},{"base_weights":[-0E0,-1.6910382E-2,3.0526114E-3,1.040746E-2,-1.7467303E-2,1.9189151E-2,-2.8774088E-2,-3.8232595E-2,-0E0,2.5457568E-2,-5.484443E-3,-0E0,-7.602363E-2,-1.8501766E-2,-0E0,3.799142E-2,-0E0,-1.0124058E-1,-0E0,5.621895E-2,7.826559E-4,-1.1080235E-2,2.2046765E-2,-0E0,-3.98531E-2,-0E0,6.819004E-2,-2.6942434E-2,1.0316946E-2,6.518221E-2,-0E0,2.663194E-2,-0E0,-0E0,-2.5652472E-2,9.5639475E-2,-0E0,1.1892976E-1,-0E0,-0E0,4.352054E-2],"categories":[],"categories_nodes":[],"categories_segments":[],"categories_sizes":[],"default_left":[1,0,0,1,0,0,0,1,0,1,0,0,0,0,0,0,0,0,0,0,0,0,1,0,0,0,0,0,0,0,0,0,0,0,0,0,0,0,0,0,0],"id":11,"left_children":[1,-1,3,5,7,9,11,13,-1,15,-1,-1,17,-1,-1,19,21,23,-1,25,27,-1,29,-1,-1,-1,31,33,-1,35,-1,-1,-1,-1,-1,37,-1,39,-1,-1,-1],"loss_changes":[3.4396825E0,0E0,2.842209E0,5.270142E0,2.4892664E0,3.4495635E0,4.2053022E0,3.5866358E0,0E0,2.9443188E0,0E0,0E0,3.5453691E0,0E0,0E0,3.404726E0,3.5028024E0,3.905591E0,0E0,3.3716793E0,3.0131354E0,0E0,4.018374E0,0E0,0E0,0E0,2.5120869E0,2.4669948E0,0E0,3.6961846E0,0E0,0E0,0E0,0E0,0E0,3.343647E0,0E0,2.8857145E0,0E0,0E0,0E0],"parents":[2147483647,0,0,2,2,3,3,4,4,5,5,6,6,7,7,9,9,12,12,15,15,16,16,17,17,19,19,20,20,22,22,26,26,27,27,29,29,35,35,37,37],"right_children":[2,-1,4,6,8,10,12,14,-1,16,-1,-1,18,-1,-1,20,22,24,-1,26,28,-1,30,-1,-1,-1,32,34,-1,36,-1,-1,-1,-1,-1,38,-1,40,-1,-1,-1],"split_conditions":[9.84E2,-1.6910382E-2,1E0,9.890186E1,1E0,1E0,1E0,9.747238E1,-0E0,1.055055E0,-5.484443E-3,-0E0,3.6013314E-1,-1.8501766E-2,-0E0,1.786E3,1.0750521E0,-1.2755102E1,-0E0,8.6511314E-1,1.928E3,-1.1080235E-2,-6.92E0,-0E0,-3.98531E-2,-0E0,1.34E2,1E0,1.0316946E-2,1.1313896E0,-0E0,2.663194E-2,-0E0,-0E0,-2.5652472E-2,1.36E2,-0E0,-4.0394673E-1,-0E0,-0E0,4.352054E-2],"split_indices":[15,0,6,19,3,5,1,19,0,12,0,0,13,0,0,15,12,10,0,14,15,0,10,0,0,0,16,3,0,12,0,0,0,0,0,16,0,13,0,0,0],"split_type":[0,0,0,0,0,0,0,0,0,0,0,0,0,0,0,0,0,0,0,0,0,0,0,0,0,0,0,0,0,0,0,0,0,0,0,0,0,0,0,0,0],"sum_hessian":[2.1217773E4,1.0827017E3,2.013507E4,1.5987684E4,4.1473877E3,1.37543955E4,2.2332874E3,2.5045498E3,1.6428378E3,1.249447E4,1.259926E3,1.2551427E3,9.781448E2,2.121403E3,3.831467E2,7.6055244E3,4.888946E3,8.6213477E2,1.1600998E2,4.505866E3,3.0996582E3,1.3875398E3,3.501406E3,6.850714E1,7.936276E2,7.440161E2,3.76185E3,1.1190114E3,1.9806469E3,1.2746198E3,2.2267861E3,2.8600864E3,9.017636E2,6.808166E2,4.3819476E2,9.527752E2,3.218446E2,8.239242E2,1.2885098E2,5.7320614E1,7.666036E2],"tree_param":{"num_deleted":"0","num_feature":"20","num_nodes":"41","size_leaf_vector":"1"}},{"base_weights":[-0E0,-8.438454E-3,1.7501384E-2,2.5197627E-2,-1.6814947E-2,3.5170343E-2,-0E0,-0E0,5.8545567E-2,-1.3237547E-2,-2.7450102E-3,-0E0,6.501508E-2,8.173319E-2,-0E0,-1.4503602E-2,6.0443196E-4,8.175239E-2,-0E0,-0E0,3.2589745E-2,-0E0,1.0473346E-1,1.3205366E-1,-0E0,-0E0,1.5308511E-1,-0E0,5.383731E-2],"categories":[],"categories_nodes":[],"categories_segments":[],"categories_sizes":[],"default_left":[0,0,1,0,0,0,0,0,0,0,1,0,0,0,0,0,0,0,0,0,0,0,1,0,0,0,0,0,0],"id":12,"left_children":[1,3,5,7,9,11,-1,-1,13,-1,15,-1,17,19,-1,-1,-1,21,-1,-1,-1,-1,23,25,-1,-1,27,-1,-1],"loss_changes":[3.2418423E0,3.7556276E0,3.3365285E0,2.9948063E0,2.7860298E0,3.5174665E0,0E0,0E0,3.2342305E0,0E0,3.0837846E0,0E0,3.5382442E0,3.2752414E0,0E0,0E0,0E0,3.0235987E0,0E0,0E0,0E0,0E0,3.5164652E0,3.2350445E0,0E0,0E0,2.4779263E0,0E0,0E0],"parents":[2147483647,0,0,1,1,2,2,3,3,4,4,5,5,8,8,10,10,12,12,13,13,17,17,22,22,23,23,26,26],"right_children":[2,4,6,8,10,12,-1,-1,14,-1,16,-1,18,20,-1,-1,-1,22,-1,-1,-1,-1,24,26,-1,-1,28,-1,-1],"split_conditions":[1E0,8.410902E-1,1.0570014E0,-2.9650766E-1,8.959772E-1,1E0,-0E0,-0E0,1E0,-1.3237547E-2,1.13E2,-0E0,9.950533E1,9.735162E-1,-0E0,-1.4503602E-2,6.0443196E-4,8.7903005E-1,-0E0,-0E0,3.2589745E-2,-0E0,1.34E2,1.09E2,-0E0,-0E0,-3.644278E-1,-0E0,5.383731E-2],"split_indices":[2,14,12,13,14,7,0,0,5,0,16,0,19,12,0,0,0,14,0,0,0,0,16,16,0,0,13,0,0],"split_type":[0,0,0,0,0,0,0,0,0,0,0,0,0,0,0,0,0,0,0,0,0,0,0,0,0,0,0,0,0],"sum_hessian":[2.128222E4,1.4068793E4,7.2134287E3,2.0189388E3,1.2049854E4,4.4226504E3,2.7907786E3,8.372101E2,1.1817288E3,3.5116978E3,8.538156E3,2.353576E3,2.0690742E3,1.0510348E3,1.3069392E2,1.4385857E3,7.0995703E3,1.8082223E3,2.6085205E2,8.76478E1,9.63387E2,4.6247403E2,1.3457483E3,1.018119E3,3.276292E2,1.4321393E2,8.749051E2,7.7353195E1,7.975519E2],"tree_param":{"num_deleted":"0","num_feature":"20","num_nodes":"29","size_leaf_vector":"1"}},{"base_weights":[-0E0],"categories":[],"categories_nodes":[],"categories_segments":[],"categories_sizes":[],"default_left":[0],"id":13,"left_children":[-1],"loss_changes":[0E0],"parents":[2147483647],"right_children":[-1],"split_conditions":[-0E0],"split_indices":[0],"split_type":[0],"sum_hessian":[2.1234965E4],"tree_param":{"num_deleted":"0","num_feature":"20","num_nodes":"1","size_leaf_vector":"1"}},{"base_weights":[1.8804269E-3,1.1329934E-2,-0E0,1.7275808E-2,-3.4455205E-3,-2.8429944E-2,1.1401562E-2,-2.0015761E-2,-0E0],"categories":[],"categories_nodes":[],"categories_segments":[],"categories_sizes":[],"default_left":[0,0,0,0,0,0,0,0,0],"id":14,"left_children":[1,-1,3,5,-1,7,-1,-1,-1],"loss_changes":[2.4026077E0,0E0,3.4314666E0,5.6963525E0,0E0,2.9113736E0,0E0,0E0,0E0],"parents":[2147483647,0,0,2,2,3,3,5,5],"right_children":[2,-1,4,6,-1,8,-1,-1,-1],"split_conditions":[8.181455E-1,1.1329934E-2,-2.798979E-1,8.603617E-1,-3.4455205E-3,-3.2313344E-1,1.1401562E-2,-2.0015761E-2,-0E0],"split_indices":[14,0,13,14,0,13,0,0,0],"split_type":[0,0,0,0,0,0,0,0,0],"sum_hessian":[2.1221652E4,1.894722E3,1.932693E4,6.3364517E3,1.2990479E4,1.3091455E3,5.027306E3,9.4983203E2,3.5931348E2],"tree_param":{"num_deleted":"0","num_feature":"20","num_nodes":"9","size_leaf_vector":"1"}},{"base_weights":[-0E0,-1.6502546E-2,2.8068777E-3,3.728491E-2,-0E0,5.583238E-2,-0E0,-0E0,2.5555402E-2],"categories":[],"categories_nodes":[],"categories_segments":[],"categories_sizes":[],"default_left":[0,0,0,0,0,1,0,0,0],"id":15,"left_children":[1,-1,3,5,-1,7,-1,-1,-1],"loss_changes":[2.627677E0,0E0,3.071379E0,2.9105287E0,0E0,2.9491935E0,0E0,0E0,0E0],"parents":[2147483647,0,0,2,2,3,3,5,5],"right_children":[2,-1,4,6,-1,8,-1,-1,-1],"split_conditions":[-1.8242983E1,-1.6502546E-2,8.15E1,5.2567524E1,-0E0,-8.35E0,-0E0,-0E0,2.5555402E-2],"split_indices":[18,0,9,18,0,10,0,0,0],"split_type":[0,0,0,0,0,0,0,0,0],"sum_hessian":[2.1274607E4,8.4582684E2,2.0428781E4,2.2446028E3,1.8184178E4,1.8898063E3,3.5479666E2,5.4579584E2,1.3440104E3],"tree_param":{"num_deleted":"0","num_feature":"20","num_nodes":"9","size_leaf_vector":"1"}},{"base_weights":[-0E0],"categories":[],"categories_nodes":[],"categories_segments":[],"categories_sizes":[],"default_left":[0],"id":16,"left_children":[-1],"loss_changes":[0E0],"parents":[2147483647],"right_children":[-1],"split_conditions":[-0E0],"split_indices":[0],"split_type":[0],"sum_hessian":[2.1194898E4],"tree_param":{"num_deleted":"0","num_feature":"20","num_nodes":"1","size_leaf_vector":"1"}},{"base_weights":[-3.0017751E-3,-5.213402E-2,-0E0,-0E0,-3.0551163E-2],"categories":[],"categories_nodes":[],"categories_segments":[],"categories_sizes":[],"default_left":[0,0,0,0,0],"id":17,"left_children":[1,3,-1,-1,-1],"loss_changes":[3.0098085E0,4.9761734E0,0E0,0E0,0E0],"parents":[2147483647,0,0,1,1],"right_children":[2,4,-1,-1,-1],"split_conditions":[3.047197E1,6.1983166E0,-0E0,-0E0,-3.0551163E-2],"split_indices":[17,11,0,0,0],"split_type":[0,0,0,0,0],"sum_hessian":[2.1229586E4,1.097032E3,2.0132555E4,2.8125684E2,8.157751E2],"tree_param":{"num_deleted":"0","num_feature":"20","num_nodes":"5","size_leaf_vector":"1"}},{"base_weights":[-5.7002515E-5],"categories":[],"categories_nodes":[],"categories_segments":[],"categories_sizes":[],"default_left":[0],"id":18,"left_children":[-1],"loss_changes":[0E0],"parents":[2147483647],"right_children":[-1],"split_conditions":[-1.8236402E-5],"split_indices":[0],"split_type":[0],"sum_hessian":[2.1244463E4],"tree_param":{"num_deleted":"0","num_feature":"20","num_nodes":"1","size_leaf_vector":"1"}},{"base_weights":[-0E0,1.3985292E-3,-1.278137E-2],"categories":[],"categories_nodes":[],"categories_segments":[],"categories_sizes":[],"default_left":[0,0,0],"id":19,"left_children":[1,-1,-1],"loss_changes":[2.9682932E0,0E0,0E0],"parents":[2147483647,0,0],"right_children":[2,-1,-1],"split_conditions":[1E0,1.3985292E-3,-1.278137E-2],"split_indices":[5,0,0],"split_type":[0,0,0],"sum_hessian":[2.1235672E4,1.9693727E4,1.5419453E3],"tree_param":{"num_deleted":"0","num_feature":"20","num_nodes":"3","size_leaf_vector":"1"}},{"base_weights":[-6.581798E-5,4.057253E-3,-2.3427494E-2,1.705016E-2,-1.4857382E-2,-4.1762073E-2,8.6845265E-4,4.0386565E-2,7.9366256E-4,-1.2533589E-2,-0E0,-1.8487768E-2,-0E0,6.0231425E-2,-0E0,4.1005787E-2,-3.6480933E-2,2.227194E-2,-0E0,1.8581256E-2,-0E0,-2.7406385E-2,1.4191904E-3],"categories":[],"categories_nodes":[],"categories_segments":[],"categories_sizes":[],"default_left":[0,1,1,0,0,0,0,0,0,0,0,0,0,0,0,0,0,0,0,0,0,0,0],"id":20,"left_children":[1,3,5,7,9,11,-1,13,-1,-1,15,-1,-1,17,-1,19,21,-1,-1,-1,-1,-1,-1],"loss_changes":[2.6753633E0,4.2789345E0,3.3369954E0,2.4202113E0,2.999776E0,3.8656254E0,0E0,3.0713058E0,0E0,0E0,5.0892534E0,0E0,0E0,2.5547085E0,0E0,2.9280572E0,5.6039915E0,0E0,0E0,0E0,0E0,0E0,0E0],"parents":[2147483647,0,0,1,1,2,2,3,3,4,4,5,5,7,7,10,10,13,13,15,15,16,16],"right_children":[2,4,6,8,10,12,-1,14,-1,-1,16,-1,-1,18,-1,20,22,-1,-1,-1,-1,-1,-1],"split_conditions":[1E0,7.941893E1,8.46164E1,-2.8305352E-1,8.817081E1,1.1099526E0,8.6845265E-4,1E0,7.9366256E-4,-1.2533589E-2,1E0,-1.8487768E-2,-0E0,9.275831E1,-0E0,4.0485207E-2,2.5196832E-1,2.227194E-2,-0E0,1.8581256E-2,-0E0,-2.7406385E-2,1.4191904E-3],"split_indices":[6,17,17,13,17,12,0,1,0,0,1,0,0,19,0,13,13,0,0,0,0,0,0],"split_type":[0,0,0,0,0,0,0,0,0,0,0,0,0,0,0,0,0,0,0,0,0,0,0],"sum_hessian":[2.1246746E4,1.6964295E4,4.282452E3,1.1053446E4,5.9108477E3,3.2005752E3,1.081877E3,3.3579773E3,7.695469E3,2.7352256E3,3.1756223E3,2.7903848E3,4.1019034E2,2.311767E3,1.0462102E3,1.7653473E3,1.410275E3,2.237233E3,7.453433E1,1.707332E3,5.8015263E1,9.516311E2,4.5864386E2],"tree_param":{"num_deleted":"0","num_feature":"20","num_nodes":"23","size_leaf_vector":"1"}},{"base_weights":[-0E0],"categories":[],"categories_nodes":[],"categories_segments":[],"categories_sizes":[],"default_left":[0],"id":21,"left_children":[-1],"loss_changes":[0E0],"parents":[2147483647],"right_children":[-1],"split_conditions":[-0E0],"split_indices":[0],"split_type":[0],"sum_hessian":[2.1204186E4],"tree_param":{"num_deleted":"0","num_feature":"20","num_nodes":"1","size_leaf_vector":"1"}},{"base_weights":[-8.502008E-4],"categories":[],"categories_nodes":[],"categories_segments":[],"categories_sizes":[],"default_left":[0],"id":22,"left_children":[-1],"loss_changes":[0E0],"parents":[2147483647],"right_children":[-1],"split_conditions":[-2.719986E-4],"split_indices":[0],"split_type":[0],"sum_hessian":[2.1248596E4],"tree_param":{"num_deleted":"0","num_feature":"20","num_nodes":"1","size_leaf_vector":"1"}},{"base_weights":[2.3636481E-4],"categories":[],"categories_nodes":[],"categories_segments":[],"categories_sizes":[],"default_left":[0],"id":23,"left_children":[-1],"loss_changes":[0E0],"parents":[2147483647],"right_children":[-1],"split_conditions":[7.561849E-5],"split_indices":[0],"split_type":[0],"sum_hessian":[2.123767E4],"tree_param":{"num_deleted":"0","num_feature":"20","num_nodes":"1","size_leaf_vector":"1"}},{"base_weights":[-1.2138083E-3],"categories":[],"categories_nodes":[],"categories_segments":[],"categories_sizes":[],"default_left":[0],"id":24,"left_children":[-1],"loss_changes":[0E0],"parents":[2147483647],"right_children":[-1],"split_conditions":[-3.8832493E-4],"split_indices":[0],"split_type":[0],"sum_hessian":[2.1218629E4],"tree_param":{"num_deleted":"0","num_feature":"20","num_nodes":"1","size_leaf_vector":"1"}},{"base_weights":[2.3775408E-3],"categories":[],"categories_nodes":[],"categories_segments":[],"categories_sizes":[],"default_left":[0],"id":25,"left_children":[-1],"loss_changes":[0E0],"parents":[2147483647],"right_children":[-1],"split_conditions":[7.606294E-4],"split_indices":[0],"split_type":[0],"sum_hessian":[2.1235213E4],"tree_param":{"num_deleted":"0","num_feature":"20","num_nodes":"1","size_leaf_vector":"1"}},{"base_weights":[-1.0973209E-3],"categories":[],"categories_nodes":[],"categories_segments":[],"categories_sizes":[],"default_left":[0],"id":26,"left_children":[-1],"loss_changes":[0E0],"parents":[2147483647],"right_children":[-1],"split_conditions":[-3.5105797E-4],"split_indices":[0],"split_type":[0],"sum_hessian":[2.1190635E4],"tree_param":{"num_deleted":"0","num_feature":"20","num_nodes":"1","size_leaf_vector":"1"}},{"base_weights":[-7.078039E-4,-1.4838038E-2,6.4593097E-3,-1.1172706E-2,3.0667193E-3,-1.6592799E-3,1.1740682E-2],"categories":[],"categories_nodes":[],"categories_segments":[],"categories_sizes":[],"default_left":[1,0,0,0,0,0,0],"id":27,"left_children":[1,3,5,-1,-1,-1,-1],"loss_changes":[2.42852E0,5.0843754E0,5.482394E0,0E0,0E0,0E0,0E0],"parents":[2147483647,0,0,1,1,2,2],"right_children":[2,4,6,-1,-1,-1,-1],"split_conditions":[1.618E3,1E0,1E0,-1.1172706E-2,3.0667193E-3,-1.6592799E-3,1.1740682E-2],"split_indices":[15,3,2,0,0,0,0],"split_type":[0,0,0,0,0,0,0],"sum_hessian":[2.1202604E4,8.592808E3,1.2609795E4,5.407517E3,3.1852908E3,8.396209E3,4.2135854E3],"tree_param":{"num_deleted":"0","num_feature":"20","num_nodes":"7","size_leaf_vector":"1"}},{"base_weights":[3.6240406E-3,-0E0,5.4600127E-2,2.7536672E-2,-0E0],"categories":[],"categories_nodes":[],"categories_segments":[],"categories_sizes":[],"default_left":[1,0,0,0,0],"id":28,"left_children":[1,-1,3,-1,-1],"loss_changes":[3.5180197E0,0E0,4.284248E0,0E0,0E0],"parents":[2147483647,0,0,2,2],"right_children":[2,-1,4,-1,-1],"split_conditions":[1.44E2,-0E0,8.95E1,2.7536672E-2,-0E0],"split_indices":[16,0,9,0,0],"split_type":[0,0,0,0,0],"sum_hessian":[2.1189174E4,1.9996385E4,1.192788E3,1.0098554E3,1.8293259E2],"tree_param":{"num_deleted":"0","num_feature":"20","num_nodes":"5","size_leaf_vector":"1"}},{"base_weights":[-2.6524446E-3],"categories":[],"categories_nodes":[],"categories_segments":[],"categories_sizes":[],"default_left":[0],"id":29,"left_children":[-1],"loss_changes":[0E0],"parents":[2147483647],"right_children":[-1],"split_conditions":[-8.485775E-4],"split_indices":[0],"split_type":[0],"sum_hessian":[2.1266053E4],"tree_param":{"num_deleted":"0","num_feature":"20","num_nodes":"1","size_leaf_vector":"1"}},{"base_weights":[-0E0],"categories":[],"categories_nodes":[],"categories_segments":[],"categories_sizes":[],"default_left":[0],"id":30,"left_children":[-1],"loss_changes":[0E0],"parents":[2147483647],"right_children":[-1],"split_conditions":[-0E0],"split_indices":[0],"split_type":[0],"sum_hessian":[2.1219354E4],"tree_param":{"num_deleted":"0","num_feature":"20","num_nodes":"1","size_leaf_vector":"1"}},{"base_weights":[1.0679967E-3],"categories":[],"categories_nodes":[],"categories_segments":[],"categories_sizes":[],"default_left":[0],"id":31,"left_children":[-1],"loss_changes":[0E0],"parents":[2147483647],"right_children":[-1],"split_conditions":[3.4167647E-4],"split_indices":[0],"split_type":[0],"sum_hessian":[2.1235283E4],"tree_param":{"num_deleted":"0","num_feature":"20","num_nodes":"1","size_leaf_vector":"1"}},{"base_weights":[-0E0],"categories":[],"categories_nodes":[],"categories_segments":[],"categories_sizes":[],"default_left":[0],"id":32,"left_children":[-1],"loss_changes":[0E0],"parents":[2147483647],"right_children":[-1],"split_conditions":[-0E0],"split_indices":[0],"split_type":[0],"sum_hessian":[2.1233402E4],"tree_param":{"num_deleted":"0","num_feature":"20","num_nodes":"1","size_leaf_vector":"1"}},{"base_weights":[8.243913E-4],"categories":[],"categories_nodes":[],"categories_segments":[],"categories_sizes":[],"default_left":[0],"id":33,"left_children":[-1],"loss_changes":[0E0],"parents":[2147483647],"right_children":[-1],"split_conditions":[2.6374156E-4],"split_indices":[0],"split_type":[0],"sum_hessian":[2.1221863E4],"tree_param":{"num_deleted":"0","num_feature":"20","num_nodes":"1","size_leaf_vector":"1"}},{"base_weights":[-0E0],"categories":[],"categories_nodes":[],"categories_segments":[],"categories_sizes":[],"default_left":[0],"id":34,"left_children":[-1],"loss_changes":[0E0],"parents":[2147483647],"right_children":[-1],"split_conditions":[-0E0],"split_indices":[0],"split_type":[0],"sum_hessian":[2.1264092E4],"tree_param":{"num_deleted":"0","num_feature":"20","num_nodes":"1","size_leaf_vector":"1"}},{"base_weights":[1.17494936E-4],"categories":[],"categories_nodes":[],"categories_segments":[],"categories_sizes":[],"default_left":[0],"id":35,"left_children":[-1],"loss_changes":[0E0],"parents":[2147483647],"right_children":[-1],"split_conditions":[3.7589307E-5],"split_indices":[0],"split_type":[0],"sum_hessian":[2.1167896E4],"tree_param":{"num_deleted":"0","num_feature":"20","num_nodes":"1","size_leaf_vector":"1"}},{"base_weights":[-4.8788675E-4],"categories":[],"categories_nodes":[],"categories_segments":[],"categories_sizes":[],"default_left":[0],"id":36,"left_children":[-1],"loss_changes":[0E0],"parents":[2147483647],"right_children":[-1],"split_conditions":[-1.5608608E-4],"split_indices":[0],"split_type":[0],"sum_hessian":[2.1188238E4],"tree_param":{"num_deleted":"0","num_feature":"20","num_nodes":"1","size_leaf_vector":"1"}},{"base_weights":[-0E0],"categories":[],"categories_nodes":[],"categories_segments":[],"categories_sizes":[],"default_left":[0],"id":37,"left_children":[-1],"loss_changes":[0E0],"parents":[2147483647],"right_children":[-1],"split_conditions":[-0E0],"split_indices":[0],"split_type":[0],"sum_hessian":[2.1158951E4],"tree_param":{"num_deleted":"0","num_feature":"20","num_nodes":"1","size_leaf_vector":"1"}},{"base_weights":[-0E0],"categories":[],"categories_nodes":[],"categories_segments":[],"categories_sizes":[],"default_left":[0],"id":38,"left_children":[-1],"loss_changes":[0E0],"parents":[2147483647],"right_children":[-1],"split_conditions":[-0E0],"split_indices":[0],"split_type":[0],"sum_hessian":[2.127451E4],"tree_param":{"num_deleted":"0","num_feature":"20","num_nodes":"1","size_leaf_vector":"1"}},{"base_weights":[1.3559954E-3],"categories":[],"categories_nodes":[],"categories_segments":[],"categories_sizes":[],"default_left":[0],"id":39,"left_children":[-1],"loss_changes":[0E0],"parents":[2147483647],"right_children":[-1],"split_conditions":[4.338138E-4],"split_indices":[0],"split_type":[0],"sum_hessian":[2.122518E4],"tree_param":{"num_deleted":"0","num_feature":"20","num_nodes":"1","size_leaf_vector":"1"}},{"base_weights":[-0E0],"categories":[],"categories_nodes":[],"categories_segments":[],"categories_sizes":[],"default_left":[0],"id":40,"left_children":[-1],"loss_changes":[0E0],"parents":[2147483647],"right_children":[-1],"split_conditions":[-0E0],"split_indices":[0],"split_type":[0],"sum_hessian":[2.1281152E4],"tree_param":{"num_deleted":"0","num_feature":"20","num_nodes":"1","size_leaf_vector":"1"}},{"base_weights":[-0E0],"categories":[],"categories_nodes":[],"categories_segments":[],"categories_sizes":[],"default_left":[0],"id":41,"left_children":[-1],"loss_changes":[0E0],"parents":[2147483647],"right_children":[-1],"split_conditions":[-0E0],"split_indices":[0],"split_type":[0],"sum_hessian":[2.123491E4],"tree_param":{"num_deleted":"0","num_feature":"20","num_nodes":"1","size_leaf_vector":"1"}},{"base_weights":[-0E0],"categories":[],"categories_nodes":[],"categories_segments":[],"categories_sizes":[],"default_left":[0],"id":42,"left_children":[-1],"loss_changes":[0E0],"parents":[2147483647],"right_children":[-1],"split_conditions":[-0E0],"split_indices":[0],"split_type":[0],"sum_hessian":[2.1245402E4],"tree_param":{"num_deleted":"0","num_feature":"20","num_nodes":"1","size_leaf_vector":"1"}},{"base_weights":[-1.2776395E-3,8.197446E-3,-1.2610865E-2,1.672945E-2,-7.2765904E-3,-1.997771E-2,1.4259177E-2,-8.749189E-3,1.0466843E-2,-6.087505E-2,-1.2128772E-3,-0E0,-2.8615545E-2,-0E0,-7.9465985E-2,-0E0,-3.0331967E-2],"categories":[],"categories_nodes":[],"categories_segments":[],"categories_sizes":[],"default_left":[0,0,1,0,0,1,0,0,0,0,0,0,0,0,1,0,0],"id":43,"left_children":[1,3,5,7,-1,9,-1,11,-1,13,-1,-1,-1,-1,15,-1,-1],"loss_changes":[2.4438553E0,2.5255923E0,4.0486674E0,4.3755007E0,0E0,4.915456E0,0E0,4.2914004E0,0E0,2.5351868E0,0E0,0E0,0E0,0E0,2.5481243E0,0E0,0E0],"parents":[2147483647,0,0,1,1,2,2,3,3,5,5,7,7,9,9,14,14],"right_children":[2,4,6,8,-1,10,-1,12,-1,14,-1,-1,-1,-1,16,-1,-1],"split_conditions":[1.21E2,3.7138172E1,2.17E3,-2.1237638E0,-7.2765904E-3,1.25E2,1.4259177E-2,8.5459145E1,1.0466843E-2,1.475E3,-1.2128772E-3,-0E0,-2.8615545E-2,-0E0,5.9304304E0,-0E0,-3.0331967E-2],"split_indices":[16,18,15,18,0,16,0,17,0,15,0,0,0,0,11,0,0],"split_type":[0,0,0,0,0,0,0,0,0,0,0,0,0,0,0,0,0],"sum_hessian":[2.1297896E4,1.009039E4,1.1207507E4,8.740748E3,1.3496425E3,1.0465635E4,7.4187244E2,2.620549E3,6.1201987E3,2.3495073E3,8.116127E3,2.139302E3,4.8124698E2,6.027343E2,1.7467731E3,2.6027417E2,1.4864989E3],"tree_param":{"num_deleted":"0","num_feature":"20","num_nodes":"17","size_leaf_vector":"1"}},{"base_weights":[-0E0],"categories":[],"categories_nodes":[],"categories_segments":[],"categories_sizes":[],"default_left":[0],"id":44,"left_children":[-1],"loss_changes":[0E0],"parents":[2147483647],"right_children":[-1],"split_conditions":[-0E0],"split_indices":[0],"split_type":[0],"sum_hessian":[2.1217541E4],"tree_param":{"num_deleted":"0","num_feature":"20","num_nodes":"1","size_leaf_vector":"1"}},{"base_weights":[-4.312295E-3],"categories":[],"categories_nodes":[],"categories_segments":[],"categories_sizes":[],"default_left":[0],"id":45,"left_children":[-1],"loss_changes":[0E0],"parents":[2147483647],"right_children":[-1],"split_conditions":[-1.3796014E-3],"split_indices":[0],"split_type":[0],"sum_hessian":[2.1182383E4],"tree_param":{"num_deleted":"0","num_feature":"20","num_nodes":"1","size_leaf_vector":"1"}},{"base_weights":[3.6983073E-3],"categories":[],"categories_nodes":[],"categories_segments":[],"categories_sizes":[],"default_left":[0],"id":46,"left_children":[-1],"loss_changes":[0E0],"parents":[2147483647],"right_children":[-1],"split_conditions":[1.1831727E-3],"split_indices":[0],"split_type":[0],"sum_hessian":[2.1276645E4],"tree_param":{"num_deleted":"0","num_feature":"20","num_nodes":"1","size_leaf_vector":"1"}},{"base_weights":[-0E0],"categories":[],"categories_nodes":[],"categories_segments":[],"categories_sizes":[],"default_left":[0],"id":47,"left_children":[-1],"loss_changes":[0E0],"parents":[2147483647],"right_children":[-1],"split_conditions":[-0E0],"split_indices":[0],"split_type":[0],"sum_hessian":[2.1205727E4],"tree_param":{"num_deleted":"0","num_feature":"20","num_nodes":"1","size_leaf_vector":"1"}},{"base_weights":[-1.0457322E-3,1.0350491E-3,-3.3984162E-2,-1.643022E-2,1.0450549E-2,-0E0,-6.4686514E-2,8.771002E-3,-3.208394E-2,-0E0,7.932586E-3,-3.0500047E-2,-0E0,-1.5338804E-3,1.8948337E-2,3.0259402E-3,-4.538886E-2,4.800565E-3,-6.952434E-2,-0E0,-6.5408595E-2,-1.0583304E-2,2.3288915E-2,-0E0,-3.1863555E-2,-7.837318E-2,-0E0,3.630079E-2,-7.97891E-3,-9.111861E-2,-0E0,4.748836E-2,-0E0,-0E0,-3.9034095E-2,5.748868E-2,-0E0,-0E0,2.2035494E-2],"categories":[],"categories_nodes":[],"categories_segments":[],"categories_sizes":[],"default_left":[1,0,0,0,0,0,1,0,0,0,0,0,0,0,0,0,0,0,0,0,1,0,0,0,0,0,0,1,0,0,0,0,0,0,0,0,0,0,0],"id":48,"left_children":[1,3,5,7,9,-1,11,13,15,17,-1,-1,-1,-1,-1,-1,19,21,23,-1,25,-1,27,-1,-1,29,-1,31,-1,33,-1,35,-1,-1,-1,37,-1,-1,-1],"loss_changes":[2.5063734E0,2.9841926E0,2.6015947E0,2.9636645E0,2.7273476E0,0E0,2.7475271E0,2.723969E0,3.5141368E0,4.090615E0,0E0,0E0,0E0,0E0,0E0,0E0,3.0220056E0,4.0839467E0,2.7862396E0,0E0,2.749607E0,0E0,3.4236567E0,0E0,0E0,3.431634E0,0E0,3.206787E0,0E0,3.1848793E0,0E0,2.9545708E0,0E0,0E0,0E0,3.3637009E0,0E0,0E0,0E0],"parents":[2147483647,0,0,1,1,2,2,3,3,4,4,6,6,7,7,8,8,9,9,16,16,17,17,18,18,20,20,22,22,25,25,27,27,29,29,31,31,35,35],"right_children":[2,4,6,8,10,-1,12,14,16,18,-1,-1,-1,-1,-1,-1,20,22,24,-1,26,-1,28,-1,-1,30,-1,32,-1,34,-1,36,-1,-1,-1,38,-1,-1,-1],"split_conditions":[9.070175E-1,6.208472E0,1.0309829E0,9.3574053E-1,-4.07E0,-0E0,1.0991927E0,5.62349E0,8.09E1,8.99E1,7.932586E-3,-3.0500047E-2,-0E0,-1.5338804E-3,1.8948337E-2,3.0259402E-3,-7.757143E0,8.33E1,1.0159488E0,-0E0,1.37E2,-1.0583304E-2,1.00750015E2,-0E0,-3.1863555E-2,9.04E1,-0E0,7.1232095E0,-7.97891E-3,7.278488E1,-0E0,-5.5266666E0,-0E0,-0E0,-3.9034095E-2,-1.4383333E1,-0E0,-0E0,2.2035494E-2],"split_indices":[10,11,12,12,10,0,12,11,9,9,0,0,0,0,0,0,10,9,12,0,16,0,19,0,0,9,0,11,0,19,0,10,0,0,0,10,0,0,0],"split_type":[0,0,0,0,0,0,0,0,0,0,0,0,0,0,0,0,0,0,0,0,0,0,0,0,0,0,0,0,0,0,0,0,0,0,0,0,0,0,0],"sum_hessian":[2.1224477E4,1.913296E4,2.0915173E3,5.502608E3,1.3630352E4,9.5113293E2,1.1403844E3,1.3469581E3,4.15565E3,6.8395757E3,6.7907764E3,7.8359827E2,3.5678613E2,6.247487E2,7.222094E2,4.3645377E2,3.7191963E3,6.103779E3,7.3579694E2,1.2639037E3,2.4552925E3,1.4192542E3,4.6845244E3,1.3790965E2,5.9788727E2,2.1332307E3,3.2206183E2,4.222016E3,4.6250818E2,1.9704333E3,1.6279738E2,3.855368E3,3.6664847E2,6.9336505E2,1.2770684E3,3.4989812E3,3.5638666E2,3.7699097E2,3.1219902E3],"tree_param":{"num_deleted":"0","num_feature":"20","num_nodes":"39","size_leaf_vector":"1"}},{"base_weights":[-0E0],"categories":[],"categories_nodes":[],"categories_segments":[],"categories_sizes":[],"default_left":[0],"id":49,"left_children":[-1],"loss_changes":[0E0],"parents":[2147483647],"right_children":[-1],"split_conditions":[-0E0],"split_indices":[0],"split_type":[0],"sum_hessian":[2.1210383E4],"tree_param":{"num_deleted":"0","num_feature":"20","num_nodes":"1","size_leaf_vector":"1"}},{"base_weights":[-0E0],"categories":[],"categories_nodes":[],"categories_segments":[],"categories_sizes":[],"default_left":[0],"id":50,"left_children":[-1],"loss_changes":[0E0],"parents":[2147483647],"right_children":[-1],"split_conditions":[-0E0],"split_indices":[0],"split_type":[0],"sum_hessian":[2.1207582E4],"tree_param":{"num_deleted":"0","num_feature":"20","num_nodes":"1","size_leaf_vector":"1"}},{"base_weights":[-0E0],"categories":[],"categories_nodes":[],"categories_segments":[],"categories_sizes":[],"default_left":[0],"id":51,"left_children":[-1],"loss_changes":[0E0],"parents":[2147483647],"right_children":[-1],"split_conditions":[-0E0],"split_indices":[0],"split_type":[0],"sum_hessian":[2.1237031E4],"tree_param":{"num_deleted":"0","num_feature":"20","num_nodes":"1","size_leaf_vector":"1"}},{"base_weights":[-0E0],"categories":[],"categories_nodes":[],"categories_segments":[],"categories_sizes":[],"default_left":[0],"id":52,"left_children":[-1],"loss_changes":[0E0],"parents":[2147483647],"right_children":[-1],"split_conditions":[-0E0],"split_indices":[0],"split_type":[0],"sum_hessian":[2.126169E4],"tree_param":{"num_deleted":"0","num_feature":"20","num_nodes":"1","size_leaf_vector":"1"}},{"base_weights":[-0E0],"categories":[],"categories_nodes":[],"categories_segments":[],"categories_sizes":[],"default_left":[0],"id":53,"left_children":[-1],"loss_changes":[0E0],"parents":[2147483647],"right_children":[-1],"split_conditions":[-0E0],"split_indices":[0],"split_type":[0],"sum_hessian":[2.1201785E4],"tree_param":{"num_deleted":"0","num_feature":"20","num_nodes":"1","size_leaf_vector":"1"}},{"base_weights":[-2.0709909E-3],"categories":[],"categories_nodes":[],"categories_segments":[],"categories_sizes":[],"default_left":[0],"id":54,"left_children":[-1],"loss_changes":[0E0],"parents":[2147483647],"right_children":[-1],"split_conditions":[-6.6255714E-4],"split_indices":[0],"split_type":[0],"sum_hessian":[2.125179E4],"tree_param":{"num_deleted":"0","num_feature":"20","num_nodes":"1","size_leaf_vector":"1"}},{"base_weights":[-0E0],"categories":[],"categories_nodes":[],"categories_segments":[],"categories_sizes":[],"default_left":[0],"id":55,"left_children":[-1],"loss_changes":[0E0],"parents":[2147483647],"right_children":[-1],"split_conditions":[-0E0],"split_indices":[0],"split_type":[0],"sum_hessian":[2.1232607E4],"tree_param":{"num_deleted":"0","num_feature":"20","num_nodes":"1","size_leaf_vector":"1"}},{"base_weights":[-0E0],"categories":[],"categories_nodes":[],"categories_segments":[],"categories_sizes":[],"default_left":[0],"id":56,"left_children":[-1],"loss_changes":[0E0],"parents":[2147483647],"right_children":[-1],"split_conditions":[-0E0],"split_indices":[0],"split_type":[0],"sum_hessian":[2.1179793E4],"tree_param":{"num_deleted":"0","num_feature":"20","num_nodes":"1","size_leaf_vector":"1"}},{"base_weights":[-1.6787213E-3],"categories":[],"categories_nodes":[],"categories_segments":[],"categories_sizes":[],"default_left":[0],"id":57,"left_children":[-1],"loss_changes":[0E0],"parents":[2147483647],"right_children":[-1],"split_conditions":[-5.370612E-4],"split_indices":[0],"split_type":[0],"sum_hessian":[2.1245088E4],"tree_param":{"num_deleted":"0","num_feature":"20","num_nodes":"1","size_leaf_vector":"1"}},{"base_weights":[-0E0],"categories":[],"categories_nodes":[],"categories_segments":[],"categories_sizes":[],"default_left":[0],"id":58,"left_children":[-1],"loss_changes":[0E0],"parents":[2147483647],"right_children":[-1],"split_conditions":[-0E0],"split_indices":[0],"split_type":[0],"sum_hessian":[2.1198443E4],"tree_param":{"num_deleted":"0","num_feature":"20","num_nodes":"1","size_leaf_vector":"1"}},{"base_weights":[-1.2492806E-3],"categories":[],"categories_nodes":[],"categories_segments":[],"categories_sizes":[],"default_left":[0],"id":59,"left_children":[-1],"loss_changes":[0E0],"parents":[2147483647],"right_children":[-1],"split_conditions":[-3.9967333E-4],"split_indices":[0],"split_type":[0],"sum_hessian":[2.121898E4],"tree_param":{"num_deleted":"0","num_feature":"20","num_nodes":"1","size_leaf_vector":"1"}},{"base_weights":[-0E0],"categories":[],"categories_nodes":[],"categories_segments":[],"categories_sizes":[],"default_left":[0],"id":60,"left_children":[-1],"loss_changes":[0E0],"parents":[2147483647],"right_children":[-1],"split_conditions":[-0E0],"split_indices":[0],"split_type":[0],"sum_hessian":[2.1226797E4],"tree_param":{"num_deleted":"0","num_feature":"20","num_nodes":"1","size_leaf_vector":"1"}},{"base_weights":[-0E0],"categories":[],"categories_nodes":[],"categories_segments":[],"categories_sizes":[],"default_left":[0],"id":61,"left_children":[-1],"loss_changes":[0E0],"parents":[2147483647],"right_children":[-1],"split_conditions":[-0E0],"split_indices":[0],"split_type":[0],"sum_hessian":[2.1223691E4],"tree_param":{"num_deleted":"0","num_feature":"20","num_nodes":"1","size_leaf_vector":"1"}},{"base_weights":[-1.8113104E-4],"categories":[],"categories_nodes":[],"categories_segments":[],"categories_sizes":[],"default_left":[0],"id":62,"left_children":[-1],"loss_changes":[0E0],"parents":[2147483647],"right_children":[-1],"split_conditions":[-5.7947942E-5],"split_indices":[0],"split_type":[0],"sum_hessian":[2.1241242E4],"tree_param":{"num_deleted":"0","num_feature":"20","num_nodes":"1","size_leaf_vector":"1"}},{"base_weights":[-0E0],"categories":[],"categories_nodes":[],"categories_segments":[],"categories_sizes":[],"default_left":[0],"id":63,"left_children":[-1],"loss_changes":[0E0],"parents":[2147483647],"right_children":[-1],"split_conditions":[-0E0],"split_indices":[0],"split_type":[0],"sum_hessian":[2.1184771E4],"tree_param":{"num_deleted":"0","num_feature":"20","num_nodes":"1","size_leaf_vector":"1"}},{"base_weights":[-0E0],"categories":[],"categories_nodes":[],"categories_segments":[],"categories_sizes":[],"default_left":[0],"id":64,"left_children":[-1],"loss_changes":[0E0],"parents":[2147483647],"right_children":[-1],"split_conditions":[-0E0],"split_indices":[0],"split_type":[0],"sum_hessian":[2.1192432E4],"tree_param":{"num_deleted":"0","num_feature":"20","num_nodes":"1","size_leaf_vector":"1"}},{"base_weights":[-0E0],"categories":[],"categories_nodes":[],"categories_segments":[],"categories_sizes":[],"default_left":[0],"id":65,"left_children":[-1],"loss_changes":[0E0],"parents":[2147483647],"right_children":[-1],"split_conditions":[-0E0],"split_indices":[0],"split_type":[0],"sum_hessian":[2.12161E4],"tree_param":{"num_deleted":"0","num_feature":"20","num_nodes":"1","size_leaf_vector":"1"}},{"base_weights":[2.60947E-3],"categories":[],"categories_nodes":[],"categories_segments":[],"categories_sizes":[],"default_left":[0],"id":66,"left_children":[-1],"loss_changes":[0E0],"parents":[2147483647],"right_children":[-1],"split_conditions":[8.348289E-4],"split_indices":[0],"split_type":[0],"sum_hessian":[2.1259773E4],"tree_param":{"num_deleted":"0","num_feature":"20","num_nodes":"1","size_leaf_vector":"1"}},{"base_weights":[2.0699622E-3],"categories":[],"categories_nodes":[],"categories_segments":[],"categories_sizes":[],"default_left":[0],"id":67,"left_children":[-1],"loss_changes":[0E0],"parents":[2147483647],"right_children":[-1],"split_conditions":[6.6222803E-4],"split_indices":[0],"split_type":[0],"sum_hessian":[2.1223402E4],"tree_param":{"num_deleted":"0","num_feature":"20","num_nodes":"1","size_leaf_vector":"1"}},{"base_weights":[-1.8311294E-3],"categories":[],"categories_nodes":[],"categories_segments":[],"categories_sizes":[],"default_left":[0],"id":68,"left_children":[-1],"loss_changes":[0E0],"parents":[2147483647],"right_children":[-1],"split_conditions":[-5.8582E-4],"split_indices":[0],"split_type":[0],"sum_hessian":[2.1170373E4],"tree_param":{"num_deleted":"0","num_feature":"20","num_nodes":"1","size_leaf_vector":"1"}},{"base_weights":[-0E0],"categories":[],"categories_nodes":[],"categories_segments":[],"categories_sizes":[],"default_left":[0],"id":69,"left_children":[-1],"loss_changes":[0E0],"parents":[2147483647],"right_children":[-1],"split_conditions":[-0E0],"split_indices":[0],"split_type":[0],"sum_hessian":[2.1231354E4],"tree_param":{"num_deleted":"0","num_feature":"20","num_nodes":"1","size_leaf_vector":"1"}},{"base_weights":[-0E0],"categories":[],"categories_nodes":[],"categories_segments":[],"categories_sizes":[],"default_left":[0],"id":70,"left_children":[-1],"loss_changes":[0E0],"parents":[2147483647],"right_children":[-1],"split_conditions":[-0E0],"split_indices":[0],"split_type":[0],"sum_hessian":[2.119496E4],"tree_param":{"num_deleted":"0","num_feature":"20","num_nodes":"1","size_leaf_vector":"1"}},{"base_weights":[-0E0],"categories":[],"categories_nodes":[],"categories_segments":[],"categories_sizes":[],"default_left":[0],"id":71,"left_children":[-1],"loss_changes":[0E0],"parents":[2147483647],"right_children":[-1],"split_conditions":[-0E0],"split_indices":[0],"split_type":[0],"sum_hessian":[2.1196074E4],"tree_param":{"num_deleted":"0","num_feature":"20","num_nodes":"1","size_leaf_vector":"1"}},{"base_weights":[3.5218885E-3],"categories":[],"categories_nodes":[],"categories_segments":[],"categories_sizes":[],"default_left":[0],"id":72,"left_children":[-1],"loss_changes":[0E0],"parents":[2147483647],"right_children":[-1],"split_conditions":[1.1267323E-3],"split_indices":[0],"split_type":[0],"sum_hessian":[2.1187094E4],"tree_param":{"num_deleted":"0","num_feature":"20","num_nodes":"1","size_leaf_vector":"1"}},{"base_weights":[8.8215026E-4],"categories":[],"categories_nodes":[],"categories_segments":[],"categories_sizes":[],"default_left":[0],"id":73,"left_children":[-1],"loss_changes":[0E0],"parents":[2147483647],"right_children":[-1],"split_conditions":[2.8221996E-4],"split_indices":[0],"split_type":[0],"sum_hessian":[2.1170262E4],"tree_param":{"num_deleted":"0","num_feature":"20","num_nodes":"1","size_leaf_vector":"1"}},{"base_weights":[-0E0],"categories":[],"categories_nodes":[],"categories_segments":[],"categories_sizes":[],"default_left":[0],"id":74,"left_children":[-1],"loss_changes":[0E0],"parents":[2147483647],"right_children":[-1],"split_conditions":[-0E0],"split_indices":[0],"split_type":[0],"sum_hessian":[2.1227684E4],"tree_param":{"num_deleted":"0","num_feature":"20","num_nodes":"1","size_leaf_vector":"1"}},{"base_weights":[-0E0],"categories":[],"categories_nodes":[],"categories_segments":[],"categories_sizes":[],"default_left":[0],"id":75,"left_children":[-1],"loss_changes":[0E0],"parents":[2147483647],"right_children":[-1],"split_conditions":[-0E0],"split_indices":[0],"split_type":[0],"sum_hessian":[2.1243535E4],"tree_param":{"num_deleted":"0","num_feature":"20","num_nodes":"1","size_leaf_vector":"1"}},{"base_weights":[-2.688643E-4],"categories":[],"categories_nodes":[],"categories_segments":[],"categories_sizes":[],"default_left":[0],"id":76,"left_children":[-1],"loss_changes":[0E0],"parents":[2147483647],"right_children":[-1],"split_conditions":[-8.601581E-5],"split_indices":[0],"split_type":[0],"sum_hessian":[2.1170059E4],"tree_param":{"num_deleted":"0","num_feature":"20","num_nodes":"1","size_leaf_vector":"1"}},{"base_weights":[-2.891026E-3],"categories":[],"categories_nodes":[],"categories_segments":[],"categories_sizes":[],"default_left":[0],"id":77,"left_children":[-1],"loss_changes":[0E0],"parents":[2147483647],"right_children":[-1],"split_conditions":[-9.2490506E-4],"split_indices":[0],"split_type":[0],"sum_hessian":[2.125708E4],"tree_param":{"num_deleted":"0","num_feature":"20","num_nodes":"1","size_leaf_vector":"1"}},{"base_weights":[1.0452133E-3],"categories":[],"categories_nodes":[],"categories_segments":[],"categories_sizes":[],"default_left":[0],"id":78,"left_children":[-1],"loss_changes":[0E0],"parents":[2147483647],"right_children":[-1],"split_conditions":[3.3438756E-4],"split_indices":[0],"split_type":[0],"sum_hessian":[2.1215838E4],"tree_param":{"num_deleted":"0","num_feature":"20","num_nodes":"1","size_leaf_vector":"1"}},{"base_weights":[-8.498129E-5],"categories":[],"categories_nodes":[],"categories_segments":[],"categories_sizes":[],"default_left":[0],"id":79,"left_children":[-1],"loss_changes":[0E0],"parents":[2147483647],"right_children":[-1],"split_conditions":[-2.718745E-5],"split_indices":[0],"split_type":[0],"sum_hessian":[2.1205166E4],"tree_param":{"num_deleted":"0","num_feature":"20","num_nodes":"1","size_leaf_vector":"1"}},{"base_weights":[-0E0],"categories":[],"categories_nodes":[],"categories_segments":[],"categories_sizes":[],"default_left":[0],"id":80,"left_children":[-1],"loss_changes":[0E0],"parents":[2147483647],"right_children":[-1],"split_conditions":[-0E0],"split_indices":[0],"split_type":[0],"sum_hessian":[2.1267951E4],"tree_param":{"num_deleted":"0","num_feature":"20","num_nodes":"1","size_leaf_vector":"1"}},{"base_weights":[-0E0],"categories":[],"categories_nodes":[],"categories_segments":[],"categories_sizes":[],"default_left":[0],"id":81,"left_children":[-1],"loss_changes":[0E0],"parents":[2147483647],"right_children":[-1],"split_conditions":[-0E0],"split_indices":[0],"split_type":[0],"sum_hessian":[2.1270889E4],"tree_param":{"num_deleted":"0","num_feature":"20","num_nodes":"1","size_leaf_vector":"1"}},{"base_weights":[-2.8532117E-3],"categories":[],"categories_nodes":[],"categories_segments":[],"categories_sizes":[],"default_left":[0],"id":82,"left_children":[-1],"loss_changes":[0E0],"parents":[2147483647],"right_children":[-1],"split_conditions":[-9.128074E-4],"split_indices":[0],"split_type":[0],"sum_hessian":[2.1210322E4],"tree_param":{"num_deleted":"0","num_feature":"20","num_nodes":"1","size_leaf_vector":"1"}},{"base_weights":[-0E0],"categories":[],"categories_nodes":[],"categories_segments":[],"categories_sizes":[],"default_left":[0],"id":83,"left_children":[-1],"loss_changes":[0E0],"parents":[2147483647],"right_children":[-1],"split_conditions":[-0E0],"split_indices":[0],"split_type":[0],"sum_hessian":[2.123345E4],"tree_param":{"num_deleted":"0","num_feature":"20","num_nodes":"1","size_leaf_vector":"1"}},{"base_weights":[-1.7475805E-3],"categories":[],"categories_nodes":[],"categories_segments":[],"categories_sizes":[],"default_left":[0],"id":84,"left_children":[-1],"loss_changes":[0E0],"parents":[2147483647],"right_children":[-1],"split_conditions":[-5.590908E-4],"split_indices":[0],"split_type":[0],"sum_hessian":[2.1230879E4],"tree_param":{"num_deleted":"0","num_feature":"20","num_nodes":"1","size_leaf_vector":"1"}},{"base_weights":[3.5563104E-3],"categories":[],"categories_nodes":[],"categories_segments":[],"categories_sizes":[],"default_left":[0],"id":85,"left_children":[-1],"loss_changes":[0E0],"parents":[2147483647],"right_children":[-1],"split_conditions":[1.1377448E-3],"split_indices":[0],"split_type":[0],"sum_hessian":[2.123888E4],"tree_param":{"num_deleted":"0","num_feature":"20","num_nodes":"1","size_leaf_vector":"1"}},{"base_weights":[1.8572652E-3,-2.1325403E-3,2.3235954E-2,-1.6386332E-2,8.526489E-3,1.7636525E-2,-0E0,-4.2456668E-2,-0E0,5.1338762E-2,-0E0,-1.6436031E-2,5.968592E-3,-5.761443E-2,-0E0,-3.0281607E-2,2.5429778E-2,2.3068383E-2,-0E0,-0E0,-7.693116E-2,-0E0,-6.2796995E-2,5.0631262E-2,-3.3220847E-3,-0E0,-2.7710134E-2,-2.7393935E-2,-0E0,6.787941E-2,-0E0,-0E0,2.6874585E-2],"categories":[],"categories_nodes":[],"categories_segments":[],"categories_sizes":[],"default_left":[0,0,0,0,1,0,0,0,0,0,0,0,0,0,0,1,0,0,0,0,0,0,0,0,0,0,0,0,0,0,0,0,0],"id":86,"left_children":[1,3,5,7,9,-1,11,13,15,17,-1,-1,-1,19,-1,21,23,-1,-1,-1,25,-1,27,29,-1,-1,-1,-1,-1,31,-1,-1,-1],"loss_changes":[2.4905353E0,2.8112357E0,4.118538E0,4.1983438E0,2.7539346E0,0E0,2.9059463E0,2.953909E0,3.8246589E0,2.8548055E0,0E0,0E0,0E0,2.5999212E0,0E0,3.4794257E0,4.0146327E0,0E0,0E0,0E0,2.4723597E0,0E0,3.7885537E0,3.325533E0,0E0,0E0,0E0,0E0,0E0,3.038642E0,0E0,0E0,0E0],"parents":[2147483647,0,0,1,1,2,2,3,3,4,4,6,6,7,7,8,8,9,9,13,13,15,15,16,16,20,20,22,22,23,23,29,29],"right_children":[2,4,6,8,10,-1,12,14,16,18,-1,-1,-1,20,-1,22,24,-1,-1,-1,26,-1,28,30,-1,-1,-1,-1,-1,32,-1,-1,-1],"split_conditions":[2.1457803E-1,-1.75E0,8.42E1,8.997496E-1,-8.2E-1,1.7636525E-2,7.762709E1,1E0,8.5E1,2.226E3,-0E0,-1.6436031E-2,5.968592E-3,7.2145584E1,-0E0,6.137586E0,1.35E2,2.3068383E-2,-0E0,-0E0,-4.5008677E-1,-0E0,7.024263E0,6.7756705E0,-3.3220847E-3,-0E0,-2.7710134E-2,-2.7393935E-2,-0E0,5.8750243E0,-0E0,-0E0,2.6874585E-2],"split_indices":[13,10,9,14,10,0,19,4,9,15,0,0,0,19,0,11,16,0,0,0,13,0,11,11,0,0,0,0,0,11,0,0,0],"split_type":[0,0,0,0,0,0,0,0,0,0,0,0,0,0,0,0,0,0,0,0,0,0,0,0,0,0,0,0,0,0,0,0,0],"sum_hessian":[2.1236398E4,1.6709756E4,4.526642E3,8.401688E3,8.308067E3,2.0928003E3,2.4338418E3,3.511679E3,4.8900093E3,1.1952742E3,7.112793E3,7.929234E2,1.6409185E3,2.7598447E3,7.5183435E2,1.9821067E3,2.9079028E3,1.1150573E3,8.0216965E1,8.0822003E2,1.9516246E3,7.0104156E2,1.2810652E3,2.2061152E3,7.0178754E2,9.954996E1,1.8520747E3,1.1683043E3,1.1276076E2,1.9132241E3,2.928911E2,2.6147342E2,1.6517507E3],"tree_param":{"num_deleted":"0","num_feature":"20","num_nodes":"33","size_leaf_vector":"1"}},{"base_weights":[-1.9378413E-3],"categories":[],"categories_nodes":[],"categories_segments":[],"categories_sizes":[],"default_left":[0],"id":87,"left_children":[-1],"loss_changes":[0E0],"parents":[2147483647],"right_children":[-1],"split_conditions":[-6.1995955E-4],"split_indices":[0],"split_type":[0],"sum_hessian":[2.1194174E4],"tree_param":{"num_deleted":"0","num_feature":"20","num_nodes":"1","size_leaf_vector":"1"}},{"base_weights":[2.15145E-3],"categories":[],"categories_nodes":[],"categories_segments":[],"categories_sizes":[],"default_left":[0],"id":88,"left_children":[-1],"loss_changes":[0E0],"parents":[2147483647],"right_children":[-1],"split_conditions":[6.8829785E-4],"split_indices":[0],"split_type":[0],"sum_hessian":[2.1234787E4],"tree_param":{"num_deleted":"0","num_feature":"20","num_nodes":"1","size_leaf_vector":"1"}},{"base_weights":[-0E0],"categories":[],"categories_nodes":[],"categories_segments":[],"categories_sizes":[],"default_left":[0],"id":89,"left_children":[-1],"loss_changes":[0E0],"parents":[2147483647],"right_children":[-1],"split_conditions":[-0E0],"split_indices":[0],"split_type":[0],"sum_hessian":[2.1191334E4],"tree_param":{"num_deleted":"0","num_feature":"20","num_nodes":"1","size_leaf_vector":"1"}},{"base_weights":[-2.085713E-3],"categories":[],"categories_nodes":[],"categories_segments":[],"categories_sizes":[],"default_left":[0],"id":90,"left_children":[-1],"loss_changes":[0E0],"parents":[2147483647],"right_children":[-1],"split_conditions":[-6.672671E-4],"split_indices":[0],"split_type":[0],"sum_hessian":[2.122071E4],"tree_param":{"num_deleted":"0","num_feature":"20","num_nodes":"1","size_leaf_vector":"1"}},{"base_weights":[-2.3377622E-3],"categories":[],"categories_nodes":[],"categories_segments":[],"categories_sizes":[],"default_left":[0],"id":91,"left_children":[-1],"loss_changes":[0E0],"parents":[2147483647],"right_children":[-1],"split_conditions":[-7.4790337E-4],"split_indices":[0],"split_type":[0],"sum_hessian":[2.1250393E4],"tree_param":{"num_deleted":"0","num_feature":"20","num_nodes":"1","size_leaf_vector":"1"}},{"base_weights":[-3.2963275E-4],"categories":[],"categories_nodes":[],"categories_segments":[],"categories_sizes":[],"default_left":[0],"id":92,"left_children":[-1],"loss_changes":[0E0],"parents":[2147483647],"right_children":[-1],"split_conditions":[-1.05457024E-4],"split_indices":[0],"split_type":[0],"sum_hessian":[2.1245936E4],"tree_param":{"num_deleted":"0","num_feature":"20","num_nodes":"1","size_leaf_vector":"1"}},{"base_weights":[-2.2709656E-3],"categories":[],"categories_nodes":[],"categories_segments":[],"categories_sizes":[],"default_left":[0],"id":93,"left_children":[-1],"loss_changes":[0E0],"parents":[2147483647],"right_children":[-1],"split_conditions":[-7.2653365E-4],"split_indices":[0],"split_type":[0],"sum_hessian":[2.1203658E4],"tree_param":{"num_deleted":"0","num_feature":"20","num_nodes":"1","size_leaf_vector":"1"}},{"base_weights":[3.0102748E-3],"categories":[],"categories_nodes":[],"categories_segments":[],"categories_sizes":[],"default_left":[0],"id":94,"left_children":[-1],"loss_changes":[0E0],"parents":[2147483647],"right_children":[-1],"split_conditions":[9.6305547E-4],"split_indices":[0],"split_type":[0],"sum_hessian":[2.1277484E4],"tree_param":{"num_deleted":"0","num_feature":"20","num_nodes":"1","size_leaf_vector":"1"}},{"base_weights":[-0E0],"categories":[],"categories_nodes":[],"categories_segments":[],"categories_sizes":[],"default_left":[0],"id":95,"left_children":[-1],"loss_changes":[0E0],"parents":[2147483647],"right_children":[-1],"split_conditions":[-0E0],"split_indices":[0],"split_type":[0],"sum_hessian":[2.1209006E4],"tree_param":{"num_deleted":"0","num_feature":"20","num_nodes":"1","size_leaf_vector":"1"}},{"base_weights":[-0E0,1.4760409E-3,-2.747094E-2,-5.7516642E-2,-0E0,-2.2026055E-2,-0E0],"categories":[],"categories_nodes":[],"categories_segments":[],"categories_sizes":[],"default_left":[0,0,1,0,0,0,0],"id":96,"left_children":[1,-1,3,5,-1,-1,-1],"loss_changes":[2.8640265E0,0E0,4.4073563E0,2.4440088E0,0E0,0E0,0E0],"parents":[2147483647,0,0,2,2,3,3],"right_children":[2,-1,4,6,-1,-1,-1],"split_conditions":[1.36E2,1.4760409E-3,1.44E2,7.0819564E0,-0E0,-2.2026055E-2,-0E0],"split_indices":[16,0,16,11,0,0,0],"split_type":[0,0,0,0,0,0,0],"sum_hessian":[2.12495E4,1.804667E4,3.2028318E3,2.0003706E3,1.202461E3,1.8872333E3,1.1313737E2],"tree_param":{"num_deleted":"0","num_feature":"20","num_nodes":"7","size_leaf_vector":"1"}},{"base_weights":[-2.4752242E-3],"categories":[],"categories_nodes":[],"categories_segments":[],"categories_sizes":[],"default_left":[0],"id":97,"left_children":[-1],"loss_changes":[0E0],"parents":[2147483647],"right_children":[-1],"split_conditions":[-7.918806E-4],"split_indices":[0],"split_type":[0],"sum_hessian":[2.1234812E4],"tree_param":{"num_deleted":"0","num_feature":"20","num_nodes":"1","size_leaf_vector":"1"}},{"base_weights":[1.8026382E-3],"categories":[],"categories_nodes":[],"categories_segments":[],"categories_sizes":[],"default_left":[0],"id":98,"left_children":[-1],"loss_changes":[0E0],"parents":[2147483647],"right_children":[-1],"split_conditions":[5.7670503E-4],"split_indices":[0],"split_type":[0],"sum_hessian":[2.1198822E4],"tree_param":{"num_deleted":"0","num_feature":"20","num_nodes":"1","size_leaf_vector":"1"}},{"base_weights":[2.7190265E-4],"categories":[],"categories_nodes":[],"categories_segments":[],"categories_sizes":[],"default_left":[0],"id":99,"left_children":[-1],"loss_changes":[0E0],"parents":[2147483647],"right_children":[-1],"split_conditions":[8.698785E-5],"split_indices":[0],"split_type":[0],"sum_hessian":[2.1193686E4],"tree_param":{"num_deleted":"0","num_feature":"20","num_nodes":"1","size_leaf_vector":"1"}}]},"name":"gbtree"},"learner_model_param":{"base_score":"5.444804E-1","boost_from_average":"1","num_class":"0","num_feature":"20","num_target":"1"},"objective":{"name":"binary:logistic","reg_loss_param":{"scale_pos_weight":"1"}}},"version":[2,1,4]}