{"learner":{"attributes":{"scikit_learn":"{\"_estimator_type\": \"classifier\"}"},"feature_names":["pitcherHand_L","hitterHand_R","balls_before_pitch_0","balls_before_pitch_1","balls_before_pitch_2","balls_before_pitch_3","strikes_before_pitch_0","strikes_before_pitch_1","strikes_before_pitch_2","velo","velo_diff","extension","extension_ratio","x0_ratio","z0_ratio","spin_rate","adj_spin_dir","HB_acc","IVB_acc","Break_acc"],"feature_types":["i","i","i","i","i","i","i","i","i","float","float","float","float","float","float","float","float","float","float","float"],"gradient_booster":{"model":{"gbtree_model_param":{"num_parallel_tree":"1","num_trees":"100"},"iteration_indptr":[0,1,2,3,4,5,6,7,8,9,10,11,12,13,14,15,16,17,18,19,20,21,22,23,24,25,26,27,28,29,30,31,32,33,34,35,36,37,38,39,40,41,42,43,44,45,46,47,48,49,50,51,52,53,54,55,56,57,58,59,60,61,62,63,64,65,66,67,68,69,70,71,72,73,74,75,76,77,78,79,80,81,82,83,84,85,86,87,88,89,90,91,92,93,94,95,96,97,98,99,100],"tree_info":[0,0,0,0,0,0,0,0,0,0,0,0,0,0,0,0,0,0,0,0,0,0,0,0,0,0,0,0,0,0,0,0,0,0,0,0,0,0,0,0,0,0,0,0,0,0,0,0,0,0,0,0,0,0,0,0,0,0,0,0,0,0,0,0,0,0,0,0,0,0,0,0,0,0,0,0,0,0,0,0,0,0,0,0,0,0,0,0,0,0,0,0,0,0,0,0,0,0,0,0],"trees":[{"base_weights":[-0E0,1.7877518E-1,-4.5270538E-1,3.174203E-1,-8.174825E-2,-2.605911E-1,-1.9750409E-1,4.712574E-1,1.8845509E-1,-2.3007645E-1,5.370789E-3,-2.6933798E-1,-0E0,5.693417E-1,2.3930323E-1,4.1573863E-2,2.6300508E-1,-1.0680732E-1,-3.7554023E-1,6.0054634E-2,-5.536806E-2,-2.7332315E-1,-0E0,2.3771961E-1,4.9758592E-1,-0E0,2.8056428E-1,1.2983315E-1,-1.0457903E-1,3.4093326E-1,1.8131328E-1,-1.4511923E-1,-0E0,-2.7102277E-2,-1.393307E-1,-0E0,1.2518513E-1,-1.08608544E-1,4.086785E-3,-0E0,-9.266314E-2,3.3154342E-1,1.8497832E-1,9.5092036E-2,-0E0,1.6572775E-1,-0E0,-0E0,-1.944578E-1,-0E0,3.4862387E-1,1.9676474E-1,-0E0,-5.3404998E-2,-0E0,-4.8039522E-2,7.403513E-2,-0E0,5.6716654E-2,-0E0,-5.27117E-2,3.8565916E-1,-0E0,-0E0,2.0038179E-1,-2.3392889E-1,-0E0,1.1835609E-1,-0E0,6.824353E-2,-0E0,-3.4189932E-2,3.3921242E-5,4.059984E-2,-0E0,1.3686727E-1,-0E0,-0E0,2.2367509E-1,-0E0,-8.617916E-2,8.142658E-2,-0E0],"categories":[],"categories_nodes":[],"categories_segments":[],"categories_sizes":[],"default_left":[0,0,0,0,0,0,0,0,0,0,1,0,0,0,0,0,0,0,1,0,0,0,0,0,0,0,1,0,0,0,1,0,0,0,0,0,0,0,0,0,0,0,0,0,0,0,0,0,0,0,0,1,0,0,0,0,0,0,0,0,0,0,0,0,0,0,0,0,0,0,0,0,0,0,0,0,0,0,0,0,0,0,0],"id":0,"left_children":[1,3,5,7,9,11,-1,13,15,17,19,21,-1,23,25,27,29,31,33,35,37,39,-1,-1,41,-1,43,45,47,49,51,53,-1,-1,-1,55,57,59,-1,-1,-1,61,-1,-1,-1,63,-1,-1,65,-1,67,69,-1,-1,-1,71,73,-1,-1,-1,-1,75,-1,-1,77,79,-1,-1,-1,-1,-1,-1,-1,-1,-1,-1,-1,-1,81,-1,-1,-1,-1],"loss_changes":[5.6306294E3,1.8169965E3,4.7270093E2,6.0942456E2,2.3450256E2,1.2365051E1,0E0,2.832832E2,1.8239764E2,9.137677E1,3.6232117E1,1.0817993E1,0E0,1.5422607E1,3.8295532E1,8.513405E1,4.4150574E1,1.4792461E1,7.542267E0,2.697996E1,2.1824844E1,7.713684E0,0E0,0E0,9.809448E0,0E0,7.058563E0,1.901477E1,1.8798265E1,1.861908E1,1.6396408E1,9.124916E0,0E0,0E0,0E0,1.060924E1,1.245549E1,1.59140625E1,0E0,0E0,0E0,2.4649612E1,0E0,0E0,0E0,1.7212128E1,0E0,0E0,7.62368E0,0E0,9.270996E0,8.302322E0,0E0,0E0,0E0,1.0593592E1,7.552655E0,0E0,0E0,0E0,0E0,1.1871521E1,0E0,0E0,1.4897743E1,8.236092E0,0E0,0E0,0E0,0E0,0E0,0E0,0E0,0E0,0E0,0E0,0E0,0E0,7.6746445E0,0E0,0E0,0E0,0E0],"parents":[2147483647,0,0,1,1,2,2,3,3,4,4,5,5,7,7,8,8,9,9,10,10,11,11,13,13,14,14,15,15,16,16,17,17,18,18,19,19,20,20,21,21,24,24,26,26,27,27,28,28,29,29,30,30,31,31,35,35,36,36,37,37,41,41,45,45,48,48,50,50,51,51,55,55,56,56,61,61,64,64,65,65,78,78],"right_children":[2,4,6,8,10,12,-1,14,16,18,20,22,-1,24,26,28,30,32,34,36,38,40,-1,-1,42,-1,44,46,48,50,52,54,-1,-1,-1,56,58,60,-1,-1,-1,62,-1,-1,-1,64,-1,-1,66,-1,68,70,-1,-1,-1,72,74,-1,-1,-1,-1,76,-1,-1,78,80,-1,-1,-1,-1,-1,-1,-1,-1,-1,-1,-1,-1,82,-1,-1,-1,-1],"split_conditions":[1E0,1E0,1E0,1E0,8.884726E-1,4.1529238E-1,-1.9750409E-1,1E0,8.845087E-1,1.18E2,1.28E2,9.35E1,-0E0,1E0,1E0,1.2E2,1E0,8.615824E-1,6.4712074E1,9.294767E-1,9.6489984E-1,5.5267563E0,-0E0,2.3771961E-1,8.775857E-1,-0E0,1.58E2,2.366693E1,2.7900888E1,-4.215998E-1,1.44E2,2.252E3,-0E0,-2.7102277E-2,-1.393307E-1,1.0708568E0,-2.3144802E-1,6.994621E1,4.086785E-3,-0E0,-9.266314E-2,8.92E1,1.8497832E-1,9.5092036E-2,-0E0,7.816559E-1,-0E0,-0E0,8.7616545E-1,-0E0,4.2331982E-1,1.1365688E0,-0E0,-5.3404998E-2,-0E0,8.78E1,4.3127316E1,-0E0,5.6716654E-2,-0E0,-5.27117E-2,4.2804104E1,-0E0,-0E0,-4.0975618E-1,5.8129322E1,-0E0,1.1835609E-1,-0E0,6.824353E-2,-0E0,-3.4189932E-2,3.3921242E-5,4.059984E-2,-0E0,1.3686727E-1,-0E0,-0E0,8.96E1,-0E0,-8.617916E-2,8.142658E-2,-0E0],"split_indices":[6,2,2,3,14,13,0,7,14,16,16,9,0,4,4,16,7,14,19,14,14,11,0,0,14,0,16,18,18,13,16,15,0,0,0,12,13,19,0,0,0,9,0,0,0,14,0,0,14,0,13,12,0,0,0,9,18,0,0,0,0,18,0,0,13,19,0,0,0,0,0,0,0,0,0,0,0,0,9,0,0,0,0],"split_type":[0,0,0,0,0,0,0,0,0,0,0,0,0,0,0,0,0,0,0,0,0,0,0,0,0,0,0,0,0,0,0,0,0,0,0,0,0,0,0,0,0,0,0,0,0,0,0,0,0,0,0,0,0,0,0,0,0,0,0,0,0,0,0,0,0,0,0,0,0,0,0,0,0,0,0,0,0,0,0,0,0,0,0],"sum_hessian":[6.9448914E4,4.9841824E4,1.9607094E4,3.2641998E4,1.7199824E4,8.492809E3,1.1114286E4,1.461234E4,1.8029658E4,6.5242007E3,1.0675624E4,8.115384E3,3.7742484E2,1.0036751E4,4.575589E3,6.3357383E3,1.1693921E4,3.7917449E3,2.7324558E3,6.045796E3,4.6298276E3,8.022902E3,9.248158E1,2.8754272E3,7.1613237E3,7.825941E2,3.7929946E3,4.16642E3,2.1693179E3,5.543146E3,6.150775E3,2.7189585E3,1.0727864E3,5.191466E2,2.213309E3,2.9956533E3,3.0501426E3,2.9709082E3,1.6589196E3,1.5971819E2,7.8631836E3,2.1933132E3,4.9680103E3,3.7577515E3,3.524298E1,3.2178591E3,9.485611E2,1.1027804E3,1.0665376E3,9.223163E1,5.450914E3,5.633878E3,5.1689703E2,2.574987E3,1.4397133E2,2.0313455E3,9.643079E2,1.0035501E3,2.0465924E3,9.735561E2,1.9973522E3,1.7653983E3,4.2791476E2,6.1387775E2,2.6039814E3,8.510805E2,2.1545709E2,5.332438E3,1.184764E2,5.402924E3,2.30954E2,1.390723E3,6.406224E2,8.1508765E2,1.4922028E2,1.6204272E3,1.4497113E2,2.324537E2,2.3715276E3,4.474109E1,8.063394E2,2.1065803E3,2.6494724E2],"tree_param":{"num_deleted":"0","num_feature":"20","num_nodes":"83","size_leaf_vector":"1"}},{"base_weights":[2.543055E-3,1.24125324E-1,-3.0459112E-1,2.2058736E-1,-5.493436E-2,-5.9073582E-2,-1.3222146E-1,3.2869536E-1,1.2975486E-1,-1.4648211E-1,1.3681131E-2,3.9860946E-1,1.613877E-1,3.192281E-2,1.9078642E-1,-5.712457E-2,-2.273651E-1,5.3942665E-2,-4.8614245E-2,2.9525054E-1,4.527285E-1,1.8587036E-1,-0E0,7.105659E-2,-1.405374E-1,1.9778314E-1,-0E0,-1.1869325E-1,-0E0,-8.576734E-2,-0E0,-0E0,1.1544251E-1,-4.9303375E-2,-0E0,1.2967493E-1,1.2266339E-1,4.8106846E-1,1.6255231E-1,6.47796E-2,-0E0,6.9224034E-3,1.9838695E-1,-0E0,-5.7544664E-2,-0E0,2.0293064E-1,-0E0,-4.9930964E-2,5.2245673E-2,-0E0,6.543432E-2,-0E0,-0E0,4.9071068E-1,8.1367284E-2,-0E0,5.1267944E-2,-6.413831E-2,-0E0,7.1739994E-2,8.564997E-2,1.4199924E-1,-0E0,1.6463117E-1,-5.18861E-3,9.072664E-2,-0E0,-3.7537765E-2,-0E0,4.9919926E-2,4.7314413E-2,-0E0],"categories":[],"categories_nodes":[],"categories_segments":[],"categories_sizes":[],"default_left":[0,0,0,0,0,0,0,0,0,0,0,0,0,0,0,0,0,0,0,0,1,0,0,1,1,0,0,0,0,0,0,0,0,0,0,0,1,0,0,0,0,0,0,0,0,0,0,0,0,0,0,0,0,0,1,0,0,0,0,0,0,0,0,0,0,0,0,0,0,0,0,0,0],"id":1,"left_children":[1,3,5,7,9,-1,-1,11,13,15,17,19,21,23,25,27,29,31,33,35,37,39,-1,41,43,45,-1,47,-1,-1,-1,-1,49,-1,-1,-1,51,53,55,-1,-1,57,59,-1,-1,-1,61,-1,-1,-1,-1,-1,-1,-1,63,-1,-1,65,67,-1,-1,-1,69,-1,-1,-1,71,-1,-1,-1,-1,-1,-1],"loss_changes":[2.5803308E3,8.6912573E2,1.948003E2,2.9355322E2,1.1549713E2,0E0,0E0,1.3744678E2,9.642166E1,4.0800323E1,2.4717936E1,8.156494E0,1.2469971E1,4.7002865E1,1.1891357E1,9.736505E0,1.3277893E1,2.4245785E1,1.6128008E1,3.52229E1,1.2034546E1,8.574936E0,0E0,4.1036198E1,8.282013E0,9.966492E0,0E0,8.061707E0,0E0,0E0,0E0,0E0,1.7316765E1,0E0,0E0,0E0,1.8178646E1,9.114502E0,1.945528E1,0E0,0E0,1.3871356E1,9.555168E0,0E0,0E0,0E0,1.0420166E1,0E0,0E0,0E0,0E0,0E0,0E0,0E0,8.440063E0,0E0,0E0,1.24068775E1,7.24916E0,0E0,0E0,0E0,8.423904E0,0E0,0E0,0E0,9.5310955E0,0E0,0E0,0E0,0E0,0E0,0E0],"parents":[2147483647,0,0,1,1,2,2,3,3,4,4,7,7,8,8,9,9,10,10,11,11,12,12,13,13,14,14,15,15,16,16,17,17,18,18,19,19,20,20,21,21,23,23,24,24,25,25,27,27,32,32,36,36,37,37,38,38,41,41,42,42,46,46,54,54,57,57,58,58,62,62,66,66],"right_children":[2,4,6,8,10,-1,-1,12,14,16,18,20,22,24,26,28,30,32,34,36,38,40,-1,42,44,46,-1,48,-1,-1,-1,-1,50,-1,-1,-1,52,54,56,-1,-1,58,60,-1,-1,-1,62,-1,-1,-1,-1,-1,-1,-1,64,-1,-1,66,68,-1,-1,-1,70,-1,-1,-1,72,-1,-1,-1,-1,-1,-1],"split_conditions":[1E0,1E0,1E0,1E0,8.987403E-1,-5.9073582E-2,-1.3222146E-1,1E0,8.929755E-1,1.17E2,3.9986557E1,8.929755E-1,1E0,3.9361237E1,6.742462E1,8.289746E-1,8.9040506E-1,1E0,9.3200594E-1,1.18E2,1.1053121E0,1.021483E0,-0E0,1.915E3,1.12E2,-4.0975618E-1,-0E0,6.4712074E1,-0E0,-8.576734E-2,-0E0,-0E0,2.991814E-1,-4.9303375E-2,-0E0,1.2967493E-1,9.012263E1,8.66E2,9.2516594E1,6.47796E-2,-0E0,1.22E2,-1.465E1,-0E0,-5.7544664E-2,-0E0,1E0,-0E0,-4.9930964E-2,5.2245673E-2,-0E0,6.543432E-2,-0E0,-0E0,-1.9554546E1,8.1367284E-2,-0E0,-3.5831124E-1,8.51E1,-0E0,7.1739994E-2,8.564997E-2,-1.3821731E1,-0E0,1.6463117E-1,-5.18861E-3,1.11E2,-0E0,-3.7537765E-2,-0E0,4.9919926E-2,4.7314413E-2,-0E0],"split_indices":[6,2,2,3,14,0,0,7,14,16,18,14,5,18,18,14,14,1,14,16,12,14,0,15,16,13,0,19,0,0,0,0,13,0,0,0,19,15,19,0,0,16,10,0,0,0,7,0,0,0,0,0,0,0,10,0,0,13,9,0,0,0,18,0,0,0,16,0,0,0,0,0,0],"split_type":[0,0,0,0,0,0,0,0,0,0,0,0,0,0,0,0,0,0,0,0,0,0,0,0,0,0,0,0,0,0,0,0,0,0,0,0,0,0,0,0,0,0,0,0,0,0,0,0,0,0,0,0,0,0,0,0,0,0,0,0,0,0,0,0,0,0,0,0,0,0,0,0,0],"sum_hessian":[6.917404E4,4.970649E4,1.9467549E4,3.2470688E4,1.72358E4,8.475728E3,1.099182E4,1.4479899E4,1.799079E4,7.652371E3,9.58343E3,9.924797E3,4.555102E3,7.269973E3,1.0720815E4,3.9917173E3,3.6606538E3,6.308948E3,3.2744817E3,3.9051648E3,6.019632E3,3.7750076E3,7.800946E2,6.197713E3,1.07226E3,1.0274031E4,4.4678384E2,1.5530009E3,2.4387166E3,3.0450889E3,6.155649E2,3.1759504E3,3.132998E3,1.01954956E3,2.2549321E3,2.2809917E3,1.6241732E3,5.28021E3,7.394222E2,3.6781218E3,9.688569E1,4.4366226E3,1.7610903E3,1.0993407E2,9.623259E2,2.766781E2,9.997354E3,2.4721077E2,1.30579E3,2.3703245E3,7.626736E2,1.0576399E3,5.6653326E2,1.7079317E2,5.1094165E3,6.098725E2,1.2954968E2,3.173365E3,1.2632576E3,6.839675E1,1.6926936E3,4.7377935E3,5.25956E3,2.5417746E1,5.083999E3,7.322632E2,2.4411018E3,3.3570056E2,9.27557E2,1.5692241E2,5.1026377E3,1.4240271E3,1.0170748E3],"tree_param":{"num_deleted":"0","num_feature":"20","num_nodes":"73","size_leaf_vector":"1"}},{"base_weights":[3.124937E-4,8.408862E-2,-2.1096307E-1,1.5267417E-1,-4.1726563E-2,-8.8876575E-2,-9.870026E-2,2.2980556E-1,8.765251E-2,-9.7581565E-2,1.8370286E-2,-4.552244E-2,-3.4967568E-2,2.7933252E-1,3.6662403E-2,-5.9678596E-3,1.18051164E-1,-4.697497E-2,-1.6337691E-1,2.0875856E-2,-5.6603835E-3,-0E0,-2.3919316E-2,1.290288E-1,2.2562648E-1,5.6939323E-2,-8.524855E-2,1.4734742E-1,5.700164E-2,-8.845399E-2,-0E0,-0E0,-6.282863E-2,-0E0,8.0007225E-2,-0E0,3.7893463E-2,-1.352567E-1,-0E0,-0E0,5.3499084E-2,-2.8449297E-3,1.4203781E-1,-0E0,-4.1968774E-2,-0E0,-5.87123E-2,5.3890135E-2,-0E0],"categories":[],"categories_nodes":[],"categories_segments":[],"categories_sizes":[],"default_left":[0,0,0,0,0,0,0,0,0,0,1,0,0,0,0,1,0,0,0,0,0,0,0,0,0,0,0,0,0,1,0,0,0,0,0,0,0,1,0,0,0,0,0,0,0,0,0,0,0],"id":2,"left_children":[1,3,5,7,9,-1,11,13,15,17,19,-1,21,23,-1,25,27,29,31,-1,-1,-1,-1,-1,33,35,37,39,41,43,-1,-1,-1,-1,-1,-1,-1,45,-1,-1,-1,-1,47,-1,-1,-1,-1,-1,-1],"loss_changes":[1.2123412E3,4.3284662E2,1.00581055E2,1.4461261E2,6.199939E1,0E0,7.6084213E0,6.361554E1,5.6806564E1,2.0244934E1,1.4773907E1,0E0,7.3812895E0,1.9382874E1,0E0,2.2197035E1,1.424881E1,1.1409309E1,1.2069244E1,0E0,0E0,0E0,0E0,0E0,1.2848053E1,8.678138E0,1.2575754E1,1.472084E1,3.574686E1,7.2052E0,0E0,0E0,0E0,0E0,0E0,0E0,0E0,1.3671976E1,0E0,0E0,0E0,0E0,1.1916073E1,0E0,0E0,0E0,0E0,0E0,0E0],"parents":[2147483647,0,0,1,1,2,2,3,3,4,4,6,6,7,7,8,8,9,9,10,10,12,12,13,13,15,15,16,16,17,17,18,18,24,24,25,25,26,26,27,27,28,28,29,29,37,37,42,42],"right_children":[2,4,6,8,10,-1,12,14,16,18,20,-1,22,24,-1,26,28,30,32,-1,-1,-1,-1,-1,34,36,38,40,42,44,-1,-1,-1,-1,-1,-1,-1,46,-1,-1,-1,-1,48,-1,-1,-1,-1,-1,-1],"split_conditions":[1E0,1E0,1E0,1E0,9.1387147E-1,-8.8876575E-2,1E0,1E0,8.597508E-1,2.4644428E1,1.28E2,-4.552244E-2,-1.450509E-1,1E0,3.6662403E-2,1.1E2,1.29E2,8.6509556E-1,1.13E2,2.0875856E-2,-5.6603835E-3,-0E0,-2.3919316E-2,1.290288E-1,8.128137E-1,8.036075E-1,1.938E3,1.045E3,9.4477355E-1,1.02E2,-0E0,-0E0,-6.282863E-2,-0E0,8.0007225E-2,-0E0,3.7893463E-2,5.319004E1,-0E0,-0E0,5.3499084E-2,-2.8449297E-3,3.5829562E-1,-0E0,-4.1968774E-2,-0E0,-5.87123E-2,5.3890135E-2,-0E0],"split_indices":[6,2,3,3,14,0,1,7,14,18,16,0,13,4,0,16,16,14,16,0,0,0,0,0,14,14,15,15,14,16,0,0,0,0,0,0,0,17,0,0,0,0,13,0,0,0,0,0,0],"split_type":[0,0,0,0,0,0,0,0,0,0,0,0,0,0,0,0,0,0,0,0,0,0,0,0,0,0,0,0,0,0,0,0,0,0,0,0,0,0,0,0,0,0,0,0,0,0,0,0,0],"sum_hessian":[6.86847E4,4.938498E4,1.9299725E4,3.2204248E4,1.7180732E4,1.2546194E4,6.75353E3,1.4288701E4,1.7915547E4,9.3037705E3,7.876961E3,3.6955598E3,3.05797E3,9.743503E3,4.5451978E3,4.0095576E3,1.3905989E4,5.761848E3,3.5419224E3,4.091299E3,3.7856619E3,9.5776276E2,2.1002073E3,2.7712544E3,6.972249E3,1.9014485E3,2.1081091E3,8.77262E3,5.133369E3,3.0246482E3,2.7372002E3,5.5742944E2,2.984493E3,5.8936676E2,6.3828823E3,8.125448E2,1.0889037E3,1.4756455E3,6.324635E2,8.0958435E2,7.963035E3,2.6129583E3,2.520411E3,1.1160508E3,1.9085973E3,1.9653185E2,1.2791136E3,2.3859119E3,1.3449905E2],"tree_param":{"num_deleted":"0","num_feature":"20","num_nodes":"49","size_leaf_vector":"1"}},{"base_weights":[7.9524884E-4,5.707303E-2,-1.4094809E-1,1.046043E-1,-2.8608639E-2,-2.5702193E-2,-1.857147E-1,1.5891424E-1,5.8412425E-2,-7.692098E-2,9.4204405E-3,-2.2670479E-1,-4.1758344E-2,1.9203505E-1,7.611357E-2,8.056997E-2,-1.23456735E-2,-1.0629716E-1,-0E0,-6.9411304E-3,4.793972E-2,-7.749045E-2,-0E0,2.7127168E-1,1.5110114E-1,3.17577E-2,-0E0,-7.767882E-4,9.1569915E-2,1.2533725E-2,-4.04401E-2,-0E0,-5.178746E-2,7.62003E-2,-2.8095632E-3,-0E0,9.5596045E-2,9.1545165E-2,2.2058536E-1,-0E0,3.2433476E-2,-0E0,4.3167897E-2,1.423308E-1,-0E0,-0E0,7.665809E-2,5.703045E-2,-0E0],"categories":[],"categories_nodes":[],"categories_segments":[],"categories_sizes":[],"default_left":[0,0,0,0,0,0,0,0,1,1,0,0,0,0,0,0,1,0,0,0,0,0,0,1,0,0,0,0,0,0,0,0,0,0,0,0,0,0,0,0,0,0,0,0,0,0,0,0,0],"id":3,"left_children":[1,3,5,7,9,-1,11,13,15,17,19,21,-1,23,25,27,29,31,-1,-1,33,-1,-1,35,37,-1,-1,-1,39,-1,-1,-1,-1,41,-1,-1,-1,43,45,-1,-1,-1,-1,47,-1,-1,-1,-1,-1],"loss_changes":[5.4149475E2,2.0440286E2,4.075528E1,6.889523E1,3.5086357E1,0E0,7.043274E0,2.4483643E1,3.1564198E1,1.4604496E1,1.2080149E1,1.1224884E1,0E0,7.12796E0,7.9594707E0,1.7368347E1,2.524716E1,2.205334E1,0E0,0E0,1.0991031E1,0E0,0E0,1.0558548E1,1.1755615E1,0E0,0E0,0E0,8.868477E0,0E0,0E0,0E0,0E0,1.4726536E1,0E0,0E0,0E0,1.7696758E1,8.305954E0,0E0,0E0,0E0,0E0,7.9206924E0,0E0,0E0,0E0,0E0,0E0],"parents":[2147483647,0,0,1,1,2,2,3,3,4,4,6,6,7,7,8,8,9,9,10,10,11,11,13,13,14,14,15,15,16,16,17,17,20,20,23,23,24,24,28,28,33,33,37,37,38,38,43,43],"right_children":[2,4,6,8,10,-1,12,14,16,18,20,22,-1,24,26,28,30,32,-1,-1,34,-1,-1,36,38,-1,-1,-1,40,-1,-1,-1,-1,42,-1,-1,-1,44,46,-1,-1,-1,-1,48,-1,-1,-1,-1,-1],"split_conditions":[1E0,1E0,1E0,1E0,9.0301555E-1,-2.5702193E-2,1E0,1E0,9.4447945E1,1.885E3,1E0,2.4657524E-1,-4.1758344E-2,1E0,4.9025654E1,8.106209E-1,1.0565848E0,7.1415405E1,-0E0,-6.9411304E-3,3.0656847E-1,-7.749045E-2,-0E0,1.045E3,9.2631745E-1,3.17577E-2,-0E0,-7.767882E-4,-4.0975618E-1,1.2533725E-2,-4.04401E-2,-0E0,-5.178746E-2,9.4129294E-1,-2.8095632E-3,-0E0,9.5596045E-2,8.67794E1,9.2E1,-0E0,3.2433476E-2,-0E0,4.3167897E-2,1.29E2,-0E0,-0E0,7.665809E-2,5.703045E-2,-0E0],"split_indices":[6,2,2,3,14,0,1,7,19,15,1,13,0,4,18,14,12,19,0,0,13,0,0,15,14,0,0,0,13,0,0,0,0,14,0,0,0,19,16,0,0,0,0,16,0,0,0,0,0],"split_type":[0,0,0,0,0,0,0,0,0,0,0,0,0,0,0,0,0,0,0,0,0,0,0,0,0,0,0,0,0,0,0,0,0,0,0,0,0,0,0,0,0,0,0,0,0,0,0,0,0],"sum_hessian":[6.8236875E4,4.9127965E4,1.9108912E4,3.1957576E4,1.7170389E4,8.418398E3,1.0690514E4,1.4105604E4,1.7851973E4,8.0973975E3,9.07299E3,5.7539863E3,4.9365273E3,9.57283E3,4.532774E3,1.4117234E4,3.7347383E3,5.49391E3,2.6034875E3,4.3867764E3,4.686214E3,5.683217E3,7.076941E1,2.69377E3,6.8790596E3,3.745297E3,7.874769E2,1.1358551E3,1.298138E4,2.2867507E3,1.4479875E3,2.0473337E3,3.4465762E3,3.6851548E3,1.00105896E3,1.6044327E2,2.533327E3,4.188389E3,2.6906702E3,5.404667E2,1.2440913E4,1.5817454E3,2.1034097E3,2.5583982E3,1.629991E3,6.119242E1,2.6294778E3,2.0187217E3,5.3967664E2],"tree_param":{"num_deleted":"0","num_feature":"20","num_nodes":"49","size_leaf_vector":"1"}},{"base_weights":[-0E0,3.7876073E-2,-9.723617E-2,7.279751E-2,-2.4035564E-2,-1.2556706E-1,-3.7664946E-2,1.0578585E-1,2.6128953E-2,-8.83407E-2,-0E0,-4.5951206E-2,-3.9380062E-3,-0E0,-2.0354196E-2,7.519466E-2,2.0866778E-1,-1.545694E-3,6.8039045E-2,-3.670134E-3,-1.5529372E-1,2.5908446E-2,-3.179047E-2,1.0545063E-1,-3.5129268E-2,-0E0,2.2025675E-1,7.994086E-2,-2.8755835E-3,-0E0,-6.1268974E-2,-5.523443E-3,1.6674098E-2,-0E0,-8.712673E-2,4.72967E-2,5.5330474E-2,-0E0,-9.106019E-2,7.813163E-2,-0E0,3.058418E-2,-0E0,-3.6008768E-2,-0E0,2.79474E-3,3.2502946E-2,-0E0,-5.1018607E-2,-8.938592E-3,2.2119042E-2],"categories":[],"categories_nodes":[],"categories_segments":[],"categories_sizes":[],"default_left":[0,0,0,0,0,0,0,0,0,0,1,0,0,0,0,0,1,0,1,0,0,0,0,0,0,0,0,0,0,0,0,0,0,0,0,0,1,0,1,0,0,0,0,0,0,0,0,0,0,0,0],"id":4,"left_children":[1,3,5,7,9,11,13,15,17,19,21,-1,-1,-1,-1,23,25,-1,27,-1,29,31,33,35,37,-1,39,41,-1,-1,-1,-1,-1,-1,43,-1,45,-1,47,-1,-1,-1,-1,-1,-1,49,-1,-1,-1,-1,-1],"loss_changes":[2.5036327E2,1.08566605E2,2.3693085E1,4.234796E1,2.362561E1,9.564102E0,7.809285E0,4.1465958E1,2.1115162E1,1.3937389E1,1.0987034E1,0E0,0E0,0E0,0E0,5.1827606E1,1.4090652E1,0E0,9.579933E0,0E0,8.297771E0,8.491481E0,1.3016178E1,1.0892197E1,9.56692E0,0E0,9.204407E0,7.95673E0,0E0,0E0,0E0,0E0,0E0,0E0,7.11722E0,0E0,7.4440784E0,0E0,7.6539774E0,0E0,0E0,0E0,0E0,0E0,0E0,7.9247956E0,0E0,0E0,0E0,0E0,0E0],"parents":[2147483647,0,0,1,1,2,2,3,3,4,4,5,5,6,6,7,7,8,8,9,9,10,10,15,15,16,16,18,18,20,20,21,21,22,22,23,23,24,24,26,26,27,27,34,34,36,36,38,38,45,45],"right_children":[2,4,6,8,10,12,14,16,18,20,22,-1,-1,-1,-1,24,26,-1,28,-1,30,32,34,36,38,-1,40,42,-1,-1,-1,-1,-1,-1,44,-1,46,-1,48,-1,-1,-1,-1,-1,-1,50,-1,-1,-1,-1,-1],"split_conditions":[1E0,1E0,1E0,1E0,8.641806E-1,1E0,7.27741E1,9.59911E-1,1E0,1.14E2,1.25E2,-4.5951206E-2,-3.9380062E-3,-0E0,-2.0354196E-2,4.1546932E1,9E1,-1.545694E-3,1.45E2,-3.670134E-3,6.503558E1,6.0990205E0,8.463401E1,1E0,1.27E2,-0E0,1.48E2,7.0507574E0,-2.8755835E-3,-0E0,-6.1268974E-2,-5.523443E-3,1.6674098E-2,-0E0,9.90064E-1,4.72967E-2,1.714E3,-0E0,6.7472626E1,7.813163E-2,-0E0,3.058418E-2,-0E0,-3.6008768E-2,-0E0,8.9362144E-1,3.2502946E-2,-0E0,-5.1018607E-2,-8.938592E-3,2.2119042E-2],"split_indices":[6,2,3,7,14,4,19,14,1,16,16,0,0,0,0,18,16,0,16,0,19,11,19,3,16,0,16,11,0,0,0,0,0,0,14,0,15,0,17,0,0,0,0,0,0,14,0,0,0,0,0],"split_type":[0,0,0,0,0,0,0,0,0,0,0,0,0,0,0,0,0,0,0,0,0,0,0,0,0,0,0,0,0,0,0,0,0,0,0,0,0,0,0,0,0,0,0,0,0,0,0,0,0,0,0],"sum_hessian":[6.791224E4,4.8954324E4,1.8957922E4,3.1800035E4,1.715429E4,1.2225176E4,6.7327456E3,1.7950678E4,1.3849357E4,4.221634E3,1.2932655E4,1.0634039E4,1.5911375E3,2.121214E3,4.6115317E3,1.4315063E4,3.6356143E3,7.3497485E3,6.499609E3,2.3449587E3,1.876675E3,6.542462E3,6.3901934E3,1.1587949E4,2.7271135E3,9.042788E1,3.5451863E3,6.180241E3,3.1936743E2,3.1270935E2,1.5639657E3,1.6352512E3,4.907211E3,3.8955215E3,2.4946716E3,6.059653E3,5.5282964E3,1.2369604E3,1.4901531E3,3.2927515E3,2.5243483E2,5.624301E3,5.559405E2,2.2070898E3,2.875818E2,3.0198584E3,2.508438E3,6.8755396E2,8.025991E2,1.5623651E3,1.4574934E3],"tree_param":{"num_deleted":"0","num_feature":"20","num_nodes":"51","size_leaf_vector":"1"}},{"base_weights":[-8.251317E-4,2.4587976E-2,-6.901678E-2,-2.6590964E-3,5.8405254E-2,-5.7141773E-2,-7.5179204E-2,1.48192765E-2,-1.0457373E-1,1.0094646E-1,1.5122842E-2,-8.89637E-2,-1.2607724E-2,3.495683E-2,-3.514768E-2,-2.2501605E-2,-1.938273E-1,1.14804134E-1,-0E0,-5.273835E-3,1.7466484E-2,-0E0,-3.2303408E-2,1.30164735E-2,-4.220239E-2,-4.2307023E-2,5.1516652E-2,-9.3670726E-2,9.556897E-4,-4.027234E-2,-0E0,-0E0,-8.772039E-2,-0E0,1.2815425E-1,-7.5935364E-2,-0E0,-0E0,-4.159359E-2,-9.037839E-3,6.554067E-2,-0E0,-1.3720743E-1,4.4733435E-2,-0E0,-0E0,-1.13990225E-1,-1.0653229E-3,8.03044E-2,-5.9814487E-2,-0E0,-4.9277306E-2,-0E0,1.143046E-1,1.8981999E-2,-0E0,1.2567747E-1,-1.870052E-2,5.9278477E-2,8.946139E-3,1.542269E-1,3.0173933E-2,-0E0,5.665595E-2,-0E0],"categories":[],"categories_nodes":[],"categories_segments":[],"categories_sizes":[],"default_left":[0,0,0,0,0,0,0,0,0,0,0,0,0,0,0,0,0,0,0,0,0,0,0,0,0,0,0,0,0,0,0,0,0,0,0,0,0,0,0,0,0,0,1,0,0,0,0,0,0,0,0,0,0,0,0,0,0,0,0,0,0,0,0,0,0],"id":5,"left_children":[1,3,5,7,9,11,-1,13,15,17,19,21,23,25,27,29,31,33,-1,-1,-1,-1,-1,-1,35,37,39,41,-1,-1,-1,-1,-1,-1,43,45,-1,-1,-1,-1,47,-1,49,-1,-1,-1,51,-1,53,-1,-1,-1,-1,55,57,-1,59,-1,61,-1,63,-1,-1,-1,-1],"loss_changes":[1.1949792E2,4.771766E1,2.0113121E1,5.1383305E1,3.5726395E1,2.0367199E1,0E0,2.232663E1,2.0262787E1,1.4915138E1,1.5539257E1,8.813187E0,1.2869397E1,2.1737806E1,1.7148655E1,1.0851975E1,2.2659874E1,1.2939316E1,0E0,0E0,0E0,0E0,0E0,0E0,8.044275E0,1.3288712E1,1.7638084E1,1.3897749E1,0E0,0E0,0E0,0E0,0E0,0E0,8.768204E0,1.3473574E1,0E0,0E0,0E0,0E0,1.6572853E1,0E0,1.2471386E1,0E0,0E0,0E0,9.043255E0,0E0,1.6044632E1,0E0,0E0,0E0,0E0,1.0462288E1,1.4085897E1,0E0,7.774803E0,0E0,8.689422E0,0E0,8.220009E0,0E0,0E0,0E0,0E0],"parents":[2147483647,0,0,1,1,2,2,3,3,4,4,5,5,7,7,8,8,9,9,10,10,11,11,12,12,13,13,14,14,15,15,16,16,17,17,24,24,25,25,26,26,27,27,34,34,35,35,40,40,42,42,46,46,48,48,53,53,54,54,56,56,58,58,60,60],"right_children":[2,4,6,8,10,12,-1,14,16,18,20,22,24,26,28,30,32,34,-1,-1,-1,-1,-1,-1,36,38,40,42,-1,-1,-1,-1,-1,-1,44,46,-1,-1,-1,-1,48,-1,50,-1,-1,-1,52,-1,54,-1,-1,-1,-1,56,58,-1,60,-1,62,-1,64,-1,-1,-1,-1],"split_conditions":[1E0,9.1447955E-1,1.0099897E0,4.0913353E1,1E0,1E0,-7.5179204E-2,1.24E2,-1.9117859E-1,1.42E2,1E0,5.7859707E0,-1.8781593E-1,7.9233366E-1,8.811724E-1,8.615824E-1,8.121162E1,1.045E3,-0E0,-5.273835E-3,1.7466484E-2,-0E0,-3.2303408E-2,1.30164735E-2,9.2820907E-1,1.02E2,1.276E3,8.54E1,9.556897E-4,-4.027234E-2,-0E0,-0E0,-8.772039E-2,-0E0,2.401E3,1.05E2,-0E0,-0E0,-4.159359E-2,-9.037839E-3,6.0251527E0,-0E0,1.97E3,4.4733435E-2,-0E0,-0E0,3.83682E-1,-1.0653229E-3,8.660119E1,-5.9814487E-2,-0E0,-4.9277306E-2,-0E0,-4.133806E-1,1.724E3,-0E0,6.405703E0,-1.870052E-2,1.0893168E0,8.946139E-3,8.89E1,3.0173933E-2,-0E0,5.665595E-2,-0E0],"split_indices":[6,14,14,18,7,1,0,16,13,16,1,11,13,14,14,14,19,15,0,0,0,0,0,0,14,16,15,9,0,0,0,0,0,0,15,16,0,0,0,0,11,0,15,0,0,0,13,0,19,0,0,0,0,13,15,0,11,0,12,0,9,0,0,0,0],"split_type":[0,0,0,0,0,0,0,0,0,0,0,0,0,0,0,0,0,0,0,0,0,0,0,0,0,0,0,0,0,0,0,0,0,0,0,0,0,0,0,0,0,0,0,0,0,0,0,0,0,0,0,0,0,0,0,0,0,0,0,0,0,0,0,0,0],"sum_hessian":[6.7529375E4,4.870647E4,1.8822906E4,2.6207145E4,2.2499324E4,1.7891236E4,9.3166943E2,2.201686E4,4.1902837E3,1.0717064E4,1.178226E4,9.741237E3,8.149999E3,1.6413805E4,5.603055E3,2.524201E3,1.6660829E3,9.3991E3,1.3179648E3,5.7381914E3,6.044069E3,5.94547E2,9.14669E3,2.3525024E3,5.7974966E3,2.3487363E3,1.4065068E4,2.6703694E3,2.9326858E3,7.53298E2,1.7709028E3,4.7075378E2,1.1953291E3,1.0845205E3,8.314579E3,3.129384E3,2.6681125E3,1.2960405E3,1.0526958E3,1.5851249E3,1.2479943E4,7.311401E2,1.9392294E3,8.0724727E3,2.4210634E2,7.49148E2,2.3802358E3,1.6270237E3,1.085292E4,1.4892196E3,4.5000977E2,1.7983373E3,5.818986E2,6.41885E3,4.43407E3,4.608675E2,5.9579824E3,1.1101527E3,3.3239172E3,1.7578286E3,4.200154E3,2.4424812E3,8.8143616E2,3.7332607E3,4.6689316E2],"tree_param":{"num_deleted":"0","num_feature":"20","num_nodes":"65","size_leaf_vector":"1"}},{"base_weights":[-8.570219E-4,2.4759507E-2,-3.9757762E-2,-0E0,5.6195267E-2,-2.0596037E-2,-8.6578086E-2,2.4308976E-2,-2.3013122E-2,-0E0,6.8227254E-2,-5.7567067E-2,-0E0,-4.425958E-2,-1.1119501E-2,-3.431964E-2,4.3304E-2,1.0402856E-2,-7.345812E-2,2.0385483E-2,-1.3201669E-2,2.6369125E-2,-0E0,-2.931598E-2,-0E0,-2.3148587E-2,1.5572469E-2,-3.0950673E-2,-0E0,-2.6659907E-3,5.4229222E-2,-1.44567825E-2,1.4471866E-2,-9.181269E-2,-0E0,1.7897237E-2,-1.9465983E-2,-3.868523E-4,5.6830384E-2,-0E0,2.1888146E-2,-1.4317184E-2,-6.0954265E-2,-0E0,9.128512E-2,-0E0,3.6856208E-2],"categories":[],"categories_nodes":[],"categories_segments":[],"categories_sizes":[],"default_left":[0,0,0,0,0,0,0,1,0,0,1,0,0,0,0,0,0,0,0,0,0,0,0,0,0,0,0,0,0,0,0,0,0,0,0,0,0,0,1,0,0,0,0,0,1,0,0],"id":6,"left_children":[1,3,5,7,9,11,13,15,17,19,21,23,25,-1,-1,27,29,31,33,-1,-1,-1,35,-1,-1,-1,37,-1,-1,-1,39,-1,-1,41,-1,-1,-1,-1,43,-1,-1,-1,-1,-1,45,-1,-1],"loss_changes":[6.801005E1,3.1666172E1,1.9298641E1,1.2474182E1,1.2806053E1,1.8016533E1,9.204155E0,1.2411004E1,2.2870056E1,7.325461E0,8.634445E0,1.0434607E1,1.1231641E1,0E0,0E0,7.232814E0,7.1958942E0,1.1699662E1,9.024635E0,0E0,0E0,0E0,7.885449E0,0E0,0E0,0E0,1.0165464E1,0E0,0E0,0E0,7.259424E0,0E0,0E0,7.937443E0,0E0,0E0,0E0,0E0,7.0773554E0,0E0,0E0,0E0,0E0,0E0,7.192528E0,0E0,0E0],"parents":[2147483647,0,0,1,1,2,2,3,3,4,4,5,5,6,6,7,7,8,8,9,9,10,10,11,11,12,12,15,15,16,16,17,17,18,18,22,22,26,26,30,30,33,33,38,38,44,44],"right_children":[2,4,6,8,10,12,14,16,18,20,22,24,26,-1,-1,28,30,32,34,-1,-1,-1,36,-1,-1,-1,38,-1,-1,-1,40,-1,-1,42,-1,-1,-1,-1,44,-1,-1,-1,-1,-1,46,-1,-1],"split_conditions":[1E0,1E0,4.028562E1,8.009269E1,8.4521204E-1,8.51E1,9.3008333E-1,1.247E3,1.0480707E0,-9.8049027E-1,1.1022804E0,1E0,8.240557E-1,-4.425958E-2,-1.1119501E-2,1.5516984E1,-3.89446E-1,8.51E1,2.7432916E-1,2.0385483E-2,-1.3201669E-2,2.6369125E-2,7.487377E1,-2.931598E-2,-0E0,-2.3148587E-2,8.85E1,-3.0950673E-2,-0E0,-2.6659907E-3,7.99E1,-1.44567825E-2,1.4471866E-2,-1.8115142E-1,-0E0,1.7897237E-2,-1.9465983E-2,-3.868523E-4,-5.76E0,-0E0,2.1888146E-2,-1.4317184E-2,-6.0954265E-2,-0E0,1.237E3,-0E0,3.6856208E-2],"split_indices":[2,8,18,19,14,9,14,15,12,18,12,7,14,0,0,18,13,9,13,0,0,0,17,0,0,0,9,0,0,0,9,0,0,13,0,0,0,0,10,0,0,0,0,0,15,0,0],"split_type":[0,0,0,0,0,0,0,0,0,0,0,0,0,0,0,0,0,0,0,0,0,0,0,0,0,0,0,0,0,0,0,0,0,0,0,0,0,0,0,0,0,0,0,0,0,0,0],"sum_hessian":[6.7343914E4,3.9858184E4,2.7485729E4,2.2158855E4,1.7699328E4,2.033484E4,7.150888E3,1.0555816E4,1.160304E4,2.9673557E3,1.4731973E4,7.9682866E3,1.2366554E4,3.2700127E3,3.8808755E3,1.9313197E3,8.624496E3,6.4301953E3,5.1728447E3,1.0348212E3,1.9325345E3,1.2333164E4,2.3988083E3,4.7225806E3,3.2457058E3,1.7096282E3,1.0656926E4,1.0337482E3,8.9757166E2,7.251896E2,7.8993066E3,1.866848E3,4.563347E3,4.352558E3,8.202864E2,1.5140791E3,8.847292E2,6.7876006E3,3.869325E3,8.448328E2,7.054474E3,3.2616968E3,1.0908613E3,1.5703193E3,2.2990056E3,1.6678206E2,2.1322236E3],"tree_param":{"num_deleted":"0","num_feature":"20","num_nodes":"47","size_leaf_vector":"1"}},{"base_weights":[-2.3189175E-3,1.5669981E-2,-3.0183595E-2,2.8520914E-2,-1.850859E-2,-5.0805148E-2,-3.3270086E-3,9.913711E-4,5.3884644E-2,-5.8580205E-2,8.32835E-2,-2.1572003E-2,-0E0,4.7670893E-2,-3.6476273E-2,9.442754E-2,1.4976058E-2,1.011532E-2,-9.552171E-2,3.9807294E-2,-0E0,-1.1503689E-2,7.022469E-2,-6.889246E-2,-0E0,1.6987607E-3,1.18641816E-1,-1.0638667E-2,2.0449495E-2,-1.3727951E-1,-2.4476057E-2,-0E0,1.0874325E-1,-4.9278036E-2,-3.478691E-3,4.9299896E-2,-6.698038E-3,-0E0,1.3246599E-1,3.402567E-3,-2.5941113E-2,-0E0,-5.0383598E-2,7.982165E-3,-2.273511E-2,4.1174844E-2,-0E0,4.9847513E-2,-0E0],"categories":[],"categories_nodes":[],"categories_segments":[],"categories_sizes":[],"default_left":[0,0,0,0,0,0,0,0,0,0,0,0,0,0,0,0,1,0,0,0,0,0,0,0,0,0,0,1,0,1,0,0,0,0,0,0,0,0,1,0,0,0,0,0,0,0,0,0,0],"id":7,"left_children":[1,3,5,7,9,11,13,-1,15,17,19,-1,-1,21,23,25,27,-1,29,-1,-1,-1,31,33,-1,35,37,39,-1,41,43,-1,45,-1,-1,-1,-1,-1,47,-1,-1,-1,-1,-1,-1,-1,-1,-1,-1],"loss_changes":[3.4520382E1,1.8067919E1,1.2562584E1,1.6678827E1,3.9588306E1,1.1702435E1,2.1709173E1,0E0,1.6767735E1,2.8099247E1,9.377867E0,0E0,0E0,1.049128E1,8.280827E0,8.148193E0,1.19595375E1,0E0,8.693584E0,0E0,0E0,0E0,1.58642235E1,1.1177235E1,0E0,1.2288717E1,9.366257E0,9.677451E0,0E0,8.653488E0,7.9228067E0,0E0,7.842964E0,0E0,0E0,0E0,0E0,0E0,1.013517E1,0E0,0E0,0E0,0E0,0E0,0E0,0E0,0E0,0E0,0E0],"parents":[2147483647,0,0,1,1,2,2,3,3,4,4,5,5,6,6,8,8,9,9,10,10,13,13,14,14,15,15,16,16,18,18,22,22,23,23,25,25,26,26,27,27,29,29,30,30,32,32,38,38],"right_children":[2,4,6,8,10,12,14,-1,16,18,20,-1,-1,22,24,26,28,-1,30,-1,-1,-1,32,34,-1,36,38,40,-1,42,44,-1,46,-1,-1,-1,-1,-1,48,-1,-1,-1,-1,-1,-1,-1,-1,-1,-1],"split_conditions":[1E0,4.1546932E1,1E0,1E0,9.7522116E-1,1E0,-1.5864882E-1,9.913711E-4,-1.5100048E-1,1.22E2,1E0,-2.1572003E-2,-0E0,8.15E1,9.2129374E-1,8.597508E-1,1.72E3,1.011532E-2,9.3008333E-1,3.9807294E-2,-0E0,-1.1503689E-2,8.597508E-1,2.7079362E-1,-0E0,-8.631935E0,8.1E1,7.552698E1,2.0449495E-2,1.189E3,1.29E2,-0E0,2.252E3,-4.9278036E-2,-3.478691E-3,4.9299896E-2,-6.698038E-3,-0E0,1.37E2,3.402567E-3,-2.5941113E-2,-0E0,-5.0383598E-2,7.982165E-3,-2.273511E-2,4.1174844E-2,-0E0,4.9847513E-2,-0E0],"split_indices":[2,18,1,1,14,8,13,0,13,16,6,0,0,9,14,14,15,0,14,0,0,0,14,13,0,18,9,19,0,15,16,0,15,0,0,0,0,0,16,0,0,0,0,0,0,0,0,0,0],"split_type":[0,0,0,0,0,0,0,0,0,0,0,0,0,0,0,0,0,0,0,0,0,0,0,0,0,0,0,0,0,0,0,0,0,0,0,0,0,0,0,0,0,0,0,0,0,0,0,0,0],"sum_hessian":[6.728064E4,3.98313E4,2.744934E4,3.0006268E4,9.825035E3,1.4446644E4,1.3002697E4,1.5963184E4,1.4043084E4,7.4224688E3,2.402566E3,1.1681508E4,2.765136E3,4.521881E3,8.480816E3,6.199053E3,7.844031E3,1.7910166E3,5.631452E3,1.7865411E3,6.160249E2,4.9344498E2,4.028436E3,4.06347E3,4.417346E3,1.723589E3,4.475464E3,4.4061025E3,3.4379285E3,3.0614578E3,2.5699944E3,1.0544366E3,2.9739993E3,1.3177208E3,2.745749E3,4.5623114E2,1.2673579E3,3.677506E2,4.1077134E3,2.854325E3,1.5517775E3,1.6780894E2,2.8936487E3,7.008403E2,1.8691542E3,2.8042058E3,1.6979361E2,3.6636147E3,4.4409882E2],"tree_param":{"num_deleted":"0","num_feature":"20","num_nodes":"49","size_leaf_vector":"1"}},{"base_weights":[-7.9446175E-4,1.0115671E-2,-3.171024E-2,8.731093E-4,7.15338E-2,-1.0904531E-1,-1.781501E-2,3.066366E-2,-1.5786413E-2,1.0524203E-1,-0E0,-0E0,-4.403004E-2,-0E0,-2.15664E-2,-0E0,7.457522E-2,-8.546729E-2,-0E0,1.371762E-1,-0E0,-3.255671E-2,3.4972338E-3,-0E0,9.4648995E-2,-1.7072095E-3,-1.217358E-1,1.7802417E-2,-4.9465902E-2,-0E0,1.6628343E-1,-0E0,1.11018196E-1,-1.3689874E-1,-0E0,-5.57854E-2,3.811147E-2,-0E0,-1.24567434E-1,1.8331654E-1,-0E0,1.2699163E-1,-0E0,-0E0,-5.1521722E-2,-1.1345757E-1,6.7658224E-3,6.761766E-2,-0E0,-0E0,-5.1293075E-2,-0E0,6.686305E-2,1.5901105E-1,-0E0,-0E0,-4.5472126E-2,7.570867E-2,-0E0,-5.075865E-2,1.4021171E-2,-0E0,5.67968E-2,-0E0,2.8261043E-2,-1.335452E-1,1.1689025E-3,-0E0,-6.713795E-2],"categories":[],"categories_nodes":[],"categories_segments":[],"categories_sizes":[],"default_left":[0,0,0,1,0,0,0,0,1,1,0,0,0,0,0,0,0,0,0,0,0,0,0,0,0,0,0,0,0,0,0,0,0,0,0,0,0,0,0,0,0,1,0,0,0,0,0,0,0,0,0,0,0,0,0,0,0,0,0,0,0,0,0,0,0,0,0,0,0],"id":8,"left_children":[1,3,5,7,9,11,13,15,17,19,-1,-1,-1,21,-1,-1,23,25,27,29,-1,-1,-1,-1,31,-1,33,35,37,-1,39,-1,41,43,-1,45,47,-1,49,51,-1,53,-1,-1,-1,55,-1,57,59,-1,-1,-1,-1,61,-1,-1,-1,63,-1,65,-1,-1,-1,-1,-1,67,-1,-1,-1],"loss_changes":[2.3765417E1,2.3993416E1,1.3713442E1,2.2113146E1,1.8026718E1,9.135511E0,1.4441412E1,2.3196705E1,3.0796688E1,1.5332539E1,0E0,0E0,0E0,1.1369824E1,0E0,0E0,8.986073E0,8.617527E0,1.8446737E1,1.9551197E1,0E0,0E0,0E0,0E0,1.0372871E1,0E0,8.359627E0,2.3457703E1,1.5755264E1,0E0,1.405587E1,0E0,1.1692043E1,9.181858E0,0E0,1.7962456E1,1.7819143E1,0E0,8.122461E0,1.249791E1,0E0,1.28934555E1,0E0,0E0,0E0,8.32686E0,0E0,7.310913E0,1.1688112E1,0E0,0E0,0E0,0E0,8.055733E0,0E0,0E0,0E0,8.377567E0,0E0,1.9338549E1,0E0,0E0,0E0,0E0,0E0,1.4266705E1,0E0,0E0,0E0],"parents":[2147483647,0,0,1,1,2,2,3,3,4,4,5,5,6,6,7,7,8,8,9,9,13,13,16,16,17,17,18,18,19,19,24,24,26,26,27,27,28,28,30,30,32,32,33,33,35,35,36,36,38,38,39,39,41,41,45,45,47,47,48,48,53,53,57,57,59,59,65,65],"right_children":[2,4,6,8,10,12,14,16,18,20,-1,-1,-1,22,-1,-1,24,26,28,30,-1,-1,-1,-1,32,-1,34,36,38,-1,40,-1,42,44,-1,46,48,-1,50,52,-1,54,-1,-1,-1,56,-1,58,60,-1,-1,-1,-1,62,-1,-1,-1,64,-1,66,-1,-1,-1,-1,-1,68,-1,-1,-1],"split_conditions":[1E0,9.804793E-1,8.14E1,7.512171E1,1.018155E0,5.6424704E0,9.2516594E1,1.0632561E0,1.574E3,1.39E2,-0E0,-0E0,-4.403004E-2,-3.89446E-1,-2.15664E-2,-0E0,1.08E3,8.6E1,1.29E2,9.4906294E-1,-0E0,-3.255671E-2,3.4972338E-3,-0E0,8.16E1,-1.7072095E-3,9.657854E-1,8.257216E-1,-1.4178209E-1,-0E0,3.6335632E-1,-0E0,9.4911987E-1,-9.673035E0,-0E0,1.8137412E-1,-1.8461475E-1,-0E0,2.9179543E1,9.8E1,-0E0,1.674E3,-0E0,-0E0,-5.1521722E-2,9.2410076E-1,6.7658224E-3,1.1421166E2,2.5922495E-1,-0E0,-5.1293075E-2,-0E0,6.686305E-2,7.733557E-1,-0E0,-0E0,-4.5472126E-2,8.23E1,-0E0,9.2257625E-1,1.4021171E-2,-0E0,5.67968E-2,-0E0,2.8261043E-2,-1.5100048E-1,1.1689025E-3,-0E0,-6.713795E-2],"split_indices":[6,14,9,19,14,11,19,12,15,16,0,0,0,13,0,0,15,9,16,12,0,0,0,0,9,0,14,14,13,0,13,0,14,18,0,13,13,0,18,16,0,15,0,0,0,12,0,19,13,0,0,0,0,14,0,0,0,9,0,14,0,0,0,0,0,13,0,0,0],"split_type":[0,0,0,0,0,0,0,0,0,0,0,0,0,0,0,0,0,0,0,0,0,0,0,0,0,0,0,0,0,0,0,0,0,0,0,0,0,0,0,0,0,0,0,0,0,0,0,0,0,0,0,0,0,0,0,0,0,0,0,0,0,0,0,0,0,0,0,0,0],"sum_hessian":[6.71406E4,4.8488137E4,1.8652463E4,4.2916027E4,5.5721113E3,2.2149756E3,1.6437488E4,1.6429654E4,2.6486373E4,4.1579814E3,1.4141298E3,2.0514633E2,2.0098293E3,1.1810633E4,4.626855E3,9.548791E3,6.8808623E3,5.040826E3,2.1445547E4,3.228623E3,9.293585E2,9.859465E2,1.0824686E4,1.6370344E3,5.2438276E3,2.0197861E3,3.0210398E3,1.6081806E4,5.3637417E3,3.503687E2,2.8782542E3,6.1304694E2,4.630781E3,2.817854E3,2.0318585E2,2.9220305E3,1.3159775E4,3.571334E3,1.7924078E3,2.772034E3,1.0622027E2,4.2448584E3,3.8592264E2,2.3715616E2,2.5806978E3,2.0081036E3,9.13927E2,8.022242E3,5.1375327E3,3.0089407E2,1.4915138E3,1.5619412E2,2.6158398E3,3.1878127E3,1.0570454E3,1.9430627E2,1.8137974E3,7.6581743E3,3.6406808E2,2.7864258E3,2.351107E3,1.4059941E2,3.0472134E3,3.931838E2,7.26499E3,1.416057E3,1.3703688E3,4.862838E2,9.2977325E2],"tree_param":{"num_deleted":"0","num_feature":"20","num_nodes":"69","size_leaf_vector":"1"}},{"base_weights":[-9.111273E-4,5.358981E-3,-3.8860366E-2,-2.1345166E-2,1.0794623E-2,1.4951929E-2,-5.7226304E-2,-8.853318E-3,3.3442043E-2,-7.252953E-2,2.2887639E-3,1.3210501E-2,-8.096807E-2,-6.0136363E-2,4.3884538E-2,-0E0,-8.283621E-2,6.6434145E-2,-0E0,-3.7645545E-2,-1.639926E-1,-3.285769E-2,-0E0,5.042172E-2,-4.4010997E-2,-9.490805E-2,-0E0,-1.2238163E-2,8.7626316E-2,-3.5428435E-2,2.7403349E-2,-7.4364446E-2,-0E0,-1.9300494E-1,-0E0,1.831785E-2,-1.2975434E-2,-4.046776E-2,-0E0,-0E0,-1.0574108E-1,1.3024954E-1,-0E0,7.267141E-3,-1.8709678E-2,6.1828785E-2,-1.6708868E-2,-0E0,-9.674872E-2,-0E0,-2.4421915E-1,-6.946964E-2,-6.846152E-2,1.5496635E-1,-0E0,-0E0,7.848036E-2,-5.166026E-2,-0E0,-9.119022E-2,-0E0,-3.0013308E-2,-0E0,-0E0,2.1413739E-1,3.1947464E-2,-0E0,2.5182298E-1,-0E0,-0E0,8.999719E-2],"categories":[],"categories_nodes":[],"categories_segments":[],"categories_sizes":[],"default_left":[0,0,1,0,0,0,1,0,0,0,0,0,0,1,0,0,0,0,0,0,0,0,0,0,0,1,0,0,0,1,0,0,0,0,0,0,0,0,0,0,0,0,0,0,0,0,0,0,0,0,0,0,0,0,0,0,0,0,0,0,0,0,0,0,0,0,0,0,0,0,0],"id":9,"left_children":[1,3,5,-1,7,-1,9,11,13,15,-1,17,19,21,23,-1,25,27,29,31,33,-1,-1,35,37,39,-1,-1,41,43,45,47,-1,49,-1,-1,-1,-1,-1,-1,51,53,-1,-1,-1,55,-1,-1,57,-1,59,-1,61,63,-1,-1,65,-1,-1,-1,-1,-1,-1,-1,67,-1,-1,69,-1,-1,-1],"loss_changes":[1.7645369E1,1.8758888E1,1.7183537E1,0E0,2.4906683E1,0E0,1.2351925E1,4.6996017E1,2.4716658E1,9.694321E0,0E0,1.636044E1,1.4544727E1,8.209585E0,1.418174E1,0E0,8.9198265E0,1.2649435E1,1.5920506E1,8.380732E0,1.3797535E1,0E0,0E0,1.0092678E1,9.817478E0,1.0954403E1,0E0,0E0,1.3273354E1,1.0673022E1,2.3898624E1,8.15326E0,0E0,1.2702179E1,0E0,0E0,0E0,0E0,0E0,0E0,9.847572E0,1.0220333E1,0E0,0E0,0E0,9.275482E0,0E0,0E0,1.2583551E1,0E0,8.378891E0,0E0,1.1794462E1,1.59622E1,0E0,0E0,8.088074E0,0E0,0E0,0E0,0E0,0E0,0E0,0E0,1.512751E1,0E0,0E0,7.527603E0,0E0,0E0,0E0],"parents":[2147483647,0,0,1,1,2,2,4,4,6,6,7,7,8,8,9,9,11,11,12,12,13,13,14,14,16,16,17,17,18,18,19,19,20,20,23,23,24,24,25,25,28,28,29,29,30,30,31,31,33,33,40,40,41,41,45,45,48,48,50,50,52,52,53,53,56,56,64,64,67,67],"right_children":[2,4,6,-1,8,-1,10,12,14,16,-1,18,20,22,24,-1,26,28,30,32,34,-1,-1,36,38,40,-1,-1,42,44,46,48,-1,50,-1,-1,-1,-1,-1,-1,52,54,-1,-1,-1,56,-1,-1,58,-1,60,-1,62,64,-1,-1,66,-1,-1,-1,-1,-1,-1,-1,68,-1,-1,70,-1,-1,-1],"split_conditions":[1.36E2,1.045E3,4.8424145E1,-2.1345166E-2,9.0301555E-1,1.4951929E-2,7E-1,1.23E2,-3.82375E0,1.115E3,2.2887639E-3,-5.94512E0,-1.8461475E-1,1.0565848E0,1.0152719E0,-0E0,1.0152719E0,7.417752E-1,1.762E3,8.7616545E-1,9.11E1,-3.285769E-2,-0E0,2.401E3,1E0,5.7406774E0,-0E0,-1.2238163E-2,1.05E2,6.0671402E1,1.0843842E0,8.43E1,-0E0,6.0671402E1,-0E0,1.831785E-2,-1.2975434E-2,-4.046776E-2,-0E0,-0E0,8.34E1,2.991814E-1,-0E0,7.267141E-3,-1.8709678E-2,6.00346E0,-1.6708868E-2,-0E0,1.868E3,-0E0,3.7604424E-1,-6.946964E-2,9.8157024E-1,-3.4483522E-1,-0E0,-0E0,1.0309701E2,-5.166026E-2,-0E0,-9.119022E-2,-0E0,-3.0013308E-2,-0E0,-0E0,9.010266E1,3.1947464E-2,-0E0,1.303E3,-0E0,-0E0,8.999719E-2],"split_indices":[16,15,19,0,14,0,10,16,18,15,0,18,13,12,14,0,14,14,15,14,9,0,0,15,8,11,0,0,16,17,12,9,0,17,0,0,0,0,0,0,9,13,0,0,0,11,0,0,15,0,13,0,14,13,0,0,19,0,0,0,0,0,0,0,17,0,0,15,0,0,0],"split_type":[0,0,0,0,0,0,0,0,0,0,0,0,0,0,0,0,0,0,0,0,0,0,0,0,0,0,0,0,0,0,0,0,0,0,0,0,0,0,0,0,0,0,0,0,0,0,0,0,0,0,0,0,0,0,0,0,0,0,0,0,0,0,0,0,0,0,0,0,0,0,0],"sum_hessian":[6.705708E4,5.6493008E4,1.0564068E4,3.38226E3,5.3110746E4,1.3965094E3,9.167559E3,2.7298648E4,2.58121E4,8.013263E3,1.1542954E3,2.043036E4,6.86829E3,2.077905E3,2.3734193E4,4.762656E2,7.5369976E3,4.4363706E3,1.5993988E4,4.98173E3,1.8865604E3,1.5691514E3,5.0875363E2,2.2646064E4,1.0881289E3,6.712417E3,8.2458057E2,3.491894E2,4.0871812E3,7.4295073E3,8.56448E3,2.731444E3,2.2502856E3,1.7097174E3,1.7684305E2,2.211659E4,5.2947577E2,7.3926746E2,3.4886148E2,3.4105374E2,6.3713633E3,2.587587E3,1.4995942E3,1.3365812E3,6.0929263E3,6.382481E3,2.1819998E3,2.8006152E2,2.4513826E3,4.595617E2,1.2501556E3,1.2461221E3,5.125241E3,2.2296133E3,3.5797382E2,9.460759E2,5.436405E3,1.4313538E3,1.0200289E3,1.0931859E3,1.5696976E2,4.389194E3,7.3604736E2,7.527177E2,1.4768955E3,4.504708E3,9.316969E2,1.2838802E3,1.9301527E2,7.265848E1,1.2112217E3],"tree_param":{"num_deleted":"0","num_feature":"20","num_nodes":"71","size_leaf_vector":"1"}},{"base_weights":[-2.0883067E-3,9.698791E-3,-6.9965553E-3,3.1206671E-2,-6.3275336E-4,1.4661965E-2,-4.2458158E-2,-9.273787E-2,-0E0],"categories":[],"categories_nodes":[],"categories_segments":[],"categories_sizes":[],"default_left":[0,0,0,0,0,0,0,0,0],"id":10,"left_children":[1,3,-1,5,-1,-1,7,-1,-1],"loss_changes":[1.5515863E1,1.1370982E1,0E0,1.4717544E1,0E0,0E0,9.515005E0,0E0,0E0],"parents":[2147483647,0,0,1,1,3,3,6,6],"right_children":[2,4,-1,6,-1,-1,8,-1,-1],"split_conditions":[1E0,1E0,-6.9965553E-3,1E0,-6.3275336E-4,1.4661965E-2,1E0,-9.273787E-2,-0E0],"split_indices":[2,3,0,6,0,0,4,0,0],"split_type":[0,0,0,0,0,0,0,0,0],"sum_hessian":[6.703721E4,3.9693508E4,2.7343701E4,1.5346302E4,2.4347205E4,1.3680956E4,1.6653456E3,8.220565E1,1.5831399E3],"tree_param":{"num_deleted":"0","num_feature":"20","num_nodes":"9","size_leaf_vector":"1"}},{"base_weights":[-1.2360633E-3,2.987037E-3,-5.1393826E-2,-7.520308E-2,6.67077E-3,3.5719902E-4,-1.1584375E-1,-1.172954E-1,-0E0,-6.108293E-2,1.0945434E-2,-1.3904828E-1,-0E0,-1.634032E-1,-0E0,-9.895658E-2,-0E0,-1.3170453E-2,1.7882792E-2,-0E0,-5.576251E-2,-0E0,-6.494247E-2,-1.4457047E-1,-0E0,-2.587444E-2,1.16472445E-1,5.8555633E-2,9.42512E-3,-6.2559284E-2,-0E0,-0E0,-7.6606266E-2,-0E0,2.1031578E-1,7.952105E-2,-0E0,-1.8358459E-3,3.6516264E-2,-2.3799034E-2,3.793116E-3,-3.5156954E-2,-0E0,-0E0,9.309476E-2,3.756535E-2,-0E0,-7.941191E-3,1.365171E-1,5.5275913E-2,-0E0,-3.10671E-2,1.2714581E-3,6.0461357E-2,-0E0,6.728026E-2,-0E0,-0E0,-8.852872E-2,1.6163063E-3,9.192719E-2,-0E0,-1.1088294E-1,3.542677E-2,-0E0,-4.5712627E-2,-0E0],"categories":[],"categories_nodes":[],"categories_segments":[],"categories_sizes":[],"default_left":[1,0,0,0,0,0,0,0,0,0,1,0,0,0,0,0,0,0,1,0,0,0,0,0,0,0,0,0,0,0,0,0,0,0,1,0,0,0,0,0,0,0,0,0,0,0,0,0,0,0,0,0,0,0,0,0,0,0,0,0,0,0,0,0,0,0,0],"id":11,"left_children":[1,3,5,7,9,-1,11,13,-1,15,17,19,-1,21,-1,23,-1,25,27,-1,-1,-1,-1,29,-1,31,33,35,37,-1,-1,39,41,-1,43,45,-1,47,49,-1,-1,-1,-1,-1,-1,-1,-1,51,53,55,-1,57,-1,-1,-1,59,-1,-1,61,-1,63,-1,65,-1,-1,-1,-1],"loss_changes":[1.6605042E1,1.4234929E1,2.6364622E1,7.4391546E0,1.4654478E1,0E0,1.0445663E1,8.323158E0,0E0,9.185537E0,9.655201E0,1.1767403E1,0E0,8.302124E0,0E0,1.0551231E1,0E0,1.39170265E1,1.2174786E1,0E0,0E0,0E0,0E0,9.395418E0,0E0,1.0790472E1,1.0856105E1,1.1141853E1,1.3486828E1,0E0,0E0,8.435571E0,8.546169E0,0E0,1.0336325E1,9.082935E0,0E0,1.5743956E1,9.815794E0,0E0,0E0,0E0,0E0,0E0,0E0,0E0,0E0,8.247998E0,7.4931927E0,8.603144E0,0E0,1.9088055E1,0E0,0E0,0E0,7.170311E0,0E0,0E0,9.125336E0,0E0,7.8789825E0,0E0,1.0449619E1,0E0,0E0,0E0,0E0],"parents":[2147483647,0,0,1,1,2,2,3,3,4,4,6,6,7,7,9,9,10,10,11,11,13,13,15,15,17,17,18,18,23,23,25,25,26,26,27,27,28,28,31,31,32,32,34,34,35,35,37,37,38,38,47,47,48,48,49,49,51,51,55,55,58,58,60,60,62,62],"right_children":[2,4,6,8,10,-1,12,14,-1,16,18,20,-1,22,-1,24,-1,26,28,-1,-1,-1,-1,30,-1,32,34,36,38,-1,-1,40,42,-1,44,46,-1,48,50,-1,-1,-1,-1,-1,-1,-1,-1,52,54,56,-1,58,-1,-1,-1,60,-1,-1,62,-1,64,-1,66,-1,-1,-1,-1],"split_conditions":[1.0309701E2,7.9E1,1.0348977E0,2.7079362E-1,-4.133806E-1,3.5719902E-4,9.5662946E-1,1E0,-0E0,1.868E3,1.364E3,8.58E1,-0E0,5.617737E0,-0E0,1.0964392E0,-0E0,3.83682E-1,5.5287037E1,-0E0,-5.576251E-2,-0E0,-6.494247E-2,9.181656E-1,-0E0,6.894458E1,8.891244E-1,1.885E3,1.92E3,-6.2559284E-2,-0E0,-6.357655E0,9.6489984E-1,-0E0,6.187095E0,-1.2169897E-1,-0E0,9.24E1,3.7556206E1,-2.3799034E-2,3.793116E-3,-3.5156954E-2,-0E0,-0E0,9.309476E-2,3.756535E-2,-0E0,8.871492E-1,1.0812658E0,2.368E3,-0E0,1.19E2,1.2714581E-3,6.0461357E-2,-0E0,8.6509556E-1,-0E0,-0E0,8.44E1,1.6163063E-3,3.029141E-1,-0E0,8.8047034E-1,3.542677E-2,-0E0,-4.5712627E-2,-0E0],"split_indices":[19,9,12,13,13,0,14,8,0,15,15,9,0,11,0,12,0,13,17,0,0,0,0,14,0,19,14,15,15,0,0,18,14,0,11,13,0,9,18,0,0,0,0,0,0,0,0,14,12,15,0,16,0,0,0,14,0,0,9,0,13,0,14,0,0,0,0],"split_type":[0,0,0,0,0,0,0,0,0,0,0,0,0,0,0,0,0,0,0,0,0,0,0,0,0,0,0,0,0,0,0,0,0,0,0,0,0,0,0,0,0,0,0,0,0,0,0,0,0,0,0,0,0,0,0,0,0,0,0,0,0,0,0,0,0,0,0],"sum_hessian":[6.697523E4,6.093755E4,6.037677E3,2.067804E3,5.8869746E4,2.9505261E3,3.087151E3,1.3426366E3,7.2516736E2,2.7443428E3,5.6125402E4,2.6580454E3,4.2910535E2,9.6398816E2,3.7864844E2,1.933161E3,8.1118176E2,1.0933229E4,4.5192176E4,4.2340015E2,2.2346453E3,9.014176E1,8.738464E2,1.3671777E3,5.6598334E2,1.0363601E4,5.6962823E2,6.692185E3,3.849999E4,1.0462657E3,3.2091193E2,7.414916E3,2.9486843E3,2.0608455E2,3.6354367E2,5.3532007E3,1.3389843E3,2.5962822E4,1.2537167E4,1.4210167E3,5.9938994E3,2.2883345E3,6.603498E2,5.970152E1,3.0384216E2,3.3439998E3,2.0092009E3,2.5280781E4,6.820417E2,8.638E3,3.8991675E3,9.888247E3,1.5392533E4,5.7957947E2,1.02462265E2,7.704585E3,9.3341504E2,6.3065537E3,3.5816936E3,2.7749055E3,4.9296797E3,5.8597595E2,2.9957178E3,4.3708125E3,5.588668E2,2.4891526E3,5.06565E2],"tree_param":{"num_deleted":"0","num_feature":"20","num_nodes":"67","size_leaf_vector":"1"}},{"base_weights":[-2.135296E-4,-1.3104875E-2,1.224141E-2,-2.8141571E-2,4.4740285E-3,4.1922096E-2,-4.8788604E-3,-8.992236E-3,-5.3003285E-2,-5.6115133E-3,6.1336048E-2,-7.6385856E-2,1.6850441E-3,-4.126992E-2,7.752733E-3,-1.3075414E-1,-1.0034409E-2,6.180153E-3,-3.764876E-2,-0E0,7.77216E-2,-2.3342903E-1,-0E0,-9.780078E-2,-5.674614E-4,-5.862038E-3,1.2363067E-2,-0E0,-6.1311044E-2,-8.954382E-2,1.6343255E-2,3.270004E-2,-0E0,-0E0,-2.625184E-1,-4.4947863E-2,-0E0,-0E0,-5.648465E-2,-9.8721795E-2,-0E0],"categories":[],"categories_nodes":[],"categories_segments":[],"categories_sizes":[],"default_left":[0,0,0,0,0,0,0,0,0,0,0,0,0,0,1,0,0,0,0,0,1,0,0,0,0,0,0,0,0,0,0,0,0,0,0,0,0,0,0,0,0],"id":12,"left_children":[1,3,5,7,-1,9,11,13,15,17,19,21,-1,23,25,27,-1,-1,-1,29,31,33,-1,35,-1,-1,-1,-1,-1,37,-1,-1,-1,-1,39,-1,-1,-1,-1,-1,-1],"loss_changes":[1.0821138E1,1.4687103E1,1.8205187E1,8.093231E0,0E0,1.4627338E1,1.7354422E1,9.515959E0,7.94137E0,1.27528E1,1.3003803E1,2.6034239E1,0E0,8.434475E0,7.4056253E0,1.1313509E1,0E0,0E0,0E0,9.204489E0,1.1653469E1,7.0809555E0,0E0,1.054211E1,0E0,0E0,0E0,0E0,0E0,1.0850708E1,0E0,0E0,0E0,0E0,7.1884384E0,0E0,0E0,0E0,0E0,0E0,0E0],"parents":[2147483647,0,0,1,1,2,2,3,3,5,5,6,6,7,7,8,8,9,9,10,10,11,11,13,13,14,14,15,15,19,19,20,20,21,21,23,23,29,29,34,34],"right_children":[2,4,6,8,-1,10,12,14,16,18,20,22,-1,24,26,28,-1,-1,-1,30,32,34,-1,36,-1,-1,-1,-1,-1,38,-1,-1,-1,-1,40,-1,-1,-1,-1,-1,-1],"split_conditions":[1E0,1E0,-1.3479906E-1,8.695806E1,4.4740285E-3,8.597508E-1,1.408608E-1,8.5E1,8.3780026E-1,8.84E1,8.21E1,9.2566305E-1,1.6850441E-3,9.373252E0,1.0314616E0,1.0097848E0,-1.0034409E-2,6.180153E-3,-3.764876E-2,-2.4568444E-1,1.33E2,7.68E2,-0E0,-1.6556862E-1,-5.674614E-4,-5.862038E-3,1.2363067E-2,-0E0,-6.1311044E-2,-3.5661092E-1,1.6343255E-2,3.270004E-2,-0E0,-0E0,9.07E1,-4.4947863E-2,-0E0,-0E0,-5.648465E-2,-9.8721795E-2,-0E0],"split_indices":[1,8,13,19,0,14,13,9,14,9,9,14,0,18,12,12,0,0,0,13,16,15,0,13,0,0,0,0,0,13,0,0,0,0,9,0,0,0,0,0,0],"split_type":[0,0,0,0,0,0,0,0,0,0,0,0,0,0,0,0,0,0,0,0,0,0,0,0,0,0,0,0,0,0,0,0,0,0,0,0,0,0,0,0,0],"sum_hessian":[6.6967336E4,3.4851742E4,3.2115592E4,2.3424799E4,1.1426942E4,1.2759234E4,1.9356357E4,1.4416493E4,9.008306E3,2.9798337E3,9.7794E3,2.8996353E3,1.645672E4,5.8899927E3,8.5265E3,1.4733557E3,7.53495E3,2.1120237E3,8.6781006E2,1.5668688E3,8.212532E3,7.1540564E2,2.1842295E3,1.862288E3,4.0277048E3,3.6886907E3,4.837809E3,4.3331387E2,1.0400419E3,8.175359E2,7.4933295E2,6.3437485E3,1.8687834E3,6.410103E1,6.513046E2,1.5228225E3,3.3946545E2,2.6938782E2,5.481481E2,5.77035E2,7.4269684E1],"tree_param":{"num_deleted":"0","num_feature":"20","num_nodes":"41","size_leaf_vector":"1"}},{"base_weights":[-7.625296E-4,-3.0082248E-2,-0E0,-2.1862544E-2,5.241126E-3,-8.8946946E-2,-1.9378487E-3,1.6660346E-2,-1.2020737E-2,-4.320276E-2,-0E0,1.122759E-2,-1.9225134E-2,-0E0,3.315489E-2,-8.548956E-2,-7.3303694E-5,2.8104879E-2,-3.0355904E-2,2.2032728E-2,2.769956E-3,-0E0,-3.834256E-2,-0E0,5.733147E-2,-0E0,9.811314E-2,4.3412086E-2,-0E0],"categories":[],"categories_nodes":[],"categories_segments":[],"categories_sizes":[],"default_left":[0,0,1,0,0,0,1,0,0,0,0,0,0,0,0,1,0,0,0,0,0,0,0,0,0,0,0,0,0],"id":13,"left_children":[1,-1,3,5,7,9,11,13,15,-1,-1,17,-1,-1,19,21,-1,23,-1,-1,-1,-1,-1,-1,25,-1,27,-1,-1],"loss_changes":[7.062191E0,0E0,7.130851E0,1.1259509E1,1.0979915E1,1.0368155E1,9.485352E0,8.703365E0,1.3117631E1,0E0,0E0,9.57993E0,0E0,0E0,9.888313E0,1.063315E1,0E0,7.127417E0,0E0,0E0,0E0,0E0,0E0,0E0,8.207759E0,0E0,8.808117E0,0E0,0E0],"parents":[2147483647,0,0,2,2,3,3,4,4,5,5,6,6,7,7,8,8,11,11,14,14,15,15,17,17,24,24,26,26],"right_children":[2,-1,4,6,8,10,12,14,16,-1,-1,18,-1,-1,20,22,-1,24,-1,-1,-1,-1,-1,-1,26,-1,28,-1,-1],"split_conditions":[7.417752E-1,-3.0082248E-2,1.364E3,1.06E2,1.27E2,7.5322165E0,7.18738E1,1E0,8.6925846E-1,-4.320276E-2,-0E0,1.0037806E0,-1.9225134E-2,-0E0,-1.7377E-1,5.1634113E1,-7.3303694E-5,-2.1924062E-1,-3.0355904E-2,2.2032728E-2,2.769956E-3,-0E0,-3.834256E-2,-0E0,9.2566305E-1,-0E0,1E0,4.3412086E-2,-0E0],"split_indices":[14,0,15,16,16,18,19,1,14,0,0,14,0,0,13,19,0,13,0,0,0,0,0,0,14,0,6,0,0],"split_type":[0,0,0,0,0,0,0,0,0,0,0,0,0,0,0,0,0,0,0,0,0,0,0,0,0,0,0,0,0],"sum_hessian":[6.687565E4,7.914012E2,6.608425E4,1.1707625E4,5.437662E4,2.0491663E3,9.658459E3,3.444891E4,1.9927715E4,1.5412338E3,5.079325E2,7.148225E3,2.5102334E3,1.7893771E4,1.6555137E4,2.1087266E3,1.7818988E4,6.6004224E3,5.47803E2,6.211104E3,1.0344034E4,1.7425337E2,1.9344731E3,2.9078281E3,3.6925942E3,1.6328464E3,2.0597478E3,1.6552194E3,4.045284E2],"tree_param":{"num_deleted":"0","num_feature":"20","num_nodes":"29","size_leaf_vector":"1"}},{"base_weights":[-0E0,-1.7490294E-2,6.0981447E-3,-1.887581E-2,-0E0,8.0547755E-4,7.177788E-2,1.1373938E-2,-2.5492035E-2,1.2899889E-1,-0E0,-1.8641168E-2,2.2099437E-2,-4.6264794E-2,-2.754142E-3,-0E0,1.5914947E-1,-2.2820048E-2,-0E0,-0E0,3.636955E-2,8.058879E-3,-3.6907215E-2,6.0174238E-2,-0E0,1.9984115E-3,-3.3771873E-2,-5.636422E-3,1.4202026E-2,-0E0,-8.960572E-2,-4.3906815E-2,-0E0],"categories":[],"categories_nodes":[],"categories_segments":[],"categories_sizes":[],"default_left":[0,0,0,0,0,0,0,0,0,0,0,0,0,0,1,0,0,0,0,0,0,0,0,0,0,0,0,0,0,0,0,0,0],"id":14,"left_children":[1,3,5,-1,-1,7,9,11,13,15,-1,17,19,-1,21,-1,23,-1,-1,25,27,-1,29,-1,-1,-1,-1,-1,-1,-1,31,-1,-1],"loss_changes":[7.2075286E0,1.0030091E1,1.3602446E1,0E0,0E0,1.2260686E1,1.2034762E1,1.1339909E1,2.3950558E1,7.5538807E0,0E0,9.918538E0,9.759324E0,0E0,1.0318843E1,0E0,8.231705E0,0E0,0E0,9.333048E0,7.0305405E0,0E0,8.655003E0,0E0,0E0,0E0,0E0,0E0,0E0,0E0,7.995596E0,0E0,0E0],"parents":[2147483647,0,0,1,1,2,2,5,5,6,6,7,7,8,8,9,9,11,11,12,12,14,14,16,16,19,19,20,20,22,22,30,30],"right_children":[2,4,6,-1,-1,8,10,12,14,16,-1,18,20,-1,22,-1,24,-1,-1,26,28,-1,30,-1,-1,-1,-1,-1,-1,-1,32,-1,-1],"split_conditions":[6.181512E0,1.14E2,3.83682E-1,-1.887581E-2,-0E0,9.211248E1,6.5486274E0,8.31E1,8.3212143E-1,7.9233366E-1,-0E0,-2.1924062E-1,6.509343E0,-4.6264794E-2,1.0565848E0,-0E0,1.42E2,-2.2820048E-2,-0E0,2.8124076E-1,7.890641E-1,8.058879E-3,-1.8781593E-1,6.0174238E-2,-0E0,1.9984115E-3,-3.3771873E-2,-5.636422E-3,1.4202026E-2,-0E0,2.669835E-1,-4.3906815E-2,-0E0],"split_indices":[11,16,13,0,0,19,11,9,14,14,0,13,11,0,12,0,16,0,0,13,14,0,13,0,0,0,0,0,0,0,13,0,0],"split_type":[0,0,0,0,0,0,0,0,0,0,0,0,0,0,0,0,0,0,0,0,0,0,0,0,0,0,0,0,0,0,0,0,0],"sum_hessian":[6.683298E4,1.7468477E4,4.9364504E4,4.7267266E3,1.2741749E4,4.645489E4,2.9096125E3,3.4508984E4,1.1945907E4,1.5676946E3,1.3419181E3,7.85798E3,2.6651002E4,1.5654095E3,1.0380497E4,2.6748877E2,1.3002058E3,2.6268186E3,5.2311616E3,9.484284E3,1.7166719E4,5.010794E3,5.3697036E3,1.2466805E3,5.3525272E1,8.686207E3,7.9807776E2,9.4784045E2,1.6218877E4,3.4485703E3,1.9211332E3,1.3078219E3,6.1331134E2],"tree_param":{"num_deleted":"0","num_feature":"20","num_nodes":"33","size_leaf_vector":"1"}},{"base_weights":[-1.4211476E-3],"categories":[],"categories_nodes":[],"categories_segments":[],"categories_sizes":[],"default_left":[0],"id":15,"left_children":[-1],"loss_changes":[0E0],"parents":[2147483647],"right_children":[-1],"split_conditions":[-4.740221E-4],"split_indices":[0],"split_type":[0],"sum_hessian":[6.683489E4],"tree_param":{"num_deleted":"0","num_feature":"20","num_nodes":"1","size_leaf_vector":"1"}},{"base_weights":[-1.0672614E-3,-4.0987007E-2,3.4854564E-4,-5.023033E-3,-7.0079684E-2],"categories":[],"categories_nodes":[],"categories_segments":[],"categories_sizes":[],"default_left":[1,0,0,0,0],"id":16,"left_children":[1,3,-1,-1,-1],"loss_changes":[7.615378E0,8.529744E0,0E0,0E0,0E0],"parents":[2147483647,0,0,1,1],"right_children":[2,4,-1,-1,-1],"split_conditions":[1.045E3,1.0057921E0,3.4854564E-4,-5.023033E-3,-7.0079684E-2],"split_indices":[15,14,0,0,0],"split_type":[0,0,0,0,0],"sum_hessian":[6.6819914E4,4.4562905E3,6.2363625E4,4.1939526E3,2.623381E2],"tree_param":{"num_deleted":"0","num_feature":"20","num_nodes":"5","size_leaf_vector":"1"}},{"base_weights":[-1.191379E-3,2.1810364E-3,-4.7364477E-3],"categories":[],"categories_nodes":[],"categories_segments":[],"categories_sizes":[],"default_left":[0,0,0],"id":17,"left_children":[1,-1,-1],"loss_changes":[7.1150384E0,0E0,0E0],"parents":[2147483647,0,0],"right_children":[2,-1,-1],"split_conditions":[1E0,2.1810364E-3,-4.7364477E-3],"split_indices":[2,0,0],"split_type":[0,0,0],"sum_hessian":[6.6837195E4,3.9570656E4,2.7266537E4],"tree_param":{"num_deleted":"0","num_feature":"20","num_nodes":"3","size_leaf_vector":"1"}},{"base_weights":[-0E0],"categories":[],"categories_nodes":[],"categories_segments":[],"categories_sizes":[],"default_left":[0],"id":18,"left_children":[-1],"loss_changes":[0E0],"parents":[2147483647],"right_children":[-1],"split_conditions":[-0E0],"split_indices":[0],"split_type":[0],"sum_hessian":[6.6838016E4],"tree_param":{"num_deleted":"0","num_feature":"20","num_nodes":"1","size_leaf_vector":"1"}},{"base_weights":[-0E0],"categories":[],"categories_nodes":[],"categories_segments":[],"categories_sizes":[],"default_left":[0],"id":19,"left_children":[-1],"loss_changes":[0E0],"parents":[2147483647],"right_children":[-1],"split_conditions":[-0E0],"split_indices":[0],"split_type":[0],"sum_hessian":[6.680162E4],"tree_param":{"num_deleted":"0","num_feature":"20","num_nodes":"1","size_leaf_vector":"1"}},{"base_weights":[-6.8631564E-4],"categories":[],"categories_nodes":[],"categories_segments":[],"categories_sizes":[],"default_left":[0],"id":20,"left_children":[-1],"loss_changes":[0E0],"parents":[2147483647],"right_children":[-1],"split_conditions":[-2.2891977E-4],"split_indices":[0],"split_type":[0],"sum_hessian":[6.6816484E4],"tree_param":{"num_deleted":"0","num_feature":"20","num_nodes":"1","size_leaf_vector":"1"}},{"base_weights":[-0E0],"categories":[],"categories_nodes":[],"categories_segments":[],"categories_sizes":[],"default_left":[0],"id":21,"left_children":[-1],"loss_changes":[0E0],"parents":[2147483647],"right_children":[-1],"split_conditions":[-0E0],"split_indices":[0],"split_type":[0],"sum_hessian":[6.675507E4],"tree_param":{"num_deleted":"0","num_feature":"20","num_nodes":"1","size_leaf_vector":"1"}},{"base_weights":[-3.0299625E-5],"categories":[],"categories_nodes":[],"categories_segments":[],"categories_sizes":[],"default_left":[0],"id":22,"left_children":[-1],"loss_changes":[0E0],"parents":[2147483647],"right_children":[-1],"split_conditions":[-1.0106404E-5],"split_indices":[0],"split_type":[0],"sum_hessian":[6.6825586E4],"tree_param":{"num_deleted":"0","num_feature":"20","num_nodes":"1","size_leaf_vector":"1"}},{"base_weights":[-0E0],"categories":[],"categories_nodes":[],"categories_segments":[],"categories_sizes":[],"default_left":[0],"id":23,"left_children":[-1],"loss_changes":[0E0],"parents":[2147483647],"right_children":[-1],"split_conditions":[-0E0],"split_indices":[0],"split_type":[0],"sum_hessian":[6.68103E4],"tree_param":{"num_deleted":"0","num_feature":"20","num_nodes":"1","size_leaf_vector":"1"}},{"base_weights":[-5.881021E-4],"categories":[],"categories_nodes":[],"categories_segments":[],"categories_sizes":[],"default_left":[0],"id":24,"left_children":[-1],"loss_changes":[0E0],"parents":[2147483647],"right_children":[-1],"split_conditions":[-1.9616075E-4],"split_indices":[0],"split_type":[0],"sum_hessian":[6.680608E4],"tree_param":{"num_deleted":"0","num_feature":"20","num_nodes":"1","size_leaf_vector":"1"}},{"base_weights":[-0E0],"categories":[],"categories_nodes":[],"categories_segments":[],"categories_sizes":[],"default_left":[0],"id":25,"left_children":[-1],"loss_changes":[0E0],"parents":[2147483647],"right_children":[-1],"split_conditions":[-0E0],"split_indices":[0],"split_type":[0],"sum_hessian":[6.6766516E4],"tree_param":{"num_deleted":"0","num_feature":"20","num_nodes":"1","size_leaf_vector":"1"}},{"base_weights":[-0E0],"categories":[],"categories_nodes":[],"categories_segments":[],"categories_sizes":[],"default_left":[0],"id":26,"left_children":[-1],"loss_changes":[0E0],"parents":[2147483647],"right_children":[-1],"split_conditions":[-0E0],"split_indices":[0],"split_type":[0],"sum_hessian":[6.680057E4],"tree_param":{"num_deleted":"0","num_feature":"20","num_nodes":"1","size_leaf_vector":"1"}},{"base_weights":[-0E0],"categories":[],"categories_nodes":[],"categories_segments":[],"categories_sizes":[],"default_left":[0],"id":27,"left_children":[-1],"loss_changes":[0E0],"parents":[2147483647],"right_children":[-1],"split_conditions":[-0E0],"split_indices":[0],"split_type":[0],"sum_hessian":[6.681892E4],"tree_param":{"num_deleted":"0","num_feature":"20","num_nodes":"1","size_leaf_vector":"1"}},{"base_weights":[-0E0],"categories":[],"categories_nodes":[],"categories_segments":[],"categories_sizes":[],"default_left":[0],"id":28,"left_children":[-1],"loss_changes":[0E0],"parents":[2147483647],"right_children":[-1],"split_conditions":[-0E0],"split_indices":[0],"split_type":[0],"sum_hessian":[6.6787414E4],"tree_param":{"num_deleted":"0","num_feature":"20","num_nodes":"1","size_leaf_vector":"1"}},{"base_weights":[-0E0],"categories":[],"categories_nodes":[],"categories_segments":[],"categories_sizes":[],"default_left":[0],"id":29,"left_children":[-1],"loss_changes":[0E0],"parents":[2147483647],"right_children":[-1],"split_conditions":[-0E0],"split_indices":[0],"split_type":[0],"sum_hessian":[6.6820266E4],"tree_param":{"num_deleted":"0","num_feature":"20","num_nodes":"1","size_leaf_vector":"1"}},{"base_weights":[-2.0416803E-5],"categories":[],"categories_nodes":[],"categories_segments":[],"categories_sizes":[],"default_left":[0],"id":30,"left_children":[-1],"loss_changes":[0E0],"parents":[2147483647],"right_children":[-1],"split_conditions":[-6.8100003E-6],"split_indices":[0],"split_type":[0],"sum_hessian":[6.681452E4],"tree_param":{"num_deleted":"0","num_feature":"20","num_nodes":"1","size_leaf_vector":"1"}},{"base_weights":[-0E0],"categories":[],"categories_nodes":[],"categories_segments":[],"categories_sizes":[],"default_left":[0],"id":31,"left_children":[-1],"loss_changes":[0E0],"parents":[2147483647],"right_children":[-1],"split_conditions":[-0E0],"split_indices":[0],"split_type":[0],"sum_hessian":[6.681188E4],"tree_param":{"num_deleted":"0","num_feature":"20","num_nodes":"1","size_leaf_vector":"1"}},{"base_weights":[-0E0],"categories":[],"categories_nodes":[],"categories_segments":[],"categories_sizes":[],"default_left":[0],"id":32,"left_children":[-1],"loss_changes":[0E0],"parents":[2147483647],"right_children":[-1],"split_conditions":[-0E0],"split_indices":[0],"split_type":[0],"sum_hessian":[6.6820516E4],"tree_param":{"num_deleted":"0","num_feature":"20","num_nodes":"1","size_leaf_vector":"1"}},{"base_weights":[-0E0],"categories":[],"categories_nodes":[],"categories_segments":[],"categories_sizes":[],"default_left":[0],"id":33,"left_children":[-1],"loss_changes":[0E0],"parents":[2147483647],"right_children":[-1],"split_conditions":[-0E0],"split_indices":[0],"split_type":[0],"sum_hessian":[6.68546E4],"tree_param":{"num_deleted":"0","num_feature":"20","num_nodes":"1","size_leaf_vector":"1"}},{"base_weights":[-0E0],"categories":[],"categories_nodes":[],"categories_segments":[],"categories_sizes":[],"default_left":[0],"id":34,"left_children":[-1],"loss_changes":[0E0],"parents":[2147483647],"right_children":[-1],"split_conditions":[-0E0],"split_indices":[0],"split_type":[0],"sum_hessian":[6.6822766E4],"tree_param":{"num_deleted":"0","num_feature":"20","num_nodes":"1","size_leaf_vector":"1"}},{"base_weights":[-2.5320915E-4],"categories":[],"categories_nodes":[],"categories_segments":[],"categories_sizes":[],"default_left":[0],"id":35,"left_children":[-1],"loss_changes":[0E0],"parents":[2147483647],"right_children":[-1],"split_conditions":[-8.445761E-5],"split_indices":[0],"split_type":[0],"sum_hessian":[6.680154E4],"tree_param":{"num_deleted":"0","num_feature":"20","num_nodes":"1","size_leaf_vector":"1"}},{"base_weights":[-0E0],"categories":[],"categories_nodes":[],"categories_segments":[],"categories_sizes":[],"default_left":[0],"id":36,"left_children":[-1],"loss_changes":[0E0],"parents":[2147483647],"right_children":[-1],"split_conditions":[-0E0],"split_indices":[0],"split_type":[0],"sum_hessian":[6.681784E4],"tree_param":{"num_deleted":"0","num_feature":"20","num_nodes":"1","size_leaf_vector":"1"}},{"base_weights":[-0E0],"categories":[],"categories_nodes":[],"categories_segments":[],"categories_sizes":[],"default_left":[0],"id":37,"left_children":[-1],"loss_changes":[0E0],"parents":[2147483647],"right_children":[-1],"split_conditions":[-0E0],"split_indices":[0],"split_type":[0],"sum_hessian":[6.6754234E4],"tree_param":{"num_deleted":"0","num_feature":"20","num_nodes":"1","size_leaf_vector":"1"}},{"base_weights":[-0E0],"categories":[],"categories_nodes":[],"categories_segments":[],"categories_sizes":[],"default_left":[0],"id":38,"left_children":[-1],"loss_changes":[0E0],"parents":[2147483647],"right_children":[-1],"split_conditions":[-0E0],"split_indices":[0],"split_type":[0],"sum_hessian":[6.68114E4],"tree_param":{"num_deleted":"0","num_feature":"20","num_nodes":"1","size_leaf_vector":"1"}},{"base_weights":[-0E0],"categories":[],"categories_nodes":[],"categories_segments":[],"categories_sizes":[],"default_left":[0],"id":39,"left_children":[-1],"loss_changes":[0E0],"parents":[2147483647],"right_children":[-1],"split_conditions":[-0E0],"split_indices":[0],"split_type":[0],"sum_hessian":[6.684519E4],"tree_param":{"num_deleted":"0","num_feature":"20","num_nodes":"1","size_leaf_vector":"1"}},{"base_weights":[-0E0],"categories":[],"categories_nodes":[],"categories_segments":[],"categories_sizes":[],"default_left":[0],"id":40,"left_children":[-1],"loss_changes":[0E0],"parents":[2147483647],"right_children":[-1],"split_conditions":[-0E0],"split_indices":[0],"split_type":[0],"sum_hessian":[6.6803766E4],"tree_param":{"num_deleted":"0","num_feature":"20","num_nodes":"1","size_leaf_vector":"1"}},{"base_weights":[-0E0],"categories":[],"categories_nodes":[],"categories_segments":[],"categories_sizes":[],"default_left":[0],"id":41,"left_children":[-1],"loss_changes":[0E0],"parents":[2147483647],"right_children":[-1],"split_conditions":[-0E0],"split_indices":[0],"split_type":[0],"sum_hessian":[6.681338E4],"tree_param":{"num_deleted":"0","num_feature":"20","num_nodes":"1","size_leaf_vector":"1"}},{"base_weights":[-0E0],"categories":[],"categories_nodes":[],"categories_segments":[],"categories_sizes":[],"default_left":[0],"id":42,"left_children":[-1],"loss_changes":[0E0],"parents":[2147483647],"right_children":[-1],"split_conditions":[-0E0],"split_indices":[0],"split_type":[0],"sum_hessian":[6.683765E4],"tree_param":{"num_deleted":"0","num_feature":"20","num_nodes":"1","size_leaf_vector":"1"}},{"base_weights":[1.5180894E-4],"categories":[],"categories_nodes":[],"categories_segments":[],"categories_sizes":[],"default_left":[0],"id":43,"left_children":[-1],"loss_changes":[0E0],"parents":[2147483647],"right_children":[-1],"split_conditions":[5.0635692E-5],"split_indices":[0],"split_type":[0],"sum_hessian":[6.682924E4],"tree_param":{"num_deleted":"0","num_feature":"20","num_nodes":"1","size_leaf_vector":"1"}},{"base_weights":[-0E0],"categories":[],"categories_nodes":[],"categories_segments":[],"categories_sizes":[],"default_left":[0],"id":44,"left_children":[-1],"loss_changes":[0E0],"parents":[2147483647],"right_children":[-1],"split_conditions":[-0E0],"split_indices":[0],"split_type":[0],"sum_hessian":[6.6810055E4],"tree_param":{"num_deleted":"0","num_feature":"20","num_nodes":"1","size_leaf_vector":"1"}},{"base_weights":[-4.5392595E-4],"categories":[],"categories_nodes":[],"categories_segments":[],"categories_sizes":[],"default_left":[0],"id":45,"left_children":[-1],"loss_changes":[0E0],"parents":[2147483647],"right_children":[-1],"split_conditions":[-1.5140646E-4],"split_indices":[0],"split_type":[0],"sum_hessian":[6.679226E4],"tree_param":{"num_deleted":"0","num_feature":"20","num_nodes":"1","size_leaf_vector":"1"}},{"base_weights":[-0E0],"categories":[],"categories_nodes":[],"categories_segments":[],"categories_sizes":[],"default_left":[0],"id":46,"left_children":[-1],"loss_changes":[0E0],"parents":[2147483647],"right_children":[-1],"split_conditions":[-0E0],"split_indices":[0],"split_type":[0],"sum_hessian":[6.678438E4],"tree_param":{"num_deleted":"0","num_feature":"20","num_nodes":"1","size_leaf_vector":"1"}},{"base_weights":[-0E0],"categories":[],"categories_nodes":[],"categories_segments":[],"categories_sizes":[],"default_left":[0],"id":47,"left_children":[-1],"loss_changes":[0E0],"parents":[2147483647],"right_children":[-1],"split_conditions":[-0E0],"split_indices":[0],"split_type":[0],"sum_hessian":[6.6781086E4],"tree_param":{"num_deleted":"0","num_feature":"20","num_nodes":"1","size_leaf_vector":"1"}},{"base_weights":[-0E0],"categories":[],"categories_nodes":[],"categories_segments":[],"categories_sizes":[],"default_left":[0],"id":48,"left_children":[-1],"loss_changes":[0E0],"parents":[2147483647],"right_children":[-1],"split_conditions":[-0E0],"split_indices":[0],"split_type":[0],"sum_hessian":[6.677288E4],"tree_param":{"num_deleted":"0","num_feature":"20","num_nodes":"1","size_leaf_vector":"1"}},{"base_weights":[-0E0],"categories":[],"categories_nodes":[],"categories_segments":[],"categories_sizes":[],"default_left":[0],"id":49,"left_children":[-1],"loss_changes":[0E0],"parents":[2147483647],"right_children":[-1],"split_conditions":[-0E0],"split_indices":[0],"split_type":[0],"sum_hessian":[6.6785695E4],"tree_param":{"num_deleted":"0","num_feature":"20","num_nodes":"1","size_leaf_vector":"1"}},{"base_weights":[-0E0],"categories":[],"categories_nodes":[],"categories_segments":[],"categories_sizes":[],"default_left":[0],"id":50,"left_children":[-1],"loss_changes":[0E0],"parents":[2147483647],"right_children":[-1],"split_conditions":[-0E0],"split_indices":[0],"split_type":[0],"sum_hessian":[6.681207E4],"tree_param":{"num_deleted":"0","num_feature":"20","num_nodes":"1","size_leaf_vector":"1"}},{"base_weights":[-0E0],"categories":[],"categories_nodes":[],"categories_segments":[],"categories_sizes":[],"default_left":[0],"id":51,"left_children":[-1],"loss_changes":[0E0],"parents":[2147483647],"right_children":[-1],"split_conditions":[-0E0],"split_indices":[0],"split_type":[0],"sum_hessian":[6.6797164E4],"tree_param":{"num_deleted":"0","num_feature":"20","num_nodes":"1","size_leaf_vector":"1"}},{"base_weights":[-0E0],"categories":[],"categories_nodes":[],"categories_segments":[],"categories_sizes":[],"default_left":[0],"id":52,"left_children":[-1],"loss_changes":[0E0],"parents":[2147483647],"right_children":[-1],"split_conditions":[-0E0],"split_indices":[0],"split_type":[0],"sum_hessian":[6.67938E4],"tree_param":{"num_deleted":"0","num_feature":"20","num_nodes":"1","size_leaf_vector":"1"}},{"base_weights":[-0E0],"categories":[],"categories_nodes":[],"categories_segments":[],"categories_sizes":[],"default_left":[0],"id":53,"left_children":[-1],"loss_changes":[0E0],"parents":[2147483647],"right_children":[-1],"split_conditions":[-0E0],"split_indices":[0],"split_type":[0],"sum_hessian":[6.6840305E4],"tree_param":{"num_deleted":"0","num_feature":"20","num_nodes":"1","size_leaf_vector":"1"}},{"base_weights":[-0E0],"categories":[],"categories_nodes":[],"categories_segments":[],"categories_sizes":[],"default_left":[0],"id":54,"left_children":[-1],"loss_changes":[0E0],"parents":[2147483647],"right_children":[-1],"split_conditions":[-0E0],"split_indices":[0],"split_type":[0],"sum_hessian":[6.68317E4],"tree_param":{"num_deleted":"0","num_feature":"20","num_nodes":"1","size_leaf_vector":"1"}},{"base_weights":[4.0255094E-4],"categories":[],"categories_nodes":[],"categories_segments":[],"categories_sizes":[],"default_left":[0],"id":55,"left_children":[-1],"loss_changes":[0E0],"parents":[2147483647],"right_children":[-1],"split_conditions":[1.3427039E-4],"split_indices":[0],"split_type":[0],"sum_hessian":[6.678691E4],"tree_param":{"num_deleted":"0","num_feature":"20","num_nodes":"1","size_leaf_vector":"1"}},{"base_weights":[-0E0],"categories":[],"categories_nodes":[],"categories_segments":[],"categories_sizes":[],"default_left":[0],"id":56,"left_children":[-1],"loss_changes":[0E0],"parents":[2147483647],"right_children":[-1],"split_conditions":[-0E0],"split_indices":[0],"split_type":[0],"sum_hessian":[6.6799234E4],"tree_param":{"num_deleted":"0","num_feature":"20","num_nodes":"1","size_leaf_vector":"1"}},{"base_weights":[-0E0],"categories":[],"categories_nodes":[],"categories_segments":[],"categories_sizes":[],"default_left":[0],"id":57,"left_children":[-1],"loss_changes":[0E0],"parents":[2147483647],"right_children":[-1],"split_conditions":[-0E0],"split_indices":[0],"split_type":[0],"sum_hessian":[6.68031E4],"tree_param":{"num_deleted":"0","num_feature":"20","num_nodes":"1","size_leaf_vector":"1"}},{"base_weights":[-0E0],"categories":[],"categories_nodes":[],"categories_segments":[],"categories_sizes":[],"default_left":[0],"id":58,"left_children":[-1],"loss_changes":[0E0],"parents":[2147483647],"right_children":[-1],"split_conditions":[-0E0],"split_indices":[0],"split_type":[0],"sum_hessian":[6.676385E4],"tree_param":{"num_deleted":"0","num_feature":"20","num_nodes":"1","size_leaf_vector":"1"}},{"base_weights":[-0E0],"categories":[],"categories_nodes":[],"categories_segments":[],"categories_sizes":[],"default_left":[0],"id":59,"left_children":[-1],"loss_changes":[0E0],"parents":[2147483647],"right_children":[-1],"split_conditions":[-0E0],"split_indices":[0],"split_type":[0],"sum_hessian":[6.675667E4],"tree_param":{"num_deleted":"0","num_feature":"20","num_nodes":"1","size_leaf_vector":"1"}},{"base_weights":[1.4677519E-4],"categories":[],"categories_nodes":[],"categories_segments":[],"categories_sizes":[],"default_left":[0],"id":60,"left_children":[-1],"loss_changes":[0E0],"parents":[2147483647],"right_children":[-1],"split_conditions":[4.895669E-5],"split_indices":[0],"split_type":[0],"sum_hessian":[6.683027E4],"tree_param":{"num_deleted":"0","num_feature":"20","num_nodes":"1","size_leaf_vector":"1"}},{"base_weights":[-0E0],"categories":[],"categories_nodes":[],"categories_segments":[],"categories_sizes":[],"default_left":[0],"id":61,"left_children":[-1],"loss_changes":[0E0],"parents":[2147483647],"right_children":[-1],"split_conditions":[-0E0],"split_indices":[0],"split_type":[0],"sum_hessian":[6.6789336E4],"tree_param":{"num_deleted":"0","num_feature":"20","num_nodes":"1","size_leaf_vector":"1"}},{"base_weights":[-3.6631754E-4],"categories":[],"categories_nodes":[],"categories_segments":[],"categories_sizes":[],"default_left":[0],"id":62,"left_children":[-1],"loss_changes":[0E0],"parents":[2147483647],"right_children":[-1],"split_conditions":[-1.2218478E-4],"split_indices":[0],"split_type":[0],"sum_hessian":[6.681448E4],"tree_param":{"num_deleted":"0","num_feature":"20","num_nodes":"1","size_leaf_vector":"1"}},{"base_weights":[-0E0],"categories":[],"categories_nodes":[],"categories_segments":[],"categories_sizes":[],"default_left":[0],"id":63,"left_children":[-1],"loss_changes":[0E0],"parents":[2147483647],"right_children":[-1],"split_conditions":[-0E0],"split_indices":[0],"split_type":[0],"sum_hessian":[6.675633E4],"tree_param":{"num_deleted":"0","num_feature":"20","num_nodes":"1","size_leaf_vector":"1"}},{"base_weights":[-0E0],"categories":[],"categories_nodes":[],"categories_segments":[],"categories_sizes":[],"default_left":[0],"id":64,"left_children":[-1],"loss_changes":[0E0],"parents":[2147483647],"right_children":[-1],"split_conditions":[-0E0],"split_indices":[0],"split_type":[0],"sum_hessian":[6.679428E4],"tree_param":{"num_deleted":"0","num_feature":"20","num_nodes":"1","size_leaf_vector":"1"}},{"base_weights":[-0E0],"categories":[],"categories_nodes":[],"categories_segments":[],"categories_sizes":[],"default_left":[0],"id":65,"left_children":[-1],"loss_changes":[0E0],"parents":[2147483647],"right_children":[-1],"split_conditions":[-0E0],"split_indices":[0],"split_type":[0],"sum_hessian":[6.676556E4],"tree_param":{"num_deleted":"0","num_feature":"20","num_nodes":"1","size_leaf_vector":"1"}},{"base_weights":[-0E0],"categories":[],"categories_nodes":[],"categories_segments":[],"categories_sizes":[],"default_left":[0],"id":66,"left_children":[-1],"loss_changes":[0E0],"parents":[2147483647],"right_children":[-1],"split_conditions":[-0E0],"split_indices":[0],"split_type":[0],"sum_hessian":[6.682032E4],"tree_param":{"num_deleted":"0","num_feature":"20","num_nodes":"1","size_leaf_vector":"1"}},{"base_weights":[-2.4745612E-5],"categories":[],"categories_nodes":[],"categories_segments":[],"categories_sizes":[],"default_left":[0],"id":67,"left_children":[-1],"loss_changes":[0E0],"parents":[2147483647],"right_children":[-1],"split_conditions":[-8.253869E-6],"split_indices":[0],"split_type":[0],"sum_hessian":[6.681712E4],"tree_param":{"num_deleted":"0","num_feature":"20","num_nodes":"1","size_leaf_vector":"1"}},{"base_weights":[-0E0],"categories":[],"categories_nodes":[],"categories_segments":[],"categories_sizes":[],"default_left":[0],"id":68,"left_children":[-1],"loss_changes":[0E0],"parents":[2147483647],"right_children":[-1],"split_conditions":[-0E0],"split_indices":[0],"split_type":[0],"sum_hessian":[6.678677E4],"tree_param":{"num_deleted":"0","num_feature":"20","num_nodes":"1","size_leaf_vector":"1"}},{"base_weights":[-0E0],"categories":[],"categories_nodes":[],"categories_segments":[],"categories_sizes":[],"default_left":[0],"id":69,"left_children":[-1],"loss_changes":[0E0],"parents":[2147483647],"right_children":[-1],"split_conditions":[-0E0],"split_indices":[0],"split_type":[0],"sum_hessian":[6.6759195E4],"tree_param":{"num_deleted":"0","num_feature":"20","num_nodes":"1","size_leaf_vector":"1"}},{"base_weights":[-0E0],"categories":[],"categories_nodes":[],"categories_segments":[],"categories_sizes":[],"default_left":[0],"id":70,"left_children":[-1],"loss_changes":[0E0],"parents":[2147483647],"right_children":[-1],"split_conditions":[-0E0],"split_indices":[0],"split_type":[0],"sum_hessian":[6.6802125E4],"tree_param":{"num_deleted":"0","num_feature":"20","num_nodes":"1","size_leaf_vector":"1"}},{"base_weights":[-0E0],"categories":[],"categories_nodes":[],"categories_segments":[],"categories_sizes":[],"default_left":[0],"id":71,"left_children":[-1],"loss_changes":[0E0],"parents":[2147483647],"right_children":[-1],"split_conditions":[-0E0],"split_indices":[0],"split_type":[0],"sum_hessian":[6.680089E4],"tree_param":{"num_deleted":"0","num_feature":"20","num_nodes":"1","size_leaf_vector":"1"}},{"base_weights":[-0E0],"categories":[],"categories_nodes":[],"categories_segments":[],"categories_sizes":[],"default_left":[0],"id":72,"left_children":[-1],"loss_changes":[0E0],"parents":[2147483647],"right_children":[-1],"split_conditions":[-0E0],"split_indices":[0],"split_type":[0],"sum_hessian":[6.6782516E4],"tree_param":{"num_deleted":"0","num_feature":"20","num_nodes":"1","size_leaf_vector":"1"}},{"base_weights":[-0E0],"categories":[],"categories_nodes":[],"categories_segments":[],"categories_sizes":[],"default_left":[0],"id":73,"left_children":[-1],"loss_changes":[0E0],"parents":[2147483647],"right_children":[-1],"split_conditions":[-0E0],"split_indices":[0],"split_type":[0],"sum_hessian":[6.683575E4],"tree_param":{"num_deleted":"0","num_feature":"20","num_nodes":"1","size_leaf_vector":"1"}},{"base_weights":[-0E0],"categories":[],"categories_nodes":[],"categories_segments":[],"categories_sizes":[],"default_left":[0],"id":74,"left_children":[-1],"loss_changes":[0E0],"parents":[2147483647],"right_children":[-1],"split_conditions":[-0E0],"split_indices":[0],"split_type":[0],"sum_hessian":[6.682359E4],"tree_param":{"num_deleted":"0","num_feature":"20","num_nodes":"1","size_leaf_vector":"1"}},{"base_weights":[-0E0],"categories":[],"categories_nodes":[],"categories_segments":[],"categories_sizes":[],"default_left":[0],"id":75,"left_children":[-1],"loss_changes":[0E0],"parents":[2147483647],"right_children":[-1],"split_conditions":[-0E0],"split_indices":[0],"split_type":[0],"sum_hessian":[6.67953E4],"tree_param":{"num_deleted":"0","num_feature":"20","num_nodes":"1","size_leaf_vector":"1"}},{"base_weights":[-0E0],"categories":[],"categories_nodes":[],"categories_segments":[],"categories_sizes":[],"default_left":[0],"id":76,"left_children":[-1],"loss_changes":[0E0],"parents":[2147483647],"right_children":[-1],"split_conditions":[-0E0],"split_indices":[0],"split_type":[0],"sum_hessian":[6.678244E4],"tree_param":{"num_deleted":"0","num_feature":"20","num_nodes":"1","size_leaf_vector":"1"}},{"base_weights":[-0E0],"categories":[],"categories_nodes":[],"categories_segments":[],"categories_sizes":[],"default_left":[0],"id":77,"left_children":[-1],"loss_changes":[0E0],"parents":[2147483647],"right_children":[-1],"split_conditions":[-0E0],"split_indices":[0],"split_type":[0],"sum_hessian":[6.681335E4],"tree_param":{"num_deleted":"0","num_feature":"20","num_nodes":"1","size_leaf_vector":"1"}},{"base_weights":[-0E0],"categories":[],"categories_nodes":[],"categories_segments":[],"categories_sizes":[],"default_left":[0],"id":78,"left_children":[-1],"loss_changes":[0E0],"parents":[2147483647],"right_children":[-1],"split_conditions":[-0E0],"split_indices":[0],"split_type":[0],"sum_hessian":[6.678368E4],"tree_param":{"num_deleted":"0","num_feature":"20","num_nodes":"1","size_leaf_vector":"1"}},{"base_weights":[-0E0],"categories":[],"categories_nodes":[],"categories_segments":[],"categories_sizes":[],"default_left":[0],"id":79,"left_children":[-1],"loss_changes":[0E0],"parents":[2147483647],"right_children":[-1],"split_conditions":[-0E0],"split_indices":[0],"split_type":[0],"sum_hessian":[6.680906E4],"tree_param":{"num_deleted":"0","num_feature":"20","num_nodes":"1","size_leaf_vector":"1"}},{"base_weights":[-0E0],"categories":[],"categories_nodes":[],"categories_segments":[],"categories_sizes":[],"default_left":[0],"id":80,"left_children":[-1],"loss_changes":[0E0],"parents":[2147483647],"right_children":[-1],"split_conditions":[-0E0],"split_indices":[0],"split_type":[0],"sum_hessian":[6.679401E4],"tree_param":{"num_deleted":"0","num_feature":"20","num_nodes":"1","size_leaf_vector":"1"}},{"base_weights":[1.190783E-4],"categories":[],"categories_nodes":[],"categories_segments":[],"categories_sizes":[],"default_left":[0],"id":81,"left_children":[-1],"loss_changes":[0E0],"parents":[2147483647],"right_children":[-1],"split_conditions":[3.9718427E-5],"split_indices":[0],"split_type":[0],"sum_hessian":[6.682988E4],"tree_param":{"num_deleted":"0","num_feature":"20","num_nodes":"1","size_leaf_vector":"1"}},{"base_weights":[-0E0],"categories":[],"categories_nodes":[],"categories_segments":[],"categories_sizes":[],"default_left":[0],"id":82,"left_children":[-1],"loss_changes":[0E0],"parents":[2147483647],"right_children":[-1],"split_conditions":[-0E0],"split_indices":[0],"split_type":[0],"sum_hessian":[6.6836234E4],"tree_param":{"num_deleted":"0","num_feature":"20","num_nodes":"1","size_leaf_vector":"1"}},{"base_weights":[-0E0],"categories":[],"categories_nodes":[],"categories_segments":[],"categories_sizes":[],"default_left":[0],"id":83,"left_children":[-1],"loss_changes":[0E0],"parents":[2147483647],"right_children":[-1],"split_conditions":[-0E0],"split_indices":[0],"split_type":[0],"sum_hessian":[6.6792836E4],"tree_param":{"num_deleted":"0","num_feature":"20","num_nodes":"1","size_leaf_vector":"1"}},{"base_weights":[-0E0],"categories":[],"categories_nodes":[],"categories_segments":[],"categories_sizes":[],"default_left":[0],"id":84,"left_children":[-1],"loss_changes":[0E0],"parents":[2147483647],"right_children":[-1],"split_conditions":[-0E0],"split_indices":[0],"split_type":[0],"sum_hessian":[6.679599E4],"tree_param":{"num_deleted":"0","num_feature":"20","num_nodes":"1","size_leaf_vector":"1"}},{"base_weights":[-0E0],"categories":[],"categories_nodes":[],"categories_segments":[],"categories_sizes":[],"default_left":[0],"id":85,"left_children":[-1],"loss_changes":[0E0],"parents":[2147483647],"right_children":[-1],"split_conditions":[-0E0],"split_indices":[0],"split_type":[0],"sum_hessian":[6.6800055E4],"tree_param":{"num_deleted":"0","num_feature":"20","num_nodes":"1","size_leaf_vector":"1"}},{"base_weights":[-0E0],"categories":[],"categories_nodes":[],"categories_segments":[],"categories_sizes":[],"default_left":[0],"id":86,"left_children":[-1],"loss_changes":[0E0],"parents":[2147483647],"right_children":[-1],"split_conditions":[-0E0],"split_indices":[0],"split_type":[0],"sum_hessian":[6.6826016E4],"tree_param":{"num_deleted":"0","num_feature":"20","num_nodes":"1","size_leaf_vector":"1"}},{"base_weights":[-0E0],"categories":[],"categories_nodes":[],"categories_segments":[],"categories_sizes":[],"default_left":[0],"id":87,"left_children":[-1],"loss_changes":[0E0],"parents":[2147483647],"right_children":[-1],"split_conditions":[-0E0],"split_indices":[0],"split_type":[0],"sum_hessian":[6.6769414E4],"tree_param":{"num_deleted":"0","num_feature":"20","num_nodes":"1","size_leaf_vector":"1"}},{"base_weights":[-0E0],"categories":[],"categories_nodes":[],"categories_segments":[],"categories_sizes":[],"default_left":[0],"id":88,"left_children":[-1],"loss_changes":[0E0],"parents":[2147483647],"right_children":[-1],"split_conditions":[-0E0],"split_indices":[0],"split_type":[0],"sum_hessian":[6.679288E4],"tree_param":{"num_deleted":"0","num_feature":"20","num_nodes":"1","size_leaf_vector":"1"}},{"base_weights":[2.643128E-4],"categories":[],"categories_nodes":[],"categories_segments":[],"categories_sizes":[],"default_left":[0],"id":89,"left_children":[-1],"loss_changes":[0E0],"parents":[2147483647],"right_children":[-1],"split_conditions":[8.816122E-5],"split_indices":[0],"split_type":[0],"sum_hessian":[6.6807984E4],"tree_param":{"num_deleted":"0","num_feature":"20","num_nodes":"1","size_leaf_vector":"1"}},{"base_weights":[-2.8362398E-5],"categories":[],"categories_nodes":[],"categories_segments":[],"categories_sizes":[],"default_left":[0],"id":90,"left_children":[-1],"loss_changes":[0E0],"parents":[2147483647],"right_children":[-1],"split_conditions":[-9.460244E-6],"split_indices":[0],"split_type":[0],"sum_hessian":[6.680916E4],"tree_param":{"num_deleted":"0","num_feature":"20","num_nodes":"1","size_leaf_vector":"1"}},{"base_weights":[-3.1967543E-4,1.7942466E-3,-5.9273387E-3],"categories":[],"categories_nodes":[],"categories_segments":[],"categories_sizes":[],"default_left":[0,0,0],"id":91,"left_children":[1,-1,-1],"loss_changes":[7.2711186E0,0E0,0E0],"parents":[2147483647,0,0],"right_children":[2,-1,-1],"split_conditions":[1E0,1.7942466E-3,-5.9273387E-3],"split_indices":[6,0,0],"split_type":[0,0,0],"sum_hessian":[6.680454E4,4.8269996E4,1.853454E4],"tree_param":{"num_deleted":"0","num_feature":"20","num_nodes":"3","size_leaf_vector":"1"}},{"base_weights":[-0E0],"categories":[],"categories_nodes":[],"categories_segments":[],"categories_sizes":[],"default_left":[0],"id":92,"left_children":[-1],"loss_changes":[0E0],"parents":[2147483647],"right_children":[-1],"split_conditions":[-0E0],"split_indices":[0],"split_type":[0],"sum_hessian":[6.6742625E4],"tree_param":{"num_deleted":"0","num_feature":"20","num_nodes":"1","size_leaf_vector":"1"}},{"base_weights":[-0E0],"categories":[],"categories_nodes":[],"categories_segments":[],"categories_sizes":[],"default_left":[0],"id":93,"left_children":[-1],"loss_changes":[0E0],"parents":[2147483647],"right_children":[-1],"split_conditions":[-0E0],"split_indices":[0],"split_type":[0],"sum_hessian":[6.677793E4],"tree_param":{"num_deleted":"0","num_feature":"20","num_nodes":"1","size_leaf_vector":"1"}},{"base_weights":[5.9047993E-4],"categories":[],"categories_nodes":[],"categories_segments":[],"categories_sizes":[],"default_left":[0],"id":94,"left_children":[-1],"loss_changes":[0E0],"parents":[2147483647],"right_children":[-1],"split_conditions":[1.9695389E-4],"split_indices":[0],"split_type":[0],"sum_hessian":[6.68221E4],"tree_param":{"num_deleted":"0","num_feature":"20","num_nodes":"1","size_leaf_vector":"1"}},{"base_weights":[-0E0],"categories":[],"categories_nodes":[],"categories_segments":[],"categories_sizes":[],"default_left":[0],"id":95,"left_children":[-1],"loss_changes":[0E0],"parents":[2147483647],"right_children":[-1],"split_conditions":[-0E0],"split_indices":[0],"split_type":[0],"sum_hessian":[6.6778734E4],"tree_param":{"num_deleted":"0","num_feature":"20","num_nodes":"1","size_leaf_vector":"1"}},{"base_weights":[-0E0],"categories":[],"categories_nodes":[],"categories_segments":[],"categories_sizes":[],"default_left":[0],"id":96,"left_children":[-1],"loss_changes":[0E0],"parents":[2147483647],"right_children":[-1],"split_conditions":[-0E0],"split_indices":[0],"split_type":[0],"sum_hessian":[6.678672E4],"tree_param":{"num_deleted":"0","num_feature":"20","num_nodes":"1","size_leaf_vector":"1"}},{"base_weights":[-0E0],"categories":[],"categories_nodes":[],"categories_segments":[],"categories_sizes":[],"default_left":[0],"id":97,"left_children":[-1],"loss_changes":[0E0],"parents":[2147483647],"right_children":[-1],"split_conditions":[-0E0],"split_indices":[0],"split_type":[0],"sum_hessian":[6.681915E4],"tree_param":{"num_deleted":"0","num_feature":"20","num_nodes":"1","size_leaf_vector":"1"}},{"base_weights":[-0E0],"categories":[],"categories_nodes":[],"categories_segments":[],"categories_sizes":[],"default_left":[0],"id":98,"left_children":[-1],"loss_changes":[0E0],"parents":[2147483647],"right_children":[-1],"split_conditions":[-0E0],"split_indices":[0],"split_type":[0],"sum_hessian":[6.680289E4],"tree_param":{"num_deleted":"0","num_feature":"20","num_nodes":"1","size_leaf_vector":"1"}},{"base_weights":[-0E0],"categories":[],"categories_nodes":[],"categories_segments":[],"categories_sizes":[],"default_left":[0],"id":99,"left_children":[-1],"loss_changes":[0E0],"parents":[2147483647],"right_children":[-1],"split_conditions":[-0E0],"split_indices":[0],"split_type":[0],"sum_hessian":[6.679012E4],"tree_param":{"num_deleted":"0","num_feature":"20","num_nodes":"1","size_leaf_vector":"1"}}]},"name":"gbtree"},"learner_model_param":{"base_score":"5.0705636E-1","boost_from_average":"1","num_class":"0","num_feature":"20","num_target":"1"},"objective":{"name":"binary:logistic","reg_loss_param":{"scale_pos_weight":"1"}}},"version":[2,1,4]}