{"learner":{"attributes":{"scikit_learn":"{\"_estimator_type\": \"classifier\"}"},"feature_names":["pitcherHand_L","hitterHand_L","velo","velo_diff","HAA","HRA","VRA","extension","adj_x0","z0","z0_ratio","spin_rate","ssw","HB_acc","IVB_acc","Break_acc"],"feature_types":["int","int","float","float","float","float","float","float","float","float","float","float","float","float","float","float"],"gradient_booster":{"model":{"gbtree_model_param":{"num_parallel_tree":"1","num_trees":"1250"},"iteration_indptr":[0,5,10,15,20,25,30,35,40,45,50,55,60,65,70,75,80,85,90,95,100,105,110,115,120,125,130,135,140,145,150,155,160,165,170,175,180,185,190,195,200,205,210,215,220,225,230,235,240,245,250,255,260,265,270,275,280,285,290,295,300,305,310,315,320,325,330,335,340,345,350,355,360,365,370,375,380,385,390,395,400,405,410,415,420,425,430,435,440,445,450,455,460,465,470,475,480,485,490,495,500,505,510,515,520,525,530,535,540,545,550,555,560,565,570,575,580,585,590,595,600,605,610,615,620,625,630,635,640,645,650,655,660,665,670,675,680,685,690,695,700,705,710,715,720,725,730,735,740,745,750,755,760,765,770,775,780,785,790,795,800,805,810,815,820,825,830,835,840,845,850,855,860,865,870,875,880,885,890,895,900,905,910,915,920,925,930,935,940,945,950,955,960,965,970,975,980,985,990,995,1000,1005,1010,1015,1020,1025,1030,1035,1040,1045,1050,1055,1060,1065,1070,1075,1080,1085,1090,1095,1100,1105,1110,1115,1120,1125,1130,1135,1140,1145,1150,1155,1160,1165,1170,1175,1180,1185,1190,1195,1200,1205,1210,1215,1220,1225,1230,1235,1240,1245,1250],"tree_info":[0,1,2,3,4,0,1,2,3,4,0,1,2,3,4,0,1,2,3,4,0,1,2,3,4,0,1,2,3,4,0,1,2,3,4,0,1,2,3,4,0,1,2,3,4,0,1,2,3,4,0,1,2,3,4,0,1,2,3,4,0,1,2,3,4,0,1,2,3,4,0,1,2,3,4,0,1,2,3,4,0,1,2,3,4,0,1,2,3,4,0,1,2,3,4,0,1,2,3,4,0,1,2,3,4,0,1,2,3,4,0,1,2,3,4,0,1,2,3,4,0,1,2,3,4,0,1,2,3,4,0,1,2,3,4,0,1,2,3,4,0,1,2,3,4,0,1,2,3,4,0,1,2,3,4,0,1,2,3,4,0,1,2,3,4,0,1,2,3,4,0,1,2,3,4,0,1,2,3,4,0,1,2,3,4,0,1,2,3,4,0,1,2,3,4,0,1,2,3,4,0,1,2,3,4,0,1,2,3,4,0,1,2,3,4,0,1,2,3,4,0,1,2,3,4,0,1,2,3,4,0,1,2,3,4,0,1,2,3,4,0,1,2,3,4,0,1,2,3,4,0,1,2,3,4,0,1,2,3,4,0,1,2,3,4,0,1,2,3,4,0,1,2,3,4,0,1,2,3,4,0,1,2,3,4,0,1,2,3,4,0,1,2,3,4,0,1,2,3,4,0,1,2,3,4,0,1,2,3,4,0,1,2,3,4,0,1,2,3,4,0,1,2,3,4,0,1,2,3,4,0,1,2,3,4,0,1,2,3,4,0,1,2,3,4,0,1,2,3,4,0,1,2,3,4,0,1,2,3,4,0,1,2,3,4,0,1,2,3,4,0,1,2,3,4,0,1,2,3,4,0,1,2,3,4,0,1,2,3,4,0,1,2,3,4,0,1,2,3,4,0,1,2,3,4,0,1,2,3,4,0,1,2,3,4,0,1,2,3,4,0,1,2,3,4,0,1,2,3,4,0,1,2,3,4,0,1,2,3,4,0,1,2,3,4,0,1,2,3,4,0,1,2,3,4,0,1,2,3,4,0,1,2,3,4,0,1,2,3,4,0,1,2,3,4,0,1,2,3,4,0,1,2,3,4,0,1,2,3,4,0,1,2,3,4,0,1,2,3,4,0,1,2,3,4,0,1,2,3,4,0,1,2,3,4,0,1,2,3,4,0,1,2,3,4,0,1,2,3,4,0,1,2,3,4,0,1,2,3,4,0,1,2,3,4,0,1,2,3,4,0,1,2,3,4,0,1,2,3,4,0,1,2,3,4,0,1,2,3,4,0,1,2,3,4,0,1,2,3,4,0,1,2,3,4,0,1,2,3,4,0,1,2,3,4,0,1,2,3,4,0,1,2,3,4,0,1,2,3,4,0,1,2,3,4,0,1,2,3,4,0,1,2,3,4,0,1,2,3,4,0,1,2,3,4,0,1,2,3,4,0,1,2,3,4,0,1,2,3,4,0,1,2,3,4,0,1,2,3,4,0,1,2,3,4,0,1,2,3,4,0,1,2,3,4,0,1,2,3,4,0,1,2,3,4,0,1,2,3,4,0,1,2,3,4,0,1,2,3,4,0,1,2,3,4,0,1,2,3,4,0,1,2,3,4,0,1,2,3,4,0,1,2,3,4,0,1,2,3,4,0,1,2,3,4,0,1,2,3,4,0,1,2,3,4,0,1,2,3,4,0,1,2,3,4,0,1,2,3,4,0,1,2,3,4,0,1,2,3,4,0,1,2,3,4,0,1,2,3,4,0,1,2,3,4,0,1,2,3,4,0,1,2,3,4,0,1,2,3,4,0,1,2,3,4,0,1,2,3,4,0,1,2,3,4,0,1,2,3,4,0,1,2,3,4,0,1,2,3,4,0,1,2,3,4,0,1,2,3,4,0,1,2,3,4,0,1,2,3,4,0,1,2,3,4,0,1,2,3,4,0,1,2,3,4,0,1,2,3,4,0,1,2,3,4,0,1,2,3,4,0,1,2,3,4,0,1,2,3,4,0,1,2,3,4,0,1,2,3,4,0,1,2,3,4,0,1,2,3,4,0,1,2,3,4,0,1,2,3,4,0,1,2,3,4,0,1,2,3,4,0,1,2,3,4,0,1,2,3,4,0,1,2,3,4,0,1,2,3,4,0,1,2,3,4,0,1,2,3,4,0,1,2,3,4,0,1,2,3,4,0,1,2,3,4,0,1,2,3,4,0,1,2,3,4,0,1,2,3,4,0,1,2,3,4,0,1,2,3,4,0,1,2,3,4,0,1,2,3,4,0,1,2,3,4,0,1,2,3,4,0,1,2,3,4,0,1,2,3,4,0,1,2,3,4,0,1,2,3,4,0,1,2,3,4,0,1,2,3,4,0,1,2,3,4,0,1,2,3,4,0,1,2,3,4,0,1,2,3,4,0,1,2,3,4,0,1,2,3,4,0,1,2,3,4,0,1,2,3,4,0,1,2,3,4,0,1,2,3,4,0,1,2,3,4,0,1,2,3,4,0,1,2,3,4,0,1,2,3,4,0,1,2,3,4,0,1,2,3,4,0,1,2,3,4,0,1,2,3,4,0,1,2,3,4,0,1,2,3,4,0,1,2,3,4,0,1,2,3,4,0,1,2,3,4,0,1,2,3,4,0,1,2,3,4,0,1,2,3,4,0,1,2,3,4,0,1,2,3,4,0,1,2,3,4,0,1,2,3,4,0,1,2,3,4,0,1,2,3,4,0,1,2,3,4,0,1,2,3,4,0,1,2,3,4,0,1,2,3,4,0,1,2,3,4,0,1,2,3,4,0,1,2,3,4,0,1,2,3,4],"trees":[{"base_weights":[1.0601916E0,1.2903432E0,9.615712E-1,9.5619276E-2,7.73557E-2,1.0559078E0,8.2736236E-1,6.0616408E-2,1.2007016E0,4.4010118E-2,9.7766757E-1,1.0276296E0,1.3466076E0,9.0901926E-2,5.19427E-2,-0E0,6.6323325E-2,1.0168549E0,1.0093063E-1,6.8743646E-2,-0E0],"categories":[],"categories_nodes":[],"categories_segments":[],"categories_sizes":[],"default_left":[0,0,0,0,0,1,0,0,0,0,0,0,0,0,0,0,0,0,0,0,0],"id":0,"left_children":[1,3,5,-1,-1,7,9,-1,11,-1,13,15,17,-1,-1,-1,-1,19,-1,-1,-1],"loss_changes":[2.4813574E2,1.0258301E1,8.0131836E1,0E0,0E0,3.93291E1,4.808008E1,0E0,9.953613E0,0E0,8.617822E1,4.2442627E0,3.732715E1,0E0,0E0,0E0,0E0,2.6196777E1,0E0,0E0,0E0],"parents":[2147483647,0,0,1,1,2,2,5,5,6,6,8,8,10,10,11,11,12,12,17,17],"right_children":[2,4,6,-1,-1,8,10,-1,12,-1,14,16,18,-1,-1,-1,-1,20,-1,-1,-1],"split_conditions":[-1.5380547E0,-2.3389168E0,2.709709E0,9.5619276E-2,7.73557E-2,7.2996956E1,2.1118565E0,6.0616408E-2,-2.4995644E0,4.4010118E-2,5.87656E-1,1.0723988E0,1.2237628E0,9.0901926E-2,5.19427E-2,-0E0,6.6323325E-2,2.574962E0,1.0093063E-1,6.8743646E-2,-0E0],"split_indices":[6,6,5,0,0,13,8,0,5,0,4,8,8,0,0,0,0,5,0,0,0],"split_type":[0,0,0,0,0,0,0,0,0,0,0,0,0,0,0,0,0,0,0,0,0],"sum_hessian":[1.2704641E4,3.7513604E3,8.95328E3,9.1232007E2,2.8390403E3,5.1750405E3,3.7782402E3,3.0934402E3,2.0816E3,2.0486401E3,1.7296001E3,1.01344006E3,1.06816E3,4.2464005E2,1.3049601E3,2.3680002E1,9.897601E2,4.8352002E2,5.8464E2,4.5088004E2,3.2640003E1],"tree_param":{"num_deleted":"0","num_feature":"16","num_nodes":"21","size_leaf_vector":"1"}},{"base_weights":[-2.0528184E-1,-1.4412062E-2,-1.6900462E-1,-0E0,-1.0881135E-2],"categories":[],"categories_nodes":[],"categories_segments":[],"categories_sizes":[],"default_left":[0,0,0,0,0],"id":1,"left_children":[1,-1,3,-1,-1],"loss_changes":[3.05542E0,0E0,2.4266968E0,0E0,0E0],"parents":[2147483647,0,0,2,2],"right_children":[2,-1,4,-1,-1],"split_conditions":[-8.1103194E-1,-1.4412062E-2,3.5598123E-1,-0E0,-1.0881135E-2],"split_indices":[6,0,8,0,0],"split_type":[0,0,0,0,0],"sum_hessian":[1.259648E4,7.6668804E3,4.9296006E3,2.7520002E1,4.9020806E3],"tree_param":{"num_deleted":"0","num_feature":"16","num_nodes":"5","size_leaf_vector":"1"}},{"base_weights":[-1.9817986E-1,-1.6746612E-1,-2.2548397E-1,-1.10113285E-1,-1.9333519E-1,-1.4406331E-2,-0E0,-0E0,-1.2609786E-1,-0E0,-1.9450939E-1,-1.8039276E-1,-6.52238E-2,-0E0,-1.9554928E-1,-0E0,-1.9687644E-1,-0E0,-8.598171E-2,-0E0,-1.2546944E-2,-2.139028E-1,-0E0,-1.1156595E-1,-0E0,-1.4282569E-2,-0E0,-8.069438E-3,-0E0],"categories":[],"categories_nodes":[],"categories_segments":[],"categories_sizes":[],"default_left":[1,0,0,0,0,0,0,0,0,0,1,0,0,0,1,0,0,0,1,0,0,0,0,0,0,0,0,0,0],"id":2,"left_children":[1,3,5,7,9,-1,-1,-1,11,-1,13,15,17,-1,19,-1,21,-1,23,-1,-1,25,-1,27,-1,-1,-1,-1,-1],"loss_changes":[4.092621E0,4.2596436E0,1.1506958E0,3.4853077E0,1.2463074E0,0E0,0E0,0E0,2.0828495E0,0E0,1.0644684E0,1.9439602E0,1.282928E0,0E0,8.8427734E-1,0E0,1.5885181E0,0E0,1.0306005E0,0E0,0E0,1.4634533E0,0E0,1.0097904E0,0E0,0E0,0E0,0E0,0E0],"parents":[2147483647,0,0,1,1,2,2,3,3,4,4,8,8,10,10,11,11,12,12,14,14,16,16,18,18,21,21,23,23],"right_children":[2,4,6,8,10,-1,-1,-1,12,-1,14,16,18,-1,20,-1,22,-1,24,-1,-1,26,-1,28,-1,-1,-1,-1,-1],"split_conditions":[7.204574E1,1.3209465E1,3.764562E0,5.9645243E0,5.33856E0,-1.4406331E-2,-0E0,-0E0,1E0,-0E0,4.98E2,-1.6528711E0,6.2977324E0,-0E0,5.8994646E0,-0E0,1.952E3,-0E0,3.1464155E0,-0E0,-1.2546944E-2,7.067682E1,-0E0,2.1625133E0,-0E0,-1.4282569E-2,-0E0,-8.069438E-3,-0E0],"split_indices":[13,14,8,7,7,0,0,0,1,0,11,4,7,0,13,0,11,0,5,0,0,13,0,8,0,0,0,0,0],"split_type":[0,0,0,0,0,0,0,0,0,0,0,0,0,0,0,0,0,0,0,0,0,0,0,0,0,0,0,0,0],"sum_hessian":[1.2693761E4,6.2659204E3,6.4278403E3,2.1494402E3,4.1164805E3,6.4035205E3,2.4320002E1,2.9184003E2,1.8576001E3,1.6640001E1,4.0998403E3,8.3648004E2,1.02112006E3,1.5680001E1,4.0841604E3,8.448E1,7.5200006E2,2.6112003E2,7.6000006E2,4.1280003E1,4.0428804E3,6.7136005E2,8.064001E1,5.3312006E2,2.2688002E2,6.3904004E2,3.2320004E1,4.7520004E2,5.7920006E1],"tree_param":{"num_deleted":"0","num_feature":"16","num_nodes":"29","size_leaf_vector":"1"}},{"base_weights":[-2.5375906E-1,-3.1757647E-1,-2.1750197E-1,-0E0,-2.0291708E-2,-2.6377392E-1,-1.7363672E-1,-1.9345847E-1,-3.36575E-1,-1.8375576E-2,-1.4005554E-1,-1.985742E-1,-0E0,-2.1696007E-2,-0E0,-9.038633E-3,-0E0,-2.0470002E-1,-0E0,-1.3167602E-2,-0E0],"categories":[],"categories_nodes":[],"categories_segments":[],"categories_sizes":[],"default_left":[0,0,0,0,0,0,1,0,1,0,0,0,0,0,0,0,0,1,0,0,0],"id":3,"left_children":[1,3,5,-1,-1,7,9,11,13,-1,15,17,-1,-1,-1,-1,-1,19,-1,-1,-1],"loss_changes":[2.0222046E1,1.4021912E0,9.375305E0,0E0,0E0,1.0636017E1,9.881439E0,3.3495865E0,1.9629211E0,0E0,1.6647644E0,8.034973E-1,0E0,0E0,0E0,0E0,0E0,8.119507E-1,0E0,0E0,0E0],"parents":[2147483647,0,0,1,1,2,2,5,5,6,6,7,7,8,8,10,10,11,11,17,17],"right_children":[2,4,6,-1,-1,8,10,12,14,-1,16,18,-1,-1,-1,-1,-1,20,-1,-1,-1],"split_conditions":[-1.405911E0,5.8994646E0,8.56081E-2,-0E0,-2.0291708E-2,1E0,1.7230605E0,5.2549805E1,4.5463367E1,-1.8375576E-2,3.5134265E2,1.4588236E0,-0E0,-2.1696007E-2,-0E0,-9.038633E-3,-0E0,3.3170362E0,-0E0,-1.3167602E-2,-0E0],"split_indices":[6,13,4,0,0,1,5,12,12,0,12,3,0,0,0,0,0,5,0,0,0],"split_type":[0,0,0,0,0,0,0,0,0,0,0,0,0,0,0,0,0,0,0,0,0],"sum_hessian":[1.2614721E4,4.39872E3,8.216001E3,1.8880001E1,4.3798403E3,3.8096003E3,4.4064004E3,2.0576E3,1.7520001E3,8.806401E2,3.5257603E3,2.0377601E3,1.9840002E1,1.7254401E3,2.6560001E1,3.5129602E3,1.2800001E1,1.9366401E3,1.0112001E2,1.9155201E3,2.112E1],"tree_param":{"num_deleted":"0","num_feature":"16","num_nodes":"21","size_leaf_vector":"1"}},{"base_weights":[-4.003108E-1,-2.8632188E-2,-2.3716701E-2],"categories":[],"categories_nodes":[],"categories_segments":[],"categories_sizes":[],"default_left":[0,0,0],"id":4,"left_children":[1,-1,-1],"loss_changes":[3.458252E0,0E0,0E0],"parents":[2147483647,0,0],"right_children":[2,-1,-1],"split_conditions":[-1.424359E0,-2.8632188E-2,-2.3716701E-2],"split_indices":[6,0,0],"split_type":[0,0,0],"sum_hessian":[1.2681921E4,4.3296E3,8.35232E3],"tree_param":{"num_deleted":"0","num_feature":"16","num_nodes":"3","size_leaf_vector":"1"}},{"base_weights":[9.6650356E-1,1.1033934E0,8.4599143E-1,1.2635611E0,1.0303448E0,9.228858E-1,7.459809E-1,8.159247E-2,3.6259422E-1,1.1251918E0,5.7630803E-2,7.4657416E-1,9.9035066E-1,6.9932055E-1,6.286418E-2,-0E0,2.9348183E-2,7.183266E-2,-0E0,9.0130985E-1,5.5702025E-1,5.027655E-2,7.093274E-2,5.133875E-2,5.916784E-1,5.978896E-2,-0E0,-0E0,5.849665E-1,3.7903294E-2,-0E0,3.794954E-2,-0E0],"categories":[],"categories_nodes":[],"categories_segments":[],"categories_sizes":[],"default_left":[0,0,0,0,0,1,1,0,0,0,0,0,0,0,0,0,0,0,0,0,0,0,0,0,0,0,0,0,0,0,0,0,0],"id":5,"left_children":[1,3,5,7,9,11,13,-1,15,17,-1,19,21,23,-1,-1,-1,-1,-1,25,27,-1,-1,-1,29,-1,-1,-1,31,-1,-1,-1,-1],"loss_changes":[1.8550781E2,3.1064453E1,2.5878418E1,2.0598145E0,1.5203613E1,1.6465576E1,6.773926E0,0E0,1.6777759E0,9.099121E-1,0E0,9.052063E0,3.5479736E1,7.679077E0,0E0,0E0,0E0,0E0,0E0,7.458069E0,3.3224182E0,0E0,0E0,0E0,2.0473633E0,0E0,0E0,0E0,1.0219269E0,0E0,0E0,0E0,0E0],"parents":[2147483647,0,0,1,1,2,2,3,3,4,4,5,5,6,6,8,8,9,9,11,11,12,12,13,13,19,19,20,20,24,24,28,28],"right_children":[2,4,6,8,10,12,14,-1,16,18,-1,20,22,24,-1,-1,-1,-1,-1,26,28,-1,-1,-1,30,-1,-1,-1,32,-1,-1,-1,-1],"split_conditions":[-1.1483465E0,-2.0132396E0,2.5896094E0,9.3E1,8.68E1,6.1558094E1,9.337903E1,8.159247E-2,7.9712265E1,6.7373166E0,5.7630803E-2,8.39E1,-2.8912969E0,8.58E1,6.286418E-2,-0E0,2.9348183E-2,7.183266E-2,-0E0,1.2847826E0,-3.0168047E0,5.027655E-2,7.093274E-2,5.133875E-2,6.2118983E0,5.978896E-2,-0E0,-0E0,6.081745E1,3.7903294E-2,-0E0,3.794954E-2,-0E0],"split_indices":[6,6,5,2,2,15,13,0,13,9,0,2,5,2,0,0,0,0,0,3,5,0,0,0,9,0,0,0,15,0,0,0,0],"split_type":[0,0,0,0,0,0,0,0,0,0,0,0,0,0,0,0,0,0,0,0,0,0,0,0,0,0,0,0,0,0,0,0,0],"sum_hessian":[1.3333778E4,6.1687256E3,7.1650527E3,1.8481737E3,4.3205522E3,3.9454338E3,3.2196187E3,1.7926592E3,5.551455E1,2.3699639E3,1.9505881E3,1.1681555E3,2.7772783E3,2.764049E3,4.555695E2,1.4296499E1,4.1218052E1,2.357132E3,1.2831752E1,5.899389E2,5.782166E2,1.1188248E3,1.6584535E3,1.3000122E3,1.464037E3,5.5151605E2,3.8422855E1,4.4466637E1,5.3375E2,1.4514264E3,1.2610611E1,5.1669116E2,1.70588E1],"tree_param":{"num_deleted":"0","num_feature":"16","num_nodes":"33","size_leaf_vector":"1"}},{"base_weights":[-1.9669491E-1,-2.2148016E-1,-1.6677216E-1,-2.2344185E-1,-0E0,-0E0,-1.7158516E-1,-1.4268746E-2,-0E0,-0E0,-1.7437954E-1,-0E0,-1.7592964E-1,-1.125648E-2,-0E0],"categories":[],"categories_nodes":[],"categories_segments":[],"categories_sizes":[],"default_left":[0,1,1,0,0,0,1,0,0,0,0,0,0,0,0],"id":6,"left_children":[1,3,5,7,-1,-1,9,-1,-1,-1,11,-1,13,-1,-1],"loss_changes":[2.8048706E0,1.8044434E0,3.7258759E0,1.1011963E0,0E0,0E0,3.4922485E0,0E0,0E0,0E0,2.1219177E0,0E0,9.6461487E-1,0E0,0E0],"parents":[2147483647,0,0,1,1,2,2,3,3,6,6,10,10,12,12],"right_children":[2,4,6,8,-1,-1,10,-1,-1,-1,12,-1,14,-1,-1],"split_conditions":[-1.011019E0,4.370939E1,8.11E2,7.6412773E0,-0E0,-0E0,-1.74E1,-1.4268746E-2,-0E0,-0E0,3.5598123E-1,-0E0,7.6412773E0,-1.125648E-2,-0E0],"split_indices":[6,12,11,7,0,0,3,0,0,0,8,0,7,0,0],"split_type":[0,0,0,0,0,0,0,0,0,0,0,0,0,0,0],"sum_hessian":[1.2510451E4,6.533093E3,5.9773584E3,6.4549785E3,7.81146E1,2.0422432E2,5.773134E3,6.436304E3,1.8674147E1,6.8782425E1,5.7043516E3,3.1568478E1,5.672783E3,5.646124E3,2.665889E1],"tree_param":{"num_deleted":"0","num_feature":"16","num_nodes":"15","size_leaf_vector":"1"}},{"base_weights":[-1.8723418E-1,-1.6724004E-1,-2.3776224E-1,-0E0,-1.6939256E-1,-0E0,-1.530807E-2,-0E0,-1.084027E-2],"categories":[],"categories_nodes":[],"categories_segments":[],"categories_sizes":[],"default_left":[1,1,1,0,0,0,0,0,0],"id":7,"left_children":[1,3,5,-1,7,-1,-1,-1,-1],"loss_changes":[5.8978577E0,3.8285217E0,3.2345886E0,0E0,1.512085E0,0E0,0E0,0E0,0E0],"parents":[2147483647,0,0,1,1,2,2,4,4],"right_children":[2,4,6,-1,8,-1,-1,-1,-1],"split_conditions":[9.081859E1,5.8994646E0,-2.5950087E1,-0E0,5.164864E0,-0E0,-1.530807E-2,-0E0,-1.084027E-2],"split_indices":[15,13,12,0,7,0,0,0,0],"split_type":[0,0,0,0,0,0,0,0,0],"sum_hessian":[1.2524651E4,9.21484E3,3.3098115E3,9.934293E1,9.115497E3,1.8356153E1,3.2914556E3,4.3667625E1,9.071829E3],"tree_param":{"num_deleted":"0","num_feature":"16","num_nodes":"9","size_leaf_vector":"1"}},{"base_weights":[-2.4444935E-1,-3.3234757E-1,-2.1589701E-1,-2.1650651E-2,-1.7791855E-3,-2.4259323E-1,-1.632104E-1,-1.8680726E-1,-2.9258493E-1,-2.0846486E-1,-1.162926E-1,-0E0,-1.8995802E-1,-2.4952446E-1,-2.4342528E-2,-0E0,-2.1215689E-1,-1.5218721E-1,-1.2994294E-4,-1.2187049E-2,-0E0,-3.1826448E-1,-1.0506336E-1,-2.1635947E-1,-0E0,-1.581952E-1,-0E0,-2.0536033E-2,-0E0,-1.4364478E-1,-0E0,-0E0,-1.3915004E-2,-0E0,-1.6207913E-1,-1.5350981E-1,-0E0,-0E0,-1.6638762E-1,-0E0,-1.0286095E-2,-1.772625E-1,-0E0,-1.825029E-1,-0E0,-0E0,-1.2628337E-2],"categories":[],"categories_nodes":[],"categories_segments":[],"categories_sizes":[],"default_left":[0,0,0,0,0,0,0,1,0,0,1,0,1,0,0,0,1,0,0,0,0,0,0,0,0,1,0,0,0,1,0,0,0,0,1,0,0,0,1,0,0,1,0,0,0,0,0],"id":8,"left_children":[1,3,5,-1,-1,7,9,11,13,15,17,-1,19,21,-1,-1,23,25,-1,-1,-1,27,29,31,-1,33,-1,-1,-1,35,-1,-1,-1,-1,37,39,-1,-1,41,-1,-1,43,-1,45,-1,-1,-1],"loss_changes":[2.2207031E1,8.3325195E-1,6.7226257E0,0E0,0E0,9.145081E0,1.9079285E0,2.9513168E0,1.3011475E0,1.868103E0,5.150385E0,0E0,1.1846695E0,1.4974747E1,0E0,0E0,1.1416321E0,1.7496643E0,0E0,0E0,0E0,1.2347565E0,4.6961994E0,8.13324E-1,0E0,1.2608337E0,0E0,0E0,0E0,1.3853636E0,0E0,0E0,0E0,0E0,8.6499023E-1,1.1008282E0,0E0,0E0,1.0804443E0,0E0,0E0,1.4398422E0,0E0,9.1464996E-1,0E0,0E0,0E0],"parents":[2147483647,0,0,1,1,2,2,5,5,6,6,7,7,8,8,9,9,10,10,12,12,13,13,16,16,17,17,21,21,22,22,23,23,25,25,29,29,34,34,35,35,38,38,41,41,43,43],"right_children":[2,4,6,-1,-1,8,10,12,14,16,18,-1,20,22,-1,-1,24,26,-1,-1,-1,28,30,32,-1,34,-1,-1,-1,36,-1,-1,-1,-1,38,40,-1,-1,42,-1,-1,44,-1,46,-1,-1,-1],"split_conditions":[-1.6953683E0,9.23E1,5.393526E-1,-2.1650651E-2,-1.7791855E-3,1E0,8.57E1,-1.6837018E0,1.8359371E0,-6.0300755E1,-4.9254394E-1,-0E0,5.2549805E1,-1.0595835E-1,-2.4342528E-2,-0E0,2.2792454E0,6.1660454E1,-1.2994294E-4,-1.2187049E-2,-0E0,2.7E0,8.89E1,5.17528E-1,-0E0,-1.8259459E1,-0E0,-2.0536033E-2,-0E0,2.235E3,-0E0,-0E0,-1.3915004E-2,-0E0,9.07E2,5.7000527E0,-0E0,-0E0,3.477777E1,-0E0,-1.0286095E-2,7.3148413E0,-0E0,3.4215444E-1,-0E0,-0E0,-1.2628337E-2],"split_indices":[6,2,4,0,0,1,2,6,8,12,6,0,12,4,0,0,3,14,0,0,0,3,2,8,0,3,0,0,0,11,0,0,0,0,11,7,0,0,12,0,0,7,0,12,0,0,0],"split_type":[0,0,0,0,0,0,0,0,0,0,0,0,0,0,0,0,0,0,0,0,0,0,0,0,0,0,0,0,0,0,0,0,0,0,0,0,0,0,0,0,0,0,0,0,0,0,0],"sum_hessian":[1.2509997E4,2.919319E3,9.590678E3,2.7938064E3,1.2551277E2,6.152085E3,3.438593E3,3.0687788E3,3.0833064E3,1.5674595E3,1.8711337E3,1.9254358E1,3.0495244E3,2.214494E3,8.688124E2,1.2668212E1,1.5547913E3,1.3137448E3,5.5738885E2,3.0345825E3,1.49419775E1,1.4212904E3,7.932037E2,1.5192627E3,3.5528526E1,1.2855684E3,2.817642E1,1.3951375E3,2.6152967E1,6.506937E2,1.4250992E2,1.3886893E1,1.5053757E3,1.3004704E1,1.2725636E3,6.2820715E2,2.2486614E1,3.394264E1,1.238621E3,1.9310652E1,6.088965E2,1.125375E3,1.1324602E2,1.1047532E3,2.062179E1,1.4690993E2,9.5784326E2],"tree_param":{"num_deleted":"0","num_feature":"16","num_nodes":"47","size_leaf_vector":"1"}},{"base_weights":[-3.899604E-1,-2.777571E-2,-3.64231E-1,-2.324432E-2,-0E0],"categories":[],"categories_nodes":[],"categories_segments":[],"categories_sizes":[],"default_left":[0,0,1,0,0],"id":9,"left_children":[1,-1,3,-1,-1],"loss_changes":[1.3088379E0,0E0,1.1096191E0,0E0,0E0],"parents":[2147483647,0,0,2,2],"right_children":[2,-1,4,-1,-1],"split_conditions":[-1.424359E0,-2.777571E-2,6.133333E0,-2.324432E-2,-0E0],"split_indices":[6,0,3,0,0],"split_type":[0,0,0,0,0],"sum_hessian":[1.247078E4,4.2074995E3,8.26328E3,8.230293E3,3.2987553E1],"tree_param":{"num_deleted":"0","num_feature":"16","num_nodes":"5","size_leaf_vector":"1"}},{"base_weights":[8.883765E-1,9.590442E-1,7.8029674E-1,8.45345E-1,1.0532413E0,6.8941045E-1,8.919495E-1,6.651492E-2,7.827225E-1,7.9641026E-1,1.1035918E0,-0E0,4.4144254E-2,1.0159255E0,4.9057327E-2,3.17545E-2,8.278424E-1,8.1233644E-1,-0E0,9.55735E-1,1.2476577E0,4.933323E-2,7.683148E-2,-0E0,8.320497E-1,-0E0,5.267142E-2,1.0406024E0,5.874227E-1,1.0037074E-2,1.2604563E0,4.9277388E-2,6.7767896E-2,-0E0,6.6714734E-2,6.170018E-1,-0E0,1.0270349E0,8.763809E-2,-0E0,6.3347006E-1,-0E0,6.7029014E-2,-0E0,4.2289082E-2],"categories":[],"categories_nodes":[],"categories_segments":[],"categories_sizes":[],"default_left":[0,1,0,0,0,0,1,0,0,0,0,0,0,0,0,0,0,0,0,0,0,0,0,0,0,0,0,0,0,0,0,0,0,0,0,0,0,0,0,0,0,0,0,0,0],"id":10,"left_children":[1,3,5,7,9,11,13,-1,15,17,19,-1,-1,21,-1,-1,23,25,-1,27,29,-1,-1,-1,31,-1,-1,33,35,-1,37,-1,-1,-1,-1,39,-1,41,-1,-1,43,-1,-1,-1,-1],"loss_changes":[7.558789E1,5.533838E1,2.9223633E1,1.5951416E1,2.3990234E1,3.8006592E0,5.01355E0,0E0,1.5614136E1,6.9003296E0,3.8591797E1,0E0,0E0,1.6646729E1,0E0,0E0,4.753174E0,3.9336853E0,0E0,3.020105E1,1.1303711E0,0E0,0E0,0E0,1.5770264E0,0E0,0E0,6.779419E0,4.784897E0,0E0,4.3132324E0,0E0,0E0,0E0,0E0,2.247818E0,0E0,9.324524E0,0E0,0E0,2.1639252E0,0E0,0E0,0E0,0E0],"parents":[2147483647,0,0,1,1,2,2,3,3,4,4,5,5,6,6,8,8,9,9,10,10,13,13,16,16,17,17,19,19,20,20,24,24,27,27,28,28,30,30,35,35,37,37,40,40],"right_children":[2,4,6,8,10,12,14,-1,16,18,20,-1,-1,22,-1,-1,24,26,-1,28,30,-1,-1,-1,32,-1,-1,34,36,-1,38,-1,-1,-1,-1,40,-1,42,-1,-1,44,-1,-1,-1,-1],"split_conditions":[2.725432E0,7.598634E1,2.0973973E0,8.16E1,-3.557393E0,4.6292896E0,3.7360024E0,6.651492E-2,-3.0168047E0,3.0174784E1,1.3499703E0,-0E0,4.4144254E-2,7.028687E1,4.9057327E-2,3.17545E-2,-6.0300755E1,1.33E3,-0E0,2.3330612E0,4.4751945E1,4.933323E-2,7.683148E-2,-0E0,1.874802E0,-0E0,5.267142E-2,-3.3226256E0,9.2E1,1.0037074E-2,-2.7695916E0,4.9277388E-2,6.7767896E-2,-0E0,6.6714734E-2,4.965839E0,-0E0,4.7866173E0,8.763809E-2,-0E0,7.560697E-1,-0E0,6.7029014E-2,-0E0,4.2289082E-2],"split_indices":[5,15,8,2,5,9,5,0,5,12,8,0,0,13,0,0,12,11,0,5,13,0,0,0,8,0,0,5,2,0,5,0,0,0,0,9,0,9,0,0,8,0,0,0,0],"split_type":[0,0,0,0,0,0,0,0,0,0,0,0,0,0,0,0,0,0,0,0,0,0,0,0,0,0,0,0,0,0,0,0,0,0,0,0,0,0,0,0,0,0,0,0,0],"sum_hessian":[1.3895049E4,8.297092E3,5.597957E3,3.8504111E3,4.4466807E3,3.1775774E3,2.42038E3,8.471363E2,3.0032747E3,7.8966534E2,3.6570154E3,2.9141705E1,3.1484358E3,1.1203643E3,1.3000155E3,4.6618408E2,2.5370906E3,7.6935895E2,2.0306364E1,1.8710513E3,1.7859641E3,5.394026E2,5.809617E2,1.875419E1,2.5183364E3,2.2134623E1,7.4722437E2,1.4804668E3,3.9058444E2,3.6033E1,1.7499312E3,2.08166E3,4.3667657E2,1.4748417E1,1.4657184E3,3.6635284E2,2.423158E1,6.3744006E2,1.1124911E3,1.3335468E1,3.530174E2,2.271889E1,6.147212E2,2.7362167E1,3.256552E2],"tree_param":{"num_deleted":"0","num_feature":"16","num_nodes":"45","size_leaf_vector":"1"}},{"base_weights":[-1.9362661E-1,-0E0,-1.2415101E-2],"categories":[],"categories_nodes":[],"categories_segments":[],"categories_sizes":[],"default_left":[1,0,0],"id":11,"left_children":[1,-1,-1],"loss_changes":[1.254364E0,0E0,0E0],"parents":[2147483647,0,0],"right_children":[2,-1,-1],"split_conditions":[-4.1619392E1,-0E0,-1.2415101E-2],"split_indices":[12,0,0],"split_type":[0,0,0],"sum_hessian":[1.2390644E4,1.4455803E2,1.2246086E4],"tree_param":{"num_deleted":"0","num_feature":"16","num_nodes":"3","size_leaf_vector":"1"}},{"base_weights":[-1.8238877E-1,-2.319851E-1,-1.3813363E-1,-2.3453814E-1,-0E0,-0E0,-1.4186834E-1,-1.9263305E-1,-2.719537E-1,-1.7894411E-1,-1.0904363E-1,-0E0,-1.2351025E-2,-0E0,-1.7442359E-2,-1.8206406E-1,-0E0,-6.575127E-2,-1.5430403E-1,-0E0,-1.8552715E-1,-1.1026197E-1,-1.2290288E-2,-0E0,-1.618784E-1,-0E0,-1.1926007E-2,-0E0,-1.3063392E-1,-5.2687246E-2,1.771725E-3,-1.6509618E-1,-0E0,-1.4063227E-1,-0E0,-7.5980425E-2,-0E0,7.414308E-2,-1.6556555E-4,-0E0,-1.070074E-2,-0E0,-9.25609E-3,-6.1525125E-3,-0E0,1.12324595E-1,-0E0,-0E0,8.959326E-3],"categories":[],"categories_nodes":[],"categories_segments":[],"categories_sizes":[],"default_left":[0,0,1,1,0,0,0,0,0,0,0,0,0,0,0,1,0,1,1,0,0,1,0,0,1,0,0,0,0,0,0,0,0,0,0,0,0,0,0,0,0,0,0,0,0,0,0,0,0],"id":12,"left_children":[1,3,5,7,-1,-1,9,11,13,15,17,-1,-1,-1,-1,19,-1,21,23,-1,25,27,29,-1,31,-1,-1,-1,33,35,37,39,-1,41,-1,43,-1,45,-1,-1,-1,-1,-1,-1,-1,47,-1,-1,-1],"loss_changes":[2.1119171E1,2.2839966E0,3.2139587E0,1.0116882E0,0E0,0E0,3.2007904E0,1.0034103E0,1.4715271E0,1.9106598E0,3.649601E0,0E0,0E0,0E0,0E0,1.3344955E0,0E0,2.9614744E0,1.9292717E0,0E0,1.206459E0,3.0351E0,1.473384E0,0E0,1.2787781E0,0E0,0E0,0E0,1.6930904E0,1.3457814E0,1.3441359E0,1.0830536E0,0E0,8.7664795E-1,0E0,1.3241031E0,0E0,1.0992014E0,0E0,0E0,0E0,0E0,0E0,0E0,0E0,8.8614345E-1,0E0,0E0,0E0],"parents":[2147483647,0,0,1,1,2,2,3,3,6,6,7,7,8,8,9,9,10,10,15,15,17,17,18,18,20,20,21,21,22,22,24,24,28,28,29,29,30,30,31,31,33,33,35,35,37,37,45,45],"right_children":[2,4,6,8,-1,-1,10,12,14,16,18,-1,-1,-1,-1,20,-1,22,24,-1,26,28,30,-1,32,-1,-1,-1,34,36,38,40,-1,42,-1,44,-1,46,-1,-1,-1,-1,-1,-1,-1,48,-1,-1,-1],"split_conditions":[-1.1570144E0,9.35E1,3.0035707E1,1.734E3,-0E0,-0E0,8.48E1,5.0142975E0,2.6884452E-1,3.764562E0,8.01219E1,-0E0,-1.2351025E-2,-0E0,-1.7442359E-2,7.26E2,-0E0,1.544E3,-1.4358334E1,-0E0,-1.8259459E1,-1.0443264E0,2.7653434E0,-0E0,1.1270721E0,-0E0,-1.1926007E-2,-0E0,7.7822624E1,2.108E3,2.1043425E0,-1.1483465E0,-0E0,6.5234405E-1,-0E0,5.9864306E0,-0E0,1.9555555E-1,-1.6556555E-4,-0E0,-1.070074E-2,-0E0,-9.25609E-3,-6.1525125E-3,-0E0,5.0142975E0,-0E0,-0E0,8.959326E-3],"split_indices":[6,2,15,11,0,0,2,9,8,8,13,0,0,0,0,11,0,11,3,0,3,6,5,0,6,0,0,0,13,11,8,6,0,8,0,9,0,3,0,0,0,0,0,0,0,9,0,0,0],"split_type":[0,0,0,0,0,0,0,0,0,0,0,0,0,0,0,0,0,0,0,0,0,0,0,0,0,0,0,0,0,0,0,0,0,0,0,0,0,0,0,0,0,0,0,0,0,0,0,0,0],"sum_hessian":[1.2427842E4,5.6799453E3,6.747897E3,5.598427E3,8.151839E1,1.9105446E2,6.5568423E3,2.8555674E3,2.7428596E3,2.8385012E3,3.7183413E3,1.4121551E1,2.8414458E3,2.1287617E1,2.721572E3,2.7996023E3,3.8898872E1,2.0893093E3,1.6290319E3,6.486841E1,2.734734E3,9.7089545E2,1.1184138E3,7.5499825E1,1.5535321E3,1.8503654E1,2.7162302E3,1.0211663E2,8.687788E2,5.885082E2,5.299057E2,1.5403777E3,1.3154331E1,8.3487946E2,3.3899372E1,5.147172E2,7.3790955E1,2.4179897E2,2.8810672E2,1.6283485E1,1.5240942E3,1.2601782E1,8.2227765E2,4.588386E2,5.587863E1,1.909735E2,5.082547E1,2.5563375E1,1.6541011E2],"tree_param":{"num_deleted":"0","num_feature":"16","num_nodes":"49","size_leaf_vector":"1"}},{"base_weights":[-2.3807997E-1,-2.0234236E-2,-2.1207553E-1,-1.8942912E-1,-2.5671953E-1,-1.9280985E-1,-0E0,-1.668193E-2,-0E0,-1.9500175E-1,-0E0,-1.2460825E-2,-0E0],"categories":[],"categories_nodes":[],"categories_segments":[],"categories_sizes":[],"default_left":[1,0,1,0,0,1,0,0,0,0,0,0,0],"id":13,"left_children":[1,-1,3,5,7,9,-1,-1,-1,11,-1,-1,-1],"loss_changes":[1.664038E1,0E0,2.0885925E0,1.5820923E0,1.7094421E0,1.5307007E0,0E0,0E0,0E0,1.1525421E0,0E0,0E0,0E0],"parents":[2147483647,0,0,2,2,3,3,4,4,5,5,9,9],"right_children":[2,-1,4,6,8,10,-1,-1,-1,12,-1,-1,-1],"split_conditions":[-1.6953683E0,-2.0234236E-2,8.6693245E1,2.025E0,5.4598874E-1,8.613823E1,-0E0,-1.668193E-2,-0E0,5.958E3,-0E0,-1.2460825E-2,-0E0],"split_indices":[6,0,15,3,6,15,0,0,0,11,0,0,0],"split_type":[0,0,0,0,0,0,0,0,0,0,0,0,0],"sum_hessian":[1.2300373E4,2.8611472E3,9.439226E3,6.5158276E3,2.9233984E3,6.3317974E3,1.8403027E2,2.8303303E3,9.306798E1,6.230449E3,1.0134828E2,6.213166E3,1.7283127E1],"tree_param":{"num_deleted":"0","num_feature":"16","num_nodes":"13","size_leaf_vector":"1"}},{"base_weights":[-3.8210803E-1,-2.7726933E-2,-2.2509737E-2],"categories":[],"categories_nodes":[],"categories_segments":[],"categories_sizes":[],"default_left":[0,0,0],"id":14,"left_children":[1,-1,-1],"loss_changes":[5.1279297E0,0E0,0E0],"parents":[2147483647,0,0],"right_children":[2,-1,-1],"split_conditions":[-1.442434E0,-2.7726933E-2,-2.2509737E-2],"split_indices":[6,0,0],"split_type":[0,0,0],"sum_hessian":[1.2139519E4,4.008269E3,8.1312495E3],"tree_param":{"num_deleted":"0","num_feature":"16","num_nodes":"3","size_leaf_vector":"1"}},{"base_weights":[8.192173E-1,9.4314724E-1,7.2656107E-1,6.871957E-2,8.70635E-1,7.949188E-1,6.2521714E-1,9.161634E-1,6.228073E-1,6.988663E-1,5.505222E-2,8.218547E-1,5.556043E-1,6.151771E-2,7.220047E-1,6.472321E-1,-0E0,5.7459746E-2,6.220118E-1,-0E0,5.3011816E-2,4.3988798E-2,4.7913134E-1,-0E0,4.646017E-2,-0E0,4.2011756E-2,3.1289124E-1,6.6604996E-1,4.8522744E-1,-0E0,3.5017163E-1,-0E0,-0E0,4.27498E-2,-0E0,4.8918343E-1,2.3651304E-2,-0E0,4.9319947E-1,-0E0,4.9584332E-1,-0E0,-0E0,4.985774E-1,-0E0,5.016759E-1,-0E0,3.2146145E-2],"categories":[],"categories_nodes":[],"categories_segments":[],"categories_sizes":[],"default_left":[0,0,0,0,0,1,0,0,0,0,0,1,0,0,0,0,0,0,0,0,0,0,1,0,0,0,0,0,0,0,0,0,0,0,0,0,1,0,0,0,0,0,0,0,1,0,1,0,0],"id":15,"left_children":[1,3,5,-1,7,9,11,13,15,17,-1,19,21,-1,23,25,-1,-1,27,-1,-1,-1,29,-1,-1,-1,-1,31,33,35,-1,37,-1,-1,-1,-1,39,-1,-1,41,-1,43,-1,-1,45,-1,47,-1,-1],"loss_changes":[1.3631836E2,2.5623535E1,3.3112305E1,0E0,1.905957E1,5.4206543E0,2.3628662E1,3.2856445E0,3.6113281E0,7.3706055E0,0E0,3.847412E0,7.1445923E0,0E0,1.097168E0,2.1513672E0,0E0,0E0,5.6814575E0,0E0,0E0,0E0,2.3540955E0,0E0,0E0,0E0,0E0,3.0704613E0,3.4769897E0,1.6884766E0,0E0,1.5244865E0,0E0,0E0,0E0,0E0,1.673584E0,0E0,0E0,1.311615E0,0E0,1.1953125E0,0E0,0E0,9.7265625E-1,0E0,1.4154053E0,0E0,0E0],"parents":[2147483647,0,0,1,1,2,2,4,4,5,5,6,6,7,7,8,8,9,9,11,11,12,12,14,14,15,15,18,18,22,22,27,27,28,28,29,29,31,31,36,36,39,39,41,41,44,44,46,46],"right_children":[2,4,6,-1,8,10,12,14,16,18,-1,20,22,-1,24,26,-1,-1,28,-1,-1,-1,30,-1,-1,-1,-1,32,34,36,-1,38,-1,-1,-1,-1,40,-1,-1,42,-1,44,-1,-1,46,-1,48,-1,-1],"split_conditions":[-1.2452887E0,-2.0132396E0,2.709709E0,6.871957E-2,8.94E1,7.068224E1,2.3653652E-1,6.0548806E0,6.1165624E0,8.16E1,5.505222E-2,1.18E3,8.49E1,6.151771E-2,-1.9988414E0,1.18E3,-0E0,5.7459746E-2,-3.0168047E0,-0E0,5.3011816E-2,4.3988798E-2,9.0239835E-1,-0E0,4.646017E-2,-0E0,4.2011756E-2,9.471929E-1,-6.0300755E1,2.5578973E-1,-0E0,6.416386E-1,-0E0,-0E0,4.27498E-2,-0E0,7.4427695E0,2.3651304E-2,-0E0,6.2215414E0,-0E0,5.33856E0,-0E0,-0E0,-2.3800198E1,-0E0,2.7375803E0,-0E0,3.2146145E-2],"split_indices":[6,6,5,0,2,15,4,9,9,2,0,11,2,0,6,11,0,0,5,0,0,0,6,0,0,0,0,10,12,4,0,6,0,0,0,0,7,0,0,9,0,7,0,0,12,0,5,0,0],"split_type":[0,0,0,0,0,0,0,0,0,0,0,0,0,0,0,0,0,0,0,0,0,0,0,0,0,0,0,0,0,0,0,0,0,0,0,0,0,0,0,0,0,0,0,0,0,0,0,0,0],"sum_hessian":[1.4415858E4,6.0808687E3,8.33499E3,2.0195074E3,4.061361E3,4.869901E3,3.4650889E3,3.3689924E3,6.9236865E2,2.162452E3,2.707449E3,8.3676306E2,2.628326E3,2.6010745E3,7.6791797E2,6.495221E2,4.284657E1,5.25875E2,1.6365769E3,1.6296328E1,8.2046674E2,8.633615E2,1.7649644E3,1.4400602E1,7.5351733E2,1.997714E1,6.295449E2,2.5327571E2,1.3833011E3,1.730827E3,3.4137264E1,2.2672147E2,2.6554247E1,1.4922913E1,1.3683783E3,2.0867994E1,1.7099591E3,2.1214146E2,1.4580006E1,1.6890618E3,2.0897354E1,1.6764039E3,1.2657827E1,1.3555916E1,1.662848E3,1.664537E1,1.6462026E3,1.5975975E1,1.6302267E3],"tree_param":{"num_deleted":"0","num_feature":"16","num_nodes":"49","size_leaf_vector":"1"}},{"base_weights":[-1.8614314E-1,-1.9848898E-1,-1.306428E-1,-0E0,-1.9966924E-1,-1.3699988E-1,-0E0,-0E0,-2.0141773E-1,-1.4370577E-1,-0E0,-2.0206557E-1,-0E0,-1.4860895E-1,-0E0,-0E0,-1.2894715E-2,-0E0,-1.5180957E-1,-0E0,-1.0343924E-2],"categories":[],"categories_nodes":[],"categories_segments":[],"categories_sizes":[],"default_left":[0,1,0,0,0,0,0,0,0,0,0,0,0,0,0,0,0,0,0,0,0],"id":16,"left_children":[1,3,5,-1,7,9,-1,-1,11,13,-1,15,-1,17,-1,-1,-1,-1,19,-1,-1],"loss_changes":[2.9432068E0,9.534607E-1,3.131466E0,0E0,9.907837E-1,2.930584E0,0E0,0E0,1.3499451E0,2.4527893E0,0E0,9.100647E-1,0E0,1.59729E0,0E0,0E0,0E0,0E0,1.0943413E0,0E0,0E0],"parents":[2147483647,0,0,1,1,2,2,4,4,5,5,8,8,9,9,11,11,13,13,18,18],"right_children":[2,4,6,-1,8,10,-1,-1,12,14,-1,16,-1,18,-1,-1,-1,-1,20,-1,-1],"split_conditions":[-2.9293656E-1,-1.8259459E1,4.717394E1,-0E0,8.11E2,2.025E0,-0E0,-0E0,7.6412773E0,2.64E3,-0E0,7.570718E-1,-0E0,-1.74E1,-0E0,-0E0,-1.2894715E-2,-0E0,1.195E3,-0E0,-1.0343924E-2],"split_indices":[6,3,14,0,11,3,0,0,7,11,0,10,0,3,0,0,0,0,11,0,0],"split_type":[0,0,0,0,0,0,0,0,0,0,0,0,0,0,0,0,0,0,0,0,0],"sum_hessian":[1.2283182E4,9.800334E3,2.4828474E3,9.163482E1,9.708699E3,2.4243767E3,5.847072E1,1.4345158E2,9.565248E3,2.345058E3,7.931846E1,9.537056E3,2.8191732E1,2.3037568E3,4.1301384E1,2.4598476E1,9.512457E3,2.6919537E1,2.2768372E3,2.4842824E2,2.028409E3],"tree_param":{"num_deleted":"0","num_feature":"16","num_nodes":"21","size_leaf_vector":"1"}},{"base_weights":[-1.786456E-1,-2.2971216E-1,-1.336984E-1,-1.8311368E-1,-2.712812E-1,-0E0,-1.4081988E-1,-1.8669797E-1,-0E0,-1.7514912E-2,-0E0,-1.4220724E-1,-0E0,-0E0,-1.9065693E-1,-1.23169415E-1,-2.0660755E-1,-0E0,-1.9294348E-1,-1.4842351E-1,-7.8426145E-2,-2.360033E-1,-1.1183317E-3,-1.2392847E-2,-0E0,-3.6214262E-2,-1.7111753E-1,-0E0,-9.907213E-2,-0E0,-1.5852673E-2,-0E0,-7.206248E-2,-1.1136847E-2,-0E0,-1.3062126E-2,-5.9662316E-2,-9.2036344E-2,-0E0,-0E0,-7.471747E-2,-0E0,-1.0816967E-1,-5.642125E-3,-0E0,-0E0,-1.2402488E-1,-0E0,-8.878341E-3],"categories":[],"categories_nodes":[],"categories_segments":[],"categories_sizes":[],"default_left":[0,1,1,0,0,0,0,1,0,0,0,0,0,0,0,1,0,0,0,0,0,0,0,0,0,0,0,0,0,0,0,0,1,0,0,0,0,0,0,0,0,0,0,0,0,0,0,0,0],"id":17,"left_children":[1,3,5,7,9,-1,11,13,-1,-1,-1,15,-1,-1,17,19,21,-1,23,25,27,29,-1,-1,-1,31,33,-1,35,-1,-1,-1,37,-1,-1,-1,39,41,-1,-1,43,-1,45,-1,-1,-1,47,-1,-1],"loss_changes":[2.2292877E1,3.2634888E0,5.961937E0,1.8415985E0,1.1422577E0,0E0,1.5298691E0,1.0219421E0,0E0,0E0,0E0,2.27977E0,0E0,0E0,1.1581497E0,1.9957886E0,2.7375565E0,0E0,1.1330566E0,4.2600937E0,3.5083447E0,9.769287E-1,0E0,0E0,0E0,1.466791E0,1.3153915E0,0E0,2.5556107E0,0E0,0E0,0E0,1.2381327E0,0E0,0E0,0E0,2.0078406E0,1.0907357E0,0E0,0E0,1.908483E0,0E0,9.04726E-1,0E0,0E0,0E0,8.377285E-1,0E0,0E0],"parents":[2147483647,0,0,1,1,2,2,3,3,4,4,6,6,7,7,11,11,14,14,15,15,16,16,18,18,19,19,20,20,21,21,25,25,26,26,28,28,32,32,36,36,37,37,40,40,42,42,46,46],"right_children":[2,4,6,8,10,-1,12,14,-1,-1,-1,16,-1,-1,18,20,22,-1,24,26,28,30,-1,-1,-1,32,34,-1,36,-1,-1,-1,38,-1,-1,-1,40,42,-1,-1,44,-1,46,-1,-1,-1,48,-1,-1],"split_conditions":[-1.1570144E0,1.731E3,3.035081E1,1.0228305E2,1.0377995E0,-0E0,3.764562E0,-2.5950087E1,-0E0,-1.7514912E-2,-0E0,2.3775558E0,-0E0,-0E0,1.7728569E1,2.725432E0,1.4555863E0,-0E0,7.5199704E0,-2.9205527E0,1.5406113E0,-5.027918E0,-1.1183317E-3,-1.2392847E-2,-0E0,1.558E3,2.376E3,-0E0,1.5166964E-1,-0E0,-1.5852673E-2,-0E0,2.287E3,-1.1136847E-2,-0E0,-1.3062126E-2,5.823108E0,5.4817265E1,-0E0,-0E0,2.321366E0,-0E0,1.4416314E0,-5.642125E-3,-0E0,-0E0,7.676442E-1,-0E0,-8.878341E-3],"split_indices":[6,11,13,13,10,0,8,12,0,0,0,8,0,0,13,5,4,0,7,5,8,5,0,0,0,11,11,0,4,0,0,0,11,0,0,0,7,13,0,0,8,0,8,0,0,0,10,0,0],"split_type":[0,0,0,0,0,0,0,0,0,0,0,0,0,0,0,0,0,0,0,0,0,0,0,0,0,0,0,0,0,0,0,0,0,0,0,0,0,0,0,0,0,0,0,0,0,0,0,0,0],"sum_hessian":[1.2345908E4,5.6033345E3,6.7425737E3,2.834923E3,2.7684111E3,3.6433392E2,6.3782397E3,2.7798494E3,5.5073727E1,2.70629E3,6.2121143E1,6.329995E3,4.824475E1,8.6242744E1,2.6936067E3,5.0885347E3,1.2414603E3,3.241729E1,2.6611895E3,3.0140667E3,2.074468E3,9.9862537E2,2.4283493E2,2.6438022E3,1.7387074E1,6.299564E2,2.3841104E3,4.1807812E2,1.6563899E3,8.625628E1,9.123691E2,1.9039632E2,4.395601E2,2.3237024E3,6.04078E1,3.3265793E2,1.3237319E3,4.146119E2,2.49482E1,1.210156E2,1.2027163E3,2.1968708E1,3.926432E2,1.0968993E3,1.058171E2,3.5793476E1,3.5684973E2,3.2148205E1,3.247015E2],"tree_param":{"num_deleted":"0","num_feature":"16","num_nodes":"49","size_leaf_vector":"1"}},{"base_weights":[-2.303698E-1,-3.2212147E-1,-2.0712236E-1,-0E0,-2.0659005E-2,-2.4316235E-1,-1.6138637E-1,-1.6432928E-1,-2.6414853E-1,-2.545091E-1,-1.2972036E-1,-2.0271572E-1,-8.464196E-4,-1.786201E-1,-2.9508102E-1,-1.650001E-2,-0E0,-1.4329903E-1,-6.430613E-4,-1.3492916E-2,-0E0,-0E0,-1.8796645E-1,-0E0,-2.9861265E-1,-0E0,-9.280642E-3,-1.9546111E-1,-0E0,-0E0,-1.9107243E-2,-1.2831255E-2,-0E0],"categories":[],"categories_nodes":[],"categories_segments":[],"categories_sizes":[],"default_left":[0,0,1,0,0,0,0,1,0,0,0,0,0,0,0,0,0,0,0,0,0,0,0,0,0,0,0,1,0,0,0,0,0],"id":18,"left_children":[1,3,5,-1,-1,7,9,11,13,15,17,19,-1,21,23,-1,-1,25,-1,-1,-1,-1,27,-1,29,-1,-1,31,-1,-1,-1,-1,-1],"loss_changes":[1.7237122E1,1.3137817E0,9.595337E0,0E0,0E0,1.6806946E0,7.103302E0,3.94812E0,2.7888489E0,9.418564E-1,3.249092E0,2.8184967E0,0E0,1.7729225E0,2.830017E0,0E0,0E0,1.1596298E0,0E0,0E0,0E0,0E0,1.932251E0,0E0,1.247818E0,0E0,0E0,9.38488E-1,0E0,0E0,0E0,0E0,0E0],"parents":[2147483647,0,0,1,1,2,2,5,5,6,6,7,7,8,8,9,9,10,10,11,11,13,13,14,14,17,17,22,22,24,24,27,27],"right_children":[2,4,6,-1,-1,8,10,12,14,16,18,20,-1,22,24,-1,-1,26,-1,-1,-1,-1,28,-1,30,-1,-1,32,-1,-1,-1,-1,-1],"split_conditions":[-1.822898E0,-4.284675E0,2.574962E0,-0E0,-2.0659005E-2,-3.2127972E0,1.2163091E-1,1.5439677E1,5.226989E1,6.231901E0,6.222787E-2,6.1008514E1,-8.464196E-4,5.1084676E0,-1.7984164E0,-1.650001E-2,-0E0,1.5166964E-1,-6.430613E-4,-1.3492916E-2,-0E0,-0E0,2.108E3,-0E0,4.4665446E0,-0E0,-9.280642E-3,7.3148413E0,-0E0,-0E0,-1.9107243E-2,-1.2831255E-2,-0E0],"split_indices":[6,5,5,0,0,5,4,12,13,9,6,14,0,9,6,0,0,4,0,0,0,0,11,0,9,0,0,7,0,0,0,0,0],"split_type":[0,0,0,0,0,0,0,0,0,0,0,0,0,0,0,0,0,0,0,0,0,0,0,0,0,0,0,0,0,0,0,0,0],"sum_hessian":[1.2237215E4,2.32405E3,9.913164E3,2.196041E1,2.3020896E3,5.336995E3,4.576169E3,1.2915476E3,4.0454478E3,1.0248605E3,3.5513088E3,9.423721E2,3.491755E2,1.2203096E3,2.8251382E3,1.0020377E3,2.2822697E1,3.0654858E3,4.8582288E2,9.244732E2,1.7898859E1,6.8417305E1,1.1518922E3,3.475469E1,2.7903835E3,4.9365738E1,3.01612E3,1.1156266E3,3.6265686E1,1.478539E1,2.7755981E3,1.0720122E3,4.3614323E1],"tree_param":{"num_deleted":"0","num_feature":"16","num_nodes":"33","size_leaf_vector":"1"}},{"base_weights":[-3.7138826E-1,-2.6812833E-2,-3.444147E-1,-2.3539346E-2,-2.8443673E-1,-1.8225066E-2,-0E0],"categories":[],"categories_nodes":[],"categories_segments":[],"categories_sizes":[],"default_left":[1,0,0,0,1,0,0],"id":19,"left_children":[1,-1,3,-1,5,-1,-1],"loss_changes":[3.1386719E0,0E0,1.147583E0,0E0,1.4460602E0,0E0,0E0],"parents":[2147483647,0,0,2,2,4,4],"right_children":[2,-1,4,-1,6,-1,-1],"split_conditions":[-1.442434E0,-2.6812833E-2,3.053222E0,-2.3539346E-2,1.1856233E2,-1.8225066E-2,-0E0],"split_indices":[6,0,5,0,15,0,0],"split_type":[0,0,0,0,0,0,0],"sum_hessian":[1.1979594E4,3.980568E3,7.999026E3,5.419537E3,2.5794883E3,2.56368E3,1.580848E1],"tree_param":{"num_deleted":"0","num_feature":"16","num_nodes":"7","size_leaf_vector":"1"}},{"base_weights":[7.621943E-1,8.2454616E-1,6.8434614E-1,6.804291E-1,8.5903436E-1,6.039626E-1,8.0650395E-1,6.8739325E-1,-0E0,7.333422E-1,9.438758E-1,6.989842E-1,5.3140604E-1,7.1267486E-2,4.0736787E-2,-0E0,4.4165626E-2,4.6910595E-2,-0E0,7.838087E-1,1.0407385E0,5.073363E-1,9.059174E-1,4.9209997E-1,5.0347168E-2,6.6225745E-2,6.9258446E-1,8.8470705E-2,9.66568E-1,-0E0,5.1630396E-1,-0E0,5.8388006E-2,-0E0,3.1449795E-2,5.603108E-1,5.7244476E-2,8.796998E-1,7.757807E-2,-0E0,5.2367586E-1,3.666932E-2,-0E0,5.017013E-2,7.339751E-2,3.3692237E-2,-0E0],"categories":[],"categories_nodes":[],"categories_segments":[],"categories_sizes":[],"default_left":[0,0,0,0,1,0,0,0,0,1,0,0,0,0,0,0,0,0,0,0,0,1,1,1,0,0,0,0,0,0,0,0,0,0,0,0,0,0,0,0,0,0,0,0,0,0,0],"id":20,"left_children":[1,3,5,7,9,11,13,15,-1,17,19,21,23,-1,-1,-1,-1,-1,-1,25,27,29,31,33,-1,-1,35,-1,37,-1,39,-1,-1,-1,-1,41,-1,43,-1,-1,45,-1,-1,-1,-1,-1,-1],"loss_changes":[4.635254E1,1.3812988E1,4.2192627E1,9.154663E0,3.990088E1,7.6610107E0,1.0502527E2,5.6575317E0,0E0,2.7713623E0,2.6654053E1,4.3215942E1,3.2125244E0,0E0,0E0,0E0,0E0,0E0,0E0,4.8223267E0,1.7017334E1,2.3933105E0,3.8556519E0,9.9835205E-1,0E0,0E0,6.52948E0,0E0,5.0908203E0,0E0,2.889618E0,0E0,0E0,0E0,0E0,1.4423676E0,0E0,3.19812E0,0E0,0E0,1.5168915E0,0E0,0E0,0E0,0E0,0E0,0E0],"parents":[2147483647,0,0,1,1,2,2,3,3,4,4,5,5,6,6,7,7,9,9,10,10,11,11,12,12,19,19,20,20,21,21,22,22,23,23,26,26,28,28,30,30,35,35,37,37,40,40],"right_children":[2,4,6,8,10,12,14,16,-1,18,20,22,24,-1,-1,-1,-1,-1,-1,26,28,30,32,34,-1,-1,36,-1,38,-1,40,-1,-1,-1,-1,42,-1,44,-1,-1,46,-1,-1,-1,-1,-1,-1],"split_conditions":[2.5462306E0,-3.2852356E0,2.1118565E0,4.9206896E0,6.0689236E1,2.4513048E-1,7.4598145E-1,1.2386067E0,-0E0,2.322E3,1.1846136E0,1.5611186E0,1.5836926E0,7.1267486E-2,4.0736787E-2,-0E0,4.4165626E-2,4.6910595E-2,-0E0,-1.0456988E0,-7.768111E-1,-1.0603947E1,1.207E3,5.33856E0,5.0347168E-2,6.6225745E-2,6.405625E-1,8.8470705E-2,1.8949593E0,-0E0,1.253E3,-0E0,5.8388006E-2,-0E0,3.1449795E-2,1.4588236E0,5.7244476E-2,4.4552848E-1,7.757807E-2,-0E0,3.3434782E0,3.666932E-2,-0E0,5.017013E-2,7.339751E-2,3.3692237E-2,-0E0],"split_indices":[5,5,8,3,13,4,4,8,0,11,8,8,4,0,0,0,0,0,0,4,4,12,11,7,0,0,4,0,8,0,11,0,0,0,0,3,0,4,0,0,3,0,0,0,0,0,0],"split_type":[0,0,0,0,0,0,0,0,0,0,0,0,0,0,0,0,0,0,0,0,0,0,0,0,0,0,0,0,0,0,0,0,0,0,0,0,0,0,0,0,0,0,0,0,0,0,0],"sum_hessian":[1.4961954E4,8.1765234E3,6.7854307E3,1.6814785E3,6.495045E3,4.183098E3,2.6023323E3,1.666901E3,1.4577543E1,2.705745E3,3.7892996E3,1.7032024E3,2.479896E3,8.642752E2,1.738057E3,1.8924225E1,1.6479768E3,2.6846304E3,2.1114864E1,1.5016156E3,2.287684E3,9.302359E2,7.729665E2,2.2153389E3,2.6455707E2,3.3941647E2,1.1621991E3,3.5384592E2,1.9338381E3,2.314733E1,9.0708856E2,1.4408232E1,7.585583E2,1.3332523E1,2.2020063E3,7.6312494E2,3.9907422E2,1.4955936E3,4.3824442E2,1.4896225E1,8.921923E2,7.262279E2,3.6897003E1,1.1729794E3,3.226143E2,8.7878894E2,1.3403416E1],"tree_param":{"num_deleted":"0","num_feature":"16","num_nodes":"47","size_leaf_vector":"1"}},{"base_weights":[-1.8299668E-1,-1.8408948E-1,-0E0,-1.174524E-2,-0E0],"categories":[],"categories_nodes":[],"categories_segments":[],"categories_sizes":[],"default_left":[0,0,0,0,0],"id":21,"left_children":[1,3,-1,-1,-1],"loss_changes":[2.9592896E0,1.2333679E0,0E0,0E0,0E0],"parents":[2147483647,0,0,1,1],"right_children":[2,4,-1,-1,-1],"split_conditions":[7.6412773E0,2.545001E1,-0E0,-1.174524E-2,-0E0],"split_indices":[7,3,0,0,0],"split_type":[0,0,0,0,0],"sum_hessian":[1.21581E4,1.2101473E4,5.6627205E1,1.2083149E4,1.8323116E1],"tree_param":{"num_deleted":"0","num_feature":"16","num_nodes":"5","size_leaf_vector":"1"}},{"base_weights":[-1.6560479E-1,-2.1274966E-1,-1.2370539E-1,-0E0,-2.1409437E-1,-1.3037348E-1,-0E0,-1.3712069E-2,-0E0,-0E0,-1.3357168E-1,-1.6894373E-1,-9.955944E-2,-1.726839E-1,-0E0,-1.1485759E-1,-2.842274E-4,-1.10875415E-2,-0E0,-0E0,-1.2509945E-1,2.0461918E-3,-7.742477E-2,-0E0,-1.2843968E-1,3.7279148E-3,-0E0,-7.6135127E-3,-0E0,-0E0,-8.39098E-3],"categories":[],"categories_nodes":[],"categories_segments":[],"categories_sizes":[],"default_left":[1,1,0,0,0,1,0,0,0,0,0,0,0,0,0,0,0,0,0,0,0,0,0,0,0,0,0,0,0,0,0],"id":22,"left_children":[1,3,5,-1,7,9,-1,-1,-1,-1,11,13,15,17,-1,19,21,-1,-1,-1,23,25,27,-1,29,-1,-1,-1,-1,-1,-1],"loss_changes":[1.8529541E1,1.8891296E0,3.700676E0,0E0,1.0549011E0,4.0707016E0,0E0,0E0,0E0,0E0,2.9388733E0,1.0291901E0,3.2363663E0,9.786453E-1,0E0,2.4178696E0,1.3458203E0,0E0,0E0,0E0,1.3563042E0,9.908692E-1,1.0740823E0,0E0,1.0228119E0,0E0,0E0,0E0,0E0,0E0,0E0],"parents":[2147483647,0,0,1,1,2,2,4,4,5,5,10,10,11,11,12,12,13,13,15,15,16,16,20,20,21,21,22,22,24,24],"right_children":[2,4,6,-1,8,10,-1,-1,-1,-1,12,14,16,18,-1,20,22,-1,-1,-1,24,26,28,-1,30,-1,-1,-1,-1,-1,-1],"split_conditions":[-1.1570144E0,-6.0300755E1,6.1165624E0,-0E0,6.7373166E0,5.8994646E0,-0E0,-1.3712069E-2,-0E0,-0E0,8.51E1,4.0142345E1,5.7683063E0,1.0813714E2,-0E0,-1.034729E0,8.470228E1,-1.10875415E-2,-0E0,-0E0,4.5650115E0,5.9916863E0,3.0387566E0,-0E0,5.504385E0,3.7279148E-3,-0E0,-7.6135127E-3,-0E0,-0E0,-8.39098E-3],"split_indices":[6,12,9,0,9,13,0,0,0,0,2,12,9,15,0,6,15,0,0,0,9,9,5,0,7,0,0,0,0,0,0],"split_type":[0,0,0,0,0,0,0,0,0,0,0,0,0,0,0,0,0,0,0,0,0,0,0,0,0,0,0,0,0,0,0],"sum_hessian":[1.221087E4,5.5562065E3,6.6546636E3,2.8395576E1,5.527811E3,6.208809E3,4.4585437E2,5.4835723E3,4.4238823E1,6.573016E1,6.143079E3,2.769442E3,3.3736372E3,2.6851743E3,8.426743E1,2.7794587E3,5.9417847E2,2.6716414E3,1.3533001E1,2.823974E2,2.4970613E3,3.7258728E2,2.215912E2,4.6109528E1,2.4509517E3,2.8672498E2,8.586229E1,1.6640648E2,5.5184723E1,6.5135994E1,2.3858157E3],"tree_param":{"num_deleted":"0","num_feature":"16","num_nodes":"31","size_leaf_vector":"1"}},{"base_weights":[-2.3072144E-1,-3.078244E-1,-2.0581602E-1,-2.0123662E-2,-7.11328E-4,-2.3010167E-1,-1.5288198E-1,-1.9019058E-1,-2.7687824E-1,-1.24781996E-1,-2.9639822E-1,-2.822186E-1,-1.1514594E-1,-1.5935227E-1,-2.131129E-2,-1.3509622E-1,-0E0,-0E0,-3.091467E-1,-3.2399148E-1,-1.8517319E-3,-1.729758E-1,-2.4669405E-2,-1.6594343E-1,-0E0,-8.774883E-3,-0E0,-2.0795925E-2,-0E0,-2.0884242E-2,-0E0,-1.7884046E-1,-0E0,-0E0,-7.72469E-2,-0E0,-1.7234354E-1,-0E0,-1.8427143E-1,-1.3291745E-1,-0E0,-0E0,-1.1403521E-2,-1.2055276E-2,-0E0,-0E0,-1.5317152E-1,-0E0,-1.1121989E-2],"categories":[],"categories_nodes":[],"categories_segments":[],"categories_sizes":[],"default_left":[1,0,0,0,0,0,0,0,0,0,0,0,0,0,0,0,0,0,1,1,0,0,0,0,0,0,0,0,0,0,0,0,0,0,0,0,1,0,0,0,0,0,0,0,0,0,0,0,0],"id":23,"left_children":[1,3,5,-1,-1,7,9,11,13,15,17,19,21,23,-1,25,-1,-1,27,29,-1,31,33,35,-1,-1,-1,-1,-1,-1,-1,37,-1,-1,39,-1,41,-1,43,45,-1,-1,-1,-1,-1,-1,47,-1,-1],"loss_changes":[1.4654236E1,1.4846191E0,5.6026E0,0E0,0E0,3.714203E0,5.699608E0,1.7761246E1,9.75502E0,2.261837E0,1.7763557E0,9.87944E0,7.4520073E0,1.6209393E0,0E0,1.006012E0,0E0,0E0,1.1919785E0,1.3635101E0,0E0,1.1529846E0,2.0552835E0,1.3408756E0,0E0,0E0,0E0,0E0,0E0,0E0,0E0,1.224266E0,0E0,0E0,1.8920841E0,0E0,8.5411644E-1,0E0,1.2481232E0,1.181324E0,0E0,0E0,0E0,0E0,0E0,0E0,1.0333667E0,0E0,0E0],"parents":[2147483647,0,0,1,1,2,2,5,5,6,6,7,7,8,8,9,9,10,10,11,11,12,12,13,13,15,15,18,18,19,19,21,21,22,22,23,23,31,31,34,34,36,36,38,38,39,39,46,46],"right_children":[2,4,6,-1,-1,8,10,12,14,16,18,20,22,24,-1,26,-1,-1,28,30,-1,32,34,36,-1,-1,-1,-1,-1,-1,-1,38,-1,-1,40,-1,42,-1,44,46,-1,-1,-1,-1,-1,-1,48,-1,-1],"split_conditions":[-1.6953683E0,9.2E1,5.988084E-1,-2.0123662E-2,-7.11328E-4,1.795878E0,1E0,-3.6163932E-1,-7.2123086E-1,3.2686692E-1,7.88E1,1E0,8.62E1,9E1,-2.131129E-2,7.385744E0,-0E0,-0E0,3.0174784E1,4.5463367E1,-1.8517319E-3,1.0315282E0,1.4700639E0,8.81E2,-0E0,-8.774883E-3,-0E0,-2.0795925E-2,-0E0,-2.0884242E-2,-0E0,5.66185E0,-0E0,-0E0,1.8051785E-1,-0E0,-1.46E1,-0E0,2.7E0,7.877085E-1,-0E0,-0E0,-1.1403521E-2,-1.2055276E-2,-0E0,-0E0,3.4215444E-1,-0E0,-1.1121989E-2],"split_indices":[6,2,4,0,0,8,0,4,4,6,2,0,2,2,0,7,0,0,12,12,0,10,8,11,0,0,0,0,0,0,0,7,0,0,4,0,3,0,3,10,0,0,0,0,0,0,12,0,0],"split_type":[0,0,0,0,0,0,0,0,0,0,0,0,0,0,0,0,0,0,0,0,0,0,0,0,0,0,0,0,0,0,0,0,0,0,0,0,0,0,0,0,0,0,0,0,0,0,0,0,0],"sum_hessian":[1.2109863E4,2.788236E3,9.321627E3,2.6583347E3,1.2990138E2,6.1711567E3,3.1504705E3,3.5266965E3,2.6444604E3,2.7344885E3,4.1598175E2,1.482489E3,2.0442075E3,9.697424E2,1.674718E3,2.456425E3,2.7806348E2,1.5229068E1,4.007527E2,1.2161587E3,2.663303E2,1.134868E3,9.093396E2,9.5289374E2,1.6848604E1,2.4122927E3,4.413235E1,3.6977448E2,3.0978226E1,1.1987102E3,1.7448565E1,1.0975347E3,3.733327E1,4.745486E2,4.34791E2,2.4508892E1,9.283848E2,2.7840961E1,1.0696937E3,2.5218655E2,1.8260442E2,4.266805E1,8.857168E2,1.047464E3,2.222974E1,1.25898695E1,2.3959668E2,2.2207804E1,2.1738887E2],"tree_param":{"num_deleted":"0","num_feature":"16","num_nodes":"49","size_leaf_vector":"1"}},{"base_weights":[-3.6755827E-1,-2.7426109E-2,-3.4421965E-1,-2.1998255E-2,-0E0],"categories":[],"categories_nodes":[],"categories_segments":[],"categories_sizes":[],"default_left":[0,0,0,0,0],"id":24,"left_children":[1,-1,3,-1,-1],"loss_changes":[4.2216797E0,0E0,3.1740723E0,0E0,0E0],"parents":[2147483647,0,0,2,2],"right_children":[2,-1,4,-1,-1],"split_conditions":[-1.6403756E0,-2.7426109E-2,9.35E1,-2.1998255E-2,-0E0],"split_indices":[6,0,2,0,0],"split_type":[0,0,0,0,0],"sum_hessian":[1.1743419E4,2.962088E3,8.781331E3,8.739389E3,4.19425E1],"tree_param":{"num_deleted":"0","num_feature":"16","num_nodes":"5","size_leaf_vector":"1"}},{"base_weights":[7.111639E-1,8.428559E-1,6.3965136E-1,6.000815E-2,7.5763106E-1,7.75462E-1,5.9237874E-1,5.616847E-1,8.024871E-1,2.644072E-1,7.9482704E-1,5.264723E-1,7.175975E-1,5.7999694E-1,-0E0,5.1320087E-2,-0E0,-0E0,2.1484802E-2,5.079261E-2,-0E0,5.6986624E-1,4.4371745E-1,-0E0,7.202515E-1,-0E0,5.947484E-1,3.8730082E-1,6.1076015E-1,4.4906372E-1,-0E0,-0E0,7.228635E-1,6.034697E-1,-0E0,4.078064E-1,-0E0,4.8987022E-1,6.994566E-1,1.4637393E-1,4.6988076E-1,8.4165955E-1,4.020071E-2,-0E0,3.8951214E-2,-0E0,4.145555E-1,4.9613613E-1,-0E0,-0E0,4.484845E-2,1.7926042E-1,-0E0,-0E0,3.008837E-2,8.5146445E-1,-0E0,2.6939712E-2,-0E0,5.043855E-1,-0E0,1.3487315E-2,-0E0,-0E0,5.471996E-2,6.3757235E-1,3.7893242E-1,-0E0,4.1573238E-2,4.1650546E-1,-0E0,-0E0,2.7079206E-2],"categories":[],"categories_nodes":[],"categories_segments":[],"categories_sizes":[],"default_left":[0,0,0,0,0,1,0,0,0,1,0,1,0,0,0,0,0,0,0,0,0,0,0,0,1,0,0,0,0,0,0,0,0,0,0,1,0,1,1,0,0,0,0,0,0,0,0,0,0,0,0,0,0,0,0,0,0,0,0,1,0,0,0,0,0,0,0,0,0,1,0,0,0],"id":25,"left_children":[1,3,5,-1,7,9,11,13,15,17,19,21,23,25,-1,-1,-1,-1,-1,-1,-1,27,29,-1,31,-1,33,35,37,39,-1,-1,41,43,-1,45,-1,47,49,51,53,55,-1,-1,-1,-1,57,59,-1,-1,-1,61,-1,-1,-1,63,-1,-1,-1,65,-1,-1,-1,-1,-1,67,69,-1,-1,71,-1,-1,-1],"loss_changes":[1.19052734E2,1.5452881E1,4.0890137E1,0E0,2.531372E0,6.7738037E0,4.0973145E1,3.6863556E0,4.5040283E0,2.2554522E0,1.9621582E0,8.165283E-1,3.0270996E0,3.2669983E0,0E0,0E0,0E0,0E0,0E0,0E0,0E0,6.671997E0,3.904358E0,0E0,2.1098633E0,0E0,1.2474213E0,4.24102E0,6.518921E0,1.3802795E0,0E0,0E0,1.3881836E0,9.6850586E-1,0E0,8.942795E-1,0E0,2.8434143E0,2.1768188E0,1.417659E0,9.483948E-1,5.271179E0,0E0,0E0,0E0,0E0,1.4090347E0,2.1359253E0,0E0,0E0,0E0,1.2658186E0,0E0,0E0,0E0,1.1311035E0,0E0,0E0,0E0,1.1369324E0,0E0,0E0,0E0,0E0,0E0,1.2513275E0,3.634903E0,0E0,0E0,1.8125458E0,0E0,0E0,0E0],"parents":[2147483647,0,0,1,1,2,2,4,4,5,5,6,6,7,7,8,8,9,9,10,10,11,11,12,12,13,13,21,21,22,22,24,24,26,26,27,27,28,28,29,29,32,32,33,33,35,35,37,37,38,38,39,39,40,40,41,41,46,46,47,47,51,51,55,55,59,59,65,65,66,66,69,69],"right_children":[2,4,6,-1,8,10,12,14,16,18,20,22,24,26,-1,-1,-1,-1,-1,-1,-1,28,30,-1,32,-1,34,36,38,40,-1,-1,42,44,-1,46,-1,48,50,52,54,56,-1,-1,-1,-1,58,60,-1,-1,-1,62,-1,-1,-1,64,-1,-1,-1,66,-1,-1,-1,-1,-1,68,70,-1,-1,72,-1,-1,-1],"split_conditions":[-1.424359E0,8.61E1,8.32E1,6.000815E-2,7.49633E1,3.0035707E1,8.7613945E1,9.2E1,4.370939E1,-3.4072487E1,6.133333E0,2.8431642E0,-2.065042E1,-3.2852356E0,-0E0,5.1320087E-2,-0E0,-0E0,2.1484802E-2,5.079261E-2,-0E0,-2.8307612E0,9.887764E-1,-0E0,1.18E3,-0E0,2.271E3,6.0548806E0,6.5592026E1,5.9400992E0,-0E0,-0E0,2.479747E0,-1.5841861E1,-0E0,-1.4855214E1,-0E0,2.244E3,-1.414475E0,5.9097776E0,2.8573716E0,9.0239835E-1,4.020071E-2,-0E0,3.8951214E-2,-0E0,2.025E0,2.025E0,-0E0,-0E0,4.484845E-2,8.4879616E1,-0E0,-0E0,3.008837E-2,-5.569554E0,-0E0,2.6939712E-2,-0E0,1.8079107E0,-0E0,1.3487315E-2,-0E0,-0E0,5.471996E-2,5.758174E0,6.0138116E0,-0E0,4.1573238E-2,-2.1988716E1,-0E0,-0E0,2.7079206E-2],"split_indices":[6,2,2,0,15,15,15,2,12,12,3,5,12,5,0,0,0,0,0,0,0,5,10,0,11,0,11,9,15,7,0,0,5,3,0,12,0,11,6,9,5,6,0,0,0,0,3,3,0,0,0,15,0,0,0,5,0,0,0,5,0,0,0,0,0,7,9,0,0,12,0,0,0],"split_type":[0,0,0,0,0,0,0,0,0,0,0,0,0,0,0,0,0,0,0,0,0,0,0,0,0,0,0,0,0,0,0,0,0,0,0,0,0,0,0,0,0,0,0,0,0,0,0,0,0,0,0,0,0,0,0,0,0,0,0,0,0,0,0,0,0,0,0,0,0,0,0,0,0],"sum_hessian":[1.5376741E4,5.3205107E3,1.005623E4,2.3494553E3,2.9710554E3,2.4962534E3,7.559977E3,6.283516E2,2.3427039E3,1.2352525E2,2.372728E3,5.04805E3,2.5119272E3,6.0009326E2,2.825836E1,2.3281604E3,1.4543385E1,2.8939396E1,9.458585E1,2.3575486E3,1.5179571E1,3.171092E3,1.8769578E3,1.26624975E1,2.499265E3,2.0293217E1,5.7980005E2,6.589237E2,2.5121682E3,1.8518302E3,2.5127518E1,1.4010587E1,2.4852542E3,5.6651154E2,1.32885E1,6.195653E2,3.9358425E1,1.1488569E3,1.3633113E3,1.7130865E2,1.6805216E3,9.926845E2,1.4925697E3,1.2959105E1,5.535524E2,1.489149E1,6.0467377E2,1.1315062E3,1.735063E1,1.5191224E1,1.3481201E3,1.5744904E2,1.3859629E1,1.5474045E1,1.6650475E3,9.771636E2,1.5520877E1,5.87996E2,1.6677809E1,1.1031062E3,2.8400038E1,1.4015233E2,1.7296707E1,1.691624E1,9.602474E2,4.6628717E2,6.368191E2,1.90629E1,4.4722427E2,5.4760126E2,8.9217804E1,1.2720311E1,5.348809E2],"tree_param":{"num_deleted":"0","num_feature":"16","num_nodes":"73","size_leaf_vector":"1"}},{"base_weights":[-1.7374672E-1,-2.1434668E-1,-1.4676647E-1,-2.1683243E-1,-0E0,-0E0,-1.4919057E-1,-0E0,-2.1929188E-1,-1.5187936E-1,-0E0,-1.4015534E-2,-0E0,-1.5294695E-1,-0E0,-1.5370211E-1,-0E0,-0E0,-9.839308E-3],"categories":[],"categories_nodes":[],"categories_segments":[],"categories_sizes":[],"default_left":[0,1,1,0,0,0,0,0,0,0,0,0,0,0,0,0,0,0,0],"id":26,"left_children":[1,3,5,7,-1,-1,9,-1,11,13,-1,-1,-1,15,-1,17,-1,-1,-1],"loss_changes":[7.231262E0,1.8901825E0,2.4110565E0,2.5466614E0,0E0,0E0,2.331787E0,0E0,8.541107E-1,1.6271362E0,0E0,0E0,0E0,8.260956E-1,0E0,9.316406E-1,0E0,0E0,0E0],"parents":[2147483647,0,0,1,1,2,2,3,3,6,6,8,8,9,9,13,13,15,15],"right_children":[2,4,6,8,-1,-1,10,-1,12,14,-1,-1,-1,16,-1,18,-1,-1,-1],"split_conditions":[-1.3346237E0,4.1167614E1,-3.4072487E1,-6.3030066E0,-0E0,-0E0,1.0165286E0,-0E0,3.2837672E0,7.0710976E1,-0E0,-1.4015534E-2,-0E0,7.6412773E0,-0E0,3.5598123E-1,-0E0,-0E0,-9.839308E-3],"split_indices":[6,12,12,14,0,0,10,0,8,14,0,0,0,7,0,8,0,0,0],"split_type":[0,0,0,0,0,0,0,0,0,0,0,0,0,0,0,0,0,0,0],"sum_hessian":[1.2090067E4,4.5763315E3,7.5137354E3,4.5121494E3,6.41821E1,1.3394998E2,7.3797856E3,4.774589E1,4.4644033E3,7.221796E3,1.5798938E2,4.446472E3,1.7931376E1,7.1908496E3,3.0946407E1,7.155304E3,3.5545574E1,4.074694E1,7.114557E3],"tree_param":{"num_deleted":"0","num_feature":"16","num_nodes":"19","size_leaf_vector":"1"}},{"base_weights":[-1.590765E-1,-1.3000791E-1,-1.986608E-1,-1.4080015E-1,-2.8607823E-2,-0E0,-1.28861265E-2,-0E0,-1.4486064E-1,-7.236557E-2,-0E0,-0E0,-1.4614293E-1,-8.003337E-3,-0E0,-0E0,-9.360061E-3],"categories":[],"categories_nodes":[],"categories_segments":[],"categories_sizes":[],"default_left":[1,0,1,1,0,0,0,0,0,0,0,0,0,0,0,0,0],"id":27,"left_children":[1,3,5,7,9,-1,-1,-1,11,13,-1,-1,15,-1,-1,-1,-1],"loss_changes":[8.423523E0,5.0940857E0,3.3278046E0,2.734085E0,1.3299836E0,0E0,0E0,0E0,1.5191345E0,9.732175E-1,0E0,0E0,1.028122E0,0E0,0E0,0E0,0E0],"parents":[2147483647,0,0,1,1,2,2,3,3,4,4,8,8,9,9,12,12],"right_children":[2,4,6,8,10,-1,-1,-1,12,14,-1,-1,16,-1,-1,-1,-1],"split_conditions":[8.4331154E1,8.86E1,1.315E3,3.0035707E1,-3.1307693E0,-0E0,-1.28861265E-2,-0E0,5.164864E0,6.616062E1,-0E0,-0E0,5.8994646E0,-8.003337E-3,-0E0,-0E0,-9.360061E-3],"split_indices":[15,2,11,15,3,0,0,0,7,13,0,0,13,0,0,0,0],"split_type":[0,0,0,0,0,0,0,0,0,0,0,0,0,0,0,0,0],"sum_hessian":[1.2069266E4,7.204792E3,4.8644736E3,6.3643975E3,8.4039435E2,9.825417E1,4.766219E3,2.2165004E2,6.1427476E3,3.8306293E2,4.5733142E2,3.6240078E1,6.1065073E3,1.867014E2,1.9636153E2,2.6515184E1,6.079992E3],"tree_param":{"num_deleted":"0","num_feature":"16","num_nodes":"17","size_leaf_vector":"1"}},{"base_weights":[-2.2143988E-1,-3.053628E-1,-1.9454215E-1,-2.0038487E-2,-8.0149877E-4,-2.2596577E-1,-1.533651E-1,-1.6429734E-1,-2.845211E-1,-1.33084245E-2,-9.3254365E-2,-1.0184085E-1,-2.2050522E-1,-2.2891209E-1,-2.4420802E-2,-3.4774274E-2,-2.0650885E-1,-1.1967595E-1,-0E0,-2.2595097E-1,-0E0,-3.2958168E-1,-1.1229072E-1,-8.491153E-2,-0E0,-3.0596876E-1,-2.7270685E-3,-0E0,-8.420879E-3,-0E0,-1.4676308E-2,-0E0,-3.3616897E-1,-1.3517821E-1,-0E0,-0E0,-1.3153042E-1,-2.3262944E-2,3.834743E-2,-0E0,-3.2149908E-1,-2.1835493E-2,-0E0,-0E0,-1.5231879E-1,-1.5478137E-1,-0E0,-5.154393E-3,-0E0,-0E0,7.4575156E-2,-2.1346824E-2,-0E0,-1.6677132E-1,-0E0,-1.9131692E-1,-0E0,1.1191779E-1,-0E0,-1.1351413E-2,-0E0,-0E0,-1.3078045E-2,1.3981594E-1,-0E0,1.6072983E-1,-0E0,-0E0,1.270688E-2],"categories":[],"categories_nodes":[],"categories_segments":[],"categories_sizes":[],"default_left":[0,0,0,0,0,0,0,0,0,0,0,0,0,0,0,0,0,0,0,0,0,0,0,0,1,1,0,0,0,0,0,0,0,0,0,0,0,0,0,0,0,0,0,0,0,0,0,0,0,0,1,0,0,0,0,0,0,0,0,0,0,0,0,0,0,0,0,0,0],"id":28,"left_children":[1,3,5,-1,-1,7,9,11,13,-1,15,17,19,21,-1,23,25,27,-1,29,-1,31,33,35,37,39,-1,-1,-1,-1,-1,-1,41,43,-1,-1,45,47,49,-1,51,-1,-1,-1,53,55,-1,-1,-1,-1,57,-1,-1,59,-1,61,-1,63,-1,-1,-1,-1,-1,65,-1,67,-1,-1,-1],"loss_changes":[1.864624E1,2.2028198E0,5.605438E0,0E0,0E0,1.0546738E1,9.12632E0,3.6907883E0,3.0574646E0,0E0,1.0445698E1,4.009102E0,2.117405E0,1.2187759E1,0E0,2.567623E0,4.7457333E0,1.9938145E0,0E0,1.2013512E0,0E0,1.6746674E0,2.4378414E0,4.391473E0,8.076261E-1,1.983118E0,0E0,0E0,0E0,0E0,0E0,0E0,1.2820282E0,1.6103449E0,0E0,0E0,2.1427069E0,9.364147E-1,1.1788087E0,0E0,1.1553078E0,0E0,0E0,0E0,2.081893E0,2.0349646E0,0E0,0E0,0E0,0E0,1.4795657E0,0E0,0E0,1.9050751E0,0E0,1.2741556E0,0E0,1.3484282E0,0E0,0E0,0E0,0E0,0E0,9.1920424E-1,0E0,1.5636473E0,0E0,0E0,0E0],"parents":[2147483647,0,0,1,1,2,2,5,5,6,6,7,7,8,8,10,10,11,11,12,12,13,13,15,15,16,16,17,17,19,19,21,21,22,22,23,23,24,24,25,25,32,32,33,33,36,36,37,37,38,38,40,40,44,44,45,45,50,50,53,53,55,55,57,57,63,63,65,65],"right_children":[2,4,6,-1,-1,8,10,12,14,-1,16,18,20,22,-1,24,26,28,-1,30,-1,32,34,36,38,40,-1,-1,-1,-1,-1,-1,42,44,-1,-1,46,48,50,-1,52,-1,-1,-1,54,56,-1,-1,-1,-1,58,-1,-1,60,-1,62,-1,64,-1,-1,-1,-1,-1,66,-1,68,-1,-1,-1],"split_conditions":[-1.6953683E0,9.2E1,2.885829E-1,-2.0038487E-2,-8.0149877E-4,1E0,8.59E1,1.9588215E0,1.70516E0,-1.33084245E-2,2.2562416E0,4.2635113E-1,1.8455606E0,-4.6378997E-1,-2.4420802E-2,1E0,1.2341672E0,5.856393E0,-0E0,-1.6299332E0,-0E0,2.6884452E-1,8.92E1,4.749639E-1,-6.6855943E-1,-1.46E1,-2.7270685E-3,-0E0,-8.420879E-3,-0E0,-1.4676308E-2,-0E0,9.23E1,5.904484E0,-0E0,-0E0,2.1253886E0,8.766579E-1,1.2816352E0,-0E0,1.10302414E2,-2.1835493E-2,-0E0,-0E0,1.3925E0,9.586292E-1,-0E0,-5.154393E-3,-0E0,-0E0,4.888889E-1,-2.1346824E-2,-0E0,9.645526E1,-0E0,2.7463829E1,-0E0,9.529121E1,-0E0,-1.1351413E-2,-0E0,-0E0,-1.3078045E-2,9.397918E-1,-0E0,-1.0736363E1,-0E0,-0E0,1.270688E-2],"split_indices":[6,2,4,0,0,1,2,8,8,0,8,6,6,4,0,1,4,7,0,6,0,8,2,4,6,3,0,0,0,0,0,0,2,7,0,0,8,10,8,0,15,0,0,0,3,10,0,0,0,0,3,0,0,13,0,13,0,15,0,0,0,0,0,10,0,3,0,0,0],"split_type":[0,0,0,0,0,0,0,0,0,0,0,0,0,0,0,0,0,0,0,0,0,0,0,0,0,0,0,0,0,0,0,0,0,0,0,0,0,0,0,0,0,0,0,0,0,0,0,0,0,0,0,0,0,0,0,0,0,0,0,0,0,0,0,0,0,0,0,0,0],"sum_hessian":[1.1965121E4,2.749204E3,9.215917E3,2.608946E3,1.4025807E2,4.9939966E3,4.22192E3,2.5738936E3,2.4201033E3,2.0461674E3,2.1757527E3,1.3611393E3,1.2127542E3,1.662047E3,7.580562E2,1.532788E3,6.4296466E2,1.2648589E3,9.6280396E1,1.1963477E3,1.6406532E1,8.138327E2,8.4821423E2,6.1098517E2,9.2180286E2,3.3607016E2,3.0689447E2,1.16152885E2,1.148706E3,2.4755283E1,1.1715923E3,1.6866251E1,7.969665E2,7.1788855E2,1.303257E2,1.0406693E2,5.069182E2,5.953125E2,3.2649033E2,1.2748791E1,3.2332138E2,7.762701E2,2.0696367E1,8.3635345E1,6.342532E2,4.5475995E2,5.2158264E1,1.895272E2,4.057853E2,3.0158104E1,2.963322E2,3.0724695E2,1.607444E1,6.0349976E2,3.0753422E1,3.523326E2,1.0242735E2,2.4821796E2,4.8114254E1,5.874453E2,1.6054451E1,1.6950436E1,3.3538217E2,2.2706714E2,2.1150826E1,2.0675421E2,2.0312927E1,3.4394367E1,1.7235985E2],"tree_param":{"num_deleted":"0","num_feature":"16","num_nodes":"69","size_leaf_vector":"1"}},{"base_weights":[-3.5949382E-1,-3.8354284E-1,-3.130076E-1,-3.4206852E-1,-4.333986E-1,-2.1432128E-2,-2.0587857E-1,-3.438711E-1,-0E0,-0E0,-2.7705159E-2,-2.1472366E-1,-0E0,-2.2038039E-2,-0E0,-0E0,-1.4773895E-2],"categories":[],"categories_nodes":[],"categories_segments":[],"categories_sizes":[],"default_left":[0,0,0,0,0,0,0,1,0,0,0,1,0,0,0,0,0],"id":29,"left_children":[1,3,5,7,9,-1,11,13,-1,-1,-1,15,-1,-1,-1,-1,-1],"loss_changes":[1.1240234E0,2.0681152E0,1.4949341E0,3.2114563E0,1.3917847E0,0E0,1.8758392E0,1.5366821E0,0E0,0E0,0E0,1.6165199E0,0E0,0E0,0E0,0E0,0E0],"parents":[2147483647,0,0,1,1,2,2,3,3,4,4,6,6,7,7,11,11],"right_children":[2,4,6,8,10,-1,12,14,-1,-1,-1,16,-1,-1,-1,-1,-1],"split_conditions":[2.882328E0,1E0,8.9E1,9.35E1,7.570718E-1,-2.1432128E-2,9.7581804E-1,2.376E3,-0E0,-0E0,-2.7705159E-2,1.489E3,-0E0,-2.2038039E-2,-0E0,-0E0,-1.4773895E-2],"split_indices":[5,1,2,2,10,0,10,11,0,0,0,11,0,0,0,0,0],"split_type":[0,0,0,0,0,0,0,0,0,0,0,0,0,0,0,0,0],"sum_hessian":[1.1522305E4,7.348193E3,4.1741123E3,4.2025317E3,3.145661E3,3.2885198E3,8.8559265E2,4.185719E3,1.6812687E1,1.8945362E1,3.1267156E3,8.546056E2,3.098709E1,4.1424966E3,4.3222607E1,9.343406E1,7.611715E2],"tree_param":{"num_deleted":"0","num_feature":"16","num_nodes":"17","size_leaf_vector":"1"}},{"base_weights":[6.585985E-1,7.735829E-1,5.8420056E-1,8.746192E-1,4.5218345E-2,6.417731E-1,5.1725227E-1,5.593129E-2,-0E0,5.772981E-1,7.2826576E-1,4.1870254E-1,5.979279E-1,3.6922194E-2,-0E0,5.9149784E-1,8.36838E-1,2.6803622E-2,-0E0,6.0261082E-2,4.6690178E-1,1.6139705E-1,6.358596E-1,6.436379E-1,6.446799E-2,4.0783516E-1,6.475713E-1,-0E0,2.4336798E-1,-0E0,4.100758E-2,-0E0,6.7211473E-1,2.6139785E-2,-0E0,4.2815696E-2,-0E0,-0E0,1.8693242E-2,-0E0,4.344575E-2],"categories":[],"categories_nodes":[],"categories_segments":[],"categories_sizes":[],"default_left":[0,0,0,1,0,1,0,0,0,0,0,1,0,0,0,0,0,0,0,0,0,0,0,0,0,0,0,0,0,0,0,0,0,0,0,0,0,0,0,0,0],"id":30,"left_children":[1,3,5,7,-1,9,11,-1,-1,13,15,17,19,-1,-1,21,23,-1,-1,-1,25,27,29,31,-1,33,35,-1,37,-1,-1,-1,39,-1,-1,-1,-1,-1,-1,-1,-1],"loss_changes":[1.1216211E2,1.152002E1,1.7569092E1,1.0964355E0,0E0,5.802246E0,1.9547241E1,0E0,0E0,9.79126E-1,5.7127686E0,1.5534668E0,8.7774414E1,0E0,0E0,5.4198914E0,7.463867E0,0E0,0E0,0E0,1.4264832E0,1.1511865E0,2.2750854E0,2.8365784E0,0E0,1.1297302E0,4.9182434E0,0E0,9.4247484E-1,0E0,0E0,0E0,1.1137085E0,0E0,0E0,0E0,0E0,0E0,0E0,0E0,0E0],"parents":[2147483647,0,0,1,1,2,2,3,3,5,5,6,6,9,9,10,10,11,11,12,12,15,15,16,16,20,20,21,21,22,22,23,23,25,25,26,26,28,28,32,32],"right_children":[2,4,6,8,-1,10,12,-1,-1,14,16,18,20,-1,-1,22,24,-1,-1,-1,26,28,30,32,-1,34,36,-1,38,-1,-1,-1,40,-1,-1,-1,-1,-1,-1,-1,-1],"split_conditions":[-1.3346237E0,-2.0132396E0,2.479747E0,4.2331074E1,4.5218345E-2,7.2836624E1,1.984764E0,5.593129E-2,-0E0,7.264631E1,-2.8912969E0,1.2695837E0,5.1710635E-1,3.6922194E-2,-0E0,1.6714858E0,1.316046E0,2.6803622E-2,-0E0,6.0261082E-2,2.6497471E0,8.227542E1,-1.2901219E0,-2.5300925E0,6.446799E-2,7.5199704E0,9.471929E-1,-0E0,2.9712515E0,-0E0,4.100758E-2,-0E0,-1.42549715E1,2.6139785E-2,-0E0,4.2815696E-2,-0E0,-0E0,1.8693242E-2,-0E0,4.344575E-2],"split_indices":[6,6,5,12,0,13,8,0,0,13,5,6,4,0,0,8,8,0,0,0,8,13,6,5,0,7,10,0,14,0,0,0,14,0,0,0,0,0,0,0,0],"split_type":[0,0,0,0,0,0,0,0,0,0,0,0,0,0,0,0,0,0,0,0,0,0,0,0,0,0,0,0,0,0,0,0,0,0,0,0,0,0,0,0,0],"sum_hessian":[1.5856165E4,6.1324624E3,9.723703E3,2.2478447E3,3.8846174E3,5.083736E3,4.639967E3,2.2287986E3,1.9046171E1,3.0330784E3,2.0506575E3,2.1876714E3,2.4522954E3,3.007667E3,2.5411352E1,9.8203296E2,1.0686245E3,2.1720012E3,1.5670367E1,6.310105E2,1.821285E3,1.2759128E2,8.5444165E2,5.5965967E2,5.089649E2,1.4475977E3,3.7368738E2,5.352921E1,7.406207E1,1.6534313E1,8.3790735E2,4.036112E1,5.192985E2,1.4346278E3,1.29697895E1,3.5708072E2,1.6606636E1,1.3096045E1,6.0966026E1,1.3355744E1,5.0594278E2],"tree_param":{"num_deleted":"0","num_feature":"16","num_nodes":"41","size_leaf_vector":"1"}},{"base_weights":[-1.6927038E-1,-0E0,-1.6998702E-1,-0E0,-1.7098747E-1,-1.0928896E-2,-0E0],"categories":[],"categories_nodes":[],"categories_segments":[],"categories_sizes":[],"default_left":[0,0,1,0,0,0,0],"id":31,"left_children":[1,-1,3,-1,5,-1,-1],"loss_changes":[1.5726929E0,0E0,1.5688782E0,0E0,1.4240417E0,0E0,0E0],"parents":[2147483647,0,0,2,2,4,4],"right_children":[2,-1,4,-1,6,-1,-1],"split_conditions":[9.274201E-2,-0E0,4.98E2,-0E0,9.43E1,-1.0928896E-2,-0E0],"split_indices":[8,0,11,0,2,0,0],"split_type":[0,0,0,0,0,0,0],"sum_hessian":[1.1953221E4,4.617048E1,1.1907051E4,8.529933E1,1.1821751E4,1.1774615E4,4.7136097E1],"tree_param":{"num_deleted":"0","num_feature":"16","num_nodes":"7","size_leaf_vector":"1"}},{"base_weights":[-1.5628497E-1,-2.023967E-1,-1.15698E-1,-0E0,-1.2971261E-2,-0E0,-1.2191672E-1,-0E0,-1.2406924E-1,-1.0490535E-1,-1.94217E-1,-0E0,-1.1051568E-1,-2.0075464E-1,-0E0,-1.4616258E-1,-7.7878244E-2,-0E0,-1.31636E-2,-0E0,-1.5325673E-1,-0E0,-1.0212302E-1,-9.955132E-3,-0E0,-1.3104568E-2,-5.1241282E-2,-6.4673975E-2,-0E0,-0E0,-7.8047365E-2,-6.264591E-3,-0E0],"categories":[],"categories_nodes":[],"categories_segments":[],"categories_sizes":[],"default_left":[0,1,0,0,0,0,0,0,0,0,0,0,1,0,0,0,0,0,0,0,1,0,0,0,0,0,1,0,0,0,0,0,0],"id":32,"left_children":[1,3,5,-1,-1,-1,7,-1,9,11,13,-1,15,17,-1,19,21,-1,-1,-1,23,-1,25,-1,-1,-1,27,29,-1,-1,31,-1,-1],"loss_changes":[1.7165405E1,2.1549377E0,4.241661E0,0E0,0E0,0E0,1.453476E0,0E0,3.217842E0,3.5151787E0,1.7609177E0,0E0,1.8367844E0,1.4913177E0,0E0,2.2579308E0,3.8936996E0,0E0,0E0,0E0,1.0360832E0,0E0,6.115568E0,0E0,0E0,0E0,1.5441291E0,1.0004234E0,0E0,0E0,1.1160274E0,0E0,0E0],"parents":[2147483647,0,0,1,1,2,2,6,6,8,8,9,9,10,10,12,12,13,13,15,15,16,16,20,20,22,22,26,26,27,27,30,30],"right_children":[2,4,6,-1,-1,-1,8,-1,10,12,14,-1,16,18,-1,20,22,-1,-1,-1,24,-1,26,-1,-1,-1,28,30,-1,-1,32,-1,-1],"split_conditions":[-1.1570144E0,-6.0300755E1,3.035081E1,-0E0,-1.2971261E-2,-0E0,-5.027918E0,-0E0,2.3775558E0,-3.5989406E0,3.9301865E1,-0E0,2.302542E0,3.8654583E1,-0E0,5.66185E0,1.5406113E0,-0E0,-1.31636E-2,-0E0,1.1270721E0,-0E0,1.9764057E-1,-9.955132E-3,-0E0,-1.3104568E-2,3.345206E1,9.423846E-1,-0E0,-0E0,-1.5245008E-1,-6.264591E-3,-0E0],"split_indices":[6,12,13,0,0,0,5,0,8,5,12,0,5,13,0,7,8,0,0,0,6,0,4,0,0,0,12,12,0,0,6,0,0],"split_type":[0,0,0,0,0,0,0,0,0,0,0,0,0,0,0,0,0,0,0,0,0,0,0,0,0,0,0,0,0,0,0,0,0],"sum_hessian":[1.199416E4,5.4205083E3,6.573652E3,2.0703293E1,5.399805E3,3.6840714E2,6.2052446E3,1.1911498E2,6.08613E3,4.9693315E3,1.1167982E3,2.041871E2,4.7651445E3,1.0887668E3,2.803134E1,2.0326023E3,2.7325422E3,2.7870543E1,1.0608964E3,8.792781E1,1.9446746E3,7.712039E2,1.9613384E3,1.909911E3,3.476343E1,5.3654034E2,1.424798E3,1.2625829E3,1.6221507E2,2.3221388E2,1.030369E3,7.6232916E2,2.6803986E2],"tree_param":{"num_deleted":"0","num_feature":"16","num_nodes":"33","size_leaf_vector":"1"}},{"base_weights":[-2.1140955E-1,-1.8369494E-2,-1.8685335E-1,-2.095314E-1,-1.226362E-1,-1.7399715E-1,-1.6475258E-2,-6.266344E-2,-1.8241753E-1,-1.8168747E-1,-0E0,-7.879795E-2,-0E0,-2.5531614E-1,-3.2973941E-3,-1.9938704E-1,-5.0789807E-2,-5.6684576E-3,-0E0,-2.8265905E-1,-0E0,-7.448084E-2,-2.1690333E-1,-0E0,-7.302844E-2,-1.8498773E-2,-0E0,-1.0869267E-2,-0E0,-2.2073913E-1,-0E0,-0E0,-9.265944E-2,-0E0,-1.4342729E-2,-1.1719229E-1,-0E0,-8.959322E-3,-0E0],"categories":[],"categories_nodes":[],"categories_segments":[],"categories_sizes":[],"default_left":[0,0,0,0,0,0,0,0,0,0,0,1,0,0,0,0,0,0,0,0,0,0,0,0,0,0,0,0,0,0,0,0,0,0,0,0,0,0,0],"id":33,"left_children":[1,-1,3,5,7,9,-1,11,13,15,-1,17,-1,19,-1,21,23,-1,-1,25,-1,27,29,-1,31,-1,-1,-1,-1,33,-1,-1,35,-1,-1,37,-1,-1,-1],"loss_changes":[1.4475525E1,0E0,7.7989197E0,4.2724915E0,5.204895E0,4.967163E0,0E0,2.3295927E0,5.9185143E0,4.7502136E0,0E0,1.7833991E0,0E0,1.7795906E0,0E0,2.3194122E0,1.1182234E0,0E0,0E0,1.3592834E0,0E0,3.3227985E0,2.0531158E0,0E0,1.1627374E0,0E0,0E0,0E0,0E0,1.6135101E0,0E0,0E0,1.5795107E0,0E0,0E0,1.3149939E0,0E0,0E0,0E0],"parents":[2147483647,0,0,2,2,3,3,4,4,5,5,7,7,8,8,9,9,11,11,13,13,15,15,16,16,19,19,21,21,22,22,24,24,29,29,32,32,35,35],"right_children":[2,-1,4,6,8,10,-1,12,14,16,-1,18,-1,20,-1,22,24,-1,-1,26,-1,28,30,-1,32,-1,-1,-1,-1,34,-1,-1,36,-1,-1,38,-1,-1,-1],"split_conditions":[-1.6953683E0,-1.8369494E-2,3.202357E0,7.4704834E1,2.2477171E0,1.5371429E0,-1.6475258E-2,9E1,1.3282925E0,8.77E1,-0E0,6.416386E-1,-0E0,6.222787E-2,-3.2973941E-3,-3.2127972E0,4.6603203E1,-5.6684576E-3,-0E0,5.574514E1,-0E0,8.2E1,7.409883E1,-0E0,-1.8446247E1,-1.8498773E-2,-0E0,-1.0869267E-2,-0E0,2.0510944E1,-0E0,-0E0,4.8298164E1,-0E0,-1.4342729E-2,7.226445E1,-0E0,-8.959322E-3,-0E0],"split_indices":[6,0,5,13,8,3,0,2,4,2,0,6,0,6,0,5,15,0,0,14,0,2,13,0,14,0,0,0,0,15,0,0,14,0,0,13,0,0,0],"split_type":[0,0,0,0,0,0,0,0,0,0,0,0,0,0,0,0,0,0,0,0,0,0,0,0,0,0,0,0,0,0,0,0,0,0,0,0,0,0,0],"sum_hessian":[1.1834656E4,2.6888171E3,9.14584E3,6.5654727E3,2.5803672E3,4.0153718E3,2.5501008E3,1.4279988E3,1.1523684E3,3.8328992E3,1.8247258E2,1.2772919E3,1.5070692E2,6.572612E2,4.9510715E2,3.2645977E3,5.683015E2,1.224557E3,5.2734875E1,5.5803577E2,9.922548E1,5.185525E2,2.7460452E3,8.511804E1,4.831835E2,5.4391907E2,1.4116663E1,2.1049039E2,3.080621E2,2.6934824E3,5.256277E1,4.8630215E1,4.3455328E2,7.649063E1,2.6169917E3,3.8566898E2,4.8884304E1,3.329735E2,5.2695446E1],"tree_param":{"num_deleted":"0","num_feature":"16","num_nodes":"39","size_leaf_vector":"1"}},{"base_weights":[-3.4687835E-1,-2.5625056E-2,-2.0220997E-2],"categories":[],"categories_nodes":[],"categories_segments":[],"categories_sizes":[],"default_left":[0,0,0],"id":34,"left_children":[1,-1,-1],"loss_changes":[6.175415E0,0E0,0E0],"parents":[2147483647,0,0],"right_children":[2,-1,-1],"split_conditions":[-1.442434E0,-2.5625056E-2,-2.0220997E-2],"split_indices":[6,0,0],"split_type":[0,0,0],"sum_hessian":[1.1273146E4,3.6759932E3,7.5971533E3],"tree_param":{"num_deleted":"0","num_feature":"16","num_nodes":"3","size_leaf_vector":"1"}},{"base_weights":[6.16073E-1,6.92949E-1,5.190145E-1,5.253649E-2,6.441967E-1,4.8756823E-1,6.245808E-1,6.109001E-1,7.8073066E-1,2.6662514E-1,5.039691E-1,7.178099E-1,3.424534E-1,6.6904926E-1,4.83447E-1,9.070378E-1,3.708335E-2,2.7793294E-1,-0E0,5.7978797E-1,4.115335E-1,2.4897497E-2,5.303301E-2,-0E0,3.6845452E-1,7.454229E-1,5.5953604E-1,3.0947741E-2,-0E0,4.7094414E-1,6.553885E-2,-0E0,1.8852951E-2,4.2111072E-1,4.1148607E-2,5.3839254E-1,3.4047183E-1,-0E0,3.851733E-1,-0E0,4.7813714E-2,-0E0,5.668946E-1,-0E0,3.261581E-2,4.4245586E-2,3.3644125E-1,1.8876585E-1,4.8844915E-2,2.2312442E-2,-0E0,2.5395345E-2,-0E0,-0E0,3.6365714E-2,-0E0,2.2461751E-2,-0E0,2.1436737E-1,-0E0,1.5229492E-2],"categories":[],"categories_nodes":[],"categories_segments":[],"categories_sizes":[],"default_left":[0,0,0,0,0,0,0,0,0,0,0,0,1,0,0,0,0,0,0,0,0,0,0,0,0,0,0,0,0,0,0,0,0,0,0,0,1,0,0,0,0,0,0,0,0,0,0,1,0,0,0,0,0,0,0,0,0,0,0,0,0],"id":35,"left_children":[1,3,5,-1,7,9,11,13,15,17,19,21,23,25,27,29,-1,31,-1,33,35,-1,-1,-1,37,39,41,-1,-1,43,-1,-1,-1,45,-1,47,49,-1,51,-1,-1,-1,53,-1,-1,-1,55,57,-1,-1,-1,-1,-1,-1,-1,-1,-1,-1,59,-1,-1],"loss_changes":[9.903516E1,3.1643555E1,4.8483887E0,0E0,5.7907715E0,7.5861816E0,2.2037415E1,2.0227783E1,3.7652588E0,1.331501E0,1.9666504E1,2.0450867E1,3.4948235E0,7.670532E0,1.3417358E0,9.737793E0,0E0,1.3020439E0,0E0,1.0954285E1,7.24469E0,0E0,0E0,0E0,2.814663E0,1.5429688E0,2.836853E0,0E0,0E0,3.3413887E0,0E0,0E0,0E0,3.2572632E0,0E0,4.7564438E1,1.7990417E0,0E0,1.5647125E0,0E0,0E0,0E0,9.100342E-1,0E0,0E0,0E0,1.52108E0,2.0010223E0,0E0,0E0,0E0,0E0,0E0,0E0,0E0,0E0,0E0,0E0,2.1741972E0,0E0,0E0],"parents":[2147483647,0,0,1,1,2,2,4,4,5,5,6,6,7,7,8,8,9,9,10,10,11,11,12,12,13,13,14,14,15,15,17,17,19,19,20,20,24,24,25,25,26,26,29,29,33,33,35,35,36,36,38,38,42,42,46,46,47,47,58,58],"right_children":[2,4,6,-1,8,10,12,14,16,18,20,22,24,26,28,30,-1,32,-1,34,36,-1,-1,-1,38,40,42,-1,-1,44,-1,-1,-1,46,-1,48,50,-1,52,-1,-1,-1,54,-1,-1,-1,56,58,-1,-1,-1,-1,-1,-1,-1,-1,-1,-1,60,-1,-1],"split_conditions":[-9.6847796E-1,-2.0132396E0,2.3590343E0,5.253649E-2,2.232861E0,-3.177396E0,1.1182351E0,2.7786427E0,8.6501896E-1,3.263354E1,2.5612824E0,-1.4673294E0,-8.860822E-1,5.8916497E0,6.483341E0,-1.2642083E0,3.708335E-2,5.810694E0,-0E0,1.1846136E0,2.1653365E-1,2.4897497E-2,5.303301E-2,-0E0,1.1647872E0,-4.1261024E0,-3.7711475E0,3.0947741E-2,-0E0,2.304065E0,6.553885E-2,-0E0,1.8852951E-2,-1.0251646E0,4.1148607E-2,1.5886642E0,7.534682E-1,-0E0,9.602098E-1,-0E0,4.7813714E-2,-0E0,9.0730876E-1,-0E0,3.261581E-2,4.4245586E-2,-1.8446247E1,5.810694E0,4.8844915E-2,2.2312442E-2,-0E0,2.5395345E-2,-0E0,-0E0,3.6365714E-2,-0E0,2.2461751E-2,-0E0,-1.111715E1,-0E0,1.5229492E-2],"split_indices":[6,6,8,0,8,5,4,5,4,12,5,4,6,9,9,4,0,7,0,8,4,0,0,0,4,5,5,0,0,8,0,0,0,4,0,8,6,0,10,0,0,0,10,0,0,0,14,7,0,0,0,0,0,0,0,0,0,0,14,0,0],"split_type":[0,0,0,0,0,0,0,0,0,0,0,0,0,0,0,0,0,0,0,0,0,0,0,0,0,0,0,0,0,0,0,0,0,0,0,0,0,0,0,0,0,0,0,0,0,0,0,0,0,0,0,0,0,0,0,0,0,0,0,0,0],"sum_hessian":[1.6066328E4,8.86175E3,7.204577E3,2.2835132E3,6.5782373E3,5.6824263E3,1.5221512E3,5.3969453E3,1.1812917E3,4.6504108E2,5.2173853E3,1.0972406E3,4.2491068E2,3.6098235E3,1.7871221E3,6.6505615E2,5.162356E2,4.4499506E2,2.0046003E1,2.760998E3,2.456387E3,3.2641116E2,7.7082947E2,3.247361E1,3.9243707E2,2.0292263E3,1.580597E3,1.7728975E3,1.4224611E1,1.7808748E2,4.869687E2,3.8563034E1,4.0643204E2,8.950418E2,1.8659563E3,7.9267377E2,1.6637131E3,1.4582579E1,3.778545E2,2.7889471E1,2.0013369E3,3.200852E1,1.5485885E3,1.5312173E1,1.6277531E2,1.609923E2,7.340495E2,3.439502E2,4.4872357E2,1.5843163E3,7.9396835E1,3.618865E2,1.5967983E1,2.0873466E1,1.5277151E3,5.4713448E1,6.7933606E2,3.4301785E1,3.096484E2,2.357564E1,2.8607278E2],"tree_param":{"num_deleted":"0","num_feature":"16","num_nodes":"61","size_leaf_vector":"1"}},{"base_weights":[-1.5419301E-1,-0E0,-1.5572508E-1,-1.744968E-1,-1.23265E-1,-1.1170704E-2,-0E0,-1.3157621E-1,-0E0,-1.3669735E-1,-0E0,-0E0,-1.3913037E-1,-8.953606E-3,-0E0],"categories":[],"categories_nodes":[],"categories_segments":[],"categories_sizes":[],"default_left":[1,0,0,0,0,0,0,0,0,1,0,0,0,0,0],"id":36,"left_children":[1,-1,3,5,7,-1,-1,9,-1,11,-1,-1,13,-1,-1],"loss_changes":[2.9939575E0,0E0,2.2124634E0,1.0402832E0,3.0670242E0,0E0,0E0,2.370758E0,0E0,1.547493E0,0E0,0E0,1.1199036E0,0E0,0E0],"parents":[2147483647,0,0,2,2,3,3,4,4,7,7,9,9,12,12],"right_children":[2,-1,4,6,8,-1,-1,10,-1,12,-1,-1,14,-1,-1],"split_conditions":[-1.8259459E1,-0E0,-8.1103194E-1,9.43E1,4.1285267E1,-1.1170704E-2,-0E0,1.5371429E0,-0E0,4.98E2,-0E0,-0E0,2.64E3,-8.953606E-3,-0E0],"split_indices":[3,0,6,2,14,0,0,3,0,11,0,0,11,0,0],"split_type":[0,0,0,0,0,0,0,0,0,0,0,0,0,0,0],"sum_hessian":[1.185747E4,1.0875973E2,1.174871E4,7.1159136E3,4.632796E3,7.070121E3,4.5792732E1,4.2428384E3,3.8995773E2,4.0575684E3,1.8527002E2,6.0818977E1,3.9967493E3,3.967291E3,2.9458422E1],"tree_param":{"num_deleted":"0","num_feature":"16","num_nodes":"15","size_leaf_vector":"1"}},{"base_weights":[-1.5416664E-1,-1.9705406E-1,-1.1610083E-1,-1.9888061E-1,-0E0,-9.5112786E-2,-1.6870768E-1,-1.2819724E-2,-0E0,-9.934247E-2,-0E0,-1.7270379E-1,-0E0,-0E0,-1.0186763E-1,-0E0,-1.1140572E-2,-1.307896E-1,-6.3527204E-2,-0E0,-1.3870582E-1,-4.8154034E-3,-0E0,-0E0,-1.4195643E-1,-1.4550522E-1,-0E0,-9.379299E-3,-0E0],"categories":[],"categories_nodes":[],"categories_segments":[],"categories_sizes":[],"default_left":[0,0,1,0,0,0,0,0,0,0,0,0,0,0,0,0,0,0,0,0,0,0,0,0,1,0,0,0,0],"id":37,"left_children":[1,3,5,7,-1,9,11,-1,-1,13,-1,15,-1,-1,17,-1,-1,19,21,-1,23,-1,-1,-1,25,27,-1,-1,-1],"loss_changes":[1.4143341E1,2.433075E0,2.7874908E0,9.306183E-1,0E0,1.9414101E0,1.3690529E0,0E0,0E0,1.662693E0,0E0,8.3271027E-1,0E0,0E0,1.8762436E0,0E0,0E0,1.1859322E0,2.4687061E0,0E0,1.2169838E0,0E0,0E0,0E0,9.838524E-1,8.2590485E-1,0E0,0E0,0E0],"parents":[2147483647,0,0,1,1,2,2,3,3,5,5,6,6,9,9,11,11,14,14,17,17,18,18,20,20,24,24,25,25],"right_children":[2,4,6,8,-1,10,12,-1,-1,14,-1,16,-1,-1,18,-1,-1,20,22,-1,24,-1,-1,-1,26,28,-1,-1,-1],"split_conditions":[-1.1570144E0,5.2549805E1,8.344143E1,9.3E1,-0E0,8.1891235E1,1.1270721E0,-1.2819724E-2,-0E0,5.8994646E0,-0E0,5.5523574E-1,-0E0,-0E0,8.48E1,-0E0,-1.1140572E-2,3.1430809E1,9.632885E-1,-0E0,-5.245605E0,-4.8154034E-3,-0E0,-0E0,4.0142345E1,6.133333E0,-0E0,-9.379299E-3,-0E0],"split_indices":[6,12,13,2,0,13,6,0,0,13,0,8,0,0,2,0,0,13,10,0,5,0,0,0,12,3,0,0,0],"split_type":[0,0,0,0,0,0,0,0,0,0,0,0,0,0,0,0,0,0,0,0,0,0,0,0,0,0,0,0,0],"sum_hessian":[1.1848663E4,5.363355E3,6.4853086E3,5.3267563E3,3.659819E1,4.864329E3,1.6209795E3,5.217987E3,1.0876974E2,4.6554297E3,2.0889946E2,1.592612E3,2.8367338E1,6.7845085E1,4.587585E3,1.4525482E1,1.5780867E3,2.3671306E3,2.220454E3,2.0113773E2,2.165993E3,1.9966735E3,2.2378065E2,3.7789898E1,2.128203E3,2.0719995E3,5.620344E1,2.058717E3,1.3282591E1],"tree_param":{"num_deleted":"0","num_feature":"16","num_nodes":"29","size_leaf_vector":"1"}},{"base_weights":[-2.0448558E-1,-2.4011178E-1,-1.5409133E-1,-1.8953096E-2,-1.9155273E-1,-1.1879401E-1,-1.9450344E-1,-1.0904555E-1,-2.3295768E-1,-1.4254664E-1,-4.214247E-2,-1.9754991E-1,-0E0,-2.2367561E-2,-1.7008714E-1,-1.984889E-2,-1.5648182E-1,-0E0,-9.521501E-3,-4.3658195E-3,-0E0,-2.0771797E-1,-0E0,-0E0,-9.288706E-2,-1.3436919E-2,-2.4463801E-1,-1.2422495E-3,-2.1901539E-1,-2.1258521E-1,-0E0,-1.3679814E-1,-0E0,1.8873692E-2,-1.136291E-1,-0E0,-2.6031247E-1,-1.4528776E-2,-0E0,-1.3733146E-2,-0E0,-1.086075E-2,-0E0,-0E0,1.4006838E-1,-1.4959149E-1,-0E0,-0E0,-2.0326512E-2,-0E0,1.3109104E-2,-1.1965946E-2,-0E0],"categories":[],"categories_nodes":[],"categories_segments":[],"categories_sizes":[],"default_left":[0,0,1,0,0,0,0,0,0,0,0,1,0,0,0,0,0,0,0,0,0,1,0,0,0,0,1,0,1,0,0,0,0,0,1,0,0,0,0,0,0,0,0,0,0,0,0,0,0,0,0,0,0],"id":38,"left_children":[1,3,5,-1,7,9,11,13,15,17,19,21,-1,23,25,-1,27,-1,-1,-1,-1,29,-1,-1,31,33,35,-1,37,39,-1,41,-1,43,45,-1,47,-1,-1,-1,-1,-1,-1,-1,49,51,-1,-1,-1,-1,-1,-1,-1],"loss_changes":[1.4436554E1,1.0446777E1,1.9889755E0,0E0,7.2158203E0,2.2608452E0,1.1901169E0,4.2330685E0,6.5274963E0,2.1639977E0,1.1240923E0,9.943085E-1,0E0,1.8182303E0,4.0387497E0,0E0,7.3686066E0,0E0,0E0,0E0,0E0,1.3662262E0,0E0,0E0,8.7698984E-1,2.5418453E0,2.3499374E0,0E0,1.4207535E0,1.1955948E0,0E0,1.1274886E0,0E0,1.4310527E0,1.5425065E0,0E0,2.6919117E0,0E0,0E0,0E0,0E0,0E0,0E0,0E0,8.787402E-1,1.450201E0,0E0,0E0,0E0,0E0,0E0,0E0,0E0],"parents":[2147483647,0,0,1,1,2,2,4,4,5,5,6,6,7,7,8,8,9,9,10,10,11,11,13,13,14,14,16,16,21,21,24,24,25,25,26,26,28,28,29,29,31,31,33,33,34,34,36,36,44,44,45,45],"right_children":[2,4,6,-1,8,10,12,14,16,18,20,22,-1,24,26,-1,28,-1,-1,-1,-1,30,-1,-1,32,34,36,-1,38,40,-1,42,-1,44,46,-1,48,-1,-1,-1,-1,-1,-1,-1,50,52,-1,-1,-1,-1,-1,-1,-1],"split_conditions":[-8.9460564E-1,8.59E1,1.744E3,-1.8953096E-2,1E0,8.66E1,2.2774947E0,1E0,1.0396134E-1,7.7529454E-1,1.602E3,6.416386E-1,-0E0,8.384463E-1,-3.7180662E-1,-1.984889E-2,1.8152176E0,-0E0,-9.521501E-3,-4.3658195E-3,-0E0,3.6292774E1,-0E0,-0E0,2.082622E0,1.964934E0,1.306E3,-1.2422495E-3,2.192E3,6.1008514E1,-0E0,6.961614E0,-0E0,-2.0459352E0,2.8193207E1,-0E0,8.170926E-1,-1.4528776E-2,-0E0,-1.3733146E-2,-0E0,-1.086075E-2,-0E0,-0E0,8.65E1,6.9287667E0,-0E0,-0E0,-2.0326512E-2,-0E0,1.3109104E-2,-1.1965946E-2,-0E0],"split_indices":[6,2,11,0,1,2,4,0,4,8,11,6,0,4,4,0,8,0,0,0,0,12,0,0,8,8,11,0,11,14,0,7,0,6,12,0,8,0,0,0,0,0,0,0,2,7,0,0,0,0,0,0,0],"split_type":[0,0,0,0,0,0,0,0,0,0,0,0,0,0,0,0,0,0,0,0,0,0,0,0,0,0,0,0,0,0,0,0,0,0,0,0,0,0,0,0,0,0,0,0,0,0,0,0,0,0,0,0,0],"sum_hessian":[1.1699668E4,6.6573257E3,5.0423423E3,2.8836157E3,3.77371E3,2.914041E3,2.1283013E3,1.3967616E3,2.3769485E3,2.0593296E3,8.5471155E2,2.0935798E3,3.4721607E1,6.89872E2,7.068896E2,1.0605443E3,1.3164042E3,9.2452126E1,1.9668774E3,5.600558E2,2.9465573E2,1.9164204E3,1.7715932E2,4.4163895E2,2.4823306E2,2.9999194E2,4.0689764E2,4.9605234E2,8.2035187E2,1.8597811E3,5.663938E1,1.5987805E2,8.835502E1,1.0451118E2,1.9548076E2,1.31582775E1,3.9373935E2,7.824965E2,3.785539E1,1.8315045E3,2.8276604E1,1.4057028E2,1.930776E1,3.2284023E1,7.222716E1,1.8059511E2,1.4885647E1,1.065455E2,2.8719385E2,1.9520552E1,5.2706604E1,1.5444205E2,2.6153057E1],"tree_param":{"num_deleted":"0","num_feature":"16","num_nodes":"53","size_leaf_vector":"1"}},{"base_weights":[-3.4627926E-1,-2.5597807E-2,-3.1794697E-1,-0E0,-3.1911528E-1,-2.303978E-2,-2.8206968E-1,-0E0,-2.8343502E-1,-1.8435773E-2,-2.3132043E-3],"categories":[],"categories_nodes":[],"categories_segments":[],"categories_sizes":[],"default_left":[0,0,0,0,0,0,0,0,1,0,0],"id":39,"left_children":[1,-1,3,-1,5,-1,7,-1,9,-1,-1],"loss_changes":[5.4658203E0,0E0,1.288147E0,0E0,1.1407471E0,0E0,1.2235107E0,0E0,1.091919E0,0E0,0E0],"parents":[2147483647,0,0,2,2,4,4,6,6,8,8],"right_children":[2,-1,4,-1,6,-1,8,-1,10,-1,-1],"split_conditions":[-1.4613304E0,-2.5597807E-2,5.164864E0,-0E0,8.5E1,-2.303978E-2,-1.4517654E0,-0E0,5.0373185E-1,-1.8435773E-2,-2.3132043E-3],"split_indices":[6,0,7,0,2,0,6,0,6,0,0],"split_type":[0,0,0,0,0,0,0,0,0,0,0],"sum_hessian":[1.1143706E4,3.5441697E3,7.5995366E3,4.29136E1,7.556623E3,3.288809E3,4.267814E3,2.5813467E1,4.2420005E3,4.073324E3,1.6867639E2],"tree_param":{"num_deleted":"0","num_feature":"16","num_nodes":"11","size_leaf_vector":"1"}},{"base_weights":[5.814044E-1,6.9083655E-1,5.2651304E-1,7.044191E-1,3.1301874E-1,6.168915E-1,4.8293293E-1,5.2650806E-2,6.622036E-1,3.7261793E-1,-0E0,4.436661E-2,5.3513855E-1,4.1182387E-1,5.805245E-1,4.434749E-2,4.4839412E-1,-0E0,2.505919E-2,3.4320105E-2,-0E0,4.1435662E-1,-0E0,-0E0,5.8274156E-1,4.567884E-1,-0E0,2.6579658E-2,-0E0,3.72171E-2,-0E0,-0E0,2.9735778E-2],"categories":[],"categories_nodes":[],"categories_segments":[],"categories_sizes":[],"default_left":[0,0,0,0,0,0,0,0,0,1,0,0,0,0,1,0,0,0,0,0,0,0,0,0,0,0,0,0,0,0,0,0,0],"id":40,"left_children":[1,3,5,7,9,11,13,-1,15,17,-1,-1,19,21,23,-1,25,-1,-1,-1,-1,27,-1,-1,29,31,-1,-1,-1,-1,-1,-1,-1],"loss_changes":[7.872119E1,1.0592773E1,2.5109375E1,1.0219727E0,5.4274483E0,1.6745605E0,3.6264282E1,0E0,9.701538E0,1.1644745E0,0E0,0E0,1.2371216E0,4.0389404E0,1.6916504E0,0E0,1.5405579E0,0E0,0E0,0E0,0E0,3.4295044E0,0E0,0E0,8.7268066E-1,1.1875381E0,0E0,0E0,0E0,0E0,0E0,0E0,0E0],"parents":[2147483647,0,0,1,1,2,2,3,3,4,4,5,5,6,6,8,8,9,9,12,12,13,13,14,14,16,16,21,21,24,24,25,25],"right_children":[2,4,6,8,10,12,14,-1,16,18,-1,-1,20,22,24,-1,26,-1,-1,-1,-1,28,-1,-1,30,32,-1,-1,-1,-1,-1,-1,-1],"split_conditions":[-1.481807E0,9.2E1,8.39E1,-2.3154004E0,5.8425755E1,-5.482197E-1,8.523229E1,5.2650806E-2,6.1675153E0,-2.2170951E0,-0E0,4.436661E-2,4.1076922E0,8.506158E1,-2.5950087E1,4.434749E-2,7.439836E1,-0E0,2.505919E-2,3.4320105E-2,-0E0,9.23E1,-0E0,-0E0,1.019807E0,2.7463829E1,-0E0,2.6579658E-2,-0E0,3.72171E-2,-0E0,-0E0,2.9735778E-2],"split_indices":[6,2,2,6,14,6,15,0,9,12,0,0,3,15,12,0,14,0,0,0,0,2,0,0,10,13,0,0,0,0,0,0,0],"split_type":[0,0,0,0,0,0,0,0,0,0,0,0,0,0,0,0,0,0,0,0,0,0,0,0,0,0,0,0,0,0,0,0,0],"sum_hessian":[1.6592377E4,5.432341E3,1.1160036E4,5.19964E3,2.327008E2,3.4966433E3,7.663392E3,1.2189696E3,3.9806704E3,2.0252162E2,3.0179188E1,1.6549639E3,1.8416794E3,4.5385894E3,3.124803E3,3.3569504E3,6.237199E2,1.38289E1,1.8869272E2,1.8187017E3,2.2977827E1,4.506767E3,3.182247E1,1.8770216E1,3.1060327E3,6.082931E2,1.5426772E1,4.457955E3,4.881209E1,3.0884016E3,1.7631052E1,2.128133E1,5.870118E2],"tree_param":{"num_deleted":"0","num_feature":"16","num_nodes":"33","size_leaf_vector":"1"}},{"base_weights":[-1.5612885E-1,-2.2944154E-1,-1.4519694E-1,-2.3505406E-1,-0E0,-1.5075842E-1,-5.894918E-2,-0E0,-1.5156582E-2,-0E0,-1.5219659E-1,-0E0,-1.07356146E-1,-9.771772E-3,-0E0,-0E0,-1.4108402E-1,-1.009228E-2,-0E0],"categories":[],"categories_nodes":[],"categories_segments":[],"categories_sizes":[],"default_left":[0,1,0,0,0,1,1,0,0,0,0,0,0,0,0,0,0,0,0],"id":41,"left_children":[1,3,5,7,-1,9,11,-1,-1,-1,13,-1,15,-1,-1,-1,17,-1,-1],"loss_changes":[3.1663513E0,2.3373184E0,1.5291443E0,1.1014633E0,0E0,1.376709E0,2.8560872E0,0E0,0E0,0E0,8.21579E-1,0E0,2.3773966E0,0E0,0E0,0E0,1.4575205E0,0E0,0E0],"parents":[2147483647,0,0,1,1,2,2,3,3,5,5,6,6,10,10,12,12,16,16],"right_children":[2,4,6,8,-1,10,12,-1,-1,-1,14,-1,16,-1,-1,-1,18,-1,-1],"split_conditions":[-2.1064954E0,3.7636757E1,6.1675153E0,-4.2008176E0,-0E0,-4.1619392E1,6.163689E0,-0E0,-1.5156582E-2,-0E0,9.26E1,-0E0,-9.713123E0,-9.771772E-3,-0E0,-0E0,-3.30396E-1,-1.009228E-2,-0E0],"split_indices":[6,12,9,5,0,12,7,0,0,0,2,0,12,0,0,0,6,0,0],"split_type":[0,0,0,0,0,0,0,0,0,0,0,0,0,0,0,0,0,0,0],"sum_hessian":[1.1736716E4,1.3211315E3,1.0415585E4,1.3009724E3,2.0159035E1,9.603872E3,8.1171265E2,1.3651277E1,1.2873212E3,1.21260826E2,9.482611E3,3.2102203E2,4.906906E2,9.356521E3,1.26089615E2,8.824886E1,4.0244174E2,3.761362E2,2.6305567E1],"tree_param":{"num_deleted":"0","num_feature":"16","num_nodes":"19","size_leaf_vector":"1"}},{"base_weights":[-1.4708956E-1,-1.18171014E-1,-1.8486592E-1,-1.6965097E-1,-8.178318E-2,-1.8801832E-1,-0E0,-1.7352228E-1,-0E0,-2.348385E-2,-9.773509E-2,-0E0,-1.2102982E-2,-0E0,-1.8143915E-1,-0E0,-4.844726E-2,-7.618669E-2,-2.0198682E-1,-1.8497422E-1,-0E0,-8.527316E-2,-0E0,-8.748929E-2,-0E0,-1.6028568E-2,-0E0,-0E0,-1.8745442E-1,-0E0,-1.2929481E-1,-0E0,-9.573234E-2,-1.2128947E-2,-0E0,-1.471641E-1,-0E0,-0E0,-9.973632E-2,-1.6301994E-1,-0E0,-6.5131863E-3,-0E0,-0E0,-1.7896801E-1,-1.3404196E-2,-0E0],"categories":[],"categories_nodes":[],"categories_segments":[],"categories_sizes":[],"default_left":[1,0,0,0,1,1,0,0,0,0,0,0,0,0,1,0,0,0,0,0,0,1,0,1,0,0,0,0,0,0,0,0,0,0,0,0,0,0,0,0,0,0,0,0,0,0,0],"id":42,"left_children":[1,3,5,7,9,11,-1,13,-1,15,17,-1,-1,-1,19,-1,21,23,25,27,-1,29,-1,31,-1,-1,-1,-1,33,-1,35,-1,37,-1,-1,39,-1,-1,41,43,-1,-1,-1,-1,45,-1,-1],"loss_changes":[7.8336945E0,8.80748E0,2.8097687E0,2.6335678E0,1.9552155E0,2.103424E0,0E0,2.5387726E0,0E0,1.128336E0,2.3873405E0,0E0,0E0,0E0,1.5378647E0,0E0,1.7562765E0,2.4906025E0,3.6389217E0,1.2818909E0,0E0,1.897824E0,0E0,1.9002266E0,0E0,0E0,0E0,0E0,1.2314911E0,0E0,9.813466E-1,0E0,1.4272633E0,0E0,0E0,1.0775023E0,0E0,0E0,8.3540154E-1,8.30389E-1,0E0,0E0,0E0,0E0,8.927183E-1,0E0,0E0],"parents":[2147483647,0,0,1,1,2,2,3,3,4,4,5,5,7,7,9,9,10,10,14,14,16,16,17,17,18,18,19,19,21,21,23,23,28,28,30,30,32,32,35,35,38,38,39,39,44,44],"right_children":[2,4,6,8,10,12,-1,14,-1,16,18,-1,-1,-1,20,-1,22,24,26,28,-1,30,-1,32,-1,-1,-1,-1,34,-1,36,-1,38,-1,-1,40,-1,-1,42,44,-1,-1,-1,-1,46,-1,-1],"split_conditions":[8.364339E1,8.4E1,9.35E1,3.764562E0,6.202935E0,1.18E3,-0E0,3.2160637E1,-0E0,6.325229E1,2.3775558E0,-0E0,-1.2102982E-2,-0E0,8.032417E1,-0E0,2.8183823E0,2.1625133E0,4.1591744E0,5.164864E0,-0E0,1.1384518E1,-0E0,2.8835136E1,-0E0,-1.6028568E-2,-0E0,-0E0,4.370939E1,-0E0,6.289204E-1,-0E0,-3.6867669E0,-1.2128947E-2,-0E0,2.4967537E0,-0E0,-0E0,8.2083916E1,5.5687113E0,-0E0,-6.5131863E-3,-0E0,-0E0,2.5209625E0,-1.3404196E-2,-0E0],"split_indices":[15,2,2,8,7,11,0,15,0,15,8,0,0,0,13,0,5,8,5,7,0,12,0,13,0,0,0,0,12,0,4,0,5,0,0,8,0,0,13,7,0,0,0,0,5,0,0],"split_type":[0,0,0,0,0,0,0,0,0,0,0,0,0,0,0,0,0,0,0,0,0,0,0,0,0,0,0,0,0,0,0,0,0,0,0,0,0,0,0,0,0,0,0,0,0,0,0],"sum_hessian":[1.177765E4,6.92342E3,4.8542305E3,2.6761638E3,4.2472563E3,4.772212E3,8.201821E1,2.6454316E3,3.0731985E1,1.135091E3,3.1121653E3,4.7063976E1,4.725148E3,1.4893118E2,2.4965005E3,3.896927E2,7.453983E2,2.7134614E3,3.9870398E2,2.4468362E3,4.9664387E1,4.8033035E2,2.6506796E2,2.3823923E3,3.310691E2,3.130215E2,8.568246E1,2.7909283E1,2.418927E3,1.5937706E2,3.209533E2,1.857051E2,2.1966873E3,2.3752173E3,4.370948E1,2.9244803E2,2.850527E1,2.9562263E1,2.167125E3,2.783784E2,1.4069628E1,2.1389126E3,2.8212269E1,2.193005E1,2.5644836E2,2.0465219E2,5.1796165E1],"tree_param":{"num_deleted":"0","num_feature":"16","num_nodes":"47","size_leaf_vector":"1"}},{"base_weights":[-1.9872698E-1,-2.3283151E-1,-1.4625134E-1,-2.7018568E-1,-1.8811263E-1,-1.07872374E-1,-1.8912652E-1,-0E0,-2.7364972E-1,-0E0,-1.9217625E-1,-1.1167793E-1,-0E0,-0E0,-1.9670585E-1,-0E0,-1.7572507E-2,-2.3276144E-1,-1.383407E-1,-1.15076266E-1,-0E0,-2.0078905E-1,-0E0,-0E0,-2.3678179E-1,-1.4846796E-1,-0E0,-0E0,-7.7103223E-3,-2.0357458E-1,-0E0,-0E0,-2.3986529E-1,-0E0,-1.055054E-2,-0E0,-2.0589519E-1,-0E0,-2.4645089E-1,-1.3272294E-2,-0E0,-1.5891584E-2,-0E0],"categories":[],"categories_nodes":[],"categories_segments":[],"categories_sizes":[],"default_left":[1,0,0,0,0,0,0,0,0,0,0,0,0,0,0,0,0,0,0,0,0,0,0,0,0,0,0,0,0,0,0,0,1,0,0,0,0,0,0,0,0,0,0],"id":43,"left_children":[1,3,5,7,9,11,13,-1,15,-1,17,19,-1,-1,21,-1,-1,23,25,27,-1,29,-1,-1,31,33,-1,-1,-1,35,-1,-1,37,-1,-1,-1,39,-1,41,-1,-1,-1,-1],"loss_changes":[1.4420441E1,3.7443237E0,2.9021149E0,2.6266174E0,2.1283875E0,1.255291E0,2.7355728E0,0E0,1.4096375E0,0E0,8.888397E-1,8.847313E-1,0E0,0E0,1.8983078E0,0E0,0E0,1.7370148E0,1.2914963E0,9.934082E-1,0E0,1.3021545E0,0E0,0E0,1.6466904E0,1.1915512E0,0E0,0E0,0E0,1.118782E0,0E0,0E0,1.1497726E0,0E0,0E0,0E0,9.4036865E-1,0E0,1.4107208E0,0E0,0E0,0E0,0E0],"parents":[2147483647,0,0,1,1,2,2,3,3,4,4,5,5,6,6,8,8,10,10,11,11,14,14,17,17,18,18,19,19,21,21,24,24,25,25,29,29,32,32,36,36,38,38],"right_children":[2,4,6,8,10,12,14,-1,16,-1,18,20,-1,-1,22,-1,-1,24,26,28,-1,30,-1,-1,32,34,-1,-1,-1,36,-1,-1,38,-1,-1,-1,40,-1,42,-1,-1,-1,-1],"split_conditions":[-8.468488E-1,2.4663568E0,7.826986E1,1.4586721E1,2.5075426E0,7.7541626E1,-4.8579636E0,-0E0,-2.3012164E0,-0E0,6.405625E-1,2.235E3,-0E0,-0E0,2.64E3,-0E0,-1.7572507E-2,-1.4159302E1,9.8107624E-1,-3.829149E0,-0E0,2.0958793E0,-0E0,-0E0,4.8786364E0,8.042487E-1,-0E0,-0E0,-7.7103223E-3,-8.3904195E-1,-0E0,-0E0,6.722887E1,-0E0,-1.055054E-2,-0E0,6.499578E1,-0E0,6.571961E0,-1.3272294E-2,-0E0,-1.5891584E-2,-0E0],"split_indices":[6,5,15,13,5,15,5,0,4,0,4,11,0,0,11,0,0,12,10,5,0,4,0,0,9,4,0,0,0,6,0,0,15,0,0,0,14,0,9,0,0,0,0],"split_type":[0,0,0,0,0,0,0,0,0,0,0,0,0,0,0,0,0,0,0,0,0,0,0,0,0,0,0,0,0,0,0,0,0,0,0,0,0,0,0,0,0,0,0],"sum_hessian":[1.1584781E4,6.826203E3,4.758578E3,3.5119353E3,3.3142676E3,2.7180288E3,2.0405494E3,5.334157E1,3.4585938E3,8.116139E1,3.2331062E3,2.636416E3,8.161267E1,8.372262E1,1.9568268E3,4.133722E1,3.4172566E3,1.6644108E3,1.5686954E3,2.5496572E3,8.675885E1,1.9250273E3,3.179943E1,2.514831E1,1.6392625E3,1.4202274E3,1.4846794E2,1.8069382E2,2.3689634E3,1.9040554E3,2.0971949E1,1.3322493E1,1.62594E3,2.3770824E2,1.1825192E3,1.6347252E1,1.8877081E3,6.694513E1,1.5589949E3,1.8625052E3,2.5202938E1,1.5419795E3,1.7015316E1],"tree_param":{"num_deleted":"0","num_feature":"16","num_nodes":"43","size_leaf_vector":"1"}},{"base_weights":[-3.3203503E-1,-2.4928285E-2,-3.0204797E-1,-2.0639127E-2,-2.2275546E-1,-2.3887001E-1,-0E0,-2.4154145E-1,-0E0,-0E0,-1.5545694E-2],"categories":[],"categories_nodes":[],"categories_segments":[],"categories_sizes":[],"default_left":[0,0,0,0,0,0,0,1,0,0,0],"id":44,"left_children":[1,-1,3,-1,5,7,-1,9,-1,-1,-1],"loss_changes":[7.7469482E0,0E0,3.9033813E0,0E0,3.9326935E0,1.1779022E0,0E0,8.0592346E-1,0E0,0E0,0E0],"parents":[2147483647,0,0,2,2,4,4,5,5,7,7],"right_children":[2,-1,4,-1,6,8,-1,10,-1,-1,-1],"split_conditions":[-1.4613304E0,-2.4928285E-2,3.3441684E0,-2.0639127E-2,9E1,1.0112789E0,-0E0,8.81E2,-0E0,-0E0,-1.5545694E-2],"split_indices":[6,0,5,0,2,10,0,11,0,0,0],"split_type":[0,0,0,0,0,0,0,0,0,0,0],"sum_hessian":[1.0889581E4,3.4523694E3,7.4372114E3,5.6437485E3,1.7934628E3,1.6282218E3,1.6524097E2,1.612536E3,1.5685849E1,2.1553743E1,1.5909822E3],"tree_param":{"num_deleted":"0","num_feature":"16","num_nodes":"11","size_leaf_vector":"1"}},{"base_weights":[5.406969E-1,4.439964E-2,5.085527E-1,5.687729E-1,4.6106428E-1,4.6654475E-1,6.2872833E-1,3.9902204E-1,5.7316893E-1,-0E0,4.7058073E-1,4.2678452E-1,6.886372E-1,5.492038E-1,3.1671715E-1,5.2024946E-2,4.248783E-1,-0E0,4.807175E-1,-0E0,4.3563023E-1,5.574941E-1,5.0358318E-2,3.9404657E-1,5.2455004E-2,2.9484782E-1,5.7215756E-1,-0E0,4.2940077E-1,4.2409948E-1,6.3585865E-1,2.8031513E-2,-0E0,1.3142831E-2,5.9185445E-1,6.3005424E-1,3.2233852E-1,3.916057E-1,2.5195223E-1,6.055992E-1,-0E0,-0E0,2.7552402E-2,2.8862622E-1,5.5148655E-1,4.1100666E-2,-0E0,5.9813523E-1,-0E0,4.2001493E-2,-0E0,-0E0,3.356806E-1,4.972306E-1,1.8869385E-1,-0E0,2.5439093E-1,-0E0,4.0299978E-2,1.945195E-2,-0E0,3.5568513E-2,-0E0,4.338788E-2,3.9308223E-1,1.223594E-1,4.0060627E-1,-0E0,5.200867E-1,-0E0,2.2271043E-1,-0E0,1.6399838E-2,-0E0,2.5814157E-2,1.8794973E-1,-0E0,4.2085585E-1,-0E0,3.3988345E-2,-0E0,1.5058881E-2,-0E0,2.2660065E-1,-0E0,2.725636E-2,-0E0,-0E0,1.6899705E-2],"categories":[],"categories_nodes":[],"categories_segments":[],"categories_sizes":[],"default_left":[0,0,0,0,0,1,0,0,0,0,0,0,0,0,0,0,0,0,0,0,0,0,0,0,0,0,0,0,1,0,0,0,0,0,0,0,0,0,0,0,0,0,0,0,0,0,0,0,0,0,0,0,0,0,0,0,0,0,0,0,0,0,0,0,0,0,1,0,0,0,0,0,0,0,0,0,0,0,0,0,0,0,0,0,0,0,0,0,0],"id":45,"left_children":[1,-1,3,5,7,9,11,13,15,-1,17,19,21,23,25,-1,27,-1,29,-1,31,33,-1,35,-1,37,39,-1,41,43,45,-1,-1,-1,47,49,51,53,55,57,-1,-1,-1,59,61,-1,-1,63,-1,-1,-1,-1,65,67,69,-1,71,-1,-1,-1,-1,-1,-1,-1,73,75,77,-1,79,-1,81,-1,-1,-1,-1,83,-1,85,-1,-1,-1,-1,-1,87,-1,-1,-1,-1,-1],"loss_changes":[6.3927734E1,0E0,2.2541748E1,1.8168945E1,3.9183594E1,4.260193E0,2.553894E1,5.038037E1,7.842267E1,0E0,5.6312866E0,1.1523743E0,1.4005859E1,5.542169E1,4.7359924E0,0E0,2.3957214E0,0E0,1.6049805E0,0E0,9.1911316E-1,2.217743E0,0E0,3.903122E0,0E0,2.7300415E0,2.9897308E0,0E0,1.347168E0,1.565686E1,9.4033813E-1,0E0,0E0,0E0,2.1992493E0,2.9288101E0,3.3651428E0,7.3729553E0,1.8118134E0,1.137352E0,0E0,0E0,0E0,3.4371948E0,1.9886932E0,0E0,0E0,8.088074E-1,0E0,0E0,0E0,0E0,4.0701675E0,3.0976562E0,3.0198298E0,0E0,1.3395844E0,0E0,0E0,0E0,0E0,0E0,0E0,0E0,1.5382576E0,2.4607782E0,4.4984283E0,0E0,1.0513458E0,0E0,1.2823505E0,0E0,0E0,0E0,0E0,1.7951164E0,0E0,1.4843903E0,0E0,0E0,0E0,0E0,0E0,1.6893234E0,0E0,0E0,0E0,0E0,0E0],"parents":[2147483647,0,0,2,2,3,3,4,4,5,5,6,6,7,7,8,8,10,10,11,11,12,12,13,13,14,14,16,16,18,18,20,20,21,21,23,23,25,25,26,26,28,28,29,29,30,30,34,34,35,35,36,36,37,37,38,38,39,39,43,43,44,44,47,47,52,52,53,53,54,54,56,56,64,64,65,65,66,66,68,68,70,70,75,75,77,77,83,83],"right_children":[2,-1,4,6,8,10,12,14,16,-1,18,20,22,24,26,-1,28,-1,30,-1,32,34,-1,36,-1,38,40,-1,42,44,46,-1,-1,-1,48,50,52,54,56,58,-1,-1,-1,60,62,-1,-1,64,-1,-1,-1,-1,66,68,70,-1,72,-1,-1,-1,-1,-1,-1,-1,74,76,78,-1,80,-1,82,-1,-1,-1,-1,84,-1,86,-1,-1,-1,-1,-1,88,-1,-1,-1,-1,-1],"split_conditions":[-1.9426064E0,4.439964E-2,2.1026323E0,-2.8912969E0,2.1043425E0,-1.8259459E1,5.503399E1,-6.5438725E-2,7.577931E-1,-0E0,1.2816352E0,-1.7735444E0,1.1846136E0,1.5611186E0,1.7106942E0,5.2024946E-2,3.0035707E1,-0E0,2.7641082E0,-0E0,2.0818813E0,-2.2453828E0,5.0358318E-2,-8.3766025E-1,5.2455004E-2,5.3850474E0,2.082622E0,-0E0,-1.74E1,-7.0881325E-1,1.8455606E0,2.8031513E-2,-0E0,1.3142831E-2,5.4598874E-1,2.414E3,4.965839E0,-2.3929623E-1,5.3908267E0,5.0846324E0,-0E0,-0E0,2.7552402E-2,6.1459875E0,1.1270721E0,4.1100666E-2,-0E0,5.9864306E0,-0E0,4.2001493E-2,-0E0,-0E0,1.1363229E0,1.168898E0,1.352E3,-0E0,3.5611862E1,-0E0,4.0299978E-2,1.945195E-2,-0E0,3.5568513E-2,-0E0,4.338788E-2,-1.5161538E1,-8.013242E-1,3.2316337E0,-0E0,5.1318607E1,-0E0,2.082622E0,-0E0,1.6399838E-2,-0E0,2.5814157E-2,1.03420105E2,-0E0,1.1204247E2,-0E0,3.3988345E-2,-0E0,1.5058881E-2,-0E0,2.1963496E0,-0E0,2.725636E-2,-0E0,-0E0,1.6899705E-2],"split_indices":[6,0,5,5,8,3,15,4,4,0,8,4,8,8,4,0,15,0,8,0,5,5,0,4,0,9,8,0,3,4,6,0,0,0,6,11,9,6,9,9,0,0,0,9,6,0,0,9,0,0,0,0,8,8,11,0,15,0,0,0,0,0,0,0,3,6,5,0,14,0,8,0,0,0,0,15,0,15,0,0,0,0,0,5,0,0,0,0,0],"split_type":[0,0,0,0,0,0,0,0,0,0,0,0,0,0,0,0,0,0,0,0,0,0,0,0,0,0,0,0,0,0,0,0,0,0,0,0,0,0,0,0,0,0,0,0,0,0,0,0,0,0,0,0,0,0,0,0,0,0,0,0,0,0,0,0,0,0,0,0,0,0,0,0,0,0,0,0,0,0,0,0,0,0,0,0,0,0,0,0,0],"sum_hessian":[1.6800908E4,2.762315E3,1.4038594E4,6.024196E3,8.0143975E3,2.3369124E3,3.6872837E3,5.2612837E3,2.7531138E3,2.072124E1,2.3161912E3,9.1127905E2,2.7760046E3,1.7866068E3,3.4746768E3,9.940765E2,1.7590374E3,7.2394844E1,2.2437964E3,3.0666777E1,8.806123E2,1.2952805E3,1.480724E3,1.1842355E3,6.0237134E2,3.2651646E3,2.0951225E2,2.392015E1,1.7351172E3,1.7287151E3,5.1508124E2,8.665334E2,1.4078915E1,1.5976418E2,1.1355164E3,2.1776161E2,9.6647394E2,8.786625E2,2.3865022E3,1.9487852E2,1.4633734E1,2.0157772E1,1.7149595E3,9.044645E2,8.242506E2,5.0175363E2,1.33276415E1,1.1178859E3,1.763047E1,2.050624E2,1.2699221E1,4.5643898E1,9.2083E2,5.220866E2,3.565759E2,1.7590538E1,2.3689116E3,1.3934685E1,1.8094383E2,8.4346375E2,6.100073E1,8.092759E2,1.4974696E1,7.332241E2,3.8466174E2,2.756864E2,6.451436E2,3.3656464E1,4.8843015E2,4.0474365E1,3.1610153E2,3.8980732E1,2.329931E3,1.4029776E1,3.70632E2,1.8497217E2,9.071425E1,6.097026E2,3.5441032E1,4.6699658E2,2.143356E1,3.0278595E2,1.3315584E1,1.6138264E2,2.3589521E1,5.97058E2,1.2644556E1,2.0557583E1,1.4082506E2],"tree_param":{"num_deleted":"0","num_feature":"16","num_nodes":"89","size_leaf_vector":"1"}},{"base_weights":[-1.5165874E-1,-1.0936343E-2,-1.17290765E-1,-0E0,-1.2235614E-1,-1.2633704E-1,-0E0,-0E0,-1.2876366E-1,-1.3569213E-1,-0E0,-0E0,-8.795189E-3],"categories":[],"categories_nodes":[],"categories_segments":[],"categories_sizes":[],"default_left":[0,0,0,0,0,0,0,0,0,0,0,0,0],"id":46,"left_children":[1,-1,3,-1,5,7,-1,-1,9,11,-1,-1,-1],"loss_changes":[3.238739E0,0E0,3.397808E0,0E0,2.659439E0,2.2976837E0,0E0,0E0,2.2543259E0,1.9896698E0,0E0,0E0,0E0],"parents":[2147483647,0,0,2,2,4,4,5,5,8,8,9,9],"right_children":[2,-1,4,-1,6,8,-1,-1,10,12,-1,-1,-1],"split_conditions":[-8.1103194E-1,-1.0936343E-2,-2.065042E1,-0E0,2.2792454E0,3.5598123E-1,-0E0,-0E0,4.220682E1,-1.74E1,-0E0,-0E0,-8.795189E-3],"split_indices":[6,0,12,0,3,8,0,0,14,3,0,0,0],"split_type":[0,0,0,0,0,0,0,0,0,0,0,0,0],"sum_hessian":[1.1613916E4,7.0146724E3,4.5992437E3,1.4617912E2,4.4530645E3,4.343308E3,1.0975602E2,2.3680016E1,4.3196284E3,4.0119382E3,3.0769E2,3.8102642E1,3.9738357E3],"tree_param":{"num_deleted":"0","num_feature":"16","num_nodes":"13","size_leaf_vector":"1"}},{"base_weights":[-1.4389287E-1,-2.1352118E-1,-1.1379503E-1,-1.3715484E-2,-0E0,-9.453828E-2,-1.5910344E-1,-1.2558898E-1,-6.1875843E-2,-0E0,-1.6398868E-1,-1.3283356E-1,-0E0,-6.9731675E-2,-0E0,-0E0,-1.6762045E-1,-0E0,-1.3733913E-1,-0E0,-7.443358E-2,-0E0,-1.1028662E-2,-0E0,-1.3978466E-1,-4.883467E-3,-0E0,-1.4140749E-1,-0E0,-9.246991E-3,-0E0],"categories":[],"categories_nodes":[],"categories_segments":[],"categories_sizes":[],"default_left":[1,0,1,0,0,0,0,0,0,0,1,1,0,0,0,0,0,0,0,0,0,0,0,0,0,0,0,0,0,0,0],"id":47,"left_children":[1,3,5,-1,-1,7,9,11,13,-1,15,17,-1,19,-1,-1,21,-1,23,-1,25,-1,-1,-1,27,-1,-1,29,-1,-1,-1],"loss_changes":[1.8990341E1,1.5580597E0,3.044258E0,0E0,0E0,3.07909E0,1.8541374E0,3.98814E0,2.0011005E0,0E0,1.706253E0,2.1989517E0,0E0,1.4762459E0,0E0,0E0,1.608139E0,0E0,1.5393753E0,0E0,8.2742405E-1,0E0,0E0,0E0,8.2403564E-1,0E0,0E0,8.2250595E-1,0E0,0E0,0E0],"parents":[2147483647,0,0,1,1,2,2,5,5,6,6,7,7,8,8,10,10,11,11,13,13,16,16,18,18,20,20,24,24,27,27],"right_children":[2,4,6,-1,-1,8,10,12,14,-1,16,18,-1,20,-1,-1,22,-1,24,-1,26,-1,-1,-1,28,-1,-1,30,-1,-1,-1],"split_conditions":[-1.5380547E0,5.2549805E1,8.305545E1,-1.3715484E-2,-0E0,2.1199653E0,-1.5006107E0,2.287E3,6.093908E0,-0E0,1.323E3,5.8994646E0,-0E0,2.1963496E0,-0E0,-0E0,4.6768913E0,-0E0,-1.8259459E1,-0E0,4.9206896E0,-0E0,-1.1028662E-2,-0E0,8.266593E1,-4.883467E-3,-0E0,4.1167614E1,-0E0,-9.246991E-3,-0E0],"split_indices":[6,12,13,0,0,5,6,11,9,0,11,13,0,5,0,0,9,0,3,0,3,0,0,0,13,0,0,12,0,0,0],"split_type":[0,0,0,0,0,0,0,0,0,0,0,0,0,0,0,0,0,0,0,0,0,0,0,0,0,0,0,0,0,0,0],"sum_hessian":[1.1655329E4,3.3480405E3,8.307288E3,3.321687E3,2.635359E1,6.0897744E3,2.2175144E3,2.8602344E3,3.2295398E3,6.1361534E1,2.1561528E3,2.7824973E3,7.773698E1,2.953833E3,2.757069E2,3.1806862E1,2.124346E3,6.316254E1,2.7193347E3,9.5267845E1,2.8585652E3,8.238373E1,2.0419623E3,1.5627897E1,2.7037068E3,2.831563E3,2.700227E1,2.6831555E3,2.0551348E1,2.5815327E3,1.0162283E2],"tree_param":{"num_deleted":"0","num_feature":"16","num_nodes":"31","size_leaf_vector":"1"}},{"base_weights":[-1.9236976E-1,-2.2418746E-1,-1.5116982E-1,-1.2688036E-1,-2.4454294E-1,-2.4704443E-1,-1.2620403E-1,-0E0,-1.3967383E-1,-1.2623334E-1,-2.6432383E-1,-9.461575E-2,-3.162206E-1,-7.716574E-2,-1.886189E-1,-0E0,-1.5251774E-1,-0E0,-1.3938898E-1,-2.0702983E-1,-1.9977788E-2,-1.4707102E-1,-0E0,-0E0,-3.5406145E-1,-0E0,-8.350339E-2,-2.8946573E-1,-7.748998E-3,-1.0290082E-2,-0E0,-1.5077548E-1,-0E0,-2.358576E-1,-2.8362166E-2,-0E0,-1.0561853E-2,-2.3054693E-2,-0E0,-1.1069286E-1,-2.343923E-2,-1.8836392E-2,-0E0,-1.7181526E-1,-0E0,-0E0,-2.4166007E-1,-0E0,-9.344823E-2,-0E0,-1.195215E-1,-0E0,-5.330219E-3,-1.1478396E-2,-0E0,-0E0,-1.5902309E-2,-1.4155465E-1,-0E0,-1.3118003E-1,-0E0,-1.2380909E-3,9.092612E-2,-0E0,-1.0610684E-2,-8.588892E-3,-0E0,-0E0,8.467388E-3],"categories":[],"categories_nodes":[],"categories_segments":[],"categories_sizes":[],"default_left":[0,0,0,0,0,0,0,0,0,0,0,0,0,0,0,0,0,0,0,0,0,0,0,0,1,0,0,0,0,0,0,1,0,0,1,0,0,0,0,0,0,0,0,0,0,0,0,0,0,0,0,0,0,0,0,0,0,0,0,0,0,0,0,0,0,0,0,0,0],"id":48,"left_children":[1,3,5,7,9,11,13,-1,15,17,19,21,23,25,27,-1,29,-1,31,33,-1,35,-1,-1,37,-1,39,41,-1,-1,-1,43,-1,45,47,-1,-1,-1,-1,49,51,-1,-1,53,-1,-1,55,-1,57,-1,59,61,-1,-1,-1,-1,-1,63,-1,65,-1,-1,67,-1,-1,-1,-1,-1,-1],"loss_changes":[8.776611E0,6.176178E0,6.3047028E0,2.3772717E0,5.2394104E0,3.1032066E0,8.728622E0,0E0,2.6949062E0,2.1281824E0,3.1217346E0,1.669729E0,4.4317055E0,1.2893143E0,4.880928E0,0E0,1.460434E0,0E0,1.9051104E0,6.449089E0,0E0,8.8558674E-1,0E0,0E0,1.2039604E0,0E0,1.6548557E0,1.0532417E0,0E0,0E0,0E0,2.229988E0,0E0,2.6931992E0,1.4489905E0,0E0,0E0,0E0,0E0,1.7651443E0,2.4619753E0,0E0,0E0,1.1371593E0,0E0,0E0,2.034439E0,0E0,1.770222E0,0E0,2.5302143E0,1.8834959E0,0E0,0E0,0E0,0E0,0E0,8.1494546E-1,0E0,1.0318489E0,0E0,0E0,1.2571567E0,0E0,0E0,0E0,0E0,0E0,0E0],"parents":[2147483647,0,0,1,1,2,2,3,3,4,4,5,5,6,6,8,8,9,9,10,10,11,11,12,12,13,13,14,14,16,16,18,18,19,19,21,21,24,24,26,26,27,27,31,31,33,33,34,34,39,39,40,40,43,43,46,46,48,48,50,50,51,51,57,57,59,59,62,62],"right_children":[2,4,6,8,10,12,14,-1,16,18,20,22,24,26,28,-1,30,-1,32,34,-1,36,-1,-1,38,-1,40,42,-1,-1,-1,44,-1,46,48,-1,-1,-1,-1,50,52,-1,-1,54,-1,-1,56,-1,58,-1,60,62,-1,-1,-1,-1,-1,64,-1,66,-1,-1,68,-1,-1,-1,-1,-1,-1],"split_conditions":[2.574962E0,-3.359242E0,6.851844E-3,1.299E3,4.1934624E1,1.4346039E0,2.1625133E0,-0E0,1.6208713E0,8.382392E-1,1.337058E0,9.2019784E-1,1E0,2.6957643E0,8.6501896E-1,-0E0,1.2847826E0,-0E0,7.3148413E0,2.251475E0,-1.9977788E-2,5.8447065E0,-0E0,-0E0,7.2141614E0,-0E0,7.763493E1,2.7E0,-7.748998E-3,-1.0290082E-2,-0E0,1.687E3,-0E0,-3.0478885E0,1.696E3,-0E0,-1.0561853E-2,-2.3054693E-2,-0E0,7.967405E-1,3.6419752E0,-1.8836392E-2,-0E0,2.4663568E0,-0E0,-0E0,-8.63956E0,-0E0,6.877972E0,-0E0,1.2333333E0,3.1568244E-1,-5.330219E-3,-1.1478396E-2,-0E0,-0E0,-1.5902309E-2,8.99179E0,-0E0,2.1552393E0,-0E0,-1.2380909E-3,7.9513275E1,-0E0,-1.0610684E-2,-8.588892E-3,-0E0,-0E0,8.467388E-3],"split_indices":[5,5,4,11,13,8,8,0,8,10,8,10,1,5,4,0,3,0,7,5,0,7,0,0,7,0,13,3,0,0,0,11,0,5,11,0,0,0,0,10,5,0,0,5,0,0,14,0,7,0,3,4,0,0,0,0,0,14,0,8,0,0,13,0,0,0,0,0,0],"split_type":[0,0,0,0,0,0,0,0,0,0,0,0,0,0,0,0,0,0,0,0,0,0,0,0,0,0,0,0,0,0,0,0,0,0,0,0,0,0,0,0,0,0,0,0,0,0,0,0,0,0,0,0,0,0,0,0,0,0,0,0,0,0,0,0,0,0,0,0,0],"sum_hessian":[1.1464426E4,6.2371455E3,5.22728E3,1.2219424E3,5.015203E3,9.391497E2,4.2881304E3,9.220512E1,1.1297373E3,8.4016455E2,4.1750386E3,3.692504E2,5.6989935E2,2.5520994E3,1.7360308E3,6.684169E1,1.0628956E3,4.205052E1,7.98114E2,2.095495E3,2.0795435E3,2.2846094E2,1.4078944E2,8.049426E1,4.8940506E2,1.8817485E2,2.3639246E3,5.9084143E2,1.1451893E3,1.0018321E3,6.10635E1,7.6553564E2,3.257839E1,1.7244712E3,3.7102377E2,1.7350111E1,2.1111082E2,4.7680838E2,1.2596687E1,1.4375023E3,9.2642224E2,5.773383E2,1.3503116E1,6.6445526E2,1.0108036E2,3.5827557E1,1.6886437E3,1.7333226E2,1.976915E2,8.133901E1,1.3561633E3,5.0512457E2,4.2129764E2,6.38027E2,2.6428267E1,7.594287E1,1.6127008E3,1.7299881E2,2.46927E1,1.2724025E3,8.376078E1,2.935184E2,2.1160617E2,1.9638613E1,1.5336018E2,1.2593262E3,