{"learner":{"attributes":{"scikit_learn":"{\"_estimator_type\": \"classifier\"}"},"feature_names":["pitcherHand_L","hitterHand_L","count_group_Early","count_group_2-Str","count_group_Behind","velo","velo_diff","pitcherHeight","extension","x0","z0","spin_rate","ssw","HB","IVB","Break"],"feature_types":["i","i","i","i","i","float","float","float","float","float","float","float","float","float","float","float"],"gradient_booster":{"model":{"gbtree_model_param":{"num_parallel_tree":"1","num_trees":"500"},"iteration_indptr":[0,5,10,15,20,25,30,35,40,45,50,55,60,65,70,75,80,85,90,95,100,105,110,115,120,125,130,135,140,145,150,155,160,165,170,175,180,185,190,195,200,205,210,215,220,225,230,235,240,245,250,255,260,265,270,275,280,285,290,295,300,305,310,315,320,325,330,335,340,345,350,355,360,365,370,375,380,385,390,395,400,405,410,415,420,425,430,435,440,445,450,455,460,465,470,475,480,485,490,495,500],"tree_info":[0,1,2,3,4,0,1,2,3,4,0,1,2,3,4,0,1,2,3,4,0,1,2,3,4,0,1,2,3,4,0,1,2,3,4,0,1,2,3,4,0,1,2,3,4,0,1,2,3,4,0,1,2,3,4,0,1,2,3,4,0,1,2,3,4,0,1,2,3,4,0,1,2,3,4,0,1,2,3,4,0,1,2,3,4,0,1,2,3,4,0,1,2,3,4,0,1,2,3,4,0,1,2,3,4,0,1,2,3,4,0,1,2,3,4,0,1,2,3,4,0,1,2,3,4,0,1,2,3,4,0,1,2,3,4,0,1,2,3,4,0,1,2,3,4,0,1,2,3,4,0,1,2,3,4,0,1,2,3,4,0,1,2,3,4,0,1,2,3,4,0,1,2,3,4,0,1,2,3,4,0,1,2,3,4,0,1,2,3,4,0,1,2,3,4,0,1,2,3,4,0,1,2,3,4,0,1,2,3,4,0,1,2,3,4,0,1,2,3,4,0,1,2,3,4,0,1,2,3,4,0,1,2,3,4,0,1,2,3,4,0,1,2,3,4,0,1,2,3,4,0,1,2,3,4,0,1,2,3,4,0,1,2,3,4,0,1,2,3,4,0,1,2,3,4,0,1,2,3,4,0,1,2,3,4,0,1,2,3,4,0,1,2,3,4,0,1,2,3,4,0,1,2,3,4,0,1,2,3,4,0,1,2,3,4,0,1,2,3,4,0,1,2,3,4,0,1,2,3,4,0,1,2,3,4,0,1,2,3,4,0,1,2,3,4,0,1,2,3,4,0,1,2,3,4,0,1,2,3,4,0,1,2,3,4,0,1,2,3,4,0,1,2,3,4,0,1,2,3,4,0,1,2,3,4,0,1,2,3,4,0,1,2,3,4,0,1,2,3,4,0,1,2,3,4,0,1,2,3,4,0,1,2,3,4,0,1,2,3,4,0,1,2,3,4,0,1,2,3,4,0,1,2,3,4,0,1,2,3,4,0,1,2,3,4,0,1,2,3,4,0,1,2,3,4,0,1,2,3,4,0,1,2,3,4,0,1,2,3,4,0,1,2,3,4,0,1,2,3,4,0,1,2,3,4,0,1,2,3,4,0,1,2,3,4,0,1,2,3,4],"trees":[{"base_weights":[1.0131663E0,7.335256E-1,-0E0],"categories":[],"categories_nodes":[],"categories_segments":[],"categories_sizes":[],"default_left":[0,0,0],"id":0,"left_children":[1,-1,-1],"loss_changes":[7.8847656E0,0E0,0E0],"parents":[2147483647,0,0],"right_children":[2,-1,-1],"split_conditions":[2.545001E1,7.335256E-1,-0E0],"split_indices":[6,0,0],"split_type":[0,0,0],"sum_hessian":[1.6461121E4,1.643648E4,2.4640001E1],"tree_param":{"num_deleted":"0","num_feature":"16","num_nodes":"3","size_leaf_vector":"1"}},{"base_weights":[-1.956446E-1,-1.4174198E-1,-0E0],"categories":[],"categories_nodes":[],"categories_segments":[],"categories_sizes":[],"default_left":[0,0,0],"id":1,"left_children":[1,-1,-1],"loss_changes":[1.1796875E0,0E0,0E0],"parents":[2147483647,0,0],"right_children":[2,-1,-1],"split_conditions":[2.545001E1,-1.4174198E-1,-0E0],"split_indices":[6,0,0],"split_type":[0,0,0],"sum_hessian":[1.6465281E4,1.644064E4,2.4640001E1],"tree_param":{"num_deleted":"0","num_feature":"16","num_nodes":"3","size_leaf_vector":"1"}},{"base_weights":[-1.8053123E-1,-0E0,-1.8181288E-1,-1.3174786E-1,-0E0],"categories":[],"categories_nodes":[],"categories_segments":[],"categories_sizes":[],"default_left":[1,0,0,0,0],"id":2,"left_children":[1,-1,3,-1,-1],"loss_changes":[3.5911255E0,0E0,2.2131348E-1,0E0,0E0],"parents":[2147483647,0,0,2,2],"right_children":[2,-1,4,-1,-1],"split_conditions":[1.2E0,-0E0,5.958E3,-1.3174786E-1,-0E0],"split_indices":[13,0,11,0,0],"split_type":[0,0,0,0,0],"sum_hessian":[1.6453762E4,1.2928001E2,1.6324481E4,1.6269441E4,5.5040005E1],"tree_param":{"num_deleted":"0","num_feature":"16","num_nodes":"5","size_leaf_vector":"1"}},{"base_weights":[-2.4018641E-1,-1.7401123E-1,-0E0],"categories":[],"categories_nodes":[],"categories_segments":[],"categories_sizes":[],"default_left":[0,0,0],"id":3,"left_children":[1,-1,-1],"loss_changes":[1.7897949E0,0E0,0E0],"parents":[2147483647,0,0],"right_children":[2,-1,-1],"split_conditions":[2.545001E1,-1.7401123E-1,-0E0],"split_indices":[6,0,0],"split_type":[0,0,0],"sum_hessian":[1.647264E4,1.644832E4,2.4320002E1],"tree_param":{"num_deleted":"0","num_feature":"16","num_nodes":"3","size_leaf_vector":"1"}},{"base_weights":[-3.8099983E-1],"categories":[],"categories_nodes":[],"categories_segments":[],"categories_sizes":[],"default_left":[0],"id":4,"left_children":[-1],"loss_changes":[0E0],"parents":[2147483647],"right_children":[-1],"split_conditions":[-2.7557823E-1],"split_indices":[0],"split_type":[0],"sum_hessian":[1.6461762E4],"tree_param":{"num_deleted":"0","num_feature":"16","num_nodes":"1","size_leaf_vector":"1"}},{"base_weights":[3.1252813E-1,1.4636864E-1,2.6881465E-1],"categories":[],"categories_nodes":[],"categories_segments":[],"categories_sizes":[],"default_left":[1,0,0],"id":5,"left_children":[1,-1,-1],"loss_changes":[6.2215576E1,0E0,0E0],"parents":[2147483647,0,0],"right_children":[2,-1,-1],"split_conditions":[1.4713939E1,1.4636864E-1,2.6881465E-1],"split_indices":[15,0,0],"split_type":[0,0,0],"sum_hessian":[2.4260629E4,9.861646E3,1.4398982E4],"tree_param":{"num_deleted":"0","num_feature":"16","num_nodes":"3","size_leaf_vector":"1"}},{"base_weights":[-8.3965436E-2,-0E0,-8.807111E-2,-0E0,-8.8817485E-2,-6.4618245E-2,-0E0],"categories":[],"categories_nodes":[],"categories_segments":[],"categories_sizes":[],"default_left":[1,0,0,0,0,0,0],"id":6,"left_children":[1,-1,3,-1,5,-1,-1],"loss_changes":[3.0089188E0,0E0,9.69429E-1,0E0,3.757553E-1,0E0,0E0],"parents":[2147483647,0,0,2,2,4,4],"right_children":[2,-1,4,-1,6,-1,-1],"split_conditions":[1.085E3,-0E0,-1.8258537E1,-0E0,2.543E3,-6.4618245E-2,-0E0],"split_indices":[11,0,6,0,11,0,0],"split_type":[0,0,0,0,0,0,0],"sum_hessian":[1.3794227E4,9.120398E2,1.2882187E4,1.0076684E2,1.278142E4,1.2674473E4,1.06947205E2],"tree_param":{"num_deleted":"0","num_feature":"16","num_nodes":"7","size_leaf_vector":"1"}},{"base_weights":[-7.633111E-2,-9.4429834E-4,-9.970377E-2,-8.640825E-3,-0E0,-0E0,-1.00934096E-1,-1.359664E-2,-0E0,-1.027006E-1,-0E0,-0E0,-1.8091518E-2,-0E0,-7.456819E-2,-0E0,-2.07219E-2,-1.6536912E-2,-0E0],"categories":[],"categories_nodes":[],"categories_segments":[],"categories_sizes":[],"default_left":[1,0,1,1,0,0,0,0,0,0,0,0,0,0,0,0,1,0,0],"id":7,"left_children":[1,3,5,7,-1,-1,9,11,-1,13,-1,-1,15,-1,-1,-1,17,-1,-1],"loss_changes":[1.4366829E1,3.3366385E-1,2.037506E0,2.3576191E-1,0E0,0E0,1.9383698E0,3.5311067E-1,0E0,5.0367737E-1,0E0,0E0,2.4868822E-1,0E0,0E0,0E0,2.280457E-1,0E0,0E0],"parents":[2147483647,0,0,1,1,2,2,3,3,6,6,7,7,9,9,12,12,16,16],"right_children":[2,4,6,8,-1,-1,10,12,-1,14,-1,-1,16,-1,-1,-1,18,-1,-1],"split_conditions":[1.3892444E1,1.3E1,5.169942E0,2.3231909E1,-0E0,-0E0,3.8431602E1,6.9856997E0,-0E0,5.2E0,-0E0,-0E0,4.1E0,-0E0,-7.456819E-2,-0E0,2.287E3,-1.6536912E-2,-0E0],"split_indices":[15,13,8,12,0,0,12,15,0,13,0,0,13,0,0,0,11,0,0],"split_type":[0,0,0,0,0,0,0,0,0,0,0,0,0,0,0,0,0,0,0],"sum_hessian":[1.3940925E4,4.524422E3,9.416502E3,4.0473428E3,4.7707913E2,3.9830658E1,9.376672E3,2.6229885E3,1.4243542E3,9.22424E3,1.5243178E2,2.7207153E2,2.350917E3,2.6545746E1,9.197694E3,9.424001E1,2.256677E3,2.204124E3,5.2552967E1],"tree_param":{"num_deleted":"0","num_feature":"16","num_nodes":"19","size_leaf_vector":"1"}},{"base_weights":[-1.24339394E-1,-0E0,-1.2511523E-1,-1.2548734E-1,-0E0,-0E0,-9.101296E-2],"categories":[],"categories_nodes":[],"categories_segments":[],"categories_sizes":[],"default_left":[0,0,0,0,0,0,0],"id":8,"left_children":[1,-1,3,5,-1,-1,-1],"loss_changes":[1.046051E0,0E0,5.814667E-1,3.945465E-1,0E0,0E0,0E0],"parents":[2147483647,0,0,2,2,3,3],"right_children":[2,-1,4,6,-1,-1,-1],"split_conditions":[4.46784E0,-0E0,3.5134265E2,5.75E0,-0E0,-0E0,-9.101296E-2],"split_indices":[10,0,12,7,0,0,0],"split_type":[0,0,0,0,0,0,0],"sum_hessian":[1.3453127E4,1.05452515E2,1.3347675E4,1.3302704E4,4.497024E1,4.998503E1,1.325272E4],"tree_param":{"num_deleted":"0","num_feature":"16","num_nodes":"7","size_leaf_vector":"1"}},{"base_weights":[-2.607194E-1,-1.8911593E-1,-0E0],"categories":[],"categories_nodes":[],"categories_segments":[],"categories_sizes":[],"default_left":[0,0,0],"id":9,"left_children":[1,-1,-1],"loss_changes":[1.4698486E0,0E0,0E0],"parents":[2147483647,0,0],"right_children":[2,-1,-1],"split_conditions":[9.43E1,-1.8911593E-1,-0E0],"split_indices":[5,0,0],"split_type":[0,0,0],"sum_hessian":[1.237555E4,1.2324157E4,5.139277E1],"tree_param":{"num_deleted":"0","num_feature":"16","num_nodes":"3","size_leaf_vector":"1"}},{"base_weights":[1.4644532E-1,1.8704738E-1,9.5785186E-2,-0E0,1.8857074E-1,3.6175046E-2,1.2871936E-1,-0E0,1.3705856E-1,-0E0,4.442554E-2,1.3254222E-1,-0E0,-0E0,5.049664E-2,-0E0,1.3392572E-1,5.4814488E-2,-0E0,1.350348E-1,-0E0,4.08737E-2,-0E0,9.817295E-2,-0E0],"categories":[],"categories_nodes":[],"categories_segments":[],"categories_sizes":[],"default_left":[0,1,1,0,0,1,0,0,0,0,0,1,0,0,0,0,0,1,0,1,0,0,0,0,0],"id":10,"left_children":[1,3,5,-1,7,9,11,-1,-1,-1,13,15,-1,-1,17,-1,19,21,-1,23,-1,-1,-1,-1,-1],"loss_changes":[1.3921265E1,3.0006409E0,6.7239532E0,0E0,1.6278992E0,2.2672443E0,2.0324173E0,0E0,0E0,0E0,2.1086035E0,1.6850739E0,0E0,0E0,9.11479E-1,0E0,7.898102E-1,8.105202E-1,0E0,5.6825256E-1,0E0,0E0,0E0,0E0,0E0],"parents":[2147483647,0,0,1,1,2,2,4,4,5,5,6,6,10,10,11,11,14,14,16,16,17,17,19,19],"right_children":[2,4,6,-1,8,10,12,-1,-1,-1,14,16,-1,-1,18,-1,20,22,-1,24,-1,-1,-1,-1,-1],"split_conditions":[8.57E1,-6E1,1.707E3,-0E0,5.169942E0,2.2469294E0,9.23E1,-0E0,1.3705856E-1,-0E0,5.895596E0,5.33856E0,-0E0,-0E0,9.07E1,-0E0,7.3437386E0,7.6423497E0,-0E0,4.5483273E1,-0E0,4.08737E-2,-0E0,9.817295E-2,-0E0],"split_indices":[5,12,11,0,8,12,5,0,0,0,8,8,0,0,5,0,8,8,0,12,0,0,0,0,0],"split_type":[0,0,0,0,0,0,0,0,0,0,0,0,0,0,0,0,0,0,0,0,0,0,0,0,0],"sum_hessian":[2.550683E4,1.2242141E4,1.3264689E4,1.20355644E2,1.2121785E4,6.260937E3,7.003753E3,7.663725E1,1.2045147E4,1.1229679E3,5.137969E3,6.693894E3,3.0985846E2,4.430324E2,4.6949365E3,5.353052E1,6.640364E3,4.214926E3,4.800108E2,6.5671733E3,7.319031E1,4.1911875E3,2.3738228E1,6.526132E3,4.1041485E1],"tree_param":{"num_deleted":"0","num_feature":"16","num_nodes":"25","size_leaf_vector":"1"}},{"base_weights":[-3.5030883E-2,-3.636262E-2,-0E0,-3.776226E-2,-0E0,-0E0,-4.0301014E-2,-0E0,-3.0195678E-2],"categories":[],"categories_nodes":[],"categories_segments":[],"categories_sizes":[],"default_left":[0,1,0,0,0,0,0,0,0],"id":11,"left_children":[1,3,-1,5,-1,-1,7,-1,-1],"loss_changes":[1.045578E0,8.669529E-1,0E0,3.5977936E-1,0E0,0E0,6.3087463E-1,0E0,0E0],"parents":[2147483647,0,0,1,1,3,3,6,6],"right_children":[2,4,-1,6,-1,-1,8,-1,-1],"split_conditions":[7.441753E0,2.0222223E0,-0E0,-1.2009375E1,-0E0,-0E0,-3.4E0,-0E0,-3.0195678E-2],"split_indices":[8,6,0,6,0,0,14,0,0],"split_type":[0,0,0,0,0,0,0,0,0],"sum_hessian":[1.2753248E4,1.2592363E4,1.6088461E2,1.2249148E4,3.432148E2,1.3318712E3,1.0917277E4,4.13934E2,1.0503344E4],"tree_param":{"num_deleted":"0","num_feature":"16","num_nodes":"9","size_leaf_vector":"1"}},{"base_weights":[-2.9689752E-2,-0E0,-4.212097E-2,-4.4136696E-2,-0E0,-0E0,-4.612394E-2,-0E0,-3.3909984E-2],"categories":[],"categories_nodes":[],"categories_segments":[],"categories_sizes":[],"default_left":[0,0,0,1,0,0,0,0,0],"id":12,"left_children":[1,-1,3,5,-1,-1,7,-1,-1],"loss_changes":[4.3843794E0,0E0,7.5110054E-1,8.4257126E-1,0E0,0E0,2.4576569E-1,0E0,0E0],"parents":[2147483647,0,0,2,2,3,3,6,6],"right_children":[2,-1,4,6,-1,-1,8,-1,-1],"split_conditions":[2.6E0,-0E0,9.1E1,5.8E0,-0E0,-0E0,5.539556E0,-0E0,-3.3909984E-2],"split_indices":[14,0,5,13,0,0,8,0,0],"split_type":[0,0,0,0,0,0,0,0,0],"sum_hessian":[1.2974919E4,4.2994243E3,8.675494E3,8.243774E3,4.3171994E2,3.3958908E2,7.904185E3,1.5722159E2,7.7469634E3],"tree_param":{"num_deleted":"0","num_feature":"16","num_nodes":"9","size_leaf_vector":"1"}},{"base_weights":[-6.1493665E-2,-0E0,-9.652715E-2,-0E0,-1.34315435E-2,-7.01482E-2,-0E0,-1.8313337E-2,-0E0,-2.2171244E-2,-0E0,-1.7728917E-2,-0E0],"categories":[],"categories_nodes":[],"categories_segments":[],"categories_sizes":[],"default_left":[1,0,0,0,1,0,0,0,0,1,0,0,0],"id":13,"left_children":[1,3,5,-1,7,-1,-1,9,-1,11,-1,-1,-1],"loss_changes":[1.8001667E1,5.247568E-1,3.5417938E-1,0E0,4.0528047E-1,0E0,0E0,3.8026226E-1,0E0,2.5576973E-1,0E0,0E0,0E0],"parents":[2147483647,0,0,1,1,2,2,4,4,7,7,9,9],"right_children":[2,4,6,-1,8,-1,-1,10,-1,12,-1,-1,-1],"split_conditions":[1.5108275E1,1E0,3.706627E0,-0E0,1.4866069E1,-7.01482E-2,-0E0,1.45625E0,-0E0,7.3148413E0,-0E0,-1.7728917E-2,-0E0],"split_indices":[15,3,9,0,15,0,0,6,0,8,0,0,0],"split_type":[0,0,0,0,0,0,0,0,0,0,0,0,0],"sum_hessian":[1.2107073E4,5.547409E3,6.5596636E3,3.1199807E3,2.4274285E3,6.5312603E3,2.8403643E1,2.2917786E3,1.3564987E2,2.1842515E3,1.07526955E2,2.1253535E3,5.8898106E1],"tree_param":{"num_deleted":"0","num_feature":"16","num_nodes":"13","size_leaf_vector":"1"}},{"base_weights":[-1.7772807E-1,-1.8920206E-1,-0E0,-1.9011877E-1,-0E0,-1.3778795E-1,-0E0],"categories":[],"categories_nodes":[],"categories_segments":[],"categories_sizes":[],"default_left":[0,1,0,0,0,0,0],"id":14,"left_children":[1,3,-1,5,-1,-1,-1],"loss_changes":[1.2398224E1,7.6605225E-1,0E0,2.8463745E-1,0E0,0E0,0E0],"parents":[2147483647,0,0,1,1,3,3],"right_children":[2,4,-1,6,-1,-1,-1],"split_conditions":[1E0,4.9206896E0,-0E0,3.5134265E2,-0E0,-1.3778795E-1,-0E0],"split_indices":[4,6,0,12,0,0,0],"split_type":[0,0,0,0,0,0,0],"sum_hessian":[1.0174641E4,9.267733E3,9.069072E2,9.195138E3,7.25962E1,9.16446E3,3.067698E1],"tree_param":{"num_deleted":"0","num_feature":"16","num_nodes":"7","size_leaf_vector":"1"}},{"base_weights":[7.695362E-2,3.6718443E-2,1.4401644E-1,9.9188246E-2,4.62042E-3,1.4756832E-1,-0E0,-0E0,1.0401625E-1,-0E0,2.0320142E-2,1.072679E-1,-0E0,1.0568284E-1,-0E0,-0E0,-6.296719E-3,2.5537435E-2,-0E0,1.0657143E-1,-0E0,-9.157927E-3,-0E0,-0E0,3.1458203E-2,-0E0,1.08969085E-1,-0E0,-1.2708345E-2,3.6296338E-2,-0E0,7.988048E-2,-0E0,-1.0387616E-2,-0E0,-0E0,2.8147195E-2],"categories":[],"categories_nodes":[],"categories_segments":[],"categories_sizes":[],"default_left":[1,0,0,1,1,0,0,0,0,1,0,0,0,0,0,0,0,0,0,0,0,0,0,0,0,0,0,0,0,1,0,0,0,0,0,0,0],"id":15,"left_children":[1,3,5,7,9,11,-1,-1,13,15,17,-1,-1,19,-1,-1,21,23,-1,25,-1,27,-1,-1,29,-1,31,-1,33,35,-1,-1,-1,-1,-1,-1,-1],"loss_changes":[4.8241074E1,2.453461E1,4.012787E0,2.4253387E0,2.6995606E0,1.4095917E0,0E0,0E0,1.0877571E0,2.1212783E-1,1.3331008E0,0E0,0E0,6.1792374E-1,0E0,0E0,2.2785002E-1,1.4763942E0,0E0,5.641022E-1,0E0,3.021318E-1,0E0,0E0,1.0473952E0,0E0,8.058052E-1,0E0,2.0109409E-1,6.432495E-1,0E0,0E0,0E0,0E0,0E0,0E0,0E0],"parents":[2147483647,0,0,1,1,2,2,3,3,4,4,5,5,8,8,9,9,10,10,13,13,16,16,17,17,19,19,21,21,24,24,26,26,28,28,29,29],"right_children":[2,4,6,8,10,12,-1,-1,14,16,18,-1,-1,20,-1,-1,22,24,-1,26,-1,28,-1,-1,30,-1,32,-1,34,36,-1,-1,-1,-1,-1,-1,-1],"split_conditions":[1.7003822E1,8.36E1,9.2E1,6.3655324E0,1.3962808E1,5.958E3,-0E0,-0E0,3.706627E0,1.234E3,1E0,1.072679E-1,-0E0,6.75E0,-0E0,-0E0,6.3499136E0,5.132346E0,-0E0,-2.5132043E0,-0E0,-2.2967794E0,-0E0,-0E0,6.0606685E0,-0E0,1.6949926E1,-0E0,3.430652E0,1.292E3,-0E0,7.988048E-2,-0E0,-1.0387616E-2,-0E0,-0E0,2.8147195E-2],"split_indices":[15,5,5,15,15,11,0,0,9,11,4,0,0,7,0,0,10,10,0,9,0,9,0,0,10,0,15,0,9,11,0,0,0,0,0,0,0],"split_type":[0,0,0,0,0,0,0,0,0,0,0,0,0,0,0,0,0,0,0,0,0,0,0,0,0,0,0,0,0,0,0,0,0,0,0,0,0],"sum_hessian":[2.5660709E4,1.7522418E4,8.1382905E3,4.45029E3,1.3072128E4,7.9126196E3,2.2567091E2,2.230191E2,4.227271E3,6.3147837E3,6.7573438E3,7.89376E3,1.8859827E1,4.177327E3,4.994373E1,1.4459166E3,4.868867E3,6.145888E3,6.114556E2,4.154371E3,2.2956009E1,4.764779E3,1.04088295E2,7.679833E2,5.377905E3,1.5424873E2,4.0001223E3,6.5105176E2,4.113727E3,4.715027E3,6.6287787E2,3.9477278E3,5.239461E1,4.0918135E3,2.191365E1,2.5100632E2,4.4640205E3],"tree_param":{"num_deleted":"0","num_feature":"16","num_nodes":"37","size_leaf_vector":"1"}},{"base_weights":[-9.729599E-3,-0E0,-1.4932756E-2,-1.8638626E-2,-0E0,-1.9653568E-2,-0E0,-2.0595897E-2,-0E0,-1.5551404E-2,-0E0],"categories":[],"categories_nodes":[],"categories_segments":[],"categories_sizes":[],"default_left":[0,0,0,0,0,0,0,0,0,0,0],"id":16,"left_children":[1,-1,3,5,-1,7,-1,9,-1,-1,-1],"loss_changes":[1.3803312E0,0E0,9.44818E-1,2.8907537E-1,0E0,3.0395007E-1,0E0,2.2508335E-1,0E0,0E0,0E0],"parents":[2147483647,0,0,2,2,3,3,5,5,7,7],"right_children":[2,-1,4,6,-1,8,-1,10,-1,-1,-1],"split_conditions":[5.0702024E0,-0E0,6.138476E0,9.2E1,-0E0,6.5833335E0,-0E0,2.6679409E0,-0E0,-1.5551404E-2,-0E0],"split_indices":[10,0,10,5,0,7,0,9,0,0,0],"split_type":[0,0,0,0,0,0,0,0,0,0,0],"sum_hessian":[1.2254379E4,1.1388138E3,1.1115565E4,9.682156E3,1.4334093E3,9.407935E3,2.7422153E2,9.240246E3,1.6768877E2,8.926279E3,3.1396692E2],"tree_param":{"num_deleted":"0","num_feature":"16","num_nodes":"11","size_leaf_vector":"1"}},{"base_weights":[-7.202187E-3,-0E0,-2.2237368E-2,-2.3794064E-2,-0E0,-0E0,-2.6957165E-2,-0E0,-2.1478942E-2],"categories":[],"categories_nodes":[],"categories_segments":[],"categories_sizes":[],"default_left":[1,0,0,1,0,0,0,0,0],"id":17,"left_children":[1,-1,3,5,-1,-1,7,-1,-1],"loss_changes":[2.0541413E0,0E0,3.338101E-1,3.864708E-1,0E0,0E0,5.923581E-1,0E0,0E0],"parents":[2147483647,0,0,2,2,3,3,6,6],"right_children":[2,-1,4,6,-1,-1,8,-1,-1],"split_conditions":[1.779E3,-0E0,9.23E1,5.834206E0,-0E0,-0E0,4.812294E0,-0E0,-2.1478942E-2],"split_indices":[11,0,5,8,0,0,10,0,0],"split_type":[0,0,0,0,0,0,0,0,0],"sum_hessian":[1.2530251E4,7.492729E3,5.0375225E3,4.928624E3,1.0889862E2,6.632743E2,4.2653496E3,1.6335637E2,4.101993E3],"tree_param":{"num_deleted":"0","num_feature":"16","num_nodes":"9","size_leaf_vector":"1"}},{"base_weights":[-2.8882075E-2,-5.1693834E-2,-0E0,-5.8309004E-2,-0E0,-6.1602525E-2,-0E0,-0E0,-6.878736E-2,-0E0,-7.0404224E-2,-0E0,-5.1309336E-2],"categories":[],"categories_nodes":[],"categories_segments":[],"categories_sizes":[],"default_left":[0,0,0,0,0,0,0,0,0,0,1,0,0],"id":18,"left_children":[1,3,-1,5,-1,7,-1,-1,9,-1,11,-1,-1],"loss_changes":[7.5907335E0,2.9579563E0,0E0,1.3545456E0,0E0,7.432194E-1,0E0,0E0,6.5870476E-1,0E0,2.0091057E-1,0E0,0E0],"parents":[2147483647,0,0,1,1,3,3,5,5,8,8,10,10],"right_children":[2,4,-1,6,-1,8,-1,-1,10,-1,12,-1,-1],"split_conditions":[8.62E1,1E0,-0E0,1.45625E0,-0E0,7E-1,-0E0,-0E0,-2.7013614E0,-0E0,-6E1,-0E0,-5.1309336E-2],"split_indices":[5,4,0,6,0,14,0,0,9,0,12,0,0],"split_type":[0,0,0,0,0,0,0,0,0,0,0,0,0],"sum_hessian":[1.1474621E4,6.091439E3,5.3831816E3,5.554677E3,5.3676245E2,5.2834536E3,2.7122287E2,9.8429614E2,4.2991577E3,8.415936E1,4.214998E3,3.0428522E1,4.18457E3],"tree_param":{"num_deleted":"0","num_feature":"16","num_nodes":"13","size_leaf_vector":"1"}},{"base_weights":[-1.22425176E-1,-1.2919262E-1,-0E0,-0E0,-1.3062316E-1,-0E0,-1.3135824E-1,-9.533805E-2,-0E0],"categories":[],"categories_nodes":[],"categories_segments":[],"categories_sizes":[],"default_left":[0,0,0,0,0,0,1,0,0],"id":19,"left_children":[1,3,-1,-1,5,-1,7,-1,-1],"loss_changes":[5.758026E0,1.56604E0,0E0,0E0,1.0850677E0,0E0,4.9134827E-1,0E0,0E0],"parents":[2147483647,0,0,1,1,4,4,6,6],"right_children":[2,4,-1,-1,6,-1,8,-1,-1],"split_conditions":[9.05E1,-5.8E0,-0E0,-0E0,5.169942E0,-0E0,7.6423497E0,-9.533805E-2,-0E0],"split_indices":[5,14,0,0,8,0,8,0,0],"split_type":[0,0,0,0,0,0,0,0,0],"sum_hessian":[8.949476E3,8.332316E3,6.171591E2,1.0020843E2,8.232108E3,3.4361702E1,8.197747E3,8.1667256E3,3.1021345E1],"tree_param":{"num_deleted":"0","num_feature":"16","num_nodes":"9","size_leaf_vector":"1"}},{"base_weights":[3.882647E-2,1.0653741E-2,6.6002846E-2,2.3868043E-2,-0E0,-0E0,6.679072E-2,2.5133537E-2,-0E0,-1.3070176E-2,-0E0,4.850861E-2,-0E0,-0E0,3.0568449E-2,-0E0,-2.1931522E-2,3.1882443E-2,-0E0,-2.609986E-2,-0E0,3.6746114E-2,-0E0,-0E0,-2.879339E-2,-0E0,2.7170315E-2,-2.2127734E-2,-0E0],"categories":[],"categories_nodes":[],"categories_segments":[],"categories_sizes":[],"default_left":[0,0,0,0,1,0,0,1,0,0,0,0,0,0,0,0,0,0,0,0,0,0,0,0,0,0,0,0,0],"id":20,"left_children":[1,3,5,7,9,-1,11,13,-1,15,-1,-1,-1,-1,17,-1,19,21,-1,23,-1,25,-1,-1,27,-1,-1,-1,-1],"loss_changes":[1.1216358E1,4.343641E0,1.0279388E0,5.317273E-1,6.1804503E-1,0E0,2.5239182E-1,3.3471727E-1,0E0,8.296674E-1,0E0,0E0,0E0,0E0,3.4229565E-1,0E0,4.7646856E-1,3.9696836E-1,0E0,3.4337378E-1,0E0,2.4607849E-1,0E0,0E0,2.6241875E-1,0E0,0E0,0E0,0E0],"parents":[2147483647,0,0,1,1,2,2,3,3,4,4,6,6,7,7,9,9,14,14,16,16,17,17,19,19,21,21,24,24],"right_children":[2,4,6,8,10,-1,12,14,-1,16,-1,-1,-1,-1,18,-1,20,22,-1,24,-1,26,-1,-1,28,-1,-1,-1,-1],"split_conditions":[1E0,8.74E1,5.169942E0,7.3437386E0,1.908E3,-0E0,5.958E3,1.518E3,-0E0,-2.1670923E0,-0E0,4.850861E-2,-0E0,-0E0,2.345E3,-0E0,1.8336744E0,6.4166665E0,-0E0,8.75E1,-0E0,7.75E1,-0E0,-0E0,6.5833335E0,-0E0,2.7170315E-2,-2.2127734E-2,-0E0],"split_indices":[3,5,8,8,11,0,11,11,0,9,0,0,0,0,11,0,9,7,0,5,0,5,0,0,7,0,0,0,0],"split_type":[0,0,0,0,0,0,0,0,0,0,0,0,0,0,0,0,0,0,0,0,0,0,0,0,0,0,0,0,0],"sum_hessian":[2.5552734E4,1.4849887E4,1.0702848E4,1.0197885E4,4.6520024E3,3.1876966E1,1.0670971E4,9.991292E3,2.0659244E2,3.1365847E3,1.515418E3,1.0635909E4,3.5061756E1,3.0346975E3,6.956594E3,6.080557E2,2.5285288E3,6.692882E3,2.637125E2,2.343361E3,1.8516777E2,5.213418E3,1.4794639E3,8.958829E1,2.253773E3,7.096139E1,5.1424565E3,2.221905E3,3.1867847E1],"tree_param":{"num_deleted":"0","num_feature":"16","num_nodes":"29","size_leaf_vector":"1"}},{"base_weights":[-0E0],"categories":[],"categories_nodes":[],"categories_segments":[],"categories_sizes":[],"default_left":[0],"id":21,"left_children":[-1],"loss_changes":[0E0],"parents":[2147483647],"right_children":[-1],"split_conditions":[-0E0],"split_indices":[0],"split_type":[0],"sum_hessian":[1.2013709E4],"tree_param":{"num_deleted":"0","num_feature":"16","num_nodes":"1","size_leaf_vector":"1"}},{"base_weights":[-0E0,-0E0,-1.0598567E-2,-0E0,7.951381E-3,-0E0,1.16864275E-2,1.4476829E-2,-0E0,1.6849624E-2,-0E0,1.3889296E-2,-0E0],"categories":[],"categories_nodes":[],"categories_segments":[],"categories_sizes":[],"default_left":[1,0,0,0,0,0,0,0,0,0,0,0,0],"id":22,"left_children":[1,3,-1,-1,5,-1,7,9,-1,11,-1,-1,-1],"loss_changes":[7.081266E-1,4.267381E-1,0E0,0E0,4.5231554E-1,0E0,3.5755855E-1,3.6654627E-1,0E0,1.8760633E-1,0E0,0E0,0E0],"parents":[2147483647,0,0,1,1,4,4,6,6,7,7,9,9],"right_children":[2,4,-1,-1,6,-1,8,10,-1,12,-1,-1,-1],"split_conditions":[1.7572706E1,1.14E1,-1.0598567E-2,-0E0,8.02E1,-0E0,1E0,9.13E1,-0E0,2.872755E1,-0E0,1.3889296E-2,-0E0],"split_indices":[15,13,0,0,5,0,4,5,0,12,0,0,0],"split_type":[0,0,0,0,0,0,0,0,0,0,0,0,0],"sum_hessian":[1.2316638E4,9.499912E3,2.8167263E3,3.2316577E3,6.268254E3,3.1304358E2,5.9552104E3,5.41915E3,5.360604E2,5.165396E3,2.5375383E2,4.375122E3,7.9027435E2],"tree_param":{"num_deleted":"0","num_feature":"16","num_nodes":"13","size_leaf_vector":"1"}},{"base_weights":[-1.42892E-2,-2.6723694E-2,-0E0,-0E0,-3.3072338E-2,-3.390201E-2,-0E0,-0E0,-3.518196E-2,-0E0,-2.622287E-2],"categories":[],"categories_nodes":[],"categories_segments":[],"categories_sizes":[],"default_left":[0,0,0,0,0,0,0,0,0,0,0],"id":23,"left_children":[1,3,-1,-1,5,7,-1,-1,9,-1,-1],"loss_changes":[2.0246844E0,8.086014E-1,0E0,0E0,1.9925976E-1,2.0918846E-1,0E0,0E0,2.0026779E-1,0E0,0E0],"parents":[2147483647,0,0,1,1,4,4,5,5,8,8],"right_children":[2,4,-1,-1,6,8,-1,-1,10,-1,-1],"split_conditions":[1E0,5.407354E0,-0E0,-0E0,4.0833335E0,6E0,-0E0,-0E0,-1.546E1,-0E0,-2.622287E-2],"split_indices":[2,10,0,0,6,7,0,0,6,0,0],"split_type":[0,0,0,0,0,0,0,0,0,0,0],"sum_hessian":[1.1187807E4,5.6900244E3,5.4977827E3,1.4026486E3,4.2873755E3,4.230195E3,5.7180977E1,1.675767E2,4.062618E3,1.1247417E2,3.9501438E3],"tree_param":{"num_deleted":"0","num_feature":"16","num_nodes":"11","size_leaf_vector":"1"}},{"base_weights":[-7.412295E-2,-9.066056E-2,-0E0,-0E0,-9.2418745E-2,-0E0,-9.371256E-2,-9.437939E-2,-0E0,-9.504877E-2,-0E0,-0E0,-6.926473E-2],"categories":[],"categories_nodes":[],"categories_segments":[],"categories_sizes":[],"default_left":[0,1,0,0,0,0,0,0,0,0,0,0,0],"id":24,"left_children":[1,3,-1,-1,5,-1,7,9,-1,11,-1,-1,-1],"loss_changes":[3.6378746E0,1.0164909E0,0E0,0E0,5.4294586E-1,0E0,5.8115005E-1,4.803772E-1,0E0,3.5578918E-1,0E0,0E0,0E0],"parents":[2147483647,0,0,1,1,4,4,6,6,7,7,9,9],"right_children":[2,4,-1,-1,6,-1,8,10,-1,12,-1,-1,-1],"split_conditions":[8.77E1,3E0,-0E0,-0E0,4.6283073E0,-0E0,5.958E3,1.62E1,-0E0,-6.4E0,-0E0,-0E0,-6.926473E-2],"split_indices":[5,13,0,0,10,0,11,14,0,14,0,0,0],"split_type":[0,0,0,0,0,0,0,0,0,0,0,0,0],"sum_hessian":[8.195116E3,5.761038E3,2.434078E3,1.1624172E2,5.6447964E3,1.06163704E2,5.538633E3,5.519109E3,1.9523773E1,5.4880635E3,3.104536E1,4.9759155E1,5.438304E3],"tree_param":{"num_deleted":"0","num_feature":"16","num_nodes":"13","size_leaf_vector":"1"}},{"base_weights":[2.3077738E-2,-0E0,6.578288E-2,4.1639224E-2,-5.4989066E-3,2.6875501E-3,9.067655E-2,-0E0,4.6856124E-2,-1.5325857E-2,-0E0,-2.5247244E-2,5.4697037E-2,9.679639E-2,-0E0,5.0959114E-2,-0E0,-0E0,-2.7113643E-2,-1.2522437E-2,1.2025974E-2,-0E0,-2.8095981E-2,-0E0,4.160771E-2,7.0402846E-2,-0E0,3.7981104E-2,-0E0,-3.8230367E-2,-0E0,-0E0,-1.9972622E-2,1.8048761E-2,-0E0,-2.2176094E-2,-0E0,-4.2372745E-2,-0E0,-0E0,-2.3743004E-2,1.9861054E-2,-0E0,-3.3922788E-2,-0E0,-2.0349715E-2,-0E0,1.5891114E-2,-0E0],"categories":[],"categories_nodes":[],"categories_segments":[],"categories_sizes":[],"default_left":[1,0,0,1,0,0,0,0,0,0,0,0,1,0,0,0,0,0,0,0,0,0,1,0,0,0,0,0,0,1,0,0,0,0,0,0,0,1,0,0,0,1,0,0,0,0,0,0,0],"id":25,"left_children":[1,3,5,7,9,11,13,-1,15,17,19,21,23,25,-1,27,-1,-1,29,31,33,-1,35,-1,-1,-1,-1,-1,-1,37,-1,-1,39,41,-1,-1,-1,43,-1,-1,45,47,-1,-1,-1,-1,-1,-1,-1],"loss_changes":[1.8664104E1,8.276043E0,1.4790993E0,1.5423803E0,1.0739751E0,9.4965105E0,3.7306595E0,0E0,1.184845E0,2.7351294E0,1.4074185E0,2.044478E-1,7.895155E-1,1.8587875E-1,0E0,5.188818E-1,0E0,0E0,2.4282036E0,8.217567E-1,6.7919016E-1,0E0,1.9941604E-1,0E0,0E0,0E0,0E0,0E0,0E0,1.4252329E0,0E0,0E0,5.279529E-1,2.8903723E-1,0E0,0E0,0E0,1.1363401E0,0E0,0E0,5.7183397E-1,3.3209896E-1,0E0,0E0,0E0,0E0,0E0,0E0,0E0],"parents":[2147483647,0,0,1,1,2,2,3,3,4,4,5,5,6,6,8,8,9,9,10,10,11,11,12,12,13,13,15,15,18,18,19,19,20,20,22,22,29,29,32,32,33,33,37,37,40,40,41,41],"right_children":[2,4,6,8,10,12,14,-1,16,18,20,22,24,26,-1,28,-1,-1,30,32,34,-1,36,-1,-1,-1,-1,-1,-1,38,-1,-1,40,42,-1,-1,-1,44,-1,-1,46,48,-1,-1,-1,-1,-1,-1,-1],"split_conditions":[1.731589E1,8.32E1,1E0,6.9856997E0,1E0,-2.6384592E-1,4.6127313E-1,-0E0,2.235E3,9.674709E0,1.3453624E1,-1.7344452E1,1.366E3,4.1185925E1,-0E0,3.706627E0,-0E0,-0E0,1.9340911E0,-2.473709E0,6.4166665E0,-0E0,3.189949E1,-0E0,4.160771E-2,7.0402846E-2,-0E0,3.7981104E-2,-0E0,2.414E3,-0E0,-0E0,7.71E2,2.472E3,-0E0,-2.2176094E-2,-0E0,3.428357E1,-0E0,-0E0,-8.412099E-1,1.718284E1,-0E0,-3.3922788E-2,-0E0,-2.0349715E-2,-0E0,1.5891114E-2,-0E0],"split_indices":[15,5,1,15,1,9,9,0,11,15,15,12,11,12,0,9,0,0,9,9,7,0,12,0,0,0,0,0,0,11,0,0,11,11,0,0,0,12,0,0,9,15,0,0,0,0,0,0,0],"split_type":[0,0,0,0,0,0,0,0,0,0,0,0,0,0,0,0,0,0,0,0,0,0,0,0,0,0,0,0,0,0,0,0,0,0,0,0,0,0,0,0,0,0,0,0,0,0,0,0,0],"sum_hessian":[2.5517271E4,1.8485865E4,7.031407E3,4.031487E3,1.4454378E4,3.3822607E3,3.6491467E3,2.4643826E2,3.7850488E3,6.01386E3,8.440518E3,9.944682E2,2.3877925E3,3.541538E3,1.0760857E2,3.581955E3,2.0309366E2,6.994487E2,5.314411E3,3.4157927E3,5.024725E3,2.5101007E1,9.693672E2,3.653534E1,2.351257E3,3.5167397E3,2.4798397E1,3.5335662E3,4.838908E1,4.095248E3,1.2191631E3,3.051146E2,3.1106782E3,4.0481084E3,9.766165E2,9.490619E2,2.0305305E1,4.0379744E3,5.7273743E1,1.13700935E2,2.9969773E3,3.991953E3,5.6155476E1,3.724228E3,3.137463E2,2.7183088E3,2.7866846E2,3.8623203E3,1.2963275E2],"tree_param":{"num_deleted":"0","num_feature":"16","num_nodes":"49","size_leaf_vector":"1"}},{"base_weights":[-0E0,-5.5262353E-3,4.2600026E-3,-7.898713E-3,-0E0,6.498722E-3,-0E0,-0E0,-7.0023066E-3],"categories":[],"categories_nodes":[],"categories_segments":[],"categories_sizes":[],"default_left":[0,1,0,0,0,0,0,0,0],"id":26,"left_children":[1,3,5,7,-1,-1,-1,-1,-1],"loss_changes":[3.2661408E-1,2.1278101E-1,2.9396054E-1,1.8934202E-1,0E0,0E0,0E0,0E0,0E0],"parents":[2147483647,0,0,1,1,2,2,3,3],"right_children":[2,4,6,8,-1,-1,-1,-1,-1],"split_conditions":[1E0,1.85E1,1.74E1,4.915273E0,-0E0,6.498722E-3,-0E0,-0E0,-7.0023066E-3],"split_indices":[3,13,13,10,0,0,0,0,0],"split_type":[0,0,0,0,0,0,0,0,0],"sum_hessian":[1.1945235E4,6.9726333E3,4.972602E3,6.57785E3,3.947833E2,4.386184E3,5.864179E2,3.397172E2,6.238133E3],"tree_param":{"num_deleted":"0","num_feature":"16","num_nodes":"9","size_leaf_vector":"1"}},{"base_weights":[-0E0],"categories":[],"categories_nodes":[],"categories_segments":[],"categories_sizes":[],"default_left":[0],"id":27,"left_children":[-1],"loss_changes":[0E0],"parents":[2147483647],"right_children":[-1],"split_conditions":[-0E0],"split_indices":[0],"split_type":[0],"sum_hessian":[1.225595E4],"tree_param":{"num_deleted":"0","num_feature":"16","num_nodes":"1","size_leaf_vector":"1"}},{"base_weights":[-4.2749145E-3,-0E0,-3.5342306E-2,-0E0,-3.999858E-2,-4.2152964E-2,-0E0,-3.1720027E-2,-0E0],"categories":[],"categories_nodes":[],"categories_segments":[],"categories_sizes":[],"default_left":[1,0,0,0,1,0,0,0,0],"id":28,"left_children":[1,-1,3,-1,5,7,-1,-1,-1],"loss_changes":[4.1521535E0,0E0,9.852476E-1,0E0,4.798007E-1,4.2639542E-1,0E0,0E0,0E0],"parents":[2147483647,0,0,2,2,4,4,5,5],"right_children":[2,-1,4,-1,6,8,-1,-1,-1],"split_conditions":[1.718284E1,-0E0,4.8788843E0,-0E0,7.3437386E0,6.636705E0,-0E0,-3.1720027E-2,-0E0],"split_indices":[15,0,10,0,8,10,0,0,0],"split_type":[0,0,0,0,0,0,0,0,0],"sum_hessian":[1.1013726E4,8.0026924E3,3.0110334E3,1.4994656E2,2.861087E3,2.7981907E3,6.289609E1,2.7703604E3,2.7830317E1],"tree_param":{"num_deleted":"0","num_feature":"16","num_nodes":"9","size_leaf_vector":"1"}},{"base_weights":[-5.2892357E-2,-0E0,-1.0592583E-1,-9.142163E-3,-0E0,-7.718068E-2,-0E0,-0E0,-1.2366624E-2,-0E0,-1.100512E-2],"categories":[],"categories_nodes":[],"categories_segments":[],"categories_sizes":[],"default_left":[0,0,0,0,0,0,0,0,1,0,0],"id":29,"left_children":[1,3,5,7,-1,-1,-1,-1,9,-1,-1],"loss_changes":[1.8232233E1,2.495881E-1,2.9756546E-1,1.8518153E-1,0E0,0E0,0E0,0E0,1.9335234E-1,0E0,0E0],"parents":[2147483647,0,0,1,1,2,2,3,3,8,8],"right_children":[2,4,6,8,-1,-1,-1,-1,10,-1,-1],"split_conditions":[1E0,8.64E1,6.636705E0,4.8979836E0,-0E0,-7.718068E-2,-0E0,-0E0,9.86E2,-0E0,-1.100512E-2],"split_indices":[3,5,10,10,0,0,0,0,11,0,0],"split_type":[0,0,0,0,0,0,0,0,0,0,0],"sum_hessian":[7.8249917E3,4.610328E3,3.2146638E3,2.5049277E3,2.1054001E3,3.1869553E3,2.7708492E1,1.4337933E2,2.3615483E3,1.2958922E2,2.2319592E3],"tree_param":{"num_deleted":"0","num_feature":"16","num_nodes":"11","size_leaf_vector":"1"}},{"base_weights":[1.3064995E-2,4.2374466E-2,-0E0,-0E0,5.7827782E-2,-2.4695115E-3,2.2834172E-2,4.330341E-2,-0E0,-0E0,-7.642995E-3,-0E0,2.837696E-2,-0E0,-1.3467481E-2,3.1052183E-2,-0E0,-1.9612065E-2,-0E0,-0E0,2.3326833E-2,-2.2358084E-2,-0E0,-1.8139996E-2,-0E0],"categories":[],"categories_nodes":[],"categories_segments":[],"categories_sizes":[],"default_left":[0,0,1,0,0,0,0,0,0,0,0,0,0,0,0,0,0,0,0,0,0,0,0,0,0],"id":30,"left_children":[1,3,5,-1,7,9,11,-1,-1,-1,13,-1,15,-1,17,19,-1,21,-1,-1,-1,23,-1,-1,-1],"loss_changes":[6.4324512E0,2.214429E0,2.8552575E0,0E0,8.325958E-1,6.011783E-1,1.0449629E0,0E0,0E0,0E0,1.2659314E0,0E0,3.6328793E-1,0E0,1.353003E0,3.016734E-1,0E0,8.22031E-1,0E0,0E0,0E0,9.46486E-1,0E0,0E0,0E0],"parents":[2147483647,0,0,1,1,2,2,4,4,5,5,6,6,10,10,12,12,14,14,15,15,17,17,21,21],"right_children":[2,4,6,-1,8,10,12,-1,-1,-1,14,-1,16,-1,18,20,-1,22,-1,-1,-1,24,-1,-1,-1],"split_conditions":[8.32E1,5.676729E0,1.63E1,-0E0,6.7353883E0,6.1666665E0,5.0140667E0,4.330341E-2,-0E0,-0E0,-2.3568602E0,-0E0,1E0,-0E0,1.1239543E0,8.33E1,-0E0,4.235639E1,-0E0,-0E0,2.3326833E-2,6.417712E0,-0E0,-1.8139996E-2,-0E0],"split_indices":[5,10,13,0,10,7,10,0,0,0,9,0,4,0,9,5,0,12,0,0,0,10,0,0,0],"split_type":[0,0,0,0,0,0,0,0,0,0,0,0,0,0,0,0,0,0,0,0,0,0,0,0,0],"sum_hessian":[2.5445488E4,5.565701E3,1.9879787E4,2.1378625E3,3.4278386E3,1.5066821E4,4.812965E3,3.3981096E3,2.9729162E1,3.6334985E3,1.1433323E4,5.6855853E2,4.2444062E3,1.097547E3,1.0335776E4,3.841977E3,4.0242935E2,8.137108E3,2.198668E3,2.5248999E1,3.816728E3,7.7945283E3,3.4257986E2,7.600782E3,1.937457E2],"tree_param":{"num_deleted":"0","num_feature":"16","num_nodes":"25","size_leaf_vector":"1"}},{"base_weights":[-0E0],"categories":[],"categories_nodes":[],"categories_segments":[],"categories_sizes":[],"default_left":[0],"id":31,"left_children":[-1],"loss_changes":[0E0],"parents":[2147483647],"right_children":[-1],"split_conditions":[-0E0],"split_indices":[0],"split_type":[0],"sum_hessian":[1.18863125E4],"tree_param":{"num_deleted":"0","num_feature":"16","num_nodes":"1","size_leaf_vector":"1"}},{"base_weights":[-0E0],"categories":[],"categories_nodes":[],"categories_segments":[],"categories_sizes":[],"default_left":[0],"id":32,"left_children":[-1],"loss_changes":[0E0],"parents":[2147483647],"right_children":[-1],"split_conditions":[-0E0],"split_indices":[0],"split_type":[0],"sum_hessian":[1.2235979E4],"tree_param":{"num_deleted":"0","num_feature":"16","num_nodes":"1","size_leaf_vector":"1"}},{"base_weights":[-0E0,1.1227516E-3,-2.3753274E-2,1.3116862E-2,-0E0,-2.770613E-2,-0E0,-0E0,2.1953335E-2,-0E0,-2.1896947E-2,-0E0,2.8339779E-2,2.191157E-2,-0E0],"categories":[],"categories_nodes":[],"categories_segments":[],"categories_sizes":[],"default_left":[0,0,0,1,0,0,0,0,0,0,0,0,1,0,0],"id":33,"left_children":[1,3,5,7,-1,9,-1,-1,11,-1,-1,-1,13,-1,-1],"loss_changes":[2.1997418E0,6.399012E-1,6.1821866E-1,6.406387E-1,0E0,3.0278516E-1,0E0,0E0,6.352323E-1,0E0,0E0,0E0,2.0336092E-1,0E0,0E0],"parents":[2147483647,0,0,1,1,2,2,3,3,5,5,8,8,12,12],"right_children":[2,4,6,8,-1,10,-1,-1,12,-1,-1,-1,14,-1,-1],"split_conditions":[6.8E0,1E0,9.03E1,1.2831601E1,-0E0,1.25E1,-0E0,-0E0,8.16E1,-0E0,-2.1896947E-2,-0E0,1.6285714E0,2.191157E-2,-0E0],"split_indices":[14,1,5,15,0,15,0,0,5,0,0,0,6,0,0],"split_type":[0,0,0,0,0,0,0,0,0,0,0,0,0,0,0],"sum_hessian":[1.0921173E4,7.5216294E3,3.399544E3,3.2965447E3,4.2250845E3,3.1765276E3,2.230164E2,1.0999296E3,2.196615E3,2.6374326E2,2.9127842E3,2.8003085E2,1.9165841E3,1.8388187E3,7.7765366E1],"tree_param":{"num_deleted":"0","num_feature":"16","num_nodes":"15","size_leaf_vector":"1"}},{"base_weights":[-3.3498976E-2,-0E0,-4.8010215E-2,-5.4406878E-2,-0E0,-5.7971243E-2,-0E0,-0E0,-5.9319146E-2,-6.0307413E-2,-0E0,-0E0,-4.595082E-2],"categories":[],"categories_nodes":[],"categories_segments":[],"categories_sizes":[],"default_left":[0,0,0,0,0,0,0,0,1,0,0,0,0],"id":34,"left_children":[1,-1,3,5,-1,7,-1,-1,9,11,-1,-1,-1],"loss_changes":[5.1434107E0,0E0,2.2364445E0,1.5607872E0,0E0,2.6044464E-1,0E0,0E0,2.1889114E-1,8.7381744E-1,0E0,0E0,0E0],"parents":[2147483647,0,0,2,2,3,3,5,5,8,8,9,9],"right_children":[2,-1,4,6,-1,8,-1,-1,10,12,-1,-1,-1],"split_conditions":[1.13E1,-0E0,1E0,1.7215384E0,-0E0,-1.15779705E1,-0E0,-0E0,2.377E3,-1.8E0,-0E0,-0E0,-4.595082E-2],"split_indices":[13,0,4,6,0,12,0,0,11,14,0,0,0],"split_type":[0,0,0,0,0,0,0,0,0,0,0,0,0],"sum_hessian":[7.5501675E3,1.8899191E3,5.6602485E3,5.056531E3,6.0371747E2,4.8609043E3,1.9562634E2,1.660074E2,4.694897E3,4.5868247E3,1.0807252E2,2.8449844E2,4.302326E3],"tree_param":{"num_deleted":"0","num_feature":"16","num_nodes":"13","size_leaf_vector":"1"}},{"base_weights":[7.3738946E-3,-0E0,2.1213278E-2,-2.8970579E-2,7.283141E-3,-0E0,3.969803E-2,-0E0,-3.6127716E-2,-0E0,2.3004444E-2,4.787209E-2,-0E0,-0E0,-3.8926717E-2,2.7881583E-2,-0E0,5.212552E-2,-0E0,-4.1509304E-2,-0E0,3.0527582E-2,-0E0,-0E0,5.430269E-2,-3.2316536E-2,-0E0,2.3189118E-2,-0E0,-0E0,4.0212754E-2],"categories":[],"categories_nodes":[],"categories_segments":[],"categories_sizes":[],"default_left":[0,0,0,0,0,0,0,0,1,0,0,0,0,0,0,0,0,0,0,0,0,0,0,0,0,0,0,0,0,0,0],"id":35,"left_children":[1,3,5,7,9,-1,11,-1,13,-1,15,17,-1,-1,19,21,-1,23,-1,25,-1,27,-1,-1,29,-1,-1,-1,-1,-1,-1],"loss_changes":[4.9215193E0,5.027999E0,7.228864E0,1.4014378E0,1.733838E0,0E0,2.2000227E0,0E0,8.4987307E-1,0E0,7.307439E-1,1.2477627E0,0E0,0E0,2.866211E-1,4.2468977E-1,0E0,9.446564E-1,0E0,3.7698507E-1,0E0,2.7539492E-1,0E0,0E0,4.3269157E-1,0E0,0E0,0E0,0E0,0E0,0E0],"parents":[2147483647,0,0,1,1,2,2,3,3,4,4,6,6,8,8,10,10,11,11,14,14,15,15,17,17,19,19,21,21,24,24],"right_children":[2,4,6,8,10,-1,12,-1,14,-1,16,18,-1,-1,20,22,-1,24,-1,26,-1,28,-1,-1,30,-1,-1,-1,-1,-1,-1],"split_conditions":[1E0,8.195106E-1,3.4E0,0E0,5.6619163E0,-0E0,-1.1607417E0,-0E0,-1.6289286E1,-0E0,1E0,1E0,-0E0,-0E0,1.16E1,6.391603E0,-0E0,4.9834447E0,-0E0,6.652817E-2,-0E0,2.7E0,-0E0,-0E0,-1.5834043E1,-3.2316536E-2,-0E0,2.3189118E-2,-0E0,-0E0,4.0212754E-2],"split_indices":[1,9,14,14,10,0,9,0,6,0,4,4,0,0,14,10,0,10,0,9,0,6,0,0,6,0,0,0,0,0,0],"split_type":[0,0,0,0,0,0,0,0,0,0,0,0,0,0,0,0,0,0,0,0,0,0,0,0,0,0,0,0,0,0,0],"sum_hessian":[2.5401838E4,1.1819038E4,1.3582801E4,5.0512754E3,6.767762E3,5.4611177E3,8.1216826E3,9.012284E2,4.150047E3,3.2461702E3,3.5215923E3,6.3945933E3,1.7270892E3,8.122097E1,4.068826E3,3.1836736E3,3.379185E2,5.777462E3,6.171318E2,3.6865935E3,3.8223242E2,3.0315842E3,1.5208945E2,1.7145412E2,5.6060073E3,3.3050234E3,3.8157007E2,2.9717124E3,5.9871822E1,1.3993745E2,5.4660703E3],"tree_param":{"num_deleted":"0","num_feature":"16","num_nodes":"31","size_leaf_vector":"1"}},{"base_weights":[-0E0],"categories":[],"categories_nodes":[],"categories_segments":[],"categories_sizes":[],"default_left":[0],"id":36,"left_children":[-1],"loss_changes":[0E0],"parents":[2147483647],"right_children":[-1],"split_conditions":[-0E0],"split_indices":[0],"split_type":[0],"sum_hessian":[1.1903258E4],"tree_param":{"num_deleted":"0","num_feature":"16","num_nodes":"1","size_leaf_vector":"1"}},{"base_weights":[-0E0],"categories":[],"categories_nodes":[],"categories_segments":[],"categories_sizes":[],"default_left":[0],"id":37,"left_children":[-1],"loss_changes":[0E0],"parents":[2147483647],"right_children":[-1],"split_conditions":[-0E0],"split_indices":[0],"split_type":[0],"sum_hessian":[1.2224102E4],"tree_param":{"num_deleted":"0","num_feature":"16","num_nodes":"1","size_leaf_vector":"1"}},{"base_weights":[-0E0,-0E0,-1.1560423E-2,1.5738405E-2,-0E0,-0E0,-2.4369236E-2,-0E0,3.679768E-2,-0E0,-1.975088E-2,3.9572414E-2,-0E0,-0E0,2.9803313E-2],"categories":[],"categories_nodes":[],"categories_segments":[],"categories_sizes":[],"default_left":[0,0,0,0,0,0,0,0,1,0,0,0,0,0,0],"id":38,"left_children":[1,3,5,7,-1,-1,9,-1,11,-1,-1,13,-1,-1,-1],"loss_changes":[8.4610194E-1,6.147451E-1,1.035018E0,2.1744187E0,0E0,0E0,4.376465E-1,0E0,3.8554144E-1,0E0,0E0,2.308042E-1,0E0,0E0,0E0],"parents":[2147483647,0,0,1,1,2,2,3,3,6,6,8,8,11,11],"right_children":[2,4,6,8,-1,-1,10,-1,12,-1,-1,14,-1,-1,-1],"split_conditions":[1E0,1E0,4.7E0,9.1E0,-0E0,-0E0,4.8E0,-0E0,2.543E3,-0E0,-1.975088E-2,-5.3E0,-0E0,-0E0,2.9803313E-2],"split_indices":[1,0,14,13,0,0,13,0,11,0,0,14,0,0,0],"split_type":[0,0,0,0,0,0,0,0,0,0,0,0,0,0,0],"sum_hessian":[1.0896759E4,5.047038E3,5.849721E3,2.0005186E3,3.0465195E3,3.1634253E3,2.686296E3,4.2200058E2,1.578518E3,5.7874718E1,2.6284211E3,1.5459806E3,3.2537304E1,2.1475477E1,1.5245051E3],"tree_param":{"num_deleted":"0","num_feature":"16","num_nodes":"15","size_leaf_vector":"1"}},{"base_weights":[-1.8772667E-2,-0E0,-6.174984E-2,7.6386156E-3,-0E0,-0E0,-4.5619257E-2,-0E0,7.462593E-3],"categories":[],"categories_nodes":[],"categories_segments":[],"categories_sizes":[],"default_left":[0,0,1,1,0,0,0,0,0],"id":39,"left_children":[1,3,5,7,-1,-1,-1,-1,-1],"loss_changes":[1.0197831E1,2.3588128E-1,2.4214745E-1,1.8724944E-1,0E0,0E0,0E0,0E0,0E0],"parents":[2147483647,0,0,1,1,2,2,3,3],"right_children":[2,4,6,8,-1,-1,-1,-1,-1],"split_conditions":[1E0,1.7888544E1,3.6E0,7.71E2,-0E0,-0E0,-4.5619257E-2,-0E0,7.462593E-3],"split_indices":[3,15,13,11,0,0,0,0,0],"split_type":[0,0,0,0,0,0,0,0,0],"sum_hessian":[7.372317E3,4.45332E3,2.9189973E3,3.5613113E3,8.920085E2,8.006564E1,2.8389316E3,6.7649414E1,3.4936619E3],"tree_param":{"num_deleted":"0","num_feature":"16","num_nodes":"9","size_leaf_vector":"1"}},{"base_weights":[4.7268E-3,-0E0,3.7870087E-2,-7.2230743E-3,4.3925242E-3,3.904045E-2,-0E0,-1.5685895E-2,-0E0,-0E0,1.2773041E-2,-0E0,2.9261041E-2,-2.270205E-2,-0E0,-0E0,1.5341421E-2,-0E0,-2.9209103E-2,1.295478E-2,-0E0,-3.3531647E-2,-0E0,-0E0,-2.8273147E-2],"categories":[],"categories_nodes":[],"categories_segments":[],"categories_sizes":[],"default_left":[1,0,0,0,0,0,0,1,0,0,0,0,0,0,0,0,0,0,0,0,0,0,0,0,0],"id":40,"left_children":[1,3,5,7,9,11,-1,13,-1,-1,15,-1,-1,17,-1,-1,19,-1,21,-1,-1,23,-1,-1,-1],"loss_changes":[5.993165E0,8.51446E-1,3.587284E-1,1.7116786E0,5.461332E-1,3.341837E-1,0E0,1.7631907E0,0E0,0E0,2.896806E-1,0E0,0E0,1.6454215E0,0E0,0E0,3.312124E-1,0E0,1.4698367E0,0E0,0E0,3.0779028E-1,0E0,0E0,0E0],"parents":[2147483647,0,0,1,1,2,2,3,3,4,4,5,5,7,7,10,10,13,13,16,16,18,18,21,21],"right_children":[2,4,6,8,10,12,-1,14,-1,-1,16,-1,-1,18,-1,-1,20,-1,22,-1,-1,24,-1,-1,-1],"split_conditions":[1.8343937E1,1E0,3.430652E0,7.2E0,4.6E0,1.19E1,-0E0,2.9315525E1,-0E0,-0E0,-1.483721E1,-0E0,2.9261041E-2,-2.222217E0,-0E0,-0E0,1.32E1,-0E0,2.7810369E0,1.295478E-2,-0E0,-8.723077E0,-0E0,-0E0,-2.8273147E-2],"split_indices":[15,3,9,14,14,13,0,12,0,0,6,0,0,9,0,0,14,0,9,0,0,6,0,0,0],"split_type":[0,0,0,0,0,0,0,0,0,0,0,0,0,0,0,0,0,0,0,0,0,0,0,0,0],"sum_hessian":[2.5412201E4,2.1311207E4,4.1009927E3,1.2344322E4,8.966885E3,4.0657334E3,3.5259407E1,9.194982E3,3.14934E3,4.983438E3,3.9834473E3,1.0818078E2,3.9575525E3,7.5593384E3,1.6356443E3,1.3899667E2,3.8444507E3,1.2548732E3,6.304465E3,3.724937E3,1.1951358E2,5.9749785E3,3.294865E2,1.5038558E3,4.4711226E3],"tree_param":{"num_deleted":"0","num_feature":"16","num_nodes":"25","size_leaf_vector":"1"}},{"base_weights":[-0E0],"categories":[],"categories_nodes":[],"categories_segments":[],"categories_sizes":[],"default_left":[0],"id":41,"left_children":[-1],"loss_changes":[0E0],"parents":[2147483647],"right_children":[-1],"split_conditions":[-0E0],"split_indices":[0],"split_type":[0],"sum_hessian":[1.1851153E4],"tree_param":{"num_deleted":"0","num_feature":"16","num_nodes":"1","size_leaf_vector":"1"}},{"base_weights":[-0E0],"categories":[],"categories_nodes":[],"categories_segments":[],"categories_sizes":[],"default_left":[0],"id":42,"left_children":[-1],"loss_changes":[0E0],"parents":[2147483647],"right_children":[-1],"split_conditions":[-0E0],"split_indices":[0],"split_type":[0],"sum_hessian":[1.2220987E4],"tree_param":{"num_deleted":"0","num_feature":"16","num_nodes":"1","size_leaf_vector":"1"}},{"base_weights":[-0E0,-0E0,-7.002635E-3],"categories":[],"categories_nodes":[],"categories_segments":[],"categories_sizes":[],"default_left":[0,0,0],"id":43,"left_children":[1,-1,-1],"loss_changes":[3.554896E-1,0E0,0E0],"parents":[2147483647,0,0],"right_children":[2,-1,-1],"split_conditions":[6.8E0,-0E0,-7.002635E-3],"split_indices":[14,0,0],"split_type":[0,0,0],"sum_hessian":[1.08870205E4,7.575678E3,3.3113418E3],"tree_param":{"num_deleted":"0","num_feature":"16","num_nodes":"3","size_leaf_vector":"1"}},{"base_weights":[-1.6632544E-2,-0E0,-3.034763E-2,-3.523414E-2,-0E0,-3.8712457E-2,-0E0,-0E0,-4.2330183E-2,-0E0,-3.1580374E-2],"categories":[],"categories_nodes":[],"categories_segments":[],"categories_sizes":[],"default_left":[1,0,0,0,0,0,0,0,0,0,0],"id":44,"left_children":[1,-1,3,5,-1,7,-1,-1,9,-1,-1],"loss_changes":[2.7992778E0,0E0,1.1052794E0,6.9441175E-1,0E0,5.688672E-1,0E0,0E0,3.6922693E-1,0E0,0E0],"parents":[2147483647,0,0,2,2,3,3,5,5,8,8],"right_children":[2,-1,4,6,-1,8,-1,-1,10,-1,-1],"split_conditions":[1.3705838E1,-0E0,8.9411765E-1,9.05E1,-0E0,5.084205E0,-0E0,-0E0,8.2E0,-0E0,-3.1580374E-2],"split_indices":[15,0,6,5,0,10,0,0,13,0,0],"split_type":[0,0,0,0,0,0,0,0,0,0,0],"sum_hessian":[7.264897E3,2.3799658E3,4.884931E3,4.3900063E3,4.9492508E2,4.0173115E3,3.7269452E2,4.1861206E2,3.5986995E3,5.1307846E1,3.5473916E3],"tree_param":{"num_deleted":"0","num_feature":"16","num_nodes":"11","size_leaf_vector":"1"}},{"base_weights":[1.7176565E-3,2.739815E-2,-0E0,-0E0,3.3147663E-2,-8.213183E-3,4.0817233E-3,2.733447E-2,-0E0,-1.5949864E-2,-0E0,-0E0,2.2576692E-2,-1.8259289E-2,-0E0,-0E0,1.9280544E-2,-2.0928655E-2,-0E0,-0E0,-1.8389465E-2],"categories":[],"categories_nodes":[],"categories_segments":[],"categories_sizes":[],"default_left":[0,0,1,0,0,0,0,0,0,0,0,0,1,0,0,0,0,0,0,0,0],"id":45,"left_children":[1,3,5,-1,7,9,11,-1,-1,13,-1,-1,15,17,-1,-1,-1,19,-1,-1,-1],"loss_changes":[3.2504132E0,1.3694358E0,1.0663456E0,0E0,1.2990508E0,1.1283469E0,2.3645446E0,0E0,0E0,6.143694E-1,0E0,0E0,3.641982E-1,5.3555083E-1,0E0,0E0,0E0,3.7323308E-1,0E0,0E0,0E0],"parents":[2147483647,0,0,1,1,2,2,4,4,5,5,6,6,9,9,12,12,13,13,17,17],"right_children":[2,4,6,-1,8,10,12,-1,-1,14,-1,-1,16,18,-1,-1,-1,20,-1,-1,-1],"split_conditions":[8.23E1,6.700746E0,1.6451445E1,-0E0,2.7E0,1E0,1E0,2.733447E-2,-0E0,4.9206896E0,-0E0,-0E0,-9.826923E0,6.138476E0,-0E0,-0E0,1.9280544E-2,-8.723077E0,-0E0,-0E0,-1.8389465E-2],"split_indices":[5,15,15,0,6,3,1,0,0,6,0,0,6,10,0,0,0,6,0,0,0],"split_type":[0,0,0,0,0,0,0,0,0,0,0,0,0,0,0,0,0,0,0,0,0],"sum_hessian":[2.5288244E4,3.950044E3,2.13382E4,1.5759639E2,3.7924475E3,1.319701E4,8.1411895E3,3.7162974E3,7.615012E1,7.5809917E3,5.616018E3,3.7016443E3,4.4395454E3,7.5132627E3,6.772928E1,8.7840125E2,3.561144E3,6.8266597E3,6.866027E2,1.7785576E3,5.048102E3],"tree_param":{"num_deleted":"0","num_feature":"16","num_nodes":"21","size_leaf_vector":"1"}},{"base_weights":[-0E0],"categories":[],"categories_nodes":[],"categories_segments":[],"categories_sizes":[],"default_left":[0],"id":46,"left_children":[-1],"loss_changes":[0E0],"parents":[2147483647],"right_children":[-1],"split_conditions":[-0E0],"split_indices":[0],"split_type":[0],"sum_hessian":[1.1886423E4],"tree_param":{"num_deleted":"0","num_feature":"16","num_nodes":"1","size_leaf_vector":"1"}},{"base_weights":[-0E0],"categories":[],"categories_nodes":[],"categories_segments":[],"categories_sizes":[],"default_left":[0],"id":47,"left_children":[-1],"loss_changes":[0E0],"parents":[2147483647],"right_children":[-1],"split_conditions":[-0E0],"split_indices":[0],"split_type":[0],"sum_hessian":[1.2190207E4],"tree_param":{"num_deleted":"0","num_feature":"16","num_nodes":"1","size_leaf_vector":"1"}},{"base_weights":[-0E0,-4.433226E-3,-0E0],"categories":[],"categories_nodes":[],"categories_segments":[],"categories_sizes":[],"default_left":[0,0,0],"id":48,"left_children":[1,-1,-1],"loss_changes":[2.1472645E-1,0E0,0E0],"parents":[2147483647,0,0],"right_children":[2,-1,-1],"split_conditions":[8.59E1,-4.433226E-3,-0E0],"split_indices":[5,0,0],"split_type":[0,0,0],"sum_hessian":[1.0844796E4,5.234598E3,5.6101978E3],"tree_param":{"num_deleted":"0","num_feature":"16","num_nodes":"3","size_leaf_vector":"1"}},{"base_weights":[-1.9779322E-3,6.566142E-3,-3.444555E-2,-0E0,1.231625E-2,-0E0,-5.009099E-2,2.0281656E-2,-0E0,-5.1619247E-2,-0E0,2.4471248E-2,-0E0,-4.033289E-2,-0E0,-0E0,2.6892763E-2,-0E0,2.0970568E-2],"categories":[],"categories_nodes":[],"categories_segments":[],"categories_sizes":[],"default_left":[0,0,0,0,0,0,0,1,0,0,0,1,0,0,0,0,0,0,0],"id":49,"left_children":[1,3,5,-1,7,-1,9,11,-1,13,-1,15,-1,-1,-1,-1,17,-1,-1],"loss_changes":[5.27394E0,2.9899472E-1,2.5323534E0,0E0,6.0331106E-1,0E0,3.0645466E-1,4.384694E-1,0E0,4.1654444E-1,0E0,2.5377905E-1,0E0,0E0,0E0,0E0,2.4413168E-1,0E0,0E0],"parents":[2147483647,0,0,1,1,2,2,4,4,6,6,7,7,9,9,11,11,16,16],"right_children":[2,4,6,-1,8,-1,10,12,-1,14,-1,16,-1,-1,-1,-1,18,-1,-1],"split_conditions":[1E0,-2.186449E0,1.3577187E1,-0E0,8.2E0,-0E0,2.7E0,4.1185925E1,-0E0,1E0,-0E0,-1.4597298E1,-0E0,-4.033289E-2,-0E0,-0E0,-4.4E0,-0E0,2.0970568E-2],"split_indices":[1,12,15,0,14,0,6,12,0,4,0,6,0,0,0,0,14,0,0],"split_type":[0,0,0,0,0,0,0,0,0,0,0,0,0,0,0,0,0,0,0],"sum_hessian":[7.1543193E3,3.3030044E3,3.851315E3,7.376316E2,2.5653728E3,1.274573E3,2.5767422E3,2.108871E3,4.5650162E2,2.5133586E3,6.3383545E1,2.0300825E3,7.8788734E1,2.2188687E3,2.9448984E2,8.100714E1,1.9490753E3,4.8898876E1,1.9001764E3],"tree_param":{"num_deleted":"0","num_feature":"16","num_nodes":"19","size_leaf_vector":"1"}},{"base_weights":[-0E0,-0E0,1.4433871E-2,-3.9294725E-3,-0E0,-0E0,1.297604E-2,-1.1518262E-2,-0E0,-0E0,1.711056E-2,-0E0,-1.4544332E-2,-0E0,1.952642E-2,-0E0,-1.6403599E-2,1.5489415E-2,-0E0,-0E0,-2.0485928E-2,-0E0,-1.7611714E-2],"categories":[],"categories_nodes":[],"categories_segments":[],"categories_sizes":[],"default_left":[1,1,1,0,0,0,0,0,0,0,0,0,0,0,0,0,0,0,0,0,0,0,0],"id":50,"left_children":[1,3,5,7,9,-1,-1,11,-1,-1,13,-1,15,-1,17,-1,19,-1,-1,-1,21,-1,-1],"loss_changes":[8.449885E-1,2.155877E-1,3.7424058E-1,1.2069749E0,9.206025E-1,0E0,0E0,7.8996634E-1,0E0,0E0,2.3053569E-1,0E0,4.9083996E-1,0E0,2.0250487E-1,0E0,3.91217E-1,0E0,0E0,0E0,9.4581366E-1,0E0,0E0],"parents":[2147483647,0,0,1,1,2,2,3,3,4,4,7,7,10,10,12,12,14,14,16,16,20,20],"right_children":[2,4,6,8,10,-1,-1,12,-1,-1,14,-1,16,-1,18,-1,20,-1,-1,-1,22,-1,-1],"split_conditions":[1.855694E1,1.7585577E1,1.602E3,8.8E0,3.4E0,-0E0,1.297604E-2,7.71E2,-0E0,-0E0,6E0,-0E0,-1.6360346E1,-0E0,1.02E1,-0E0,6.1666665E0,1.5489415E-2,-0E0,-0E0,1.208E3,-0E0,-1.7611714E-2],"split_indices":[15,12,11,14,14,0,0,11,0,0,7,0,12,0,14,0,7,0,0,0,11,0,0],"split_type":[0,0,0,0,0,0,0,0,0,0,0,0,0,0,0,0,0,0,0,0,0,0,0],"sum_hessian":[2.5316002E4,2.1741441E4,3.57456E3,1.3480931E4,8.260512E3,2.6760803E2,3.3069521E3,1.0241215E4,3.2397158E3,5.597389E3,2.6631223E3,2.6326437E2,9.97795E3,1.2531053E2,2.5378118E3,4.124877E2,9.565462E3,2.4703938E3,6.7417915E1,2.6729846E3,6.8924775E3,5.588703E2,6.3336074E3],"tree_param":{"num_deleted":"0","num_feature":"16","num_nodes":"23","size_leaf_vector":"1"}},{"base_weights":[-0E0],"categories":[],"categories_nodes":[],"categories_segments":[],"categories_sizes":[],"default_left":[0],"id":51,"left_children":[-1],"loss_changes":[0E0],"parents":[2147483647],"right_children":[-1],"split_conditions":[-0E0],"split_indices":[0],"split_type":[0],"sum_hessian":[1.1877081E4],"tree_param":{"num_deleted":"0","num_feature":"16","num_nodes":"1","size_leaf_vector":"1"}},{"base_weights":[-0E0],"categories":[],"categories_nodes":[],"categories_segments":[],"categories_sizes":[],"default_left":[0],"id":52,"left_children":[-1],"loss_changes":[0E0],"parents":[2147483647],"right_children":[-1],"split_conditions":[-0E0],"split_indices":[0],"split_type":[0],"sum_hessian":[1.2198864E4],"tree_param":{"num_deleted":"0","num_feature":"16","num_nodes":"1","size_leaf_vector":"1"}},{"base_weights":[-0E0,4.1780598E-3,-1.0183789E-2,9.116322E-3,-0E0,1.2911039E-2,-0E0,-0E0,1.4916501E-2,1.8046578E-2,-0E0,1.9610256E-2,-0E0,-0E0,1.4928846E-2],"categories":[],"categories_nodes":[],"categories_segments":[],"categories_sizes":[],"default_left":[0,1,0,0,0,0,0,0,1,0,0,0,0,0,0],"id":53,"left_children":[1,3,-1,5,-1,7,-1,-1,9,11,-1,13,-1,-1,-1],"loss_changes":[1.0962088E0,4.22405E-1,0E0,4.6442246E-1,0E0,3.1692553E-1,0E0,0E0,3.577968E-1,2.9333913E-1,0E0,1.9966817E-1,0E0,0E0,0E0],"parents":[2147483647,0,0,1,1,3,3,5,5,8,8,9,9,11,11],"right_children":[2,4,-1,6,-1,8,-1,-1,10,12,-1,14,-1,-1,-1],"split_conditions":[1E0,1.85E1,-1.0183789E-2,1.13E1,-0E0,-2.3758541E1,-0E0,-0E0,2.9315525E1,6.75E0,-0E0,-5.3E0,-0E0,-0E0,1.4928846E-2],"split_indices":[3,13,0,14,0,12,0,0,12,7,0,14,0,0,0],"split_type":[0,0,0,0,0,0,0,0,0,0,0,0,0,0,0],"sum_hessian":[1.0822492E4,6.3779624E3,4.44453E3,6.042075E3,3.3588696E2,5.5570415E3,4.8503384E2,9.014609E1,5.4668955E3,4.6810835E3,7.858118E2,4.6534175E3,2.7666035E1,3.0793474E1,4.622624E3],"tree_param":{"num_deleted":"0","num_feature":"16","num_nodes":"15","size_leaf_vector":"1"}},{"base_weights":[-1.4373808E-3,6.30413E-4,-2.8783217E-2,-0E0,1.53711485E-2,-0E0,-3.7742015E-2,1.8880751E-2,-0E0,-4.2316914E-2,-0E0,-0E0,1.6176425E-2,-3.4640163E-2,-0E0],"categories":[],"categories_nodes":[],"categories_segments":[],"categories_sizes":[],"default_left":[0,0,0,0,1,0,0,0,0,0,0,0,0,0,0],"id":54,"left_children":[1,3,5,-1,7,-1,9,11,-1,13,-1,-1,-1,-1,-1],"loss_changes":[3.5147922E0,8.0458874E-1,1.6735764E0,0E0,3.6784667E-1,0E0,6.720047E-1,4.348371E-1,0E0,2.0658731E-1,0E0,0E0,0E0,0E0,0E0],"parents":[2147483647,0,0,1,1,2,2,4,4,6,6,7,7,9,9],"right_children":[2,4,6,-1,8,-1,10,12,-1,14,-1,-1,-1,-1,-1],"split_conditions":[1E0,8.1E1,1.0944405E1,-0E0,2.0274368E1,-0E0,1E0,8.81E2,-0E0,8.91E1,-0E0,-0E0,1.6176425E-2,-3.4640163E-2,-0E0],"split_indices":[1,5,15,0,15,0,4,11,0,5,0,0,0,0,0],"split_type":[0,0,0,0,0,0,0,0,0,0,0,0,0,0,0],"sum_hessian":[7.1102983E3,3.3320237E3,3.7782747E3,4.0158334E2,2.9304404E3,6.073063E2,3.1709683E3,2.8118289E3,1.1861148E2,2.7992256E3,3.717428E2,7.6720276E1,2.7351086E3,2.1700146E3,6.2921094E2],"tree_param":{"num_deleted":"0","num_feature":"16","num_nodes":"15","size_leaf_vector":"1"}},{"base_weights":[1.0685001E-3,-0E0,8.507085E-3,-0E0,1.2476943E-2,1.6547447E-2,-0E0,1.9704504E-2,-0E0,-0E0,2.1977756E-2,2.4380546E-2,-0E0,1.8388748E-2,-0E0],"categories":[],"categories_nodes":[],"categories_segments":[],"categories_sizes":[],"default_left":[0,0,0,0,0,0,0,0,0,0,0,0,0,0,0],"id":55,"left_children":[1,-1,3,-1,5,7,-1,9,-1,-1,11,13,-1,-1,-1],"loss_changes":[7.6929134E-1,0E0,7.747158E-1,0E0,7.426796E-1,8.445995E-1,0E0,5.3908944E-1,0E0,0E0,3.2825994E-1,3.294568E-1,0E0,0E0,0E0],"parents":[2147483647,0,0,2,2,4,4,5,5,7,7,10,10,11,11],"right_children":[2,-1,4,-1,6,8,-1,10,-1,-1,12,14,-1,-1,-1],"split_conditions":[1E0,-0E0,5.0563784E0,-0E0,6.0728855E0,2.5006175E0,-0E0,6E0,-0E0,-0E0,7.3125E-1,1.54E1,-0E0,1.8388748E-2,-0E0],"split_indices":[3,0,10,0,10,9,0,7,0,0,6,14,0,0,0],"split_type":[0,0,0,0,0,0,0,0,0,0,0,0,0,0,0],"sum_hessian":[2.5286686E4,1.4731595E4,1.055509E4,9.292308E2,9.625859E3,7.9772383E3,1.6486208E3,7.6592153E3,3.1802295E2,4.808499E2,7.178365E3,6.2952275E3,8.8313806E2,6.2604565E3,3.477066E1],"tree_param":{"num_deleted":"0","num_feature":"16","num_nodes":"15","size_leaf_vector":"1"}},{"base_weights":[-0E0],"categories":[],"categories_nodes":[],"categories_segments":[],"categories_sizes":[],"default_left":[0],"id":56,"left_children":[-1],"loss_changes":[0E0],"parents":[2147483647],"right_children":[-1],"split_conditions":[-0E0],"split_indices":[0],"split_type":[0],"sum_hessian":[1.1848041E4],"tree_param":{"num_deleted":"0","num_feature":"16","num_nodes":"1","size_leaf_vector":"1"}},{"base_weights":[-0E0],"categories":[],"categories_nodes":[],"categories_segments":[],"categories_sizes":[],"default_left":[0],"id":57,"left_children":[-1],"loss_changes":[0E0],"parents":[2147483647],"right_children":[-1],"split_conditions":[-0E0],"split_indices":[0],"split_type":[0],"sum_hessian":[1.2203932E4],"tree_param":{"num_deleted":"0","num_feature":"16","num_nodes":"1","size_leaf_vector":"1"}},{"base_weights":[-0E0,-0E0,-1.0759469E-2,-2.0640768E-2,-0E0,-0E0,-2.0134076E-2],"categories":[],"categories_nodes":[],"categories_segments":[],"categories_sizes":[],"default_left":[0,0,0,0,0,0,0],"id":58,"left_children":[1,-1,3,5,-1,-1,-1],"loss_changes":[5.67604E-1,0E0,5.7562464E-1,5.886406E-1,0E0,0E0,0E0],"parents":[2147483647,0,0,2,2,3,3],"right_children":[2,-1,4,6,-1,-1,-1],"split_conditions":[1E0,-0E0,8.61E1,6.075508E0,-0E0,-0E0,-2.0134076E-2],"split_indices":[3,0,5,8,0,0,0],"split_type":[0,0,0,0,0,0,0],"sum_hessian":[1.0833246E4,6.4115454E3,4.4217007E3,2.2020547E3,2.2196458E3,4.4830145E2,1.7537532E3],"tree_param":{"num_deleted":"0","num_feature":"16","num_nodes":"7","size_leaf_vector":"1"}},{"base_weights":[-6.4949883E-4,-0E0,-3.1995025E-2,1.2252562E-2,-0E0,-0E0,-2.4502076E-2,-0E0,2.6814492E-2,2.8899778E-2,-0E0,2.2593385E-2,-0E0],"categories":[],"categories_nodes":[],"categories_segments":[],"categories_sizes":[],"default_left":[0,0,0,0,0,0,0,0,0,0,0,0,0],"id":59,"left_children":[1,3,5,7,-1,-1,-1,-1,9,11,-1,-1,-1],"loss_changes":[3.2787354E0,6.00191E-1,2.9925776E-1,1.9584614E0,0E0,0E0,0E0,0E0,3.530326E-1,2.1981001E-1,0E0,0E0,0E0],"parents":[2147483647,0,0,1,1,2,2,3,3,8,8,9,9],"right_children":[2,4,6,8,-1,-1,-1,-1,10,12,-1,-1,-1],"split_conditions":[1E0,1.7888544E1,5.9166665E0,8.2E1,-0E0,-0E0,-2.4502076E-2,-0E0,6.3499136E0,6.5E0,-0E0,2.2593385E-2,-0E0],"split_indices":[3,15,7,5,0,0,0,0,10,7,0,0,0],"split_type":[0,0,0,0,0,0,0,0,0,0,0,0,0],"sum_hessian":[7.083466E3,4.3587837E3,2.7246824E3,3.5166135E3,8.4217004E2,8.523796E1,2.6394443E3,4.3939157E2,3.077222E3,3.0049038E3,7.231804E1,2.7281199E3,2.7678394E2],"tree_param":{"num_deleted":"0","num_feature":"16","num_nodes":"13","size_leaf_vector":"1"}},{"base_weights":[-0E0,1.8077416E-2,-0E0,-0E0,2.3437986E-2,-5.767648E-3,1.5726467E-3,2.6920423E-2,-0E0,-0E0,-1.1002954E-2,-0E0,6.8354914E-3,-0E0,3.0123755E-2,-0E0,-1.4853203E-2,2.3542E-2,-0E0,-1.7157745E-2,-0E0,-1.9194892E-2,-0E0,-0E0,-1.4351103E-2],"categories":[],"categories_nodes":[],"categories_segments":[],"categories_sizes":[],"default_left":[0,0,1,0,0,0,1,0,0,0,0,0,0,0,1,0,0,0,0,0,0,0,0,0,0],"id":60,"left_children":[1,3,5,-1,7,9,11,13,-1,-1,15,-1,-1,-1,17,-1,19,-1,-1,21,-1,23,-1,-1,-1],"loss_changes":[1.1299136E0,6.0590005E-1,6.394126E-1,0E0,5.1128244E-1,1.1375163E0,2.5788137E-1,4.680252E-1,0E0,0E0,7.239957E-1,0E0,0E0,0E0,2.6517415E-1,0E0,6.4147806E-1,0E0,0E0,5.8569694E-1,0E0,2.4665976E-1,0E0,0E0,0E0],"parents":[2147483647,0,0,1,1,2,2,4,4,5,5,6,6,7,7,10,10,14,14,16,16,19,19,21,21],"right_children":[2,4,6,-1,8,10,12,14,-1,-1,16,-1,-1,-1,18,-1,20,-1,-1,22,-1,24,-1,-1,-1],"split_conditions":[8.16E1,6.0833335E0,1.8181309E1,-0E0,2.7E0,1.415E3,1.877E3,7.2449985E0,-0E0,-0E0,6.1666665E0,-0E0,6.8354914E-3,-0E0,2.207E3,-0E0,9.11E1,2.3542E-2,-0E0,1.3375E0,-0E0,4.9030604E0,-0E0,-0E0,-1.4351103E-2],"split_indices":[5,7,15,0,6,11,11,15,0,0,7,0,0,0,11,0,5,0,0,6,0,15,0,0,0],"split_type":[0,0,0,0,0,0,0,0,0,0,0,0,0,0,0,0,0,0,0,0,0,0,0,0,0],"sum_hessian":[2.5324012E4,2.9762615E3,2.234775E4,2.9776047E2,2.678501E3,1.8411592E4,3.9361582E3,2.6193662E3,5.913471E1,4.3056777E3,1.4105914E4,1.4076565E3,2.5285017E3,1.0862162E2,2.5107446E3,3.3007417E3,1.0805172E4,2.3319587E3,1.7878587E2,1.0155917E4,6.492551E2,9.607527E3,5.483897E2,1.9878122E1,9.587649E3],"tree_param":{"num_deleted":"0","num_feature":"16","num_nodes":"25","size_leaf_vector":"1"}},{"base_weights":[-0E0],"categories":[],"categories_nodes":[],"categories_segments":[],"categories_sizes":[],"default_left":[0],"id":61,"left_children":[-1],"loss_changes":[0E0],"parents":[2147483647],"right_children":[-1],"split_conditions":[-0E0],"split_indices":[0],"split_type":[0],"sum_hessian":[1.18332295E4],"tree_param":{"num_deleted":"0","num_feature":"16","num_nodes":"1","size_leaf_vector":"1"}},{"base_weights":[-0E0],"categories":[],"categories_nodes":[],"categories_segments":[],"categories_sizes":[],"default_left":[0],"id":62,"left_children":[-1],"loss_changes":[0E0],"parents":[2147483647],"right_children":[-1],"split_conditions":[-0E0],"split_indices":[0],"split_type":[0],"sum_hessian":[1.2175159E4],"tree_param":{"num_deleted":"0","num_feature":"16","num_nodes":"1","size_leaf_vector":"1"}},{"base_weights":[-0E0],"categories":[],"categories_nodes":[],"categories_segments":[],"categories_sizes":[],"default_left":[0],"id":63,"left_children":[-1],"loss_changes":[0E0],"parents":[2147483647],"right_children":[-1],"split_conditions":[-0E0],"split_indices":[0],"split_type":[0],"sum_hessian":[1.0781283E4],"tree_param":{"num_deleted":"0","num_feature":"16","num_nodes":"1","size_leaf_vector":"1"}},{"base_weights":[-0E0,-0E0,-1.5239548E-2],"categories":[],"categories_nodes":[],"categories_segments":[],"categories_sizes":[],"default_left":[0,0,0],"id":64,"left_children":[1,-1,-1],"loss_changes":[1.389456E0,0E0,0E0],"parents":[2147483647,0,0],"right_children":[2,-1,-1],"split_conditions":[1E0,-0E0,-1.5239548E-2],"split_indices":[3,0,0],"split_type":[0,0,0],"sum_hessian":[7.0642983E3,4.4156436E3,2.6486545E3],"tree_param":{"num_deleted":"0","num_feature":"16","num_nodes":"3","size_leaf_vector":"1"}},{"base_weights":[-0E0,-1.1813194E-3,7.243217E-3,-0E0,-9.01549E-3,-4.6522403E-3,2.0501787E-2,-0E0,-1.4521491E-2,-0E0,-8.400456E-3,-0E0,2.4122067E-2,-1.9918166E-2,-0E0,2.689613E-2,-0E0,-2.3903962E-2,-0E0,2.2214811E-2,-0E0,-2.6294695E-2,-0E0,-0E0,-2.1487705E-2],"categories":[],"categories_nodes":[],"categories_segments":[],"categories_sizes":[],"default_left":[0,0,0,0,0,0,0,0,1,0,0,0,0,0,0,0,0,0,0,0,0,0,0,0,0],"id":65,"left_children":[1,3,5,-1,7,9,11,-1,13,-1,-1,-1,15,17,-1,19,-1,21,-1,-1,-1,23,-1,-1,-1],"loss_changes":[7.5097203E-1,7.6004195E-1,3.9842026E0,0E0,8.641467E-1,3.6066562E-1,1.3596072E0,0E0,9.258189E-1,0E0,0E0,0E0,7.6694584E-1,7.278905E-1,0E0,2.4375868E-1,0E0,6.228447E-1,0E0,0E0,0E0,4.7274518E-1,0E0,0E0,0E0],"parents":[2147483647,0,0,1,1,2,2,4,4,5,5,6,6,8,8,12,12,13,13,15,15,17,17,21,21],"right_children":[2,4,6,-1,8,10,12,-1,14,-1,-1,-1,16,18,-1,20,-1,22,-1,-1,-1,24,-1,-1,-1],"split_conditions":[1E0,1.2731065E1,1.2298374E1,-0E0,-9.907408E0,7.71E2,4.9834447E0,-0E0,1.864618E1,-0E0,-8.400456E-3,-0E0,1E0,6.5E0,-0E0,6.4166665E0,-0E0,2.414E3,-0E0,2.2214811E-2,-0E0,1.415E3,-0E0,-0E0,-2.1487705E-2],"split_indices":[1,15,15,0,6,11,10,0,15,0,0,0,4,7,0,7,0,11,0,0,0,11,0,0,0],"split_type":[0,0,0,0,0,0,0,0,0,0,0,0,0,0,0,0,0,0,0,0,0,0,0,0,0],"sum_hessian":[2.5286854E4,1.1780337E4,1.3506517E4,2.7001135E3,9.080223E3,2.9391187E3,1.0567398E4,1.7782117E3,7.302011E3,1.977423E2,2.7413765E3,7.309544E2,9.836443E3,5.98932E3,1.3126917E3,8.878052E3,9.5839154E2,5.2852397E3,7.0407996E2,6.954725E3,1.923327E3,5.185141E3,1.000984E2,6.9156647E2,4.4935747E3],"tree_param":{"num_deleted":"0","num_feature":"16","num_nodes":"25","size_leaf_vector":"1"}},{"base_weights":[-0E0],"categories":[],"categories_nodes":[],"categories_segments":[],"categories_sizes":[],"default_left":[0],"id":66,"left_children":[-1],"loss_changes":[0E0],"parents":[2147483647],"right_children":[-1],"split_conditions":[-0E0],"split_indices":[0],"split_type":[0],"sum_hessian":[1.1864628E4],"tree_param":{"num_deleted":"0","num_feature":"16","num_nodes":"1","size_leaf_vector":"1"}},{"base_weights":[-0E0],"categories":[],"categories_nodes":[],"categories_segments":[],"categories_sizes":[],"default_left":[0],"id":67,"left_children":[-1],"loss_changes":[0E0],"parents":[2147483647],"right_children":[-1],"split_conditions":[-0E0],"split_indices":[0],"split_type":[0],"sum_hessian":[1.2210027E4],"tree_param":{"num_deleted":"0","num_feature":"16","num_nodes":"1","size_leaf_vector":"1"}},{"base_weights":[-0E0],"categories":[],"categories_nodes":[],"categories_segments":[],"categories_sizes":[],"default_left":[0],"id":68,"left_children":[-1],"loss_changes":[0E0],"parents":[2147483647],"right_children":[-1],"split_conditions":[-0E0],"split_indices":[0],"split_type":[0],"sum_hessian":[1.0794928E4],"tree_param":{"num_deleted":"0","num_feature":"16","num_nodes":"1","size_leaf_vector":"1"}},{"base_weights":[-0E0,-0E0,-1.9823642E-2,-0E0,1.1970163E-2,-0E0,-2.4184689E-2,-0E0,1.0891793E-2,-1.9453887E-2,-0E0],"categories":[],"categories_nodes":[],"categories_segments":[],"categories_sizes":[],"default_left":[0,0,0,0,0,0,0,0,0,0,0],"id":69,"left_children":[1,3,5,-1,7,-1,9,-1,-1,-1,-1],"loss_changes":[1.6414771E0,5.0386703E-1,4.5044994E-1,0E0,2.7816176E-1,0E0,2.703507E-1,0E0,0E0,0E0,0E0],"parents":[2147483647,0,0,1,1,2,2,4,4,6,6],"right_children":[2,4,6,-1,8,-1,10,-1,-1,-1,-1],"split_conditions":[1E0,8.05E1,5.236723E0,-0E0,8.5E2,-0E0,9.05E1,-0E0,1.0891793E-2,-1.9453887E-2,-0E0],"split_indices":[1,5,10,0,11,0,5,0,0,0,0],"split_type":[0,0,0,0,0,0,0,0,0,0,0],"sum_hessian":[7.0447964E3,3.3490835E3,3.695713E3,3.1386188E2,3.0352217E3,6.0047345E2,3.0952395E3,6.777306E1,2.9674485E3,2.7842449E3,3.1099454E2],"tree_param":{"num_deleted":"0","num_feature":"16","num_nodes":"11","size_leaf_vector":"1"}},{"base_weights":[-0E0,8.218148E-3,-3.370507E-6,-0E0,1.4286071E-2,-8.631643E-3,1.8750676E-3,-0E0,2.358592E-2,-1.4519317E-2,-0E0,-0E0,1.2549716E-2,-0E0,2.583673E-2,-1.7125541E-2,-0E0,-0E0,2.3732968E-2,2.041095E-2,-0E0,-2.390779E-2,-0E0,-0E0,3.063614E-2,-0E0,-2.8864829E-2,-0E0,3.5442416E-2,-2.24322E-2,-0E0,2.8082417E-2,-0E0],"categories":[],"categories_nodes":[],"categories_segments":[],"categories_sizes":[],"default_left":[0,0,0,0,0,1,0,0,0,0,0,0,1,0,0,0,0,0,1,0,0,0,0,0,0,0,1,0,0,0,0,0,0],"id":70,"left_children":[1,3,5,-1,7,9,11,-1,13,15,-1,-1,17,-1,19,21,-1,-1,23,-1,-1,25,-1,-1,27,-1,29,-1,31,-1,-1,-1,-1],"loss_changes":[2.5220412E-1,4.4785938E-1,1.1109493E0,0E0,8.8966286E-1,1.5373317E0,7.77036E-1,0E0,2.863536E-1,8.4117293E-1,0E0,0E0,1.2481683E0,0E0,3.3346522E-1,1.2578473E0,0E0,0E0,9.293368E-1,0E0,0E0,1.2261634E0,0E0,0E0,4.567926E-1,0E0,8.187833E-1,0E0,5.484328E-1,0E0,0E0,0E0,0E0],"parents":[2147483647,0,0,1,1,2,2,4,4,5,5,6,6,8,8,9,9,12,12,14,14,15,15,18,18,21,21,24,24,26,26,28,28],"right_children":[2,4,6,-1,8,10,12,-1,14,16,-1,-1,18,-1,20,22,-1,-1,24,-1,-1,26,-1,-1,28,-1,30,-1,32,-1,-1,-1,-1],"split_conditions":[-2.254185E0,9.2E0,-4.7885352E-1,-0E0,1E0,2.961481E1,5.6423335E0,-0E0,4.46784E0,1.86E1,-0E0,-0E0,6.16999E0,-0E0,4.1185925E1,5.878091E0,-0E0,-0E0,-9.676702E0,2.041095E-2,-0E0,9.6E0,-0E0,-0E0,8.8579386E-1,-0E0,2.872755E1,-0E0,7.2142115E0,-2.24322E-2,-0E0,2.8082417E-2,-0E0],"split_indices":[9,13,9,0,1,12,10,0,10,13,0,0,8,0,12,10,0,0,12,0,0,13,0,0,9,0,12,0,8,0,0,0,0],"split_type":[0,0,0,0,0,0,0,0,0,0,0,0,0,0,0,0,0,0,0,0,0,0,0,0,0,0,0,0,0,0,0,0,0],"sum_hessian":[2.527582E4,3.2529336E3,2.2022887E4,3.0411523E2,2.9488184E3,1.4029794E4,7.993093E3,5.724385E2,2.37638E3,1.1939717E4,2.0900776E3,3.3515269E3,4.641566E3,4.724827E1,2.3291316E3,1.1314949E4,6.2476733E2,1.4744435E3,3.1671228E3,2.2933833E3,3.574834E1,7.7720938E3,3.542856E3,4.6879105E2,2.6983315E3,1.1196841E3,6.652409E3,4.4025983E2,2.2580718E3,6.549414E3,1.0299546E2,2.1653284E3,9.274341E1],"tree_param":{"num_deleted":"0","num_feature":"16","num_nodes":"33","size_leaf_vector":"1"}},{"base_weights":[-0E0],"categories":[],"categories_nodes":[],"categories_segments":[],"categories_sizes":[],"default_left":[0],"id":71,"left_children":[-1],"loss_changes":[0E0],"parents":[2147483647],"right_children":[-1],"split_conditions":[-0E0],"split_indices":[0],"split_type":[0],"sum_hessian":[1.186525E4],"tree_param":{"num_deleted":"0","num_feature":"16","num_nodes":"1","size_leaf_vector":"1"}},{"base_weights":[-0E0],"categories":[],"categories_nodes":[],"categories_segments":[],"categories_sizes":[],"default_left":[0],"id":72,"left_children":[-1],"loss_changes":[0E0],"parents":[2147483647],"right_children":[-1],"split_conditions":[-0E0],"split_indices":[0],"split_type":[0],"sum_hessian":[1.2196954E4],"tree_param":{"num_deleted":"0","num_feature":"16","num_nodes":"1","size_leaf_vector":"1"}},{"base_weights":[-0E0],"categories":[],"categories_nodes":[],"categories_segments":[],"categories_sizes":[],"default_left":[0],"id":73,"left_children":[-1],"loss_changes":[0E0],"parents":[2147483647],"right_children":[-1],"split_conditions":[-0E0],"split_indices":[0],"split_type":[0],"sum_hessian":[1.0793242E4],"tree_param":{"num_deleted":"0","num_feature":"16","num_nodes":"1","size_leaf_vector":"1"}},{"base_weights":[-0E0,-0E0,-1.739334E-2,-0E0,-2.6396332E-2,-0E0,-2.1309013E-2],"categories":[],"categories_nodes":[],"categories_segments":[],"categories_sizes":[],"default_left":[0,0,0,0,0,0,0],"id":74,"left_children":[1,-1,3,-1,5,-1,-1],"loss_changes":[9.38634E-1,0E0,2.9440302E-1,0E0,2.57344E-1,0E0,0E0],"parents":[2147483647,0,0,2,2,4,4],"right_children":[2,-1,4,-1,6,-1,-1],"split_conditions":[1E0,-0E0,1E0,-0E0,6E0,-0E0,-2.1309013E-2],"split_indices":[3,0,1,0,7,0,0],"split_type":[0,0,0,0,0,0,0],"sum_hessian":[7.029995E3,4.4086836E3,2.6213118E3,1.3329758E3,1.2883358E3,5.2496063E1,1.2358398E3],"tree_param":{"num_deleted":"0","num_feature":"16","num_nodes":"7","size_leaf_vector":"1"}},{"base_weights":[-0E0],"categories":[],"categories_nodes":[],"categories_segments":[],"categories_sizes":[],"default_left":[0],"id":75,"left_children":[-1],"loss_changes":[0E0],"parents":[2147483647],"right_children":[-1],"split_conditions":[-0E0],"split_indices":[0],"split_type":[0],"sum_hessian":[2.5241197E4],"tree_param":{"num_deleted":"0","num_feature":"16","num_nodes":"1","size_leaf_vector":"1"}},{"base_weights":[-0E0],"categories":[],"categories_nodes":[],"categories_segments":[],"categories_sizes":[],"default_left":[0],"id":76,"left_children":[-1],"loss_changes":[0E0],"parents":[2147483647],"right_children":[-1],"split_conditions":[-0E0],"split_indices":[0],"split_type":[0],"sum_hessian":[1.1854374E4],"tree_param":{"num_deleted":"0","num_feature":"16","num_nodes":"1","size_leaf_vector":"1"}},{"base_weights":[-0E0],"categories":[],"categories_nodes":[],"categories_segments":[],"categories_sizes":[],"default_left":[0],"id":77,"left_children":[-1],"loss_changes":[0E0],"parents":[2147483647],"right_children":[-1],"split_conditions":[-0E0],"split_indices":[0],"split_type":[0],"sum_hessian":[1.220442E4],"tree_param":{"num_deleted":"0","num_feature":"16","num_nodes":"1","size_leaf_vector":"1"}},{"base_weights":[-0E0],"categories":[],"categories_nodes":[],"categories_segments":[],"categories_sizes":[],"default_left":[0],"id":78,"left_children":[-1],"loss_changes":[0E0],"parents":[2147483647],"right_children":[-1],"split_conditions":[-0E0],"split_indices":[0],"split_type":[0],"sum_hessian":[1.0815347E4],"tree_param":{"num_deleted":"0","num_feature":"16","num_nodes":"1","size_leaf_vector":"1"}},{"base_weights":[-0E0,-0E0,-1.0922853E-2,-0E0,-1.1499462E-2],"categories":[],"categories_nodes":[],"categories_segments":[],"categories_sizes":[],"default_left":[0,0,0,0,0],"id":79,"left_children":[1,-1,3,-1,-1],"loss_changes":[4.8905855E-1,0E0,3.9642447E-1,0E0,0E0],"parents":[2147483647,0,0,2,2],"right_children":[2,-1,4,-1,-1],"split_conditions":[1E0,-0E0,1.0944405E1,-0E0,-1.1499462E-2],"split_indices":[1,0,15,0,0],"split_type":[0,0,0,0,0],"sum_hessian":[7.0049253E3,3.3871443E3,3.617781E3,5.958977E2,3.0218833E3],"tree_param":{"num_deleted":"0","num_feature":"16","num_nodes":"5","size_leaf_vector":"1"}},{"base_weights":[-0E0],"categories":[],"categories_nodes":[],"categories_segments":[],"categories_sizes":[],"default_left":[0],"id":80,"left_children":[-1],"loss_changes":[0E0],"parents":[2147483647],"right_children":[-1],"split_conditions":[-0E0],"split_indices":[0],"split_type":[0],"sum_hessian":[2.5245527E4],"tree_param":{"num_deleted":"0","num_feature":"16","num_nodes":"1","size_leaf_vector":"1"}},{"base_weights":[-0E0],"categories":[],"categories_nodes":[],"categories_segments":[],"categories_sizes":[],"default_left":[0],"id":81,"left_children":[-1],"loss_changes":[0E0],"parents":[2147483647],"right_children":[-1],"split_conditions":[-0E0],"split_indices":[0],"split_type":[0],"sum_hessian":[1.1872865E4],"tree_param":{"num_deleted":"0","num_feature":"16","num_nodes":"1","size_leaf_vector":"1"}},{"base_weights":[-0E0],"categories":[],"categories_nodes":[],"categories_segments":[],"categories_sizes":[],"default_left":[0],"id":82,"left_children":[-1],"loss_changes":[0E0],"parents":[2147483647],"right_children":[-1],"split_conditions":[-0E0],"split_indices":[0],"split_type":[0],"sum_hessian":[1.2202872E4],"tree_param":{"num_deleted":"0","num_feature":"16","num_nodes":"1","size_leaf_vector":"1"}},{"base_weights":[-0E0],"categories":[],"categories_nodes":[],"categories_segments":[],"categories_sizes":[],"default_left":[0],"id":83,"left_children":[-1],"loss_changes":[0E0],"parents":[2147483647],"right_children":[-1],"split_conditions":[-0E0],"split_indices":[0],"split_type":[0],"sum_hessian":[1.0826156E4],"tree_param":{"num_deleted":"0","num_feature":"16","num_nodes":"1","size_leaf_vector":"1"}},{"base_weights":[-0E0,-0E0,-1.0475063E-2,-0E0,1.2629846E-2,-1.394228E-2,-0E0,1.8751731E-2,-0E0,-0E0,-1.2189619E-2,-0E0,2.2645231E-2,2.69016E-2,-0E0,3.009533E-2,-0E0,-0E0,2.3044262E-2],"categories":[],"categories_nodes":[],"categories_segments":[],"categories_sizes":[],"default_left":[0,0,0,0,1,0,0,0,0,0,0,0,0,0,0,1,0,0,0],"id":84,"left_children":[1,3,5,-1,7,9,-1,11,-1,-1,-1,-1,13,15,-1,17,-1,-1,-1],"loss_changes":[3.3701977E-1,3.9877304E-1,2.1575215E-1,0E0,4.443232E-1,2.0052671E-1,0E0,3.7352467E-1,0E0,0E0,0E0,0E0,3.5131037E-1,3.5990608E-1,0E0,2.035501E-1,0E0,0E0,0E0],"parents":[2147483647,0,0,1,1,2,2,4,4,5,5,7,7,12,12,13,13,15,15],"right_children":[2,4,6,-1,8,10,-1,12,-1,-1,-1,-1,14,16,-1,18,-1,-1,-1],"split_conditions":[1E0,8.64E1,9.05E1,-0E0,3.7679916E1,-2.2E0,-0E0,-1.7392307E1,-0E0,-0E0,-1.2189619E-2,-0E0,9.11E1,2.987507E0,-0E0,-2.0630356E1,-0E0,-0E0,2.3044262E-2],"split_indices":[3,5,5,0,12,14,0,6,0,0,0,0,5,9,0,12,0,0,0],"split_type":[0,0,0,0,0,0,0,0,0,0,0,0,0,0,0,0,0,0,0],"sum_hessian":[6.9704453E3,4.380325E3,2.59012E3,2.3617053E3,2.01862E3,2.362344E3,2.27776E2,1.9163772E3,1.0224275E2,1.9133752E2,2.1710066E3,2.5222256E1,1.891155E3,1.6852395E3,2.0591545E2,1.6471725E3,3.8067028E1,2.8697624E1,1.6184749E3],"tree_param":{"num_deleted":"0","num_feature":"16","num_nodes":"19","size_leaf_vector":"1"}},{"base_weights":[-0E0,3.280805E-3,-3.0728993E-3,-0E0,8.339448E-3,-9.707777E-3,-0E0,-0E0,1.3852171E-2,-1.4582526E-2,-0E0,-0E0,1.717559E-2,-1.7964376E-2,-0E0,1.8658727E-2,-0E0,-0E0,-2.0537153E-2,1.9757507E-2,-0E0,-0E0,-2.2088028E-2,-0E0,1.5252179E-2,-1.7048705E-2,-0E0],"categories":[],"categories_nodes":[],"categories_segments":[],"categories_sizes":[],"default_left":[0,0,1,0,1,1,0,0,0,0,0,0,0,0,0,1,0,0,0,0,0,0,0,0,0,0,0],"id":85,"left_children":[1,3,5,-1,7,9,-1,-1,11,13,-1,-1,15,17,-1,19,-1,-1,21,23,-1,-1,25,-1,-1,-1,-1],"loss_changes":[2.7142385E-1,7.7714825E-1,4.7127748E-1,0E0,1.1353004E0,5.4548013E-1,0E0,0E0,6.498058E-1,4.8143327E-1,0E0,0E0,4.3442106E-1,4.6495783E-1,0E0,2.960117E-1,0E0,0E0,2.7877426E-1,2.1021676E-1,0E0,0E0,2.9259443E-1,0E0,0E0,0E0,0E0],"parents":[2147483647,0,0,1,1,2,2,4,4,5,5,8,8,9,9,12,12,13,13,15,15,18,18,19,19,22,22],"right_children":[2,4,6,-1,8,10,-1,-1,12,14,-1,-1,16,18,-1,20,-1,-1,22,24,-1,-1,26,-1,-1,-1,-1],"split_conditions":[8.76E1,5.3904796E0,2.383479E1,-0E0,6.0689745E0,2.118E3,-0E0,-0E0,-6.8145776E0,1.14E1,-0E0,-0E0,7.3437386E0,8.5E2,-0E0,2.377E3,-0E0,-0E0,-1.5594591E1,6.1479974E0,-0E0,-0E0,4.0833335E0,-0E0,1.5252179E-2,-1.7048705E-2,-0E0],"split_indices":[5,10,12,0,8,11,0,0,12,14,0,0,8,11,0,11,0,0,12,8,0,0,6,0,0,0,0],"split_type":[0,0,0,0,0,0,0,0,0,0,0,0,0,0,0,0,0,0,0,0,0,0,0,0,0,0,0],"sum_hessian":[2.5241115E4,1.7679092E4,7.5620234E3,4.1751997E3,1.3503892E4,5.325376E3,2.236647E3,2.9997395E3,1.0504152E4,4.6572085E3,6.6816766E2,1.6372742E3,8.866878E3,4.3964297E3,2.607786E2,8.687617E3,1.7926085E2,4.3178238E1,4.3532515E3,8.454452E3,2.3316504E2,8.3671844E1,4.2695796E3,6.183722E2,7.83608E3,4.2173594E3,5.222037E1],"tree_param":{"num_deleted":"0","num_feature":"16","num_nodes":"27","size_leaf_vector":"1"}},{"base_weights":[-0E0],"categories":[],"categories_nodes":[],"categories_segments":[],"categories_sizes":[],"default_left":[0],"id":86,"left_children":[-1],"loss_changes":[0E0],"parents":[2147483647],"right_children":[-1],"split_conditions":[-0E0],"split_indices":[0],"split_type":[0],"sum_hessian":[1.1872063E4],"tree_param":{"num_deleted":"0","num_feature":"16","num_nodes":"1","size_leaf_vector":"1"}},{"base_weights":[-0E0],"categories":[],"categories_nodes":[],"categories_segments":[],"categories_sizes":[],"default_left":[0],"id":87,"left_children":[-1],"loss_changes":[0E0],"parents":[2147483647],"right_children":[-1],"split_conditions":[-0E0],"split_indices":[0],"split_type":[0],"sum_hessian":[1.218925E4],"tree_param":{"num_deleted":"0","num_feature":"16","num_nodes":"1","size_leaf_vector":"1"}},{"base_weights":[-0E0],"categories":[],"categories_nodes":[],"categories_segments":[],"categories_sizes":[],"default_left":[0],"id":88,"left_children":[-1],"loss_changes":[0E0],"parents":[2147483647],"right_children":[-1],"split_conditions":[-0E0],"split_indices":[0],"split_type":[0],"sum_hessian":[1.0817421E4],"tree_param":{"num_deleted":"0","num_feature":"16","num_nodes":"1","size_leaf_vector":"1"}},{"base_weights":[-0E0,-9.712033E-3,-0E0,-0E0,-1.1713089E-2],"categories":[],"categories_nodes":[],"categories_segments":[],"categories_sizes":[],"default_left":[0,0,0,0,0],"id":89,"left_children":[1,3,-1,-1,-1],"loss_changes":[1.9797663E-1,2.9203093E-1,0E0,0E0,0E0],"parents":[2147483647,0,0,1,1],"right_children":[2,4,-1,-1,-1],"split_conditions":[8.36E1,6.0833335E0,-0E0,-0E0,-1.1713089E-2],"split_indices":[5,7,0,0,0],"split_type":[0,0,0,0,0],"sum_hessian":[6.9704634E3,1.6175886E3,5.352875E3,2.303793E2,1.3872092E3],"tree_param":{"num_deleted":"0","num_feature":"16","num_nodes":"5","size_leaf_vector":"1"}},{"base_weights":[-0E0],"categories":[],"categories_nodes":[],"categories_segments":[],"categories_sizes":[],"default_left":[0],"id":90,"left_children":[-1],"loss_changes":[0E0],"parents":[2147483647],"right_children":[-1],"split_conditions":[-0E0],"split_indices":[0],"split_type":[0],"sum_hessian":[2.5241164E4],"tree_param":{"num_deleted":"0","num_feature":"16","num_nodes":"1","size_leaf_vector":"1"}},{"base_weights":[-0E0],"categories":[],"categories_nodes":[],"categories_segments":[],"categories_sizes":[],"default_left":[0],"id":91,"left_children":[-1],"loss_changes":[0E0],"parents":[2147483647],"right_children":[-1],"split_conditions":[-0E0],"split_indices":[0],"split_type":[0],"sum_hessian":[1.1877873E4],"tree_param":{"num_deleted":"0","num_feature":"16","num_nodes":"1","size_leaf_vector":"1"}},{"base_weights":[-0E0],"categories":[],"categories_nodes":[],"categories_segments":[],"categories_sizes":[],"default_left":[0],"id":92,"left_children":[-1],"loss_changes":[0E0],"parents":[2147483647],"right_children":[-1],"split_conditions":[-0E0],"split_indices":[0],"split_type":[0],"sum_hessian":[1.2198893E4],"tree_param":{"num_deleted":"0","num_feature":"16","num_nodes":"1","size_leaf_vector":"1"}},{"base_weights":[-0E0,-0E0,-6.5285247E-3,6.5656886E-3,-0E0,-9.906813E-3,-0E0,-0E0,1.0607379E-2,-0E0,1.3310065E-2,1.53109515E-2,-0E0,1.24122845E-2,-0E0],"categories":[],"categories_nodes":[],"categories_segments":[],"categories_sizes":[],"default_left":[0,1,0,0,0,0,0,0,0,0,1,0,0,0,0],"id":93,"left_children":[1,3,5,7,-1,-1,-1,-1,9,-1,11,13,-1,-1,-1],"loss_changes":[2.0790963E-1,2.0471908E-1,4.0910035E-1,3.0408555E-1,0E0,0E0,0E0,0E0,2.4188608E-1,0E0,2.3511147E-1,2.3430216E-1,0E0,0E0,0E0],"parents":[2147483647,0,0,1,1,2,2,3,3,8,8,10,10,11,11],"right_children":[2,4,6,8,-1,-1,-1,-1,10,-1,12,14,-1,-1,-1],"split_conditions":[1E0,1.839E3,8.73E1,8.04E1,-0E0,-9.906813E-3,-0E0,-0E0,1.067E3,-0E0,2.053217E1,1.34E1,-0E0,1.24122845E-2,-0E0],"split_indices":[3,11,5,5,0,0,0,0,11,0,15,14,0,0,0],"split_type":[0,0,0,0,0,0,0,0,0,0,0,0,0,0,0],"sum_hessian":[1.0812252E4,6.4155425E3,4.3967095E3,4.2676313E3,2.1479114E3,2.8076843E3,1.589025E3,2.269062E2,4.040725E3,2.846337E2,3.7560913E3,3.7238672E3,3.2224144E1,3.6618591E3,6.20081E1],"tree_param":{"num_deleted":"0","num_feature":"16","num_nodes":"15","size_leaf_vector":"1"}},{"base_weights":[-0E0],"categories":[],"categories_nodes":[],"categories_segments":[],"categories_sizes":[],"default_left":[0],"id":94,"left_children":[-1],"loss_changes":[0E0],"parents":[2147483647],"right_children":[-1],"split_conditions":[-0E0],"split_indices":[0],"split_type":[0],"sum_hessian":[6.974716E3],"tree_param":{"num_deleted":"0","num_feature":"16","num_nodes":"1","size_leaf_vector":"1"}},{"base_weights":[-0E0],"categories":[],"categories_nodes":[],"categories_segments":[],"categories_sizes":[],"default_left":[0],"id":95,"left_children":[-1],"loss_changes":[0E0],"parents":[2147483647],"right_children":[-1],"split_conditions":[-0E0],"split_indices":[0],"split_type":[0],"sum_hessian":[2.520587E4],"tree_param":{"num_deleted":"0","num_feature":"16","num_nodes":"1","size_leaf_vector":"1"}},{"base_weights":[-0E0],"categories":[],"categories_nodes":[],"categories_segments":[],"categories_sizes":[],"default_left":[0],"id":96,"left_children":[-1],"loss_changes":[0E0],"parents":[2147483647],"right_children":[-1],"split_conditions":[-0E0],"split_indices":[0],"split_type":[0],"sum_hessian":[1.1875924E4],"tree_param":{"num_deleted":"0","num_feature":"16","num_nodes":"1","size_leaf_vector":"1"}},{"base_weights":[-0E0],"categories":[],"categories_nodes":[],"categories_segments":[],"categories_sizes":[],"default_left":[0],"id":97,"left_children":[-1],"loss_changes":[0E0],"parents":[2147483647],"right_children":[-1],"split_conditions":[-0E0],"split_indices":[0],"split_type":[0],"sum_hessian":[1.2184774E4],"tree_param":{"num_deleted":"0","num_feature":"16","num_nodes":"1","size_leaf_vector":"1"}},{"base_weights":[-0E0],"categories":[],"categories_nodes":[],"categories_segments":[],"categories_sizes":[],"default_left":[0],"id":98,"left_children":[-1],"loss_changes":[0E0],"parents":[2147483647],"right_children":[-1],"split_conditions":[-0E0],"split_indices":[0],"split_type":[0],"sum_hessian":[1.0836742E4],"tree_param":{"num_deleted":"0","num_feature":"16","num_nodes":"1","size_leaf_vector":"1"}},{"base_weights":[-0E0],"categories":[],"categories_nodes":[],"categories_segments":[],"categories_sizes":[],"default_left":[0],"id":99,"left_children":[-1],"loss_changes":[0E0],"parents":[2147483647],"right_children":[-1],"split_conditions":[-0E0],"split_indices":[0],"split_type":[0],"sum_hessian":[6.944568E3],"tree_param":{"num_deleted":"0","num_feature":"16","num_nodes":"1","size_leaf_vector":"1"}},{"base_weights":[-0E0],"categories":[],"categories_nodes":[],"categories_segments":[],"categories_sizes":[],"default_left":[0],"id":100,"left_children":[-1],"loss_changes":[0E0],"parents":[2147483647],"right_children":[-1],"split_conditions":[-0E0],"split_indices":[0],"split_type":[0],"sum_hessian":[2.5248834E4],"tree_param":{"num_deleted":"0","num_feature":"16","num_nodes":"1","size_leaf_vector":"1"}},{"base_weights":[-0E0,-0E0,7.1575358E-3,-8.586183E-3,-0E0,1.1206379E-2,-0E0,-0E0,-1.295776E-2,1.4527933E-2,-0E0,-0E0,-1.4851199E-2,1.6893148E-2,-0E0,-0E0,-1.7179284E-2,-0E0,1.9234283E-2,-1.3525039E-2,-0E0,-0E0,1.5453798E-2],"categories":[],"categories_nodes":[],"categories_segments":[],"categories_sizes":[],"default_left":[0,1,1,0,0,1,0,0,1,0,0,0,0,0,0,0,0,0,0,0,0,0,0],"id":101,"left_children":[1,3,5,7,-1,9,-1,-1,11,13,-1,-1,15,17,-1,-1,19,-1,21,-1,-1,-1,-1],"loss_changes":[2.7945346E-1,4.2170072E-1,3.7830025E-1,4.221713E-1,0E0,3.3103347E-1,0E0,0E0,2.2795552E-1,2.8214753E-1,0E0,0E0,3.0214906E-1,3.291856E-1,0E0,0E0,2.32975E-1,0E0,3.2196212E-1,0E0,0E0,0E0,0E0],"parents":[2147483647,0,0,1,1,2,2,3,3,5,5,8,8,9,9,12,12,13,13,16,16,18,18],"right_children":[2,4,6,8,-1,10,-1,-1,12,14,-1,-1,16,18,-1,-1,20,-1,22,-1,-1,-1,-1],"split_conditions":[1E0,1.750457E1,3.9300755E1,8.21E1,-0E0,6.979209E0,-0E0,-0E0,-1.6360346E1,9.11E1,-0E0,-0E0,-2.57971E0,-2.6370866E0,-0E0,-0E0,9.3E1,-0E0,5.569314E0,-1.3525039E-2,-0E0,-0E0,1.5453798E-2],"split_indices":[3,15,12,5,0,8,0,0,12,5,0,0,9,9,0,0,5,0,8,0,0,0,0],"split_type":[0,0,0,0,0,0,0,0,0,0,0,0,0,0,0,0,0,0,0,0,0,0,0],"sum_hessian":[1.1860965E4,6.8874404E3,4.9735244E3,5.238785E3,1.6486549E3,4.756284E3,2.1724042E2,6.9417236E2,4.544613E3,4.2035244E3,5.5275964E2,1.6631898E2,4.378294E3,3.9721853E3,2.313392E2,2.0408412E2,4.17421E3,1.2836115E2,3.8438242E3,4.114531E3,5.9678833E1,1.1456659E2,3.7292576E3],"tree_param":{"num_deleted":"0","num_feature":"16","num_nodes":"23","size_leaf_vector":"1"}},{"base_weights":[-0E0],"categories":[],"categories_nodes":[],"categories_segments":[],"categories_sizes":[],"default_left":[0],"id":102,"left_children":[-1],"loss_changes":[0E0],"parents":[2147483647],"right_children":[-1],"split_conditions":[-0E0],"split_indices":[0],"split_type":[0],"sum_hessian":[1.2203444E4],"tree_param":{"num_deleted":"0","num_feature":"16","num_nodes":"1","size_leaf_vector":"1"}},{"base_weights":[-0E0],"categories":[],"categories_nodes":[],"categories_segments":[],"categories_sizes":[],"default_left":[0],"id":103,"left_children":[-1],"loss_changes":[0E0],"parents":[2147483647],"right_children":[-1],"split_conditions":[-0E0],"split_indices":[0],"split_type":[0],"sum_hessian":[1.0827559E4],"tree_param":{"num_deleted":"0","num_feature":"16","num_nodes":"1","size_leaf_vector":"1"}},{"base_weights":[-0E0],"categories":[],"categories_nodes":[],"categories_segments":[],"categories_sizes":[],"default_left":[0],"id":104,"left_children":[-1],"loss_changes":[0E0],"parents":[2147483647],"right_children":[-1],"split_conditions":[-0E0],"split_indices":[0],"split_type":[0],"sum_hessian":[6.9565737E3],"tree_param":{"num_deleted":"0","num_feature":"16","num_nodes":"1","size_leaf_vector":"1"}},{"base_weights":[-0E0],"categories":[],"categories_nodes":[],"categories_segments":[],"categories_sizes":[],"default_left":[0],"id":105,"left_children":[-1],"loss_changes":[0E0],"parents":[2147483647],"right_children":[-1],"split_conditions":[-0E0],"split_indices":[0],"split_type":[0],"sum_hessian":[2.5241783E4],"tree_param":{"num_deleted":"0","num_feature":"16","num_nodes":"1","size_leaf_vector":"1"}},{"base_weights":[-0E0],"categories":[],"categories_nodes":[],"categories_segments":[],"categories_sizes":[],"default_left":[0],"id":106,"left_children":[-1],"loss_changes":[0E0],"parents":[2147483647],"right_children":[-1],"split_conditions":[-0E0],"split_indices":[0],"split_type":[0],"sum_hessian":[1.1844569E4],"tree_param":{"num_deleted":"0","num_feature":"16","num_nodes":"1","size_leaf_vector":"1"}},{"base_weights":[-0E0],"categories":[],"categories_nodes":[],"categories_segments":[],"categories_sizes":[],"default_left":[0],"id":107,"left_children":[-1],"loss_changes":[0E0],"parents":[2147483647],"right_children":[-1],"split_conditions":[-0E0],"split_indices":[0],"split_type":[0],"sum_hessian":[1.2190844E4],"tree_param":{"num_deleted":"0","num_feature":"16","num_nodes":"1","size_leaf_vector":"1"}},{"base_weights":[-0E0],"categories":[],"categories_nodes":[],"categories_segments":[],"categories_sizes":[],"default_left":[0],"id":108,"left_children":[-1],"loss_changes":[0E0],"parents":[2147483647],"right_children":[-1],"split_conditions":[-0E0],"split_indices":[0],"split_type":[0],"sum_hessian":[1.0821824E4],"tree_param":{"num_deleted":"0","num_feature":"16","num_nodes":"1","size_leaf_vector":"1"}},{"base_weights":[-0E0],"categories":[],"categories_nodes":[],"categories_segments":[],"categories_sizes":[],"default_left":[0],"id":109,"left_children":[-1],"loss_changes":[0E0],"parents":[2147483647],"right_children":[-1],"split_conditions":[-0E0],"split_indices":[0],"split_type":[0],"sum_hessian":[6.9620063E3],"tree_param":{"num_deleted":"0","num_feature":"16","num_nodes":"1","size_leaf_vector":"1"}},{"base_weights":[-0E0],"categories":[],"categories_nodes":[],"categories_segments":[],"categories_sizes":[],"default_left":[0],"id":110,"left_children":[-1],"loss_changes":[0E0],"parents":[2147483647],"right_children":[-1],"split_conditions":[-0E0],"split_indices":[0],"split_type":[0],"sum_hessian":[2.5289283E4],"tree_param":{"num_deleted":"0","num_feature":"16","num_nodes":"1","size_leaf_vector":"1"}},{"base_weights":[-0E0],"categories":[],"categories_nodes":[],"categories_segments":[],"categories_sizes":[],"default_left":[0],"id":111,"left_children":[-1],"loss_changes":[0E0],"parents":[2147483647],"right_children":[-1],"split_conditions":[-0E0],"split_indices":[0],"split_type":[0],"sum_hessian":[1.18633125E4],"tree_param":{"num_deleted":"0","num_feature":"16","num_nodes":"1","size_leaf_vector":"1"}},{"base_weights":[-0E0],"categories":[],"categories_nodes":[],"categories_segments":[],"categories_sizes":[],"default_left":[0],"id":112,"left_children":[-1],"loss_changes":[0E0],"parents":[2147483647],"right_children":[-1],"split_conditions":[-0E0],"split_indices":[0],"split_type":[0],"sum_hessian":[1.217091E4],"tree_param":{"num_deleted":"0","num_feature":"16","num_nodes":"1","size_leaf_vector":"1"}},{"base_weights":[-0E0,-0E0,-6.573279E-3,8.293038E-3,-0E0,-0E0,-1.5871719E-2,1.4253048E-2,-0E0,-1.8372256E-2,-0E0,-0E0,1.8661683E-2,-0E0,-2.1968001E-2,-0E0,1.509814E-2,-0E0,-1.739984E-2],"categories":[],"categories_nodes":[],"categories_segments":[],"categories_sizes":[],"default_left":[0,0,1,0,0,0,0,0,0,0,0,0,0,0,0,0,0,0,0],"id":113,"left_children":[1,3,5,7,-1,-1,9,11,-1,13,-1,-1,15,-1,17,-1,-1,-1,-1],"loss_changes":[2.6989278E-1,3.1199464E-1,7.410296E-1,4.1041973E-1,0E0,0E0,3.044492E-1,4.460559E-1,0E0,3.0457497E-1,0E0,0E0,2.6396656E-1,0E0,2.942499E-1,0E0,0E0,0E0,0E0],"parents":[2147483647,0,0,1,1,2,2,3,3,6,6,7,7,9,9,12,12,14,14],"right_children":[2,4,6,8,-1,-1,10,12,-1,14,-1,-1,16,-1,18,-1,-1,-1,-1],"split_conditions":[1E0,9.1E0,1.4038875E1,2.0144818E0,-0E0,-0E0,6.652817E-2,-2.6E0,-0E0,1.1E0,-0E0,-0E0,-2.57971E0,-0E0,7.95E1,-0E0,1.509814E-2,-0E0,-1.739984E-2],"split_indices":[1,14,15,9,0,0,9,14,0,14,0,0,9,0,5,0,0,0,0],"split_type":[0,0,0,0,0,0,0,0,0,0,0,0,0,0,0,0,0,0,0],"sum_hessian":[1.0812904E4,5.047863E3,5.7650415E3,4.0551675E3,9.9269507E2,2.2333545E3,3.531687E3,3.0747544E3,9.804132E2,3.4156174E3,1.160696E2,2.0089337E2,2.873861E3,5.4018317E2,2.8754343E3,6.765836E1,2.8062026E3,4.8977917E1,2.8264563E3],"tree_param":{"num_deleted":"0","num_feature":"16","num_nodes":"19","size_leaf_vector":"1"}},{"base_weights":[-0E0],"categories":[],"categories_nodes":[],"categories_segments":[],"categories_sizes":[],"default_left":[0],"id":114,"left_children":[-1],"loss_changes":[0E0],"parents":[2147483647],"right_children":[-1],"split_conditions":[-0E0],"split_indices":[0],"split_type":[0],"sum_hessian":[6.967497E3],"tree_param":{"num_deleted":"0","num_feature":"16","num_nodes":"1","size_leaf_vector":"1"}},{"base_weights":[-0E0],"categories":[],"categories_nodes":[],"categories_segments":[],"categories_sizes":[],"default_left":[0],"id":115,"left_children":[-1],"loss_changes":[0E0],"parents":[2147483647],"right_children":[-1],"split_conditions":[-0E0],"split_indices":[0],"split_type":[0],"sum_hessian":[2.5207916E4],"tree_param":{"num_deleted":"0","num_feature":"16","num_nodes":"1","size_leaf_vector":"1"}},{"base_weights":[-0E0],"categories":[],"categories_nodes":[],"categories_segments":[],"categories_sizes":[],"default_left":[0],"id":116,"left_children":[-1],"loss_changes":[0E0],"parents":[2147483647],"right_children":[-1],"split_conditions":[-0E0],"split_indices":[0],"split_type":[0],"sum_hessian":[1.1867685E4],"tree_param":{"num_deleted":"0","num_feature":"16","num_nodes":"1","size_leaf_vector":"1"}},{"base_weights":[-0E0],"categories":[],"categories_nodes":[],"categories_segments":[],"categories_sizes":[],"default_left":[0],"id":117,"left_children":[-1],"loss_changes":[0E0],"parents":[2147483647],"right_children":[-1],"split_conditions":[-0E0],"split_indices":[0],"split_type":[0],"sum_hessian":[1.2182924E4],"tree_param":{"num_deleted":"0","num_feature":"16","num_nodes":"1","size_leaf_vector":"1"}},{"base_weights":[-0E0],"categories":[],"categories_nodes":[],"categories_segments":[],"categories_sizes":[],"default_left":[0],"id":118,"left_children":[-1],"loss_changes":[0E0],"parents":[2147483647],"right_children":[-1],"split_conditions":[-0E0],"split_indices":[0],"split_type":[0],"sum_hessian":[1.0812396E4],"tree_param":{"num_deleted":"0","num_feature":"16","num_nodes":"1","size_leaf_vector":"1"}},{"base_weights":[-0E0],"categories":[],"categories_nodes":[],"categories_segments":[],"categories_sizes":[],"default_left":[0],"id":119,"left_children":[-1],"loss_changes":[0E0],"parents":[2147483647],"right_children":[-1],"split_conditions":[-0E0],"split_indices":[0],"split_type":[0],"sum_hessian":[6.9584585E3],"tree_param":{"num_deleted":"0","num_feature":"16","num_nodes":"1","size_leaf_vector":"1"}},{"base_weights":[-0E0],"categories":[],"categories_nodes":[],"categories_segments":[],"categories_sizes":[],"default_left":[0],"id":120,"left_children":[-1],"loss_changes":[0E0],"parents":[2147483647],"right_children":[-1],"split_conditions":[-0E0],"split_indices":[0],"split_type":[0],"sum_hessian":[2.524798E4],"tree_param":{"num_deleted":"0","num_feature":"16","num_nodes":"1","size_leaf_vector":"1"}},{"base_weights":[-0E0],"categories":[],"categories_nodes":[],"categories_segments":[],"categories_sizes":[],"default_left":[0],"id":121,"left_children":[-1],"loss_changes":[0E0],"parents":[2147483647],"right_children":[-1],"split_conditions":[-0E0],"split_indices":[0],"split_type":[0],"sum_hessian":[1.1856664E4],"tree_param":{"num_deleted":"0","num_feature":"16","num_nodes":"1","size_leaf_vector":"1"}},{"base_weights":[-0E0],"categories":[],"categories_nodes":[],"categories_segments":[],"categories_sizes":[],"default_left":[0],"id":122,"left_children":[-1],"loss_changes":[0E0],"parents":[2147483647],"right_children":[-1],"split_conditions":[-0E0],"split_indices":[0],"split_type":[0],"sum_hessian":[1.2192931E4],"tree_param":{"num_deleted":"0","num_feature":"16","num_nodes":"1","size_leaf_vector":"1"}},{"base_weights":[-0E0],"categories":[],"categories_nodes":[],"categories_segments":[],"categories_sizes":[],"default_left":[0],"id":123,"left_children":[-1],"loss_changes":[0E0],"parents":[2147483647],"right_children":[-1],"split_conditions":[-0E0],"split_indices":[0],"split_type":[0],"sum_hessian":[1.0807987E4],"tree_param":{"num_deleted":"0","num_feature":"16","num_nodes":"1","size_leaf_vector":"1"}},{"base_weights":[-0E0,-0E0,-7.1690734E-3,1.0153214E-2,-0E0,-0E0,-1.4468936E-2,-0E0,2.0464342E-2,-1.2110857E-2,-0E0,-0E0,1.7891599E-2],"categories":[],"categories_nodes":[],"categories_segments":[],"categories_sizes":[],"default_left":[0,0,0,0,0,0,0,0,0,0,0,0,0],"id":124,"left_children":[1,3,5,7,-1,-1,9,-1,11,-1,-1,-1,-1],"loss_changes":[2.0924167E-1,2.7064034E-1,4.652301E-1,7.46789E-1,0E0,0E0,2.0891458E-1,0E0,4.2880905E-1,0E0,0E0,0E0,0E0],"parents":[2147483647,0,0,1,1,2,2,3,3,6,6,8,8],"right_children":[2,4,6,8,-1,-1,10,-1,12,-1,-1,-1,-1],"split_conditions":[1E0,1.6376008E0,1.09E1,8.1E1,-0E0,-0E0,6.6742384E-1,-0E0,9.08E2,-1.2110857E-2,-0E0,-0E0,1.7891599E-2],"split_indices":[1,9,13,5,0,0,9,0,11,0,0,0,0],"split_type":[0,0,0,0,0,0,0,0,0,0,0,0,0],"sum_hessian":[6.9542925E3,3.3644155E3,3.5898767E3,2.1440188E3,1.220397E3,8.494563E2,2.7404204E3,1.9588536E2,1.9481333E3,2.6696267E3,7.0793564E1,6.5811134E1,1.8823221E3],"tree_param":{"num_deleted":"0","num_feature":"16","num_nodes":"13","size_leaf_vector":"1"}},{"base_weights":[-0E0],"categories":[],"categories_nodes":[],"categories_segments":[],"categories_sizes":[],"default_left":[0],"id":125,"left_children":[-1],"loss_changes":[0E0],"parents":[2147483647],"right_children":[-1],"split_conditions":[-0E0],"split_indices":[0],"split_type":[0],"sum_hessian":[2.5257055E4],"tree_param":{"num_deleted":"0","num_feature":"16","num_nodes":"1","size_leaf_vector":"1"}},{"base_weights":[-0E0],"categories":[],"categories_nodes":[],"categories_segments":[],"categories_sizes":[],"default_left":[0],"id":126,"left_children":[-1],"loss_changes":[0E0],"parents":[2147483647],"right_children":[-1],"split_conditions":[-0E0],"split_indices":[0],"split_type":[0],"sum_hessian":[1.1859214E4],"tree_param":{"num_deleted":"0","num_feature":"16","num_nodes":"1","size_leaf_vector":"1"}},{"base_weights":[-0E0],"categories":[],"categories_nodes":[],"categories_segments":[],"categories_sizes":[],"default_left":[0],"id":127,"left_children":[-1],"loss_changes":[0E0],"parents":[2147483647],"right_children":[-1],"split_conditions":[-0E0],"split_indices":[0],"split_type":[0],"sum_hessian":[1.2197369E4],"tree_param":{"num_deleted":"0","num_feature":"16","num_nodes":"1","size_leaf_vector":"1"}},{"base_weights":[-0E0],"categories":[],"categories_nodes":[],"categories_segments":[],"categories_sizes":[],"default_left":[0],"id":128,"left_children":[-1],"loss_changes":[0E0],"parents":[2147483647],"right_children":[-1],"split_conditions":[-0E0],"split_indices":[0],"split_type":[0],"sum_hessian":[1.080329E4],"tree_param":{"num_deleted":"0","num_feature":"16","num_nodes":"1","size_leaf_vector":"1"}},{"base_weights":[-0E0],"categories":[],"categories_nodes":[],"categories_segments":[],"categories_sizes":[],"default_left":[0],"id":129,"left_children":[-1],"loss_changes":[0E0],"parents":[2147483647],"right_children":[-1],"split_conditions":[-0E0],"split_indices":[0],"split_type":[0],"sum_hessian":[6.9511846E3],"tree_param":{"num_deleted":"0","num_feature":"16","num_nodes":"1","size_leaf_vector":"1"}},{"base_weights":[-0E0,7.3298207E-3,-0E0,-0E0,8.183172E-3,-4.3654274E-3,-0E0,-0E0,-4.8987265E-3],"categories":[],"categories_nodes":[],"categories_segments":[],"categories_sizes":[],"default_left":[0,0,1,0,0,0,0,0,0],"id":130,"left_children":[1,3,5,-1,-1,7,-1,-1,-1],"loss_changes":[1.8470682E-1,2.3818527E-1,2.759497E-1,0E0,0E0,3.5928026E-1,0E0,0E0,0E0],"parents":[2147483647,0,0,1,1,2,2,5,5],"right_children":[2,4,6,-1,-1,8,-1,-1,-1],"split_conditions":[8.16E1,7.2449985E0,1.650515E1,-0E0,8.183172E-3,-2.57971E0,-0E0,-0E0,-4.8987265E-3],"split_indices":[5,15,15,0,0,9,0,0,0],"split_type":[0,0,0,0,0,0,0,0,0],"sum_hessian":[2.524061E4,2.956603E3,2.2284006E4,1.3402763E2,2.8225754E3,1.399894E4,8.285065E3,6.3169574E2,1.3367244E4],"tree_param":{"num_deleted":"0","num_feature":"16","num_nodes":"9","size_leaf_vector":"1"}},{"base_weights":[-0E0],"categories":[],"categories_nodes":[],"categories_segments":[],"categories_sizes":[],"default_left":[0],"id":131,"left_children":[-1],"loss_changes":[0E0],"parents":[2147483647],"right_children":[-1],"split_conditions":[-0E0],"split_indices":[0],"split_type":[0],"sum_hessian":[1.1867719E4],"tree_param":{"num_deleted":"0","num_feature":"16","num_nodes":"1","size_leaf_vector":"1"}},{"base_weights":[-0E0],"categories":[],"categories_nodes":[],"categories_segments":[],"categories_sizes":[],"default_left":[0],"id":132,"left_children":[-1],"loss_changes":[0E0],"parents":[2147483647],"right_children":[-1],"split_conditions":[-0E0],"split_indices":[0],"split_type":[0],"sum_hessian":[1.2200113E4],"tree_param":{"num_deleted":"0","num_feature":"16","num_nodes":"1","size_leaf_vector":"1"}},{"base_weights":[-0E0],"categories":[],"categories_nodes":[],"categories_segments":[],"categories_sizes":[],"default_left":[0],"id":133,"left_children":[-1],"loss_changes":[0E0],"parents":[2147483647],"right_children":[-1],"split_conditions":[-0E0],"split_indices":[0],"split_type":[0],"sum_hessian":[1.0830709E4],"tree_param":{"num_deleted":"0","num_feature":"16","num_nodes":"1","size_leaf_vector":"1"}},{"base_weights":[-0E0],"categories":[],"categories_nodes":[],"categories_segments":[],"categories_sizes":[],"default_left":[0],"id":134,"left_children":[-1],"loss_changes":[0E0],"parents":[2147483647],"right_children":[-1],"split_conditions":[-0E0],"split_indices":[0],"split_type":[0],"sum_hessian":[6.9674966E3],"tree_param":{"num_deleted":"0","num_feature":"16","num_nodes":"1","size_leaf_vector":"1"}},{"base_weights":[-0E0],"categories":[],"categories_nodes":[],"categories_segments":[],"categories_sizes":[],"default_left":[0],"id":135,"left_children":[-1],"loss_changes":[0E0],"parents":[2147483647],"right_children":[-1],"split_conditions":[-0E0],"split_indices":[0],"split_type":[0],"sum_hessian":[2.5243945E4],"tree_param":{"num_deleted":"0","num_feature":"16","num_nodes":"1","size_leaf_vector":"1"}},{"base_weights":[-0E0],"categories":[],"categories_nodes":[],"categories_segments":[],"categories_sizes":[],"default_left":[0],"id":136,"left_children":[-1],"loss_changes":[0E0],"parents":[2147483647],"right_children":[-1],"split_conditions":[-0E0],"split_indices":[0],"split_type":[0],"sum_hessian":[1.1878265E4],"tree_param":{"num_deleted":"0","num_feature":"16","num_nodes":"1","size_leaf_vector":"1"}},{"base_weights":[-0E0],"categories":[],"categories_nodes":[],"categories_segments":[],"categories_sizes":[],"default_left":[0],"id":137,"left_children":[-1],"loss_changes":[0E0],"parents":[2147483647],"right_children":[-1],"split_conditions":[-0E0],"split_indices":[0],"split_type":[0],"sum_hessian":[1.21968955E4],"tree_param":{"num_deleted":"0","num_feature":"16","num_nodes":"1","size_leaf_vector":"1"}},{"base_weights":[-0E0],"categories":[],"categories_nodes":[],"categories_segments":[],"categories_sizes":[],"default_left":[0],"id":138,"left_children":[-1],"loss_changes":[0E0],"parents":[2147483647],"right_children":[-1],"split_conditions":[-0E0],"split_indices":[0],"split_type":[0],"sum_hessian":[1.0833044E4],"tree_param":{"num_deleted":"0","num_feature":"16","num_nodes":"1","size_leaf_vector":"1"}},{"base_weights":[-0E0],"categories":[],"categories_nodes":[],"categories_segments":[],"categories_sizes":[],"default_left":[0],"id":139,"left_children":[-1],"loss_changes":[0E0],"parents":[2147483647],"right_children":[-1],"split_conditions":[-0E0],"split_indices":[0],"split_type":[0],"sum_hessian":[6.965067E3],"tree_param":{"num_deleted":"0","num_feature":"16","num_nodes":"1","size_leaf_vector":"1"}},{"base_weights":[-0E0],"categories":[],"categories_nodes":[],"categories_segments":[],"categories_sizes":[],"default_left":[0],"id":140,"left_children":[-1],"loss_changes":[0E0],