{"learner":{"attributes":{"scikit_learn":"{\"_estimator_type\": \"classifier\"}"},"feature_names":["pitcherHand_L","hitterHand_L","count_group_Early","count_group_2-Str","count_group_Behind","velo","velo_diff","HAA","extension","x0","z0","z0_ratio","spin_rate","ssw","HB_acc","IVB_acc","Break_acc"],"feature_types":["i","i","i","i","i","float","float","float","float","float","float","float","float","float","float","float","float"],"gradient_booster":{"model":{"gbtree_model_param":{"num_parallel_tree":"1","num_trees":"500"},"iteration_indptr":[0,5,10,15,20,25,30,35,40,45,50,55,60,65,70,75,80,85,90,95,100,105,110,115,120,125,130,135,140,145,150,155,160,165,170,175,180,185,190,195,200,205,210,215,220,225,230,235,240,245,250,255,260,265,270,275,280,285,290,295,300,305,310,315,320,325,330,335,340,345,350,355,360,365,370,375,380,385,390,395,400,405,410,415,420,425,430,435,440,445,450,455,460,465,470,475,480,485,490,495,500],"tree_info":[0,1,2,3,4,0,1,2,3,4,0,1,2,3,4,0,1,2,3,4,0,1,2,3,4,0,1,2,3,4,0,1,2,3,4,0,1,2,3,4,0,1,2,3,4,0,1,2,3,4,0,1,2,3,4,0,1,2,3,4,0,1,2,3,4,0,1,2,3,4,0,1,2,3,4,0,1,2,3,4,0,1,2,3,4,0,1,2,3,4,0,1,2,3,4,0,1,2,3,4,0,1,2,3,4,0,1,2,3,4,0,1,2,3,4,0,1,2,3,4,0,1,2,3,4,0,1,2,3,4,0,1,2,3,4,0,1,2,3,4,0,1,2,3,4,0,1,2,3,4,0,1,2,3,4,0,1,2,3,4,0,1,2,3,4,0,1,2,3,4,0,1,2,3,4,0,1,2,3,4,0,1,2,3,4,0,1,2,3,4,0,1,2,3,4,0,1,2,3,4,0,1,2,3,4,0,1,2,3,4,0,1,2,3,4,0,1,2,3,4,0,1,2,3,4,0,1,2,3,4,0,1,2,3,4,0,1,2,3,4,0,1,2,3,4,0,1,2,3,4,0,1,2,3,4,0,1,2,3,4,0,1,2,3,4,0,1,2,3,4,0,1,2,3,4,0,1,2,3,4,0,1,2,3,4,0,1,2,3,4,0,1,2,3,4,0,1,2,3,4,0,1,2,3,4,0,1,2,3,4,0,1,2,3,4,0,1,2,3,4,0,1,2,3,4,0,1,2,3,4,0,1,2,3,4,0,1,2,3,4,0,1,2,3,4,0,1,2,3,4,0,1,2,3,4,0,1,2,3,4,0,1,2,3,4,0,1,2,3,4,0,1,2,3,4,0,1,2,3,4,0,1,2,3,4,0,1,2,3,4,0,1,2,3,4,0,1,2,3,4,0,1,2,3,4,0,1,2,3,4,0,1,2,3,4,0,1,2,3,4,0,1,2,3,4,0,1,2,3,4,0,1,2,3,4,0,1,2,3,4,0,1,2,3,4,0,1,2,3,4,0,1,2,3,4,0,1,2,3,4,0,1,2,3,4,0,1,2,3,4,0,1,2,3,4,0,1,2,3,4,0,1,2,3,4,0,1,2,3,4,0,1,2,3,4,0,1,2,3,4],"trees":[{"base_weights":[1.0565642E0,3.8485184E-1,4.3884346E-1],"categories":[],"categories_nodes":[],"categories_segments":[],"categories_sizes":[],"default_left":[1,0,0],"id":0,"left_children":[1,-1,-1],"loss_changes":[1.1885742E1,0E0,0E0],"parents":[2147483647,0,0],"right_children":[2,-1,-1],"split_conditions":[7.280921E1,3.8485184E-1,4.3884346E-1],"split_indices":[14,0,0],"split_type":[0,0,0],"sum_hessian":[1.3489281E4,6.8944004E3,6.5948804E3],"tree_param":{"num_deleted":"0","num_feature":"17","num_nodes":"3","size_leaf_vector":"1"}},{"base_weights":[-2.0595928E-1,-8.040153E-2,-0E0],"categories":[],"categories_nodes":[],"categories_segments":[],"categories_sizes":[],"default_left":[0,0,0],"id":1,"left_children":[1,-1,-1],"loss_changes":[2.654419E-1,0E0,0E0],"parents":[2147483647,0,0],"right_children":[2,-1,-1],"split_conditions":[2.545001E1,-8.040153E-2,-0E0],"split_indices":[6,0,0],"split_type":[0,0,0],"sum_hessian":[1.3376321E4,1.335648E4,1.9840002E1],"tree_param":{"num_deleted":"0","num_feature":"17","num_nodes":"3","size_leaf_vector":"1"}},{"base_weights":[-1.9034399E-1,-7.434387E-2,-0E0],"categories":[],"categories_nodes":[],"categories_segments":[],"categories_sizes":[],"default_left":[0,0,0],"id":2,"left_children":[1,-1,-1],"loss_changes":[6.901245E-1,0E0,0E0],"parents":[2147483647,0,0],"right_children":[2,-1,-1],"split_conditions":[2.545001E1,-7.434387E-2,-0E0],"split_indices":[6,0,0],"split_type":[0,0,0],"sum_hessian":[1.3482241E4,1.3461121E4,2.112E1],"tree_param":{"num_deleted":"0","num_feature":"17","num_nodes":"3","size_leaf_vector":"1"}},{"base_weights":[-2.5178897E-1,-9.840692E-2,-0E0],"categories":[],"categories_nodes":[],"categories_segments":[],"categories_sizes":[],"default_left":[0,0,0],"id":3,"left_children":[1,-1,-1],"loss_changes":[6.095581E-1,0E0,0E0],"parents":[2147483647,0,0],"right_children":[2,-1,-1],"split_conditions":[3.5134265E2,-9.840692E-2,-0E0],"split_indices":[13,0,0],"split_type":[0,0,0],"sum_hessian":[1.3395841E4,1.3348161E4,4.7680004E1],"tree_param":{"num_deleted":"0","num_feature":"17","num_nodes":"3","size_leaf_vector":"1"}},{"base_weights":[-3.9930767E-1],"categories":[],"categories_nodes":[],"categories_segments":[],"categories_sizes":[],"default_left":[0],"id":4,"left_children":[-1],"loss_changes":[0E0],"parents":[2147483647],"right_children":[-1],"split_conditions":[-1.5572807E-1],"split_indices":[0],"split_type":[0],"sum_hessian":[1.3462081E4],"tree_param":{"num_deleted":"0","num_feature":"17","num_nodes":"1","size_leaf_vector":"1"}},{"base_weights":[5.810152E-1,2.495435E-1,2.0223236E-1],"categories":[],"categories_nodes":[],"categories_segments":[],"categories_sizes":[],"default_left":[0,0,0],"id":5,"left_children":[1,-1,-1],"loss_changes":[3.6976562E1,0E0,0E0],"parents":[2147483647,0,0],"right_children":[2,-1,-1],"split_conditions":[1.6892244E-1,2.495435E-1,2.0223236E-1],"split_indices":[7,0,0],"split_type":[0,0,0],"sum_hessian":[1.7511955E4,8.808712E3,8.703244E3],"tree_param":{"num_deleted":"0","num_feature":"17","num_nodes":"3","size_leaf_vector":"1"}},{"base_weights":[-1.5425801E-1],"categories":[],"categories_nodes":[],"categories_segments":[],"categories_sizes":[],"default_left":[0],"id":6,"left_children":[-1],"loss_changes":[0E0],"parents":[2147483647],"right_children":[-1],"split_conditions":[-6.0159884E-2],"split_indices":[0],"split_type":[0],"sum_hessian":[1.2389562E4],"tree_param":{"num_deleted":"0","num_feature":"17","num_nodes":"1","size_leaf_vector":"1"}},{"base_weights":[-1.4195092E-1,-0E0,-5.7276025E-2,-2.5999922E-2,-0E0,-0E0,-1.8602518E-2],"categories":[],"categories_nodes":[],"categories_segments":[],"categories_sizes":[],"default_left":[1,0,0,1,0,0,0],"id":7,"left_children":[1,3,-1,5,-1,-1,-1],"loss_changes":[6.0482483E0,2.6829252E-1,0E0,4.7176406E-1,0E0,0E0,0E0],"parents":[2147483647,0,0,1,1,3,3],"right_children":[2,4,-1,6,-1,-1,-1],"split_conditions":[2.8849894E1,9.702442E-1,-5.7276025E-2,5.8994646E0,-0E0,-0E0,-1.8602518E-2],"split_indices":[14,11,0,14,0,0,0],"split_type":[0,0,0,0,0,0,0],"sum_hessian":[1.2458499E4,5.394663E2,1.1919032E4,3.913752E2,1.480911E2,7.16178E1,3.1975742E2],"tree_param":{"num_deleted":"0","num_feature":"17","num_nodes":"7","size_leaf_vector":"1"}},{"base_weights":[-1.9897252E-1,-2.3672704E-1,-1.6206294E-1,-6.1982006E-2,-1.2208409E-1,-5.0699018E-2,-2.8165773E-1,-0E0,-1.1216696E-1],"categories":[],"categories_nodes":[],"categories_segments":[],"categories_sizes":[],"default_left":[0,0,0,0,0,0,0,0,0],"id":8,"left_children":[1,3,5,-1,-1,-1,7,-1,-1],"loss_changes":[8.025269E0,2.3372345E1,1.5624878E1,0E0,0E0,0E0,6.016846E-1,0E0,0E0],"parents":[2147483647,0,0,1,1,2,2,6,6],"right_children":[2,4,6,-1,-1,-1,8,-1,-1],"split_conditions":[8.422904E-2,1E0,1E0,-6.1982006E-2,-1.2208409E-1,-5.0699018E-2,1.11624084E-1,-0E0,-1.1216696E-1],"split_indices":[7,1,0,0,0,0,7,0,0],"split_type":[0,0,0,0,0,0,0,0,0],"sum_hessian":[1.2226275E4,5.7333843E3,6.4928916E3,2.9908245E3,2.7425598E3,5.274866E3,1.2180255E3,4.2855255E1,1.1751703E3],"tree_param":{"num_deleted":"0","num_feature":"17","num_nodes":"9","size_leaf_vector":"1"}},{"base_weights":[-3.3930773E-1],"categories":[],"categories_nodes":[],"categories_segments":[],"categories_sizes":[],"default_left":[0],"id":9,"left_children":[-1],"loss_changes":[0E0],"parents":[2147483647],"right_children":[-1],"split_conditions":[-1.3232838E-1],"split_indices":[0],"split_type":[0],"sum_hessian":[1.1717104E4],"tree_param":{"num_deleted":"0","num_feature":"17","num_nodes":"1","size_leaf_vector":"1"}},{"base_weights":[3.8183022E-1,4.9274874E-1,3.489281E-1,-0E0,1.9315411E-1,4.2086643E-1,3.0304497E-1,-0E0,4.2225793E-1,3.722845E-1,2.521779E-1,1.6537943E-1,-0E0,-0E0,1.4628783E-1,1.924911E-1,3.0465558E-1,1.9613847E-1,-0E0,1.19603604E-1,-0E0,7.811265E-2,-0E0],"categories":[],"categories_nodes":[],"categories_segments":[],"categories_sizes":[],"default_left":[0,0,0,0,0,1,0,0,0,0,1,0,0,0,0,0,0,0,0,0,0,0,0],"id":10,"left_children":[1,3,5,-1,-1,7,9,-1,11,13,15,-1,-1,-1,-1,17,19,21,-1,-1,-1,-1,-1],"loss_changes":[5.1272705E1,3.425293E-1,3.3270386E1,0E0,0E0,2.5562744E0,1.896991E1,0E0,3.6639404E-1,1.6605835E0,6.387726E0,0E0,0E0,0E0,0E0,2.3700104E0,1.0763855E0,1.2866364E0,0E0,0E0,0E0,0E0,0E0],"parents":[2147483647,0,0,1,1,2,2,5,5,6,6,8,8,9,9,10,10,15,15,16,16,17,17],"right_children":[2,4,6,-1,-1,8,10,-1,12,14,16,-1,-1,-1,-1,18,20,22,-1,-1,-1,-1,-1],"split_conditions":[8.32E1,-2.799266E0,-1.070689E-1,-0E0,1.9315411E-1,4.98E2,8.63E1,-0E0,9.43E1,-8.600463E-2,1.707E3,1.6537943E-1,-0E0,-0E0,1.4628783E-1,1.703E3,9.43E1,9.23E1,-0E0,1.19603604E-1,-0E0,7.811265E-2,-0E0],"split_indices":[5,7,7,0,0,12,5,0,5,7,12,0,0,0,0,12,5,5,0,0,0,0,0],"split_type":[0,0,0,0,0,0,0,0,0,0,0,0,0,0,0,0,0,0,0,0,0,0,0],"sum_hessian":[1.9397697E4,4.2664507E3,1.5131246E4,4.2040092E1,4.2244106E3,5.687548E3,9.443698E3,2.3122969E1,5.664425E3,3.8009119E3,5.642786E3,5.618506E3,4.5918907E1,4.5157833E1,3.7557542E3,2.8490112E3,2.793775E3,2.8054392E3,4.3571873E1,2.76839E3,2.5384968E1,2.722156E3,8.32833E1],"tree_param":{"num_deleted":"0","num_feature":"17","num_nodes":"23","size_leaf_vector":"1"}},{"base_weights":[-1.1481016E-1,-0E0,-4.5189854E-2],"categories":[],"categories_nodes":[],"categories_segments":[],"categories_sizes":[],"default_left":[1,0,0],"id":11,"left_children":[1,-1,-1],"loss_changes":[2.1375885E0,0E0,0E0],"parents":[2147483647,0,0],"right_children":[2,-1,-1],"split_conditions":[5.168212E0,-0E0,-4.5189854E-2],"split_indices":[8,0,0],"split_type":[0,0,0],"sum_hessian":[1.1620044E4,5.3055912E1,1.1566988E4],"tree_param":{"num_deleted":"0","num_feature":"17","num_nodes":"3","size_leaf_vector":"1"}},{"base_weights":[-1.0607239E-1,-7.9948895E-2,-5.4149684E-2,-8.333544E-2,-0E0,-0E0,-3.2838542E-2],"categories":[],"categories_nodes":[],"categories_segments":[],"categories_sizes":[],"default_left":[1,0,0,0,0,0,0],"id":12,"left_children":[1,3,-1,5,-1,-1,-1],"loss_changes":[5.1651154E0,1.673378E0,0E0,2.9016113E-1,0E0,0E0,0E0],"parents":[2147483647,0,0,1,1,3,3],"right_children":[2,4,-1,6,-1,-1,-1],"split_conditions":[1.779E3,1.758E3,-5.4149684E-2,6.62E2,-0E0,-0E0,-3.2838542E-2],"split_indices":[12,12,0,12,0,0,0],"split_type":[0,0,0,0,0,0,0],"sum_hessian":[1.1743073E4,6.9201514E3,4.822922E3,6.60966E3,3.104912E2,9.459964E1,6.5150605E3],"tree_param":{"num_deleted":"0","num_feature":"17","num_nodes":"7","size_leaf_vector":"1"}},{"base_weights":[-1.5862814E-1,-1.2417825E-1,-8.057472E-2,-1.2531523E-1,-0E0,-0E0,-4.9287137E-2],"categories":[],"categories_nodes":[],"categories_segments":[],"categories_sizes":[],"default_left":[0,0,0,0,0,0,0],"id":13,"left_children":[1,3,-1,5,-1,-1,-1],"loss_changes":[1.124881E1,1.2403717E0,0E0,1.0909576E0,0E0,0E0,0E0],"parents":[2147483647,0,0,1,1,3,3],"right_children":[2,4,-1,6,-1,-1,-1],"split_conditions":[3.0798628E1,3.0574518E1,-8.057472E-2,-3.7621822E1,-0E0,-0E0,-4.9287137E-2],"split_indices":[15,15,0,15,0,0,0],"split_type":[0,0,0,0,0,0,0],"sum_hessian":[1.1306612E4,6.860509E3,4.446103E3,6.8154688E3,4.504005E1,4.6021633E1,6.7694473E3],"tree_param":{"num_deleted":"0","num_feature":"17","num_nodes":"7","size_leaf_vector":"1"}},{"base_weights":[-2.8352225E-1,-2.9636985E-1,-5.0001554E-2,-1.3460949E-1,-9.7529784E-2],"categories":[],"categories_nodes":[],"categories_segments":[],"categories_sizes":[],"default_left":[0,0,0,0,0],"id":14,"left_children":[1,3,-1,-1,-1],"loss_changes":[1.10026245E1,7.5941772E0,0E0,0E0,0E0],"parents":[2147483647,0,0,1,1],"right_children":[2,4,-1,-1,-1],"split_conditions":[1E0,1E0,-5.0001554E-2,-1.3460949E-1,-9.7529784E-2],"split_indices":[4,2,0,0,0],"split_type":[0,0,0,0,0],"sum_hessian":[1.0313353E4,9.389426E3,9.239266E2,4.3218057E3,5.06762E3],"tree_param":{"num_deleted":"0","num_feature":"17","num_nodes":"5","size_leaf_vector":"1"}},{"base_weights":[2.6383772E-1,8.556287E-2,1.20249584E-1],"categories":[],"categories_nodes":[],"categories_segments":[],"categories_sizes":[],"default_left":[0,0,0],"id":15,"left_children":[1,-1,-1],"loss_changes":[2.817871E1,0E0,0E0],"parents":[2147483647,0,0],"right_children":[2,-1,-1],"split_conditions":[2.5363194E1,8.556287E-2,1.20249584E-1],"split_indices":[15,0,0],"split_type":[0,0,0],"sum_hessian":[2.0325695E4,1.0433856E4,9.891839E3],"tree_param":{"num_deleted":"0","num_feature":"17","num_nodes":"3","size_leaf_vector":"1"}},{"base_weights":[-8.0582656E-2],"categories":[],"categories_nodes":[],"categories_segments":[],"categories_sizes":[],"default_left":[0],"id":16,"left_children":[-1],"loss_changes":[0E0],"parents":[2147483647],"right_children":[-1],"split_conditions":[-3.1426847E-2],"split_indices":[0],"split_type":[0],"sum_hessian":[1.1042024E4],"tree_param":{"num_deleted":"0","num_feature":"17","num_nodes":"1","size_leaf_vector":"1"}},{"base_weights":[-7.2345875E-2,-3.7719868E-2,-1.15923084E-1,-4.210024E-2,-0E0,-0E0,-4.58956E-2,-0E0,-4.695902E-2,-1.9430572E-2,-0E0],"categories":[],"categories_nodes":[],"categories_segments":[],"categories_sizes":[],"default_left":[1,0,1,1,0,0,0,0,0,0,0],"id":17,"left_children":[1,3,5,7,-1,-1,-1,-1,9,-1,-1],"loss_changes":[1.3542049E1,1.6886673E0,1.4731789E0,1.6913357E0,0E0,0E0,0E0,0E0,7.818146E-1,0E0,0E0],"parents":[2147483647,0,0,1,1,2,2,3,3,8,8],"right_children":[2,4,6,8,-1,-1,-1,-1,10,-1,-1],"split_conditions":[8.346889E1,2.178E3,1.12E3,3.836179E1,-0E0,-0E0,-4.58956E-2,-0E0,8.203626E1,-1.9430572E-2,-0E0],"split_indices":[16,12,12,16,0,0,0,0,16,0,0],"split_type":[0,0,0,0,0,0,0,0,0,0,0],"sum_hessian":[1.1234286E4,6.548255E3,4.6860317E3,6.2081562E3,3.4009875E2,3.285831E1,4.6531733E3,4.5232303E2,5.755833E3,5.4275513E3,3.2828192E2],"tree_param":{"num_deleted":"0","num_feature":"17","num_nodes":"11","size_leaf_vector":"1"}},{"base_weights":[-1.120261E-1,-0E0,-4.401148E-2],"categories":[],"categories_nodes":[],"categories_segments":[],"categories_sizes":[],"default_left":[1,0,0],"id":18,"left_children":[1,-1,-1],"loss_changes":[1.2452087E0,0E0,0E0],"parents":[2147483647,0,0],"right_children":[2,-1,-1],"split_conditions":[-1.9433332E1,-0E0,-4.401148E-2],"split_indices":[6,0,0],"split_type":[0,0,0],"sum_hessian":[1.0646746E4,5.7447132E1,1.0589299E4],"tree_param":{"num_deleted":"0","num_feature":"17","num_nodes":"3","size_leaf_vector":"1"}},{"base_weights":[-2.4645667E-1,-2.0483334E-1,-3.0028394E-1,-0E0,-2.109635E-1,-0E0,-1.1764088E-1,-8.6352214E-2,-3.368793E-2,-0E0,-2.2899458E-2],"categories":[],"categories_nodes":[],"categories_segments":[],"categories_sizes":[],"default_left":[0,0,0,0,0,0,0,0,0,0,0],"id":19,"left_children":[1,3,5,-1,7,-1,-1,-1,9,-1,-1],"loss_changes":[9.290649E0,6.2836304E0,4.7647095E-1,0E0,4.1623077E0,0E0,0E0,0E0,6.6714597E-1,0E0,0E0],"parents":[2147483647,0,0,1,1,2,2,4,4,8,8],"right_children":[2,4,6,-1,8,-1,-1,-1,10,-1,-1],"split_conditions":[1E0,-1.7735444E0,-2.4898703E0,-0E0,1.5296818E0,-0E0,-1.1764088E-1,-8.6352214E-2,1.6426618E0,-0E0,-2.2899458E-2],"split_indices":[3,7,7,0,7,0,0,0,7,0,0],"split_type":[0,0,0,0,0,0,0,0,0,0,0],"sum_hessian":[9.272244E3,5.475214E3,3.7970298E3,1.7270131E2,5.3025127E3,2.9051914E1,3.7679778E3,4.8882505E3,4.1426205E2,8.8092926E1,3.2616913E2],"tree_param":{"num_deleted":"0","num_feature":"17","num_nodes":"11","size_leaf_vector":"1"}},{"base_weights":[1.8420841E-1,1.5923019E-1,9.7020596E-2,-0E0,1.6082913E-1,6.291583E-2,-0E0],"categories":[],"categories_nodes":[],"categories_segments":[],"categories_sizes":[],"default_left":[0,1,0,0,0,0,0],"id":20,"left_children":[1,3,-1,-1,5,-1,-1],"loss_changes":[2.430194E1,4.201538E0,0E0,0E0,3.092041E-1,0E0,0E0],"parents":[2147483647,0,0,1,1,4,4],"right_children":[2,4,-1,-1,6,-1,-1],"split_conditions":[3.9700356E1,-1.8259459E1,9.7020596E-2,-0E0,3.940043E1,6.291583E-2,-0E0],"split_indices":[15,6,0,0,15,0,0],"split_type":[0,0,0,0,0,0,0],"sum_hessian":[2.0786658E4,1.5248656E4,5.5380024E3,1.3936707E2,1.510929E4,1.5028464E4,8.0826065E1],"tree_param":{"num_deleted":"0","num_feature":"17","num_nodes":"7","size_leaf_vector":"1"}},{"base_weights":[-5.5755317E-2,-0E0,-6.1884377E-2,-3.0600183E-2,-2.8102905E-2,-4.1761346E-2,-0E0,-0E0,-1.7191611E-2],"categories":[],"categories_nodes":[],"categories_segments":[],"categories_sizes":[],"default_left":[0,0,0,0,0,0,0,0,0],"id":21,"left_children":[1,-1,3,5,-1,7,-1,-1,-1],"loss_changes":[3.8404655E0,0E0,7.8351593E-1,1.3547637E0,0E0,3.9155054E-1,0E0,0E0,0E0],"parents":[2147483647,0,0,2,2,3,3,5,5],"right_children":[2,-1,4,6,-1,8,-1,-1,-1],"split_conditions":[5.070976E0,-0E0,6.0426266E1,6.1675625E0,-2.8102905E-2,-2.1761768E0,-0E0,-0E0,-1.7191611E-2],"split_indices":[10,0,14,10,0,14,0,0,0],"split_type":[0,0,0,0,0,0,0,0,0],"sum_hessian":[1.0613918E4,9.965247E2,9.617393E3,2.8985378E3,6.7188555E3,2.3305032E3,5.6803455E2,3.7942917E1,2.2925603E3],"tree_param":{"num_deleted":"0","num_feature":"17","num_nodes":"9","size_leaf_vector":"1"}},{"base_weights":[-4.6066858E-2,-4.679856E-2,-0E0,-0E0,-4.7597356E-2,-2.2856936E-2,-5.7346657E-2,-3.2774195E-2,-0E0,-0E0,-6.254597E-2,-0E0,-4.5368087E-2,-1.1532488E-2,2.535641E-2,-6.341016E-2,-0E0,-1.8562334E-2,-0E0,-0E0,-1.0467757E-2,3.674259E-2,-0E0,-0E0,-2.5041407E-2],"categories":[],"categories_nodes":[],"categories_segments":[],"categories_sizes":[],"default_left":[0,0,0,0,0,0,0,0,0,0,0,0,0,0,0,0,0,0,0,0,0,0,0,0,0],"id":22,"left_children":[1,3,-1,-1,5,7,9,11,13,-1,15,-1,17,19,21,23,-1,-1,-1,-1,-1,-1,-1,-1,-1],"loss_changes":[6.038208E-1,5.186615E-1,0E0,0E0,7.785187E-1,9.750905E-1,1.8836708E0,7.015693E-1,3.48095E-1,0E0,4.7953987E-1,0E0,3.1811166E-1,2.7631772E-1,1.7784544E0,3.5028458E-1,0E0,0E0,0E0,0E0,0E0,0E0,0E0,0E0,0E0],"parents":[2147483647,0,0,1,1,4,4,5,5,6,6,7,7,8,8,10,10,12,12,13,13,14,14,15,15],"right_children":[2,4,-1,-1,6,8,10,12,14,-1,16,-1,18,20,22,24,-1,-1,-1,-1,-1,-1,-1,-1,-1],"split_conditions":[6.133333E0,7.4276334E-1,-0E0,-0E0,6.2704496E0,5.882353E-3,8.130176E-1,9.13381E-1,9.449487E-1,-0E0,1.027147E0,-0E0,6.2658362E0,1.4090909E-1,9.821799E-1,-1.74E1,-0E0,-1.8562334E-2,-0E0,-0E0,-1.0467757E-2,3.674259E-2,-0E0,-0E0,-2.5041407E-2],"split_indices":[6,11,0,0,8,6,11,11,11,0,11,0,8,6,11,6,0,0,0,0,0,0,0,0,0],"split_type":[0,0,0,0,0,0,0,0,0,0,0,0,0,0,0,0,0,0,0,0,0,0,0,0,0],"sum_hessian":[1.0783909E4,1.072486E4,5.9049015E1,1.2819928E2,1.059666E4,3.6410134E3,6.955647E3,2.6758516E3,9.6516187E2,6.277183E2,6.3279287E3,9.411817E2,1.7346699E3,5.426591E2,4.2250275E2,6.275737E3,5.219214E1,1.7159716E3,1.869838E1,6.3422497E1,4.7923663E2,2.2585887E2,1.9664388E2,7.045835E1,6.2052783E3],"tree_param":{"num_deleted":"0","num_feature":"17","num_nodes":"25","size_leaf_vector":"1"}},{"base_weights":[-8.855578E-2,-6.192314E-2,-1.3226357E-1,-7.303703E-2,-0E0,-0E0,-5.2874222E-2,-0E0,-7.8219354E-2,1.3696685E-2,-4.3485943E-2,-0E0,-8.053007E-2,6.07506E-2,-5.842732E-3,-8.2961395E-2,-0E0,-0E0,7.2284155E-2,-4.639771E-2,-5.4381248E-2,3.2587707E-2,-0E0,-6.1755892E-2,-0E0,-0E0,-6.549298E-2,-0E0,-2.6299037E-2],"categories":[],"categories_nodes":[],"categories_segments":[],"categories_sizes":[],"default_left":[0,0,0,0,0,0,0,0,0,0,0,0,0,0,0,0,0,0,0,0,0,0,0,0,0,0,0,0,0],"id":23,"left_children":[1,3,5,7,9,-1,-1,-1,11,13,-1,-1,15,17,-1,19,-1,-1,21,-1,23,-1,-1,25,-1,-1,27,-1,-1],"loss_changes":[7.4524536E0,3.6653004E0,7.9722977E-1,1.8547077E0,2.997781E0,0E0,0E0,0E0,1.6675797E0,2.3081462E0,0E0,0E0,1.2927284E0,8.9008784E-1,0E0,1.1968536E0,0E0,0E0,2.5415492E-1,0E0,1.513238E0,0E0,0E0,1.0573997E0,0E0,0E0,5.7590294E-1,0E0,0E0],"parents":[2147483647,0,0,1,1,2,2,3,3,4,4,8,8,9,9,12,12,13,13,15,15,18,18,20,20,23,23,26,26],"right_children":[2,4,6,8,10,-1,-1,-1,12,14,-1,-1,16,18,-1,20,-1,-1,22,-1,24,-1,-1,26,-1,-1,28,-1,-1],"split_conditions":[8.6694115E1,1.1976622E0,7.806688E-1,-1.4673294E0,2.0958793E0,-0E0,-5.2874222E-2,-0E0,2.0510944E1,9.296144E-1,-4.3485943E-2,-0E0,8.613571E1,2.756964E1,-5.842732E-3,-1.357888E-1,-0E0,-0E0,7.826957E1,-4.639771E-2,8.346889E1,3.2587707E-2,-0E0,-1.070689E-1,-0E0,-0E0,7.506501E-1,-0E0,-2.6299037E-2],"split_indices":[16,7,11,7,7,0,0,0,16,11,0,0,16,16,0,7,0,0,16,0,16,0,0,7,0,0,11,0,0],"split_type":[0,0,0,0,0,0,0,0,0,0,0,0,0,0,0,0,0,0,0,0,0,0,0,0,0,0,0,0,0],"sum_hessian":[1.0120097E4,6.610662E3,3.5094348E3,5.437428E3,1.1732339E3,1.2631599E2,3.383119E3,3.9419635E2,5.043232E3,9.520792E2,2.2115465E2,2.843778E1,5.0147944E3,6.498572E2,3.0222205E2,4.912675E3,1.02119446E2,2.2102043E1,6.277551E2,1.8241444E3,3.0885305E3,5.0478644E2,1.2296869E2,2.7904768E3,2.980536E2,6.3460876E1,2.7270159E3,2.8416885E1,2.698599E3],"tree_param":{"num_deleted":"0","num_feature":"17","num_nodes":"29","size_leaf_vector":"1"}},{"base_weights":[-1.9991325E-1],"categories":[],"categories_nodes":[],"categories_segments":[],"categories_sizes":[],"default_left":[0],"id":24,"left_children":[-1],"loss_changes":[0E0],"parents":[2147483647],"right_children":[-1],"split_conditions":[-7.796521E-2],"split_indices":[0],"split_type":[0],"sum_hessian":[8.425041E3],"tree_param":{"num_deleted":"0","num_feature":"17","num_nodes":"1","size_leaf_vector":"1"}},{"base_weights":[1.2621401E-1,1.0585418E-1,1.5170851E-1,7.952009E-2,5.0716992E-2,-0E0,1.565858E-1,8.497404E-2,-0E0,1.5718722E-1,-0E0,3.337369E-2,-0E0,1.9131973E-2,-0E0,-0E0,6.1487522E-2],"categories":[],"categories_nodes":[],"categories_segments":[],"categories_sizes":[],"default_left":[0,0,0,0,0,0,0,0,0,0,0,0,0,0,0,0,0],"id":25,"left_children":[1,3,5,7,-1,-1,9,11,13,15,-1,-1,-1,-1,-1,-1,-1],"loss_changes":[5.086151E0,3.0456238E0,3.9121552E0,1.6399422E0,0E0,0E0,8.126526E-1,3.4814453E-1,6.197105E-1,2.1559143E-1,0E0,0E0,0E0,0E0,0E0,0E0,0E0],"parents":[2147483647,0,0,1,1,2,2,3,3,6,6,7,7,8,8,9,9],"right_children":[2,4,6,8,-1,-1,10,12,14,16,-1,-1,-1,-1,-1,-1,-1],"split_conditions":[1E0,9.14066E-1,4.8592505E0,5.740463E0,5.0716992E-2,-0E0,1.0819694E0,9.13381E-1,9.000653E-1,7.806688E-1,-0E0,3.337369E-2,-0E0,1.9131973E-2,-0E0,-0E0,6.1487522E-2],"split_indices":[3,11,10,10,0,0,11,11,11,11,0,0,0,0,0,0,0],"split_type":[0,0,0,0,0,0,0,0,0,0,0,0,0,0,0,0,0],"sum_hessian":[2.0923764E4,1.213086E4,8.792902E3,6.2566304E3,5.8742305E3,3.800073E2,8.4128955E3,5.705692E3,5.509381E2,8.381487E3,3.1407959E1,5.67335E3,3.234184E1,2.519967E2,2.9894144E2,4.179044E1,8.339697E3],"tree_param":{"num_deleted":"0","num_feature":"17","num_nodes":"17","size_leaf_vector":"1"}},{"base_weights":[-4.286887E-2,-0E0,-4.725404E-2,-1.8926911E-2,-0E0],"categories":[],"categories_nodes":[],"categories_segments":[],"categories_sizes":[],"default_left":[0,0,0,0,0],"id":26,"left_children":[1,-1,3,-1,-1],"loss_changes":[1.899004E0,0E0,1.0623055E0,0E0,0E0],"parents":[2147483647,0,0,2,2],"right_children":[2,-1,4,-1,-1],"split_conditions":[5.070976E0,-0E0,7.6412773E0,-1.8926911E-2,-0E0],"split_indices":[10,0,8,0,0],"split_type":[0,0,0,0,0],"sum_hessian":[1.0343944E4,9.8128015E2,9.362664E3,9.327138E3,3.5526997E1],"tree_param":{"num_deleted":"0","num_feature":"17","num_nodes":"5","size_leaf_vector":"1"}},{"base_weights":[-3.1513207E-2,-5.070801E-2,-2.833244E-3,-1.4779334E-2,-7.902424E-2,-4.6841253E-2,2.0527715E-2,-0E0,-3.6035478E-2,-6.109583E-2,-3.213093E-2,-0E0,-6.1845947E-2,-0E0,4.663005E-2,-0E0,-4.814583E-2,-1.7912688E-2,-0E0,-0E0,-3.3785753E-2,6.563663E-2,-0E0,-2.1978427E-2,-0E0,-0E0,9.926525E-2,6.631807E-2,-0E0],"categories":[],"categories_nodes":[],"categories_segments":[],"categories_sizes":[],"default_left":[0,0,0,0,0,0,0,0,0,0,0,0,0,0,0,0,0,0,0,0,0,0,0,0,0,0,0,0,0],"id":27,"left_children":[1,3,5,7,9,11,13,-1,15,-1,17,-1,19,-1,21,-1,23,-1,-1,-1,-1,25,-1,-1,-1,-1,27,-1,-1],"loss_changes":[4.60007E0,3.8548098E0,5.3971996E0,6.995096E-1,6.4194336E0,1.6030407E0,2.2891505E0,0E0,7.115184E-1,0E0,4.3050814E-1,0E0,1.5730171E0,0E0,1.9820952E0,0E0,6.215322E-1,0E0,0E0,0E0,0E0,1.8428926E0,0E0,0E0,0E0,0E0,3.68078E0,0E0,0E0],"parents":[2147483647,0,0,1,1,2,2,3,3,4,4,5,5,6,6,8,8,10,10,12,12,14,14,16,16,21,21,26,26],"right_children":[2,4,6,8,10,12,14,-1,16,-1,18,-1,20,-1,22,-1,24,-1,-1,-1,-1,26,-1,-1,-1,-1,28,-1,-1],"split_conditions":[3.1584105E-1,1E0,1E0,-2.7373528E-1,-6.13597E-1,5.4017215E0,5.5170226E0,-0E0,5.337746E0,-6.109583E-2,5.7682953E0,-0E0,7.131459E-1,-0E0,1.3690729E0,-0E0,6.3925557E0,-1.7912688E-2,-0E0,-0E0,-3.3785753E-2,6.695854E-1,-0E0,-2.1978427E-2,-0E0,-0E0,5.7997437E0,6.631807E-2,-0E0],"split_indices":[7,1,1,7,7,10,10,0,10,0,10,0,7,0,7,0,10,0,0,0,0,7,0,0,0,0,10,0,0],"split_type":[0,0,0,0,0,0,0,0,0,0,0,0,0,0,0,0,0,0,0,0,0,0,0,0,0,0,0,0,0],"sum_hessian":[1.0500222E4,5.8263843E3,4.6738374E3,2.9155076E3,2.9108767E3,1.9466499E3,2.7271877E3,1.8909929E3,1.0245146E3,9.139229E2,1.9969537E3,4.1323126E2,1.5334187E3,1.150314E3,1.5768738E3,1.4605382E2,8.7846075E2,1.1785198E3,8.184339E2,5.450134E2,9.884052E2,1.2532091E3,3.236647E2,8.353689E2,4.309189E1,5.213566E2,7.318524E2,3.730443E2,3.5880807E2],"tree_param":{"num_deleted":"0","num_feature":"17","num_nodes":"29","size_leaf_vector":"1"}},{"base_weights":[-6.187504E-2,-6.8033494E-2,-0E0,-1.1760275E-1,-5.657765E-2,-1.2341902E-1,-0E0,-0E0,-5.9831414E-2,-0E0,-4.9527943E-2,-6.123492E-2,-0E0,-0E0,-6.2270228E-2,-2.4573086E-2,-0E0],"categories":[],"categories_nodes":[],"categories_segments":[],"categories_sizes":[],"default_left":[0,0,0,0,0,0,0,0,0,0,0,0,0,0,0,0,0],"id":28,"left_children":[1,3,-1,5,7,9,-1,-1,11,-1,-1,13,-1,-1,15,-1,-1],"loss_changes":[3.7917747E0,1.1485863E0,0E0,1.1012115E0,1.3430309E0,6.060066E-1,0E0,0E0,1.0763683E0,0E0,0E0,6.498947E-1,0E0,0E0,5.1324844E-1,0E0,0E0],"parents":[2147483647,0,0,1,1,3,3,4,4,5,5,8,8,11,11,14,14],"right_children":[2,4,-1,6,8,10,-1,-1,12,-1,-1,14,-1,-1,16,-1,-1],"split_conditions":[1E0,-2.2230034E0,-0E0,9.800687E-1,7.967405E-1,7.506501E-1,-0E0,-0E0,3.4291565E0,-0E0,-4.9527943E-2,-2.201004E0,-0E0,-0E0,1.0819694E0,-2.4573086E-2,-0E0],"split_indices":[4,9,0,11,11,11,0,0,9,0,0,9,0,0,11,0,0],"split_type":[0,0,0,0,0,0,0,0,0,0,0,0,0,0,0,0,0],"sum_hessian":[9.718294E3,8.856769E3,8.6152545E2,1.2910939E3,7.5656743E3,1.2440604E3,4.7033436E1,4.2591486E2,7.13976E3,3.183072E1,1.2122297E3,7.1030273E3,3.6732178E1,6.68061E1,7.036221E3,7.001409E3,3.481221E1],"tree_param":{"num_deleted":"0","num_feature":"17","num_nodes":"17","size_leaf_vector":"1"}},{"base_weights":[-1.6637938E-1,-1.2054937E-1,-8.8785805E-2,-6.047766E-2,-2.0595059E-2,-0E0,-1.7556326E-2],"categories":[],"categories_nodes":[],"categories_segments":[],"categories_sizes":[],"default_left":[0,0,0,0,0,0,0],"id":29,"left_children":[1,3,-1,-1,5,-1,-1],"loss_changes":[1.3983246E1,1.2197113E1,0E0,0E0,1.3321247E0,0E0,0E0],"parents":[2147483647,0,0,1,1,4,4],"right_children":[2,4,-1,-1,6,-1,-1],"split_conditions":[1E0,8.76E1,-8.8785805E-2,-6.047766E-2,1E0,-0E0,-1.7556326E-2],"split_indices":[3,5,0,0,1,0,0],"split_type":[0,0,0,0,0,0,0],"sum_hessian":[7.7659507E3,4.658622E3,3.1073286E3,3.2961423E3,1.36248E3,4.243148E2,9.381652E2],"tree_param":{"num_deleted":"0","num_feature":"17","num_nodes":"7","size_leaf_vector":"1"}},{"base_weights":[9.0849735E-2,1.5573971E-1,7.968849E-2,4.9084923E-5,7.269169E-2,6.410875E-2,4.1988242E-2,-0E0,8.814388E-2,3.9012995E-2,3.2762326E-2,-0E0,2.3596007E-2],"categories":[],"categories_nodes":[],"categories_segments":[],"categories_sizes":[],"default_left":[0,0,0,0,0,0,0,0,0,0,0,0,0],"id":30,"left_children":[1,3,5,-1,-1,7,-1,-1,9,-1,11,-1,-1],"loss_changes":[9.968826E0,9.194618E0,4.1232376E0,0E0,0E0,1.7648724E1,0E0,0E0,2.810028E0,0E0,2.327801E0,0E0,0E0],"parents":[2147483647,0,0,1,1,2,2,5,5,8,8,10,10],"right_children":[2,4,6,-1,-1,8,-1,-1,10,-1,12,-1,-1],"split_conditions":[-2.244049E0,1E0,7.569087E-1,4.9084923E-5,7.269169E-2,1E0,4.1988242E-2,-0E0,-1.1624581E0,3.9012995E-2,-1.0069221E0,-0E0,2.3596007E-2],"split_indices":[9,1,9,0,0,1,0,0,9,0,9,0,0],"split_type":[0,0,0,0,0,0,0,0,0,0,0,0,0],"sum_hessian":[2.103315E4,2.7859084E3,1.8247242E4,5.779375E2,2.207971E3,1.2238892E4,6.0083506E3,3.4956082E3,8.743284E3,6.8658765E3,1.8774071E3,6.949134E2,1.1824937E3],"tree_param":{"num_deleted":"0","num_feature":"17","num_nodes":"13","size_leaf_vector":"1"}},{"base_weights":[-2.6703147E-2,-0E0,-3.971379E-2,-4.2294603E-2,-0E0,-0E0,-4.6488043E-2,-1.8966043E-2,-0E0],"categories":[],"categories_nodes":[],"categories_segments":[],"categories_sizes":[],"default_left":[1,0,0,0,0,0,0,0,0],"id":31,"left_children":[1,-1,3,5,-1,-1,7,-1,-1],"loss_changes":[3.0558724E0,0E0,9.978571E-1,8.3404636E-1,0E0,0E0,7.0931244E-1,0E0,0E0],"parents":[2147483647,0,0,2,2,3,3,6,6],"right_children":[2,-1,4,6,-1,-1,8,-1,-1],"split_conditions":[1.579E3,-0E0,1.019807E0,8.192131E-1,-0E0,-0E0,2.377E3,-1.8966043E-2,-0E0],"split_indices":[12,0,11,11,0,0,12,0,0],"split_type":[0,0,0,0,0,0,0,0,0],"sum_hessian":[1.0104764E4,3.6017888E3,6.5029746E3,6.290739E3,2.1223593E2,6.9874054E2,5.591998E3,5.4093687E3,1.826295E2],"tree_param":{"num_deleted":"0","num_feature":"17","num_nodes":"9","size_leaf_vector":"1"}},{"base_weights":[-1.8112646E-2,-5.895754E-2,-1.00469355E-4,-0E0,-2.5129395E-2,1.6047804E-2,-4.2456705E-2,2.00836E-3,4.395723E-2,-5.374252E-2,-0E0,1.8877141E-2,-1.8958334E-2,-0E0,6.6038325E-2,-0E0,-2.1546202E-2,3.3341E-2,-0E0,-0E0,-3.4847472E-2,8.829008E-2,-0E0,4.29353E-2,-0E0,-1.9892806E-2,-0E0,4.0485173E-2,-0E0,5.1004585E-2,-0E0,5.5082445E-3,3.5480455E-2,9.850166E-3,-0E0],"categories":[],"categories_nodes":[],"categories_segments":[],"categories_sizes":[],"default_left":[0,0,1,0,0,0,0,0,1,0,0,1,0,0,0,0,0,0,0,0,0,0,0,0,0,0,0,0,0,0,0,0,0,0,0],"id":32,"left_children":[1,3,5,-1,-1,7,9,11,13,15,-1,17,19,-1,21,-1,-1,23,-1,-1,25,27,-1,29,-1,-1,-1,-1,-1,31,-1,33,-1,-1,-1],"loss_changes":[6.3254137E0,8.257599E-1,5.7701674E0,0E0,0E0,9.875519E-1,1.7523689E0,1.3915263E0,7.8667116E-1,2.6645327E-1,0E0,1.2677197E0,7.464909E-1,0E0,1.402956E0,0E0,0E0,1.1772447E0,0E0,0E0,1.0241758E0,8.8644505E-1,0E0,2.708664E-1,0E0,0E0,0E0,0E0,0E0,4.537902E-1,0E0,2.1501799E-1,0E0,0E0,0E0],"parents":[2147483647,0,0,1,1,2,2,5,5,6,6,7,7,8,8,9,9,11,11,12,12,14,14,17,17,20,20,21,21,23,23,29,29,31,31],"right_children":[2,4,6,-1,-1,8,10,12,14,16,-1,18,20,-1,22,-1,-1,24,-1,-1,26,28,-1,30,-1,-1,-1,-1,-1,32,-1,34,-1,-1,-1],"split_conditions":[8.38E1,3.1430809E1,8.363969E1,-0E0,-2.5129395E-2,8.83E1,9.1E1,8.68E1,6.616788E1,8.4E1,-0E0,7.4321175E1,4.9551727E1,-0E0,8.110242E1,-0E0,-2.1546202E-2,1E0,-0E0,-0E0,8.070964E1,9.13E1,-0E0,8.61E1,-0E0,-1.9892806E-2,-0E0,4.0485173E-2,-0E0,6.4826614E1,-0E0,4.631784E1,3.5480455E-2,9.850166E-3,-0E0],"split_indices":[5,14,14,0,0,5,5,5,14,5,0,14,14,0,14,0,0,4,0,0,14,5,0,5,0,0,0,0,0,14,0,14,0,0,0],"split_type":[0,0,0,0,0,0,0,0,0,0,0,0,0,0,0,0,0,0,0,0,0,0,0,0,0,0,0,0,0,0,0,0,0,0,0],"sum_hessian":[1.0365366E4,2.7930273E3,7.5723394E3,2.566926E2,2.5363347E3,5.1071772E3,2.4651619E3,3.9283792E3,1.1787983E3,2.1431667E3,3.2199503E2,2.761019E3,1.1673601E3,4.7919604E2,6.9960236E2,2.8161068E1,2.1150059E3,2.0217638E3,7.3925525E2,2.1100081E2,9.5635925E2,5.689501E2,1.3065225E2,1.8555801E3,1.661836E2,8.3706824E2,1.1929103E2,4.922856E2,7.666446E1,1.4174078E3,4.3817224E2,9.242612E2,4.9314667E2,3.7577115E2,5.4849005E2],"tree_param":{"num_deleted":"0","num_feature":"17","num_nodes":"35","size_leaf_vector":"1"}},{"base_weights":[-4.3175988E-2,-7.688627E-2,-0E0,-1.4596361E-1,-2.2040125E-2,4.2811703E-2,-3.1234259E-2,-0E0,-5.895072E-2,3.2682102E-2,-0E0,-0E0,-5.4919817E-2,-5.9204577E-3,7.2530136E-3,-3.2861877E-2,-0E0],"categories":[],"categories_nodes":[],"categories_segments":[],"categories_sizes":[],"default_left":[0,0,0,0,0,0,0,0,0,0,0,0,0,0,0,0,0],"id":33,"left_children":[1,3,5,7,-1,9,11,-1,-1,-1,-1,13,15,-1,-1,-1,-1],"loss_changes":[1.235915E1,2.6214714E0,5.6658306E0,5.191097E-1,0E0,3.4302955E0,1.9847405E0,0E0,0E0,0E0,0E0,3.4506947E-1,2.1315398E0,0E0,0E0,0E0,0E0],"parents":[2147483647,0,0,1,1,2,2,3,3,5,5,6,6,11,11,12,12],"right_children":[2,4,6,8,-1,10,12,-1,-1,-1,-1,14,16,-1,-1,-1,-1],"split_conditions":[8.62E1,8.11E1,1E0,7.53E1,-2.2040125E-2,1E0,8.81E1,-0E0,-5.895072E-2,3.2682102E-2,-0E0,8.73E1,8.99E1,-5.9204577E-3,7.2530136E-3,-3.2861877E-2,-0E0],"split_indices":[5,5,1,5,0,0,5,0,0,0,0,5,5,0,0,0,0],"split_type":[0,0,0,0,0,0,0,0,0,0,0,0,0,0,0,0,0],"sum_hessian":[9.451989E3,5.0675693E3,4.3844194E3,8.994871E2,4.168082E3,1.6016211E3,2.7827983E3,3.840533E1,8.610818E2,9.0239624E2,6.992249E2,1.2284062E3,1.5543922E3,7.189643E2,5.0944196E2,9.5735944E2,5.9703284E2],"tree_param":{"num_deleted":"0","num_feature":"17","num_nodes":"17","size_leaf_vector":"1"}},{"base_weights":[-1.3146316E-1,-6.3635685E-2,-7.0157334E-2,-2.4596881E-2,-1.1792116E-1,-0E0,-4.242778E-2,-5.3992454E-2,-0E0,-5.4443173E-2,-0E0,-2.2725439E-2,-0E0],"categories":[],"categories_nodes":[],"categories_segments":[],"categories_sizes":[],"default_left":[0,0,0,0,0,0,0,0,0,0,0,0,0],"id":34,"left_children":[1,-1,3,5,7,-1,9,-1,-1,11,-1,-1,-1],"loss_changes":[8.932198E0,0E0,2.7735643E0,1.3645103E0,1.5803003E0,0E0,7.8182626E-1,0E0,0E0,3.6194658E-1,0E0,0E0,0E0],"parents":[2147483647,0,0,2,2,3,3,4,4,6,6,9,9],"right_children":[2,-1,4,6,8,-1,10,-1,-1,12,-1,-1,-1],"split_conditions":[8.7E1,-6.3635685E-2,1E0,5.3253E0,9.05E1,-0E0,9.04E1,-5.3992454E-2,-0E0,6.2908063E0,-0E0,-2.2725439E-2,-0E0],"split_indices":[5,0,3,10,5,0,5,0,0,10,0,0,0],"split_type":[0,0,0,0,0,0,0,0,0,0,0,0,0],"sum_hessian":[7.2733647E3,4.55044E3,2.7229248E3,1.6345566E3,1.0883682E3,3.308393E2,1.3037174E3,8.70546E2,2.1782214E2,1.053372E3,2.5034537E2,1.0254183E3,2.7953615E1],"tree_param":{"num_deleted":"0","num_feature":"17","num_nodes":"13","size_leaf_vector":"1"}},{"base_weights":[6.1080333E-2,2.3751555E-2,8.9588076E-2,3.0763535E-2,1.3817469E-2,7.4786246E-2,1.3355324E-1,-0E0,5.8341105E-2,1.4276478E-1,6.2275883E-2,1.3879347E-1,-0E0,-3.0373318E-2,7.765826E-3,6.807237E-2,-0E0,-0E0,1.6178739E-1,6.485165E-2,-0E0,-0E0,5.4781184E-2,-0E0,-4.549515E-2,2.371405E-2,-8.096985E-4,8.1421584E-2,-0E0,1.7324327E-1,-0E0,-0E0,2.5700497E-2,-0E0,-1.9550532E-2,3.1056227E-2,-0E0,-5.238994E-2,-0E0,-0E0,8.6086266E-2,-0E0,6.96424E-2,-0E0,5.3897493E-2,-3.2516815E-2,-0E0,3.2168545E-2,-0E0,-0E0,3.7168745E-2,8.1569195E-2,-0E0,5.94053E-2,-0E0,-2.6020072E-2,-0E0,1.0535058E-1,-0E0,-0E0,2.5502427E-2,-1.725534E-2,-0E0,-0E0,4.805537E-2],"categories":[],"categories_nodes":[],"categories_segments":[],"categories_sizes":[],"default_left":[0,0,0,0,0,0,0,0,0,0,0,0,0,0,0,0,0,0,0,1,0,0,0,0,0,0,0,0,0,1,0,0,0,0,0,0,0,0,0,0,0,0,0,0,0,0,0,0,1,0,0,0,0,0,0,0,0,0,0,0,0,0,0,0,0],"id":35,"left_children":[1,3,5,-1,7,9,11,13,15,17,19,21,-1,23,25,27,-1,-1,29,31,-1,-1,-1,-1,33,35,37,39,-1,41,-1,-1,-1,-1,-1,43,-1,45,47,-1,49,-1,-1,-1,51,-1,-1,53,55,-1,-1,57,-1,59,-1,61,-1,63,-1,-1,-1,-1,-1,-1,-1],"loss_changes":[1.9675873E1,3.079526E0,2.8179245E0,0E0,4.5018473E0,3.0602264E0,2.2288437E0,1.3045669E0,1.6667137E0,2.029068E0,1.6464291E0,6.9678116E-1,0E0,8.575739E-1,1.2518725E0,1.536653E0,0E0,0E0,1.3758888E0,7.210655E-1,0E0,0E0,0E0,0E0,2.551608E-1,7.4687433E-1,9.2929983E-1,6.725645E-1,0E0,9.5118713E-1,0E0,0E0,0E0,0E0,0E0,1.2105219E0,0E0,1.1255649E0,4.8908412E-1,0E0,4.6498394E-1,0E0,0E0,0E0,6.482587E-1,0E0,0E0,1.0237781E0,3.5585457E-1,0E0,0E0,2.6078463E-1,0E0,2.370727E-1,0E0,3.3005404E-1,0E0,1.0598769E0,0E0,0E0,0E0,0E0,0E0,0E0,0E0],"parents":[2147483647,0,0,1,1,2,2,4,4,5,5,6,6,7,7,8,8,9,9,10,10,11,11,13,13,14,14,15,15,18,18,19,19,24,24,25,25,26,26,27,27,29,29,35,35,37,37,38,38,40,40,44,44,47,47,48,48,51,51,53,53,55,55,57,57],"right_children":[2,4,6,-1,8,10,12,14,16,18,20,22,-1,24,26,28,-1,-1,30,32,-1,-1,-1,-1,34,36,38,40,-1,42,-1,-1,-1,-1,-1,44,-1,46,48,-1,50,-1,-1,-1,52,-1,-1,54,56,-1,-1,58,-1,60,-1,62,-1,64,-1,-1,-1,-1,-1,-1,-1],"split_conditions":[2.1342045E1,-2.345097E0,5.24978E1,3.0763535E-2,1.63801E0,-2.2548091E0,2.025E0,-1.0355025E1,1.9726084E1,2.459089E1,5.130802E1,-2.7030416E0,-0E0,-1.04E1,-1.5406113E0,5.314286E-1,-0E0,-0E0,4.8631626E1,-1.8259459E1,-0E0,-0E0,5.4781184E-2,-0E0,-3.7621822E1,6.35E-1,-1.4347795E0,-1.5161538E1,-0E0,-1.548E1,-0E0,-0E0,2.5700497E-2,-0E0,-1.9550532E-2,-5.064E0,-0E0,1.8469799E1,-9.826923E0,-0E0,-1.0355025E1,-0E0,6.96424E-2,-0E0,-1.9409863E0,-3.2516815E-2,-0E0,1.948796E1,-5.4466667E0,-0E0,3.7168745E-2,-9.322034E-2,-0E0,-7.2932487E0,-0E0,1.41661215E1,-0E0,-2.2974157E0,-0E0,-0E0,2.5502427E-2,-1.725534E-2,-0E0,-0E0,4.805537E-2],"split_indices":[15,9,15,0,9,9,6,15,15,15,15,9,0,6,9,6,0,0,15,6,0,0,0,0,15,6,9,6,0,6,0,0,0,0,0,6,0,15,6,0,15,0,0,0,9,0,0,15,6,0,0,6,0,15,0,15,0,9,0,0,0,0,0,0,0],"split_type":[0,0,0,0,0,0,0,0,0,0,0,0,0,0,0,0,0,0,0,0,0,0,0,0,0,0,0,0,0,0,0,0,0,0,0,0,0,0,0,0,0,0,0,0,0,0,0,0,0,0,0,0,0,0,0,0,0,0,0,0,0,0,0,0,0],"sum_hessian":[2.08476E4,9.367046E3,1.1480553E4,1.0848542E3,8.282192E3,8.975897E3,2.5046555E3,6.500181E3,1.7820109E3,1.1117838E3,7.864114E3,2.4343904E3,7.026514E1,1.0520836E3,5.4480977E3,1.6671543E3,1.14856575E2,1.6977298E2,9.420108E2,7.642872E3,2.2124153E2,2.2453886E1,2.4119365E3,1.7188596E2,8.8019763E2,2.802374E3,2.6457236E3,1.3954343E3,2.717199E2,8.6668524E2,7.532555E1,7.526206E1,7.5676104E3,5.467849E1,8.2551917E2,2.406031E3,3.9634308E2,3.337028E2,2.3120208E3,5.6956E1,1.3384784E3,2.1452614E1,8.4523267E2,1.1941566E3,1.2118744E3,2.9032773E2,4.3375065E1,4.6711987E2,1.8449009E3,1.962527E2,1.1422257E3,6.234324E2,5.88442E2,4.2318594E2,4.3933937E1,5.200907E2,1.3248102E3,3.9502863E2,2.2840375E2,1.9456173E1,4.0372977E2,3.4486914E2,1.7522154E2,3.794519E1,3.5708344E2],"tree_param":{"num_deleted":"0","num_feature":"17","num_nodes":"65","size_leaf_vector":"1"}},{"base_weights":[-9.251176E-3,-0E0,-2.2052094E-2,-8.973907E-3,3.1455945E-2,-1.9583257E-3,-4.68627E-2,7.742794E-3,-3.0308746E-2,4.493346E-2,-0E0,-1.7597249E-2,-0E0,-7.1176544E-2,-0E0,-0E0,2.3460582E-2,-0E0,-4.2852044E-2,-0E0,8.5316226E-2,-2.8997237E-2,-0E0,-0E0,-2.8992277E-2,3.162969E-2,-0E0,-1.9460319E-2,-0E0,9.6653186E-2,-0E0,-0E0,-1.3115636E-2,-0E0,1.3914865E-2,1.05613574E-1,-0E0,4.4540107E-2,-0E0],"categories":[],"categories_nodes":[],"categories_segments":[],"categories_sizes":[],"default_left":[0,0,0,0,0,0,0,0,0,0,0,0,0,0,0,0,0,0,0,0,0,0,0,0,0,0,0,0,0,0,0,0,0,0,0,0,0,0,0],"id":36,"left_children":[1,3,5,7,9,11,13,15,17,19,-1,21,-1,23,-1,-1,25,-1,27,-1,29,31,-1,-1,-1,33,-1,-1,-1,35,-1,-1,-1,-1,-1,37,-1,-1,-1],"loss_changes":[1.5116456E0,1.7803495E0,1.3442307E0,1.7831411E0,9.752977E-1,4.6998835E-1,1.992387E0,5.299252E-1,9.342829E-1,1.3687718E0,0E0,4.7120926E-1,0E0,3.476863E-1,0E0,0E0,2.9304045E-1,0E0,8.759098E-1,0E0,5.1959085E-1,2.9859102E-1,0E0,0E0,0E0,2.2387332E-1,0E0,0E0,0E0,5.478163E-1,0E0,0E0,0E0,0E0,0E0,4.1895914E-1,0E0,0E0,0E0],"parents":[2147483647,0,0,1,1,2,2,3,3,4,4,5,5,6,6,7,7,8,8,9,9,11,11,13,13,16,16,18,18,20,20,21,21,25,25,29,29,35,35],"right_children":[2,4,6,8,10,12,14,16,18,20,-1,22,-1,24,-1,-1,26,-1,28,-1,30,32,-1,-1,-1,34,-1,-1,-1,36,-1,-1,-1,-1,-1,38,-1,-1,-1],"split_conditions":[9.1459316E-1,2.987059E1,8.4879616E1,7.286441E1,1.0226231E2,9.5712453E-1,9.895171E1,-9.179215E0,8.192131E-1,8.856339E1,-0E0,7.696011E1,-0E0,-2.849042E0,-0E0,-0E0,2.1139551E1,-0E0,9.109806E-1,-0E0,5.9117916E1,-1.8446247E1,-0E0,-0E0,-2.8992277E-2,7.4276334E-1,-0E0,-1.9460319E-2,-0E0,1.0117237E2,-0E0,-0E0,-1.3115636E-2,-0E0,1.3914865E-2,9.0920615E-1,-0E0,4.4540107E-2,-0E0],"split_indices":[11,15,16,16,16,11,16,15,11,16,0,16,0,15,0,0,15,0,11,0,15,15,0,0,0,11,0,0,0,16,0,0,0,0,0,11,0,0,0],"split_type":[0,0,0,0,0,0,0,0,0,0,0,0,0,0,0,0,0,0,0,0,0,0,0,0,0,0,0,0,0,0,0,0,0,0,0,0,0,0,0],"sum_hessian":[9.948807E3,5.093936E3,4.854871E3,3.593038E3,1.500898E3,3.1775881E3,1.677283E3,1.4360508E3,2.1569873E3,1.2158044E3,2.850934E2,1.5516525E3,1.6259357E3,1.1172451E3,5.600379E2,3.2173972E2,1.114311E3,5.719073E2,1.58508E3,6.944973E2,5.213072E2,1.1283628E3,4.2328958E2,3.061122E1,1.0866339E3,9.034815E2,2.1082953E2,1.519335E3,6.574499E1,4.6058875E2,6.071842E1,2.6884977E1,1.1014779E3,1.8784557E1,8.8469696E2,4.339679E2,2.6620867E1,4.0244186E2,3.1526031E1],"tree_param":{"num_deleted":"0","num_feature":"17","num_nodes":"39","size_leaf_vector":"1"}},{"base_weights":[-1.372598E-2,-2.572922E-2,1.3089275E-2,-0E0,-2.8350549E-2,-9.736235E-3,4.563555E-2,-0E0,-1.1666635E-2,-0E0,-3.7622787E-2,-0E0,6.841721E-2,-0E0,-1.7803743E-2,7.796817E-2,-0E0,3.368027E-2,-0E0],"categories":[],"categories_nodes":[],"categories_segments":[],"categories_sizes":[],"default_left":[0,0,0,0,0,1,0,0,0,0,0,0,0,0,0,1,0,0,0],"id":37,"left_children":[1,3,5,-1,7,9,11,-1,-1,-1,13,-1,15,-1,-1,17,-1,-1,-1],"loss_changes":[3.5597131E0,8.7976885E-1,2.7153025E0,0E0,5.859709E-1,8.0914915E-1,1.4021368E0,0E0,0E0,0E0,2.0795774E-1,0E0,7.81816E-1,0E0,0E0,6.122427E-1,0E0,0E0,0E0],"parents":[2147483647,0,0,1,1,2,2,4,4,5,5,6,6,10,10,12,12,15,15],"right_children":[2,4,6,-1,8,10,12,-1,-1,-1,14,-1,16,-1,-1,18,-1,-1,-1],"split_conditions":[2.2002527E1,-2.3800198E1,1.4043052E-1,-0E0,7.4276334E-1,2.738792E1,8.8409895E-1,-0E0,-1.1666635E-2,-0E0,8.7015164E-1,-0E0,1.7111105E0,-0E0,-1.7803743E-2,4.370939E1,-0E0,3.368027E-2,-0E0],"split_indices":[13,13,7,0,11,13,11,0,0,0,11,0,7,0,0,13,0,0,0],"split_type":[0,0,0,0,0,0,0,0,0,0,0,0,0,0,0,0,0,0,0],"sum_hessian":[1.0180804E4,7.601909E3,2.578895E3,2.4717133E2,7.354738E3,1.1191849E3,1.4597101E3,9.482905E1,7.2599087E3,4.7772836E2,6.414565E2,5.137797E2,9.4593036E2,1.0776031E2,5.3369617E2,8.5571655E2,9.021381E1,7.785516E2,7.716496E1],"tree_param":{"num_deleted":"0","num_feature":"17","num_nodes":"19","size_leaf_vector":"1"}},{"base_weights":[-2.7803795E-2,-6.627785E-2,5.189127E-3,-4.592075E-2,-4.4543054E-2,-4.4473853E-2,4.344575E-2,-0E0,-5.6296807E-2,-8.9191385E-2,2.4817405E-2,6.0068168E-2,-2.0896291E-2,-6.2177077E-2,9.721727E-2,-6.140985E-2,-0E0,-1.7204031E-1,-1.4543046E-2,5.8250472E-2,-0E0,6.7754485E-2,-0E0,-2.0117382E-2,-0E0,-0E0,4.3078657E-2,-0E0,-2.454049E-2,-7.459497E-2,-0E0,-4.3842204E-2,-0E0,-0E0,2.8335435E-2,-0E0,3.0250555E-2,-0E0,-1.978042E-2],"categories":[],"categories_nodes":[],"categories_segments":[],"categories_sizes":[],"default_left":[0,0,0,0,0,0,0,0,0,0,0,0,0,0,0,0,0,0,0,0,0,0,0,0,0,0,0,0,0,0,0,0,0,0,0,0,0,0,0],"id":38,"left_children":[1,3,5,-1,7,9,11,13,15,17,19,21,23,-1,25,27,-1,29,31,33,-1,35,-1,-1,-1,-1,-1,-1,-1,-1,-1,37,-1,-1,-1,-1,-1,-1,-1],"loss_changes":[1.3127783E1,1.5238914E0,8.899697E0,0E0,2.4589071E0,6.988211E0,3.977552E0,7.992439E0,9.230709E-1,3.8082218E0,1.102036E0,1.7502337E0,5.136177E-1,0E0,7.1166563E-1,3.8086224E-1,0E0,1.1409721E0,9.296653E-1,5.2520144E-1,0E0,3.2747364E-1,0E0,0E0,0E0,0E0,0E0,0E0,0E0,0E0,0E0,3.0350018E-1,0E0,0E0,0E0,0E0,0E0,0E0,0E0],"parents":[2147483647,0,0,1,1,2,2,4,4,5,5,6,6,7,7,8,8,9,9,10,10,11,11,12,12,14,14,15,15,17,17,18,18,19,19,21,21,31,31],"right_children":[2,4,6,-1,8,10,12,14,16,18,20,22,24,-1,26,28,-1,30,32,34,-1,36,-1,-1,-1,-1,-1,-1,-1,-1,-1,38,-1,-1,-1,-1,-1,-1,-1],"split_conditions":[8.59E1,8.16E1,8.412574E-3,-4.592075E-2,-8.890861E-1,1E0,1E0,1E0,1.5836205E0,-6.4021325E-1,-2.9381022E-1,1.870637E0,8.93E1,-6.2177077E-2,-2.4898703E0,8.17E1,-0E0,9.16E1,8.94E1,8.62E1,-0E0,3.1584105E-1,-0E0,-2.0117382E-2,-0E0,-0E0,4.3078657E-2,-0E0,-2.454049E-2,-7.459497E-2,-0E0,-5.9903353E-1,-0E0,-0E0,2.8335435E-2,-0E0,3.0250555E-2,-0E0,-1.978042E-2],"split_indices":[5,5,7,0,7,0,0,0,7,7,7,7,5,0,7,5,0,5,5,5,0,7,0,0,0,0,0,0,0,0,0,7,0,0,0,0,0,0,0],"split_type":[0,0,0,0,0,0,0,0,0,0,0,0,0,0,0,0,0,0,0,0,0,0,0,0,0,0,0,0,0,0,0,0,0,0,0,0,0,0,0],"sum_hessian":[9.271972E3,4.586928E3,4.6850435E3,1.0529374E3,3.5339907E3,1.7869946E3,2.8980488E3,5.478361E2,2.9861548E3,1.2788602E3,5.0813443E2,2.5761646E3,3.2188443E2,1.6425394E2,3.8358218E2,2.7534868E3,2.3266795E2,4.6248654E2,8.1637366E2,4.1251056E2,9.562387E1,2.4048987E3,1.7126569E2,2.4124236E2,8.064208E1,2.9371729E1,3.5421045E2,3.5087677E1,2.7183992E3,4.0429623E2,5.8190296E1,5.685873E2,2.4778639E2,4.983685E1,3.626737E2,5.168237E2,1.8880751E3,2.7156734E1,5.4143054E2],"tree_param":{"num_deleted":"0","num_feature":"17","num_nodes":"39","size_leaf_vector":"1"}},{"base_weights":[-1.0537861E-1,-5.1005825E-2,-5.6921646E-2,-6.5022804E-2,-0E0,-2.6466576E-2,-0E0],"categories":[],"categories_nodes":[],"categories_segments":[],"categories_sizes":[],"default_left":[0,0,0,0,0,0,0],"id":39,"left_children":[1,3,-1,5,-1,-1,-1],"loss_changes":[1.0918411E1,2.9360294E0,0E0,6.6832066E-1,0E0,0E0,0E0],"parents":[2147483647,0,0,1,1,3,3],"right_children":[2,4,-1,6,-1,-1,-1],"split_conditions":[1E0,2.4434948E1,-5.6921646E-2,2.322E3,-0E0,-2.6466576E-2,-0E0],"split_indices":[1,13,0,12,0,0,0],"split_type":[0,0,0,0,0,0,0],"sum_hessian":[6.9338394E3,3.2010981E3,3.7327412E3,2.6620442E3,5.390541E2,2.5884841E3,7.356006E1],"tree_param":{"num_deleted":"0","num_feature":"17","num_nodes":"7","size_leaf_vector":"1"}},{"base_weights":[4.2983487E-2,2.5219228E-2,7.987904E-2,5.37846E-3,4.824717E-2,5.2938983E-2,4.3352623E-2,-1.927104E-3,1.2175079E-2,4.9264852E-2,-0E0,2.2940185E-2,3.45769E-2,2.383602E-2,-5.3362227E-3,-0E0,2.0585082E-2,3.3157513E-2,-0E0,4.2991643E-3,1.4930102E-2,-2.8214581E-2,-0E0,-0E0,1.4327806E-2,8.175787E-3,-0E0,-0E0,-2.2111662E-2],"categories":[],"categories_nodes":[],"categories_segments":[],"categories_sizes":[],"default_left":[0,0,0,0,0,0,0,0,0,0,0,0,0,0,0,0,0,0,0,0,0,0,0,0,0,0,0,0,0],"id":40,"left_children":[1,3,5,7,9,11,-1,-1,13,15,-1,17,-1,19,21,-1,-1,23,-1,25,-1,27,-1,-1,-1,-1,-1,-1,-1],"loss_changes":[1.1464069E1,5.4942627E0,1.7657051E0,7.47558E-1,5.5149174E-1,1.6462898E0,0E0,0E0,1.7042892E0,3.4545803E-1,0E0,7.9777503E-1,0E0,3.469739E-1,7.0494235E-1,0E0,0E0,3.366952E-1,0E0,5.4724795E-1,0E0,3.63029E-1,0E0,0E0,0E0,0E0,0E0,0E0,0E0],"parents":[2147483647,0,0,1,1,2,2,3,3,4,4,5,5,8,8,9,9,11,11,13,13,14,14,17,17,19,19,21,21],"right_children":[2,4,6,8,10,12,-1,-1,14,16,-1,18,-1,20,22,-1,-1,24,-1,26,-1,28,-1,-1,-1,-1,-1,-1,-1],"split_conditions":[3.678281E1,1E0,1E0,2.404548E0,3.6486332E1,5.33421E1,4.3352623E-2,-1.927104E-3,2.7705742E1,-1.0355025E1,-0E0,4.902036E1,3.45769E-2,1.7773027E1,3.228992E1,-0E0,2.0585082E-2,3.731347E1,-0E0,1.1167397E1,1.4930102E-2,3.0574518E1,-0E0,-0E0,1.4327806E-2,8.175787E-3,-0E0,-0E0,-2.2111662E-2],"split_indices":[15,3,3,15,15,15,0,0,15,15,0,15,0,15,15,0,0,15,0,15,0,15,0,0,0,0,0,0,0],"split_type":[0,0,0,0,0,0,0,0,0,0,0,0,0,0,0,0,0,0,0,0,0,0,0,0,0,0,0,0,0],"sum_hessian":[2.1044373E4,1.4615378E4,6.4289956E3,8.369891E3,6.2454873E3,3.8416035E3,2.587392E3,2.03368E3,6.3362104E3,6.217126E3,2.8361437E1,2.4290505E3,1.412553E3,4.559412E3,1.7767981E3,6.7785583E2,5.53927E3,1.8854569E3,5.435937E2,2.5912449E3,1.9681676E3,9.437801E2,8.33018E2,1.0120411E2,1.7842528E3,1.3489121E3,1.2423326E3,6.0127435E2,3.4250574E2],"tree_param":{"num_deleted":"0","num_feature":"17","num_nodes":"29","size_leaf_vector":"1"}},{"base_weights":[-5.701017E-3,3.741042E-3,-2.513972E-2,-1.1944778E-2,1.4744497E-2,1.45097E-2,-3.6356363E-2,-0E0,-4.6222728E-2,1.7025098E-2,4.273071E-3,-0E0,1.691721E-2,-1.680345E-2,-0E0,-1.8028593E-2,1.3978701E-2,-0E0,-6.4907044E-2,-0E0,2.0711143E-2,3.4077317E-2,-0E0,-2.8585786E-2,-0E0,-0E0,9.60313E-3,-0E0,1.7200133E-2],"categories":[],"categories_nodes":[],"categories_segments":[],"categories_sizes":[],"default_left":[0,0,0,0,0,0,1,0,0,0,0,0,0,0,0,0,0,0,0,0,0,0,0,0,0,0,0,0,0],"id":41,"left_children":[1,3,5,7,9,11,13,15,17,-1,19,-1,-1,-1,-1,-1,21,-1,23,-1,25,27,-1,-1,-1,-1,-1,-1,-1],"loss_changes":[2.2828498E0,1.0770513E0,2.2594926E0,8.3823377E-1,2.3715436E-1,4.6295315E-1,1.1279488E0,5.890552E-1,4.9096835E-1,0E0,6.5702295E-1,0E0,0E0,0E0,0E0,0E0,2.8808942E-1,0E0,2.0564294E-1,0E0,2.4892038E-1,2.538344E-1,0E0,0E0,0E0,0E0,0E0,0E0,0E0],"parents":[2147483647,0,0,1,1,2,2,3,3,4,4,5,5,6,6,7,7,8,8,10,10,16,16,18,18,20,20,21,21],"right_children":[2,4,6,8,10,12,14,16,18,-1,20,-1,-1,-1,-1,-1,22,-1,24,-1,26,28,-1,-1,-1,-1,-1,-1,-1],"split_conditions":[8.3984985E1,8.7984455E-1,8.21212E-1,8.6022973E-1,8.974753E-1,4.8136616E0,1.0740061E2,4.7866173E0,5.350017E0,1.7025098E-2,9.534025E-1,-0E0,1.691721E-2,-1.680345E-2,-0E0,-1.8028593E-2,5.0969815E0,-0E0,8.137576E1,-0E0,5.79596E0,4.6603203E1,-0E0,-2.8585786E-2,-0E0,-0E0,9.60313E-3,-0E0,1.7200133E-2],"split_indices":[16,11,11,11,11,10,16,10,10,0,11,0,0,0,0,0,10,0,16,0,10,16,0,0,0,0,0,0,0],"split_type":[0,0,0,0,0,0,0,0,0,0,0,0,0,0,0,0,0,0,0,0,0,0,0,0,0,0,0,0,0],"sum_hessian":[9.854291E3,5.870803E3,3.9834873E3,1.5926285E3,4.278175E3,4.438203E2,3.539667E3,1.0990825E3,4.9354602E2,5.7204266E2,3.7061323E3,1.5302028E2,2.9080002E2,3.126261E3,4.1340616E2,1.8615558E2,9.1292694E2,1.294261E2,3.6411993E2,2.0219532E3,1.6841791E3,3.9711713E2,5.158098E2,3.2261368E2,4.1506233E1,8.3766075E1,1.600413E3,3.175383E1,3.653633E2],"tree_param":{"num_deleted":"0","num_feature":"17","num_nodes":"29","size_leaf_vector":"1"}},{"base_weights":[-8.60571E-3,3.9486564E-3,-5.3825617E-2,1.0425982E-2,-0E0,-2.1705346E-2,-0E0,-0E0,7.870783E-3,-8.818086E-3,4.8461027E-4,7.441257E-3,-0E0,-9.595388E-3,-0E0],"categories":[],"categories_nodes":[],"categories_segments":[],"categories_sizes":[],"default_left":[1,1,0,0,0,0,0,0,0,0,0,0,0,0,0],"id":42,"left_children":[1,3,5,7,9,-1,-1,-1,-1,-1,11,-1,13,-1,-1],"loss_changes":[6.8443446E0,3.3987674E-1,4.0207195E-1,4.4489563E-1,3.4871414E-1,0E0,0E0,0E0,0E0,0E0,4.0918237E-1,0E0,4.4591182E-1,0E0,0E0],"parents":[2147483647,0,0,1,1,2,2,3,3,4,4,10,10,12,12],"right_children":[2,4,6,8,10,-1,-1,-1,-1,-1,12,-1,14,-1,-1],"split_conditions":[9.081944E1,7.514555E1,1.223339E2,6.1230453E1,7.841635E1,-2.1705346E-2,-0E0,-0E0,7.870783E-3,-8.818086E-3,8.346889E1,7.441257E-3,8.6865204E1,-9.595388E-3,-0E0],"split_indices":[16,16,16,16,16,0,0,0,0,0,16,0,16,0,0],"split_type":[0,0,0,0,0,0,0,0,0,0,0,0,0,0,0],"sum_hessian":[1.0107976E4,7.533133E3,2.574843E3,4.2025283E3,3.3306042E3,2.537766E3,3.707684E1,1.9926987E3,2.2098298E3,6.753547E2,2.6552498E3,1.1201459E3,1.5351038E3,7.3110864E2,8.039951E2],"tree_param":{"num_deleted":"0","num_feature":"17","num_nodes":"15","size_leaf_vector":"1"}},{"base_weights":[-2.324148E-2,-6.6016726E-3,-6.7883566E-2,2.7150903E-3,-5.8000594E-2,-0E0,-8.13427E-2,-6.3487343E-3,2.5991535E-2,-0E0,-6.309323E-2,-3.2401707E-2,-0E0,6.1910937E-4,-4.6482872E-2,5.226499E-2,-0E0,-0E0,-2.5550874E-2,-1.8028859E-2,2.81646E-2,-0E0,-3.072892E-2,-0E0,9.969191E-2,-0E0,-2.8762989E-2,-0E0,3.465022E-2,4.0947195E-2,-0E0,-0E0,-1.9351762E-2,1.5900005E-2,-0E0],"categories":[],"categories_nodes":[],"categories_segments":[],"categories_sizes":[],"default_left":[0,1,0,0,0,0,0,0,0,0,0,0,0,0,0,0,0,0,0,0,0,0,0,0,0,0,0,0,1,0,0,0,0,0,0],"id":43,"left_children":[1,3,5,7,9,-1,11,13,15,-1,17,-1,-1,19,21,23,-1,-1,-1,25,27,-1,-1,-1,29,-1,31,-1,33,-1,-1,-1,-1,-1,-1],"loss_changes":[5.176461E0,4.602224E0,1.4488621E0,1.6198226E0,6.3038826E-1,0E0,2.5878334E-1,1.9539903E0,1.9040219E0,0E0,3.4872007E-1,0E0,0E0,1.4610447E0,1.7271547E0,3.2851772E0,0E0,0E0,0E0,2.3718402E-1,5.0635934E-1,0E0,0E0,0E0,3.9660835E-1,0E0,8.644109E-1,0E0,5.303142E-1,0E0,0E0,0E0,0E0,0E0,0E0],"parents":[2147483647,0,0,1,1,2,2,3,3,4,4,6,6,7,7,8,8,10,10,13,13,14,14,15,15,19,19,20,20,24,24,26,26,28,28],"right_children":[2,4,6,8,10,-1,12,14,16,-1,18,-1,-1,20,22,24,-1,-1,-1,26,28,-1,-1,-1,30,-1,32,-1,34,-1,-1,-1,-1,-1,-1],"split_conditions":[4.156112E1,8.729193E1,5.1103184E1,-1.1512986E0,-1.1124492E1,-0E0,2.501283E0,-1.5752109E0,1.7041808E0,-0E0,-3.0704656E0,-3.2401707E-2,-0E0,-2.179363E0,8.062606E0,6.4826614E1,-0E0,-0E0,-2.5550874E-2,6.146314E1,-2.1164618E1,-0E0,-3.072892E-2,-0E0,8.5967224E1,-0E0,-7.2932487E0,-0E0,8.553775E1,4.0947195E-2,-0E0,-0E0,-1.9351762E-2,1.5900005E-2,-0E0],"split_indices":[15,14,14,9,15,0,9,9,9,0,9,0,0,9,15,14,0,0,0,14,15,0,0,0,14,0,15,0,14,0,0,0,0,0,0],"split_type":[0,0,0,0,0,0,0,0,0,0,0,0,0,0,0,0,0,0,0,0,0,0,0,0,0,0,0,0,0,0,0,0,0,0,0],"sum_hessian":[9.181107E3,7.053208E3,2.1278994E3,5.611527E3,1.4416814E3,4.2861584E2,1.6992836E3,3.3587173E3,2.2528093E3,6.583574E1,1.3758457E3,1.6661293E3,3.315434E1,2.3975447E3,9.6117267E2,1.2500239E3,1.00278546E3,1.902767E1,1.356818E3,9.5264874E2,1.4448959E3,3.520544E2,6.091183E2,5.798939E2,6.7013007E2,2.950164E2,6.576323E2,7.040099E1,1.3744949E3,6.3959125E2,3.0538805E1,8.924981E1,5.683825E2,1.3103589E3,6.413594E1],"tree_param":{"num_deleted":"0","num_feature":"17","num_nodes":"35","size_leaf_vector":"1"}},{"base_weights":[-8.996646E-2,-2.458224E-2,-4.0511414E-2,-7.4294396E-2,-0E0,-8.838793E-2,-0E0,4.2493142E-2,-3.8100887E-2,-3.713748E-2,-0E0,2.7889952E-2,-0E0,-0E0,-1.9301774E-2],"categories":[],"categories_nodes":[],"categories_segments":[],"categories_sizes":[],"default_left":[0,0,0,0,0,0,0,1,0,0,0,0,0,0,0],"id":44,"left_children":[1,3,-1,5,7,9,-1,11,13,-1,-1,-1,-1,-1,-1],"loss_changes":[3.203308E0,2.5401933E0,0E0,7.1627474E-1,1.4136822E0,4.5647526E-1,0E0,8.597687E-1,2.4186674E-1,0E0,0E0,0E0,0E0,0E0,0E0],"parents":[2147483647,0,0,1,1,3,3,4,4,5,5,7,7,8,8],"right_children":[2,4,-1,6,8,10,-1,12,14,-1,-1,-1,-1,-1,-1],"split_conditions":[6.3538746E1,1.33E3,-4.0511414E-2,9.864274E-1,9.403973E-1,6.1928566E1,-0E0,1.663E3,3.836179E1,-3.713748E-2,-0E0,2.7889952E-2,-0E0,-0E0,-1.9301774E-2],"split_indices":[16,12,0,11,11,16,0,12,16,0,0,0,0,0,0],"split_type":[0,0,0,0,0,0,0,0,0,0,0,0,0,0,0],"sum_hessian":[6.651644E3,1.4480951E3,5.2035493E3,6.138381E2,8.342571E2,5.2375775E2,9.00803E1,5.2166315E2,3.1259396E2,5.0081943E2,2.2938324E1,3.487335E2,1.7292963E2,3.0839575E1,2.817544E2],"tree_param":{"num_deleted":"0","num_feature":"17","num_nodes":"15","size_leaf_vector":"1"}},{"base_weights":[3.375826E-2,1.4990727E-2,1.01009145E-1,-0E0,3.2819454E-2,-0E0,1.0338903E-1,-1.8832209E-2,1.3268185E-2,3.4455433E-2,-0E0,-0E0,4.0583175E-2,-3.0942604E-2,1.7654268E-2,3.2114863E-2,-9.487328E-3,-0E0,3.7078608E-2,-4.271355E-2,-0E0,3.731407E-2,-0E0,-0E0,4.097933E-2,-0E0,-4.7504567E-2,-0E0,3.948836E-2,-0E0,-5.4187786E-2,-0E0,2.0628126E-2,4.5070373E-2,-0E0,-0E0,7.807199E-3,-7.778541E-2,-0E0,1.5711408E-2,-0E0,-0E0,-5.6370847E-2,1.3034041E-3,2.390488E-2,-1.1605788E-1,-0E0,-0E0,-2.2895427E-2,1.9724475E-2,-0E0,-0E0,-5.2892156E-2,1.25147365E-2,-0E0],"categories":[],"categories_nodes":[],"categories_segments":[],"categories_sizes":[],"default_left":[1,1,1,0,0,0,0,1,0,1,0,0,0,0,0,0,0,0,0,0,0,0,0,0,0,1,0,0,0,0,0,0,0,0,0,0,0,0,0,0,0,0,0,0,0,0,0,0,0,0,0,0,0,0,0],"id":45,"left_children":[1,3,5,7,9,-1,11,13,15,17,-1,-1,-1,19,21,23,25,-1,27,29,-1,31,-1,-1,33,35,37,-1,39,-1,41,-1,-1,43,-1,-1,-1,45,-1,-1,-1,-1,47,49,-1,51,-1,-1,-1,53,-1,-1,-1,-1,-1],"loss_changes":[2.3781298E1,4.696638E0,1.4764442E0,2.2377412E0,6.705494E-1,0E0,3.799057E-1,2.0100524E0,2.6024263E0,8.123722E-1,0E0,0E0,0E0,1.1237612E0,3.8420713E-1,1.6896987E0,1.4628724E0,0E0,3.3752728E-1,8.8560295E-1,0E0,2.4308813E-1,0E0,0E0,7.48641E-1,2.8316194E-1,1.4933169E0,0E0,3.2481003E-1,0E0,3.2886267E-1,0E0,0E0,6.272702E-1,0E0,0E0,0E0,2.784169E0,0E0,0E0,0E0,0E0,2.8158617E-1,3.71977E-1,0E0,6.6806126E-1,0E0,0E0,0E0,2.9787445E-1,0E0,0E0,0E0,0E0,0E0],"parents":[2147483647,0,0,1,1,2,2,3,3,4,4,6,6,7,7,8,8,9,9,13,13,14,14,15,15,16,16,18,18,19,19,21,21,24,24,25,25,26,26,28,28,30,30,33,33,37,37,42,42,43,43,45,45,49,49],"right_children":[2,4,6,8,10,-1,12,14,16,18,-1,-1,-1,20,22,24,26,-1,28,30,-1,32,-1,-1,34,36,38,-1,40,-1,42,-1,-1,44,-1,-1,-1,46,-1,-1,-1,-1,48,50,-1,52,-1,-1,-1,54,-1,-1,-1,-1,-1],"split_conditions":[9.388171E1,7.598714E1,-1.8266562E1,5.6590943E0,9.344474E1,-0E0,4.5650115E0,3.3036243E1,2.125425E1,-1.1622756E1,-0E0,-0E0,4.0583175E-2,7.020443E1,6.752361E1,3.5611862E1,5.9916463E0,-0E0,5.0142975E0,-8.828647E-2,-0E0,5.1084676E0,-0E0,-0E0,7.498182E1,2.596779E1,3.6933514E1,-0E0,6.571961E0,-0E0,2.464328E1,-0E0,2.0628126E-2,1.111342E0,-0E0,-0E0,7.807199E-3,6.317525E0,-0E0,1.5711408E-2,-0E0,-0E0,4.6768913E0,-1.9793197E0,2.390488E-2,4.805718E1,-0E0,-0E0,-2.2895427E-2,6.1675625E0,-0E0,-0E0,-5.2892156E-2,1.25147365E-2,-0E0],"split_indices":[16,16,13,10,16,0,10,13,13,13,0,0,0,16,16,16,10,0,10,13,0,10,0,0,16,13,13,0,10,0,16,0,0,13,0,0,0,10,0,0,0,0,10,13,0,16,0,0,0,10,0,0,0,0,0],"split_type":[0,0,0,0,0,0,0,0,0,0,0,0,0,0,0,0,0,0,0,0,0,0,0,0,0,0,0,0,0,0,0,0,0,0,0,0,0,0,0,0,0,0,0,0,0,0,0,0,0,0,0,0,0,0,0],"sum_hessian":[2.087329E4,1.6581193E4,4.292094E3,8.765791E3,7.8154033E3,5.7450684E1,4.2346436E3,3.8724385E3,4.893352E3,7.655171E3,1.6023251E2,1.9477474E1,4.2151665E3,3.3625625E3,5.098761E2,3.2062495E3,1.6871027E3,4.5469476E2,7.200476E3,2.3779546E3,9.84608E2,3.858023E2,1.24073814E2,2.3303142E2,2.9732183E3,9.768613E2,7.1024133E2,6.3618994E2,6.564286E3,6.009222E2,1.7770323E3,1.0967793E2,2.7612436E2,2.8255466E3,1.4767148E2,2.7578842E2,7.0107294E2,5.082504E2,2.0199094E2,6.5067886E3,5.7497852E1,3.1898815E1,1.7451335E3,1.1339653E3,1.6915814E3,4.3197806E2,7.6272316E1,5.4851517E1,1.690282E3,9.555701E2,1.7839522E2,8.079772E1,3.5118036E2,6.468797E2,3.086904E2],"tree_param":{"num_deleted":"0","num_feature":"17","num_nodes":"55","size_leaf_vector":"1"}},{"base_weights":[-4.2723455E-3,1.6325623E-2,-1.1820797E-2,2.2300696E-2,-0E0,-2.1148294E-2,-0E0,-0E0,1.091794E-2,-0E0,-2.7474517E-2,-1.2498494E-2,7.869437E-3,-0E0,-2.923665E-2,-0E0,-2.0244693E-2,5.192638E-2,-8.221213E-3,-1.1946645E-2,-0E0,-1.899311E-2,-0E0,-0E0,6.974485E-2,-0E0,-3.9338015E-2,3.8173642E-2,-0E0,-5.7942234E-2,-0E0,-0E0,-2.8913654E-2],"categories":[],"categories_nodes":[],"categories_segments":[],"categories_sizes":[],"default_left":[1,0,0,0,0,0,0,0,0,0,0,0,0,0,0,0,0,0,0,0,0,0,0,0,0,0,0,0,0,0,0,0,0],"id":46,"left_children":[1,3,5,7,-1,9,11,-1,-1,-1,13,15,17,-1,19,-1,21,23,25,-1,-1,-1,-1,-1,27,-1,29,-1,-1,31,-1,-1,-1],"loss_changes":[1.4307358E0,3.8187537E-1,1.0262625E0,2.3714334E-1,0E0,9.341531E-1,2.835083E-1,0E0,0E0,0E0,3.098843E-1,2.1368136E-1,2.60273E0,0E0,3.081193E-1,0E0,5.304841E-1,3.915844E-1,9.042378E-1,0E0,0E0,0E0,0E0,0E0,1.4260492E0,0E0,9.814154E-1,0E0,0E0,8.1403995E-1,0E0,0E0,0E0],"parents":[2147483647,0,0,1,1,2,2,3,3,5,5,6,6,10,10,11,11,12,12,14,14,16,16,17,17,18,18,24,24,26,26,29,29],"right_children":[2,4,6,8,-1,10,12,-1,-1,-1,14,16,18,-1,20,-1,22,24,26,-1,-1,-1,-1,-1,28,-1,30,-1,-1,32,-1,-1,-1],"split_conditions":[1.392E3,1.0112789E0,9.2515963E-1,9.34E2,-0E0,8.062889E-1,1.615E3,-0E0,1.091794E-2,-0E0,1.425E3,9.27792E-1,1.848E3,-0E0,2.64E3,-0E0,9.563706E-1,1.693E3,1E0,-1.1946645E-2,-0E0,-1.899311E-2,-0E0,-0E0,9.912815E-1,-0E0,2.345E3,3.8173642E-2,-0E0,9.347577E-1,-0E0,-0E0,-2.8913654E-2],"split_indices":[12,11,11,12,0,11,12,0,0,0,12,11,12,0,12,0,11,12,2,0,0,0,0,0,11,0,12,0,0,11,0,0,0],"split_type":[0,0,0,0,0,0,0,0,0,0,0,0,0,0,0,0,0,0,0,0,0,0,0,0,0,0,0,0,0,0,0,0,0],"sum_hessian":[9.8295E3,1.8496603E3,7.9798403E3,1.7565842E3,9.307615E1,4.7839004E3,3.19594E3,3.4135083E2,1.4152334E3,7.141337E2,4.0697666E3,8.95039E2,2.300901E3,1.1391081E2,3.9558557E3,3.5939064E1,8.590999E2,9.7948035E2,1.3214205E3,3.931347E3,2.450874E1,3.6756198E2,4.9153796E2,3.585003E2,6.2098004E2,6.8464496E2,6.367755E2,4.6140747E2,1.5957257E2,5.8286115E2,5.3914368E1,8.088957E1,5.019716E2],"tree_param":{"num_deleted":"0","num_feature":"17","num_nodes":"33","size_leaf_vector":"1"}},{"base_weights":[-6.9418806E-3,-1.9465357E-2,2.5077526E-2,-0E0,-2.6977152E-2,6.857808E-2,-0E0,-5.5300366E-2,-1.1131309E-2,-0E0,8.3358E-2,2.9912567E-2,-5.655077E-3,-6.550256E-2,-0E0,-0E0,-2.9867569E-2,-0E0,3.4589984E-2,-0E0,4.7767542E-2,-2.6847094E-2,-0E0,-0E0,-2.744904E-2,-0E0,3.629212E-2,-3.9983053E-2,-0E0,-0E0,2.2409879E-2,-1.3222247E-2,-0E0,-0E0,-2.6951695E-2,-0E0,6.972689E-2,-0E0,-4.2494465E-2,-0E0,-1.499675E-2,3.764184E-2,-0E0,-4.6892963E-2,-0E0,-0E0,-5.113066E-2,-2.1154635E-2,-0E0],"categories":[],"categories_nodes":[],"categories_segments":[],"categories_sizes":[],"default_left":[0,0,1,0,0,0,0,1,0,0,1,0,1,0,0,0,0,0,0,0,0,0,0,0,0,0,1,0,0,0,0,0,0,0,0,0,0,0,0,0,0,0,0,0,0,0,0,0,0],"id":47,"left_children":[1,3,5,-1,7,9,11,13,15,-1,17,19,21,23,-1,25,27,-1,-1,-1,29,31,-1,-1,-1,33,35,37,-1,-1,-1,-1,-1,-1,39,-1,41,-1,43,-1,-1,-1,-1,45,-1,-1,47,-1,-1],"loss_changes":[3.9011033E0,1.1201925E0,2.1232252E0,0E0,1.0215616E0,8.3561563E-1,4.1327164E-1,6.4482784E-1,1.3332647E0,0E0,2.1750593E-1,3.3982727E-1,4.4953278E-1,6.474142E-1,0E0,4.1731703E-1,1.000374E0,0E0,0E0,0E0,2.5827545E-1,2.4936756E-1,0E0,0E0,0E0,3.2873642E-1,6.992583E-1,3.124764E-1,0E0,0E0,0E0,0E0,0E0,0E0,3.0013108E-1,0E0,4.5618927E-1,0E0,3.938203E-1,0E0,0E0,0E0,0E0,3.5226917E-1,0E0,0E0,2.1988201E-1,0E0,0E0],"parents":[2147483647,0,0,1,1,2,2,4,4,5,5,6,6,7,7,8,8,10,10,11,11,12,12,13,13,15,15,16,16,20,20,21,21,25,25,26,26,27,27,34,34,36,36,38,38,43,43,46,46],"right_children":[2,4,6,-1,8,10,12,14,16,-1,18,20,22,24,-1,26,28,-1,-1,-1,30,32,-1,-1,-1,34,36,38,-1,-1,-1,-1,-1,-1,40,-1,42,-1,44,-1,-1,-1,-1,46,-1,-1,48,-1,-1],"split_conditions":[2.3398752E1,-3.0861402E-1,2.738792E1,-0E0,6.591028E0,5.9563775E0,6.1240926E0,3.4E-1,1.4494956E1,-0E0,-1.3271428E1,3.017591E1,6.6704373E0,5.53938E0,-0E0,1.33236065E1,6.35E-1,-0E0,3.4589984E-2,-0E0,-1.3271428E1,1.4588236E0,-0E0,-0E0,-2.744904E-2,5.6E-2,-8.086111E0,-1.6774467E1,-0E0,-0E0,2.2409879E-2,-1.3222247E-2,-0E0,-0E0,5.74434E0,-0E0,4E-1,-0E0,2.2573029E1,-0E0,-1.499675E-2,3.764184E-2,-0E0,5.771732E0,-0E0,-0E0,2.2002527E1,-2.1154635E-2,-0E0],"split_indices":[13,13,13,0,13,8,8,6,13,0,6,13,8,8,0,13,6,0,0,0,6,6,0,0,0,6,6,6,0,0,0,0,0,0,8,0,6,0,13,0,0,0,0,8,0,0,13,0,0],"split_type":[0,0,0,0,0,0,0,0,0,0,0,0,0,0,0,0,0,0,0,0,0,0,0,0,0,0,0,0,0,0,0,0,0,0,0,0,0,0,0,0,0,0,0,0,0,0,0,0,0],"sum_hessian":[1.0025493E4,7.7042017E3,2.3212917E3,2.1565547E3,5.547647E3,7.570983E2,1.5641935E3,1.4852463E3,4.0624004E3,1.2619867E2,6.3089966E2,4.151026E2,1.1490908E3,1.207321E3,2.7792532E2,2.0083186E3,2.0540818E3,4.6614033E1,5.8428564E2,1.0673961E2,3.0836298E2,6.694064E2,4.796845E2,3.1675722E1,1.1756453E3,1.6969872E3,3.1133145E2,1.7695426E3,2.845393E2,1.8752176E1,2.896108E2,6.346409E2,3.476542E1,1.2499371E3,4.4704993E2,8.717994E1,2.241515E2,3.0568192E1,1.7389744E3,2.727131E1,4.1977863E2,1.6331693E2,6.0834583E1,1.606157E3,1.3281734E2,1.21333824E2,1.4848232E3,1.3934204E3,9.140278E1],"tree_param":{"num_deleted":"0","num_feature":"17","num_nodes":"49","size_leaf_vector":"1"}},{"base_weights":[-2.3398286E-2,-0E0,-2.2685178E-2,-2.2006268E-2,4.2241566E-2,-0E0,-6.702647E-2,5.1746428E-2,-0E0,-7.487058E-2,-0E0,2.43882E-2,-0E0,-0E0,-3.0321684E-2],"categories":[],"categories_nodes":[],"categories_segments":[],"categories_sizes":[],"default_left":[0,0,0,1,0,0,0,1,0,0,0,0,0,0,0],"id":48,"left_children":[1,3,-1,5,7,-1,9,11,-1,13,-1,-1,-1,-1,-1],"loss_changes":[7.817159E0,5.089237E0,0E0,3.951981E0,1.3793435E0,0E0,3.7911367E-1,8.590841E-1,0E0,3.3371878E-1,0E0,0E0,0E0,0E0,0E0],"parents":[2147483647,0,0,1,1,3,3,4,4,6,6,7,7,9,9],"right_children":[2,4,-1,6,8,-1,10,12,-1,14,-1,-1,-1,-1,-1],"split_conditions":[1E0,5.4955596E-1,-2.2685178E-2,1.839E3,2.0270443E0,-0E0,2.235E3,1.979E3,-0E0,-2.0234423E0,-0E0,2.43882E-2,-0E0,-0E0,-3.0321684E-2],"split_indices":[3,7,0,12,7,0,12,12,0,7,0,0,0,0,0],"split_type":[0,0,0,0,0,0,0,0,0,0,0,0,0,0,0],"sum_hessian":[9.078959E3,5.304143E3,3.7748162E3,3.3749688E3,1.9291744E3,2.1364038E3,1.2385648E3,1.7988412E3,1.3033327E2,1.0591713E3,1.7939351E2,1.4496666E3,3.4917456E2,2.2163754E1,1.0370076E3],"tree_param":{"num_deleted":"0","num_feature":"17","num_nodes":"15","size_leaf_vector":"1"}},{"base_weights":[-6.95548E-2,-9.196603E-2,-3.790474E-2,-0E0,-9.389831E-2,-4.917941E-2,-0E0,-3.6979895E-2,-0E0,-0E0,-5.3137664E-2,-5.619766E-2,-0E0,-2.2876829E-2,-0E0],"categories":[],"categories_nodes":[],"categories_segments":[],"categories_sizes":[],"default_left":[0,0,0,0,1,1,0,0,0,0,0,0,0,0,0],"id":49,"left_children":[1,3,5,-1,7,9,-1,-1,-1,-1,11,13,-1,-1,-1],"loss_changes":[1.6676311E0,7.4347305E-1,2.3222384E0,0E0,3.3568764E-1,9.297824E-1,0E0,0E0,0E0,0E0,4.0244865E-1,5.06897E-1,0E0,0E0,0E0],"parents":[2147483647,0,0,1,1,2,2,4,4,5,5,10,10,11,11],"right_children":[2,4,6,-1,8,10,-1,-1,-1,-1,12,14,-1,-1,-1],"split_conditions":[6.471104E0,5.33856E0,9.27907E-1,-0E0,4.9206896E0,6.483801E0,-0E0,-3.6979895E-2,-0E0,-0E0,2.3661983E0,7.4427695E0,-0E0,-2.2876829E-2,-0E0],"split_indices":[8,8,6,0,6,8,0,0,0,0,9,8,0,0,0],"split_type":[0,0,0,0,0,0,0,0,0,0,0,0,0,0,0],"sum_hessian":[6.4167295E3,3.3419421E3,3.0747876E3,5.2029293E1,3.2899128E3,2.784483E3,2.903045E2,3.2633972E3,2.6515512E1,7.088722E1,2.7135957E3,2.5529746E3,1.6062125E2,2.4900647E3,6.290993E1],"tree_param":{"num_deleted":"0","num_feature":"17","num_nodes":"15","size_leaf_vector":"1"}},{"base_weights":[2.2726739E-2,2.8714493E-2,-2.5157562E-2,1.4873439E-2,4.2327326E-2,-4.03578E-2,-0E0,-0E0,2.5523964E-2,4.915398E-2,-0E0,-0E0,-2.1510974E-2,1.2362292E-2,-1.3919105E-2,1.0543278E-2,-0E0,-0E0,2.0251628E-2,-0E0,9.403444E-3,3.3670496E-2,-6.478471E-4,-0E0,1.9308299E-2],"categories":[],"categories_nodes":[],"categories_segments":[],"categories_sizes":[],"default_left":[0,0,0,0,0,0,0,0,0,0,0,0,0,0,0,0,0,0,0,0,0,0,0,0,0],"id":50,"left_children":[1,3,5,7,9,11,-1,13,15,17,-1,-1,-1,19,-1,-1,-1,-1,-1,21,-1,23,-1,-1,-1],"loss_changes":[6.0767155E0,2.312046E0,1.269809E0,1.2564521E0,1.9514303E0,8.4268355E-1,0E0,1.8023404E0,2.0817733E-1,1.1050148E0,0E0,0E0,0E0,3.8626248E-1,0E0,0E0,0E0,0E0,0E0,3.6152643E-1,0E0,2.3800862E-1,0E0,0E0,0E0],"parents":[2147483647,0,0,1,1,2,2,3,3,4,4,5,5,7,7,8,8,9,9,13,13,19,19,21,21],"right_children":[2,4,6,8,10,12,-1,14,16,18,-1,-1,-1,20,-1,-1,-1,-1,-1,22,-1,24,-1,-1,-1],"split_conditions":[1E0,1E0,5.9864483E0,5.6469774E0,6.0613236E0,5.3737555E0,-0E0,5.555195E0,6.3925557E0,4.8376746E0,-0E0,-0E0,-2.1510974E-2,5.350017E0,-1.3919105E-2,1.0543278E-2,-0E0,-0E0,2.0251628E-2,4.7866173E0,9.403444E-3,4.4665446E0,-6.478471E-4,-0E0,1.9308299E-2],"split_indices":[4,3,10,10,10,10,0,10,10,10,0,0,0,10,0,0,0,0,0,10,0,10,0,0,0],"split_type":[0,0,0,0,0,0,0,0,0,0,0,0,0,0,0,0,0,0,0,0,0,0,0,0,0],"sum_hessian":[2.0900545E4,1.8989465E4,1.9110809E3,1.0226063E4,8.7634E3,1.518863E3,3.9221796E2,4.8286255E3,5.3974375E3,7.3045063E3,1.4588942E3,4.312815E2,1.0875815E3,3.8861135E3,9.4251215E2,5.095414E3,3.0202353E2,3.5032474E2,6.9541816E3,2.2042322E3,1.6818813E3,3.0875345E2,1.8954788E3,7.180957E1,2.3694388E2],"tree_param":{"num_deleted":"0","num_feature":"17","num_nodes":"25","size_leaf_vector":"1"}},{"base_weights":[-3.1143553E-3,2.7352413E-2,-9.349655E-3,3.144424E-2,-0E0,-2.4379045E-2,5.608271E-3,-2.7231168E-2,-0E0,1.6022332E-2,-1.6404713E-2,-3.1914905E-2,-0E0,-0E0,1.06905075E-2,-1.6658748E-2,-0E0,-1.449869E-2,-6.835389E-2,6.795841E-3,-1.0169407E-2,-1.1814061E-2,-0E0,-7.361371E-2,-0E0,-0E0,-3.7616882E-2],"categories":[],"categories_nodes":[],"categories_segments":[],"categories_sizes":[],"default_left":[1,0,0,0,0,0,0,1,0,0,0,0,0,0,0,0,0,0,0,0,0,0,0,0,0,0,0],"id":51,"left_children":[1,3,5,-1,-1,7,9,11,-1,13,15,17,-1,19,-1,-1,-1,21,23,-1,-1,-1,-1,25,-1,-1,-1],"loss_changes":[1.4594052E0,9.969363E-1,2.374455E0,0E0,0E0,4.9580956E-1,8.2643133E-1,3.3395433E-1,0E0,2.504415E-1,2.7373573E-1,5.643382E-1,0E0,6.939659E-1,0E0,0E0,0E0,7.350837E-1,4.142263E-1,0E0,0E0,0E0,0E0,2.113452E-1,0E0,0E0,0E0],"parents":[2147483647,0,0,1,1,2,2,5,5,6,6,7,7,9,9,10,10,11,11,13,13,17,17,18,18,23,23],"right_children":[2,4,6,-1,-1,8,10,12,-1,14,16,18,-1,20,-1,-1,-1,22,24,-1,-1,-1,-1,26,-1,-1,-1],"split_conditions":[-1.2014286E1,5.7916676E1,1E0,3.144424E-2,-0E0,1.2839285E0,9.125474E1,8.684578E1,-0E0,-6.4E-1,-1.4545455E0,7.821229E1,-0E0,-2.7076924E0,1.06905075E-2,-1.6658748E-2,-0E0,6.2475777E1,9.27907E-1,6.795841E-3,-1.0169407E-2,-1.1814061E-2,-0E0,-5.2E0,-0E0,-0E0,-3.7616882E-2],"split_indices":[6,14,3,0,0,6,14,14,0,6,6,14,0,6,0,0,0,14,6,0,0,0,0,6,0,0,0],"split_type":[0,0,0,0,0,0,0,0,0,0,0,0,0,0,0,0,0,0,0,0,0,0,0,0,0,0,0],"sum_hessian":[9.762577E3,1.053576E3,8.709002E3,2.6973486E2,7.838412E2,5.0789653E3,3.6300364E3,4.738296E3,3.406691E2,3.1464097E3,4.8362665E2,3.775962E3,9.623342E2,1.7417916E3,1.4046182E3,2.1666013E2,2.6696655E2,2.9701997E3,8.05762E2,1.3175039E3,4.2428772E2,1.4771959E3,1.4930038E3,7.7041034E2,3.535171E1,3.0125647E2,4.6915387E2],"tree_param":{"num_deleted":"0","num_feature":"17","num_nodes":"27","size_leaf_vector":"1"}},{"base_weights":[-1.8022779E-3,-0E0,-1.6394518E-2,-4.6551146E-4,3.5299584E-2,-2.3330549E-2,-0E0,-0E0,-7.7897967E-3,2.1654777E-2,-0E0,-5.051533E-3,9.586013E-3,1.6391845E-2,-0E0,1.693009E-2,5.9764618E-5,-1.0626434E-2,2.8932711E-2,-0E0,-9.666132E-3,1.482505E-2,-0E0],"categories":[],"categories_nodes":[],"categories_segments":[],"categories_sizes":[],"default_left":[1,0,0,0,1,0,0,0,0,0,0,0,0,0,0,0,0,0,0,0,0,0,0],"id":52,"left_children":[1,3,5,7,9,-1,-1,11,-1,-1,-1,-1,13,15,-1,-1,17,19,21,-1,-1,-1,-1],"loss_changes":[5.843762E-1,8.0865437E-1,5.1963E-1,4.0591055E-1,3.5557908E-1,0E0,0E0,6.9771075E-1,0E0,0E0,0E0,0E0,4.130418E-1,3.601908E-1,0E0,0E0,1.1403476E0,4.067356E-1,2.8123212E-1,0E0,0E0,0E0,0E0],"parents":[2147483647,0,0,1,1,2,2,3,3,4,4,7,7,12,12,13,13,16,16,17,17,18,18],"right_children":[2,4,6,8,10,-1,-1,12,-1,-1,-1,-1,14,16,-1,-1,18,20,22,-1,-1,-1,-1],"split_conditions":[1.9555555E-1,-7.5E-2,3.4E-1,-5.9166664E-1,7.5E-2,-2.3330549E-2,-0E0,-1.0144444E1,-7.7897967E-3,2.1654777E-2,-0E0,-5.051533E-3,1E0,-8.509091E0,-0E0,1.693009E-2,-4.7E0,1E0,-9E-1,-0E0,-9.666132E-3,1.482505E-2,-0E0],"split_indices":[6,6,6,6,6,0,0,6,0,0,0,0,0,6,0,0,6,1,6,0,0,0,0],"split_type":[0,0,0,0,0,0,0,0,0,0,0,0,0,0,0,0,0,0,0,0,0,0,0],"sum_hessian":[1.0019559E4,7.7297363E3,2.2898223E3,7.0875107E3,6.422255E2,3.1207892E2,1.9777433E3,6.0717563E3,1.01575433E3,3.7160855E2,2.70617E2,1.8230082E3,4.2487485E3,2.986655E3,1.2620933E3,6.1223755E2,2.3744175E3,1.1772026E3,1.197215E3,3.032058E2,8.7399677E2,8.8585187E2,3.113631E2],"tree_param":{"num_deleted":"0","num_feature":"17","num_nodes":"23","size_leaf_vector":"1"}},{"base_weights":[-8.9815045E-3,-1.3435562E-2,8.176626E-3,-3.212482E-4,-8.428171E-3,-0E0,1.8895233E-2,-1.8075824E-2,2.6111675E-3,-0E0,-9.979648E-3],"categories":[],"categories_nodes":[],"categories_segments":[],"categories_sizes":[],"default_left":[0,1,0,0,0,0,0,0,0,0,0],"id":53,"left_children":[1,3,5,7,-1,-1,-1,9,-1,-1,-1],"loss_changes":[7.991726E-1,3.8537896E-1,9.356716E-1,7.7010304E-1,0E0,0E0,0E0,4.6630478E-1,0E0,0E0,0E0],"parents":[2147483647,0,0,1,1,2,2,3,3,7,7],"right_children":[2,4,6,8,-1,-1,-1,10,-1,-1,-1],"split_conditions":[1E0,-1.6166667E0,-2.012E0,-8.7975E0,-8.428171E-3,-0E0,1.8895233E-2,-1.46E1,2.6111675E-3,-0E0,-9.979648E-3],"split_indices":[4,6,6,6,0,0,0,6,0,0,0],"split_type":[0,0,0,0,0,0,0,0,0,0,0],"sum_hessian":[8.923819E3,8.107666E3,8.161534E2,4.1530884E3,3.954578E3,3.996607E2,4.1649268E2,2.0656074E3,2.0874807E3,3.2554047E2,1.740067E3],"tree_param":{"num_deleted":"0","num_feature":"17","num_nodes":"11","size_leaf_vector":"1"}},{"base_weights":[-5.7288904E-2,-1.49144605E-2,-8.216089E-2,-5.0206847E-2,-0E0,-0E0,-3.3944227E-2,-3.3544004E-2,-0E0],"categories":[],"categories_nodes":[],"categories_segments":[],"categories_sizes":[],"default_left":[1,0,0,0,0,0,0,0,0],"id":54,"left_children":[1,3,5,7,-1,-1,-1,-1,-1],"loss_changes":[4.459608E0,1.1452465E0,1.3388615E0,3.4523046E-1,0E0,0E0,0E0,0E0,0E0],"parents":[2147483647,0,0,1,1,2,2,3,3],"right_children":[2,4,6,8,-1,-1,-1,-1,-1],"split_conditions":[1.635E3,1.253E3,-1.1622756E1,-1.4084393E0,-0E0,-0E0,-3.3944227E-2,-3.3544004E-2,-0E0],"split_indices":[12,12,13,9,0,0,0,0,0],"split_type":[0,0,0,0,0,0,0,0,0],"sum_hessian":[6.2667324E3,2.6495552E3,3.6171775E3,6.831179E2,1.9664373E3,2.178459E2,3.3993315E3,2.7579446E2,4.073235E2],"tree_param":{"num_deleted":"0","num_feature":"17","num_nodes":"9","size_leaf_vector":"1"}},{"base_weights":[1.8498082E-2,4.771719E-3,6.005745E-2,1.5142511E-2,-3.1832727E-3,-0E0,6.190248E-2,-0E0,2.1501666E-2,4.369574E-3,-1.7033476E-2,2.5324108E-2,-0E0,-2.7627585E-2,-0E0,2.5467379E-2,-0E0,1.8515227E-2,-0E0,-3.315232E-2,-0E0,-0E0,-1.9580912E-2,1.7936898E-2,-0E0,-0E0,2.9679516E-2,-0E0,6.463548E-2,-1.1494495E-2,-0E0,-0E0,-1.808336E-2,1.2082779E-2,-0E0,-0E0,2.7574524E-2,1.1500636E-2,-4.5464076E-3,-0E0,7.6949494E-3],"categories":[],"categories_nodes":[],"categories_segments":[],"categories_sizes":[],"default_left":[1,0,1,1,0,0,0,0,0,0,0,0,0,0,0,0,0,0,0,0,0,0,0,0,0,0,0,0,0,0,0,0,0,0,0,0,0,0,0,0,0],"id":55,"left_children":[1,3,5,7,9,-1,11,13,15,17,19,-1,-1,21,23,25,-1,27,29,31,-1,-1,-1,-1,-1,-1,33,-1,35,-1,37,-1,-1,-1,-1,-1,-1,39,-1,-1,-1],"loss_changes":[1.0504446E1,1.5956898E0,9.53537E-1,1.1989416E0,1.1098017E0,0E0,8.7485504E-1,5.149105E-1,4.0891933E-1,4.8769248E-1,7.1424115E-1,0E0,0E0,8.0440027E-1,7.585557E-1,4.932549E-1,0E0,1.9439886E0,3.2517228E-1,6.8763566E-1,0E0,0E0,0E0,0E0,0E0,0E0,3.372922E-1,0E0,3.9642096E-1,0E0,2.7776283E-1,0E0,0E0,0E0,0E0,0E0,0E0,2.974819E-1,0E0,0E0,0E0],"parents":[2147483647,0,0,1,1,2,2,3,3,4,4,6,6,7,7,8,8,9,9,10,10,13,13,14,14,15,15,17,17,18,18,19,19,26,26,28,28,30,30,37,37],"right_children":[2,4,6,8,10,-1,12,14,16,18,20,-1,-1,22,24,26,-1,28,30,32,-1,-1,-1,-1,-1,-1,34,-1,36,-1,38,-1,-1,-1,-1,-1,-1,40,-1,-1,-1],"split_conditions":[8.553775E1,1E0,5.33856E0,6.0617647E0,6.4636235E0,-0E0,7.195312E0,6.069555E1,7.8024704E1,6.2475777E1,6.3891613E1,2.5324108E-2,-0E0,3.544246E1,7.0481895E1,4.007627E1,-0E0,5.4179836E1,6.640814E1,6.6187277E0,-0E0,-0E0,-1.9580912E-2,1.7936898E-2,-0E0,-0E0,7.6412773E0,-0E0,5.504443E0,-1.1494495E-2,8.409628E1,-0E0,-1.808336E-2,1.2082779E-2,-0E0,-0E0,2.7574524E-2,5.940371E0,-4.5464076E-3,-0E0,7.6949494E-3],"split_indices":[14,2,8,8,8,0,8,14,14,14,14,0,0,14,14,14,0,14,14,8,0,0,0,0,0,0,8,0,8,0,14,0,0,0,0,0,0,8,0,0,0],"split_type":[0,0,0,0,0,0,0,0,0,0,0,0,0,0,0,0,0,0,0,0,0,0,0,0,0,0,0,0,0,0,0,0,0,0,0,0,0,0,0,0,0],"sum_hessian":[2.092143E4,1.6131188E4,4.790242E3,8.205473E3,7.9257163E3,3.2777367E1,4.757465E3,1.5453114E3,6.660161E3,4.099284E3,3.8264324E3,4.5305454E3,2.2691905E2,6.6908984E2,8.762216E2,5.376345E3,1.2838156E3,1.6457258E3,2.453558E3,1.6559203E3,2.1705122E3,1.5124036E2,5.178495E2,3.530913E2,5.231303E2,8.5923364E2,4.517112E3,1.0504197E3,5.9530615E2,3.6881833E2,2.08474E3,4.9228268E2,1.1636376E3,4.49627E3,2.0841644E1,1.9423597E1,5.758825E2,1.9339854E3,1.5075456E2,5.1643445E2,1.4175509E3],"tree_param":{"num_deleted":"0","num_feature":"17","num_nodes":"41","size_leaf_vector":"1"}},{"base_weights":[2.952121E-4,7.1785594E-3,-3.860043E-2,-3.0440902E-3,2.1279754E-2,-2.0951182E-2,-0E0,-1.5153462E-2,3.288484E-2,-0E0,3.0184442E-2,-0E0,-4.8881475E-2,-0E0,4.4268917E-2,3.503451E-2,-0E0,-1.05440635E-2,1.1131997E-2,-2.1485243E-2,-0E0,1.9446362E-2,-0E0,1.4241899E-2,-0E0,3.384455E-3,-2.980946E-2,-3.3971284E-2,-0E0,-0E0,-1.5131199E-2],"categories":[],"categories_nodes":[],"categories_segments":[],"categories_sizes":[],"default_left":[1,0,0,0,0,0,0,0,1,0,0,0,0,0,0,1,0,0,0,0,0,0,0,0,0,0,1,0,0,0,0],"id":56,"left_children":[1,3,5,7,9,-1,-1,11,13,-1,15,17,19,-1,21,23,-1,25,-1,-1,-1,-1,-1,-1,-1,-1,27,29,-1,-1,-1],"loss_changes":[1.9060388E0,1.6620996E0,8.451024E-1,1.420943E0,6.022763E-1,0E0,0E0,1.389504E0,4.6604764E-1,0E0,7.943046E-1,6.3967514E-1,4.973185E-1,0E0,2.4085689E-1,2.0431924E-1,0E0,1.2725176E0,0E0,0E0,0E0,0E0,0E0,0E0,0E0,0E0,3.3061182E-1,2.4778903E-1,0E0,0E0,0E0],"parents":[2147483647,0,0,1,1,2,2,3,3,4,4,7,7,8,8,10,10,11,11,12,12,14,14,15,15,17,17,26,26,27,27],"right_children":[2,4,6,8,10,-1,-1,12,14,-1,16,18,20,-1,22,24,-1,26,-1,-1,-1,-1,-1,-1,-1,-1,28,30,-1,-1,-1],"split_conditions":[3.1181189E1,1E0,6.036471E0,6.1391716E0,5.500049E0,-2.0951182E-2,-0E0,5.8404045E0,-2.5949278E1,-0E0,6.4834313E0,5.721033E0,2.8702213E1,-0E0,6.636705E0,2.9596209E1,-0E0,-1.528568E0,1.1131997E-2,-2.1485243E-2,-0E0,1.9446362E-2,-0E0,1.4241899E-2,-0E0,3.384455E-3,2.7663E1,4.934246E0,-0E0,-0E0,-1.5131199E-2],"split_indices":[13,1,10,10,10,0,0,10,13,0,10,10,13,0,10,13,0,13,0,0,0,0,0,0,0,0,13,10,0,0,0],"split_type":[0,0,0,0,0,0,0,0,0,0,0,0,0,0,0,0,0,0,0,0,0,0,0,0,0,0,0,0,0,0,0],"sum_hessian":[9.700283E3,8.728051E3,9.722329E2,4.15432E3,4.5737305E3,7.921066E2,1.8012628E2,3.5692888E3,5.8503125E2,1.64226E3,2.9314707E3,2.6497222E3,9.195665E2,2.6860079E1,5.581712E2,2.8217195E3,1.0975129E2,2.1665002E3,4.83222E2,8.866398E2,3.2926723E1,5.3565936E2,2.2511847E1,2.7498726E3,7.184687E1,5.120858E2,1.6544143E3,1.559093E3,9.532129E1,2.004947E2,1.3585984E3],"tree_param":{"num_deleted":"0","num_feature":"17","num_nodes":"31","size_leaf_vector":"1"}},{"base_weights":[-0E0,-5.5655703E-2,4.9819103E-3,-0E0,-6.097135E-2,1.5162996E-2,-2.8590836E-2,-6.522835E-2,-0E0,2.0938164E-2,-1.2937833E-2,-3.433595E-2,-0E0,-2.7718902E-2,-0E0,2.402075E-2,-0E0,-0E0,-6.3089564E-2,6.0818256E-3,1.40722105E-2,-2.6568463E-2,-0E0,2.985607E-2,-1.0228435E-2,-0E0,3.5405822E-2,-0E0,-2.1287462E-2,5.9994303E-2,-0E0,-1.4578037E-2,-0E0,-0E0,7.191371E-2,-0E0,3.246392E-2,3.0744243E-2,-0E0,-0E0,6.543252E-2,3.3560924E-2,-0E0],"categories":[],"categories_nodes":[],"categories_segments":[],"categories_sizes":[],"default_left":[0,0,0,0,0,0,0,0,0,0,0,0,0,0,0,0,0,0,0,0,0,0,0,0,0,0,0,0,0,0,0,0,0,0,0,0,0,0,0,0,0,0,0],"id":57,"left_children":[1,3,5,-1,7,9,11,13,-1,15,-1,17,-1,-1,-1,19,-1,-1,21,23,-1,-1,-1,25,27,-1,29,-1,31,33,35,-1,-1,-1,37,-1,39,-1,-1,-1,41,-1,-1],"loss_changes":[2.8768315E0,4.4212914E-1,2.824634E0,0E0,3.606317E-1,1.8299588E0,4.1798246E-1,2.739296E-1,0E0,7.8965116E-1,0E0,3.7329686E-1,0E0,0E0,0E0,5.341759E-1,0E0,0E0,2.5728106E-1,1.7800329E0,0E0,0E0,0E0,5.049708E-1,3.3965042E-1,0E0,5.952208E-1,0E0,3.664007E-1,7.704778E-1,3.949652E-1,0E0,0E0,0E0,3.8389015E-1,0E0,5.262059E-1,0E0,0E0,0E0,5.0186276E-1,0E0,0E0],"parents":[2147483647,0,0,1,1,2,2,4,4,5,5,6,6,7,7,9,9,11,11,15,15,18,18,19,19,23,23,24,24,26,26,28,28,29,29,30,30,34,34,36,36,40,40],"right_children":[2,4,6,-1,8,10,12,14,-1,16,-1,18,-1,-1,-1,20,-1,-1,22,24,-1,-1,-1,26,28,-1,30,-1,32,34,36,-1,-1,-1,38,-1,40,-1,-1,-1,42,-1,-1],"split_conditions":[-2.3819818E0,7.4276334E-1,4.67812E1,-0E0,9.800687E-1,2.6125243E0,7.227184E1,4.67812E1,-0E0,1.0054235E0,-1.2937833E-2,5.8425114E1,-0E0,-2.7718902E-2,-0E0,-1.3528767E0,-0E0,-0E0,1.0377995E0,-1.797098E0,1.40722105E-2,-2.6568463E-2,-0E0,8.013905E-1,5.411346E0,-0E0,8.903771E-1,-0E0,2.7266594E1,-1.25855465E1,9.3856484E-1,-1.4578037E-2,-0E0,-0E0,-1.8442365E0,-0E0,-2.0846379E0,3.0744243E-2,-0E0,-0E0,-1.8249035E0,3.3560924E-2,-0E0],"split_indices":[9,11,15,0,11,9,15,15,0,11,0,15,0,0,0,9,0,0,11,9,0,0,0,11,15,0,11,0,15,15,11,0,0,0,9,0,9,0,0,0,9,0,0],"split_type":[0,0,0,0,0,0,0,0,0,0,0,0,0,0,0,0,0,0,0,0,0,0,0,0,0,0,0,0,0,0,0,0,0,0,0,0,0,0,0,0,0,0,0],"sum_hessian":[9.969169E3,8.501212E2,9.119048E3,2.3757292E1,8.263639E2,7.504274E3,1.6147738E3,8.06086E2,2.027793E1,7.114352E3,3.8992178E2,1.4724576E3,1.4231622E2,7.3227966E2,7.380631E1,6.7727754E3,3.4157672E2,9.4640906E2,5.260485E2,3.4626252E3,3.31015E3,5.058075E2,2.0241049E1,1.9581013E3,1.504524E3,1.6450916E2,1.7935922E3,4.118876E2,1.0926365E3,7.8645337E2,1.0071388E3,6.128631E2,4.7977335E2,9.178987E1,6.9466345E2,6.3788513E2,3.6925363E2,6.3892944E2,5.5734062E1,1.5960742E2,2.0964622E2,1.866517E2,2.2994516E1],"tree_param":{"num_deleted":"0","num_feature":"17","num_nodes":"43","size_leaf_vector":"1"}},{"base_weights":[-9.083786E-3,-0E0,-1.1583935E-2,-1.4517986E-2,-0E0,-6.4487807E-3,-4.0178902E-2,-0E0,-3.6852576E-2,-5.2547682E-2,-0E0,-5.3279907E-2,-0E0,-0E0,-2.2536565E-2,-7.53267E-2,-0E0,-0E0,-7.968041E-2,-0E0,-3.3166368E-2],"categories":[],"categories_nodes":[],"categories_segments":[],"categories_sizes":[],"default_left":[1,0,0,0,0,1,1,0,0,0,0,0,0,0,0,0,0,0,0,0,0],"id":58,"left_children":[1,-1,3,5,-1,7,9,-1,11,13,-1,15,-1,-1,-1,17,-1,-1,19,-1,-1],"loss_changes":[4.1205847E-1,0E0,3.844825E-1,4.7356677E-1,0E0,1.2188629E0,7.267021E-1,0E0,1.240974E0,4.3089914E-1,0E0,4.8176455E-1,0E0,0E0,0E0,2.3047304E-1,0E0,0E0,3.1170535E-1,0E0,0E0],"parents":[2147483647,0,0,2,2,3,3,5,5,6,6,8,8,9,9,11,11,15,15,18,18],"right_children":[2,-1,4,6,-1,8,10,-1,12,14,-1,16,-1,-1,-1,18,-1,-1,20,-1,-1],"split_conditions":[-1.46E1,-0E0,5.903846E-1,2.4489796E-2,-0E0,6.8588176E0,6.8641543E0,-0E0,-3.5E-1,5.53938E0,-0E0,7.0852633E0,-0E0,-0E0,-2.2536565E-2,-1.3271428E1,-0E0,-0E0,6.8641543E0,-0E0,-3.3166368E-2],"split_indices":[6,0,6,6,0,8,8,0,6,8,0,8,0,0,0,6,0,0,8,0,0],"split_type":[0,0,0,0,0,0,0,0,0,0,0,0,0,0,0,0,0,0,0,0,0],"sum_hessian":[8.905725E3,3.6073572E2,8.544989E3,7.2623135E3,1.2826755E3,6.1850464E3,1.0772672E3,5.1035264E3,1.0815198E3,8.907036E2,1.8656361E2,9.5170166E2,1.298181E2,2.6100986E1,8.6460266E2,5.5828735E2,3.9341434E2,2.3627314E1,5.3466003E2,2.2876745E1,5.117833E2],"tree_param":{"num_deleted":"0","num_feature":"17","num_nodes":"21","size_leaf_vector":"1"}},{"base_weights":[-4.82007E-2,-9.088142E-2,-0E0,-1.0168273E-1,-0E0,-5.5378755E-3,3.0546525E-2,-1.0403416E-1,-0E0,-3.004256E-2,1.9844608E-2,1.5086744E-2,-0E0,-1.4149281E-1,-5.962726E-2,-4.765202E-2,-0E0,-0E0,1.625786E-2,-0E0,-5.6153934E-2,-0E0,-2.5072655E-2,-0E0,-2.2742974E-2],"categories":[],"categories_nodes":[],"categories_segments":[],"categories_sizes":[],"default_left":[0,0,1,0,0,0,0,0,0,0,0,0,0,0,0,0,0,0,0,0,0,0,0,0,0],"id":59,"left_children":[1,3,5,7,-1,9,11,13,-1,15,17,-1,-1,19,21,23,-1,-1,-1,-1,-1,-1,-1,-1,-1],"loss_changes":[1.3606545E1,3.6366653E0,7.517885E-1,7.09816E-1,0E0,1.4816759E0,2.8594565E-1,4.517975E-1,0E0,1.6711886E0,2.9498345E-1,0E0,0E0,5.016327E-1,5.285177E-1,2.8020334E-1,0E0,0E0,0E0,0E0,0E0,0E0,0E0,0E0,0E0],"parents":[2147483647,0,0,1,1,2,2,3,3,5,5,6,6,7,7,9,9,10,10,13,13,14,14,15,15],"right_children":[2,4,6,8,-1,10,12,14,-1,16,18,-1,-1,20,22,24,-1,-1,-1,-1,-1,-1,-1,-1,-1],"split_conditions":[8.64E1,1E0,6.708266E0,7.3439198E0,-0E0,8.96E1,7.2141614E0,8.36E1,-0E0,1E0,6.335296E0,1.5086744E-2,-0E0,5.33856E0,8.38E1,6.0617647E0,-0E0,-0E0,1.625786E-2,-0E0,-5.6153934E-2,-0E0,-2.5072655E-2,-0E0,-2.2742974E-2],"split_indices":[5,4,8,8,0,5,8,5,0,4,8,0,0,8,5,8,0,0,0,0,0,0,0,0,0],"split_type":[0,0,0,0,0,0,0,0,0,0,0,0,0,0,0,0,0,0,0,0,0,0,0,0,0],"sum_hessian":[6.10348E3,3.3602915E3,2.7431885E3,3.034932E3,3.2535947E2,2.009219E3,7.339695E2,2.9646252E3,7.030673E1,1.4645275E3,5.446915E2,6.466493E2,8.7320244E1,1.3317822E3,1.632843E3,1.3147699E3,1.4975758E2,2.5577861E2,2.8891293E2,2.1718773E1,1.3100635E3,1.0114256E2,1.5317004E3,3.5632385E2,9.58446E2],"tree_param":{"num_deleted":"0","num_feature":"17","num_nodes":"25","size_leaf_vector":"1"}},{"base_weights":[1.0711757E-2,3.03175E-2,-2.1740222E-2,3.1163624E-1,-0E0,-8.009505E-2,2.2265616E-1,1.6697413E-1,1.7663401E-1,7.3498145E-2,-2.590708E-2,4.391525E-2,-9.9867776E-2,1.0047134E-1,1.4550626E-1,2.254233E-1,-0E0,2.627511E-1,-4.8649356E-2,-5.099411E-2,3.436457E-2,7.444272E-2,-5.287319E-2,-1.2410824E-1,2.6275111E-2,-0E0,1.02024816E-1,9.085744E-2,-0E0,3.8752654E-1,1.297566E-1,-0E0,-8.969682E-2,1.1648179E-1,-8.569486E-2,-4.9793445E-2,2.550782E-1,-0E0,-7.9510026E-2,-6.9040195E-3,-1.3881925E-1,-8.644221E-3,7.658056E-2,1.5588103E-1,-0E0,7.7156246E-2,-0E0,2.0516027E-2,-0E0,-0E0,-1.18524626E-1,3.1471252E-1,-1.2463899E-1,-1.0465121E-1,-0E0,-1.1382219E-1,3.8486436E-2,-0E0,2.6327947E-1,-3.6149938E-2,-0E0,-0E0,-2.606428E-2,-1.4485483E-1,-0E0,-0E0,6.486991E-2,-1.24524824E-1,-0E0,3.4811726E-1,-0E0,-0E0,-1.5713872E-1,-0E0,-1.2076113E-1,-1.513784E-1,1.5380059E-1,-1.6436473E-1,-0E0,-0E0,1.762759E-1,-0E0,2.7263063E-1,-3.8282875E-2,-0E0,-3.677762E-2,-1.6312349E-1,-0E0,-1.5274812E-1,3.5765925E-1,-0E0,-0E0,-1.7665163E-1,4.9513847E-2,-8.541759E-2,-1.3828918E-1,-2.9681291E-2,-1.7296103E-1,-0E0,-0E0,6.799876E-2,-6.667241E-2,-0E0,7.558894E-2,-0E0,1.0844452E-1,-0E0,-0E0,-1.8085614E-2,4.0055517E-4,-6.8374656E-2,-1.8447101E-1,-3.9124567E-2,-0E0,-1.7250463E-2,-6.1837774E-2,-0E0,1.4481382E-1,-0E0,-0E0,-8.279548E-2,4.9144346E-2,-0E0,-0E0,-1.11890376E-1,-0E0,-1.4301713E-1,-1.4541925E-1,1.0472719E-2,-0E0,-7.2296925E-2,1.4778838E-2,-0E0,-1.8789409E-1,-0E0,-9.753312E-2,-0E0,-4.9754057E-2,-0E0,-0E0,-1.444113E-1,-0E0,-6.736E-2,-2.3930363E-2,-7.889794E-2,-4.1685868E-2,-0E0,-5.6771018E-2,-0E0,-4.824224E-2,-0E0,-0E0,-2.2995517E-2],"categories":[],"categories_nodes":[],"categories_segments":[],"categories_sizes":[],"default_left":[0,0,0,0,0,0,0,0,0,0,0,0,0,0,0,1,0,0,0,0,0,0,0,0,0,0,0,0,0,0,0,0,0,0,0,0,0,0,0,0,1,0,0,0,0,0,0,0,0,0,1,0,0,0,0,0,0,0,0,0,0,0,0,0,0,0,0,0,0,0,0,0,1,0,0,1,0,1,0,0,0,0,0,0,0,0,0,0,0,0,0,0,0,0,0,0,0,0,0,0,0,0,0,0,0,0,0,0,0,0,0,0,0,0,0,0,0,0,0,0,0,0,0,0,1,0,0,0,0,0,0,0,0,0,0,1,0,0,0,0,1,0,0,0,0,0,0,0,0,0,0,0,0],"id":60,"left_children":[1,3,5,7,9,11,13,-1,15,17,19,21,23,25,-1,27,-1,29,31,33,35,-1,37,39,41,-1,-1,-1,-1,43,45,47,49,51,53,55,57,-1,59,61,63,-1,65,-1,-1,-1,-1,-1,-1,-1,67,69,71,73,75,77,79,-1,81,-1,-1,-1,83,85,-1,-1,-1,87,-1,89,-1,-1,91,93,95,97,99,101,-1,-1,103,-1,105,107,-1,109,111,113,115,117,-1,-1,119,121,123,125,127,129,-1,-1,-1,-1,-1,-1,-1,-1,-1,-1,-1,131,-1,133,135,-1,-1,-1,-1,-1,-1,-1,-1,-1,-1,-1,137,-1,139,141,-1,-1,-1,-1,-1,143,-1,145,-1,-1,-1,-1,147,-1,-1,149,-1,-1,-1,-1,-1,151,-1,-1,-1],"loss_changes":[1.342128E1,1.10392654E2,1.0261638E2,6.0968704E0,2.3684895E1,1.6114494E1,1.426992E1,0E0,3.9781399E0,8.073546E1,1.37587E1,1.2823527E1,1.8630447E1,9.531891E0,0E0,5.9345436E-1,0E0,1.0870644E1,5.643153E0,3.720842E1,4.817327E1,0E0,7.042989E-1,4.8122177E0,2.9777606E0,0E0,0E0,0E0,0E0,1.2178421E0,4.151726E0,8.786961E-1,5.336669E0,5.2711155E1,9.046619E0,1.0903142E1,4.9515915E-1,0E0,3.61534E-1,3.456503E-1,3.8340988E0,0E0,2.4621983E0,0E0,0E0,0E0,0E0,0E0,0E0,0E0,1.2770414E0,5.0525284E-1,2.612495E0,6.8166084E0,2.3255009E1,6.9726305E0,4.4409213E0,0E0,3.398056E-1,0E0,0E0,0E0,3.8855165E-1,3.117302E0,0E0,0E0,0E0,5.783329E-1,0E0,6.480484E-1,0E0,0E0,1.1867065E0,3.0648654E0,2.4295158E0,2.481329E0,9.333277E-1,1.123064E0,0E0,0E0,3.5469437E-1,0E0,4.7766495E-1,3.091787E-1,0E0,7.65498E0,3.2310638E0,3.3051962E-1,3.858509E-1,9.7294235E-1,0E0,0E0,2.8616524E-1,1.0466855E0,3.9350152E-1,8.2795715E-1,8.0931E0,1.065875E0,0E0,0E0,0E0,0E0,0E0,0E0,0E0,0E0,0E0,0E0,0E0,3.6833635E-1,0E0,2.0524216E0,3.5511372E0,0E0,0E0,0E0,0E0,0E0,0E0,0E0,0E0,0E0,0E0,0E0,3.688786E-1,0E0,7.461586E-1,1.7189503E0,0E0,0E0,0E0,0E0,0E0,7.902298E-1,0E0,4.0218973E-1,0E0,0E0,0E0,0E0,2.11483E-1,0E0,0E0,4.4717196E-1,0E0,0E0,0E0,0E0,0E0,2.4626833E-1,0E0,0E0,0E0],"parents":[2147483647,0,0,1,1,2,2,3,3,4,4,5,5,6,6,8,8,9,9,10,10,11,11,12,12,13,13,15,15,17,17,18,18,19,19,20,20,22,22,23,23,24,24,29,29,30,30,31,31,32,32,33,33,34,34,35,35,36,36,38,38,39,39,40,40,42,42,50,50,51,51,52,52,53,53,54,54,55,55,56,56,58,58,62,62,63,63,67,67,69,69,72,72,73,73,74,74,75,75,76,76,77,77,80,80,82,82,83,83,85,85,86,86,87,87,88,88,89,89,92,92,93,93,94,94,95,95,96,96,97,97,109,109,111,111,112,112,124,124,126,126,127,127,133,133,135,135,140,140,143,143,149,149],"right_children":[2,4,6,8,10,12,14,-1,16,18,20,22,24,26,-1,28,-1,30,32,34,36,-1,38,40,42,-1,-1,-1,-1,44,46,48,50,52,54,56,58,-1,60,62,64,-1,66,-1,-1,-1,-1,-1,-1,-1,68,70,72,74,76,78,80,-1,82,-1,-1,-1,84,86,-1,-1,-1,88,-1,90,-1,-1,92,94,96,98,100,102,-1,-1,104,-1,106,108,-1,110,112,114,116,118,-1,-1,120,122,124,126,128,130,-1,-1,-1,-1,-1,-1,-1,-1,-1,-1,-1,132,-1,134,136,-1,-1,-1,-1,-1,-1,-1,-1,-1,-1,-1,138,-1,140,142,-1,-1,-1,-1,-1,144,-1,146,-1,-1,-1,-1,148,-1,-1,150,-1,-1,-1,-1,-1,152,-1,-1,-1],"split_conditions":[5.283886E-1,-1.9891342E0,-1.023824E0,1.6892244E-1,-1.3528767E0,-2.638757E0,1.1253927E0,1.6697413E-1,-2.1049893E0,-1.6663888E-1,2.0150676E0,1.5567446E0,1.74556E0,1.2678125E0,1.4550626E-1,2.414E3,-0E0,-5.4718E-1,-1.7688642E0,-1.0456988E0,-7.085907E-1,7.444272E-2,-3.331503E0,1.273E3,-2.4253552E0,-0E0,1.02024816E-1,9.085744E-2,-0E0,2.287E3,-1.5482574E0,1.9875574E-1,1.323E3,-2.6380166E-1,1.6843442E0,2.835677E0,2.0348055E0,-0E0,-2.670393E0,-2.1151628E0,2.304E3,-8.644221E-3,2.1764243E0,1.5588103E-1,-0E0,7.7156246E-2,-0E0,2.0516027E-2,-0E0,-0E0,2.322E3,-6.003036E-1,-2.0234423E0,-7.3370767E-1,-2.9381022E-1,-1.0055919E0,-1.5082355E0,-0E0,-6.677792E-1,-3.6149938E-2,-0E0,-0E0,-1.1302401E0,-2.345097E0,-0E0,-0E0,6.486991E-2,3.756854E-2,-0E0,2.471E3,-0E0,-0E0,9.61E2,-8.6652523E-1,1.2506866E0,2.158E3,-1.8752009E-1,2.2E3,-0E0,-0E0,2.113E3,-0E0,2.235E3,6.62E2,-0E0,1.2161577E0,-1.5482574E0,-1.5406113E0,4.9523523E-1,-1.0674591E0,-0E0,-0E0,-1.4673294E0,1.638E3,1.379E3,-6.677792E-1,-8.600463E-2,1.166E3,-0E0,-0E0,6.799876E-2,-6.667241E-2,-0E0,7.558894E-2,-0E0,1.0844452E-1,-0E0,-0E0,-1.8085614E-2,9.2731136E-1,-6.8374656E-2,1.7111105E0,1.1341747E0,-0E0,-1.7250463E-2,-6.1837774E-2,-0E0,1.4481382E-1,-0E0,-0E0,-8.279548E-2,4.9144346E-2,-0E0,-0E0,2.244E3,-0E0,4.98E2,1.392E3,1.0472719E-2,-0E0,-7.2296925E-2,1.4778838E-2,-0E0,1.415E3,-0E0,2.088E3,-0E0,-4.9754057E-2,-0E0,-0E0,2.471E3,-0E0,-6.736E-2,1.392E3,-7.889794E-2,-4.1685868E-2,-0E0,-5.6771018E-2,-0E0,6.087154E-1,-0E0,-0E0,-2.2995517E-2],"split_indices":[7,9,9,7,9,9,9,0,9,7,9,7,7,7,0,12,0,7,9,7,7,0,9,12,9,0,0,0,0,12,9,7,12,9,9,9,9,0,9,9,12,0,7,0,0,0,0,0,0,0,12,9,7,7,7,7,7,0,7,0,0,0,9,9,0,0,0,7,0,12,0,0,12,9,9,12,7,12,0,0,12,0,12,12,0,7,9,9,7,7,0,0,7,12,12,7,7,12,0,0,0,0,0,0,0,0,0,0,0,7,0,7,7,0,0,0,0,0,0,0,0,0,0,0,12,0,12,12,0,0,0,0,0,12,0,12,0,0,0,0,12,0,0,12,0,0,0,0,0,7,0,0,0],"split_type":[0,0,0,0,0,0,0,0,0,0,0,0,0,0,0,0,0,0,0,0,0,0,0,0,0,0,0,0,0,0,0,0,0,0,0,0,0,0,0,0,0,0,0,0,0,0,0,0,0,0,0,0,0,0,0,0,0,0,0,0,0,0,0,0,0,0,0,0,0,0,0,0,0,0,0,0,0,0,0,0,0,0,0,0,0,0,0,0,0,0,0,0,0,0,0,0,0,0,0,0,0,0,0,0,0,0,0,0,0,0,0,0,0,0,0,0,0,0,0,0,0,0,0,0,0,0,0,0,0,0,0,0,0,0,0,0,0,0,0,0,0,0,0,0,0,0,0,0,0,0,0,0,0],"sum_hessian":[2.0785525E4,1.3381896E4,7.4036294E3,1.2578893E3,1.2124007E4,6.0525386E3,1.3510911E3,5.809507E2,6.7693866E2,3.2793772E3,8.84463E3,6.777875E2,5.374751E3,8.316526E2,5.194385E2,4.917826E2,1.8515604E2,1.3547856E3,1.9245914E3,6.5045454E3,2.3400847E3,3.5762E2,3.2016748E2,4.65534E3,7.1941095E2,5.744018E2,2.5725076E2,4.710179E2,2.0764668E1,6.078632E2,7.469224E2,6.609177E2,1.2636737E3,1.00493396E3,5.4996113E3,1.6247573E3,7.153274E2,7.02526E1,2.4991487E2,6.874995E2,3.9678406E3,1.4438632E2,5.750246E2,5.7869305E2,2.9170147E1,4.2423358E2,3.2268887E2,3.1201016E2,3.4890756E2,1.6242003E2,1.1012537E3,6.0086926E2,4.040647E2,4.511897E3,9.8771466E2,1.0858248E3,5.3893256E2,3.7065758E1,6.782616E2,2.2450401E2,2.5410864E1,1.3558694E2,5.5191254E2,3.8263533E3,1.4148737E2,3.684871E2,2.0653754E2,1.0795209E3,2.1732819E1,4.9424802E2,1.06621284E2,4.609741E1,3.579673E2,6.574515E2,3.8544453E3,4.9457196E2,4.9314273E2,7.75938E2,3.0988684E2,3.7557138E2,1.6336116E2,4.153025E1,6.367314E2,5.1799335E2,3.3919212E1,7.3048254E2,3.0958706E3,3.3913254E2,7.403883E2,4.730037E2,2.1244324E1,3.7835854E1,3.2013144E2,3.686033E2,2.8884814E2,3.0266152E3,8.278302E2,4.604997E2,3.4072258E1,7.995273E1,4.1319E2,7.552598E2,2.067817E1,1.4361482E2,1.974635E1,6.180453E2,1.8686075E1,2.2971846E1,4.9502148E2,4.5456583E2,2.759167E2,2.4869106E3,6.089601E2,1.757092E2,1.6342332E2,7.020542E2,3.833413E1,4.454941E2,2.7509567E1,9.382649E1,2.2630495E2,1.18165985E2,2.5043732E2,9.1378914E1,1.9746922E2,1.5668254E2,2.8699326E3,3.9704077E2,4.307894E2,2.9326069E1,4.311736E2,2.5103897E2,2.0352686E2,2.4550586E3,3.1852003E1,4.66672E2,1.4228809E2,1.7328893E2,2.418031E1,1.9472815E1,2.8504597E3,5.9579384E1,3.374614E2,3.2335577E2,2.131703E3,4.2283893E2,4.3833046E1,2.8152131E3,3.5246662E1,2.6755234E2,5.5803432E1,1.9439867E1,2.4811247E2],"tree_param":{"num_deleted":"0","num_feature":"17","num_nodes":"153","size_leaf_vector":"1"}},{"base_weights":[6.631797E-4,-1.3210126E-2,1.0089071E-2,-0E0,-2.0611595E-2,6.348058E-2,-0E0,-9.0437755E-3,-0E0,-0E0,8.707462E-2,-8.301223E-3,2.232309E-2,4.7413245E-2,-0E0,-0E0,-4.591491E-2,-0E0,3.1668916E-2,-2.1851301E-2,-0E0,-0E0,4.8649374E-2,2.3434332E-2,-0E0],"categories":[],"categories_nodes":[],"categories_segments":[],"categories_sizes":[],"default_left":[0,1,0,0,0,0,0,0,0,0,1,0,0,0,0,0,0,0,0,0,0,0,0,0,0],"id":61,"left_children":[1,3,5,-1,7,9,11,-1,-1,-1,13,15,17,-1,-1,-1,19,-1,21,-1,-1,-1,23,-1,-1],"loss_changes":[1.201162E0,4.3993866E-1,2.2394693E0,0E0,2.2595453E-1,1.0595479E0,1.4211067E0,0E0,0E0,0E0,9.263897E-1,1.4097579E0,8.4842145E-1,0E0,0E0,0E0,3.4711647E-1,0E0,9.7361565E-1,0E0,0E0,0E0,6.602335E-1,0E0,0E0],"parents":[2147483647,0,0,1,1,2,2,4,4,5,5,6,6,10,10,11,11,12,12,16,16,18,18,22,22],"right_children":[2,4,6,-1,8,10,12,-1,-1,-1,14,16,18,-1,-1,-1,20,-1,22,-1,-1,-1,24,-1,-1],"split_conditions":[8.41E1,-9.15E0,8.48E1,-0E0,2.7E0,-8.3E0,-5.6666666E-1,-9.0437755E-3,-0E0,-0E0,5.6E-2,-2.7076924E0,8.56E1,4.7413245E-2,-0E0,-0E0,8.95E1,-0E0,1E0,-2.1851301E-2,-0E0,-0E0,8.98E1,2.3434332E-2,-0E0],"split_indices":[5,6,5,0,6,6,6,0,0,0,6,6,5,0,0,0,5,0,1,0,0,0,5,0,0],"split_type":[0,0,0,0,0,0,0,0,0,0,0,0,0,0,0,0,0,0,0,0,0,0,0,0,0],"sum_hessian":[9.701472E3,2.975911E3,6.725561E3,7.212203E2,2.2546907E3,7.202418E2,6.0053193E3,2.200295E3,5.4395725E1,2.002734E2,5.199684E2,3.666871E3,2.3384482E3,3.2672897E2,1.9323943E2,2.8836323E3,7.8323883E2,3.3336606E2,2.005082E3,6.347363E2,1.4850249E2,7.4722864E2,1.2578534E3,1.00547235E3,2.523811E2],"tree_param":{"num_deleted":"0","num_feature":"17","num_nodes":"25","size_leaf_vector":"1"}},{"base_weights":[-0E0,8.713577E-3,-2.5972128E-2,2.5815634E-2,-0E0,-3.4705084E-2,-0E0,-0E0,1.2302473E-2,-2.475251E-2,6.8001337E-3,-0E0,-4.6725277E-2,-4.2424995E-2,-0E0,5.935171E-2,-0E0,-0E0,-3.0739632E-2,-2.2327831E-2,-0E0,-0E0,2.8015586E-2],"categories":[],"categories_nodes":[],"categories_segments":[],"categories_sizes":[],"default_left":[1,0,0,0,1,1,0,0,0,1,0,0,0,0,0,0,0,0,0,0,0,0,0],"id":62,"left_children":[1,3,5,7,9,11,-1,-1,-1,13,15,-1,17,19,-1,21,-1,-1,-1,-1,-1,-1,-1],"loss_changes":[2.218464E0,1.3450181E0,3.0522776E-1,3.3219886E-1,9.4230175E-1,1.2254435E0,0E0,0E0,0E0,2.416166E-1,1.1920187E0,0E0,6.9597745E-1,7.082975E-1,0E0,5.20753E-1,0E0,0E0,0E0,0E0,0E0,0E0,0E0],"parents":[2147483647,0,0,1,1,2,2,3,3,4,4,5,5,9,9,10,10,12,12,13,13,15,15],"right_children":[2,4,6,8,10,12,-1,-1,-1,14,16,-1,18,20,-1,22,-1,-1,-1,-1,-1,-1,-1],"split_conditions":[9.1027565E1,6.311578E0,1.0226231E2,5.8107114E0,6.505117E0,5.8566103E0,-0E0,-0E0,1.2302473E-2,7.1336624E1,6.5611587E0,-0E0,9.650658E1,1E0,-0E0,3.5611862E1,-0E0,-0E0,-3.0739632E-2,-2.2327831E-2,-0E0,-0E0,2.8015586E-2],"split_indices":[16,8,16,8,8,8,0,0,0,16,8,0,16,4,0,16,0,0,0,0,0,0,0],"split_type":[0,0,0,0,0,0,0,0,0,0,0,0,0,0,0,0,0,0,0,0,0,0,0],"sum_hessian":[1.0000978E4,7.5704233E3,2.4305542E3,2.875787E3,4.694636E3,1.6122328E3,8.183215E2,6.177732E2,2.258014E3,1.2738799E3,3.4207563E3,1.6398328E2,1.4482495E3,5.6424036E2,7.096395E2,3.7785663E2,3.0428997E3,8.308554E2,6.1739404E2,5.2344604E2,4.0794323E1,2.075496E1,3.5710168E2],"tree_param":{"num_deleted":"0","num_feature":"17","num_nodes":"23","size_leaf_vector":"1"}},{"base_weights":[-5.677579E-3,1.3910923E-2,-3.491232E-2,-1.3058412E-2,2.3761172E-2,-1.466873E-3,-5.36476E-2,-0E0,-1.5407038E-2,-0E0,3.1248745E-2,5.5184577E-2,-5.2223254E-2,-5.643285E-2,-0E0,3.8008712E-2,-0E0,-0E0,7.057534E-2,-2.2930909E-2,-0E0,-0E0,-5.832485E-2,-0E0,4.436375E-2,8.4145896E-2,-0E0,-6.449011E-2,-0E0,1.8136142E-2,-0E0,-0E0,4.1623857E-2,-0E0,-2.6379948E-2],"categories":[],"categories_nodes":[],"categories_segments":[],"categories_sizes":[],"default_left":[1,0,0,0,1,0,0,0,0,0,0,0,0,0,0,0,0,0,0,0,0,0,0,0,0,0,0,0,0,0,0,0,0,0,0],"id":63,"left_children":[1,3,5,7,9,11,13,-1,-1,-1,15,17,19,21,-1,23,-1,-1,25,-1,-1,-1,27,-1,29,31,-1,33,-1,-1,-1,-1,-1,-1,-1],"loss_changes":[5.5296206E0,1.5253563E0,1.2893944E0,7.111119E-1,1.2434232E0,5.3147755E0,4.8125792E-1,0E0,0E0,0E0,1.0462987E0,9.159777E-1,6.392112E-1,3.2611322E-1,0E0,2.7161264E-1,0E0,0E0,1.0504823E0,0E0,0E0,0E0,3.0181217E-1,0E0,3.9174843E-1,1.3152237E0,0E0,5.411358E-1,0E0,0E0,0E0,0E0,0E0,0E0,0E0],"parents":[2147483647,0,0,1,1,2,2,3,3,4,4,5,5,6,6,10,10,11,11,12,12,13,13,15,15,18,18,22,22,24,24,25,25,27,27],"right_children":[2,4,6,8,10,12,14,-1,-1,-1,16,18,20,22,-1,24,-1,-1,26,-1,-1,-1,28,-1,30,32,-1,34,-1,-1,-1,-1,-1,-1,-1],"split_conditions":[1.734E3,-2.1684597E0,1E0,1E0,1.046E3,-2.6380166E-1,2.471E3,-0E0,-1.5407038E-2,-0E0,2.0348055E0,1.791E3,3.123327E0,-3.0704656E0,-0E0,-1.8147342E0,-0E0,-0E0,2.542E3,-2.2930909E-2,-0E0,-0E0,-1.1163456E0,-0E0,1.727E3,-2.2768996E0,-0E0,1.744E3,-0E0,1.8136142E-2,-0E0,-0E0,4.1623857E-2,-0E0,-2.6379948E-2],"split_indices":[12,9,1,1,12,9,12,0,0,0,9,12,9,9,0,9,0,0,12,0,0,0,9,0,12,9,0,12,0,0,0,0,0,0,0],"split_type":[0,0,0,0,0,0,0,0,0,0,0,0,0,0,0,0,0,0,0,0,0,0,0,0,0,0,0,0,0,0,0,0,0,0,0],"sum_hessian":[8.835734E3,4.840052E3,3.9956833E3,6.944729E2,4.1455786E3,1.8600619E3,2.1356213E3,1.6786627E2,5.266066E2,4.7760303E2,3.6679756E3,6.731146E2,1.1869473E3,2.0806028E3,5.501848E1,3.2017444E3,4.6623135E2,7.981058E1,5.93304E2,1.1200734E3,6.6873924E1,3.728267E1,2.0433202E3,7.1505035E2,2.4866938E3,5.6409454E2,2.9209465E1,1.7428778E3,3.0044247E2,2.4437734E3,4.2920593E1,1.0008694E2,4.640076E2,4.0858536E1,1.7020192E3],"tree_param":{"num_deleted":"0","num_feature":"17","num_nodes":"35","size_leaf_vector":"1"}},{"base_weights":[-2.795797E-2,-1.0557799E-4,-4.6980508E-2,-5.0401285E-2,-0E0,-2.1022089E-2,-0E0],"categories":[],"categories_nodes":[],"categories_segments":[],"categories_sizes":[],"default_left":[1,0,0,0,0,0,0],"id":64,"left_children":[1,-1,3,5,-1,-1,-1],"loss_changes":[2.1082048E0,0E0,8.615751E-1,6.4334345E-1,0E0,0E0,0E0],"parents":[2147483647,0,0,2,2,3,3],"right_children":[2,-1,4,6,-1,-1,-1],"split_conditions":[1.683E3,-1.0557799E-4,2.7E0,2.322E3,-0E0,-2.1022089E-2,-0E0],"split_indices":[12,0,6,12,0,0,0],"split_type":[0,0,0,0,0,0,0],"sum_hessian":[5.9790366E3,2.910109E3,3.0689277E3,3.004925E3,6.400266E1,2.847866E3,1.5705908E2],"tree_param":{"num_deleted":"0","num_feature":"17","num_nodes":"7","size_leaf_vector":"1"}},{"base_weights":[9.166599E-3,2.212257E-2,-2.0707704E-2,4.1783255E-2,1.4224912E-2,-4.9012035E-2,7.5876326E-3,-0E0,5.990724E-2,2.8008705E-2,-0E0,-0E0,-7.436338E-2,-3.6761516E-3,4.2665787E-2,-1.7067337E-2,3.6198825E-2,6.6142224E-2,-0E0,3.1694505E-2,-0E0,-1.8503275E-2,2.2625342E-2,-3.3710517E-2,-0E0,-0E0,-2.4345793E-2,-0E0,-3.5348468E-2,2.2617107E-2,-0E0,2.6590116E-2,-0E0,-0E0,3.322E-2,-6.066739E-2,-0E0,3.3181027E-2,-0E0,-3.2651585E-2,-0E0,-1.752681E-2,-0E0,-0E0,1.3852235E-2,-6.55275E-2,-0E0,-0E0,4.249871E-2,-1.7898275E-2,-0E0,-0E0,-2.7339691E-2,2.0842958E-2,-0E0],"categories":[],"categories_nodes":[],"categories_segments":[],"categories_sizes":[],"default_left":[0,0,0,0,0,0,0,0,0,0,0,0,0,0,0,0,0,0,0,0,0,0,0,0,0,0,0,0,0,0,0,0,0,0,0,0,0,0,0,0,0,0,0,0,0,0,0,0,0,0,0,0,0,0,0],"id":65,"left_children":[1,3,5,7,9,11,13,15,17,19,21,-1,23,25,-1,27,29,31,-1,33,-1,35,37,-1,-1,-1,39,-1,41,-1,-1,-1,-1,-1,43,45,-1,47,-1,49,-1,-1,-1,-1,-1,51,-1,-1,53,-1,-1,-1,-1,-1,-1],"loss_changes":[8.092573E0,1.0951142E0,5.5504503E0,1.943593E0,2.7694657E0,3.819264E0,5.213268E0,1.0118649E0,8.981075E-1,8.428941E-1,2.0372825E0,0E0,2.9228516E0,6.82745E-1,0E0,5.3178746E-1,9.5060915E-1,4.578581E-1,0E0,3.663292E-1,0E0,2.188824E0,7.054642E-1,0E0,0E0,0E0,4.7069675E-1,0E0,3.7711376E-1,0E0,0E0,0E0,0E0,0E0,2.953725E-1,2.3775387E-1,0E0,8.078468E-1,0E0,3.0880558E-1,0E0,0E0,0E0,0E0,0E0,2.6646042E-1,0E0,0E0,9.7963786E-1,0E0,0E0,0E0,0E0,0E0,0E0],"parents":[2147483647,0,0,1,1,2,2,3,3,4,4,5,5,6,6,7,7,8,8,9,9,10,10,12,12,13,13,15,15,16,16,17,17,19,19,21,21,22,22,26,26,28,28,34,34,35,35,37,37,39,39,45,45,48,48],"right_children":[2,4,6,8,10,12,14,16,18,20,22,-1,24,26,-1,28,30,32,-1,34,-1,36,38,-1,-1,-1,40,-1,42,-1,-1,-1,-1,-1,44,46,-1,48,-1,50,-1,-1,-1,-1,-1,52,-1,-1,54,-1,-1,-1,-1,-1,-1],"split_conditions":[7.3500764E-1,-7.927984E-1,9.158089E-1,8.896956E-1,9.2515963E-1,8.475829E-1,1.74556E0,-1.3254015E0,1E0,1E0,9.7489244E-1,-0E0,2.0958793E0,9.471837E-1,4.2665787E-2,7.2976065E-1,8.8055116E-1,1.056307E0,-0E0,-7.211253E-1,-0E0,-3.1615582E-1,1.0230231E0,-3.3710517E-2,-0E0,-0E0,1.0230231E0,-0E0,8.8549995E-1,2.2617107E-2,-0E0,2.6590116E-2,-0E0,-0E0,7.939234E-1,1E0,-0E0,-6.2719405E-1,-0E0,1.2161577E0,-0E0,-1.752681E-2,-0E0,-0E0,1.3852235E-2,-7.609424E-1,-0E0,-0E0,5.5844295E-1,-1.7898275E-2,-0E0,-0E0,-2.7339691E-2,2.0842958E-2,-0E0],"split_indices":[7,7,11,11,11,11,7,7,4,4,11,0,7,11,0,11,11,11,0,7,0,7,11,0,0,0,11,0,11,0,0,0,0,0,11,4,0,7,0,7,0,0,0,0,0,7,0,0,7,0,0,0,0,0,0],"split_type":[0,0,0,0,0,0,0,0,0,0,0,0,0,0,0,0,0,0,0,0,0,0,0,0,0,0,0,0,0,0,0,0,0,0,0,0,0,0,0,0,0,0,0,0,0,0,0,0,0,0,0,0,0,0,0],"sum_hessian":[2.0815533E4,1.5035629E4,5.779905E3,3.5006357E3,1.1534993E4,3.2777234E3,2.5021814E3,1.2589905E3,2.2416453E3,6.501495E3,5.033498E3,1.1663494E3,2.111374E3,2.062382E3,4.3979938E2,6.345879E2,6.2440265E2,2.0432429E3,1.9840239E2,5.9151597E3,5.863356E2,3.2093828E3,1.8241151E3,1.9524474E3,1.589265E2,8.6885406E2,1.193528E3,6.527876E1,5.693091E2,5.225606E2,1.0184202E2,2.0210646E3,2.217843E1,1.9933138E2,5.715828E3,8.8824994E2,2.3211328E3,1.485943E3,3.3817218E2,1.1026029E3,9.092502E1,5.368269E2,3.24822E1,4.8253876E2,5.2332896E3,8.159588E2,7.229112E1,1.3502031E2,1.3509227E3,7.020103E2,4.0059262E2,4.9504444E1,7.6645435E2,1.1951953E3,1.5572742E2],"tree_param":{"num_deleted":"0","num_feature":"17","num_nodes":"55","size_leaf_vector":"1"}},{"base_weights":[3.7796126E-4,-1.5341738E-2,2.7928973E-2,-2.218802E-2,-0E0,3.3966873E-2,-0E0,-2.0395215E-3,-1.7968168E-2,6.1406814E-3,2.0132557E-2,-4.787928E-3,-0E0,7.332583E-3,-0E0],"categories":[],"categories_nodes":[],"categories_segments":[],"categories_sizes":[],"default_left":[0,0,0,0,0,0,0,0,0,0,0,0,0,0,0],"id":66,"left_children":[1,3,5,7,-1,9,-1,11,-1,13,-1,-1,-1,-1,-1],"loss_changes":[4.498314E0,9.409337E-1,1.2743084E0,1.1666558E0,0E0,6.1039686E-1,0E0,2.4716476E-1,0E0,4.8216182E-1,0E0,0E0,0E0,0E0,0E0],"parents":[2147483647,0,0,1,1,2,2,3,3,5,5,7,7,9,9],"right_children":[2,4,6,8,-1,10,-1,12,-1,14,-1,-1,-1,-1,-1],"split_conditions":[1E0,8.86E1,9.11E1,8.61E1,-0E0,8.58E1,-0E0,8.41E1,-1.7968168E-2,8.49E1,2.0132557E-2,-4.787928E-3,-0E0,7.332583E-3,-0E0],"split_indices":[3,5,5,5,0,5,0,5,0,5,0,0,0,0,0],"split_type":[0,0,0,0,0,0,0,0,0,0,0,0,0,0,0],"sum_hessian":[9.733559E3,5.688578E3,4.0449805E3,4.628061E3,1.0605171E3,3.8374446E3,2.0753575E2,3.0152393E3,1.6128218E3,1.9781877E3,1.8592568E3,1.7177292E3,1.2975099E3,1.5700356E3,4.081521E2],"tree_param":{"num_deleted":"0","num_feature":"17","num_nodes":"15","size_leaf_vector":"1"}},{"base_weights":[-0E0,-3.85651E-2,1.4461377E-2,-0E0,