{"learner":{"attributes":{"scikit_learn":"{\"_estimator_type\": \"classifier\"}"},"feature_names":["pitcherHand_L","hitterHand_R","balls_before_pitch_0","balls_before_pitch_1","balls_before_pitch_2","balls_before_pitch_3","strikes_before_pitch_0","strikes_before_pitch_1","strikes_before_pitch_2","velo","velo_diff","extension","extension_ratio","x0_ratio","z0_ratio","spin_rate","adj_spin_dir","HB_acc","IVB_acc","Break_acc"],"feature_types":["i","i","i","i","i","i","i","i","i","float","float","float","float","float","float","float","float","float","float","float"],"gradient_booster":{"model":{"gbtree_model_param":{"num_parallel_tree":"1","num_trees":"100"},"iteration_indptr":[0,1,2,3,4,5,6,7,8,9,10,11,12,13,14,15,16,17,18,19,20,21,22,23,24,25,26,27,28,29,30,31,32,33,34,35,36,37,38,39,40,41,42,43,44,45,46,47,48,49,50,51,52,53,54,55,56,57,58,59,60,61,62,63,64,65,66,67,68,69,70,71,72,73,74,75,76,77,78,79,80,81,82,83,84,85,86,87,88,89,90,91,92,93,94,95,96,97,98,99,100],"tree_info":[0,0,0,0,0,0,0,0,0,0,0,0,0,0,0,0,0,0,0,0,0,0,0,0,0,0,0,0,0,0,0,0,0,0,0,0,0,0,0,0,0,0,0,0,0,0,0,0,0,0,0,0,0,0,0,0,0,0,0,0,0,0,0,0,0,0,0,0,0,0,0,0,0,0,0,0,0,0,0,0,0,0,0,0,0,0,0,0,0,0,0,0,0,0,0,0,0,0,0,0],"trees":[{"base_weights":[3.4133982E-2,1.01045266E-1,-1.9853142E-1,-1.947912E-2,1.561958E-1,-9.3316816E-2,-2.959776E-1,9.6899904E-2,-7.6197065E-2,2.2757271E-1,7.628821E-2,-0E0,-1.1336588E-1,-0E0,-3.3898485E-1,7.395012E-2,-0E0,-1.9527698E-2,-2.0968501E-1,9.376871E-3,2.5058857E-1,1.533242E-1,-0E0,-1.3571137E-2,-1.7573257E-1,-3.5042605E-1,-0E0,-1.5422468E-1,2.4950804E-2,-0E0,-1.344466E-1,6.0651463E-2,-1.944702E-2,2.6224917E-1,-0E0,1.9416182E-1,-0E0,-4.9653795E-2,2.2481823E-2,-2.0448405E-1,-0E0,-3.591388E-1,-0E0,-1.8336819E-1,-0E0,-3.39415E-2,9.4812445E-2,2.7209908E-1,-0E0,2.2028168E-1,-0E0,-0E0,-1.2750742E-1,-3.6800933E-1,-0E0,-0E0,-2.27168E-1,-0E0,-8.928923E-2,2.0578015E-1,-0E0,1.568161E-1,5.7592653E-2,2.410745E-1,-0E0,-0E0,-1.9873232E-1,-2.7052116E-1,-0E0,-0E0,1.4201479E-1,-0E0,2.5293264E-1,-1.6370416E-1,-0E0,-0E0,1.4320557E-1],"categories":[],"categories_nodes":[],"categories_segments":[],"categories_sizes":[],"default_left":[0,0,0,0,0,1,0,0,1,1,0,0,0,0,0,0,0,1,0,1,1,0,0,0,0,0,0,1,0,0,0,0,0,0,0,0,0,0,0,1,0,0,0,0,0,0,0,0,0,1,0,0,0,0,0,0,0,0,0,0,0,0,0,0,0,0,0,0,0,0,0,0,0,0,0,0,0],"id":0,"left_children":[1,3,5,7,9,11,13,15,17,19,21,-1,23,-1,25,-1,-1,27,29,31,33,35,-1,37,39,41,-1,43,45,-1,-1,-1,-1,47,-1,49,-1,-1,-1,51,-1,53,-1,55,-1,57,59,61,-1,63,-1,-1,-1,65,-1,-1,67,-1,-1,69,-1,-1,-1,71,-1,-1,-1,73,-1,-1,-1,-1,75,-1,-1,-1,-1],"loss_changes":[3.3962213E2,1.1868442E2,3.538582E1,3.459831E1,5.7638336E1,7.698044E0,3.2097046E1,1.0724839E1,2.0977001E1,2.2230164E1,3.7576958E1,0E0,8.427637E0,0E0,9.736694E0,0E0,0E0,2.1526676E1,1.0310574E1,6.5883827E0,1.6261658E1,2.1512962E1,0E0,7.213614E0,6.3776665E0,8.721619E0,0E0,7.356104E0,1.0505917E1,0E0,0E0,0E0,0E0,1.1253387E1,0E0,1.6993477E1,0E0,0E0,0E0,6.5021553E0,0E0,6.933197E0,0E0,8.248697E0,0E0,9.569615E0,1.2931009E1,6.929016E0,0E0,1.2126183E1,0E0,0E0,0E0,6.732971E0,0E0,0E0,9.523064E0,0E0,0E0,1.0188969E1,0E0,0E0,0E0,8.744041E0,0E0,0E0,0E0,1.0987446E1,0E0,0E0,0E0,0E0,7.7459564E0,0E0,0E0,0E0,0E0],"parents":[2147483647,0,0,1,1,2,2,3,3,4,4,5,5,6,6,7,7,8,8,9,9,10,10,12,12,14,14,17,17,18,18,19,19,20,20,21,21,23,23,24,24,25,25,27,27,28,28,33,33,35,35,39,39,41,41,43,43,45,45,46,46,47,47,49,49,53,53,56,56,59,59,63,63,67,67,72,72],"right_children":[2,4,6,8,10,12,14,16,18,20,22,-1,24,-1,26,-1,-1,28,30,32,34,36,-1,38,40,42,-1,44,46,-1,-1,-1,-1,48,-1,50,-1,-1,-1,52,-1,54,-1,56,-1,58,60,62,-1,64,-1,-1,-1,66,-1,-1,68,-1,-1,70,-1,-1,-1,72,-1,-1,-1,74,-1,-1,-1,-1,76,-1,-1,-1,-1],"split_conditions":[1E0,1.03912735E1,1E0,9.98443E-1,1E0,9.43737E-1,8.3203185E-1,9.004727E1,8.359945E1,1.243E3,1E0,-0E0,7.368366E1,-0E0,7.0846504E1,7.395012E-2,-0E0,1.272E3,8.041498E-1,1.0673912E0,1.145852E0,1.37E2,-0E0,6.280336E1,9.02E1,5.048771E-1,-0E0,1.54E2,-2.828811E-1,-0E0,-1.344466E-1,6.0651463E-2,-1.944702E-2,1.0376763E2,-0E0,-1.3337775E-1,-0E0,-4.9653795E-2,2.2481823E-2,1.11E2,-0E0,9.27E1,-0E0,-3.3958977E-1,-0E0,1E0,1.06E2,1E0,-0E0,1.0033715E2,-0E0,-0E0,-1.2750742E-1,5.5866203E0,-0E0,-0E0,2.785977E-1,-0E0,-8.928923E-2,8.15E1,-0E0,1.568161E-1,5.7592653E-2,9.87E2,-0E0,-0E0,-1.9873232E-1,9.862493E-1,-0E0,-0E0,1.4201479E-1,-0E0,8.19E1,-1.6370416E-1,-0E0,-0E0,1.4320557E-1],"split_indices":[6,18,1,12,7,12,14,19,19,15,1,0,17,0,18,0,0,15,14,12,12,16,0,17,9,13,0,16,13,0,0,0,0,17,0,13,0,0,0,16,0,9,0,13,0,1,16,2,0,17,0,0,0,11,0,0,13,0,0,9,0,0,0,15,0,0,0,14,0,0,0,0,9,0,0,0,0],"split_type":[0,0,0,0,0,0,0,0,0,0,0,0,0,0,0,0,0,0,0,0,0,0,0,0,0,0,0,0,0,0,0,0,0,0,0,0,0,0,0,0,0,0,0,0,0,0,0,0,0,0,0,0,0,0,0,0,0,0,0,0,0,0,0,0,0,0,0,0,0,0,0,0,0,0,0,0,0],"sum_hessian":[2.1868887E4,1.7116967E4,4.7519194E3,5.2073066E3,1.190966E4,2.4991382E3,2.2527815E3,1.5099784E3,3.6973281E3,6.0214697E3,5.888191E3,2.270347E2,2.2721035E3,2.7094858E2,1.9818329E3,1.2153163E3,2.9466205E2,2.8113657E3,8.859623E2,7.133808E2,5.308089E3,3.0089783E3,2.8792126E3,1.097188E3,1.1749155E3,1.9297949E3,5.2037933E1,8.350222E2,1.9763436E3,1.596269E2,7.263354E2,3.9412695E2,3.192538E2,5.077541E3,2.305478E2,2.4233867E3,5.8559143E2,6.609037E2,4.3628427E2,1.00387103E3,1.7104451E2,1.9019097E3,2.7885305E1,7.9110834E2,4.3913868E1,8.455615E2,1.1307821E3,4.8641196E3,2.134214E2,2.2189678E3,2.0441905E2,2.048582E2,7.990128E2,1.8595327E3,4.2376884E1,1.3766998E2,6.5343835E2,5.4321454E2,3.02347E2,4.9600714E2,6.3477496E2,3.9496133E3,9.145063E2,2.0509973E3,1.6797055E2,6.8286064E1,1.7912467E3,5.724173E2,8.102109E1,9.858663E1,3.974205E2,5.6868458E1,1.9941288E3,5.2520984E2,4.720741E1,1.940993E2,1.8000294E3],"tree_param":{"num_deleted":"0","num_feature":"20","num_nodes":"77","size_leaf_vector":"1"}},{"base_weights":[2.0663878E-2,5.959145E-2,-1.0323645E-1,9.359791E-2,-4.790471E-2,8.0935E-3,-1.20119795E-1,1.2665908E-1,1.1380564E-2,-1.6406411E-1,-0E0,-1.376633E-1,1.5996382E-2,1.0343123E-1,9.271019E-2,-3.300271E-2,7.5183876E-2,8.040772E-2,-8.241934E-2,-0E0,-8.0586806E-2,1.18696675E-1,-0E0,1.7340044E-2,-6.801668E-2,5.4920588E-2,-0E0,5.773562E-2,-0E0,-1.7419574E-1,1.4422814E-2,-0E0,1.3977477E-1,-0E0,-7.314528E-2,-2.0689374E-1,-0E0,8.0804534E-2,-0E0,-0E0,-1.379463E-1],"categories":[],"categories_nodes":[],"categories_segments":[],"categories_sizes":[],"default_left":[0,1,0,0,1,0,0,1,0,0,0,1,0,0,0,1,1,0,0,0,0,0,0,0,1,0,0,0,0,0,0,0,1,0,0,0,0,0,0,0,0],"id":1,"left_children":[1,3,5,7,9,-1,11,13,15,-1,17,19,-1,-1,21,23,25,27,29,-1,-1,31,-1,-1,33,-1,-1,-1,-1,35,-1,-1,37,-1,-1,39,-1,-1,-1,-1,-1],"loss_changes":[1.0371417E2,6.2953754E1,1.3467518E1,3.0820084E1,4.920495E1,0E0,1.5881012E1,1.1305908E1,1.2982998E1,0E0,2.2393234E1,1.4089615E1,0E0,0E0,1.6088001E1,6.211791E0,7.4277706E0,7.191354E0,2.1692848E1,0E0,0E0,1.479538E1,0E0,0E0,7.2690554E0,0E0,0E0,0E0,0E0,1.0085289E1,0E0,0E0,1.2013153E1,0E0,0E0,8.926598E0,0E0,0E0,0E0,0E0,0E0],"parents":[2147483647,0,0,1,1,2,2,3,3,4,4,6,6,7,7,8,8,10,10,11,11,14,14,15,15,16,16,17,17,18,18,21,21,24,24,29,29,32,32,35,35],"right_children":[2,4,6,8,10,-1,12,14,16,-1,18,20,-1,-1,22,24,26,28,30,-1,-1,32,-1,-1,34,-1,-1,-1,-1,36,-1,-1,38,-1,-1,40,-1,-1,-1,-1,-1],"split_conditions":[1E0,1.0890938E0,8.137548E-1,1E0,1.111E3,8.0935E-3,9.06E1,9.847024E-1,2.4632826E1,-1.6406411E-1,1E0,9.3596107E-1,1.5996382E-2,1.0343123E-1,1.33E2,1.03E2,1.4E2,-1.683622E-1,1.7885765E-1,-0E0,-8.0586806E-2,-4.01951E0,-0E0,1.7340044E-2,7.674204E1,5.4920588E-2,-0E0,5.773562E-2,-0E0,9.568344E-1,1.4422814E-2,-0E0,9.9790504E1,-0E0,-7.314528E-2,1.08E2,-0E0,8.0804534E-2,-0E0,-0E0,-1.379463E-1],"split_indices":[6,12,14,2,15,0,9,12,18,0,1,12,0,0,16,16,16,13,13,0,0,18,0,0,19,0,0,0,0,14,0,0,17,0,0,16,0,0,0,0,0],"split_type":[0,0,0,0,0,0,0,0,0,0,0,0,0,0,0,0,0,0,0,0,0,0,0,0,0,0,0,0,0,0,0,0,0,0,0,0,0,0,0,0,0],"sum_hessian":[2.1645354E4,1.668851E4,4.9568438E3,1.2906312E4,3.7821978E3,3.859296E2,4.5709146E3,8.907821E3,3.9984902E3,5.283365E2,3.253861E3,4.2860405E3,2.8487366E2,2.4869893E3,6.4208315E3,2.0852358E3,1.9132545E3,1.6540015E3,1.5998597E3,2.7460373E2,4.011437E3,5.0345713E3,1.3862601E3,4.1210123E2,1.6731346E3,1.6277112E3,2.855433E2,1.4416741E3,2.1232744E2,1.00799005E3,5.918697E2,6.6413214E2,4.3704395E3,9.518392E2,7.212955E2,9.3190533E2,7.608474E1,4.078528E3,2.9191135E2,2.525983E2,6.79307E2],"tree_param":{"num_deleted":"0","num_feature":"20","num_nodes":"41","size_leaf_vector":"1"}},{"base_weights":[9.883959E-3,-3.183196E-2,7.757357E-2,1.0522162E-2,-8.0934E-2,-2.1624276E-2,9.2464775E-2,5.207355E-2,-3.1267766E-2,-1.0520665E-1,6.9040386E-3,1.3227141E-1,1.2526582E-2,7.559436E-2,-5.787073E-2,-5.1245097E-2,-1.7439796E-1,1.8589832E-1,6.686766E-2,-4.2184427E-2,9.3792245E-2,-0E0,1.05279535E-1,-1.6084902E-1,-0E0,-2.1709007E-1,-0E0,2.1108848E-1,-0E0,-1.1614349E-2,2.1096483E-1,2.0577284E-2,-4.9677555E-2,7.823898E-2,-0E0,1.2658696E-1,-4.76584E-3,-0E0,-1.08661085E-1,-0E0,-2.3652041E-1,1.16675295E-1,-0E0,-6.736043E-2,2.5001213E-2,1.4002275E-1,-0E0,-0E0,8.118647E-2,-0E0,-2.5735724E-1,-2.68999E-1,-0E0,-1.473862E-1,-0E0],"categories":[],"categories_nodes":[],"categories_segments":[],"categories_sizes":[],"default_left":[0,0,0,1,0,0,0,0,0,1,0,0,0,0,0,0,0,0,0,1,0,0,1,0,0,0,0,1,0,0,0,0,0,0,0,0,0,0,0,0,0,0,0,0,0,0,0,0,0,0,0,0,0,0,0],"id":2,"left_children":[1,3,5,7,9,-1,11,13,-1,15,-1,17,19,21,-1,23,25,27,29,31,33,-1,35,37,-1,39,-1,41,-1,43,45,-1,-1,-1,-1,47,-1,-1,-1,-1,49,-1,-1,-1,-1,-1,-1,-1,-1,-1,51,53,-1,-1,-1],"loss_changes":[6.258412E1,2.9554525E1,1.696856E1,1.9671452E1,1.7664967E1,0E0,2.0305168E1,1.6863186E1,0E0,1.2437607E1,0E0,8.694084E0,1.4942684E1,1.2282452E1,0E0,1.9469547E1,1.8397884E1,7.4201736E0,3.58324E1,8.7181E0,7.3237906E0,0E0,1.1732925E1,1.0709789E1,0E0,1.0865913E1,0E0,6.232361E0,0E0,1.40568075E1,8.34454E0,0E0,0E0,0E0,0E0,1.3395687E1,0E0,0E0,0E0,0E0,6.4134903E0,0E0,0E0,0E0,0E0,0E0,0E0,0E0,0E0,0E0,6.4468307E0,6.8430634E0,0E0,0E0,0E0],"parents":[2147483647,0,0,1,1,2,2,3,3,4,4,6,6,7,7,9,9,11,11,12,12,13,13,15,15,16,16,17,17,18,18,19,19,20,20,22,22,23,23,25,25,27,27,29,29,30,30,35,35,40,40,50,50,51,51],"right_children":[2,4,6,8,10,-1,12,14,-1,16,-1,18,20,22,-1,24,26,28,30,32,34,-1,36,38,-1,40,-1,42,-1,44,46,-1,-1,-1,-1,48,-1,-1,-1,-1,50,-1,-1,-1,-1,-1,-1,-1,-1,-1,52,54,-1,-1,-1],"split_conditions":[1E0,1E0,-1.1855029E1,8.220768E1,3.5282746E-1,-2.1624276E-2,1.27E2,-1.14006296E-1,-3.1267766E-2,1.805E3,6.9040386E-3,1E0,3.68625E1,8.35E1,-5.787073E-2,1.1876091E1,8.87E1,-1.6645767E-1,1.8414652E-1,9.91661E-1,-1.0771979E-1,-0E0,1.44E2,8.421032E-1,-0E0,8.114749E-1,-0E0,1.1542182E0,-0E0,8.977118E-1,8.62E1,2.0577284E-2,-4.9677555E-2,7.823898E-2,-0E0,1.282E3,-4.76584E-3,-0E0,-1.08661085E-1,-0E0,9.5043385E-1,1.16675295E-1,-0E0,-6.736043E-2,2.5001213E-2,1.4002275E-1,-0E0,-0E0,8.118647E-2,-0E0,1.0343548E0,1.45E2,-0E0,-1.473862E-1,-0E0],"split_indices":[8,1,18,17,13,0,16,13,0,15,0,1,18,9,0,18,9,13,13,12,13,0,16,14,0,14,0,12,0,14,9,0,0,0,0,15,0,0,0,0,12,0,0,0,0,0,0,0,0,0,14,16,0,0,0],"split_type":[0,0,0,0,0,0,0,0,0,0,0,0,0,0,0,0,0,0,0,0,0,0,0,0,0,0,0,0,0,0,0,0,0,0,0,0,0,0,0,0,0,0,0,0,0,0,0,0,0,0,0,0,0,0,0],"sum_hessian":[2.1536486E4,1.305776E4,8.478726E3,6.693133E3,6.364627E3,6.963624E2,7.7823633E3,4.496895E3,2.196238E3,5.319562E3,1.0450652E3,4.9051865E3,2.8771768E3,4.1269185E3,3.6997638E2,3.3054597E3,2.0141022E3,2.367496E3,2.5376904E3,1.5062344E3,1.3709423E3,9.214286E2,3.20549E3,1.0316648E3,2.273795E3,1.6679576E3,3.4614453E2,1.9886116E3,3.788846E2,1.5389136E3,9.987769E2,3.6333026E2,1.1429042E3,8.30182E2,5.4076025E2,2.9282974E3,2.7719247E2,1.8822417E2,8.434406E2,7.8438934E1,1.5895187E3,1.903693E3,8.491862E1,6.715753E2,8.673383E2,7.1460175E2,2.8417517E2,4.4015057E2,2.488147E3,1.5988368E2,1.429635E3,1.3923501E3,3.7284927E1,1.3525508E3,3.9799305E1],"tree_param":{"num_deleted":"0","num_feature":"20","num_nodes":"55","size_leaf_vector":"1"}},{"base_weights":[1.7481744E-3,-7.858014E-3,1.374823E-1,5.5490684E-2,-2.7082343E-2,1.1916301E-1,2.9139793E-3,-6.3626766E-2,7.4500136E-2,-1.8942973E-1,-6.6103823E-3,1.1325683E-1,-1.2456583E-3,-1.11683145E-1,-0E0,5.5330835E-2,-4.282337E-2,-0E0,1.6576521E-1,-0E0,1.0431947E-1,-6.659232E-2,-0E0,2.0104504E-1,-0E0,1.3154872E-1,-1.918016E-2,-2.8583966E-2,-1.0572584E-1,4.5562804E-2,-4.361328E-2,-0E0,1.1536935E-1,1.4969963E-1,-1.3262486E-2,-0E0,-7.8282066E-2,4.5525875E-2,-5.0396315E-4,9.021747E-2,-0E0,-3.4858163E-2,5.0814837E-2,-1.7625611E-2,4.4190053E-2],"categories":[],"categories_nodes":[],"categories_segments":[],"categories_sizes":[],"default_left":[0,0,0,0,0,0,0,0,0,1,0,0,0,0,0,0,0,0,1,0,0,0,1,0,0,0,0,0,0,0,0,0,0,0,0,0,0,0,0,0,0,0,0,0,0],"id":3,"left_children":[1,3,5,7,9,-1,-1,-1,11,13,15,17,-1,-1,-1,19,21,-1,23,-1,25,27,29,31,-1,33,-1,35,-1,37,-1,-1,-1,39,-1,41,-1,-1,-1,-1,-1,-1,43,-1,-1],"loss_changes":[3.219271E1,2.3474592E1,1.2097374E1,1.34907465E1,4.5983612E1,0E0,0E0,0E0,1.5614725E1,1.2839825E1,3.158879E1,2.1502087E1,0E0,0E0,0E0,1.3476058E1,9.517862E0,0E0,1.2209713E1,0E0,1.3377321E1,2.3233133E1,1.3033186E1,6.928589E0,0E0,1.0994968E1,0E0,1.498119E1,0E0,7.0001965E0,0E0,0E0,0E0,8.05706E0,0E0,1.4465647E1,0E0,0E0,0E0,0E0,0E0,0E0,8.212425E0,0E0,0E0],"parents":[2147483647,0,0,1,1,2,2,3,3,4,4,8,8,9,9,10,10,11,11,15,15,16,16,18,18,20,20,21,21,22,22,23,23,25,25,27,27,29,29,33,33,35,35,42,42],"right_children":[2,4,6,8,10,-1,-1,-1,12,14,16,18,-1,-1,-1,20,22,-1,24,-1,26,28,30,32,-1,34,-1,36,-1,38,-1,-1,-1,40,-1,42,-1,-1,-1,-1,-1,-1,44,-1,-1],"split_conditions":[9.962734E-1,1.09E2,-1.24506675E-1,-3.1392519E1,-5.149609E-1,1.1916301E-1,2.9139793E-3,-6.3626766E-2,2E3,1.57E2,-2.7183765E-1,1.392E3,-1.2456583E-3,-1.11683145E-1,-0E0,8.977118E-1,1.7885765E-1,-0E0,9.0362045E1,-0E0,1.44E2,-1.0091702E-1,7.5980835E1,-3.940905E-1,-0E0,2.313E3,-1.918016E-2,1.39E2,-1.0572584E-1,9.5089114E-1,-4.361328E-2,-0E0,1.1536935E-1,1.1030349E0,-1.3262486E-2,2.7381422E1,-7.8282066E-2,4.5525875E-2,-5.0396315E-4,9.021747E-2,-0E0,-3.4858163E-2,5.7565727E1,-1.7625611E-2,4.4190053E-2],"split_indices":[14,16,13,18,18,0,0,0,15,16,13,15,0,0,0,14,13,0,17,0,16,13,17,13,0,15,0,16,0,14,0,0,0,12,0,18,0,0,0,0,0,0,17,0,0],"split_type":[0,0,0,0,0,0,0,0,0,0,0,0,0,0,0,0,0,0,0,0,0,0,0,0,0,0,0,0,0,0,0,0,0,0,0,0,0,0,0,0,0,0,0,0,0],"sum_hessian":[2.144808E4,1.9869254E4,1.5788268E3,4.217402E3,1.5651852E4,7.694101E2,8.094167E2,2.1572812E2,4.0016738E3,1.5226561E3,1.4129195E4,2.9127454E3,1.0889286E3,1.469984E3,5.267218E1,4.880144E3,9.249052E3,8.039705E2,2.1087747E3,2.3140164E3,2.5661274E3,5.9343306E3,3.3147214E3,1.7156014E3,3.9317328E2,2.3411917E3,2.2493584E2,4.873834E3,1.0604966E3,2.1656462E3,1.1490751E3,1.550035E2,1.560598E3,2.280687E3,6.0504734E1,4.085849E3,7.879846E2,1.4751345E3,6.9051166E2,1.9776885E3,3.0299847E2,1.8788688E3,2.2069805E3,3.612685E2,1.8457119E3],"tree_param":{"num_deleted":"0","num_feature":"20","num_nodes":"45","size_leaf_vector":"1"}},{"base_weights":[2.7163543E-3,1.54065695E-2,-7.145868E-2,-5.414431E-3,5.2426036E-2,-5.441189E-2,7.607473E-3,-3.9972242E-2,5.1738657E-2,6.736667E-2,-0E0,6.7401566E-3,-8.482228E-2,-0E0,1.14223234E-1,5.2595567E-2,4.997289E-3,-0E0,-1.062537E-1,-0E0,1.4614017E-1,-0E0,-1.161945E-1,8.5013136E-2,-0E0,-1.275354E-1,-0E0,-0E0,-7.3180206E-2],"categories":[],"categories_nodes":[],"categories_segments":[],"categories_sizes":[],"default_left":[1,0,0,0,0,0,0,0,0,0,0,0,0,0,1,0,0,0,0,0,0,0,0,0,0,1,0,0,0],"id":4,"left_children":[1,3,5,7,9,-1,-1,11,13,15,-1,-1,17,-1,19,-1,-1,-1,21,-1,23,-1,25,-1,-1,27,-1,-1,-1],"loss_changes":[1.8513243E1,1.5944836E1,1.0679711E1,2.2493532E1,6.431217E0,0E0,0E0,2.0229244E1,1.3735828E1,7.6444626E0,0E0,0E0,8.54863E0,0E0,7.536186E0,0E0,0E0,0E0,6.469364E0,0E0,6.1524277E0,0E0,6.1372414E0,0E0,0E0,6.482498E0,0E0,0E0,0E0],"parents":[2147483647,0,0,1,1,2,2,3,3,4,4,7,7,8,8,9,9,12,12,14,14,18,18,20,20,22,22,25,25],"right_children":[2,4,6,8,10,-1,-1,12,14,16,-1,-1,18,-1,20,-1,-1,-1,22,-1,24,-1,26,-1,-1,28,-1,-1,-1],"split_conditions":[9.268488E1,1E0,4.1449802E1,8.67E1,1E0,-5.441189E-2,7.607473E-3,1.19E2,2.4632826E1,1E0,-0E0,6.7401566E-3,4.4664722E1,-0E0,1.21E2,5.2595567E-2,4.997289E-3,-0E0,8.336085E-1,-0E0,1.54E2,-0E0,8.64E1,8.5013136E-2,-0E0,5.750786E0,-0E0,-0E0,-7.3180206E-2],"split_indices":[17,8,18,9,2,0,0,16,18,3,0,0,17,0,16,0,0,0,14,0,16,0,9,0,0,11,0,0,0],"split_type":[0,0,0,0,0,0,0,0,0,0,0,0,0,0,0,0,0,0,0,0,0,0,0,0,0,0,0,0,0],"sum_hessian":[2.1404744E4,1.8682254E4,2.7224907E3,1.1447611E4,7.2346426E3,2.2325132E3,4.8997745E2,7.4887344E3,3.9588772E3,5.7738516E3,1.4607913E3,3.1365222E3,4.3522124E3,2.1436792E3,1.815198E3,3.2972566E3,2.4765952E3,8.44181E2,3.5080312E3,3.778346E2,1.4373634E3,1.0567308E2,3.4023582E3,1.3860331E3,5.133031E1,3.1908235E3,2.1153455E2,2.123982E2,2.9784253E3],"tree_param":{"num_deleted":"0","num_feature":"20","num_nodes":"29","size_leaf_vector":"1"}},{"base_weights":[-2.155369E-3,8.3291866E-2,-1.3720807E-2,7.886458E-2,1.6409493E-3,-2.2365695E-2,7.060545E-2,-9.8070025E-2,-1.2004241E-2,-0E0,1.1807659E-1,-0E0,-1.5068471E-1,-5.0285395E-2,-1.2586132E-3,-0E0,1.7992216E-1,-0E0,-8.924218E-2,5.6512304E-2,-9.279113E-3,-0E0,2.2104357E-1,-4.824455E-2,3.0960217E-3,1.2825555E-1,-0E0,-9.041163E-2,3.2809586E-3,4.015378E-2,-2.3547873E-2,-0E0,-6.4732164E-2,-1.7426692E-2,6.244389E-2,2.1232339E-2,-5.5655338E-2,-0E0,1.0253476E-1,-5.4029515E-3,4.9660247E-2,-0E0,-8.691818E-2,6.929205E-2,-0E0,-0E0,-1.1478549E-1,-7.269975E-2,-0E0],"categories":[],"categories_nodes":[],"categories_segments":[],"categories_sizes":[],"default_left":[0,0,0,0,0,0,1,0,0,0,0,0,0,0,0,0,0,0,0,0,0,0,1,0,0,0,0,0,0,0,1,0,0,0,0,0,0,0,0,0,0,0,0,0,0,0,0,0,0],"id":5,"left_children":[1,3,5,-1,-1,7,9,11,13,-1,15,-1,17,-1,19,-1,21,-1,-1,-1,23,-1,25,27,29,-1,-1,31,-1,33,35,-1,-1,-1,37,39,41,-1,43,-1,-1,-1,45,-1,-1,-1,47,-1,-1],"loss_changes":[1.9082941E1,7.2336597E0,1.2631281E1,0E0,0E0,1.0478461E1,7.4673877E0,9.996649E0,1.1517298E1,0E0,1.3285584E1,0E0,6.710884E0,0E0,9.847649E0,0E0,8.690189E0,0E0,0E0,0E0,8.197543E0,0E0,6.877075E0,1.1875604E1,1.055284E1,0E0,0E0,9.563736E0,0E0,8.807955E0,8.95057E0,0E0,0E0,0E0,1.1889809E1,7.1324334E0,8.370607E0,0E0,8.414806E0,0E0,0E0,0E0,7.800375E0,0E0,0E0,0E0,6.617876E0,0E0,0E0],"parents":[2147483647,0,0,1,1,2,2,5,5,6,6,7,7,8,8,10,10,12,12,14,14,16,16,20,20,22,22,23,23,24,24,27,27,29,29,30,30,34,34,35,35,36,36,38,38,42,42,46,46],"right_children":[2,4,6,-1,-1,8,10,12,14,-1,16,-1,18,-1,20,-1,22,-1,-1,-1,24,-1,26,28,30,-1,-1,32,-1,34,36,-1,-1,-1,38,40,42,-1,44,-1,-1,-1,46,-1,-1,-1,48,-1,-1],"split_conditions":[9.5333564E-1,7.768206E1,3.575882E-1,7.886458E-2,1.6409493E-3,-7.5626993E0,1.516E3,9.5E1,8.13E1,-0E0,6.193925E0,-0E0,7.88E1,-5.0285395E-2,8.09156E-1,-0E0,8E1,-0E0,-8.924218E-2,5.6512304E-2,8.853287E-1,-0E0,1.0924989E2,2.8131018E1,-2.0882681E-1,1.2825555E-1,-0E0,-3.6720508E-1,3.2809586E-3,8.39E1,1.23E2,-0E0,-6.4732164E-2,-1.7426692E-2,9.104269E-1,9.399613E-1,6.24893E0,-0E0,1.38E2,-5.4029515E-3,4.9660247E-2,-0E0,9.145783E-1,6.929205E-2,-0E0,-0E0,6.2465862E1,-7.269975E-2,-0E0],"split_indices":[12,19,13,0,0,18,15,16,9,0,11,0,9,0,14,0,9,0,0,0,14,0,19,18,13,0,0,13,0,9,16,0,0,0,14,14,11,0,16,0,0,0,14,0,0,0,18,0,0],"split_type":[0,0,0,0,0,0,0,0,0,0,0,0,0,0,0,0,0,0,0,0,0,0,0,0,0,0,0,0,0,0,0,0,0,0,0,0,0,0,0,0,0,0,0,0,0,0,0,0,0],"sum_hessian":[2.138923E4,2.1793235E3,1.9209908E4,9.4123846E2,1.238085E3,1.7803812E4,1.406095E3,1.7140027E3,1.608981E4,4.08031E2,9.98064E2,5.838791E2,1.1301235E3,1.435906E3,1.4653904E4,1.9352335E2,8.0454065E2,2.9418009E1,1.1007056E3,6.809345E2,1.397297E4,1.1480901E2,6.897316E2,3.9368823E3,1.0036087E4,6.646801E2,2.5051527E1,2.5218247E3,1.4150577E3,4.678175E3,5.3579126E3,5.764506E2,1.945374E3,7.535409E2,3.9246338E3,1.8371826E3,3.5207297E3,1.3775938E3,2.54704E3,1.0246199E3,8.125627E2,1.00622217E3,2.5145076E3,1.9845244E3,5.625156E2,5.07458E2,2.0070496E3,1.6952361E3,3.1181357E2],"tree_param":{"num_deleted":"0","num_feature":"20","num_nodes":"49","size_leaf_vector":"1"}},{"base_weights":[7.108601E-3,2.7540606E-2,-3.2489043E-2,4.8001952E-2,-0E0,-7.643229E-2,-1.2517887E-2,-0E0,7.272074E-2,2.5838988E-2,-3.0401787E-2,9.1799E-2,-3.470901E-2,-0E0,8.904686E-2,-5.9534494E-2,7.4436353E-3,-0E0,8.357821E-2,3.5058286E-2,7.092503E-2,-0E0,-4.5233365E-2,-0E0,5.3931203E-2],"categories":[],"categories_nodes":[],"categories_segments":[],"categories_sizes":[],"default_left":[1,1,0,0,0,0,1,1,0,0,0,0,0,0,1,0,0,0,0,0,0,0,0,0,0],"id":6,"left_children":[1,3,5,7,-1,-1,9,11,13,-1,15,17,-1,-1,19,21,-1,-1,-1,23,-1,-1,-1,-1,-1],"loss_changes":[1.7211538E1,8.227159E0,1.0282978E1,1.1359596E1,0E0,0E0,6.2206373E0,1.6047787E1,9.350693E0,0E0,8.168399E0,8.758023E0,0E0,0E0,6.998207E0,7.121621E0,0E0,0E0,0E0,7.0373683E0,0E0,0E0,0E0,0E0,0E0],"parents":[2147483647,0,0,1,1,2,2,3,3,6,6,7,7,8,8,10,10,11,11,14,14,15,15,19,19],"right_children":[2,4,6,8,-1,-1,10,12,14,-1,16,18,-1,-1,20,22,-1,-1,-1,24,-1,-1,-1,-1,-1],"split_conditions":[1.0722817E0,7.616487E1,1.078E3,8.29E1,-0E0,-7.643229E-2,6.06637E1,6.310104E1,1.156E3,2.5838988E-2,1.913E3,-2.217088E-1,-3.470901E-2,-0E0,6.328565E0,8.548315E-1,7.4436353E-3,-0E0,8.357821E-2,9.568344E-1,7.092503E-2,-0E0,-4.5233365E-2,-0E0,5.3931203E-2],"split_indices":[12,17,15,9,0,0,19,19,15,0,15,13,0,0,11,14,0,0,0,14,0,0,0,0,0],"split_type":[0,0,0,0,0,0,0,0,0,0,0,0,0,0,0,0,0,0,0,0,0,0,0,0,0],"sum_hessian":[2.1333797E4,1.4609096E4,6.724701E3,8.33742E3,6.271676E3,7.114245E2,6.0132764E3,2.5920308E3,5.7453896E3,9.2932135E2,5.083955E3,9.55627E2,1.6364039E3,7.552656E2,4.9901235E3,3.4895144E3,1.5944407E3,3.377771E2,6.178499E2,2.6708298E3,2.319294E3,9.108374E2,2.578677E3,1.7534935E3,9.1733624E2],"tree_param":{"num_deleted":"0","num_feature":"20","num_nodes":"25","size_leaf_vector":"1"}},{"base_weights":[6.2804465E-4,-6.5989904E-3,3.4965698E-2,-4.879169E-2,1.756856E-3,-0E0,-5.3253893E-2],"categories":[],"categories_nodes":[],"categories_segments":[],"categories_sizes":[],"default_left":[0,0,0,1,0,0,0],"id":7,"left_children":[1,3,-1,5,-1,-1,-1],"loss_changes":[1.2167887E1,9.399333E0,0E0,1.4043559E1,0E0,0E0,0E0],"parents":[2147483647,0,0,1,1,3,3],"right_children":[2,4,-1,6,-1,-1,-1],"split_conditions":[9.8298156E-1,2.9701667E0,3.4965698E-2,6.956981E1,1.756856E-3,-0E0,-5.3253893E-2],"split_indices":[14,18,0,19,0,0,0],"split_type":[0,0,0,0,0,0,0],"sum_hessian":[2.13723E4,1.8889533E4,2.4827676E3,4.162262E3,1.47272705E4,1.894935E3,2.267327E3],"tree_param":{"num_deleted":"0","num_feature":"20","num_nodes":"7","size_leaf_vector":"1"}},{"base_weights":[5.089367E-3,4.402697E-2,-1.1187587E-2,-3.973976E-2,5.8211397E-2,-2.53707E-2,3.214057E-2,3.992745E-2,-1.3790138E-3,-1.0725844E-2,-8.4883064E-2,2.9672008E-2,-3.383638E-2,2.3391476E-2,-2.3796955E-2,-0E0,-6.0492475E-2,-7.916145E-3,-9.865036E-2,-1.46482745E-2,5.8735475E-2,-7.00392E-2,-0E0,6.439936E-2,-0E0],"categories":[],"categories_nodes":[],"categories_segments":[],"categories_sizes":[],"default_left":[1,0,0,0,1,0,0,0,0,1,0,0,0,0,0,0,0,0,0,0,0,0,0,0,0],"id":8,"left_children":[1,3,5,-1,7,9,11,-1,-1,13,15,-1,-1,-1,17,-1,-1,19,21,-1,23,-1,-1,-1,-1],"loss_changes":[1.458064E1,1.1406103E1,8.761351E0,0E0,9.368315E0,6.977017E0,7.2457666E0,0E0,0E0,6.4645185E0,8.326001E0,0E0,0E0,0E0,6.5636773E0,0E0,0E0,8.935975E0,6.2348137E0,0E0,7.3471675E0,0E0,0E0,0E0,0E0],"parents":[2147483647,0,0,1,1,2,2,4,4,5,5,6,6,9,9,10,10,14,14,17,17,18,18,20,20],"right_children":[2,4,6,-1,8,10,12,-1,-1,14,16,-1,-1,-1,18,-1,-1,20,22,-1,24,-1,-1,-1,-1],"split_conditions":[1.15E2,-2.4668953E1,1E0,-3.973976E-2,2.103E3,1.1030349E0,1E0,3.992745E-2,-1.3790138E-3,4.618128E1,-3.7084645E-1,2.9672008E-2,-3.383638E-2,2.3391476E-2,1.39E2,-0E0,-6.0492475E-2,4.9169266E1,2.043E3,-1.46482745E-2,1.932E3,-7.00392E-2,-0E0,6.439936E-2,-0E0],"split_indices":[16,18,4,0,15,12,6,0,0,17,13,0,0,0,16,0,0,18,15,0,15,0,0,0,0],"split_type":[0,0,0,0,0,0,0,0,0,0,0,0,0,0,0,0,0,0,0,0,0,0,0,0,0],"sum_hessian":[2.1264352E4,6.806766E3,1.4457584E4,4.5653613E2,6.35023E3,1.1458648E4,2.998936E3,5.284346E3,1.065884E3,9.679323E3,1.7793248E3,2.6725576E3,3.263783E2,1.3594637E3,8.31986E3,2.2383516E2,1.5554897E3,7.2675605E3,1.0522994E3,5.977053E3,1.2905072E3,8.9222675E2,1.6007266E2,7.3160846E2,5.588988E2],"tree_param":{"num_deleted":"0","num_feature":"20","num_nodes":"25","size_leaf_vector":"1"}},{"base_weights":[-0E0,5.5613138E-2,-3.213325E-3,-4.468357E-2,2.6936529E-3,-8.432056E-2,-0E0,-7.204889E-2,-0E0],"categories":[],"categories_nodes":[],"categories_segments":[],"categories_sizes":[],"default_left":[0,0,1,0,0,0,0,0,0],"id":9,"left_children":[1,-1,3,5,-1,7,-1,-1,-1],"loss_changes":[7.0777626E0,0E0,8.459376E0,7.3410473E0,0E0,9.327542E0,0E0,0E0,0E0],"parents":[2147483647,0,0,2,2,3,3,5,5],"right_children":[2,-1,4,6,-1,8,-1,-1,-1],"split_conditions":[9.0515286E-1,5.5613138E-2,6.1203604E0,-1.7829649E-1,2.6936529E-3,8.75E1,-0E0,-7.204889E-2,-0E0],"split_indices":[12,0,11,13,0,9,0,0,0],"split_type":[0,0,0,0,0,0,0,0,0],"sum_hessian":[2.1260143E4,5.4567883E2,2.0714465E4,4.0599854E3,1.6654479E4,2.1275156E3,1.9324697E3,1.2523983E3,8.7511725E2],"tree_param":{"num_deleted":"0","num_feature":"20","num_nodes":"9","size_leaf_vector":"1"}},{"base_weights":[-1.3051392E-3,-5.435353E-2,2.3491192E-3,-0E0,-1.14458196E-1,-1.4367874E-1,-0E0,-1.8739617E-1,-0E0,-1.2161127E-1,-0E0],"categories":[],"categories_nodes":[],"categories_segments":[],"categories_sizes":[],"default_left":[1,0,0,0,0,0,0,0,0,0,0],"id":10,"left_children":[1,3,-1,-1,5,7,-1,9,-1,-1,-1],"loss_changes":[8.12765E0,1.1360472E1,0E0,0E0,8.285528E0,7.915251E0,0E0,1.1514084E1,0E0,0E0,0E0],"parents":[2147483647,0,0,1,1,4,4,5,5,7,7],"right_children":[2,4,-1,-1,6,8,-1,10,-1,-1,-1],"split_conditions":[1.232E3,9.2258745E-1,2.3491192E-3,-0E0,1.46E2,9.8509467E-1,-0E0,3.9372925E-2,-0E0,-1.2161127E-1,-0E0],"split_indices":[15,14,0,0,16,14,0,13,0,0,0],"split_type":[0,0,0,0,0,0,0,0,0,0,0],"sum_hessian":[2.1236662E4,2.5730903E3,1.8663572E4,1.1742548E3,1.3988356E3,1.2661593E3,1.326763E2,9.4384705E2,3.2231223E2,8.060269E2,1.3782011E2],"tree_param":{"num_deleted":"0","num_feature":"20","num_nodes":"11","size_leaf_vector":"1"}},{"base_weights":[-1.3542933E-3],"categories":[],"categories_nodes":[],"categories_segments":[],"categories_sizes":[],"default_left":[0],"id":11,"left_children":[-1],"loss_changes":[0E0],"parents":[2147483647],"right_children":[-1],"split_conditions":[-7.091261E-4],"split_indices":[0],"split_type":[0],"sum_hessian":[2.1266164E4],"tree_param":{"num_deleted":"0","num_feature":"20","num_nodes":"1","size_leaf_vector":"1"}},{"base_weights":[5.678036E-3,1.9873913E-2,-2.532171E-2,2.7076254E-2,-3.036519E-2,-5.989989E-2,1.2492028E-2,-0E0,2.2167265E-2,-0E0,-1.0487134E-1,3.383113E-2,-2.2114309E-2,3.361505E-2,-3.9384983E-2,-1.7239669E-1,-0E0,-4.6743855E-2,1.0540806E-2,-1.1534507E-1,-0E0],"categories":[],"categories_nodes":[],"categories_segments":[],"categories_sizes":[],"default_left":[1,0,0,0,0,0,0,0,0,0,0,0,0,0,0,1,0,0,0,0,0],"id":12,"left_children":[1,3,5,7,-1,9,11,13,-1,-1,15,-1,-1,-1,17,19,-1,-1,-1,-1,-1],"loss_changes":[9.253052E0,7.746351E0,9.430054E0,7.1876726E0,0E0,7.276478E0,8.006801E0,1.1110381E1,0E0,0E0,9.449873E0,0E0,0E0,0E0,1.1702491E1,1.2263102E1,0E0,0E0,0E0,0E0,0E0],"parents":[2147483647,0,0,1,1,2,2,3,3,5,5,6,6,7,7,10,10,14,14,15,15],"right_children":[2,4,6,8,-1,10,12,14,-1,-1,16,-1,-1,-1,18,20,-1,-1,-1,-1,-1],"split_conditions":[8.340339E1,1.145852E0,9.044718E-1,8.35E1,-3.036519E-2,1.15E2,-8.510064E-2,9.1271746E-1,2.2167265E-2,-0E0,2.7623112E1,3.383113E-2,-2.2114309E-2,3.361505E-2,1E0,2.119E3,-0E0,-4.6743855E-2,1.0540806E-2,-1.1534507E-1,-0E0],"split_indices":[17,12,14,9,0,16,13,14,0,0,18,0,0,0,8,15,0,0,0,0,0],"split_type":[0,0,0,0,0,0,0,0,0,0,0,0,0,0,0,0,0,0,0,0,0],"sum_hessian":[2.1281307E4,1.5308285E4,5.9730215E3,1.4419406E4,8.888786E2,3.5353574E3,2.437664E3,4.5478643E3,9.871542E3,1.7626255E3,1.772732E3,1.537164E3,9.005002E2,1.4395569E3,3.1083076E3,9.344326E2,8.3829944E2,1.9613938E3,1.1469138E3,8.007084E2,1.3372426E2],"tree_param":{"num_deleted":"0","num_feature":"20","num_nodes":"21","size_leaf_vector":"1"}},{"base_weights":[-3.327813E-3],"categories":[],"categories_nodes":[],"categories_segments":[],"categories_sizes":[],"default_left":[0],"id":13,"left_children":[-1],"loss_changes":[0E0],"parents":[2147483647],"right_children":[-1],"split_conditions":[-1.7424874E-3],"split_indices":[0],"split_type":[0],"sum_hessian":[2.118917E4],"tree_param":{"num_deleted":"0","num_feature":"20","num_nodes":"1","size_leaf_vector":"1"}},{"base_weights":[-4.945768E-3,-1.8124692E-2,2.1700876E-2,-3.1556826E-2,1.8566426E-2,2.083418E-2,-3.0576155E-2,-0E0,-5.5639148E-2,5.922942E-2,-1.825313E-2,-8.608905E-3,-5.589169E-2,-0E0,1.22310385E-1,8.037649E-2,-0E0],"categories":[],"categories_nodes":[],"categories_segments":[],"categories_sizes":[],"default_left":[0,1,0,0,0,0,0,0,1,0,0,0,0,0,0,0,0],"id":14,"left_children":[1,3,5,7,9,-1,-1,-1,11,13,-1,-1,-1,-1,15,-1,-1],"loss_changes":[7.363289E0,7.848013E0,8.630015E0,1.0128303E1,8.363173E0,0E0,0E0,0E0,1.0073229E1,8.099607E0,0E0,0E0,0E0,0E0,6.75486E0,0E0,0E0],"parents":[2147483647,0,0,1,1,2,2,3,3,4,4,8,8,9,9,14,14],"right_children":[2,4,6,8,10,-1,-1,-1,12,14,-1,-1,-1,-1,16,-1,-1],"split_conditions":[9.453384E-1,6.8573875E0,2.8875777E-1,8.806013E-1,-1.8000473E-1,2.083418E-2,-3.0576155E-2,-0E0,1.0478907E0,8.7135524E-1,-1.825313E-2,-8.608905E-3,-5.589169E-2,-0E0,2.098E3,8.037649E-2,-0E0],"split_indices":[14,11,13,14,13,0,0,0,12,14,0,0,0,0,15,0,0],"split_type":[0,0,0,0,0,0,0,0,0,0,0,0,0,0,0,0,0],"sum_hessian":[2.115496E4,1.4957672E4,6.1972896E3,1.1583252E4,3.3744197E3,5.4016797E3,7.9561E2,4.6279717E3,6.9552803E3,2.2465178E3,1.1279017E3,4.331385E3,2.6238955E3,1.2262983E3,1.02021954E3,9.1147906E2,1.08740456E2],"tree_param":{"num_deleted":"0","num_feature":"20","num_nodes":"17","size_leaf_vector":"1"}},{"base_weights":[6.1997294E-4,-2.1959739E-3,6.846967E-2,1.6693171E-3,-2.797599E-2,-2.496392E-2,1.14099145E-1,7.8637615E-2,-0E0],"categories":[],"categories_nodes":[],"categories_segments":[],"categories_sizes":[],"default_left":[0,1,0,0,0,0,0,0,0],"id":15,"left_children":[1,3,5,-1,-1,-1,7,-1,-1],"loss_changes":[6.1660557E0,7.1295652E0,9.300777E0,0E0,0E0,0E0,7.10464E0,0E0,0E0],"parents":[2147483647,0,0,1,1,2,2,6,6],"right_children":[2,4,6,-1,-1,-1,8,-1,-1],"split_conditions":[9.09E1,9.879481E1,1.491E3,1.6693171E-3,-2.797599E-2,-2.496392E-2,1.06903534E2,7.8637615E-2,-0E0],"split_indices":[9,19,15,0,0,0,17,0,0],"split_type":[0,0,0,0,0,0,0,0,0],"sum_hessian":[2.1249922E4,2.0016299E4,1.2336221E3,1.7610486E4,2.4058118E3,1.5272198E2,1.0809001E3,9.12367E2,1.6853311E2],"tree_param":{"num_deleted":"0","num_feature":"20","num_nodes":"9","size_leaf_vector":"1"}},{"base_weights":[7.1217604E-5],"categories":[],"categories_nodes":[],"categories_segments":[],"categories_sizes":[],"default_left":[0],"id":16,"left_children":[-1],"loss_changes":[0E0],"parents":[2147483647],"right_children":[-1],"split_conditions":[3.729049E-5],"split_indices":[0],"split_type":[0],"sum_hessian":[2.124475E4],"tree_param":{"num_deleted":"0","num_feature":"20","num_nodes":"1","size_leaf_vector":"1"}},{"base_weights":[-2.923376E-3,1.3480125E-2,-2.2073396E-2,1.1852607E-2,-3.2084033E-2,-5.3496238E-2,-0E0,-0E0,-3.95866E-2,8.2500815E-2,-4.4486546E-3],"categories":[],"categories_nodes":[],"categories_segments":[],"categories_sizes":[],"default_left":[0,0,0,0,0,0,1,0,0,0,0],"id":17,"left_children":[1,3,5,-1,-1,7,9,-1,-1,-1,-1],"loss_changes":[6.9747953E0,6.13938E0,8.923149E0,0E0,0E0,6.78339E0,1.2039666E1,0E0,0E0,0E0,0E0],"parents":[2147483647,0,0,1,1,2,2,5,5,6,6],"right_children":[2,4,6,-1,-1,8,10,-1,-1,-1,-1],"split_conditions":[1E0,-9.393592E-2,1E0,1.1852607E-2,-3.2084033E-2,9.993465E-1,3.979234E1,-0E0,-3.95866E-2,8.2500815E-2,-4.4486546E-3],"split_indices":[1,13,0,0,0,12,17,0,0,0,0],"split_type":[0,0,0,0,0,0,0,0,0,0,0],"sum_hessian":[2.12211E4,1.0555514E4,1.0665586E4,9.817548E3,7.3796576E2,4.8817544E3,5.783832E3,1.28203E3,3.599724E3,4.0642776E2,5.3774043E3],"tree_param":{"num_deleted":"0","num_feature":"20","num_nodes":"11","size_leaf_vector":"1"}},{"base_weights":[2.3923563E-3,1.4076187E-2,-1.5234878E-2,-6.9305436E-3,3.1389877E-2,8.657919E-3,-6.000701E-2,5.2007016E-2,-2.2488525E-3,-1.1134374E-1,-0E0,4.127611E-2,-0E0,-0E0,-1.4705437E-1,-9.534664E-2,-0E0],"categories":[],"categories_nodes":[],"categories_segments":[],"categories_sizes":[],"default_left":[0,0,0,0,0,0,1,0,0,0,0,0,0,0,0,0,0],"id":18,"left_children":[1,3,-1,5,7,-1,9,11,-1,13,-1,-1,-1,-1,15,-1,-1],"loss_changes":[7.404369E0,6.724369E0,0E0,9.663723E0,8.715377E0,0E0,6.606843E0,7.462599E0,0E0,7.456064E0,0E0,0E0,0E0,0E0,6.4796925E0,0E0,0E0],"parents":[2147483647,0,0,1,1,3,3,4,4,6,6,7,7,9,9,14,14],"right_children":[2,4,-1,6,8,-1,10,12,-1,14,-1,-1,-1,-1,16,-1,-1],"split_conditions":[1E0,6.3605604E0,-1.5234878E-2,9.97592E-1,1E0,8.657919E-3,7.7503654E1,8.69E1,-2.2488525E-3,1.111E3,-0E0,4.127611E-2,-0E0,-0E0,1.918E3,-9.534664E-2,-0E0],"split_indices":[6,11,0,12,2,0,19,9,0,15,0,0,0,0,15,0,0],"split_type":[0,0,0,0,0,0,0,0,0,0,0,0,0,0,0,0,0],"sum_hessian":[2.127756E4,1.6272986E4,5.0045737E3,6.548527E3,9.724459E3,4.1599463E3,2.3885808E3,6.703958E3,3.0205015E3,1.1821758E3,1.2064049E3,4.083453E3,2.6205051E3,1.8642204E2,9.957538E2,8.2300903E2,1.7274472E2],"tree_param":{"num_deleted":"0","num_feature":"20","num_nodes":"17","size_leaf_vector":"1"}},{"base_weights":[-4.7638713E-4],"categories":[],"categories_nodes":[],"categories_segments":[],"categories_sizes":[],"default_left":[0],"id":19,"left_children":[-1],"loss_changes":[0E0],"parents":[2147483647],"right_children":[-1],"split_conditions":[-2.4944267E-4],"split_indices":[0],"split_type":[0],"sum_hessian":[2.1242402E4],"tree_param":{"num_deleted":"0","num_feature":"20","num_nodes":"1","size_leaf_vector":"1"}},{"base_weights":[-3.6587287E-3],"categories":[],"categories_nodes":[],"categories_segments":[],"categories_sizes":[],"default_left":[0],"id":20,"left_children":[-1],"loss_changes":[0E0],"parents":[2147483647],"right_children":[-1],"split_conditions":[-1.9157593E-3],"split_indices":[0],"split_type":[0],"sum_hessian":[2.1250111E4],"tree_param":{"num_deleted":"0","num_feature":"20","num_nodes":"1","size_leaf_vector":"1"}},{"base_weights":[-2.7626175E-3],"categories":[],"categories_nodes":[],"categories_segments":[],"categories_sizes":[],"default_left":[0],"id":21,"left_children":[-1],"loss_changes":[0E0],"parents":[2147483647],"right_children":[-1],"split_conditions":[-1.4465435E-3],"split_indices":[0],"split_type":[0],"sum_hessian":[2.1203432E4],"tree_param":{"num_deleted":"0","num_feature":"20","num_nodes":"1","size_leaf_vector":"1"}},{"base_weights":[-0E0],"categories":[],"categories_nodes":[],"categories_segments":[],"categories_sizes":[],"default_left":[0],"id":22,"left_children":[-1],"loss_changes":[0E0],"parents":[2147483647],"right_children":[-1],"split_conditions":[-0E0],"split_indices":[0],"split_type":[0],"sum_hessian":[2.123497E4],"tree_param":{"num_deleted":"0","num_feature":"20","num_nodes":"1","size_leaf_vector":"1"}},{"base_weights":[1.6808143E-3],"categories":[],"categories_nodes":[],"categories_segments":[],"categories_sizes":[],"default_left":[0],"id":23,"left_children":[-1],"loss_changes":[0E0],"parents":[2147483647],"right_children":[-1],"split_conditions":[8.8009686E-4],"split_indices":[0],"split_type":[0],"sum_hessian":[2.1232623E4],"tree_param":{"num_deleted":"0","num_feature":"20","num_nodes":"1","size_leaf_vector":"1"}},{"base_weights":[-0E0],"categories":[],"categories_nodes":[],"categories_segments":[],"categories_sizes":[],"default_left":[0],"id":24,"left_children":[-1],"loss_changes":[0E0],"parents":[2147483647],"right_children":[-1],"split_conditions":[-0E0],"split_indices":[0],"split_type":[0],"sum_hessian":[2.1298363E4],"tree_param":{"num_deleted":"0","num_feature":"20","num_nodes":"1","size_leaf_vector":"1"}},{"base_weights":[-6.9848998E-3],"categories":[],"categories_nodes":[],"categories_segments":[],"categories_sizes":[],"default_left":[0],"id":25,"left_children":[-1],"loss_changes":[0E0],"parents":[2147483647],"right_children":[-1],"split_conditions":[-3.657387E-3],"split_indices":[0],"split_type":[0],"sum_hessian":[2.1171799E4],"tree_param":{"num_deleted":"0","num_feature":"20","num_nodes":"1","size_leaf_vector":"1"}},{"base_weights":[1.184867E-5],"categories":[],"categories_nodes":[],"categories_segments":[],"categories_sizes":[],"default_left":[0],"id":26,"left_children":[-1],"loss_changes":[0E0],"parents":[2147483647],"right_children":[-1],"split_conditions":[6.204122E-6],"split_indices":[0],"split_type":[0],"sum_hessian":[2.124342E4],"tree_param":{"num_deleted":"0","num_feature":"20","num_nodes":"1","size_leaf_vector":"1"}},{"base_weights":[6.554602E-3],"categories":[],"categories_nodes":[],"categories_segments":[],"categories_sizes":[],"default_left":[0],"id":27,"left_children":[-1],"loss_changes":[0E0],"parents":[2147483647],"right_children":[-1],"split_conditions":[3.4320776E-3],"split_indices":[0],"split_type":[0],"sum_hessian":[2.1286281E4],"tree_param":{"num_deleted":"0","num_feature":"20","num_nodes":"1","size_leaf_vector":"1"}},{"base_weights":[4.3274127E-3,-5.356583E-2,4.579941E-3],"categories":[],"categories_nodes":[],"categories_segments":[],"categories_sizes":[],"default_left":[0,0,0],"id":28,"left_children":[1,-1,-1],"loss_changes":[7.1458945E0,0E0,0E0],"parents":[2147483647,0,0],"right_children":[2,-1,-1],"split_conditions":[-2.4668953E1,-5.356583E-2,4.579941E-3],"split_indices":[18,0,0],"split_type":[0,0,0],"sum_hessian":[2.1227215E4,5.0624222E2,2.0720973E4],"tree_param":{"num_deleted":"0","num_feature":"20","num_nodes":"3","size_leaf_vector":"1"}},{"base_weights":[-1.4996355E-4],"categories":[],"categories_nodes":[],"categories_segments":[],"categories_sizes":[],"default_left":[0],"id":29,"left_children":[-1],"loss_changes":[0E0],"parents":[2147483647],"right_children":[-1],"split_conditions":[-7.852293E-5],"split_indices":[0],"split_type":[0],"sum_hessian":[2.122146E4],"tree_param":{"num_deleted":"0","num_feature":"20","num_nodes":"1","size_leaf_vector":"1"}},{"base_weights":[-1.3605127E-3],"categories":[],"categories_nodes":[],"categories_segments":[],"categories_sizes":[],"default_left":[0],"id":30,"left_children":[-1],"loss_changes":[0E0],"parents":[2147483647],"right_children":[-1],"split_conditions":[-7.1238267E-4],"split_indices":[0],"split_type":[0],"sum_hessian":[2.1252676E4],"tree_param":{"num_deleted":"0","num_feature":"20","num_nodes":"1","size_leaf_vector":"1"}},{"base_weights":[1.6400642E-3],"categories":[],"categories_nodes":[],"categories_segments":[],"categories_sizes":[],"default_left":[0],"id":31,"left_children":[-1],"loss_changes":[0E0],"parents":[2147483647],"right_children":[-1],"split_conditions":[8.5875957E-4],"split_indices":[0],"split_type":[0],"sum_hessian":[2.118725E4],"tree_param":{"num_deleted":"0","num_feature":"20","num_nodes":"1","size_leaf_vector":"1"}},{"base_weights":[-0E0],"categories":[],"categories_nodes":[],"categories_segments":[],"categories_sizes":[],"default_left":[0],"id":32,"left_children":[-1],"loss_changes":[0E0],"parents":[2147483647],"right_children":[-1],"split_conditions":[-0E0],"split_indices":[0],"split_type":[0],"sum_hessian":[2.1199977E4],"tree_param":{"num_deleted":"0","num_feature":"20","num_nodes":"1","size_leaf_vector":"1"}},{"base_weights":[-0E0],"categories":[],"categories_nodes":[],"categories_segments":[],"categories_sizes":[],"default_left":[0],"id":33,"left_children":[-1],"loss_changes":[0E0],"parents":[2147483647],"right_children":[-1],"split_conditions":[-0E0],"split_indices":[0],"split_type":[0],"sum_hessian":[2.1203328E4],"tree_param":{"num_deleted":"0","num_feature":"20","num_nodes":"1","size_leaf_vector":"1"}},{"base_weights":[6.9411553E-4],"categories":[],"categories_nodes":[],"categories_segments":[],"categories_sizes":[],"default_left":[0],"id":34,"left_children":[-1],"loss_changes":[0E0],"parents":[2147483647],"right_children":[-1],"split_conditions":[3.634482E-4],"split_indices":[0],"split_type":[0],"sum_hessian":[2.1244926E4],"tree_param":{"num_deleted":"0","num_feature":"20","num_nodes":"1","size_leaf_vector":"1"}},{"base_weights":[-5.3581703E-3],"categories":[],"categories_nodes":[],"categories_segments":[],"categories_sizes":[],"default_left":[0],"id":35,"left_children":[-1],"loss_changes":[0E0],"parents":[2147483647],"right_children":[-1],"split_conditions":[-2.8056097E-3],"split_indices":[0],"split_type":[0],"sum_hessian":[2.1186373E4],"tree_param":{"num_deleted":"0","num_feature":"20","num_nodes":"1","size_leaf_vector":"1"}},{"base_weights":[-4.1592633E-3],"categories":[],"categories_nodes":[],"categories_segments":[],"categories_sizes":[],"default_left":[0],"id":36,"left_children":[-1],"loss_changes":[0E0],"parents":[2147483647],"right_children":[-1],"split_conditions":[-2.177846E-3],"split_indices":[0],"split_type":[0],"sum_hessian":[2.1221148E4],"tree_param":{"num_deleted":"0","num_feature":"20","num_nodes":"1","size_leaf_vector":"1"}},{"base_weights":[2.548623E-3],"categories":[],"categories_nodes":[],"categories_segments":[],"categories_sizes":[],"default_left":[0],"id":37,"left_children":[-1],"loss_changes":[0E0],"parents":[2147483647],"right_children":[-1],"split_conditions":[1.334493E-3],"split_indices":[0],"split_type":[0],"sum_hessian":[2.1194389E4],"tree_param":{"num_deleted":"0","num_feature":"20","num_nodes":"1","size_leaf_vector":"1"}},{"base_weights":[-0E0],"categories":[],"categories_nodes":[],"categories_segments":[],"categories_sizes":[],"default_left":[0],"id":38,"left_children":[-1],"loss_changes":[0E0],"parents":[2147483647],"right_children":[-1],"split_conditions":[-0E0],"split_indices":[0],"split_type":[0],"sum_hessian":[2.1275377E4],"tree_param":{"num_deleted":"0","num_feature":"20","num_nodes":"1","size_leaf_vector":"1"}},{"base_weights":[-1.398311E-3,2.4240507E-2,-4.8828986E-3],"categories":[],"categories_nodes":[],"categories_segments":[],"categories_sizes":[],"default_left":[0,0,0],"id":39,"left_children":[1,-1,-1],"loss_changes":[6.938593E0,0E0,0E0],"parents":[2147483647,0,0],"right_children":[2,-1,-1],"split_conditions":[1.02E2,2.4240507E-2,-4.8828986E-3],"split_indices":[16,0,0],"split_type":[0,0,0],"sum_hessian":[2.1294285E4,2.4261072E3,1.8868178E4],"tree_param":{"num_deleted":"0","num_feature":"20","num_nodes":"3","size_leaf_vector":"1"}},{"base_weights":[3.3328282E-3,1.7295972E-2,-1.0777464E-2,2.6239175E-2,-0E0],"categories":[],"categories_nodes":[],"categories_segments":[],"categories_sizes":[],"default_left":[1,0,0,0,0],"id":40,"left_children":[1,3,-1,-1,-1],"loss_changes":[7.0582576E0,9.653963E0,0E0,0E0,0E0],"parents":[2147483647,0,0,1,1],"right_children":[2,4,-1,-1,-1],"split_conditions":[1.28E2,-6.211111E0,-1.0777464E-2,2.6239175E-2,-0E0],"split_indices":[16,10,0,0,0],"split_type":[0,0,0,0,0],"sum_hessian":[2.1316414E4,1.42999795E4,7.016435E3,5.4926445E3,8.807335E3],"tree_param":{"num_deleted":"0","num_feature":"20","num_nodes":"5","size_leaf_vector":"1"}},{"base_weights":[-0E0,-5.0953645E-3,2.815806E-2,-2.9511968E-2,1.215471E-2,-0E0,-3.0245202E-2,-7.425477E-3,3.3728547E-2,1.2047846E-2,-4.107279E-2,8.3497E-3,-3.2012902E-2,-3.9855815E-3,1.0958207E-1,1.5052925E-1,-0E0,-0E0,1.9597884E-1,-0E0,1.1780595E-1],"categories":[],"categories_nodes":[],"categories_segments":[],"categories_sizes":[],"default_left":[1,0,0,1,0,0,0,0,0,0,0,0,0,0,0,0,0,0,0,0,0],"id":41,"left_children":[1,3,-1,5,7,9,-1,11,-1,-1,-1,13,-1,-1,15,17,-1,-1,19,-1,-1],"loss_changes":[6.6779656E0,8.667084E0,0E0,7.8653803E0,1.2625318E1,7.059588E0,0E0,7.8764358E0,0E0,0E0,0E0,1.1732848E1,0E0,0E0,6.467887E0,8.810871E0,0E0,0E0,6.393858E0,0E0,0E0],"parents":[2147483647,0,0,1,1,3,3,4,4,5,5,7,7,11,11,14,14,15,15,18,18],"right_children":[2,4,-1,6,8,10,-1,12,-1,-1,-1,14,-1,-1,16,18,-1,-1,20,-1,-1],"split_conditions":[9E-1,8.55E1,2.815806E-2,7.326199E1,3.327082E1,1.1000446E0,-3.0245202E-2,-1.8341233E-1,3.3728547E-2,1.2047846E-2,-4.107279E-2,9.3172246E-1,-3.2012902E-2,-3.9855815E-3,1.38E2,-3.7463254E-1,-0E0,-0E0,9.65E2,-0E0,1.1780595E-1],"split_indices":[10,9,0,19,18,12,0,13,0,0,0,14,0,0,16,13,0,0,15,0,0],"split_type":[0,0,0,0,0,0,0,0,0,0,0,0,0,0,0,0,0,0,0,0,0],"sum_hessian":[2.1239139E4,1.9165299E4,2.0738396E3,8.670913E3,1.0494387E4,4.0964507E3,4.5744624E3,7.2354424E3,3.2589443E3,3.301286E3,7.9516486E2,5.1811455E3,2.0542966E3,4.2572056E3,9.239398E2,7.456026E2,1.7833723E2,1.02043785E2,6.4355884E2,4.4070206E1,5.9948865E2],"tree_param":{"num_deleted":"0","num_feature":"20","num_nodes":"21","size_leaf_vector":"1"}},{"base_weights":[-0E0],"categories":[],"categories_nodes":[],"categories_segments":[],"categories_sizes":[],"default_left":[0],"id":42,"left_children":[-1],"loss_changes":[0E0],"parents":[2147483647],"right_children":[-1],"split_conditions":[-0E0],"split_indices":[0],"split_type":[0],"sum_hessian":[2.1226086E4],"tree_param":{"num_deleted":"0","num_feature":"20","num_nodes":"1","size_leaf_vector":"1"}},{"base_weights":[-2.7136244E-3],"categories":[],"categories_nodes":[],"categories_segments":[],"categories_sizes":[],"default_left":[0],"id":43,"left_children":[-1],"loss_changes":[0E0],"parents":[2147483647],"right_children":[-1],"split_conditions":[-1.4208901E-3],"split_indices":[0],"split_type":[0],"sum_hessian":[2.1230174E4],"tree_param":{"num_deleted":"0","num_feature":"20","num_nodes":"1","size_leaf_vector":"1"}},{"base_weights":[-2.4952912E-3],"categories":[],"categories_nodes":[],"categories_segments":[],"categories_sizes":[],"default_left":[0],"id":44,"left_children":[-1],"loss_changes":[0E0],"parents":[2147483647],"right_children":[-1],"split_conditions":[-1.3065679E-3],"split_indices":[0],"split_type":[0],"sum_hessian":[2.1150748E4],"tree_param":{"num_deleted":"0","num_feature":"20","num_nodes":"1","size_leaf_vector":"1"}},{"base_weights":[-0E0],"categories":[],"categories_nodes":[],"categories_segments":[],"categories_sizes":[],"default_left":[0],"id":45,"left_children":[-1],"loss_changes":[0E0],"parents":[2147483647],"right_children":[-1],"split_conditions":[-0E0],"split_indices":[0],"split_type":[0],"sum_hessian":[2.1211924E4],"tree_param":{"num_deleted":"0","num_feature":"20","num_nodes":"1","size_leaf_vector":"1"}},{"base_weights":[3.055685E-3],"categories":[],"categories_nodes":[],"categories_segments":[],"categories_sizes":[],"default_left":[0],"id":46,"left_children":[-1],"loss_changes":[0E0],"parents":[2147483647],"right_children":[-1],"split_conditions":[1.5999976E-3],"split_indices":[0],"split_type":[0],"sum_hessian":[2.1236982E4],"tree_param":{"num_deleted":"0","num_feature":"20","num_nodes":"1","size_leaf_vector":"1"}},{"base_weights":[-3.5905783E-4,-3.4440674E-2,1.7937898E-3],"categories":[],"categories_nodes":[],"categories_segments":[],"categories_sizes":[],"default_left":[0,0,0],"id":47,"left_children":[1,-1,-1],"loss_changes":[7.2253113E0,0E0,0E0],"parents":[2147483647,0,0],"right_children":[2,-1,-1],"split_conditions":[-1.1855029E1,-3.4440674E-2,1.7937898E-3],"split_indices":[18,0,0],"split_type":[0,0,0],"sum_hessian":[2.1141785E4,1.5546688E3,1.9587117E4],"tree_param":{"num_deleted":"0","num_feature":"20","num_nodes":"3","size_leaf_vector":"1"}},{"base_weights":[3.84204E-4],"categories":[],"categories_nodes":[],"categories_segments":[],"categories_sizes":[],"default_left":[0],"id":48,"left_children":[-1],"loss_changes":[0E0],"parents":[2147483647],"right_children":[-1],"split_conditions":[2.0117436E-4],"split_indices":[0],"split_type":[0],"sum_hessian":[2.1207684E4],"tree_param":{"num_deleted":"0","num_feature":"20","num_nodes":"1","size_leaf_vector":"1"}},{"base_weights":[-0E0],"categories":[],"categories_nodes":[],"categories_segments":[],"categories_sizes":[],"default_left":[0],"id":49,"left_children":[-1],"loss_changes":[0E0],"parents":[2147483647],"right_children":[-1],"split_conditions":[-0E0],"split_indices":[0],"split_type":[0],"sum_hessian":[2.1218332E4],"tree_param":{"num_deleted":"0","num_feature":"20","num_nodes":"1","size_leaf_vector":"1"}},{"base_weights":[-0E0],"categories":[],"categories_nodes":[],"categories_segments":[],"categories_sizes":[],"default_left":[0],"id":50,"left_children":[-1],"loss_changes":[0E0],"parents":[2147483647],"right_children":[-1],"split_conditions":[-0E0],"split_indices":[0],"split_type":[0],"sum_hessian":[2.123529E4],"tree_param":{"num_deleted":"0","num_feature":"20","num_nodes":"1","size_leaf_vector":"1"}},{"base_weights":[1.4140254E-3],"categories":[],"categories_nodes":[],"categories_segments":[],"categories_sizes":[],"default_left":[0],"id":51,"left_children":[-1],"loss_changes":[0E0],"parents":[2147483647],"right_children":[-1],"split_conditions":[7.4040267E-4],"split_indices":[0],"split_type":[0],"sum_hessian":[2.124584E4],"tree_param":{"num_deleted":"0","num_feature":"20","num_nodes":"1","size_leaf_vector":"1"}},{"base_weights":[-5.8605084E-3],"categories":[],"categories_nodes":[],"categories_segments":[],"categories_sizes":[],"default_left":[0],"id":52,"left_children":[-1],"loss_changes":[0E0],"parents":[2147483647],"right_children":[-1],"split_conditions":[-3.0686406E-3],"split_indices":[0],"split_type":[0],"sum_hessian":[2.115752E4],"tree_param":{"num_deleted":"0","num_feature":"20","num_nodes":"1","size_leaf_vector":"1"}},{"base_weights":[-0E0],"categories":[],"categories_nodes":[],"categories_segments":[],"categories_sizes":[],"default_left":[0],"id":53,"left_children":[-1],"loss_changes":[0E0],"parents":[2147483647],"right_children":[-1],"split_conditions":[-0E0],"split_indices":[0],"split_type":[0],"sum_hessian":[2.1225908E4],"tree_param":{"num_deleted":"0","num_feature":"20","num_nodes":"1","size_leaf_vector":"1"}},{"base_weights":[5.110851E-3],"categories":[],"categories_nodes":[],"categories_segments":[],"categories_sizes":[],"default_left":[0],"id":54,"left_children":[-1],"loss_changes":[0E0],"parents":[2147483647],"right_children":[-1],"split_conditions":[2.67611E-3],"split_indices":[0],"split_type":[0],"sum_hessian":[2.1205137E4],"tree_param":{"num_deleted":"0","num_feature":"20","num_nodes":"1","size_leaf_vector":"1"}},{"base_weights":[2.9676396E-3],"categories":[],"categories_nodes":[],"categories_segments":[],"categories_sizes":[],"default_left":[0],"id":55,"left_children":[-1],"loss_changes":[0E0],"parents":[2147483647],"right_children":[-1],"split_conditions":[1.5538959E-3],"split_indices":[0],"split_type":[0],"sum_hessian":[2.1231254E4],"tree_param":{"num_deleted":"0","num_feature":"20","num_nodes":"1","size_leaf_vector":"1"}},{"base_weights":[3.425686E-4],"categories":[],"categories_nodes":[],"categories_segments":[],"categories_sizes":[],"default_left":[0],"id":56,"left_children":[-1],"loss_changes":[0E0],"parents":[2147483647],"right_children":[-1],"split_conditions":[1.793735E-4],"split_indices":[0],"split_type":[0],"sum_hessian":[2.1238318E4],"tree_param":{"num_deleted":"0","num_feature":"20","num_nodes":"1","size_leaf_vector":"1"}},{"base_weights":[2.0304234E-3],"categories":[],"categories_nodes":[],"categories_segments":[],"categories_sizes":[],"default_left":[0],"id":57,"left_children":[-1],"loss_changes":[0E0],"parents":[2147483647],"right_children":[-1],"split_conditions":[1.0631569E-3],"split_indices":[0],"split_type":[0],"sum_hessian":[2.1178598E4],"tree_param":{"num_deleted":"0","num_feature":"20","num_nodes":"1","size_leaf_vector":"1"}},{"base_weights":[-5.2039156E-4],"categories":[],"categories_nodes":[],"categories_segments":[],"categories_sizes":[],"default_left":[0],"id":58,"left_children":[-1],"loss_changes":[0E0],"parents":[2147483647],"right_children":[-1],"split_conditions":[-2.72484E-4],"split_indices":[0],"split_type":[0],"sum_hessian":[2.1186594E4],"tree_param":{"num_deleted":"0","num_feature":"20","num_nodes":"1","size_leaf_vector":"1"}},{"base_weights":[-6.68311E-4],"categories":[],"categories_nodes":[],"categories_segments":[],"categories_sizes":[],"default_left":[0],"id":59,"left_children":[-1],"loss_changes":[0E0],"parents":[2147483647],"right_children":[-1],"split_conditions":[-3.499366E-4],"split_indices":[0],"split_type":[0],"sum_hessian":[2.1132682E4],"tree_param":{"num_deleted":"0","num_feature":"20","num_nodes":"1","size_leaf_vector":"1"}},{"base_weights":[-6.630742E-5,1.3483256E-3,-4.027303E-2],"categories":[],"categories_nodes":[],"categories_segments":[],"categories_sizes":[],"default_left":[1,0,0],"id":60,"left_children":[1,-1,-1],"loss_changes":[6.662938E0,0E0,0E0],"parents":[2147483647,0,0],"right_children":[2,-1,-1],"split_conditions":[1.0093391E2,1.3483256E-3,-4.027303E-2],"split_indices":[17,0,0],"split_type":[0,0,0],"sum_hessian":[2.118182E4,2.0140867E4,1.0409525E3],"tree_param":{"num_deleted":"0","num_feature":"20","num_nodes":"3","size_leaf_vector":"1"}},{"base_weights":[-1.5395102E-3],"categories":[],"categories_nodes":[],"categories_segments":[],"categories_sizes":[],"default_left":[0],"id":61,"left_children":[-1],"loss_changes":[0E0],"parents":[2147483647],"right_children":[-1],"split_conditions":[-8.061082E-4],"split_indices":[0],"split_type":[0],"sum_hessian":[2.1201268E4],"tree_param":{"num_deleted":"0","num_feature":"20","num_nodes":"1","size_leaf_vector":"1"}},{"base_weights":[4.1935323E-3,-0E0,5.0776094E-2],"categories":[],"categories_nodes":[],"categories_segments":[],"categories_sizes":[],"default_left":[0,0,0],"id":62,"left_children":[1,-1,-1],"loss_changes":[6.991679E0,0E0,0E0],"parents":[2147483647,0,0],"right_children":[2,-1,-1],"split_conditions":[1.0147241E0,-0E0,5.0776094E-2],"split_indices":[14,0,0],"split_type":[0,0,0],"sum_hessian":[2.1200291E4,2.047975E4,7.205403E2],"tree_param":{"num_deleted":"0","num_feature":"20","num_nodes":"3","size_leaf_vector":"1"}},{"base_weights":[-0E0],"categories":[],"categories_nodes":[],"categories_segments":[],"categories_sizes":[],"default_left":[0],"id":63,"left_children":[-1],"loss_changes":[0E0],"parents":[2147483647],"right_children":[-1],"split_conditions":[-0E0],"split_indices":[0],"split_type":[0],"sum_hessian":[2.1175707E4],"tree_param":{"num_deleted":"0","num_feature":"20","num_nodes":"1","size_leaf_vector":"1"}},{"base_weights":[-0E0],"categories":[],"categories_nodes":[],"categories_segments":[],"categories_sizes":[],"default_left":[0],"id":64,"left_children":[-1],"loss_changes":[0E0],"parents":[2147483647],"right_children":[-1],"split_conditions":[-0E0],"split_indices":[0],"split_type":[0],"sum_hessian":[2.1182455E4],"tree_param":{"num_deleted":"0","num_feature":"20","num_nodes":"1","size_leaf_vector":"1"}},{"base_weights":[-7.4264263E-3],"categories":[],"categories_nodes":[],"categories_segments":[],"categories_sizes":[],"default_left":[0],"id":65,"left_children":[-1],"loss_changes":[0E0],"parents":[2147483647],"right_children":[-1],"split_conditions":[-3.8885763E-3],"split_indices":[0],"split_type":[0],"sum_hessian":[2.1179986E4],"tree_param":{"num_deleted":"0","num_feature":"20","num_nodes":"1","size_leaf_vector":"1"}},{"base_weights":[2.7559302E-3],"categories":[],"categories_nodes":[],"categories_segments":[],"categories_sizes":[],"default_left":[0],"id":66,"left_children":[-1],"loss_changes":[0E0],"parents":[2147483647],"right_children":[-1],"split_conditions":[1.443042E-3],"split_indices":[0],"split_type":[0],"sum_hessian":[2.1238084E4],"tree_param":{"num_deleted":"0","num_feature":"20","num_nodes":"1","size_leaf_vector":"1"}},{"base_weights":[-0E0],"categories":[],"categories_nodes":[],"categories_segments":[],"categories_sizes":[],"default_left":[0],"id":67,"left_children":[-1],"loss_changes":[0E0],"parents":[2147483647],"right_children":[-1],"split_conditions":[-0E0],"split_indices":[0],"split_type":[0],"sum_hessian":[2.1227377E4],"tree_param":{"num_deleted":"0","num_feature":"20","num_nodes":"1","size_leaf_vector":"1"}},{"base_weights":[-0E0],"categories":[],"categories_nodes":[],"categories_segments":[],"categories_sizes":[],"default_left":[0],"id":68,"left_children":[-1],"loss_changes":[0E0],"parents":[2147483647],"right_children":[-1],"split_conditions":[-0E0],"split_indices":[0],"split_type":[0],"sum_hessian":[2.117733E4],"tree_param":{"num_deleted":"0","num_feature":"20","num_nodes":"1","size_leaf_vector":"1"}},{"base_weights":[-0E0],"categories":[],"categories_nodes":[],"categories_segments":[],"categories_sizes":[],"default_left":[0],"id":69,"left_children":[-1],"loss_changes":[0E0],"parents":[2147483647],"right_children":[-1],"split_conditions":[-0E0],"split_indices":[0],"split_type":[0],"sum_hessian":[2.114076E4],"tree_param":{"num_deleted":"0","num_feature":"20","num_nodes":"1","size_leaf_vector":"1"}},{"base_weights":[-0E0],"categories":[],"categories_nodes":[],"categories_segments":[],"categories_sizes":[],"default_left":[0],"id":70,"left_children":[-1],"loss_changes":[0E0],"parents":[2147483647],"right_children":[-1],"split_conditions":[-0E0],"split_indices":[0],"split_type":[0],"sum_hessian":[2.1182303E4],"tree_param":{"num_deleted":"0","num_feature":"20","num_nodes":"1","size_leaf_vector":"1"}},{"base_weights":[-0E0],"categories":[],"categories_nodes":[],"categories_segments":[],"categories_sizes":[],"default_left":[0],"id":71,"left_children":[-1],"loss_changes":[0E0],"parents":[2147483647],"right_children":[-1],"split_conditions":[-0E0],"split_indices":[0],"split_type":[0],"sum_hessian":[2.1165865E4],"tree_param":{"num_deleted":"0","num_feature":"20","num_nodes":"1","size_leaf_vector":"1"}},{"base_weights":[2.3063133E-4],"categories":[],"categories_nodes":[],"categories_segments":[],"categories_sizes":[],"default_left":[0],"id":72,"left_children":[-1],"loss_changes":[0E0],"parents":[2147483647],"right_children":[-1],"split_conditions":[1.2076165E-4],"split_indices":[0],"split_type":[0],"sum_hessian":[2.1204848E4],"tree_param":{"num_deleted":"0","num_feature":"20","num_nodes":"1","size_leaf_vector":"1"}},{"base_weights":[-3.7617172E-4],"categories":[],"categories_nodes":[],"categories_segments":[],"categories_sizes":[],"default_left":[0],"id":73,"left_children":[-1],"loss_changes":[0E0],"parents":[2147483647],"right_children":[-1],"split_conditions":[-1.9696855E-4],"split_indices":[0],"split_type":[0],"sum_hessian":[2.117759E4],"tree_param":{"num_deleted":"0","num_feature":"20","num_nodes":"1","size_leaf_vector":"1"}},{"base_weights":[-1.0403543E-4],"categories":[],"categories_nodes":[],"categories_segments":[],"categories_sizes":[],"default_left":[0],"id":74,"left_children":[-1],"loss_changes":[0E0],"parents":[2147483647],"right_children":[-1],"split_conditions":[-5.4474345E-5],"split_indices":[0],"split_type":[0],"sum_hessian":[2.1221752E4],"tree_param":{"num_deleted":"0","num_feature":"20","num_nodes":"1","size_leaf_vector":"1"}},{"base_weights":[-0E0],"categories":[],"categories_nodes":[],"categories_segments":[],"categories_sizes":[],"default_left":[0],"id":75,"left_children":[-1],"loss_changes":[0E0],"parents":[2147483647],"right_children":[-1],"split_conditions":[-0E0],"split_indices":[0],"split_type":[0],"sum_hessian":[2.1209158E4],"tree_param":{"num_deleted":"0","num_feature":"20","num_nodes":"1","size_leaf_vector":"1"}},{"base_weights":[-0E0],"categories":[],"categories_nodes":[],"categories_segments":[],"categories_sizes":[],"default_left":[0],"id":76,"left_children":[-1],"loss_changes":[0E0],"parents":[2147483647],"right_children":[-1],"split_conditions":[-0E0],"split_indices":[0],"split_type":[0],"sum_hessian":[2.1101998E4],"tree_param":{"num_deleted":"0","num_feature":"20","num_nodes":"1","size_leaf_vector":"1"}},{"base_weights":[-0E0],"categories":[],"categories_nodes":[],"categories_segments":[],"categories_sizes":[],"default_left":[0],"id":77,"left_children":[-1],"loss_changes":[0E0],"parents":[2147483647],"right_children":[-1],"split_conditions":[-0E0],"split_indices":[0],"split_type":[0],"sum_hessian":[2.126892E4],"tree_param":{"num_deleted":"0","num_feature":"20","num_nodes":"1","size_leaf_vector":"1"}},{"base_weights":[1.7404591E-3],"categories":[],"categories_nodes":[],"categories_segments":[],"categories_sizes":[],"default_left":[0],"id":78,"left_children":[-1],"loss_changes":[0E0],"parents":[2147483647],"right_children":[-1],"split_conditions":[9.113277E-4],"split_indices":[0],"split_type":[0],"sum_hessian":[2.1192729E4],"tree_param":{"num_deleted":"0","num_feature":"20","num_nodes":"1","size_leaf_vector":"1"}},{"base_weights":[-0E0],"categories":[],"categories_nodes":[],"categories_segments":[],"categories_sizes":[],"default_left":[0],"id":79,"left_children":[-1],"loss_changes":[0E0],"parents":[2147483647],"right_children":[-1],"split_conditions":[-0E0],"split_indices":[0],"split_type":[0],"sum_hessian":[2.1209783E4],"tree_param":{"num_deleted":"0","num_feature":"20","num_nodes":"1","size_leaf_vector":"1"}},{"base_weights":[-0E0],"categories":[],"categories_nodes":[],"categories_segments":[],"categories_sizes":[],"default_left":[0],"id":80,"left_children":[-1],"loss_changes":[0E0],"parents":[2147483647],"right_children":[-1],"split_conditions":[-0E0],"split_indices":[0],"split_type":[0],"sum_hessian":[2.1294305E4],"tree_param":{"num_deleted":"0","num_feature":"20","num_nodes":"1","size_leaf_vector":"1"}},{"base_weights":[3.387755E-3],"categories":[],"categories_nodes":[],"categories_segments":[],"categories_sizes":[],"default_left":[0],"id":81,"left_children":[-1],"loss_changes":[0E0],"parents":[2147483647],"right_children":[-1],"split_conditions":[1.7738739E-3],"split_indices":[0],"split_type":[0],"sum_hessian":[2.1295764E4],"tree_param":{"num_deleted":"0","num_feature":"20","num_nodes":"1","size_leaf_vector":"1"}},{"base_weights":[-1.9783252E-3],"categories":[],"categories_nodes":[],"categories_segments":[],"categories_sizes":[],"default_left":[0],"id":82,"left_children":[-1],"loss_changes":[0E0],"parents":[2147483647],"right_children":[-1],"split_conditions":[-1.0358776E-3],"split_indices":[0],"split_type":[0],"sum_hessian":[2.1201463E4],"tree_param":{"num_deleted":"0","num_feature":"20","num_nodes":"1","size_leaf_vector":"1"}},{"base_weights":[-1.3318508E-3],"categories":[],"categories_nodes":[],"categories_segments":[],"categories_sizes":[],"default_left":[0],"id":83,"left_children":[-1],"loss_changes":[0E0],"parents":[2147483647],"right_children":[-1],"split_conditions":[-6.973749E-4],"split_indices":[0],"split_type":[0],"sum_hessian":[2.1206303E4],"tree_param":{"num_deleted":"0","num_feature":"20","num_nodes":"1","size_leaf_vector":"1"}},{"base_weights":[-1.1372225E-3],"categories":[],"categories_nodes":[],"categories_segments":[],"categories_sizes":[],"default_left":[0],"id":84,"left_children":[-1],"loss_changes":[0E0],"parents":[2147483647],"right_children":[-1],"split_conditions":[-5.9546495E-4],"split_indices":[0],"split_type":[0],"sum_hessian":[2.1194648E4],"tree_param":{"num_deleted":"0","num_feature":"20","num_nodes":"1","size_leaf_vector":"1"}},{"base_weights":[3.4416602E-3],"categories":[],"categories_nodes":[],"categories_segments":[],"categories_sizes":[],"default_left":[0],"id":85,"left_children":[-1],"loss_changes":[0E0],"parents":[2147483647],"right_children":[-1],"split_conditions":[1.8020994E-3],"split_indices":[0],"split_type":[0],"sum_hessian":[2.12168E4],"tree_param":{"num_deleted":"0","num_feature":"20","num_nodes":"1","size_leaf_vector":"1"}},{"base_weights":[-0E0],"categories":[],"categories_nodes":[],"categories_segments":[],"categories_sizes":[],"default_left":[0],"id":86,"left_children":[-1],"loss_changes":[0E0],"parents":[2147483647],"right_children":[-1],"split_conditions":[-0E0],"split_indices":[0],"split_type":[0],"sum_hessian":[2.1211443E4],"tree_param":{"num_deleted":"0","num_feature":"20","num_nodes":"1","size_leaf_vector":"1"}},{"base_weights":[-2.8609133E-3],"categories":[],"categories_nodes":[],"categories_segments":[],"categories_sizes":[],"default_left":[0],"id":87,"left_children":[-1],"loss_changes":[0E0],"parents":[2147483647],"right_children":[-1],"split_conditions":[-1.4980126E-3],"split_indices":[0],"split_type":[0],"sum_hessian":[2.118034E4],"tree_param":{"num_deleted":"0","num_feature":"20","num_nodes":"1","size_leaf_vector":"1"}},{"base_weights":[3.774247E-4],"categories":[],"categories_nodes":[],"categories_segments":[],"categories_sizes":[],"default_left":[0],"id":88,"left_children":[-1],"loss_changes":[0E0],"parents":[2147483647],"right_children":[-1],"split_conditions":[1.9762463E-4],"split_indices":[0],"split_type":[0],"sum_hessian":[2.1230203E4],"tree_param":{"num_deleted":"0","num_feature":"20","num_nodes":"1","size_leaf_vector":"1"}},{"base_weights":[-0E0],"categories":[],"categories_nodes":[],"categories_segments":[],"categories_sizes":[],"default_left":[0],"id":89,"left_children":[-1],"loss_changes":[0E0],"parents":[2147483647],"right_children":[-1],"split_conditions":[-0E0],"split_indices":[0],"split_type":[0],"sum_hessian":[2.1151799E4],"tree_param":{"num_deleted":"0","num_feature":"20","num_nodes":"1","size_leaf_vector":"1"}},{"base_weights":[6.459134E-3],"categories":[],"categories_nodes":[],"categories_segments":[],"categories_sizes":[],"default_left":[0],"id":90,"left_children":[-1],"loss_changes":[0E0],"parents":[2147483647],"right_children":[-1],"split_conditions":[3.382089E-3],"split_indices":[0],"split_type":[0],"sum_hessian":[2.1178955E4],"tree_param":{"num_deleted":"0","num_feature":"20","num_nodes":"1","size_leaf_vector":"1"}},{"base_weights":[-8.359653E-3],"categories":[],"categories_nodes":[],"categories_segments":[],"categories_sizes":[],"default_left":[0],"id":91,"left_children":[-1],"loss_changes":[0E0],"parents":[2147483647],"right_children":[-1],"split_conditions":[-4.3772263E-3],"split_indices":[0],"split_type":[0],"sum_hessian":[2.1145123E4],"tree_param":{"num_deleted":"0","num_feature":"20","num_nodes":"1","size_leaf_vector":"1"}},{"base_weights":[4.4364417E-3,3.3278015E-2,-0E0],"categories":[],"categories_nodes":[],"categories_segments":[],"categories_sizes":[],"default_left":[0,0,0],"id":92,"left_children":[1,-1,-1],"loss_changes":[6.656679E0,0E0,0E0],"parents":[2147483647,0,0],"right_children":[2,-1,-1],"split_conditions":[8.15797E-1,3.3278015E-2,-0E0],"split_indices":[14,0,0],"split_type":[0,0,0],"sum_hessian":[2.1212295E4,1.6889656E3,1.952333E4],"tree_param":{"num_deleted":"0","num_feature":"20","num_nodes":"3","size_leaf_vector":"1"}},{"base_weights":[-2.5554774E-3],"categories":[],"categories_nodes":[],"categories_segments":[],"categories_sizes":[],"default_left":[0],"id":93,"left_children":[-1],"loss_changes":[0E0],"parents":[2147483647],"right_children":[-1],"split_conditions":[-1.3380822E-3],"split_indices":[0],"split_type":[0],"sum_hessian":[2.1177143E4],"tree_param":{"num_deleted":"0","num_feature":"20","num_nodes":"1","size_leaf_vector":"1"}},{"base_weights":[5.275236E-4],"categories":[],"categories_nodes":[],"categories_segments":[],"categories_sizes":[],"default_left":[0],"id":94,"left_children":[-1],"loss_changes":[0E0],"parents":[2147483647],"right_children":[-1],"split_conditions":[2.762184E-4],"split_indices":[0],"split_type":[0],"sum_hessian":[2.1270074E4],"tree_param":{"num_deleted":"0","num_feature":"20","num_nodes":"1","size_leaf_vector":"1"}},{"base_weights":[-0E0],"categories":[],"categories_nodes":[],"categories_segments":[],"categories_sizes":[],"default_left":[0],"id":95,"left_children":[-1],"loss_changes":[0E0],"parents":[2147483647],"right_children":[-1],"split_conditions":[-0E0],"split_indices":[0],"split_type":[0],"sum_hessian":[2.1159416E4],"tree_param":{"num_deleted":"0","num_feature":"20","num_nodes":"1","size_leaf_vector":"1"}},{"base_weights":[4.591447E-3],"categories":[],"categories_nodes":[],"categories_segments":[],"categories_sizes":[],"default_left":[0],"id":96,"left_children":[-1],"loss_changes":[0E0],"parents":[2147483647],"right_children":[-1],"split_conditions":[2.404143E-3],"split_indices":[0],"split_type":[0],"sum_hessian":[2.119066E4],"tree_param":{"num_deleted":"0","num_feature":"20","num_nodes":"1","size_leaf_vector":"1"}},{"base_weights":[-0E0],"categories":[],"categories_nodes":[],"categories_segments":[],"categories_sizes":[],"default_left":[0],"id":97,"left_children":[-1],"loss_changes":[0E0],"parents":[2147483647],"right_children":[-1],"split_conditions":[-0E0],"split_indices":[0],"split_type":[0],"sum_hessian":[2.115275E4],"tree_param":{"num_deleted":"0","num_feature":"20","num_nodes":"1","size_leaf_vector":"1"}},{"base_weights":[-4.706279E-3],"categories":[],"categories_nodes":[],"categories_segments":[],"categories_sizes":[],"default_left":[0],"id":98,"left_children":[-1],"loss_changes":[0E0],"parents":[2147483647],"right_children":[-1],"split_conditions":[-2.4642707E-3],"split_indices":[0],"split_type":[0],"sum_hessian":[2.1113059E4],"tree_param":{"num_deleted":"0","num_feature":"20","num_nodes":"1","size_leaf_vector":"1"}},{"base_weights":[-3.7705472E-3],"categories":[],"categories_nodes":[],"categories_segments":[],"categories_sizes":[],"default_left":[0],"id":99,"left_children":[-1],"loss_changes":[0E0],"parents":[2147483647],"right_children":[-1],"split_conditions":[-1.974309E-3],"split_indices":[0],"split_type":[0],"sum_hessian":[2.1155234E4],"tree_param":{"num_deleted":"0","num_feature":"20","num_nodes":"1","size_leaf_vector":"1"}}]},"name":"gbtree"},"learner_model_param":{"base_score":"6.7444384E-1","boost_from_average":"1","num_class":"0","num_feature":"20","num_target":"1"},"objective":{"name":"binary:logistic","reg_loss_param":{"scale_pos_weight":"1"}}},"version":[2,1,4]}