{"learner":{"attributes":{"scikit_learn":"{\"_estimator_type\": \"classifier\"}"},"feature_names":["pitcherHand_L","hitterHand_L","count_group_Early","count_group_2-Str","count_group_Behind","velo","velo_diff","pitcherHeight","extension","x0","z0","spin_rate","ssw","HB","IVB","Break"],"feature_types":["i","i","i","i","i","float","float","float","float","float","float","float","float","float","float","float"],"gradient_booster":{"model":{"gbtree_model_param":{"num_parallel_tree":"1","num_trees":"100"},"iteration_indptr":[0,1,2,3,4,5,6,7,8,9,10,11,12,13,14,15,16,17,18,19,20,21,22,23,24,25,26,27,28,29,30,31,32,33,34,35,36,37,38,39,40,41,42,43,44,45,46,47,48,49,50,51,52,53,54,55,56,57,58,59,60,61,62,63,64,65,66,67,68,69,70,71,72,73,74,75,76,77,78,79,80,81,82,83,84,85,86,87,88,89,90,91,92,93,94,95,96,97,98,99,100],"tree_info":[0,0,0,0,0,0,0,0,0,0,0,0,0,0,0,0,0,0,0,0,0,0,0,0,0,0,0,0,0,0,0,0,0,0,0,0,0,0,0,0,0,0,0,0,0,0,0,0,0,0,0,0,0,0,0,0,0,0,0,0,0,0,0,0,0,0,0,0,0,0,0,0,0,0,0,0,0,0,0,0,0,0,0,0,0,0,0,0,0,0,0,0,0,0,0,0,0,0,0,0],"trees":[{"base_weights":[-0E0,-3.9970227E-2,1.0656668E-1,-7.448936E-2,-2.9133072E-3,-0E0,1.2096805E-1,-0E0,-8.789476E-2,-4.427859E-2,-0E0,-0E0,1.3860339E-1,-0E0,-9.825936E-2,-0E0,-6.0171053E-2,1.4462355E-1,-0E0,-0E0,-3.264564E-2,-0E0,-6.645831E-2,1.5846413E-1,-0E0,-2.381469E-2,-0E0,5.2445676E-2,-0E0],"categories":[],"categories_nodes":[],"categories_segments":[],"categories_sizes":[],"default_left":[0,0,0,1,1,0,0,0,0,1,0,0,0,0,0,0,0,0,0,0,0,0,0,1,0,0,0,0,0],"id":0,"left_children":[1,3,5,7,9,-1,11,-1,13,15,-1,-1,17,-1,19,-1,21,23,-1,-1,-1,-1,25,27,-1,-1,-1,-1,-1],"loss_changes":[7.924797E1,8.748379E0,6.963299E0,8.317112E0,3.4477673E0,0E0,9.256477E0,0E0,7.28973E0,1.3433614E0,0E0,0E0,4.7338257E0,0E0,1.8356285E0,0E0,9.16152E-1,3.010498E0,0E0,0E0,0E0,0E0,9.854336E-1,2.1007996E0,0E0,0E0,0E0,0E0,0E0],"parents":[2147483647,0,0,1,1,2,2,3,3,4,4,6,6,8,8,9,9,12,12,14,14,16,16,17,17,22,22,23,23],"right_children":[2,4,6,8,10,-1,12,-1,14,16,-1,-1,18,-1,20,-1,22,24,-1,-1,-1,-1,26,28,-1,-1,-1,-1,-1],"split_conditions":[5.705963E-1,3.1E0,4E-1,5.8426094E0,-4.045393E0,-0E0,1E1,-0E0,-2.6636822E0,-8.055555E0,-0E0,-0E0,1.42E1,-0E0,-1.5827586E1,-0E0,5.5440493E0,8.75E1,-0E0,-0E0,-3.264564E-2,-0E0,1.5235294E0,7.188783E0,-0E0,-2.381469E-2,-0E0,5.2445676E-2,-0E0],"split_indices":[9,14,14,8,12,0,13,0,9,6,0,0,14,0,6,0,8,5,0,0,0,0,6,8,0,0,0,0,0],"split_type":[0,0,0,0,0,0,0,0,0,0,0,0,0,0,0,0,0,0,0,0,0,0,0,0,0,0,0,0,0],"sum_hessian":[1.7571672E4,1.2683366E4,4.888306E3,5.0256484E3,7.657718E3,6.787799E2,4.209526E3,4.1500275E2,4.610646E3,1.5248995E3,6.1328184E3,5.850696E2,3.6244565E3,2.1989691E2,4.390749E3,4.5094983E2,1.0739498E3,3.5334731E3,9.098328E1,9.891643E1,4.2918325E3,3.4459606E1,1.0394901E3,3.0183145E3,5.1515875E2,9.693314E2,7.015877E1,2.925596E3,9.271866E1],"tree_param":{"num_deleted":"0","num_feature":"16","num_nodes":"29","size_leaf_vector":"1"}},{"base_weights":[-0E0,-7.439201E-2,7.4474074E-2,-3.054299E-1,9.603374E-2,1.13391325E-1,-0E0,-2.0290874E-2,-3.5508186E-1,-0E0,1.19494274E-1,-0E0,1.3570547E-1,-0E0,-2.9745504E-2,-1.6221702E-2,-0E0,-3.6134687E-1,-0E0,1.3332781E-1,-0E0,1.4975657E-1,-0E0,-0E0,-3.7174985E-1,-0E0,1.3805872E-1,-0E0,1.6567561E-1,-1.20244145E-1,-0E0,-0E0,4.538911E-2,5.5054918E-2,-0E0],"categories":[],"categories_nodes":[],"categories_segments":[],"categories_sizes":[],"default_left":[0,0,0,0,1,0,0,0,0,0,0,0,0,0,0,0,0,0,0,0,0,0,0,0,1,0,0,0,1,0,0,0,0,0,0],"id":1,"left_children":[1,3,5,7,9,11,13,15,17,-1,19,-1,21,-1,-1,-1,-1,23,-1,25,-1,27,-1,-1,29,-1,31,-1,33,-1,-1,-1,-1,-1,-1],"loss_changes":[1.0000012E2,3.7031998E2,3.8043255E1,1.6998444E1,9.84721E0,2.3908783E1,5.2214694E0,1.8037872E0,6.8282166E0,0E0,4.505497E0,0E0,1.1763741E1,0E0,0E0,0E0,0E0,4.626251E0,0E0,3.2388687E0,0E0,1.1856369E1,0E0,0E0,1.9542236E0,0E0,1.8749809E0,0E0,6.228775E0,0E0,0E0,0E0,0E0,0E0,0E0],"parents":[2147483647,0,0,1,1,2,2,3,3,4,4,5,5,6,6,7,7,8,8,10,10,12,12,17,17,19,19,21,21,24,24,26,26,28,28],"right_children":[2,4,6,8,10,12,14,16,18,-1,20,-1,22,-1,-1,-1,-1,24,-1,26,-1,28,-1,-1,30,-1,32,-1,34,-1,-1,-1,-1,-1,-1],"split_conditions":[1E0,5.4356005E-2,-1.2634482E0,1.17046995E1,1.3678084E1,1.0324728E1,1E0,1.527E3,6.5669055E0,-0E0,1.18E1,-0E0,1.02E1,-0E0,-2.9745504E-2,-1.6221702E-2,-0E0,5.7061944E0,-0E0,-3.6E0,-0E0,-1.2E0,-0E0,-0E0,6.117391E0,-0E0,3.1272396E-1,-0E0,7.360031E0,-1.20244145E-1,-0E0,-0E0,4.538911E-2,5.5054918E-2,-0E0],"split_indices":[1,9,9,15,15,15,0,11,10,0,14,0,14,0,0,0,0,8,0,14,0,14,0,0,6,0,9,0,8,0,0,0,0,0,0],"split_type":[0,0,0,0,0,0,0,0,0,0,0,0,0,0,0,0,0,0,0,0,0,0,0,0,0,0,0,0,0,0,0,0,0,0,0],"sum_hessian":[1.751299E4,8.404268E3,9.108722E3,3.7273384E3,4.676929E3,6.735691E3,2.373031E3,9.08241E2,2.8190972E3,1.0614318E3,3.6154976E3,8.1560077E2,5.9200903E3,2.0283973E3,3.446337E2,6.346295E2,2.736115E2,2.7652744E3,5.382295E1,3.1048997E3,5.105979E2,5.3379004E3,5.821899E2,1.3391077E2,2.6313635E3,5.726808E1,3.0476316E3,5.9357495E2,4.744325E3,2.622678E3,8.6856575E0,3.695255E1,3.0106792E3,4.656983E3,8.734225E1],"tree_param":{"num_deleted":"0","num_feature":"16","num_nodes":"35","size_leaf_vector":"1"}},{"base_weights":[-0E0,-5.4820437E-2,4.25155E-2,-2.2894579E-1,6.7838065E-2,7.7378556E-2,-1.0389233E-2,-0E0,-2.605204E-1,-0E0,8.081271E-2,-0E0,9.247475E-2,-0E0,-7.7586316E-2,-0E0,-2.6400805E-1,-0E0,8.716048E-2,1.0292257E-1,-0E0,-0E0,-2.8068213E-2,-0E0,-8.552929E-2,9.2108615E-2,-0E0,1.09605566E-1,-0E0,3.1143453E-2,-0E0,-0E0,3.682444E-2],"categories":[],"categories_nodes":[],"categories_segments":[],"categories_sizes":[],"default_left":[0,0,0,0,1,1,0,0,0,0,0,0,1,0,0,0,0,0,1,0,0,0,0,0,0,0,0,0,0,0,0,0,0],"id":2,"left_children":[1,3,5,7,9,11,13,-1,15,-1,17,-1,19,-1,21,-1,23,-1,25,27,-1,-1,-1,-1,-1,29,-1,31,-1,-1,-1,-1,-1],"loss_changes":[4.303601E1,2.0596985E2,2.4188992E1,1.2697403E1,6.8422966E0,1.2345547E1,3.7156951E0,0E0,3.3380585E0,0E0,3.3562431E0,0E0,8.697582E0,0E0,9.483981E-1,0E0,8.4220886E-1,0E0,3.0579033E0,5.5938454E0,0E0,0E0,0E0,0E0,0E0,2.6623688E0,0E0,3.9534836E0,0E0,0E0,0E0,0E0,0E0],"parents":[2147483647,0,0,1,1,2,2,3,3,4,4,5,5,6,6,8,8,10,10,12,12,14,14,16,16,18,18,19,19,25,25,27,27],"right_children":[2,4,6,8,10,12,14,-1,16,-1,18,-1,20,-1,22,-1,24,-1,26,28,-1,-1,-1,-1,-1,30,-1,32,-1,-1,-1,-1,-1],"split_conditions":[1E0,-2.6025972E-1,-1.2909341E0,9.4E0,8.8E0,8.4E0,-2.6025972E-1,-0E0,7.83E1,-0E0,5.644979E0,-0E0,7.123986E0,-0E0,7.75E1,-0E0,-2.2748594E1,-0E0,3.5750977E1,9.17E1,-0E0,-0E0,-2.8068213E-2,-0E0,-8.552929E-2,1.42E1,-0E0,6E0,-0E0,3.1143453E-2,-0E0,-0E0,3.682444E-2],"split_indices":[1,9,9,13,13,13,9,0,5,0,8,0,8,0,5,0,12,0,12,5,0,0,0,0,0,14,0,7,0,0,0,0,0],"split_type":[0,0,0,0,0,0,0,0,0,0,0,0,0,0,0,0,0,0,0,0,0,0,0,0,0,0,0,0,0,0,0,0,0],"sum_hessian":[1.7513121E4,8.424631E3,9.08849E3,3.723701E3,4.70093E3,6.5459917E3,2.542499E3,7.218453E2,3.0018557E3,4.197293E2,4.2812007E3,5.9945935E2,5.946532E3,2.1427864E3,3.9971265E2,3.792832E1,2.9639272E3,1.9669868E2,4.0845022E3,5.5699536E3,3.7657874E2,1.314973E1,3.8656293E2,2.3463034E1,2.9404644E3,3.9898628E3,9.463937E1,5.345382E3,2.2457173E2,3.8830022E3,1.0686051E2,1.4862646E2,5.1967554E3],"tree_param":{"num_deleted":"0","num_feature":"16","num_nodes":"33","size_leaf_vector":"1"}},{"base_weights":[-0E0,-1.8152509E-2,3.3528894E-2,-1.3830177E-1,3.139942E-2,6.377935E-2,-1.3649614E-2,-1.5605415E-1,-0E0,-0E0,6.834815E-2,9.149811E-2,-0E0,-0E0,-5.227716E-2,-0E0,-3.0697634E-2,-0E0,8.07369E-2,-0E0,9.905877E-2,-5.699297E-2,-0E0,8.595842E-2,-0E0,-0E0,1.04988575E-1,-2.384096E-2,-0E0,-0E0,2.8640235E-2,3.519504E-2,-0E0],"categories":[],"categories_nodes":[],"categories_segments":[],"categories_sizes":[],"default_left":[0,0,0,0,0,0,0,0,0,0,0,0,0,0,0,0,0,0,0,0,0,1,0,0,0,0,1,0,0,0,0,0,0],"id":3,"left_children":[1,3,5,7,9,11,-1,13,-1,15,17,19,-1,-1,-1,-1,21,-1,23,-1,25,27,-1,29,-1,-1,31,-1,-1,-1,-1,-1,-1],"loss_changes":[9.699619E0,9.103267E1,1.3733299E1,1.2025276E1,1.4972611E1,6.2352905E0,0E0,5.7385635E0,0E0,1.9109876E0,7.5752754E0,3.1665707E0,0E0,0E0,0E0,0E0,3.4344065E0,0E0,3.651867E0,0E0,2.790203E0,2.8539495E0,0E0,1.5831833E0,0E0,0E0,1.8497047E0,0E0,0E0,0E0,0E0,0E0,0E0],"parents":[2147483647,0,0,1,1,2,2,3,3,4,4,5,5,7,7,9,9,10,10,11,11,16,16,18,18,20,20,21,21,23,23,26,26],"right_children":[2,4,6,8,10,12,-1,14,-1,16,18,20,-1,-1,-1,-1,22,-1,24,-1,26,28,-1,30,-1,-1,32,-1,-1,-1,-1,-1,-1],"split_conditions":[9.4277644E-1,1E0,1E0,5.4356005E-2,1.36E1,8.53E1,-1.3649614E-2,2.9E0,-0E0,-1.5403146E0,-5.7788405E0,-2.2748594E1,-0E0,-0E0,-5.227716E-2,-0E0,6.133835E0,-0E0,-4.6595556E-1,-0E0,5.4249225E0,1.983E3,-0E0,4.7623115E0,-0E0,-0E0,7.207212E0,-2.384096E-2,-0E0,-0E0,2.8640235E-2,3.519504E-2,-0E0],"split_indices":[9,1,1,9,13,5,0,13,0,9,12,12,0,0,0,0,10,0,9,0,8,11,0,10,0,0,8,0,0,0,0,0,0],"split_type":[0,0,0,0,0,0,0,0,0,0,0,0,0,0,0,0,0,0,0,0,0,0,0,0,0,0,0,0,0,0,0,0,0],"sum_hessian":[1.7490006E4,1.3026643E4,4.4633643E3,4.2543955E3,8.772247E3,4.1664883E3,2.96876E2,3.777808E3,4.7658734E2,3.9271206E3,4.845126E3,2.63148E3,1.5350082E3,8.5506035E1,3.692302E3,2.1671562E3,1.7599644E3,2.866394E2,4.558487E3,1.03002556E2,2.5284773E3,1.377706E3,3.822583E2,4.4841753E3,7.431142E1,5.3830826E1,2.4746465E3,1.2294712E3,1.4823488E2,1.0830909E2,4.375866E3,2.4203955E3,5.4250977E1],"tree_param":{"num_deleted":"0","num_feature":"16","num_nodes":"33","size_leaf_vector":"1"}},{"base_weights":[-4.5994218E-4,-2.2606919E-2,9.516673E-3,-1.22012235E-1,2.4902299E-2,4.7585644E-2,-1.8701369E-2,-0E0,-1.568417E-1,-0E0,3.601837E-2,-0E0,5.6525044E-2,-3.914329E-2,-0E0,-0E0,-1.6343907E-1,4.6237435E-2,-0E0,-0E0,7.2420456E-2,-0E0,-5.301995E-2,-1.6796617E-1,-0E0,-0E0,5.577872E-2,8.3778515E-2,-0E0,-0E0,-1.8817177E-2,-5.5412974E-2,-0E0,1.976807E-2,-0E0,3.1789474E-2,-0E0],"categories":[],"categories_nodes":[],"categories_segments":[],"categories_sizes":[],"default_left":[0,0,0,0,1,1,0,0,0,0,0,0,0,0,0,0,0,0,0,0,0,0,0,1,0,0,1,0,0,0,0,0,0,0,0,0,0],"id":4,"left_children":[1,3,5,7,9,11,13,-1,15,-1,17,-1,19,21,-1,-1,23,25,-1,-1,27,-1,29,31,-1,-1,33,35,-1,-1,-1,-1,-1,-1,-1,-1,-1],"loss_changes":[5.2979584E0,5.1739113E1,1.3150028E1,9.769371E0,3.1586843E0,4.4079866E0,2.545518E0,0E0,2.6773415E0,0E0,2.4655404E0,0E0,5.8000984E0,2.1138432E0,0E0,0E0,2.4619293E0,2.5656233E0,0E0,0E0,4.9208145E0,0E0,9.835701E-1,2.2808304E0,0E0,0E0,1.8083344E0,4.643299E0,0E0,0E0,0E0,0E0,0E0,0E0,0E0,0E0,0E0],"parents":[2147483647,0,0,1,1,2,2,3,3,4,4,5,5,6,6,8,8,10,10,12,12,13,13,16,16,17,17,20,20,22,22,23,23,26,26,27,27],"right_children":[2,4,6,8,10,12,14,-1,16,-1,18,-1,20,22,-1,-1,24,26,-1,-1,28,-1,30,32,-1,-1,34,36,-1,-1,-1,-1,-1,-1,-1,-1,-1],"split_conditions":[1E0,-9.8645175E-1,-1.5230494E0,1.15E1,1.13E3,6.6E0,5.8760643E0,-0E0,4.884704E0,-0E0,1.06E1,-0E0,2E-1,5.26595E0,-0E0,-0E0,-1.0283298E0,-4E-1,-0E0,-0E0,1E0,-0E0,5.9166665E0,3.3434782E0,-0E0,-0E0,7.1109767E0,6.88408E0,-0E0,-0E0,-1.8817177E-2,-5.5412974E-2,-0E0,1.976807E-2,-0E0,3.1789474E-2,-0E0],"split_indices":[1,9,9,13,11,13,10,0,10,0,14,0,14,10,0,0,9,14,0,0,4,0,7,6,0,0,8,8,0,0,0,0,0,0,0,0,0],"split_type":[0,0,0,0,0,0,0,0,0,0,0,0,0,0,0,0,0,0,0,0,0,0,0,0,0,0,0,0,0,0,0,0,0,0,0,0,0],"sum_hessian":[1.7509125E4,8.453545E3,9.055581E3,3.2802703E3,5.1732744E3,5.28915E3,3.7664307E3,1.00377026E3,2.2765E3,4.0552792E2,4.7677466E3,2.390943E2,5.0500557E3,2.3142996E3,1.4521311E3,1.0104275E2,2.1754573E3,3.9410735E3,8.266731E2,9.7238617E2,4.0776694E3,4.2283307E2,1.8914666E3,2.1327844E3,4.2672962E1,4.921748E2,3.4488987E3,3.6803374E3,3.9733206E2,9.149911E1,1.7999674E3,2.0988364E3,3.394792E1,3.2842087E3,1.6468991E2,3.055541E3,6.247964E2],"tree_param":{"num_deleted":"0","num_feature":"16","num_nodes":"37","size_leaf_vector":"1"}},{"base_weights":[-0E0,-2.981263E-2,7.8056925E-3,-3.675229E-2,-0E0,2.3508253E-2,-9.478514E-3,-0E0,-4.4177942E-2,-0E0,3.3065178E-2,-2.2153305E-2,-0E0,-1.8375652E-2,-0E0,-0E0,3.9463047E-2,-0E0,-3.972155E-2,-0E0,4.403461E-2,-0E0,-4.9333546E-2,-0E0,1.598422E-2,-1.9305632E-2,-0E0],"categories":[],"categories_nodes":[],"categories_segments":[],"categories_sizes":[],"default_left":[0,0,0,0,0,0,0,0,0,0,0,0,0,0,0,0,0,0,0,0,0,0,0,0,0,0,0],"id":5,"left_children":[1,3,5,7,-1,9,11,-1,13,-1,15,17,-1,-1,-1,-1,19,-1,21,-1,23,-1,25,-1,-1,-1,-1],"loss_changes":[5.862344E0,2.23737E0,4.7925067E0,1.7928486E0,0E0,3.8263497E0,9.4581616E-1,0E0,2.235095E0,0E0,3.0370216E0,1.9327824E0,0E0,0E0,0E0,0E0,9.436064E-1,0E0,1.6071506E0,0E0,2.4499912E0,0E0,1.8665814E0,0E0,0E0,0E0,0E0],"parents":[2147483647,0,0,1,1,2,2,3,3,5,5,6,6,8,8,10,10,11,11,16,16,18,18,20,20,22,22],"right_children":[2,4,6,8,-1,10,12,-1,14,-1,16,18,-1,-1,-1,-1,20,-1,22,-1,24,-1,26,-1,-1,-1,-1],"split_conditions":[2.4E0,2.6816976E0,1.8204395E1,-2.2874057E0,-0E0,8.5E0,1.3943802E0,-0E0,5.8214765E0,-0E0,-2.4408011E0,5.9E0,-0E0,-1.8375652E-2,-0E0,-0E0,6.0833335E0,-0E0,5.9166665E0,-0E0,1.17046995E1,-0E0,1.225E0,-0E0,1.598422E-2,-1.9305632E-2,-0E0],"split_indices":[14,9,15,9,0,13,9,0,10,0,9,14,0,0,0,0,7,0,7,0,15,0,6,0,0,0,0],"split_type":[0,0,0,0,0,0,0,0,0,0,0,0,0,0,0,0,0,0,0,0,0,0,0,0,0,0,0],"sum_hessian":[1.747516E4,5.4877754E3,1.1987385E4,5.1757847E3,3.1199066E2,9.269939E3,2.7174446E3,7.576055E2,4.418179E3,1.2169299E3,8.05301E3,2.2057878E3,5.1165668E2,3.2307305E3,1.1874486E3,5.291869E2,7.5238228E3,4.7930206E2,1.7264857E3,1.0472289E3,6.476594E3,4.1118866E1,1.685367E3,4.358082E2,6.040786E3,1.575951E3,1.0941581E2],"tree_param":{"num_deleted":"0","num_feature":"16","num_nodes":"27","size_leaf_vector":"1"}},{"base_weights":[-2.8522352E-3,-4.134183E-2,-0E0,-0E0,-1.4555247E-2,-5.3487867E-3,1.2264556E-2,-7.949629E-2,1.6618192E-2,3.1629633E-2,-2.5452679E-2,-0E0,-9.006867E-2,3.0888593E-2,-0E0,-0E0,4.3431956E-2,-1.0062841E-1,-0E0,-0E0,4.1955676E-2,-0E0,5.723986E-2,-0E0,-3.4441654E-2,1.5933111E-2,-0E0,1.940907E-2,-0E0],"categories":[],"categories_nodes":[],"categories_segments":[],"categories_sizes":[],"default_left":[1,1,0,0,0,0,0,0,0,0,0,0,0,0,0,0,0,0,0,0,0,0,0,0,0,0,0,0,0],"id":6,"left_children":[1,3,5,-1,-1,7,9,11,13,15,-1,-1,17,19,-1,-1,21,23,-1,-1,25,-1,27,-1,-1,-1,-1,-1,-1],"loss_changes":[4.363396E0,7.76978E-1,1.4262094E0,0E0,0E0,1.8879108E1,1.0155216E1,1.8738346E0,2.5512166E0,5.4743133E0,0E0,0E0,1.8007736E0,2.0811634E0,0E0,0E0,6.331274E0,2.2210884E0,0E0,0E0,2.0028543E0,0E0,1.8675652E0,0E0,0E0,0E0,0E0,0E0,0E0],"parents":[2147483647,0,0,1,1,2,2,5,5,6,6,7,7,8,8,9,9,12,12,13,13,16,16,17,17,20,20,22,22],"right_children":[2,4,6,-1,-1,8,10,12,14,16,-1,-1,18,20,-1,-1,22,24,-1,-1,26,-1,28,-1,-1,-1,-1,-1,-1],"split_conditions":[1.294E3,5.6878686E0,1E0,-0E0,-1.4555247E-2,-1.1289095E0,3.1272396E-1,1.479E3,2.039E3,-5.168331E0,-2.5452679E-2,-0E0,2.164E3,6.0833335E0,-0E0,-0E0,-1E-1,-4.3E0,-0E0,-0E0,3.3067104E1,-0E0,1.38E1,-0E0,-3.4441654E-2,1.5933111E-2,-0E0,1.940907E-2,-0E0],"split_indices":[11,8,1,0,0,9,9,11,11,12,0,0,11,7,0,0,14,14,0,0,12,0,14,0,0,0,0,0,0],"split_type":[0,0,0,0,0,0,0,0,0,0,0,0,0,0,0,0,0,0,0,0,0,0,0,0,0,0,0,0,0],"sum_hessian":[1.7390727E4,2.3690767E3,1.502165E4,4.799234E1,2.3210842E3,7.2351045E3,7.786546E3,2.5363447E3,4.6987603E3,7.4742646E3,3.1228137E2,3.8871863E2,2.147626E3,3.8435989E3,8.5516125E2,7.3397217E2,6.7402925E3,1.8450914E3,3.025346E2,7.007148E2,3.142884E3,1.0409717E3,5.699321E3,4.6310818E1,1.7987806E3,3.0060024E3,1.3688156E2,5.6339897E3,6.533092E1],"tree_param":{"num_deleted":"0","num_feature":"16","num_nodes":"29","size_leaf_vector":"1"}},{"base_weights":[-3.1406665E-3,9.75371E-4,-3.0498028E-2,-3.9148424E-3,1.6577749E-2,-5.6151308E-2,-0E0,-0E0,-1.7238393E-2,3.2349475E-2,-0E0,-9.231337E-2,-0E0,-2.8016053E-2,-0E0,4.1571174E-2,-0E0,-0E0,-9.730474E-2,-0E0,-1.22662E-2,4.9190305E-2,-0E0,-3.2637462E-2,-0E0,-0E0,1.6546328E-2],"categories":[],"categories_nodes":[],"categories_segments":[],"categories_sizes":[],"default_left":[0,0,0,0,0,0,0,0,0,0,0,0,0,0,0,0,0,0,1,0,0,0,0,0,0,0,0],"id":7,"left_children":[1,3,5,7,9,11,-1,-1,13,15,-1,17,-1,19,-1,21,-1,-1,23,-1,-1,25,-1,-1,-1,-1,-1],"loss_changes":[4.96043E0,2.237264E0,2.6463523E0,1.0592234E0,3.152595E0,6.0395036E0,0E0,0E0,1.1202227E0,2.6804423E0,0E0,1.3615112E0,0E0,9.844649E-1,0E0,1.7674303E0,0E0,0E0,1.0621462E0,0E0,0E0,7.802191E-1,0E0,0E0,0E0,0E0,0E0],"parents":[2147483647,0,0,1,1,2,2,3,3,4,4,5,5,8,8,9,9,11,11,13,13,15,15,18,18,21,21],"right_children":[2,4,6,8,10,12,-1,-1,14,16,-1,18,-1,20,-1,22,-1,-1,24,-1,-1,26,-1,-1,-1,-1,-1],"split_conditions":[2.0058022E1,1.8079599E0,1E0,6.119374E0,6.6037364E0,4.536763E-1,-0E0,-0E0,1.3943802E0,1E0,-0E0,1.1E0,-0E0,4.9E0,-0E0,1.8824718E1,-0E0,-0E0,2.291E3,-0E0,-1.22662E-2,-3.8E0,-0E0,-3.2637462E-2,-0E0,-0E0,1.6546328E-2],"split_indices":[12,12,1,8,8,9,0,0,9,4,0,13,0,14,0,15,0,0,11,0,0,14,0,0,0,0,0],"split_type":[0,0,0,0,0,0,0,0,0,0,0,0,0,0,0,0,0,0,0,0,0,0,0,0,0,0,0],"sum_hessian":[1.7426818E4,1.2186801E4,5.2400186E3,4.5389106E3,7.64789E3,2.1962327E3,3.0437856E3,9.9448047E2,3.5444302E3,4.8234053E3,2.8244846E3,1.3524943E3,8.4373846E2,2.6026372E3,9.41793E2,4.366158E3,4.572472E2,1.8182545E1,1.3343118E3,6.369523E2,1.9656849E3,3.7722136E3,5.939445E2,1.3139111E3,2.0400549E1,3.7836765E1,3.734377E3],"tree_param":{"num_deleted":"0","num_feature":"16","num_nodes":"27","size_leaf_vector":"1"}},{"base_weights":[-3.5372202E-3,3.473115E-3,-1.9988416E-2,1.671832E-2,-0E0,-0E0,-3.014416E-2,-0E0,2.5698604E-2,-3.8220525E-2,-0E0,-0E0,3.3217754E-2,-4.542579E-2,-0E0,-0E0,4.028967E-2,-0E0,-5.0104026E-2,1.45459855E-2,-0E0,-1.7934974E-2,-0E0],"categories":[],"categories_nodes":[],"categories_segments":[],"categories_sizes":[],"default_left":[1,0,0,1,0,0,0,0,0,0,0,0,0,1,0,0,0,0,1,0,0,0,0],"id":8,"left_children":[1,3,5,7,-1,-1,9,-1,11,13,-1,-1,15,17,-1,-1,19,-1,21,-1,-1,-1,-1],"loss_changes":[3.7149339E0,1.7571033E0,3.2016983E0,1.9625996E0,0E0,0E0,1.8299246E0,0E0,2.1948042E0,2.060666E0,0E0,0E0,1.6413708E0,1.8016338E0,0E0,0E0,1.0482836E0,0E0,1.9153824E0,0E0,0E0,0E0,0E0],"parents":[2147483647,0,0,1,1,2,2,3,3,6,6,8,8,9,9,12,12,13,13,16,16,18,18],"right_children":[2,4,6,8,-1,-1,10,-1,12,14,-1,-1,16,18,-1,-1,20,-1,22,-1,-1,-1,-1],"split_conditions":[6.418016E0,1.66E1,5.274103E0,-6.4229116E0,-0E0,-0E0,6.9508677E0,-0E0,-2.6E0,6.1260934E0,-0E0,-0E0,1.294E3,-1.411875E1,-0E0,-0E0,3.1990993E1,-0E0,2.178E3,1.45459855E-2,-0E0,-1.7934974E-2,-0E0],"split_indices":[8,13,10,12,0,0,8,0,14,10,0,0,11,6,0,0,12,0,11,0,0,0,0],"split_type":[0,0,0,0,0,0,0,0,0,0,0,0,0,0,0,0,0,0,0,0,0,0,0],"sum_hessian":[1.7424998E4,8.093198E3,9.3318E3,6.379446E3,1.7137526E3,1.8552974E3,7.476502E3,8.623284E2,5.517117E3,5.8020337E3,1.6744686E3,3.334928E2,5.1836245E3,5.02778E3,7.7425354E2,7.346725E2,4.448952E3,2.2509525E2,4.8026846E3,4.0027039E3,4.4624817E2,4.4580264E3,3.4465826E2],"tree_param":{"num_deleted":"0","num_feature":"16","num_nodes":"23","size_leaf_vector":"1"}},{"base_weights":[-4.4631497E-3,-0E0,-2.655247E-2,1.0262155E-2,-8.131612E-3,-0E0,-3.5992287E-2,-0E0,2.3853833E-2,-1.6434515E-2,-0E0,-4.190626E-2,-0E0,-0E0,3.1712573E-2,-0E0,-2.6660789E-2,-0E0,-4.6882015E-2,-0E0,5.348045E-2,-0E0,-3.201477E-2,-0E0,-5.247914E-2,-0E0,1.9443477E-2,-0E0,-1.211785E-2,-1.771779E-2,-0E0],"categories":[],"categories_nodes":[],"categories_segments":[],"categories_sizes":[],"default_left":[0,0,0,0,1,0,1,0,0,0,0,0,0,0,0,0,1,0,0,0,0,0,0,0,0,0,0,0,0,0,0],"id":9,"left_children":[1,3,5,7,9,-1,11,-1,13,15,-1,17,-1,-1,19,-1,21,-1,23,-1,25,-1,27,-1,29,-1,-1,-1,-1,-1,-1],"loss_changes":[3.063931E0,1.2258598E0,1.80603E0,3.3209982E0,8.208779E-1,0E0,1.670434E0,0E0,2.2750611E0,1.4563948E0,0E0,1.5230408E0,0E0,0E0,4.54653E0,0E0,9.728954E-1,0E0,8.784628E-1,0E0,2.4413567E0,0E0,1.2982173E0,0E0,7.907715E-1,0E0,0E0,0E0,0E0,0E0,0E0],"parents":[2147483647,0,0,1,1,2,2,3,3,4,4,6,6,8,8,9,9,11,11,14,14,16,16,18,18,20,20,22,22,24,24],"right_children":[2,4,6,8,10,-1,12,-1,14,16,-1,18,-1,-1,20,-1,22,-1,24,-1,26,-1,28,-1,30,-1,-1,-1,-1,-1,-1],"split_conditions":[2.1846884E1,1.7161877E1,8.42E1,1.202E3,6.8E-1,-0E0,2.217E3,-0E0,6.0833335E0,6.0833335E0,-0E0,-2.7391381E0,-0E0,-0E0,4.4E0,-0E0,-1.4583333E1,-0E0,9.518929E0,-0E0,1.0016986E1,-0E0,-2.921661E0,-0E0,4.1263156E0,-0E0,1.9443477E-2,-0E0,-1.211785E-2,-1.771779E-2,-0E0],"split_indices":[12,15,5,11,6,0,11,0,7,7,0,9,0,0,14,0,6,0,15,0,15,0,9,0,6,0,0,0,0,0,0],"split_type":[0,0,0,0,0,0,0,0,0,0,0,0,0,0,0,0,0,0,0,0,0,0,0,0,0,0,0,0,0,0,0],"sum_hessian":[1.7468453E4,1.2889486E4,4.578967E3,8.360369E3,4.5291177E3,8.148851E2,3.7640815E3,1.1948813E3,7.1654873E3,3.9456929E3,5.834249E2,3.6575527E3,1.06528946E2,9.654926E2,6.1999946E3,5.635539E2,3.382139E3,9.609003E1,3.5614626E3,2.6040774E3,3.5959172E3,1.6954094E2,3.212598E3,4.543154E2,3.1071472E3,1.5911478E2,3.4368025E3,4.105212E1,3.171546E3,3.0671582E3,3.9989136E1],"tree_param":{"num_deleted":"0","num_feature":"16","num_nodes":"31","size_leaf_vector":"1"}},{"base_weights":[-0E0,-1.8296879E-2,1.6505745E-3,-2.8395317E-2,-0E0,1.5369558E-2,-0E0,-0E0,-3.467287E-2,3.8070757E-2,-0E0,-4.1484643E-2,-0E0,-0E0,4.466823E-2,-0E0,-1.4488452E-2,5.04855E-2,-0E0,1.8588768E-2,-0E0],"categories":[],"categories_nodes":[],"categories_segments":[],"categories_sizes":[],"default_left":[1,0,0,0,0,1,0,0,0,1,0,0,0,0,0,0,0,1,0,0,0],"id":10,"left_children":[1,3,5,7,-1,9,-1,-1,11,13,-1,15,-1,-1,17,-1,-1,19,-1,-1,-1],"loss_changes":[1.8488345E0,1.7097307E0,1.3694407E0,1.1906533E0,0E0,3.8071134E0,0E0,0E0,1.1534305E0,1.7693639E0,0E0,9.253907E-1,0E0,0E0,1.1630116E0,0E0,0E0,1.6475973E0,0E0,0E0,0E0],"parents":[2147483647,0,0,1,1,2,2,3,3,5,5,8,8,9,9,11,11,14,14,17,17],"right_children":[2,4,6,8,-1,10,-1,-1,12,14,-1,16,-1,-1,18,-1,-1,20,-1,-1,-1],"split_conditions":[1.519E3,1.2695348E0,1.813E3,5.9961452E0,-0E0,1.6021582E1,-0E0,-0E0,1.46E1,5.667292E0,-0E0,-2.788698E0,-0E0,-0E0,2.1644363E0,-0E0,-1.4488452E-2,1.9041271E1,-0E0,1.8588768E-2,-0E0],"split_indices":[11,9,11,8,0,12,0,0,13,8,0,9,0,0,9,0,0,15,0,0,0],"split_type":[0,0,0,0,0,0,0,0,0,0,0,0,0,0,0,0,0,0,0,0,0],"sum_hessian":[1.7397453E4,5.1528364E3,1.2244617E4,4.103261E3,1.049575E3,5.673596E3,6.571021E3,4.4914612E2,3.6541152E3,3.3271353E3,2.3464607E3,3.1420762E3,5.120391E2,9.676764E1,3.2303674E3,5.0410538E1,3.0916658E3,2.9269194E3,3.0344815E2,2.67322E3,2.536994E2],"tree_param":{"num_deleted":"0","num_feature":"16","num_nodes":"21","size_leaf_vector":"1"}},{"base_weights":[-0E0,-1.5607561E-2,5.0182333E-3,-0E0,-3.0429447E-2,-0E0,2.2585925E-2,-0E0,-3.7480902E-2,-0E0,3.217547E-2,-1.33323455E-2,-0E0,4.124453E-2,-0E0,5.0205484E-2,-0E0,1.7947389E-2,-0E0],"categories":[],"categories_nodes":[],"categories_segments":[],"categories_sizes":[],"default_left":[0,0,1,0,0,0,0,0,0,0,0,0,0,0,0,0,0,0,0],"id":11,"left_children":[1,3,5,-1,7,-1,9,-1,11,-1,13,-1,-1,15,-1,17,-1,-1,-1],"loss_changes":[2.3308048E0,4.1664433E0,2.7378376E0,0E0,2.3299246E0,0E0,2.6854799E0,0E0,1.3929739E0,0E0,2.0434356E0,0E0,0E0,2.7303863E0,0E0,2.1185875E0,0E0,0E0,0E0],"parents":[2147483647,0,0,1,1,2,2,4,4,6,6,8,8,10,10,13,13,15,15],"right_children":[2,4,6,-1,8,-1,10,-1,12,-1,14,-1,-1,16,-1,18,-1,-1,-1],"split_conditions":[5.655971E0,5.1130295E0,6.8193007E0,-0E0,5.9197016E0,-0E0,-1.8E0,-0E0,2.6238718E0,-0E0,1.67E1,-1.33323455E-2,-0E0,1E0,-0E0,6.517507E0,-0E0,1.7947389E-2,-0E0],"split_indices":[10,10,12,0,8,0,14,0,9,0,13,0,0,4,0,10,0,0,0],"split_type":[0,0,0,0,0,0,0,0,0,0,0,0,0,0,0,0,0,0,0],"sum_hessian":[1.7378734E4,8.338067E3,9.040667E3,1.8423362E3,6.4957314E3,3.4820784E3,5.5585884E3,6.470411E2,5.8486904E3,3.6150027E2,5.197088E3,5.563513E3,2.851768E2,4.259198E3,9.378899E2,3.8705933E3,3.8860486E2,3.7764785E3,9.411463E1],"tree_param":{"num_deleted":"0","num_feature":"16","num_nodes":"19","size_leaf_vector":"1"}},{"base_weights":[-5.367033E-4,9.431218E-3,-8.715394E-3,2.4447113E-2,-0E0,-0E0,-2.152075E-2,3.3567104E-2,-0E0,-0E0,-3.389922E-2,-0E0,1.3905383E-2,-4.6424087E-2,-0E0,-5.2192766E-2,-0E0,-1.7784107E-2,-0E0],"categories":[],"categories_nodes":[],"categories_segments":[],"categories_sizes":[],"default_left":[0,0,1,0,0,0,0,0,0,0,1,0,0,0,0,0,0,0,0],"id":12,"left_children":[1,3,5,7,-1,-1,9,11,-1,-1,13,-1,-1,15,-1,17,-1,-1,-1],"loss_changes":[1.3918453E0,1.2378622E0,2.3483615E0,1.0852257E0,0E0,0E0,2.7055986E0,1.075458E0,0E0,0E0,3.2178497E0,0E0,0E0,1.1984072E0,0E0,1.0641775E0,0E0,0E0,0E0],"parents":[2147483647,0,0,1,1,2,2,3,3,6,6,7,7,10,10,13,13,15,15],"right_children":[2,4,6,8,-1,-1,10,12,-1,-1,14,-1,-1,16,-1,18,-1,-1,-1],"split_conditions":[5.192144E0,2.237E3,-1.5178572E0,8.98E1,-0E0,-0E0,-1.7848493E0,-3.6E0,-0E0,-0E0,2.01E3,-0E0,1.3905383E-2,6.238914E0,-0E0,3.0785732E0,-0E0,-1.7784107E-2,-0E0],"split_indices":[10,11,6,5,0,0,9,14,0,0,11,0,0,10,0,9,0,0,0],"split_type":[0,0,0,0,0,0,0,0,0,0,0,0,0,0,0,0,0,0,0],"sum_hessian":[1.7414957E4,2.3054067E3,1.510955E4,2.1862168E3,1.1918998E2,7.785002E3,7.3245474E3,1.9969617E3,1.8925519E2,2.178083E3,5.1464644E3,3.1755197E2,1.6794097E3,4.112102E3,1.0343623E3,3.637318E3,4.7478378E2,3.5728643E3,6.445398E1],"tree_param":{"num_deleted":"0","num_feature":"16","num_nodes":"19","size_leaf_vector":"1"}},{"base_weights":[-3.5760743E-3,-1.7835809E-2,-0E0,-8.1009395E-2,5.8378265E-3,1.4424471E-2,-1.6676884E-2,-0E0,-1.0829144E-1,-0E0,1.4584352E-2,-0E0,3.7654333E-2,-1.1912632E-1,-0E0,-0E0,1.949444E-2,4.527708E-2,-0E0,-1.2573552E-1,-0E0,2.7156385E-2,-0E0,5.286579E-2,-0E0,-0E0,-4.392963E-2,-0E0,9.918739E-3,-0E0,1.9710513E-2],"categories":[],"categories_nodes":[],"categories_segments":[],"categories_sizes":[],"default_left":[0,0,0,0,0,1,0,0,0,0,1,0,0,1,0,0,1,1,0,0,0,0,0,0,0,0,0,0,0,0,0],"id":13,"left_children":[1,3,5,7,9,11,-1,-1,13,-1,15,-1,17,19,-1,-1,21,23,-1,25,-1,27,-1,29,-1,-1,-1,-1,-1,-1,-1],"loss_changes":[2.5217962E0,2.0581284E1,3.749031E0,4.5414314E0,9.016982E-1,5.2422156E0,0E0,0E0,1.6948376E0,0E0,7.8516424E-1,0E0,2.6908393E0,1.7681255E0,0E0,0E0,1.1716838E0,1.7577162E0,0E0,2.570837E0,0E0,8.0606437E-1,0E0,1.9381285E0,0E0,0E0,0E0,0E0,0E0,0E0,0E0],"parents":[2147483647,0,0,1,1,2,2,3,3,4,4,5,5,8,8,10,10,12,12,13,13,16,16,17,17,19,19,21,21,23,23],"right_children":[2,4,6,8,10,12,-1,-1,14,-1,16,-1,18,20,-1,-1,22,24,-1,26,-1,28,-1,30,-1,-1,-1,-1,-1,-1,-1],"split_conditions":[1E0,-9.7168267E-1,-3.840538E-1,1.3382077E1,1.024E3,1.36E1,-1.6676884E-2,-0E0,2.164E3,-0E0,7.3E0,-0E0,2.331E3,1.325E0,-0E0,-0E0,2.039E3,6.91909E0,-0E0,1.22E1,-0E0,-3.8E0,-0E0,-2.4108424E0,-0E0,-0E0,-4.392963E-2,-0E0,9.918739E-3,-0E0,1.9710513E-2],"split_indices":[1,9,9,15,11,13,0,0,11,0,13,0,11,6,0,0,11,8,0,13,0,14,0,9,0,0,0,0,0,0,0],"split_type":[0,0,0,0,0,0,0,0,0,0,0,0,0,0,0,0,0,0,0,0,0,0,0,0,0,0,0,0,0,0,0],"sum_hessian":[1.7399436E4,8.36957E3,9.029866E3,3.2590112E3,5.110559E3,8.586125E3,4.4374088E2,1.1659869E3,2.0930244E3,2.7750677E2,4.8330527E3,3.8574553E3,4.7286694E3,1.8025116E3,2.905127E2,1.7994418E2,4.6531084E3,4.500454E3,2.282157E2,1.7024083E3,1.00103325E2,3.856767E3,7.963413E2,3.858661E3,6.4179297E2,1.5652779E2,1.5458805E3,6.4744225E1,3.7920227E3,5.2730176E2,3.3313591E3],"tree_param":{"num_deleted":"0","num_feature":"16","num_nodes":"31","size_leaf_vector":"1"}},{"base_weights":[-0E0],"categories":[],"categories_nodes":[],"categories_segments":[],"categories_sizes":[],"default_left":[0],"id":14,"left_children":[-1],"loss_changes":[0E0],"parents":[2147483647],"right_children":[-1],"split_conditions":[-0E0],"split_indices":[0],"split_type":[0],"sum_hessian":[1.7356305E4],"tree_param":{"num_deleted":"0","num_feature":"16","num_nodes":"1","size_leaf_vector":"1"}},{"base_weights":[-0E0,-9.135853E-3,-0E0,1.2779118E-2,-0E0,2.8264051E-2,-0E0,-0E0,3.6613427E-2,4.70542E-2,-0E0,-0E0,1.6706709E-2],"categories":[],"categories_nodes":[],"categories_segments":[],"categories_sizes":[],"default_left":[0,0,0,0,0,1,0,0,0,0,0,0,0],"id":15,"left_children":[1,-1,3,5,-1,7,-1,-1,9,11,-1,-1,-1],"loss_changes":[1.977849E0,0E0,9.029022E-1,2.4578128E0,0E0,1.7425566E0,0E0,0E0,2.339284E0,1.0543547E0,0E0,0E0,0E0],"parents":[2147483647,0,0,2,2,3,3,5,5,8,8,9,9],"right_children":[2,-1,4,6,-1,8,-1,-1,10,12,-1,-1,-1],"split_conditions":[1.0522357E1,-9.135853E-3,8.46E1,1.7947145E1,-0E0,1.225E3,-0E0,-0E0,6.5E0,-2.4408011E0,-0E0,-0E0,1.6706709E-2],"split_indices":[15,0,5,15,0,11,0,0,7,9,0,0,0],"split_type":[0,0,0,0,0,0,0,0,0,0,0,0,0],"sum_hessian":[1.7426352E4,2.1918882E3,1.5234464E4,5.2609595E3,9.973504E3,3.9389636E3,1.3219961E3,4.0003775E2,3.5389258E3,3.0934963E3,4.454296E2,2.0142143E2,2.8920747E3],"tree_param":{"num_deleted":"0","num_feature":"16","num_nodes":"13","size_leaf_vector":"1"}},{"base_weights":[-1.0767677E-3,-0E0,-8.537347E-3,-0E0,1.4660654E-2,-1.9656794E-2,-0E0,3.4623727E-2,-0E0,-2.6857791E-2,-0E0,-0E0,3.9407983E-2,-3.678334E-2,-0E0,-0E0,1.3883042E-2,-0E0,-4.5762215E-2,-0E0,-1.672432E-2],"categories":[],"categories_nodes":[],"categories_segments":[],"categories_sizes":[],"default_left":[0,1,1,0,1,0,0,0,0,1,0,0,0,0,0,0,0,0,0,0,0],"id":16,"left_children":[1,3,5,-1,7,9,-1,11,-1,13,-1,-1,15,17,-1,-1,-1,-1,19,-1,-1],"loss_changes":[8.3604854E-1,9.457143E-1,2.4245186E0,0E0,3.1703155E0,1.6492286E0,0E0,1.0986595E0,0E0,3.2095404E0,0E0,0E0,9.3677807E-1,3.166483E0,0E0,0E0,0E0,0E0,2.6584435E0,0E0,0E0],"parents":[2147483647,0,0,1,1,2,2,4,4,5,5,7,7,9,9,12,12,13,13,18,18],"right_children":[2,4,6,-1,8,10,-1,12,-1,14,-1,-1,16,18,-1,-1,-1,-1,20,-1,-1],"split_conditions":[8.45E1,-2.3262897E0,1.915E3,-0E0,1.6153847E-1,5.9486856E0,-0E0,-5E0,-0E0,6.9508677E0,-0E0,-0E0,-1.74E1,5.9022403E0,-0E0,-0E0,1.3883042E-2,-0E0,4.8645782E0,-0E0,-1.672432E-2],"split_indices":[5,12,11,0,6,10,0,14,0,8,0,0,6,8,0,0,0,0,10,0,0],"split_type":[0,0,0,0,0,0,0,0,0,0,0,0,0,0,0,0,0,0,0,0,0],"sum_hessian":[1.7383723E4,5.9002876E3,1.1483435E4,1.7682245E3,4.1320635E3,8.223572E3,3.2598628E3,3.1655083E3,9.6655505E2,6.5669126E3,1.6566594E3,7.561061E1,3.0898977E3,5.7481084E3,8.188044E2,4.485404E1,3.0450437E3,6.171442E2,5.130964E3,2.163295E2,4.914635E3],"tree_param":{"num_deleted":"0","num_feature":"16","num_nodes":"21","size_leaf_vector":"1"}},{"base_weights":[-0E0,-6.774859E-3,5.7791932E-3,1.2180883E-2,-0E0,-0E0,1.6096406E-2,2.0219183E-2,-0E0,2.3403807E-2,-0E0,1.3986144E-2,-0E0],"categories":[],"categories_nodes":[],"categories_segments":[],"categories_sizes":[],"default_left":[1,0,0,0,0,0,0,0,0,0,0,0,0],"id":17,"left_children":[1,-1,3,5,-1,-1,7,9,-1,11,-1,-1,-1],"loss_changes":[1.3121262E0,0E0,1.4450594E0,1.3990746E0,0E0,0E0,1.4584761E0,1.4354644E0,0E0,2.0973773E0,0E0,0E0,0E0],"parents":[2147483647,0,0,2,2,3,3,6,6,7,7,9,9],"right_children":[2,-1,4,6,-1,-1,8,10,-1,12,-1,-1,-1],"split_conditions":[1.146E3,-6.774859E-3,1.7E1,-2.133184E1,-0E0,-0E0,1E0,9.17E1,-0E0,1.27E1,-0E0,1.3986144E-2,-0E0],"split_indices":[11,0,13,12,0,0,4,5,0,13,0,0,0],"split_type":[0,0,0,0,0,0,0,0,0,0,0,0,0],"sum_hessian":[1.7369318E4,1.4790189E3,1.58903E4,1.3108597E4,2.7817024E3,3.1641348E2,1.2792184E4,1.1576721E4,1.2154624E3,1.1193273E4,3.8344757E2,4.1763784E3,7.016895E3],"tree_param":{"num_deleted":"0","num_feature":"16","num_nodes":"13","size_leaf_vector":"1"}},{"base_weights":[-0E0],"categories":[],"categories_nodes":[],"categories_segments":[],"categories_sizes":[],"default_left":[0],"id":18,"left_children":[-1],"loss_changes":[0E0],"parents":[2147483647],"right_children":[-1],"split_conditions":[-0E0],"split_indices":[0],"split_type":[0],"sum_hessian":[1.7397857E4],"tree_param":{"num_deleted":"0","num_feature":"16","num_nodes":"1","size_leaf_vector":"1"}},{"base_weights":[-2.7021943E-3,-1.3734113E-2,-0E0,-4.7297552E-2,-0E0,-1.3535883E-2,2.8285146E-2,-0E0,-8.1396304E-2,-0E0,-2.7019253E-2,4.210053E-2,-0E0,-0E0,-8.947134E-2,-0E0,-3.7224196E-2,-0E0,6.1975278E-2,-9.45798E-2,-0E0,-4.3154277E-2,-0E0,7.4210584E-2,-0E0,-3.215284E-2,-0E0,-1.54354945E-2,-0E0,-0E0,2.621022E-2],"categories":[],"categories_nodes":[],"categories_segments":[],"categories_sizes":[],"default_left":[0,0,0,0,0,0,0,0,0,0,1,0,0,0,1,0,0,0,0,0,0,0,0,0,0,0,0,0,0,0,0],"id":19,"left_children":[1,3,5,7,-1,9,11,-1,13,-1,15,17,-1,-1,19,-1,21,-1,23,25,-1,27,-1,29,-1,-1,-1,-1,-1,-1,-1],"loss_changes":[1.5117654E0,7.420415E0,4.7078986E0,7.1223536E0,0E0,1.7388629E0,4.263007E0,0E0,2.8463058E0,0E0,2.0031636E0,3.4802837E0,0E0,0E0,1.4034729E0,0E0,1.5201287E0,0E0,4.014635E0,1.7857418E0,0E0,1.1674933E0,0E0,1.7327309E0,0E0,0E0,0E0,0E0,0E0,0E0,0E0],"parents":[2147483647,0,0,1,1,2,2,3,3,5,5,6,6,8,8,10,10,11,11,14,14,16,16,18,18,19,19,21,21,23,23],"right_children":[2,4,6,8,-1,10,12,-1,14,-1,16,18,-1,-1,20,-1,22,-1,24,26,-1,28,-1,30,-1,-1,-1,-1,-1,-1,-1],"split_conditions":[1E0,5.4356005E-2,6.25E0,1.28E1,-0E0,-2.118067E0,-3.840538E-1,-0E0,1.3382077E1,-0E0,-1.2955556E1,5.598378E0,-0E0,-0E0,1.5235294E0,-0E0,6.5669055E0,-0E0,1.2E1,1.3E1,-0E0,7.0826926E0,-0E0,-6.091216E0,-0E0,-3.215284E-2,-0E0,-1.54354945E-2,-0E0,-0E0,2.621022E-2],"split_indices":[1,9,7,13,0,9,9,0,15,0,6,10,0,0,6,0,10,0,14,14,0,8,0,12,0,0,0,0,0,0,0],"split_type":[0,0,0,0,0,0,0,0,0,0,0,0,0,0,0,0,0,0,0,0,0,0,0,0,0,0,0,0,0,0,0],"sum_hessian":[1.7432086E4,8.431863E3,9.000223E3,3.7826548E3,4.6492085E3,4.4683115E3,4.5319116E3,1.6078955E3,2.1747593E3,1.1657101E3,3.3026013E3,4.303756E3,2.2815593E2,6.546376E1,2.1092957E3,2.437053E2,3.058896E3,1.5559194E3,2.7478362E3,2.0163258E3,9.296971E1,3.0236643E3,3.5231598E1,2.5643523E3,1.834839E2,1.9630693E3,5.3256504E1,2.9114106E3,1.12253624E2,2.1358788E2,2.3507644E3],"tree_param":{"num_deleted":"0","num_feature":"16","num_nodes":"31","size_leaf_vector":"1"}},{"base_weights":[-0E0,-1.0871913E-2,-0E0,-3.947631E-2,-0E0,1.445595E-2,-1.5369262E-2,-0E0,-7.578404E-2,-0E0,2.3854915E-2,-0E0,-8.246708E-2,3.3030502E-2,-0E0,-8.79548E-2,-0E0,3.6289666E-2,-0E0,-2.9667424E-2,-0E0,-0E0,1.2752488E-2],"categories":[],"categories_nodes":[],"categories_segments":[],"categories_sizes":[],"default_left":[0,0,0,0,0,1,0,0,0,0,0,0,0,0,0,0,0,0,0,0,0,0,0],"id":20,"left_children":[1,3,5,7,-1,9,-1,-1,11,-1,13,-1,15,17,-1,19,-1,21,-1,-1,-1,-1,-1],"loss_changes":[1.0219661E0,4.4803452E0,3.4865608E0,6.0895543E0,0E0,2.6617785E0,0E0,0E0,1.6857309E0,0E0,3.0181375E0,0E0,1.1934853E0,1.2117229E0,0E0,1.0445433E0,0E0,1.3638325E0,0E0,0E0,0E0,0E0,0E0],"parents":[2147483647,0,0,1,1,2,2,3,3,5,5,8,8,10,10,12,12,13,13,15,15,17,17],"right_children":[2,4,6,8,-1,10,-1,-1,12,-1,14,-1,16,18,-1,20,-1,22,-1,-1,-1,-1,-1],"split_conditions":[1E0,-9.7168267E-1,-3.840538E-1,1.33E1,-0E0,8.4E0,-1.5369262E-2,-0E0,8.05E1,-0E0,8.99E1,-0E0,1.14E1,2.331E3,-0E0,-1.0283298E0,-0E0,-4.1E0,-0E0,-2.9667424E-2,-0E0,-0E0,1.2752488E-2],"split_indices":[1,9,9,13,0,13,0,0,5,0,5,0,14,11,0,9,0,14,0,0,0,0,0],"split_type":[0,0,0,0,0,0,0,0,0,0,0,0,0,0,0,0,0,0,0,0,0,0,0],"sum_hessian":[1.743188E4,8.378242E3,9.05364E3,3.2628486E3,5.115393E3,8.604183E3,4.494564E2,1.5124353E3,1.7504135E3,9.364951E2,7.667688E3,6.600361E1,1.6844098E3,6.637527E3,1.0301611E3,1.6026617E3,8.174805E1,6.3729727E3,2.645543E2,1.5619254E3,4.0736294E1,1.8807498E2,6.1848975E3],"tree_param":{"num_deleted":"0","num_feature":"16","num_nodes":"23","size_leaf_vector":"1"}},{"base_weights":[-1.5002395E-3],"categories":[],"categories_nodes":[],"categories_segments":[],"categories_sizes":[],"default_left":[0],"id":21,"left_children":[-1],"loss_changes":[0E0],"parents":[2147483647],"right_children":[-1],"split_conditions":[-4.8335444E-4],"split_indices":[0],"split_type":[0],"sum_hessian":[1.7379088E4],"tree_param":{"num_deleted":"0","num_feature":"16","num_nodes":"1","size_leaf_vector":"1"}},{"base_weights":[-0E0],"categories":[],"categories_nodes":[],"categories_segments":[],"categories_sizes":[],"default_left":[0],"id":22,"left_children":[-1],"loss_changes":[0E0],"parents":[2147483647],"right_children":[-1],"split_conditions":[-0E0],"split_indices":[0],"split_type":[0],"sum_hessian":[1.738582E4],"tree_param":{"num_deleted":"0","num_feature":"16","num_nodes":"1","size_leaf_vector":"1"}},{"base_weights":[-0E0,5.8954074E-3,-9.624168E-3,-0E0,2.083794E-2,-2.6799953E-2,-0E0,3.6260556E-2,-0E0,-0E0,-1.0535348E-2,4.7542933E-2,-0E0,1.7949346E-2,-0E0],"categories":[],"categories_nodes":[],"categories_segments":[],"categories_sizes":[],"default_left":[1,1,0,0,1,1,0,1,0,0,0,0,0,0,0],"id":23,"left_children":[1,3,5,-1,7,9,-1,11,-1,-1,-1,13,-1,-1,-1],"loss_changes":[1.2706461E0,1.755337E0,2.9409041E0,0E0,1.7211521E0,1.6257284E0,0E0,1.6016839E0,0E0,0E0,0E0,1.6952171E0,0E0,0E0,0E0],"parents":[2147483647,0,0,1,1,2,2,4,4,5,5,7,7,11,11],"right_children":[2,4,6,-1,8,10,-1,12,-1,-1,-1,14,-1,-1,-1],"split_conditions":[6.30986E0,-7.3E0,-1.4235225E0,-0E0,1.6021582E1,-1.3722581E1,-0E0,2.078E3,-0E0,-0E0,-1.0535348E-2,1.36E1,-0E0,1.7949346E-2,-0E0],"split_indices":[8,6,9,0,12,6,0,11,0,0,0,14,0,0,0],"split_type":[0,0,0,0,0,0,0,0,0,0,0,0,0,0,0],"sum_hessian":[1.7380578E4,6.451733E3,1.0928845E4,2.1393108E3,4.312422E3,5.2706187E3,5.658226E3,2.5537476E3,1.7586744E3,2.9785663E2,4.9727617E3,2.0820327E3,4.7171497E2,1.9896273E3,9.240538E1],"tree_param":{"num_deleted":"0","num_feature":"16","num_nodes":"15","size_leaf_vector":"1"}},{"base_weights":[-0E0,7.7946144E-3,-9.192058E-3,-0E0,1.6216693E-2,-0E0,-2.3185078E-2,2.6612407E-2,-0E0,-2.7716825E-2,-0E0,1.0670584E-2,-0E0,-0E0,-3.7013747E-2,-4.742172E-2,-0E0,-0E0,-1.6570657E-2],"categories":[],"categories_nodes":[],"categories_segments":[],"categories_sizes":[],"default_left":[0,0,0,0,0,0,1,0,0,0,0,0,0,0,0,1,0,0,0],"id":24,"left_children":[1,3,5,-1,7,-1,9,11,-1,13,-1,-1,-1,-1,15,17,-1,-1,-1],"loss_changes":[1.2896551E0,1.6224067E0,2.3720136E0,0E0,1.0922158E0,0E0,1.0558598E0,1.4499159E0,0E0,1.0355682E0,0E0,0E0,0E0,0E0,1.4153204E0,8.124218E-1,0E0,0E0,0E0],"parents":[2147483647,0,0,1,1,2,2,4,4,6,6,7,7,9,9,14,14,15,15],"right_children":[2,4,6,-1,8,-1,10,12,-1,14,-1,-1,-1,-1,16,18,-1,-1,-1],"split_conditions":[5.7046466E0,9.6E0,-1.4874471E0,-0E0,1.356323E1,-0E0,1.225E0,2.247E3,-0E0,-7.975E0,-0E0,1.0670584E-2,-0E0,-0E0,1.5712085E0,5.721528E0,-0E0,-0E0,-1.6570657E-2],"split_indices":[10,13,9,0,12,0,6,11,0,6,0,0,0,0,9,8,0,0,0],"split_type":[0,0,0,0,0,0,0,0,0,0,0,0,0,0,0,0,0,0,0],"sum_hessian":[1.7401043E4,9.248745E3,8.152297E3,1.1487783E3,8.099967E3,2.6840576E3,5.4682393E3,4.381485E3,3.718482E3,5.1202524E3,3.4798685E2,4.0558289E3,3.2565582E2,1.610944E3,3.5093086E3,2.6625818E3,8.4672675E2,1.320747E2,2.530507E3],"tree_param":{"num_deleted":"0","num_feature":"16","num_nodes":"19","size_leaf_vector":"1"}},{"base_weights":[-2.4419962E-3],"categories":[],"categories_nodes":[],"categories_segments":[],"categories_sizes":[],"default_left":[0],"id":25,"left_children":[-1],"loss_changes":[0E0],"parents":[2147483647],"right_children":[-1],"split_conditions":[-7.867742E-4],"split_indices":[0],"split_type":[0],"sum_hessian":[1.7324035E4],"tree_param":{"num_deleted":"0","num_feature":"16","num_nodes":"1","size_leaf_vector":"1"}},{"base_weights":[-3.4895702E-4],"categories":[],"categories_nodes":[],"categories_segments":[],"categories_sizes":[],"default_left":[0],"id":26,"left_children":[-1],"loss_changes":[0E0],"parents":[2147483647],"right_children":[-1],"split_conditions":[-1.1242867E-4],"split_indices":[0],"split_type":[0],"sum_hessian":[1.7325072E4],"tree_param":{"num_deleted":"0","num_feature":"16","num_nodes":"1","size_leaf_vector":"1"}},{"base_weights":[-0E0],"categories":[],"categories_nodes":[],"categories_segments":[],"categories_sizes":[],"default_left":[0],"id":27,"left_children":[-1],"loss_changes":[0E0],"parents":[2147483647],"right_children":[-1],"split_conditions":[-0E0],"split_indices":[0],"split_type":[0],"sum_hessian":[1.7329012E4],"tree_param":{"num_deleted":"0","num_feature":"16","num_nodes":"1","size_leaf_vector":"1"}},{"base_weights":[-0E0],"categories":[],"categories_nodes":[],"categories_segments":[],"categories_sizes":[],"default_left":[0],"id":28,"left_children":[-1],"loss_changes":[0E0],"parents":[2147483647],"right_children":[-1],"split_conditions":[-0E0],"split_indices":[0],"split_type":[0],"sum_hessian":[1.735625E4],"tree_param":{"num_deleted":"0","num_feature":"16","num_nodes":"1","size_leaf_vector":"1"}},{"base_weights":[-0E0],"categories":[],"categories_nodes":[],"categories_segments":[],"categories_sizes":[],"default_left":[0],"id":29,"left_children":[-1],"loss_changes":[0E0],"parents":[2147483647],"right_children":[-1],"split_conditions":[-0E0],"split_indices":[0],"split_type":[0],"sum_hessian":[1.739489E4],"tree_param":{"num_deleted":"0","num_feature":"16","num_nodes":"1","size_leaf_vector":"1"}},{"base_weights":[-2.154924E-3,-2.366982E-2,-0E0,-0E0,-9.70796E-3],"categories":[],"categories_nodes":[],"categories_segments":[],"categories_sizes":[],"default_left":[1,1,0,0,0],"id":30,"left_children":[1,3,-1,-1,-1],"loss_changes":[1.4118845E0,8.544663E-1,0E0,0E0,0E0],"parents":[2147483647,0,0,1,1],"right_children":[2,4,-1,-1,-1],"split_conditions":[1.294E3,5.7678194E0,-0E0,-0E0,-9.70796E-3],"split_indices":[11,8,0,0,0],"split_type":[0,0,0,0,0],"sum_hessian":[1.7407623E4,2.398611E3,1.5009012E4,7.99375E1,2.3186736E3],"tree_param":{"num_deleted":"0","num_feature":"16","num_nodes":"5","size_leaf_vector":"1"}},{"base_weights":[-0E0],"categories":[],"categories_nodes":[],"categories_segments":[],"categories_sizes":[],"default_left":[0],"id":31,"left_children":[-1],"loss_changes":[0E0],"parents":[2147483647],"right_children":[-1],"split_conditions":[-0E0],"split_indices":[0],"split_type":[0],"sum_hessian":[1.737552E4],"tree_param":{"num_deleted":"0","num_feature":"16","num_nodes":"1","size_leaf_vector":"1"}},{"base_weights":[-0E0,-2.751925E-3,7.1218675E-3,1.4082291E-2,-0E0,-0E0,2.1598373E-2,3.2103766E-2,-0E0,3.8432214E-2,-0E0,1.3539821E-2,-0E0],"categories":[],"categories_nodes":[],"categories_segments":[],"categories_sizes":[],"default_left":[1,0,0,0,0,0,1,0,0,0,0,0,0],"id":32,"left_children":[1,-1,3,5,-1,-1,7,9,-1,11,-1,-1,-1],"loss_changes":[9.796743E-1,0E0,1.7957891E0,1.8386836E0,0E0,0E0,2.5278592E0,2.5596538E0,0E0,1.7023191E0,0E0,0E0,0E0],"parents":[2147483647,0,0,2,2,3,3,6,6,7,7,9,9],"right_children":[2,-1,4,6,-1,-1,8,10,-1,12,-1,-1,-1],"split_conditions":[-3.5570793E0,-2.751925E-3,3.0646704E1,-8.420754E0,-0E0,-0E0,2.516129E-1,7.188783E0,-0E0,2.02E1,-0E0,1.3539821E-2,-0E0],"split_indices":[12,0,12,6,0,0,6,8,0,13,0,0,0],"split_type":[0,0,0,0,0,0,0,0,0,0,0,0,0],"sum_hessian":[1.7379043E4,2.9256782E3,1.4453364E4,1.2552676E4,1.9006885E3,3.4288743E3,9.123802E3,6.4355933E3,2.6882085E3,6.1426465E3,2.9294705E2,6.0572803E3,8.536597E1],"tree_param":{"num_deleted":"0","num_feature":"16","num_nodes":"13","size_leaf_vector":"1"}},{"base_weights":[-2.389466E-3,-7.8488365E-3,-0E0,-0E0,-1.7668858E-2,-0E0,-2.873551E-2,-3.6109477E-2,-0E0,-1.3689265E-2,-0E0],"categories":[],"categories_nodes":[],"categories_segments":[],"categories_sizes":[],"default_left":[0,0,0,0,0,0,1,1,0,0,0],"id":33,"left_children":[1,3,-1,-1,5,-1,7,9,-1,-1,-1],"loss_changes":[8.179361E-1,1.8717519E0,0E0,0E0,2.0513523E0,0E0,1.2297602E0,1.7171817E0,0E0,0E0,0E0],"parents":[2147483647,0,0,1,1,4,4,6,6,7,7],"right_children":[2,4,-1,-1,6,-1,8,10,-1,-1,-1],"split_conditions":[5.285714E-1,-7.0542855E0,-0E0,-0E0,6.291135E0,-0E0,1.64E1,2.103E3,-0E0,-1.3689265E-2,-0E0],"split_indices":[6,6,0,0,8,0,13,11,0,0,0],"split_type":[0,0,0,0,0,0,0,0,0,0,0],"sum_hessian":[1.7379012E4,1.4644865E4,2.7341475E3,5.974477E3,8.670388E3,3.0746714E3,5.5957163E3,4.3885366E3,1.2071799E3,4.0464253E3,3.421113E2],"tree_param":{"num_deleted":"0","num_feature":"16","num_nodes":"11","size_leaf_vector":"1"}},{"base_weights":[-0E0],"categories":[],"categories_nodes":[],"categories_segments":[],"categories_sizes":[],"default_left":[0],"id":34,"left_children":[-1],"loss_changes":[0E0],"parents":[2147483647],"right_children":[-1],"split_conditions":[-0E0],"split_indices":[0],"split_type":[0],"sum_hessian":[1.736681E4],"tree_param":{"num_deleted":"0","num_feature":"16","num_nodes":"1","size_leaf_vector":"1"}},{"base_weights":[-0E0],"categories":[],"categories_nodes":[],"categories_segments":[],"categories_sizes":[],"default_left":[0],"id":35,"left_children":[-1],"loss_changes":[0E0],"parents":[2147483647],"right_children":[-1],"split_conditions":[-0E0],"split_indices":[0],"split_type":[0],"sum_hessian":[1.7316695E4],"tree_param":{"num_deleted":"0","num_feature":"16","num_nodes":"1","size_leaf_vector":"1"}},{"base_weights":[-0E0],"categories":[],"categories_nodes":[],"categories_segments":[],"categories_sizes":[],"default_left":[0],"id":36,"left_children":[-1],"loss_changes":[0E0],"parents":[2147483647],"right_children":[-1],"split_conditions":[-0E0],"split_indices":[0],"split_type":[0],"sum_hessian":[1.7381824E4],"tree_param":{"num_deleted":"0","num_feature":"16","num_nodes":"1","size_leaf_vector":"1"}},{"base_weights":[-0E0],"categories":[],"categories_nodes":[],"categories_segments":[],"categories_sizes":[],"default_left":[0],"id":37,"left_children":[-1],"loss_changes":[0E0],"parents":[2147483647],"right_children":[-1],"split_conditions":[-0E0],"split_indices":[0],"split_type":[0],"sum_hessian":[1.729495E4],"tree_param":{"num_deleted":"0","num_feature":"16","num_nodes":"1","size_leaf_vector":"1"}},{"base_weights":[-0E0],"categories":[],"categories_nodes":[],"categories_segments":[],"categories_sizes":[],"default_left":[0],"id":38,"left_children":[-1],"loss_changes":[0E0],"parents":[2147483647],"right_children":[-1],"split_conditions":[-0E0],"split_indices":[0],"split_type":[0],"sum_hessian":[1.7395078E4],"tree_param":{"num_deleted":"0","num_feature":"16","num_nodes":"1","size_leaf_vector":"1"}},{"base_weights":[-0E0],"categories":[],"categories_nodes":[],"categories_segments":[],"categories_sizes":[],"default_left":[0],"id":39,"left_children":[-1],"loss_changes":[0E0],"parents":[2147483647],"right_children":[-1],"split_conditions":[-0E0],"split_indices":[0],"split_type":[0],"sum_hessian":[1.7420617E4],"tree_param":{"num_deleted":"0","num_feature":"16","num_nodes":"1","size_leaf_vector":"1"}},{"base_weights":[-0E0,-8.501739E-3,7.853511E-4,-0E0,-1.7776605E-2,-2.367982E-2,-0E0,-2.814047E-2,-0E0,-0E0,-3.2734063E-2,-1.2049474E-2,-0E0],"categories":[],"categories_nodes":[],"categories_segments":[],"categories_sizes":[],"default_left":[0,0,0,0,0,0,0,0,0,0,1,0,0],"id":40,"left_children":[1,3,-1,-1,5,7,-1,9,-1,-1,11,-1,-1],"loss_changes":[9.7291577E-1,1.5679171E0,0E0,0E0,1.5105712E0,1.2845421E0,0E0,1.1300979E0,0E0,0E0,8.5874796E-1,0E0,0E0],"parents":[2147483647,0,0,1,1,4,4,5,5,7,7,10,10],"right_children":[2,4,-1,-1,6,8,-1,10,-1,-1,12,-1,-1],"split_conditions":[2.3076924E-2,-8.055555E0,7.853511E-4,-0E0,6.163427E0,2.286537E0,-0E0,-2.3569624E0,-0E0,-0E0,2.093E3,-1.2049474E-2,-0E0],"split_indices":[6,6,0,0,10,9,0,9,0,0,11,0,0],"split_type":[0,0,0,0,0,0,0,0,0,0,0,0,0],"sum_hessian":[1.743495E4,1.27885205E4,4.646428E3,5.1084517E3,7.680069E3,6.9051626E3,7.7490607E2,6.433458E3,4.7170496E2,6.941854E2,5.7392725E3,4.9480215E3,7.9125116E2],"tree_param":{"num_deleted":"0","num_feature":"16","num_nodes":"13","size_leaf_vector":"1"}},{"base_weights":[-0E0],"categories":[],"categories_nodes":[],"categories_segments":[],"categories_sizes":[],"default_left":[0],"id":41,"left_children":[-1],"loss_changes":[0E0],"parents":[2147483647],"right_children":[-1],"split_conditions":[-0E0],"split_indices":[0],"split_type":[0],"sum_hessian":[1.7360064E4],"tree_param":{"num_deleted":"0","num_feature":"16","num_nodes":"1","size_leaf_vector":"1"}},{"base_weights":[-0E0],"categories":[],"categories_nodes":[],"categories_segments":[],"categories_sizes":[],"default_left":[0],"id":42,"left_children":[-1],"loss_changes":[0E0],"parents":[2147483647],"right_children":[-1],"split_conditions":[-0E0],"split_indices":[0],"split_type":[0],"sum_hessian":[1.735752E4],"tree_param":{"num_deleted":"0","num_feature":"16","num_nodes":"1","size_leaf_vector":"1"}},{"base_weights":[-2.3859317E-5,-2.4795203E-2,-0E0,-3.262542E-2,-0E0,-0E0,-1.1965748E-2],"categories":[],"categories_nodes":[],"categories_segments":[],"categories_sizes":[],"default_left":[1,0,0,1,0,0,0],"id":43,"left_children":[1,3,-1,5,-1,-1,-1],"loss_changes":[1.7943766E0,1.1851649E0,0E0,8.2164407E-1,0E0,0E0,0E0],"parents":[2147483647,0,0,1,1,3,3],"right_children":[2,4,-1,6,-1,-1,-1],"split_conditions":[-4.565051E0,6.481091E0,-0E0,5.4249225E0,-0E0,-0E0,-1.1965748E-2],"split_indices":[12,10,0,8,0,0,0],"split_type":[0,0,0,0,0,0,0],"sum_hessian":[1.7384996E4,2.6506982E3,1.4734298E4,2.5312883E3,1.1941001E2,4.341143E1,2.4878767E3],"tree_param":{"num_deleted":"0","num_feature":"16","num_nodes":"7","size_leaf_vector":"1"}},{"base_weights":[-0E0],"categories":[],"categories_nodes":[],"categories_segments":[],"categories_sizes":[],"default_left":[0],"id":44,"left_children":[-1],"loss_changes":[0E0],"parents":[2147483647],"right_children":[-1],"split_conditions":[-0E0],"split_indices":[0],"split_type":[0],"sum_hessian":[1.7353086E4],"tree_param":{"num_deleted":"0","num_feature":"16","num_nodes":"1","size_leaf_vector":"1"}},{"base_weights":[4.4779648E-4],"categories":[],"categories_nodes":[],"categories_segments":[],"categories_sizes":[],"default_left":[0],"id":45,"left_children":[-1],"loss_changes":[0E0],"parents":[2147483647],"right_children":[-1],"split_conditions":[1.4427325E-4],"split_indices":[0],"split_type":[0],"sum_hessian":[1.7377883E4],"tree_param":{"num_deleted":"0","num_feature":"16","num_nodes":"1","size_leaf_vector":"1"}},{"base_weights":[-0E0],"categories":[],"categories_nodes":[],"categories_segments":[],"categories_sizes":[],"default_left":[0],"id":46,"left_children":[-1],"loss_changes":[0E0],"parents":[2147483647],"right_children":[-1],"split_conditions":[-0E0],"split_indices":[0],"split_type":[0],"sum_hessian":[1.7407445E4],"tree_param":{"num_deleted":"0","num_feature":"16","num_nodes":"1","size_leaf_vector":"1"}},{"base_weights":[1.2217825E-3],"categories":[],"categories_nodes":[],"categories_segments":[],"categories_sizes":[],"default_left":[0],"id":47,"left_children":[-1],"loss_changes":[0E0],"parents":[2147483647],"right_children":[-1],"split_conditions":[3.9363984E-4],"split_indices":[0],"split_type":[0],"sum_hessian":[1.7341002E4],"tree_param":{"num_deleted":"0","num_feature":"16","num_nodes":"1","size_leaf_vector":"1"}},{"base_weights":[-0E0],"categories":[],"categories_nodes":[],"categories_segments":[],"categories_sizes":[],"default_left":[0],"id":48,"left_children":[-1],"loss_changes":[0E0],"parents":[2147483647],"right_children":[-1],"split_conditions":[-0E0],"split_indices":[0],"split_type":[0],"sum_hessian":[1.7385121E4],"tree_param":{"num_deleted":"0","num_feature":"16","num_nodes":"1","size_leaf_vector":"1"}},{"base_weights":[-0E0],"categories":[],"categories_nodes":[],"categories_segments":[],"categories_sizes":[],"default_left":[0],"id":49,"left_children":[-1],"loss_changes":[0E0],"parents":[2147483647],"right_children":[-1],"split_conditions":[-0E0],"split_indices":[0],"split_type":[0],"sum_hessian":[1.7402781E4],"tree_param":{"num_deleted":"0","num_feature":"16","num_nodes":"1","size_leaf_vector":"1"}},{"base_weights":[-0E0],"categories":[],"categories_nodes":[],"categories_segments":[],"categories_sizes":[],"default_left":[0],"id":50,"left_children":[-1],"loss_changes":[0E0],"parents":[2147483647],"right_children":[-1],"split_conditions":[-0E0],"split_indices":[0],"split_type":[0],"sum_hessian":[1.7406654E4],"tree_param":{"num_deleted":"0","num_feature":"16","num_nodes":"1","size_leaf_vector":"1"}},{"base_weights":[-0E0],"categories":[],"categories_nodes":[],"categories_segments":[],"categories_sizes":[],"default_left":[0],"id":51,"left_children":[-1],"loss_changes":[0E0],"parents":[2147483647],"right_children":[-1],"split_conditions":[-0E0],"split_indices":[0],"split_type":[0],"sum_hessian":[1.739471E4],"tree_param":{"num_deleted":"0","num_feature":"16","num_nodes":"1","size_leaf_vector":"1"}},{"base_weights":[3.0828393E-3,1.1652802E-2,-0E0,-0E0,1.9074576E-2,2.8848954E-2,-0E0,-0E0,5.1452536E-2,-0E0,6.426542E-2,2.2635957E-2,-0E0],"categories":[],"categories_nodes":[],"categories_segments":[],"categories_sizes":[],"default_left":[0,0,0,0,0,0,0,0,1,0,0,0,0],"id":52,"left_children":[1,3,-1,-1,5,7,-1,-1,9,-1,11,-1,-1],"loss_changes":[1.1350472E0,1.2195815E0,0E0,0E0,1.5002933E0,2.7052188E0,0E0,0E0,3.1747766E0,0E0,1.3908691E0,0E0,0E0],"parents":[2147483647,0,0,1,1,4,4,5,5,8,8,10,10],"right_children":[2,4,-1,-1,6,8,-1,-1,10,-1,12,-1,-1],"split_conditions":[-1.2634482E0,1E0,-0E0,-0E0,6.2E0,5.52779E0,-0E0,-0E0,9.84E2,-0E0,5.9E0,2.2635957E-2,-0E0],"split_indices":[9,1,0,0,14,10,0,0,11,0,14,0,0],"split_type":[0,0,0,0,0,0,0,0,0,0,0,0,0],"sum_hessian":[1.7405158E4,9.327989E3,8.07717E3,2.6626758E3,6.6653135E3,4.5657334E3,2.09958E3,2.2922402E3,2.273493E3,1.4366978E2,2.1298232E3,2.0200288E3,1.0979441E2],"tree_param":{"num_deleted":"0","num_feature":"16","num_nodes":"13","size_leaf_vector":"1"}},{"base_weights":[-6.8316204E-3,-0E0,-1.44425435E-2,-2.138284E-2,-0E0,-2.8480472E-2,-0E0,-0E0,-1.0061477E-2],"categories":[],"categories_nodes":[],"categories_segments":[],"categories_sizes":[],"default_left":[0,0,0,0,0,0,0,0,0],"id":53,"left_children":[1,-1,3,5,-1,7,-1,-1,-1],"loss_changes":[1.5931332E0,0E0,1.8514967E0,2.279766E0,0E0,1.1339078E0,0E0,0E0,0E0],"parents":[2147483647,0,0,2,2,3,3,5,5],"right_children":[2,-1,4,6,-1,8,-1,-1,-1],"split_conditions":[8.46E1,-0E0,8E0,6.9121323E0,-0E0,-2.788698E0,-0E0,-0E0,-1.0061477E-2],"split_indices":[5,0,14,8,0,9,0,0,0],"split_type":[0,0,0,0,0,0,0,0,0],"sum_hessian":[1.7393016E4,6.071609E3,1.1321406E4,9.068548E3,2.2528584E3,7.8054766E3,1.2630709E3,1.9584282E2,7.609634E3],"tree_param":{"num_deleted":"0","num_feature":"16","num_nodes":"9","size_leaf_vector":"1"}},{"base_weights":[-0E0,4.197312E-3,-4.6150694E-3,-1.4714983E-3,1.397384E-2,-0E0,1.9039387E-2,-0E0,2.8044876E-2,-0E0,3.35765E-2,1.3689922E-2,-0E0],"categories":[],"categories_nodes":[],"categories_segments":[],"categories_sizes":[],"default_left":[1,1,0,0,0,0,0,0,0,0,0,0,0],"id":54,"left_children":[1,3,-1,-1,5,-1,7,-1,9,-1,11,-1,-1],"loss_changes":[8.8885057E-1,2.2363997E0,0E0,0E0,1.5103674E0,0E0,2.6048799E0,0E0,2.2436314E0,0E0,2.000721E0,0E0,0E0],"parents":[2147483647,0,0,1,1,4,4,6,6,8,8,10,10],"right_children":[2,4,-1,-1,6,-1,8,-1,10,-1,12,-1,-1],"split_conditions":[1.7E1,1.294E3,-4.6150694E-3,-1.4714983E-3,6.0833335E0,-0E0,8.35E1,-0E0,4.988046E0,-0E0,8.89E1,1.3689922E-2,-0E0],"split_indices":[13,11,0,0,7,0,5,0,10,0,5,0,0],"split_type":[0,0,0,0,0,0,0,0,0,0,0,0,0],"sum_hessian":[1.7410887E4,1.462567E4,2.7852166E3,2.3797651E3,1.2245904E4,1.6064178E3,1.0639486E4,2.5683594E3,8.071127E3,5.3121E2,7.539917E3,5.7156074E3,1.8243099E3],"tree_param":{"num_deleted":"0","num_feature":"16","num_nodes":"13","size_leaf_vector":"1"}},{"base_weights":[-0E0],"categories":[],"categories_nodes":[],"categories_segments":[],"categories_sizes":[],"default_left":[0],"id":55,"left_children":[-1],"loss_changes":[0E0],"parents":[2147483647],"right_children":[-1],"split_conditions":[-0E0],"split_indices":[0],"split_type":[0],"sum_hessian":[1.7417652E4],"tree_param":{"num_deleted":"0","num_feature":"16","num_nodes":"1","size_leaf_vector":"1"}},{"base_weights":[-0E0],"categories":[],"categories_nodes":[],"categories_segments":[],"categories_sizes":[],"default_left":[0],"id":56,"left_children":[-1],"loss_changes":[0E0],"parents":[2147483647],"right_children":[-1],"split_conditions":[-0E0],"split_indices":[0],"split_type":[0],"sum_hessian":[1.7342414E4],"tree_param":{"num_deleted":"0","num_feature":"16","num_nodes":"1","size_leaf_vector":"1"}},{"base_weights":[-0E0],"categories":[],"categories_nodes":[],"categories_segments":[],"categories_sizes":[],"default_left":[0],"id":57,"left_children":[-1],"loss_changes":[0E0],"parents":[2147483647],"right_children":[-1],"split_conditions":[-0E0],"split_indices":[0],"split_type":[0],"sum_hessian":[1.740604E4],"tree_param":{"num_deleted":"0","num_feature":"16","num_nodes":"1","size_leaf_vector":"1"}},{"base_weights":[-0E0],"categories":[],"categories_nodes":[],"categories_segments":[],"categories_sizes":[],"default_left":[0],"id":58,"left_children":[-1],"loss_changes":[0E0],"parents":[2147483647],"right_children":[-1],"split_conditions":[-0E0],"split_indices":[0],"split_type":[0],"sum_hessian":[1.7353092E4],"tree_param":{"num_deleted":"0","num_feature":"16","num_nodes":"1","size_leaf_vector":"1"}},{"base_weights":[1.7033172E-3,1.5140313E-2,-0E0,2.3263995E-2,-0E0,2.9794203E-2,-0E0,-0E0,3.7563484E-2,4.6522643E-2,-0E0,1.8245345E-2,-0E0],"categories":[],"categories_nodes":[],"categories_segments":[],"categories_sizes":[],"default_left":[0,0,0,0,0,0,0,0,0,0,0,0,0],"id":59,"left_children":[1,3,-1,5,-1,7,-1,-1,9,11,-1,-1,-1],"loss_changes":[9.3959695E-1,1.146559E0,0E0,1.1385753E0,0E0,1.292047E0,0E0,0E0,1.7213392E0,1.8002334E0,0E0,0E0,0E0],"parents":[2147483647,0,0,1,1,3,3,5,5,8,8,9,9],"right_children":[2,4,-1,6,-1,8,-1,-1,10,12,-1,-1,-1],"split_conditions":[5.38745E0,3.1990993E1,-0E0,7.1713524E0,-0E0,6.061258E0,-0E0,-0E0,1.8984203E1,8.92E1,-0E0,1.8245345E-2,-0E0],"split_indices":[10,12,0,8,0,8,0,0,15,5,0,0,0],"split_type":[0,0,0,0,0,0,0,0,0,0,0,0,0],"sum_hessian":[1.7312006E4,4.0535054E3,1.3258501E4,3.680888E3,3.7261725E2,3.4222185E3,2.586695E2,4.5292996E2,2.9692886E3,2.6378274E3,3.314612E2,2.2544922E3,3.8333514E2],"tree_param":{"num_deleted":"0","num_feature":"16","num_nodes":"13","size_leaf_vector":"1"}},{"base_weights":[-0E0],"categories":[],"categories_nodes":[],"categories_segments":[],"categories_sizes":[],"default_left":[0],"id":60,"left_children":[-1],"loss_changes":[0E0],"parents":[2147483647],"right_children":[-1],"split_conditions":[-0E0],"split_indices":[0],"split_type":[0],"sum_hessian":[1.733527E4],"tree_param":{"num_deleted":"0","num_feature":"16","num_nodes":"1","size_leaf_vector":"1"}},{"base_weights":[-0E0],"categories":[],"categories_nodes":[],"categories_segments":[],"categories_sizes":[],"default_left":[0],"id":61,"left_children":[-1],"loss_changes":[0E0],"parents":[2147483647],"right_children":[-1],"split_conditions":[-0E0],"split_indices":[0],"split_type":[0],"sum_hessian":[1.7374992E4],"tree_param":{"num_deleted":"0","num_feature":"16","num_nodes":"1","size_leaf_vector":"1"}},{"base_weights":[-0E0],"categories":[],"categories_nodes":[],"categories_segments":[],"categories_sizes":[],"default_left":[0],"id":62,"left_children":[-1],"loss_changes":[0E0],"parents":[2147483647],"right_children":[-1],"split_conditions":[-0E0],"split_indices":[0],"split_type":[0],"sum_hessian":[1.7383732E4],"tree_param":{"num_deleted":"0","num_feature":"16","num_nodes":"1","size_leaf_vector":"1"}},{"base_weights":[-0E0],"categories":[],"categories_nodes":[],"categories_segments":[],"categories_sizes":[],"default_left":[0],"id":63,"left_children":[-1],"loss_changes":[0E0],"parents":[2147483647],"right_children":[-1],"split_conditions":[-0E0],"split_indices":[0],"split_type":[0],"sum_hessian":[1.7338742E4],"tree_param":{"num_deleted":"0","num_feature":"16","num_nodes":"1","size_leaf_vector":"1"}},{"base_weights":[-0E0],"categories":[],"categories_nodes":[],"categories_segments":[],"categories_sizes":[],"default_left":[0],"id":64,"left_children":[-1],"loss_changes":[0E0],"parents":[2147483647],"right_children":[-1],"split_conditions":[-0E0],"split_indices":[0],"split_type":[0],"sum_hessian":[1.7319135E4],"tree_param":{"num_deleted":"0","num_feature":"16","num_nodes":"1","size_leaf_vector":"1"}},{"base_weights":[-0E0],"categories":[],"categories_nodes":[],"categories_segments":[],"categories_sizes":[],"default_left":[0],"id":65,"left_children":[-1],"loss_changes":[0E0],"parents":[2147483647],"right_children":[-1],"split_conditions":[-0E0],"split_indices":[0],"split_type":[0],"sum_hessian":[1.7365762E4],"tree_param":{"num_deleted":"0","num_feature":"16","num_nodes":"1","size_leaf_vector":"1"}},{"base_weights":[-0E0],"categories":[],"categories_nodes":[],"categories_segments":[],"categories_sizes":[],"default_left":[0],"id":66,"left_children":[-1],"loss_changes":[0E0],"parents":[2147483647],"right_children":[-1],"split_conditions":[-0E0],"split_indices":[0],"split_type":[0],"sum_hessian":[1.739861E4],"tree_param":{"num_deleted":"0","num_feature":"16","num_nodes":"1","size_leaf_vector":"1"}},{"base_weights":[-0E0],"categories":[],"categories_nodes":[],"categories_segments":[],"categories_sizes":[],"default_left":[0],"id":67,"left_children":[-1],"loss_changes":[0E0],"parents":[2147483647],"right_children":[-1],"split_conditions":[-0E0],"split_indices":[0],"split_type":[0],"sum_hessian":[1.7385387E4],"tree_param":{"num_deleted":"0","num_feature":"16","num_nodes":"1","size_leaf_vector":"1"}},{"base_weights":[-0E0],"categories":[],"categories_nodes":[],"categories_segments":[],"categories_sizes":[],"default_left":[0],"id":68,"left_children":[-1],"loss_changes":[0E0],"parents":[2147483647],"right_children":[-1],"split_conditions":[-0E0],"split_indices":[0],"split_type":[0],"sum_hessian":[1.737342E4],"tree_param":{"num_deleted":"0","num_feature":"16","num_nodes":"1","size_leaf_vector":"1"}},{"base_weights":[-0E0],"categories":[],"categories_nodes":[],"categories_segments":[],"categories_sizes":[],"default_left":[0],"id":69,"left_children":[-1],"loss_changes":[0E0],"parents":[2147483647],"right_children":[-1],"split_conditions":[-0E0],"split_indices":[0],"split_type":[0],"sum_hessian":[1.7326191E4],"tree_param":{"num_deleted":"0","num_feature":"16","num_nodes":"1","size_leaf_vector":"1"}},{"base_weights":[4.2183526E-4,-4.5832281E-4,1.0443204E-2,1.7250905E-2,-0E0,2.1868085E-2,-0E0,-0E0,2.8240215E-2,3.219417E-2,-0E0,-0E0,1.1909761E-2],"categories":[],"categories_nodes":[],"categories_segments":[],"categories_sizes":[],"default_left":[0,0,0,0,0,0,0,0,0,0,0,0,0],"id":70,"left_children":[1,-1,3,5,-1,7,-1,-1,9,11,-1,-1,-1],"loss_changes":[1.233371E0,0E0,1.6802546E0,1.4469705E0,0E0,2.0081067E0,0E0,0E0,1.5879664E0,1.119091E0,0E0,0E0,0E0],"parents":[2147483647,0,0,2,2,3,3,5,5,8,8,9,9],"right_children":[2,-1,4,6,-1,8,-1,-1,10,12,-1,-1,-1],"split_conditions":[5.544498E0,-4.5832281E-4,6.5E0,3.5750977E1,-0E0,8.5E0,-0E0,-0E0,9.15E1,5.874198E0,-0E0,-0E0,1.1909761E-2],"split_indices":[10,0,7,12,0,13,0,0,5,8,0,0,0],"split_type":[0,0,0,0,0,0,0,0,0,0,0,0,0],"sum_hessian":[1.731415E4,6.3674746E3,1.0946675E4,9.488065E3,1.4586099E3,8.82904E3,6.5902527E2,1.1241605E3,7.7048794E3,7.3988604E3,3.0601935E2,1.0325189E3,6.3663413E3],"tree_param":{"num_deleted":"0","num_feature":"16","num_nodes":"13","size_leaf_vector":"1"}},{"base_weights":[-8.825748E-4],"categories":[],"categories_nodes":[],"categories_segments":[],"categories_sizes":[],"default_left":[0],"id":71,"left_children":[-1],"loss_changes":[0E0],"parents":[2147483647],"right_children":[-1],"split_conditions":[-2.8435225E-4],"split_indices":[0],"split_type":[0],"sum_hessian":[1.734409E4],"tree_param":{"num_deleted":"0","num_feature":"16","num_nodes":"1","size_leaf_vector":"1"}},{"base_weights":[-8.244685E-3,-1.7758006E-2,-0E0,-2.4434973E-2,-0E0,-0E0,-1.0320926E-2],"categories":[],"categories_nodes":[],"categories_segments":[],"categories_sizes":[],"default_left":[1,0,0,0,0,0,0],"id":72,"left_children":[1,3,-1,5,-1,-1,-1],"loss_changes":[2.015449E0,1.6243169E0,0E0,1.5056705E0,0E0,0E0,0E0],"parents":[2147483647,0,0,1,1,3,3],"right_children":[2,4,-1,6,-1,-1,-1],"split_conditions":[1.46E1,6.0575423E0,-0E0,1.333E3,-0E0,-0E0,-1.0320926E-2],"split_indices":[13,10,0,11,0,0,0],"split_type":[0,0,0,0,0,0,0],"sum_hessian":[1.73585E4,9.922752E3,7.4357476E3,7.8348545E3,2.0878975E3,1.921094E3,5.9137603E3],"tree_param":{"num_deleted":"0","num_feature":"16","num_nodes":"7","size_leaf_vector":"1"}},{"base_weights":[-0E0],"categories":[],"categories_nodes":[],"categories_segments":[],"categories_sizes":[],"default_left":[0],"id":73,"left_children":[-1],"loss_changes":[0E0],"parents":[2147483647],"right_children":[-1],"split_conditions":[-0E0],"split_indices":[0],"split_type":[0],"sum_hessian":[1.7323176E4],"tree_param":{"num_deleted":"0","num_feature":"16","num_nodes":"1","size_leaf_vector":"1"}},{"base_weights":[-0E0],"categories":[],"categories_nodes":[],"categories_segments":[],"categories_sizes":[],"default_left":[0],"id":74,"left_children":[-1],"loss_changes":[0E0],"parents":[2147483647],"right_children":[-1],"split_conditions":[-0E0],"split_indices":[0],"split_type":[0],"sum_hessian":[1.7387086E4],"tree_param":{"num_deleted":"0","num_feature":"16","num_nodes":"1","size_leaf_vector":"1"}},{"base_weights":[-0E0],"categories":[],"categories_nodes":[],"categories_segments":[],"categories_sizes":[],"default_left":[0],"id":75,"left_children":[-1],"loss_changes":[0E0],"parents":[2147483647],"right_children":[-1],"split_conditions":[-0E0],"split_indices":[0],"split_type":[0],"sum_hessian":[1.7384814E4],"tree_param":{"num_deleted":"0","num_feature":"16","num_nodes":"1","size_leaf_vector":"1"}},{"base_weights":[-4.3509123E-3,-4.0388745E-3,-0E0],"categories":[],"categories_nodes":[],"categories_segments":[],"categories_sizes":[],"default_left":[0,0,0],"id":76,"left_children":[1,-1,-1],"loss_changes":[1.1505392E0,0E0,0E0],"parents":[2147483647,0,0],"right_children":[2,-1,-1],"split_conditions":[8.62E1,-4.0388745E-3,-0E0],"split_indices":[5,0,0],"split_type":[0,0,0],"sum_hessian":[1.7262879E4,9.165201E3,8.0976777E3],"tree_param":{"num_deleted":"0","num_feature":"16","num_nodes":"3","size_leaf_vector":"1"}},{"base_weights":[-0E0],"categories":[],"categories_nodes":[],"categories_segments":[],"categories_sizes":[],"default_left":[0],"id":77,"left_children":[-1],"loss_changes":[0E0],"parents":[2147483647],"right_children":[-1],"split_conditions":[-0E0],"split_indices":[0],"split_type":[0],"sum_hessian":[1.7396709E4],"tree_param":{"num_deleted":"0","num_feature":"16","num_nodes":"1","size_leaf_vector":"1"}},{"base_weights":[-0E0],"categories":[],"categories_nodes":[],"categories_segments":[],"categories_sizes":[],"default_left":[0],"id":78,"left_children":[-1],"loss_changes":[0E0],"parents":[2147483647],"right_children":[-1],"split_conditions":[-0E0],"split_indices":[0],"split_type":[0],"sum_hessian":[1.735994E4],"tree_param":{"num_deleted":"0","num_feature":"16","num_nodes":"1","size_leaf_vector":"1"}},{"base_weights":[-0E0],"categories":[],"categories_nodes":[],"categories_segments":[],"categories_sizes":[],"default_left":[0],"id":79,"left_children":[-1],"loss_changes":[0E0],"parents":[2147483647],"right_children":[-1],"split_conditions":[-0E0],"split_indices":[0],"split_type":[0],"sum_hessian":[1.7355504E4],"tree_param":{"num_deleted":"0","num_feature":"16","num_nodes":"1","size_leaf_vector":"1"}},{"base_weights":[-0E0],"categories":[],"categories_nodes":[],"categories_segments":[],"categories_sizes":[],"default_left":[0],"id":80,"left_children":[-1],"loss_changes":[0E0],"parents":[2147483647],"right_children":[-1],"split_conditions":[-0E0],"split_indices":[0],"split_type":[0],"sum_hessian":[1.7425084E4],"tree_param":{"num_deleted":"0","num_feature":"16","num_nodes":"1","size_leaf_vector":"1"}},{"base_weights":[-0E0],"categories":[],"categories_nodes":[],"categories_segments":[],"categories_sizes":[],"default_left":[0],"id":81,"left_children":[-1],"loss_changes":[0E0],"parents":[2147483647],"right_children":[-1],"split_conditions":[-0E0],"split_indices":[0],"split_type":[0],"sum_hessian":[1.7457947E4],"tree_param":{"num_deleted":"0","num_feature":"16","num_nodes":"1","size_leaf_vector":"1"}},{"base_weights":[-0E0],"categories":[],"categories_nodes":[],"categories_segments":[],"categories_sizes":[],"default_left":[0],"id":82,"left_children":[-1],"loss_changes":[0E0],"parents":[2147483647],"right_children":[-1],"split_conditions":[-0E0],"split_indices":[0],"split_type":[0],"sum_hessian":[1.741604E4],"tree_param":{"num_deleted":"0","num_feature":"16","num_nodes":"1","size_leaf_vector":"1"}},{"base_weights":[-0E0],"categories":[],"categories_nodes":[],"categories_segments":[],"categories_sizes":[],"default_left":[0],"id":83,"left_children":[-1],"loss_changes":[0E0],"parents":[2147483647],"right_children":[-1],"split_conditions":[-0E0],"split_indices":[0],"split_type":[0],"sum_hessian":[1.7425867E4],"tree_param":{"num_deleted":"0","num_feature":"16","num_nodes":"1","size_leaf_vector":"1"}},{"base_weights":[-0E0],"categories":[],"categories_nodes":[],"categories_segments":[],"categories_sizes":[],"default_left":[0],"id":84,"left_children":[-1],"loss_changes":[0E0],"parents":[2147483647],"right_children":[-1],"split_conditions":[-0E0],"split_indices":[0],"split_type":[0],"sum_hessian":[1.7346514E4],"tree_param":{"num_deleted":"0","num_feature":"16","num_nodes":"1","size_leaf_vector":"1"}},{"base_weights":[-0E0],"categories":[],"categories_nodes":[],"categories_segments":[],"categories_sizes":[],"default_left":[0],"id":85,"left_children":[-1],"loss_changes":[0E0],"parents":[2147483647],"right_children":[-1],"split_conditions":[-0E0],"split_indices":[0],"split_type":[0],"sum_hessian":[1.7369986E4],"tree_param":{"num_deleted":"0","num_feature":"16","num_nodes":"1","size_leaf_vector":"1"}},{"base_weights":[-0E0],"categories":[],"categories_nodes":[],"categories_segments":[],"categories_sizes":[],"default_left":[0],"id":86,"left_children":[-1],"loss_changes":[0E0],"parents":[2147483647],"right_children":[-1],"split_conditions":[-0E0],"split_indices":[0],"split_type":[0],"sum_hessian":[1.7379994E4],"tree_param":{"num_deleted":"0","num_feature":"16","num_nodes":"1","size_leaf_vector":"1"}},{"base_weights":[-0E0],"categories":[],"categories_nodes":[],"categories_segments":[],"categories_sizes":[],"default_left":[0],"id":87,"left_children":[-1],"loss_changes":[0E0],"parents":[2147483647],"right_children":[-1],"split_conditions":[-0E0],"split_indices":[0],"split_type":[0],"sum_hessian":[1.7404299E4],"tree_param":{"num_deleted":"0","num_feature":"16","num_nodes":"1","size_leaf_vector":"1"}},{"base_weights":[-0E0],"categories":[],"categories_nodes":[],"categories_segments":[],"categories_sizes":[],"default_left":[0],"id":88,"left_children":[-1],"loss_changes":[0E0],"parents":[2147483647],"right_children":[-1],"split_conditions":[-0E0],"split_indices":[0],"split_type":[0],"sum_hessian":[1.7377035E4],"tree_param":{"num_deleted":"0","num_feature":"16","num_nodes":"1","size_leaf_vector":"1"}},{"base_weights":[-0E0,6.836558E-3,-2.876414E-3,1.4175264E-2,-0E0,-0E0,2.1794813E-2,2.6616622E-2,-0E0,2.9900143E-2,-0E0,1.02658495E-2,-0E0],"categories":[],"categories_nodes":[],"categories_segments":[],"categories_sizes":[],"default_left":[0,0,0,0,0,0,0,0,0,0,0,0,0],"id":89,"left_children":[1,3,-1,5,-1,-1,7,9,-1,11,-1,-1,-1],"loss_changes":[8.962173E-1,1.8581066E0,0E0,2.4588299E0,0E0,0E0,1.8964739E0,1.0952945E0,0E0,8.6762905E-1,0E0,0E0,0E0],"parents":[2147483647,0,0,1,1,3,3,6,6,7,7,9,9],"right_children":[2,4,-1,6,-1,-1,8,10,-1,12,-1,-1,-1],"split_conditions":[1E0,6.4166665E0,-2.876414E-3,5E-1,-0E0,-0E0,1.18E1,2.9135702E1,-0E0,2.331E3,-0E0,1.02658495E-2,-0E0],"split_indices":[4,7,0,14,0,0,14,12,0,11,0,0,0],"split_type":[0,0,0,0,0,0,0,0,0,0,0,0,0],"sum_hessian":[1.7342387E4,1.5771768E4,1.5706195E3,1.2710078E4,3.0616897E3,2.3117866E3,1.0398291E4,9.560748E3,8.375428E2,8.745716E3,8.15033E2,8.5238545E3,2.2186069E2],"tree_param":{"num_deleted":"0","num_feature":"16","num_nodes":"13","size_leaf_vector":"1"}},{"base_weights":[-1.0826962E-4],"categories":[],"categories_nodes":[],"categories_segments":[],"categories_sizes":[],"default_left":[0],"id":90,"left_children":[-1],"loss_changes":[0E0],"parents":[2147483647],"right_children":[-1],"split_conditions":[-3.4882833E-5],"split_indices":[0],"split_type":[0],"sum_hessian":[1.73721E4],"tree_param":{"num_deleted":"0","num_feature":"16","num_nodes":"1","size_leaf_vector":"1"}},{"base_weights":[-0E0],"categories":[],"categories_nodes":[],"categories_segments":[],"categories_sizes":[],"default_left":[0],"id":91,"left_children":[-1],"loss_changes":[0E0],"parents":[2147483647],"right_children":[-1],"split_conditions":[-0E0],"split_indices":[0],"split_type":[0],"sum_hessian":[1.7349271E4],"tree_param":{"num_deleted":"0","num_feature":"16","num_nodes":"1","size_leaf_vector":"1"}},{"base_weights":[-0E0],"categories":[],"categories_nodes":[],"categories_segments":[],"categories_sizes":[],"default_left":[0],"id":92,"left_children":[-1],"loss_changes":[0E0],"parents":[2147483647],"right_children":[-1],"split_conditions":[-0E0],"split_indices":[0],"split_type":[0],"sum_hessian":[1.7373842E4],"tree_param":{"num_deleted":"0","num_feature":"16","num_nodes":"1","size_leaf_vector":"1"}},{"base_weights":[-7.904223E-3,-0E0,-4.067409E-3],"categories":[],"categories_nodes":[],"categories_segments":[],"categories_sizes":[],"default_left":[0,0,0],"id":93,"left_children":[1,-1,-1],"loss_changes":[1.2525598E0,0E0,0E0],"parents":[2147483647,0,0],"right_children":[2,-1,-1],"split_conditions":[5.26595E0,-0E0,-4.067409E-3],"split_indices":[10,0,0],"split_type":[0,0,0],"sum_hessian":[1.733087E4,2.8408645E3,1.4490004E4],"tree_param":{"num_deleted":"0","num_feature":"16","num_nodes":"3","size_leaf_vector":"1"}},{"base_weights":[1.8297863E-3,8.3686635E-3,-0E0,-0E0,1.850428E-2,-0E0,2.9417835E-2,3.8108643E-2,-0E0,-0E0,4.577179E-2,1.6043495E-2,-0E0],"categories":[],"categories_nodes":[],"categories_segments":[],"categories_sizes":[],"default_left":[0,0,0,0,1,0,0,0,0,0,0,0,0],"id":94,"left_children":[1,3,-1,-1,5,-1,7,9,-1,-1,11,-1,-1],"loss_changes":[9.8478293E-1,1.5666317E0,0E0,0E0,2.9869826E0,0E0,2.9929023E0,1.684741E0,0E0,0E0,1.4460735E0,0E0,0E0],"parents":[2147483647,0,0,1,1,4,4,6,6,7,7,10,10],"right_children":[2,4,-1,-1,6,-1,8,10,-1,-1,12,-1,-1],"split_conditions":[1.7E1,6.457416E0,-0E0,-0E0,-5.7788405E0,-0E0,9.04E1,8.34E1,-0E0,-0E0,2.217E3,1.6043495E-2,-0E0],"split_indices":[13,8,0,0,12,0,5,5,0,0,11,0,0],"split_type":[0,0,0,0,0,0,0,0,0,0,0,0,0],"sum_hessian":[1.7400357E4,1.4638112E4,2.7622441E3,7.281914E3,7.3561987E3,1.1560413E3,6.2001577E3,5.6472544E3,5.5290314E2,1.0107015E3,4.6365527E3,4.459072E3,1.7748094E2],"tree_param":{"num_deleted":"0","num_feature":"16","num_nodes":"13","size_leaf_vector":"1"}},{"base_weights":[-4.069532E-3],"categories":[],"categories_nodes":[],"categories_segments":[],"categories_sizes":[],"default_left":[0],"id":95,"left_children":[-1],"loss_changes":[0E0],"parents":[2147483647],"right_children":[-1],"split_conditions":[-1.3111415E-3],"split_indices":[0],"split_type":[0],"sum_hessian":[1.7335318E4],"tree_param":{"num_deleted":"0","num_feature":"16","num_nodes":"1","size_leaf_vector":"1"}},{"base_weights":[-0E0],"categories":[],"categories_nodes":[],"categories_segments":[],"categories_sizes":[],"default_left":[0],"id":96,"left_children":[-1],"loss_changes":[0E0],"parents":[2147483647],"right_children":[-1],"split_conditions":[-0E0],"split_indices":[0],"split_type":[0],"sum_hessian":[1.7386236E4],"tree_param":{"num_deleted":"0","num_feature":"16","num_nodes":"1","size_leaf_vector":"1"}},{"base_weights":[-2.8164736E-3,-0E0,-8.549831E-3,-1.7297547E-2,-0E0,-0E0,-2.2966107E-2,-0E0,-2.8407145E-2,-0E0,-3.207917E-2,-1.14279E-2,-0E0],"categories":[],"categories_nodes":[],"categories_segments":[],"categories_sizes":[],"default_left":[1,0,0,0,0,0,1,0,0,0,0,0,0],"id":97,"left_children":[1,-1,3,5,-1,-1,7,-1,9,-1,11,-1,-1],"loss_changes":[8.647425E-1,0E0,1.4069867E0,1.0542245E0,0E0,0E0,1.3702977E0,0E0,1.1419988E0,0E0,1.0903172E0,0E0,0E0],"parents":[2147483647,0,0,2,2,3,3,6,6,8,8,10,10],"right_children":[2,-1,4,6,-1,-1,8,-1,10,-1,12,-1,-1],"split_conditions":[6.113016E0,-0E0,8.66E1,5.2901998E0,-0E0,-0E0,-1.2325E1,-0E0,-2.57725E0,-0E0,1.88E1,-1.14279E-2,-0E0],"split_indices":[8,0,5,10,0,0,6,0,9,0,13,0,0],"split_type":[0,0,0,0,0,0,0,0,0,0,0,0,0],"sum_hessian":[1.7347354E4,3.8740957E3,1.3473257E4,7.791622E3,5.681635E3,1.4888196E3,6.3028027E3,5.779455E2,5.724857E3,1.8370607E2,5.541151E3,5.350196E3,1.909551E2],"tree_param":{"num_deleted":"0","num_feature":"16","num_nodes":"13","size_leaf_vector":"1"}},{"base_weights":[-1.2236005E-3],"categories":[],"categories_nodes":[],"categories_segments":[],"categories_sizes":[],"default_left":[0],"id":98,"left_children":[-1],"loss_changes":[0E0],"parents":[2147483647],"right_children":[-1],"split_conditions":[-3.9422556E-4],"split_indices":[0],"split_type":[0],"sum_hessian":[1.7360764E4],"tree_param":{"num_deleted":"0","num_feature":"16","num_nodes":"1","size_leaf_vector":"1"}},{"base_weights":[-1.1139082E-3,-0E0,-1.107261E-2,-0E0,-1.780305E-2,-0E0,-2.3177668E-2,-3.0219827E-2,-0E0,-0E0,-3.3883832E-2,-0E0,-1.2041282E-2],"categories":[],"categories_nodes":[],"categories_segments":[],"categories_sizes":[],"default_left":[0,0,0,0,0,0,0,1,0,0,0,0,0],"id":99,"left_children":[1,-1,3,-1,5,-1,7,9,-1,-1,11,-1,-1],"loss_changes":[1.1465338E0,0E0,1.3974199E0,0E0,1.3749905E0,0E0,1.6074915E0,1.1230068E0,0E0,0E0,9.970412E-1,0E0,0E0],"parents":[2147483647,0,0,2,2,4,4,6,6,7,7,10,10],"right_children":[2,-1,4,-1,6,-1,8,10,-1,-1,12,-1,-1],"split_conditions":[1.67E3,-0E0,1.21E1,-0E0,8.15E1,-0E0,8.95E1,-1.4327272E1,-0E0,-0E0,-2.5525346E0,-0E0,-1.2041282E-2],"split_indices":[11,0,13,0,5,0,5,6,0,0,9,0,0],"split_type":[0,0,0,0,0,0,0,0,0,0,0,0,0],"sum_hessian":[1.7299281E4,8.037815E3,9.261466E3,1.4342435E3,7.827222E3,7.595171E2,7.067705E3,5.8073994E3,1.2603054E3,2.647361E2,5.5426636E3,3.2072635E2,5.221937E3],"tree_param":{"num_deleted":"0","num_feature":"16","num_nodes":"13","size_leaf_vector":"1"}}]},"name":"gbtree"},"learner_model_param":{"base_score":"5.457072E-1","boost_from_average":"1","num_class":"0","num_feature":"16","num_target":"1"},"objective":{"name":"binary:logistic","reg_loss_param":{"scale_pos_weight":"1"}}},"version":[2,1,4]}